143024.4743902989,843.0995867192374,64.90214352642153,-0.04174170977067931,840.5969565834212
143024.4743902989,24.065029243458078,6.55916111855147,-0.13896679664831182,23.12366739932065
143024.4743902989,234.3728419222849,18.033675361805713,-0.25040413703861736,233.6749305109495
143024.4743902989,35.58892031384461,11.137416260992016,0.034234334221882205,-33.78088666687914
143024.4743902989,393.9019851617351,16.1282527374294,0.13952500714899616,393.56988474554475
143024.4743902989,211.93811163576223,22.519904479950327,0.09191754200879097,-210.73497309409225
143024.4743902989,48.19983814079166,22.832343843757815,-0.22045983197423918,-42.43206495937967
143024.4743902989,102.72745783159684,19.968335207157956,0.3951941517445807,100.76041023653643
143024.4743902989,975.8115365553494,16.06423938548923,-0.2561201051935624,975.6785586235995
143024.4743902989,78.35521397783218,20.963507155990282,0.4254671397138812,75.48847707300256
143024.4743902989,14.939364740507747,8.55797492221178,-0.0530552671046801,-12.188647877223822
143024.4743902989,31.109977697108604,13.510958044668229,-0.13885364452506305,27.997959078311613
143024.4743902989,12.537981217475423,7.3884025046481945,-0.4427098073979889,10.051704199841357
143024.4743902989,13.761631007666642,10.261724759559687,0.1964968082424487,-9.09181773960313
143024.4743902989,126.96027532338957,24.927084964581695,-0.21340749490345873,124.48343934217165
143024.4743902989,43.4436263331489,26.31057369588989,-0.2970666269606019,34.549014458333865
143024.4743902989,370.9331042690002,29.998147452384835,0.1049324438647011,369.7162266510624
143024.4743902989,98.99658080560445,38.63161709695769,0.331424389748793,-91.13962693254837
143024.4743902989,30.302244669274934,14.26009558185023,0.11229819307072567,-26.711109354808357
143024.4743902989,20.415089102629363,16.791505585955772,-0.05019756611940773,-11.551577869930506
143024.4743902989,44.1798231249831,19.788411241588083,-0.033956890608192986,-39.482840154600865
143024.4743902989,64.12927899785562,38.74713262837429,0.04689274817840524,-51.0866147517111
143024.4743902989,83.80435159858459,15.180935164252176,0.009201458717480198,-82.40951848898717
143024.4743902989,22.76600709082121,12.913148494984663,0.19365751201718076,18.711612421954353
143024.4743902989,12.869106129258862,11.02455082932846,0.2160570153447581,-6.530448590977619
143024.4743902989,66.5892117976958,43.8917902994428,-0.3295294276155362,-50.06141778216096
143024.4743902989,107.46447955321378,23.264745277048835,-0.3915403021725356,104.90868866249596
143024.4743902989,20.533927867226332,17.999030250418045,-0.20789208172138576,-9.810920060776564
143024.4743902989,18.344163058035353,15.748991393046227,0.028809634288610508,9.33257875734874
143024.4743902989,226.9415053594673,18.685955674867948,-0.3166081226869375,-226.16764123651782
143024.4743902989,12.82142058808035,12.554670133050907,-0.005634265252675156,2.3214908695459746
143024.4743902989,236.54274692757545,15.010600535160961,-0.0452261294399849,-236.0630661879779
143024.4743902989,159.49893912452214,34.453771880172944,-0.33846666289726696,155.7284652632611
143024.4743902989,19.213949652920576,18.161410446285153,-0.0342054259662868,6.161016938052168
143024.4743902989,400.45748952854626,19.230635169253482,-0.0626922129809677,399.99374986121325
143024.4743902989,275.9471193539113,36.1449942593322,0.03523632433475851,-273.5671235656282
143024.4743902989,131.26456283099887,33.50606086479928,-0.06063890865973297,126.91077941339724
143024.4743902989,34.91934091009931,32.507821691842366,-0.10270992242417885,12.696913679101462
143024.4743902989,63.92244727271729,63.707057231168754,-0.08578193207176425,5.10911279907195
143024.4743902989,28.601630602074792,24.081041311490118,0.10660102829144183,15.387190338986986
143024.4743902989,54.68888858569479,29.881194071918067,-0.11047914886308047,-45.78861035004417
143024.4743902989,69.35202310489382,29.089353637209026,0.2030969980622799,-62.94514781280683
143024.4743902989,34.506286553917576,5.526986361416093,-0.16655719788235282,34.040105171065896
143024.4743902989,67.03779913105447,6.165920793355815,-0.2689088250331169,66.74275907546144
143024.4743902989,208.05056089680755,20.83515764009378,-0.33380702693083264,-207.00106506081806
143024.4743902989,155.57344131788028,22.0009441117122,-0.29697923720052183,-154.00514982580788
143024.4743902989,17.854113081158594,12.350069710721314,-0.04935813070991163,-12.839897339373675
143024.4743902989,31.11321324673286,8.672127589540194,-0.3889699871251455,-29.854567687577134
143024.4743902989,1363.2068787143523,23.705789481036597,0.25639754464768544,-1363.0002143240342
143024.4743902989,20.734718276939873,20.700303000034765,0.21152953126150692,0.03899799764353465
143024.4743902989,7.672440604517624,1.375394967993755,-0.3527502627898247,7.447849932669826
143024.4743902989,44.86185600853034,40.5396803095447,0.07599236636883355,-19.176416191402332
143024.4743902989,49.78558391622403,27.08116756815003,-0.2830811437824145,-41.758290936612795
143024.4743902989,251.66931867779053,28.358616603957557,0.12267215564925621,250.06367198665794
143024.4743902989,319.0125111850829,23.134400931332376,0.30916198542969653,318.17024762363206
143024.4743902989,70.91690516552802,12.387025214935159,0.04021608695599246,-69.8168152747102
143024.4743902989,18.89018255814337,15.501187099776086,-0.10130429642976926,-10.731365284661795
143024.4743902989,35.929105351290325,21.56791483656074,-0.17098795686861057,-28.71091590181665
143024.4743902989,75.34273263835969,14.723075686615802,0.027546784329569564,73.88083589654225
143024.4743902989,1304.5604739677365,19.067473415609914,-0.14898709203958688,1304.4205839249746
143024.4743902989,146.79190320357614,16.539849483095452,0.0970234683738414,145.8523468426435
143024.4743902989,27.09507223645348,22.449422180279083,-0.1349143523159981,-15.125093363128864
143024.4743902989,19.226704363358813,18.893463327001083,-0.3522135244392376,-3.3465531037275107
143024.4743902989,151.52478411550234,26.447953245189133,0.09174831949207772,149.19409445581738
143024.4743902989,13.996894786195812,13.239576883174172,0.19058320437280138,-4.382991388100884
143024.4743902989,480.9657497114129,22.32339659499719,-0.21082915032963817,-480.44593262806274
143024.4743902989,130.46957748717784,20.703312268261673,0.21790098601422284,-128.81093236919546
143024.4743902989,44.27296931666571,4.153517650957218,-0.03832278177138973,-44.06203470628209
143024.4743902989,551.5307696502306,15.330867813972,-0.13259849321380265,-551.3163856158651
143024.4743902989,25.280488354549647,18.87984016121043,-0.07781867638007549,-16.771074474847236
143024.4743902989,137.45025031722008,19.291758417885877,-0.07861540083295346,136.08458199548818
143024.4743902989,22.86128126166189,15.97115613309481,-0.16155155039064079,-16.31424290763404
143024.4743902989,103.39056780840603,15.943234334126544,-0.3039677820562827,102.14671146030501
143024.4743902989,26.916958152629462,26.23755822960056,0.08769497830692656,5.892855995619222
143024.4743902989,35.949872617920995,7.990085851887589,0.14332302854437495,-35.03072359642747
143024.4743902989,153.2444388252322,43.70410248651548,0.3233516421066821,146.87520270038655
143024.4743902989,161.525417432889,22.419952588565515,0.18598682648701056,159.957468970822
143024.4743902989,59.998160005681704,25.760043038208245,-0.06534605343962814,-54.17393639459793
143024.4743902989,113.18716120124004,56.68803284444839,0.07400348314504591,-97.9612943175126
143024.4743902989,43.11040440990983,16.982291557949175,-0.2803117805736602,-39.6061918768777
143024.4743902989,38.38493002689564,38.292968342740146,-0.34169869082150045,-2.356891709830245
143024.4743902989,7.745156902101241,4.8445424860072865,0.15942056620067663,5.925598406752611
143024.4743902989,1194.902432005369,29.9005887133184,0.07965495094593154,-1194.5276852086297
143024.4743902989,269.3554150430362,21.830558278157202,0.10798640973612263,268.46671105569345
143024.4743902989,30.90354993499888,23.448759760435046,-0.23001806823466142,20.093591610915574
143024.4743902989,28.44327232387161,27.749773697763317,-0.17226714926629988,-6.128653367398762
143024.4743902989,18.678415700117245,17.870639700536252,-0.1364681885616961,-5.303309725927271
143024.4743902989,185.5524701619325,17.678920717131447,0.19377811935508005,-184.70451446396288
143024.4743902989,830.1514074489326,18.29821022701088,0.2335867639072902,-829.9488541452486
143024.4743902989,2593.078089629408,29.50709203258828,0.062340040642214274,-2592.9099341892797
143024.4743902989,267.5730000126624,21.863252136839552,0.46874424171410517,-266.67528773485685
143024.4743902989,20.622346224653008,20.588708415150492,0.007059493789793881,0.08042154262902106
143024.4743902989,34.17844789408286,5.33215244361919,0.1676307933524394,-33.73909629108733
143024.4743902989,33.45431157095655,14.334937652692119,-0.04853047020744239,30.204609546046584
143024.4743902989,128.5380522571263,23.664331817904454,0.2886656951418563,126.33513849139479
143024.4743902989,9.046198359562883,4.6476279175703565,0.13729026560989327,7.670376701241443
143024.4743902989,544.2983900172836,23.598821218462245,-0.1729040740966792,-543.7852732324983
143024.4743902989,33.12018293358158,20.27467244437142,0.11544998051681217,26.162781082770117
143024.4743902989,69.59401052817051,47.168730231960964,-0.15152307159739156,51.156959431869815
143024.4743902989,39.618140417958124,37.12372574889696,-0.0667911479281746,-13.785566491656802
143024.4743902989,13.41530942291784,13.35837724029337,0.23099165229466265,0.30198531555446395
143024.4743902989,33.8664423912279,13.058045234810074,-0.2646879333901471,-31.224566979183717
143024.4743902989,59.30959123026801,24.353480535212018,-0.16874221627771638,54.065954089820515
143024.4743902989,28.29492863575004,23.272764499914167,0.2144947867024358,-16.048541331716116
143024.4743902989,36.25012627425447,15.103322194357379,-0.040612791047619654,32.93296117948748
143024.4743902989,224.90386255710843,23.831286959786116,0.03639503704626302,223.63460398204015
143024.4743902989,78.73843402642414,14.57376425649906,-0.0368931748555931,77.36902025409645
143024.4743902989,227.16274274304342,21.84059679161757,0.2893837740209204,-226.10713510903423
143024.4743902989,32.23591079175629,30.969070565199655,0.11004461384134397,8.870105463878009
143024.4743902989,213.2577138709616,15.11581382825831,-0.27366260635480344,-212.7179119736085
143024.4743902989,33.812250554463915,22.455096914105532,-0.3773818651765325,-25.249054653974866
143024.4743902989,526.3233767622186,45.37070622230498,0.06755105564632478,524.3628625751293
143024.4743902989,53.16188483266185,37.94000684767757,-0.27111777268344966,-37.21946590654297
143024.4743902989,89.01393012845827,18.428450702965026,-0.33384147184882135,-87.07686707346396
143024.4743902989,447.5927368796922,23.61999866575738,0.44243033858586894,-446.967312332495
143024.4743902989,16.76762195508779,15.088315227637873,-0.07098207445284463,7.2188031570946425
143024.4743902989,31.708524669928295,30.200065215059524,-0.35778720471771247,-9.585345790389766
143024.4743902989,67.46925168539664,9.412223875942292,0.07408021924021559,66.79913730485788
143024.4743902989,14.252795146644681,14.170963969720896,0.16835517736654462,0.9580574361406169
143024.4743902989,22.048941374550047,21.363171875091222,0.003921958239398911,-5.328316398966935
143024.4743902989,66.54415775929444,17.55769362663599,-0.03884628781468599,-64.17531523279473
143024.4743902989,73.79428756960647,27.04327596558902,0.35057779972355385,68.64951176823266
143024.4743902989,79.67186508565048,37.419771504881105,0.17608418444395504,70.3274914166869
143024.4743902989,35.9504883343621,25.849909826764495,0.3981769720264834,-24.953586844014957
143024.4743902989,38.85292327812906,12.497667150074546,-0.1437359457573385,-36.76897565741569
143024.4743902989,517.899308586757,23.75152222507679,0.021765703321367055,517.353050460459
143024.4743902989,24.777143808025663,9.473630755797927,-0.09802678341250078,22.864116737624435
143024.4743902989,10.883446787576238,10.752605282043728,0.04983271710692186,-1.2036104778850185
143024.4743902989,17.021022393138644,14.060124171198632,0.406564445871636,-9.512259710770948
143024.4743902989,297.7021424253164,27.567868246917644,0.42994333654256345,296.42033273972106
143024.4743902989,146.23159305270386,24.14228853991573,-0.019989308171930363,-144.22013929777697
143024.4743902989,32.397994476390984,24.629269934464162,0.1773429347556447,-21.01470737190154
143024.4743902989,29.525271454105702,25.744614383592953,0.33997875052618504,-14.40351231413778
143024.4743902989,16.571139968619576,10.638100943221918,-0.06243037025377942,12.651081316862683
143024.4743902989,250.24080173527878,25.6248594889637,-0.05485541970195194,-248.9225636378199
143024.4743902989,626.6806605572506,24.099634993694913,-0.011653099725226539,-626.2159995095171
143024.4743902989,591.070586380707,18.347686341125602,0.16235192342281593,-590.7845583629187
143024.4743902989,27.697338959121314,15.914864917914247,-0.2523472404642932,-22.636613014910864
143024.4743902989,15.425138958490308,12.640233500642141,-0.33809330890075917,8.755876295840187
143024.4743902989,475.06615498315733,37.19434249734847,-0.21063806772429525,473.6063855103003
143024.4743902989,46.50186019142775,18.93911730144523,-0.08066349056743441,42.454052790777
143024.4743902989,21.16800933546822,20.494795788742284,-0.41914386435226025,-5.147091516652582
143024.4743902989,155.62210021773524,40.185396262483536,0.3858431391283168,-150.33909470371836
143024.4743902989,32.29351899128269,29.02393056662703,-0.17365740838898805,14.109320829297927
143024.4743902989,192.38057691609845,75.42003218771131,-0.14961443974060193,-176.9765606026699
143024.4743902989,111.06190915567187,16.73053786022269,-0.3463575101765634,-109.78769089720902
143024.4743902989,425.8089721092387,37.13033132905859,-0.4120803222368648,424.1851832416879
143024.4743902989,26.200184469951807,12.727108178223787,-0.03474156120522694,-22.87114873719328
143024.4743902989,460.36016077832414,17.62608984260759,0.19009775089559394,460.02106769082366
143024.4743902989,77.40591088330072,23.224396812409942,0.405052210016722,73.82925323295623
143024.4743902989,11.402528436937374,4.944933944762552,0.32325276695576116,-10.202012475063732
143024.4743902989,1199.229592780665,15.545064424914623,0.0270947246405134,-1199.1282611575111
143024.4743902989,1.6699784276471747,0.5187307301771262,0.26577582683649265,-1.0341070756194517
143024.4743902989,48.581381492123036,33.94799040819117,0.28069230184627086,-34.73076524662016
143024.4743902989,117.17878421862554,20.64892993070285,-0.07822684733994098,115.33907972620592
143024.4743902989,45.66501642415828,45.488889631115306,0.2709501071154134,-3.821190788473046
143024.4743902989,90.15601515063011,21.34045079087359,0.06592736068883928,-87.58600430046837
143024.4743902989,135.80504351181668,7.129375974739631,0.1525547913478247,135.61260574278657
143024.4743902989,280.3216648496249,21.950090197794857,0.4315759420568262,279.4581602573737
143024.4743902989,46.2825151853189,33.91236454583665,0.24769024079028829,31.47350727500468
143024.4743902989,27.984013809360597,27.85052538119136,0.17753378910621392,-2.458050952162259
143024.4743902989,56.16484511824912,29.76384701501322,0.3569553674508277,47.614032477254526
143024.4743902989,310.008551042235,31.243870598687707,-0.35593276937897617,-308.42765091515025
143024.4743902989,132.0148466555805,30.9435011938954,0.226769063638078,-128.331556193351
143024.4743902989,363.17557171367037,27.38462240759282,-0.15595443016128535,-362.1397165338486
143024.4743902989,82.61834107240247,31.761373518638948,-0.1224580134889812,76.2601514924791
143024.4743902989,65.949941262004,24.41467806296669,-0.44888339976314906,-61.25142462908505
143024.4743902989,88.48680740665172,13.173341393002767,-0.05051031104361195,-87.49283329581543
143024.4743902989,195.18937894003452,19.27625449614119,0.1318945956627288,194.2316208429194
143024.4743902989,121.84301323601468,23.1770438838589,-0.07493783247378105,-119.61253765142766
143024.4743902989,452.25250154849164,19.60753915964523,-0.41858838308135055,451.8255355959782
143024.4743902989,32.4793421104661,32.456722039769495,0.21557941010300333,-0.2065229657384101
143024.4743902989,17.731826234129656,16.35421292240622,0.3449294813184475,6.742304709406682
143024.4743902989,164.2537090531365,17.189982138930613,0.40476400780668487,163.34699839828477
143024.4743902989,147.3073464138553,18.396786558347316,-0.43767065813908246,-146.14869573167178
143024.4743902989,29.53804848477064,25.663177006000442,-0.4315233857267724,14.571606283128922
143024.4743902989,32.601297408280274,25.2115281314926,-0.01834567425952957,20.635972796791897
143024.4743902989,16.492439435106263,10.024037153475655,0.17119664041945923,-13.04262999675667
143024.4743902989,622.8527130437865,8.864995729474842,0.06988329504715077,-622.7885109576946
143024.4743902989,18.40937380372053,17.66178625089822,-0.16917095792192008,5.055491995373944
143024.4743902989,58.26126817648458,39.04190130443349,-0.0029188285504637103,-43.2287586151068
143024.4743902989,61.67325045032637,43.87371077901719,-0.003449747308126139,-43.32790762940989
143024.4743902989,51.32266997789204,33.316647401624245,0.4828087194326528,-39.018003833762506
143024.4743902989,163.12937909793723,50.119680294978096,0.28389124264590776,155.23450533185473
143024.4743902989,129.71436495267776,16.168824629902154,0.40838392090458586,128.696694112913
143024.4743902989,58.95483169459889,31.736995797245324,0.3029424310987486,-49.668539052836586
143024.4743902989,33.99194698208999,32.00121793293449,0.28224517558778306,-11.398031231686744
143024.4743902989,11.219524382186263,8.952332362747969,-0.2703262839544835,6.654371809958534
143024.4743902989,11.948787721715286,5.691668853003486,-0.03899600897387376,10.440171495394512
143024.4743902989,24.612854450186656,24.33480318521649,-0.12157769396052738,-3.4950600628289297
143024.4743902989,51.05586120232987,29.399716417630987,-0.11393704734159754,-41.724871765881964
143024.4743902989,153.90098971819788,24.614943136604914,-0.12090846690309466,-151.91518969352862
143024.4743902989,568.1226136714188,22.512320955388716,-0.10914523635464869,-567.6751781831038
143024.4743902989,1431.7218792859003,17.597445213538734,-0.2674977985236353,-1431.613222298778
143024.4743902989,21.835183161183522,14.031215189762513,0.05982782663091233,16.68882597631633
143024.4743902989,28.966475809197426,17.346441798466376,-0.04069594705519525,-23.16843303792321
143024.4743902989,222.27030123831415,24.47954768000068,-0.34734099411150005,220.91477583005374
143024.4743902989,114.99198256726211,19.533241291537475,0.42970446536643164,-113.31391865664224
143024.4743902989,28.400724659942316,18.086673396909294,0.16975533388036357,-21.864694318137822
143024.4743902989,79.57082922332418,15.411512718520825,0.3763796822966798,-78.0543448195208
143024.4743902989,32.08744381003013,20.685659931988823,0.2592758652995658,24.50021565866771
143024.4743902989,35.256225882947135,30.271652469885073,0.02923795537213245,18.03463149746782
143024.4743902989,26.64157572018107,25.14594680406566,-0.20406099887927895,8.719721506193752
143024.4743902989,85.56559449078537,32.413851340072725,-0.15873176168185296,79.1795950605244
143024.4743902989,299.0119711218136,14.961518712990816,-0.1365656337525789,298.6350840903265
143024.4743902989,1205.757274948741,7.766437401810604,0.1293819045744412,1205.731683282013
143024.4743902989,419.0788066370143,27.262158856232315,-0.02747497306722287,-418.18947904004364
143024.4743902989,220.66778090500895,26.33495008944739,-0.12073058316773423,-219.08752959789666
143024.4743902989,277.6832283471297,17.726200644219695,-0.13333656034899538,-277.1143439182143
143024.4743902989,23.580075698301588,23.251746756045474,0.15104060058263766,-3.73814089126365
143024.4743902989,19.9546220095622,4.811418937512586,-0.06291563966228039,-19.33011890367297
143024.4743902989,143.90908442364127,4.3252569854154945,0.13855084783652014,-143.839208156813
143024.4743902989,28.51655473591462,24.652965484553032,0.357584799861669,-14.279971561258776
143024.4743902989,225.9569560062847,31.355600322051796,0.25254635652208957,-223.7675775984162
143024.4743902989,76.49507452287679,40.57286344576618,-0.45213213279285946,64.8363711389046
143024.4743902989,584.3203196741183,14.041736355178262,-0.31896568465258174,-584.150309554778
143024.4743902989,60.097731122495574,42.17986329871736,0.07859415569171455,-42.79264550115569
143024.4743902989,150.70623785675767,38.662716376902466,0.07645054502686388,-145.65774581005496
143024.4743902989,50.53593894532126,31.08426068919357,0.17383670381108118,39.82762748579811
143024.4743902989,853.167747173152,26.842037274900207,0.21440901719027128,852.7445597293913
143024.4743902989,350.67155862411335,20.656227628818833,-0.057769341859625255,-350.06067933798295
143024.4743902989,30.006566093330353,28.221535467658246,0.44294805418072003,-10.117460622014201
143024.4743902989,17.628008115291003,17.505118650446057,-0.08992092343123861,-1.7116288235772696
143024.4743902989,24.65823248888244,23.32186698758932,0.15600154471776456,-7.91927276096831
143024.4743902989,3.4249614521181226,0.24926037155017178,0.21789616271945952,-3.2001592669024896
143024.4743902989,137.0351851823502,10.832838147758011,0.05329821340177386,-136.60127752982962
143024.4743902989,622.9652238516627,15.507159836071759,-0.09572834319116269,-622.7710728881926
143024.4743902989,73.86233589413608,14.004839410613542,-0.19269664889329938,-72.51270421573184
143024.4743902989,20.312279790133385,15.436204068962889,-0.30880281699418677,13.146757124470327
143024.4743902989,48.94283927064807,40.35415626072102,-0.18431458048090657,27.668210718238072
143024.4743902989,22.204848264168863,7.540654617597024,-0.16042620777853328,20.851578972834005
143024.4743902989,97.52990310339233,14.354111725139404,-0.042953662182108554,-96.46066503387698
143024.4743902989,12.089499130397614,3.806220853495915,-0.25475391202833114,-11.411574840406724
143024.4743902989,30.80635608662572,30.464154647052183,0.19045724770301792,4.421634411489469
143024.4743902989,552.97057420317,19.074080377095882,0.23905495384792477,552.6402071085096
143024.4743902989,61.35441245905502,26.29002174324135,0.22693066710537602,-55.42352799365689
143024.4743902989,480.58005904931343,5.801337872936924,-0.4760158861576839,-480.54337089534096
143024.4743902989,234.65738052825571,26.15051741964383,0.16705332536785358,-233.1926864979037
143024.4743902989,441.5912672583412,36.661257111432356,0.4592714078688692,-440.0650052929302
143024.4743902989,66.23438145972062,33.706600781733364,0.2338890049773156,-57.00371843030581
143024.4743902989,29.521697609864212,29.367553620604202,-0.19962489087177968,-2.767280590714246
143024.4743902989,67.77399423783655,19.145860627513343,0.07643442407667157,65.00280564265323
143024.4743902989,350.08622841946914,2.807206962816985,-0.020634230204316924,-350.0730020440319
143024.4743902989,21.02528098991539,14.91794270274031,0.2177114593366319,-14.76788054524847
143024.4743902989,166.19186798630628,12.35443072661659,-0.20940436994053124,-165.72773287493115
143024.4743902989,53.65417909275223,13.081347210178821,0.34454694386231466,-52.0206770865485
143024.4743902989,496.5335121683577,43.58883243416609,-0.1027018722023428,-494.6151555638503
143024.4743902989,57.09385856910522,16.024724631316843,0.3491571414510473,54.78517357776309
143024.4743902989,136.3752205987722,38.60197815340534,-0.212988444430222,130.79244236493918
143024.4743902989,15.326285336460206,11.793655036995887,-0.2358241711566042,-9.714390248432215
143024.4743902989,932.1383500661125,16.302950188846246,-0.2595286335764211,-931.9949948319783
143024.4743902989,830.1483825121991,14.784397997709693,0.07140844460692278,830.0158876383966
143024.4743902989,48.242846161566206,26.693479673813332,0.15291411631267768,-40.167489762255386
143024.4743902989,13.813636903941669,11.660912619605462,-0.13504443499179392,-7.310383864616343
143024.4743902989,166.09292221361423,21.190099679505252,0.03139669772728034,164.73147169600992
143024.4743902989,172.67340535777274,39.85800966528185,-0.3411277910304983,-168.00579717098393
143024.4743902989,86.86713297955995,20.39288750776902,0.333407503604843,-84.43067001082113
143024.4743902989,719.5631335899969,12.212424894308603,-0.30019047217298717,-719.4584699992022
143024.4743902989,103.17906207024559,16.576073130823172,-0.09853512321485187,-101.83203429148554
143024.4743902989,224.67146639834976,21.609900294455695,-0.4492815388129782,223.62624720010618
143024.4743902989,444.6942340873143,30.2588567414325,-0.129892421438888,-443.66199613559303
143024.4743902989,43.935367919845945,29.912672050147975,0.24808006125929633,32.157539228170585
143024.4743902989,28.327765727922813,18.901661934192024,-0.1546560141656288,-21.06622502097794
143024.4743902989,35.85729863032723,18.835254095495078,-0.26670723058532947,-30.488164971532083
143024.4743902989,89.40195876973785,88.75251887670915,0.39712443528040353,-10.684717354417831
143024.4743902989,312.12787661833187,30.790544392734116,-0.272277228670821,-310.6031227647817
143024.4743902989,23.034559050853495,23.004345727268106,-0.047811322345984675,0.09471145988671839
143024.4743902989,464.14536025762544,30.16122882352273,-0.06208346088846895,-463.16285703630797
143024.4743902989,31.63383277809683,20.959105865163647,-0.42826275329144436,23.661194315486263
143024.4743902989,33.81785915402347,33.43844996574939,-0.4293844702241178,4.894237272729429
143024.4743902989,5.100384738319807,4.370423807274738,0.08919219936651059,2.350666465252771
143024.4743902989,300.15153028094016,24.604892301965787,-0.24587643270379766,299.13893129687125
143024.4743902989,57.724184172281134,23.759128053716683,0.20297554830449752,52.594337539937825
143024.4743902989,223.4434762642358,29.686888724861934,0.44819275651182794,-221.45901452411547
143024.4743902989,37.36256445481107,28.40123041661861,0.12040168832116784,-24.247414393107952
143024.4743902989,22.485759210219104,21.02796920731458,-0.14299084938764914,-7.876147519490398
143024.4743902989,42.133142822761485,32.33243027421814,-0.018724572090918018,-26.98954601196617
143024.4743902989,123.26035159668741,18.686746104739335,0.07961350024436133,-121.82993772181854
143024.4743902989,20.07193815716583,14.83163658989953,0.35426858113774523,-13.468482434122333
143024.4743902989,64.14111680412668,35.22902611557913,0.1017720046490414,53.58739118620289
143024.4743902989,296.1090907898157,27.663458500687767,-0.03340562861394969,294.81171256256346
143024.4743902989,1011.7234941194589,18.34720722584851,0.1567913327219953,1011.5564266142708
143024.4743902989,33.65098133088639,22.938751135588365,-0.0018741244669224803,24.59313939322235
143024.4743902989,194.98686275821115,15.643793833636698,0.2548990573148705,-194.3545822899638
143024.4743902989,11.160066008490944,4.6017785622853316,0.023331648010059058,-10.099031184592274
143024.4743902989,48.79680945566153,11.192599519907867,0.16211135120642597,47.481031126171935
143024.4743902989,71.38573770638074,25.809497949707396,-0.15337318018179572,-66.54615021164967
143024.4743902989,67.92091578559877,20.100008127092803,0.05647064751582574,-64.86800099715398
143024.4743902989,717.6621905865104,35.7095280467662,0.08696712344308787,-716.7722526079544
143024.4743902989,158.03498901949482,50.787208954977274,0.03824283763226569,-149.6473720661218
143024.4743902989,51.02534906648504,27.683626406967832,0.07578115837198836,-42.846442108857936
143024.4743902989,20.400241039294944,9.945790036018295,0.35974246127304144,17.769129079331098
143024.4743902989,46.618162210263016,24.84672693006429,0.0072492127088032675,39.42731824547198
143024.4743902989,755.8998178800992,28.752142834735878,-0.12735970136790717,755.3518736330374
143024.4743902989,76.85009234013377,16.046116290524804,-0.3638269190788154,75.14616918051509
143024.4743902989,49.81108636679192,16.259140739883684,0.0008844376689350719,47.06808828191376
143024.4743902989,104.02223755565902,17.6814599479302,0.16361990956656614,-102.50163597024431
143024.4743902989,162.1376322998974,22.308253111253038,0.10516221006600428,160.59129135699163
143024.4743902989,322.90121811877214,27.16415054122248,0.24180975971029667,321.75435876434733
143024.4743902989,16.101536916429716,12.662396447572716,0.31204812360692785,9.871479174865343
143024.4743902989,229.99451556121858,15.528816575070648,-0.4855465393948273,229.4661577584614
143024.4743902989,129.95363865639322,21.8798617990091,0.055140433871439375,128.09307973142356
143024.4743902989,149.495642679532,12.161080178055155,0.10037067571398509,148.99552175368325
143024.4743902989,21.432473702240063,9.58271520994579,0.35331689310240877,19.131595156466545
143024.4743902989,315.42264007867294,25.45483154163738,-0.32623715687140364,314.39148726159874
143024.4743902989,13.615788323363844,2.6968153568775497,-0.07850002739181788,13.294020618265195
143024.4743902989,44.36480737451802,31.556177165109244,0.06720269771421182,31.16182869722743
143024.4743902989,436.0906999263625,17.762504312047433,0.05054905973335885,435.7272193878612
143024.4743902989,45.949580613400755,38.78148101074926,-0.4433134005163965,24.61268839937709
143024.4743902989,86.67029357063775,7.5500333555553505,-0.08703774936380079,86.33278332265397
143024.4743902989,249.1612989189342,24.782100842778732,0.4033252867916228,-247.92268543511196
143024.4743902989,24.286049033242456,9.475580846633527,0.12182156188565614,22.330046408967196
143024.4743902989,123.55793381822284,25.866092157780894,0.15738423697941398,-120.81433600351852
143024.4743902989,19.090450415768753,17.847172805018946,-0.1206570537885434,-6.673037514931891
143024.4743902989,14.79843334065351,14.56723223033591,-0.2631503912447948,2.3109292962822874
143024.4743902989,8.913143336710618,5.650380181848088,0.05873632055865566,6.79221214639049
143024.4743902989,741.7586788831059,36.34334750706047,-0.4030209501997861,740.8667603775734
143024.4743902989,786.8077553827263,50.070052251467814,0.1860964584946089,785.212085639226
143024.4743902989,89.26876464219366,27.713387683054293,-0.48251776530489476,-84.84849985906564
143024.4743902989,56.040384961845504,12.839589847856642,0.028978626042710873,54.53704344118308
143024.4743902989,188.92548615670552,30.29164940581871,-0.15007056316102457,186.4774866907643
143024.4743902989,4.436320003672021,1.5695188198308916,-0.10489436762528154,3.9782924573763636
143024.4743902989,49.35930934402275,10.079903087122313,-0.1302131471835991,-48.30466111117077
143024.4743902989,28.832808147588555,28.11530324429118,0.03841503489354881,-6.283258811945668
143024.4743902989,224.47033277561872,43.18336547359105,-0.1666329322629159,-220.2741921880381
143024.4743902989,17.606154871589723,16.244271208279052,-0.36295621183804294,6.6774900163285
143024.4743902989,21.81244910020798,17.387887954258257,-0.4442183544930415,-13.109814115709499
143024.4743902989,115.02375033645002,2.1342643547637277,0.24405281376753982,114.99769025161186
143024.4743902989,336.0549399437905,25.296394832109044,0.14725483034988462,-335.0994086133146
143024.4743902989,13.711574193309131,12.391415955819244,-0.3002446784327414,5.743709468380349
143024.4743902989,2.730481863620187,2.434697773290632,-0.17699330377463593,0.3416418977692156
143024.4743902989,19.211079195041446,16.216395763712654,-0.27140773556677955,-10.2294026203621
143024.4743902989,73.43597725848288,19.810908756928477,-0.23015869820091894,-70.70316785662655
143024.4743902989,282.52789709125807,32.23487183463986,0.42353553227483004,-280.6801855459722
143024.4743902989,181.5232894308229,35.86691594239019,0.07284116056936431,-177.9406752504574
143024.4743902989,32.49076890490208,13.505099932827479,0.06960146261284737,29.52757631990979
143024.4743902989,63.37681691109545,24.926814606125653,0.060999210847886266,58.257114435287924
143024.4743902989,605.2821119396754,16.154194149018604,0.23152924607072842,605.0653218517925
143024.4743902989,72.78101702980983,28.54342449891448,0.12128544859491394,-66.93993513190611
143024.4743902989,189.75514369272196,46.40030565902741,0.030921305793681075,183.9908842968119
143024.4743902989,20.825242337712805,14.48259734634889,0.20647294754538298,-14.917195758772019
143024.4743902989,753.5794516475798,39.600752009310796,-0.3954404677597528,752.5371979380528
143024.4743902989,7.730935466141191,4.41725858002115,-0.007948078109123267,6.235013592809851
143024.4743902989,56.56275238922752,27.065244652100898,0.07506544077926955,-49.65311795650086
143024.4743902989,36.82618941866761,9.514858747331747,-0.0581954578723393,35.55632955272793
143024.4743902989,298.96697388404203,27.12007207496359,0.38639339700315534,-297.7317989937061
143024.4743902989,21.283606602671004,20.707894909613213,-0.42156991126015664,-4.755790690852164
143024.4743902989,29.550163841070358,29.49752463931661,-0.020780145280726567,-1.314556666018401
143024.4743902989,60.20992256503531,42.980800829962604,-0.3682572443151526,42.147006889697934
143024.4743902989,50.55744364680497,26.968700005965353,0.2363123781204511,42.747032088832235
143024.4743902989,237.28438181953393,21.129959614466937,-0.1478660035137369,-236.33874220209847
143024.4743902989,1156.7113074324825,28.10169925754082,-0.4147962189179482,1156.3692279946551
143024.4743902989,29.08679278962498,18.534231346326816,0.22264216468859085,-22.385139747375245
143024.4743902989,158.9017985542771,18.195045849776953,-0.10529630382080679,157.85224442766906
143024.4743902989,952.2249240595761,31.78048868105523,0.4243278516846914,-951.6936202125078
143024.4743902989,31.814504439729408,24.272103888516092,0.4524669213839719,20.529081984134056
143024.4743902989,15.020378091097484,9.837953786175161,-0.37117412299947755,-11.28312549458787
143024.4743902989,25.264276897885715,20.858091156268873,-0.10691631875516315,14.206778566804086
143024.4743902989,19.17268306401953,15.94677959751689,0.0666947719374434,10.578649063304669
143024.4743902989,8.705053703154714,7.501413225702186,-0.27910514492804395,-4.248426504688837
143024.4743902989,117.60450336853224,36.961650009067505,-0.1670506224831667,111.63891795924678
143024.4743902989,451.7015921962269,26.53352538343594,0.18652237981908487,450.92004379999617
143024.4743902989,20.203561136116118,19.355017684512568,-0.05789652186646738,-5.673102225532616
143024.4743902989,464.25284311020727,23.579867768635328,-0.004814819611730969,-463.6521459204061
143024.4743902989,167.56215189722903,24.59529546103228,-0.09146293915182936,-165.74304839721316
143024.4743902989,8.481101420400558,8.224717215383194,0.33767375975166963,1.670135418963048
143024.4743902989,8.271314126849337,7.629639709505368,0.2688773247330334,-2.9582440954053606
143024.4743902989,265.85743119218944,24.16047832647059,0.1470785965777113,-264.75468578079574
143024.4743902989,40.54667476753634,13.062151921727674,0.12353783973991748,-38.36688713116854
143024.4743902989,286.4020555238136,20.6082841232647,-0.31734480081672867,-285.65705941547014
143024.4743902989,147.83850647340768,25.285003413257982,0.47654054172415755,-145.6546798961401
143024.4743902989,65.26019480454723,16.37926561573704,-0.10715317619198897,63.16028395969273
143024.4743902989,47.834626108203395,16.15748486618202,-0.04359672512398597,-45.007838260594916
143024.4743902989,168.7983635449566,22.82686974258832,0.19157315334979852,167.2435503114926
143024.4743902989,88.77753681199798,22.517685988567667,0.21771555489605507,-85.86604525607709
143024.4743902989,65.14197812072084,36.02012258149401,-0.1620251328756376,-54.26437227506216
143024.4743902989,85.26421148985435,26.432642674888122,0.3025805355878493,81.05448707556774
143024.4743902989,50.4947892361778,16.83580184479672,0.1845327575883778,47.59060549904501
143024.4743902989,17.229176905359157,14.799866942888384,0.3326401753346738,-8.736022760862872
143024.4743902989,24.58035259733008,23.19660455197421,-0.10537180141088738,8.044901224220729
143024.4743902989,94.19242055998363,31.267614101832162,0.19186883059885312,88.8432994295866
143024.4743902989,95.52333293105065,29.09292329630875,-0.15548909339636147,-90.97749743386476
143024.4743902989,30.87853626686414,18.579356467942944,0.14784905713121088,-24.635135959297166
143024.4743902989,23.08911064420344,20.957922149834975,-0.2511871342082548,9.614036737028494
143024.4743902989,4.556292789147866,3.006995016541862,0.3048114829993253,3.2008034563785697
143024.4743902989,290.5990043610386,26.753092843280836,-0.4194456368132225,289.3622257520133
143024.4743902989,378.2987827751922,22.511585065704224,0.09158679211011472,377.6265476191216
143024.4743902989,21.855925143512984,18.091015792614105,-0.035574482242368845,12.207195164411987
143024.4743902989,199.28400432211689,25.61857846213306,0.09105589654420672,197.626958669399
143024.4743902989,371.7534119135642,34.36372091966893,0.1543335766364322,370.15987141089994
143024.4743902989,1059.912371739111,22.731128155786315,0.2658804331136227,-1059.6679107880186
143024.4743902989,29.583710172392617,22.137910016801893,-0.1726084608056332,-19.588244480477755
143024.4743902989,106.96155529837597,24.132988652612024,0.23866118971460085,-104.1966241258927
143024.4743902989,32.49935700562416,10.363736002014612,0.10181711729330917,30.780043583298983
143024.4743902989,417.9161528574632,15.260116869285179,0.009068423262028048,-417.6357980800229
143024.4743902989,25.31321382822814,20.044127786508582,-0.20885091607723427,-15.413253541746743
143024.4743902989,315.9091263694624,24.0588835644798,0.11708084875945235,314.98944872023606
143024.4743902989,75.01695770921575,28.03094244073695,-0.1305235168164858,-69.57307986065814
143024.4743902989,40.82916941422287,13.862808032766008,0.15924829621529554,-38.3853948310779
143024.4743902989,3.8233698757031647,1.7300756623813582,-0.03241451170736809,-3.2006581454289855
143024.4743902989,49.20705375454814,21.99070724311108,0.3100078746225806,-44.003035089912196
143024.4743902989,6.504443513367862,3.8141529186877365,-0.22482395920482356,5.13125179409728
143024.4743902989,599.3470309866096,22.073497500267877,0.03316407136448629,-598.9392652252561
143024.4743902989,393.01354390177835,36.609002361015754,0.23726666041292863,-391.3029396883618
143024.4743902989,420.1727410604477,32.65516892570028,0.485568286075338,418.89993645735865
143024.4743902989,165.38727966882038,49.56730132740465,-0.29401202468137977,157.7801278366697
143024.4743902989,324.9277310600669,22.373038568294113,-0.2546773769441315,324.1543351003562
143024.4743902989,628.3197716869605,18.81417430176453,0.45963383733934804,-628.0367595473118
143024.4743902989,247.40148008994453,15.488769267605063,-0.13914462737838162,246.9133274732216
143024.4743902989,173.87995762146986,6.6610676278369825,0.06876854802177823,-173.74833921290858
143024.4743902989,32.456265235916426,12.616278935752545,-0.2941918579753927,-29.879296810429537
143024.4743902989,87.96839788739679,17.222379704005352,0.2566720152764563,-86.25765503153093
143024.4743902989,105.6283265992683,14.062078639958916,0.35546980488642316,-104.68092105803579
143024.4743902989,108.72192958266822,26.978556261346185,-0.2971955137062613,-105.31451664853368
143024.4743902989,100.9487904163275,10.326956045012228,0.10785893865213972,100.41225472853878
143024.4743902989,703.3719359197651,24.032382746173518,-0.4606134928973957,-702.9601218576521
143024.4743902989,710.0602742841588,8.844889829231136,0.34288833787508244,710.0041293794332
143024.4743902989,112.72014194409678,29.46462958822828,0.2340103480637916,108.79444613645693
143024.4743902989,92.43496877641515,8.104154012578942,-0.003417128400461238,-92.07152869707375
143024.4743902989,29.48555834214852,23.9259182270544,-0.45401152209633805,-17.186120246697737
143024.4743902989,277.98029291212345,27.780903661620098,0.25752024975613197,-276.5860057747504
143024.4743902989,132.72279075722878,31.455743327226635,0.11233549242700899,-128.93596490782355
143024.4743902989,505.94964179528955,64.25711154055243,-0.24688945822825809,501.85119603593444
143024.4743902989,55.58457374782731,16.856401114637624,-0.4145166171424057,52.952384497960125
143024.4743902989,37.52609402949645,19.32749197743833,0.1489987145993472,-32.14426627271673
143024.4743902989,28.041791545278244,9.44664257914744,0.02373825665531786,26.376556283970196
143024.4743902989,38.020299459195606,18.995502180929897,-0.09426592338200825,-32.91390966829201
143024.4743902989,38.87025636123782,14.411046737906142,-0.014305069791011971,-36.081000883107606
143024.4743902989,1068.4753582997428,55.13985994360579,-0.19276244073857646,-1067.0509689090118
143024.4743902989,51.11372782792051,24.14398919421654,-0.15226620685446757,-45.036407950836185
143024.4743902989,535.8103468766785,18.78597829096325,0.1506867592443274,-535.4796096968719
143024.4743902989,111.11898206446386,19.596664230804,0.21250273530762795,-109.37080980092841
143024.4743902989,157.14930776559183,0.24072911972994634,0.2430575304382529,157.14454547195746
143024.4743902989,236.04554634062384,18.022157678981,0.451333602370349,235.35317789584334
143024.4743902989,135.3292491905069,45.00659156855728,0.18341345364238318,-127.62052746015435
143024.4743902989,85.1259292979941,26.609799594798297,-0.273431724734959,-80.8510229206735
143024.4743902989,2294.579911983461,16.691353380576093,0.016686437932795218,-2294.5189019029176
143024.4743902989,954.2286623870435,32.43795114487683,-0.2667196576343637,953.6763961506904
143024.4743902989,9.78724632890701,4.227009935623401,0.48042248362428464,-8.73567626458725
143024.4743902989,1298.4839036202825,24.134916419713086,0.20519666545382076,-1298.25903884108
143024.4743902989,101.0228950774042,17.926727011165774,0.13415757267835254,99.4125749494934
143024.4743902989,27.485077077198618,13.092768891504711,0.3169123334947297,-24.135631318067375
143024.4743902989,360.7770523426152,33.30885438106114,0.4437369411625625,359.2339419963404
143024.4743902989,217.37255062336595,20.80598036253215,0.018650399804330885,216.37134021325454
143024.4743902989,18.63590868922435,12.247933705416232,-0.1350100014477699,13.995972734181278
143024.4743902989,17.798737212211382,17.72524266256924,0.06749187192013736,1.107488873631779
143024.4743902989,139.39896707038858,14.464384153230966,-0.02163934895580449,138.64152845000382
143024.4743902989,867.857183981126,18.000885657258436,0.18694828159509091,867.6696636516683
143024.4743902989,16.586421505472327,14.287203310621319,-0.06173038537326286,8.342760762079173
143024.4743902989,88.54735930384814,10.731811991074144,-0.3197844035845451,87.88618240010112
143024.4743902989,303.96631306408983,20.544275158407537,0.08744818127473879,303.26896454576934
143024.4743902989,87.4691455736034,22.92404084490217,-0.16057684353555052,84.40340195543307
143024.4743902989,130.31821431467085,12.06669327830011,-0.14016965614225005,129.752967271716
143024.4743902989,68.25349009724718,43.0807246673612,-0.12373058458891331,-52.92631700003384
143024.4743902989,25.51697317571976,20.12810142029857,0.2590379412925894,-15.637410925890107
143024.4743902989,38.22555514158948,17.00888480860956,0.10044111654937926,-34.21258661498507
143024.4743902989,292.26068702479677,48.310269018093436,-0.17731381552114034,288.23777669707357
143024.4743902989,169.3378514598278,19.10190600169906,-0.3250501709423688,-168.252606917025
143024.4743902989,106.16605415658404,17.65195863005048,0.23329190984948667,-104.6814465626174
143024.4743902989,139.0500636974704,22.97631570329135,-0.2745114583352114,-137.13334402065783
143024.4743902989,178.17697725728104,28.800499459901754,0.08242897696757924,-175.8299744887691
143024.4743902989,186.1374217874628,28.121927080260612,-0.30010828134708556,-183.9968130426487
143024.4743902989,90.57373485959702,17.823287155625128,0.1828160744744132,88.79481250345216
143024.4743902989,846.4612319129801,45.79491030871978,0.2646890769943849,845.220677414487
143024.4743902989,481.4684626656183,34.581900073614975,-0.2376648215446598,480.22342353552534
143024.4743902989,367.62078183475006,22.722544040291808,-0.061318285348818946,-366.9159873009807
143024.4743902989,1118.5389758057959,31.185668139602303,-0.27646273361543466,1118.1035007259288
143024.4743902989,26.411957880424257,9.71601942284232,-0.24790279791629585,24.530578829506673
143024.4743902989,40.31820587795931,33.80256814891551,0.2832922349186723,-21.942746526373355
143024.4743902989,20.83651074360756,19.085025630494876,0.29226595112862497,8.273863977685261
143024.4743902989,39.25986314015379,7.95232524548693,-0.05827559163601866,38.428039876952056
143024.4743902989,251.93013768201936,6.783156217551467,-0.17238744525905292,251.83600539762745
143024.4743902989,60.22509587188945,13.517600902348935,-0.14511823095215035,58.676535746222584
143024.4743902989,294.6305568939242,14.912441444735475,0.07028995310904065,294.2505725958053
143024.4743902989,770.0661309874235,15.848941058986703,0.27284184006020634,-769.9020736343256
143024.4743902989,24.060049188893057,22.732709736829065,-0.2248488132151548,7.789710255190868
143024.4743902989,1461.3590911092067,19.497522555505245,-0.010887888729322849,1461.2285447290692
143024.4743902989,151.99600104586798,29.209100511633146,0.25812023243611054,-149.1581926111939
143024.4743902989,353.3220908160919,3.1498324846197416,0.023726488075461374,353.306096917224
143024.4743902989,112.82903810027524,13.256032944295832,0.3296202145166684,-112.04097932266967
143024.4743902989,31.396463948206115,24.160942736860992,-0.24044865363703397,-20.01372646004974
143024.4743902989,149.91007847920946,24.55502290143159,-0.033885208469863135,147.88070056502016
143024.4743902989,67.32005763618292,30.588625858648033,0.2724490884015759,-59.957252835403224
143024.4743902989,25.253574616574,25.225307020861543,-0.21699269739942156,-0.00993191920167899
143024.4743902989,47.63249932593359,30.189007327678265,-0.1787847218019734,-36.82481680176158
143024.4743902989,26.5335823342935,22.786244705317277,0.10045411693298474,-13.543567497012141
143024.4743902989,1344.55505366288,43.58394648746128,0.04671105460341635,-1343.8479638801784
143024.4743902989,334.2462985258957,25.720037906151138,-0.18753572362180293,-333.25313625917505
143024.4743902989,17.8280458443795,15.637966228082696,-0.3245515686112199,8.473969849695846
143024.4743902989,95.33174502703875,37.95340847349726,0.3478203456605057,87.44243640250959
143024.4743902989,266.50583594906936,44.71705527278387,-0.35311749822475375,262.72464889791195
143024.4743902989,17.078157529432833,16.93366051117103,-0.2309344993169188,-1.865889440764248
143024.4743902989,16.92909250907984,9.439684928956495,-0.21609336371890162,-14.002146018977639
143024.4743902989,12.952667165394324,12.529357604179934,0.1778048214694212,-3.0619337068468595
143024.4743902989,43.186133136419116,27.86052273395352,0.1263801144504835,-32.97631974902062
143024.4743902989,70.44538668726013,31.057346806666686,0.3428505539208985,-63.217849031751406
143024.4743902989,123.06413186402246,33.96724244474801,-0.19095356409712683,-118.27760057059483
143024.4743902989,159.68289844202965,15.161324498283099,-0.13481836318483126,158.95711492780018
143024.4743902989,36.11183006423059,21.859112180895433,0.1940352871632014,-28.7197859221449
143024.4743902989,43.09126634903205,25.84095465151386,-0.09283092288830383,34.4632260320618
143024.4743902989,7.253380532079044,6.8275804539956475,0.08853228320491321,-2.1466495237440113
143024.4743902989,175.28782659957005,24.57139645037012,-0.11642524076762216,173.55309084974138
143024.4743902989,2321.3581252826534,27.34847390290074,0.34173662160900053,-2321.196697885579
143024.4743902989,333.2885133040568,33.07278698738226,0.10243907798253915,331.6414232803354
143024.4743902989,211.3801479319697,20.892027747346116,0.19596291005571548,210.34179799255065
143024.4743902989,290.58956313170324,27.174090363649103,-0.14186869739028596,-289.31377975324756
143024.4743902989,40.87172178277892,18.752437819272117,-0.05808109860816505,36.296840244913895
143024.4743902989,105.97488098108902,20.990414705531624,0.06700415931283839,-103.8686365932663
143024.4743902989,105.9617869366208,38.35944097711372,-0.3109395528758801,-98.76728792052158
143024.4743902989,37.01102141209102,12.581189870379296,-0.035442719897447184,34.78718699580251
143024.4743902989,71.85584838126992,11.583233034617388,0.00523178970323033,70.90636007821708
143024.4743902989,27.15940849303098,26.86064830965044,0.28494163490002966,3.8312032309572253
143024.4743902989,40.8786793051884,26.492040422753718,0.35024728953770035,-31.108452399105182
143024.4743902989,74.46980840180757,17.95717263445984,0.033376707107387,72.26279449501769
143024.4743902989,143.15141580725233,17.177975088618712,0.38021175278465275,142.11164880598034
143024.4743902989,38.49554605386796,12.386242724144234,0.03414270725661801,-36.42948200695687
143024.4743902989,142.4291651630123,9.111249040606914,-0.03377513403987311,142.1325837274782
143024.4743902989,5.613155659157728,5.321459869147174,-0.21876339931544286,-1.3274003712936475
143024.4743902989,479.73636936446735,19.111028979485198,-0.22972486640356096,-479.35406554726046
143024.4743902989,31.408311330069466,30.65765191954936,0.3423090100999495,-6.715168782951457
143024.4743902989,418.7558312757361,20.301737868168537,-0.3419942029563228,418.2616274232979
143024.4743902989,27.529314089094495,19.413962619932523,0.3702816318661091,-19.479331327758203
143024.4743902989,767.1431216260573,21.36278107938331,-0.4561581197216749,-766.8445819267106
143024.4743902989,65.13478010936775,18.076661044601003,-0.43294551561944933,-62.563621469751865
143024.4743902989,49.18490224023492,27.86128403045152,0.4650177767537899,40.51305329000612
143024.4743902989,12.143401029807634,0.4211775880529786,-0.26350343858165665,-12.076242453822738
143024.4743902989,346.14172877541466,37.249102034291255,0.07100455524516887,-344.12965002086116
143024.4743902989,35.15147026641212,29.159007413377363,-0.2341511641295434,19.594478549963902
143024.4743902989,38.37922609088154,33.723041096255734,-0.2451785148534105,18.28337085733108
143024.4743902989,44.246575182619296,25.98490942291772,0.33862644074701787,35.7917518104824
143024.4743902989,159.6334696379546,11.633284889120016,0.30588503816595347,159.20439068549388
143024.4743902989,32.75125637632261,18.01320699960795,-0.009879731116086568,27.327446607090835
143024.4743902989,30.337034259784524,26.50164397895524,0.3657165253625846,-14.713430374006004
143024.4743902989,70.1912732721767,15.476511368608278,-0.2022000853585073,68.45342812750731
143024.4743902989,83.08110696268699,17.120302527520877,-0.3584355138664705,81.28872841513513
143024.4743902989,8.168229757780535,4.167340742203192,-0.230976039772088,6.922439341656668
143024.4743902989,54.30995874203636,54.02479832634434,-0.1415091153364947,5.43074832646386
143024.4743902989,59.18091872396593,17.96173078798063,-0.06172282193820445,56.37706826593255
143024.4743902989,139.3215725742013,25.876154980916013,-0.1272440082563121,-136.8924003178044
143024.4743902989,54.25464214049956,36.82852436221446,0.0427151230304913,39.82266227124088
143024.4743902989,162.12478130908545,10.526251376022403,0.06761202211378795,161.7784239104758
143024.4743902989,38.85838597405893,30.133964818017642,0.03939885952335777,24.50585726802642
143024.4743902989,101.71781098686867,33.436003397060375,-0.011758059823796962,-96.05814321751038
143024.4743902989,75.84587087321646,33.6683007442231,-0.2591293020828929,-67.95288642415105
143024.4743902989,11.74297889617812,11.464987654036266,0.06013774702406808,2.251280248184032
143024.4743902989,86.98303467163602,15.249790466995718,0.24843920572520015,-85.6273948991584
143024.4743902989,105.29807131325353,29.88513652717261,0.45288037540762593,-100.96027735829793
143024.4743902989,84.29987453566265,17.359334741452017,0.2782130806916349,-82.48433311484075
143024.4743902989,94.86467266046557,28.429057452798165,0.2934168896339598,90.49656891676759
143024.4743902989,38.36129957641642,20.94633329331817,-0.4313397377373367,-32.113465098662985
143024.4743902989,20.941157145785347,15.564393638998133,0.03829100905799295,-13.960677451650282
143024.4743902989,121.89646871531015,13.647381654957597,-0.3051752696544123,121.12400750939882
143024.4743902989,16.49872499210029,13.77246685477905,0.03588565700531979,-9.008110965912238
143024.4743902989,57.54033387887208,30.54450907236282,0.10403318602968631,-48.749691623355176
143024.4743902989,139.904975572848,25.174008720153658,-0.1673544227042549,137.61636434432356
143024.4743902989,27.371699332302523,20.74829825748179,0.19123978574803455,17.812965473398744
143024.4743902989,72.55942303151245,9.590965302661305,-0.12500529445739977,-71.91305790161536
143024.4743902989,51.30035384957439,5.831134056324263,-0.21531459750416695,-50.95388197368695
143024.4743902989,57.78391895582706,6.8234555805762485,0.3036783168146163,-57.366800426457374
143024.4743902989,16.756428051540382,7.873389362549419,0.2816766209069839,-14.742067261038303
143024.4743902989,76.16077660619291,21.53856428472796,-0.32266571755237633,-73.0415655397759
143024.4743902989,74.36163437970579,26.119051129467593,0.3355664422344016,-69.61289750280291
143024.4743902989,144.62501564265696,11.059837732624084,0.19432576733000798,-144.19659373341153
143024.4743902989,180.2352044290147,30.176075538530586,-0.28296959963528556,-177.68701015190416
143024.4743902989,47.63142697954973,21.9231303923406,0.07911666997600122,42.26988524134814
143024.4743902989,3.8105670579910487,3.5572007636282517,0.08745757311019493,0.6923604980028923
143024.4743902989,39.5265333450451,19.660182538265104,-0.011699115039523231,-34.27016474756674
143024.4743902989,59.60626192661604,6.735726836578387,0.049094605974819905,59.212788335144445
143024.4743902989,30.128177301212578,14.43712435300894,0.017340943122777782,26.417730316140872
143024.4743902989,260.73323834022835,16.68001261587156,-0.28971888488947317,-260.196339492584
143024.4743902989,1252.4500747108905,13.779417850105729,-0.010919352142681865,1252.3737211534146
143024.4743902989,464.6186873825937,27.302803310177712,0.019444692048789677,463.81429633668006
143024.4743902989,70.32984139511785,17.380396705967186,0.3137254029361046,68.13758320657396
143024.4743902989,169.22896376314196,32.78498179605163,0.08909687180031718,-166.0186720660734
143024.4743902989,527.7076467548774,25.50254147790012,-0.2104108925308289,-527.0897047152888
143024.4743902989,16.11012900012756,15.999408494195757,0.4498454123257136,-1.4046676465332828
143024.4743902989,70.06298743581023,21.77409878303186,-0.16643640529822504,66.58305638370669
143024.4743902989,132.4726483437201,41.09316183867124,0.21879546921058823,125.93223179828885
143024.4743902989,146.74180773996721,33.704721592857496,-0.2288192084115574,142.81357705332826
143024.4743902989,64.4953610123893,27.27388639838482,0.18297903057288145,-58.43264070172079
143024.4743902989,96.41195125971986,29.235512591097283,0.48187050831601824,-91.86368824465521
143024.4743902989,199.28115214359013,12.979017342324077,0.2650888999016146,-198.85440076657875
143024.4743902989,194.0012552336419,24.16320645781533,0.016872269964058186,192.48700337707942
143024.4743902989,51.24362392839674,35.832816811688964,-0.020842829503699804,-36.61335912050346
143024.4743902989,60.289997038994144,18.12584912792513,-0.1524787860488742,-57.48855846539398
143024.4743902989,39.87462759782515,24.519912343529512,0.16730830749666692,31.422159386597077
143024.4743902989,36.202200101467625,30.77791346713738,0.2727175704306945,19.022755525382873
143024.4743902989,157.2277161150384,19.24413337113075,0.17803180392319712,-156.0410414540919
143024.4743902989,31.413285078373264,31.387284325215514,0.22639403238407363,-0.4493057989049491
143024.4743902989,13.2157170670638,13.133911299777573,0.06659448660800063,-0.8782850313023562
143024.4743902989,101.29055244824049,9.397153810703632,0.3432064305460839,-100.84627902272533
143024.4743902989,32.9322528034906,20.211370830784546,0.20676433193416915,-25.973280120542462
143024.4743902989,37.4652960093932,36.57362185469012,-0.1668822996516518,8.038097265849053
143024.4743902989,27.442631660281112,27.39171571654568,-0.2713452107052282,-1.156971122386052
143024.4743902989,1197.8236536816705,28.76910432322156,0.09189001093851333,-1197.4775387370853
143024.4743902989,48.5815542342653,33.50921261604281,0.24401189958675026,-35.1548120136939
143024.4743902989,38.06100294354565,8.544829951526808,-0.37394166243180027,-37.068939311191244
143024.4743902989,508.7744776707896,14.517315223222836,-0.023651344035901942,508.56596071342
143024.4743902989,203.44325721939813,15.838383529458245,0.4646154226392736,202.82186498397212
143024.4743902989,146.82793028067326,17.645930173819302,0.029512912229304272,-145.7589848196348
143024.4743902989,41.291461388936575,13.244709048149439,0.2510230256836403,-39.09117190824656
143024.4743902989,97.12297242506892,22.88599855012804,-0.3841051390596415,94.37995324295292
143024.4743902989,120.10420869946519,16.853154904328576,-0.3138068156562422,-118.90968804194824
143024.4743902989,195.89335708206193,21.824762002306002,-0.19573664812049565,-194.67015453695797
143024.4743902989,73.80551972725772,18.018566350018066,0.08214943103707503,71.56255674741647
143024.4743902989,24.36677005512722,24.257753446367186,-0.24396794026596302,-1.9651025811463225
143024.4743902989,13.821226229213,5.158775727668495,0.1143971397638189,-12.767948489115927
143024.4743902989,32.27723394429911,12.979183087027652,-0.28592582146086815,29.527938495070266
143024.4743902989,33.95273912924106,10.518610410823113,-0.34027026492374823,32.25913534808441
143024.4743902989,22.75164707766007,12.48786892039691,0.41453748774941696,18.977328608111133
143024.4743902989,42.66004581046499,9.380388454718652,0.04755420321514605,-41.59934888243936
143024.4743902989,9.213515799926714,8.64137022507605,-0.2469636863062361,-2.9622408446840307
143024.4743902989,26.08597642557945,16.04729310133872,-0.19179190239950675,-20.531586249420368
143024.4743902989,37.76970419785241,26.17006982927108,-0.02791890579296245,-27.20840841935899
143024.4743902989,17.829749701607263,6.114013174117123,-0.15825894906283303,-16.706706416566007
143024.4743902989,62.54317433711376,35.848569301677955,-0.40042124444721683,-51.23464321987607
143024.4743902989,37.95199363087969,25.11731696371097,-0.17310328223702878,-28.426475550305003
143024.4743902989,69.69674286583806,20.335360994793355,-0.04904245872141884,66.65378400369352
143024.4743902989,942.8783645292273,33.04880931174907,0.04234083122454908,942.2982569099318
143024.4743902989,206.64667813778766,21.050333249802293,-0.3894786417670389,205.56799758157368
143024.4743902989,501.4746862085637,31.13966542814454,-0.09526859329551743,500.50553776831623
143024.4743902989,108.16963700970214,22.79814564932855,-0.07897490260109882,105.7332916189744
143024.4743902989,14.950224961228187,11.983214885441054,-0.043293996666630724,8.861725615596932
143024.4743902989,13.60033363176597,13.403616596103296,0.07491414241375778,1.981613677505084
143024.4743902989,35.437082107980636,35.21657414412889,-0.16183694191031267,-3.7648068394895633
143024.4743902989,108.42575715415738,15.777086345593359,-0.26812622081802673,-107.2649837415795
143024.4743902989,19.1617306970979,3.9165811097627805,-0.04706601902979569,18.720319665118062
143024.4743902989,85.83116568186526,29.189836230563017,-0.06324027317363949,80.70662136196857
143024.4743902989,98.85910708395623,17.381187248728345,-0.2994030571559338,-97.31160264288495
143024.4743902989,20.79733567384589,20.735184652457143,0.034221928675363604,-1.0956209537637946
143024.4743902989,10.857135568858334,10.437082420917104,0.33435244175046763,-2.7300512082830135
143024.4743902989,12.169768071000657,6.367736528395592,-0.17714834453915948,-10.30262455525341
143024.4743902989,79.9362888022077,14.93661674528976,-0.17936531486526777,78.51939788112048
143024.4743902989,12.040742533617234,11.363022542913129,-0.17656574096997774,-3.8013539489007013
143024.4743902989,426.03514010861676,17.214436134461355,0.3499447179590103,425.68544913174003
143024.4743902989,67.12404916466589,25.15159003951884,-0.006251666078592001,-62.2226303166037
143024.4743902989,249.01144163489812,18.136833654477552,0.1998911751458882,-248.3472038124323
143024.4743902989,15.246721054947729,14.588241543250156,-0.09012467923208542,4.272921366111252
143024.4743902989,1212.9544228052648,20.07026124040983,0.2397959115038052,-1212.7877716988949
143024.4743902989,553.7093539573804,39.05936839680461,0.21808670842160177,-552.3286948062589
143024.4743902989,233.8148328657038,21.04610347368611,0.11452751993767075,232.86271652605683
143024.4743902989,1524.6517851625758,22.851965356033553,0.04754670317122258,1524.4800660179073
143024.4743902989,551.8320228515724,32.039685373057274,-0.2820610510194918,550.8997918996457
143024.4743902989,43.6187377129448,29.397371928532362,0.29115100551049033,32.20130901553229
143024.4743902989,493.27356797943435,31.700073937863802,0.038940887668744734,492.25251338206334
143024.4743902989,42.357764436426294,3.6508228973242094,0.3842958124778507,42.18203746629914
143024.4743902989,66.6501039924046,17.145068439217162,-0.1897771463275749,64.39617413249982
143024.4743902989,103.84392551481174,12.387098523868644,-0.12038234597568555,103.09571490819646
143024.4743902989,37.54099130908057,3.2555645216142652,0.09890527485600874,37.38098197902612
143024.4743902989,40.221987688498146,6.696474296236007,-0.24262634878524045,-39.64248889668787
143024.4743902989,27.690005702665193,15.079224018047833,-0.017692011721419293,-23.194253031203257
143024.4743902989,340.90949178657286,27.634719010504057,0.29164913856099284,339.78543097670547
143024.4743902989,7.766056093555547,6.563538917182106,-0.1775562246969488,3.977477312764784
143024.4743902989,3.0823344948530567,2.7931045575347624,0.22103675595772584,0.5203493797010538
143024.4743902989,27.131205820894184,22.68272021872322,-0.11360656316745268,14.83926865378657
143024.4743902989,271.6549829733193,23.835947678606548,-0.060747053551821396,270.60468205511194
143024.4743902989,34.06321813352625,31.348654239033138,-0.3268352971422704,13.269444357541252
143024.4743902989,51.226140054262615,16.409424808442,-0.23113474608271342,48.51200930594167
143024.4743902989,26.15010926083942,24.100439687758083,0.29476468591300753,10.076229594749899
143024.4743902989,75.59454433014233,21.933472330450748,0.04718527995098774,72.33309039033354
143024.4743902989,9.95661244398482,9.139790927906644,0.41490618142824354,-3.7478625735319344
143024.4743902989,453.3915577618742,19.114353381552142,0.14067003007259968,-452.9869166149749
143024.4743902989,320.54355174519384,34.6036527197972,0.2738286987789633,-318.6680107409132
143024.4743902989,22.660320055766295,22.424947107534788,0.17533507644583635,-3.033377279633895
143024.4743902989,274.40964574746226,5.461462955504988,-0.17977794744320236,274.3527183196452
143024.4743902989,5.948060640792509,5.826503324019353,0.16349610573879603,-0.15754770942369528
143024.4743902989,19.928150551482812,18.507775999027977,-0.1430216161914275,-7.293368538972273
143024.4743902989,104.9480293683955,32.290534356777975,0.019963935328865246,99.850038200094
143024.4743902989,122.46602651374813,41.29142182661816,0.023609823390493598,-115.28905344408977
143024.4743902989,364.77478606731995,8.814760997906811,-0.0384472002857406,-364.66637263213227
143024.4743902989,169.2515213771015,22.146519410548244,0.3239875324875022,-167.79190822681545
143024.4743902989,57.30370437988623,13.122309752163916,-0.2574939241979513,55.76803284284158
143024.4743902989,18.696451553107174,18.417328628566136,0.0022889921627803475,-2.9965929789006562
143024.4743902989,111.20083975858292,20.974596966139515,0.03854673828165579,109.19849736661499
143024.4743902989,195.78192742810282,34.37450875609996,0.1980023551223903,192.73696406803415
143024.4743902989,108.58634710597768,25.44423706628304,0.35104217155849665,105.55606384847836
143024.4743902989,8.328860660252952,8.237675955744155,0.10033509533388106,-0.34758519863218906
143024.4743902989,661.8144528113244,9.039180764555782,0.25053133531895916,-661.7516306462447
143024.4743902989,405.96349580195164,39.7556250857683,-0.07380108540756057,-404.0104763728739
143024.4743902989,123.57223170942062,21.92042748322098,-0.3618370109918571,121.60625251372836
143024.4743902989,48.79084995368817,46.934668041815705,-0.16159253629401493,13.27697746912644
143024.4743902989,36.327749767776965,33.33665146293427,-0.01812033908452678,-14.387251715945375
143024.4743902989,299.19503715891955,31.0661094866453,-0.07225316107509619,297.5755066352528
143024.4743902989,64.57261653661348,7.31411550999253,0.1433594301424962,64.14613189133394
143024.4743902989,12.210309404650205,12.101948876451095,-0.27234006339770356,-1.086548615811487
143024.4743902989,26.871698886675944,25.686204395464216,-0.10542776070561506,-7.80488678031196
143024.4743902989,355.34152815388836,32.091200632203545,0.06502774759255005,353.88751392493623
143024.4743902989,1144.1834379479094,15.994386352279395,0.024074151636780207,-1144.0710375530891
143024.4743902989,91.10605791713755,27.731695049641125,-0.45089856151264973,86.77375085368476
143024.4743902989,33.136644510612996,16.604051315343398,-0.21019979687395537,-28.651680112013945
143024.4743902989,21.232958911456457,20.63461121213621,0.35328344814728174,4.852506869695924
143024.4743902989,78.13674703577482,20.768524487908632,-0.08133474584611051,75.31688575905486
143024.4743902989,449.155025645244,9.914478268972681,0.22038523548867756,-449.04399771207
143024.4743902989,31.571040480385435,10.873154660270364,0.09972157671438042,-29.616134592662732
143024.4743902989,60.125543421601265,39.297422074820126,0.11734060683561452,45.49065936050923
143024.4743902989,123.23134528781189,11.433113572714538,0.4647565962098737,-122.69332762884544
143024.4743902989,84.50641101406747,27.794341986618758,-0.21480399818340823,79.79587823382452
143024.4743902989,687.3210312463583,17.425828592427898,0.3311121870373813,687.0990111505037
143024.4743902989,123.98476538437043,38.69644084700313,0.15850356763258516,117.78540935814765
143024.4743902989,248.12952919345648,30.020141545090734,-0.003224776460387506,-246.30402882786044
143024.4743902989,201.69386845476083,38.86896437543171,-0.43341333534391474,-197.90920292236075
143024.4743902989,7.361473561461909,7.179825129651032,-0.1944250351498188,-1.1062869722821493
143024.4743902989,155.1963390442044,27.161451648115012,-0.26873343899957863,152.79629330348664
143024.4743902989,636.7003302973897,27.45192534398949,-0.2668265256585922,636.1071069145306
143024.4743902989,442.23482095554317,19.805122041324765,0.09250458806610229,-441.789549126353
143024.4743902989,48.397717239700334,2.4589690453537534,0.07698435540592673,48.32087381776743
143024.4743902989,160.5370182798843,19.22111881391588,-0.09848041258424713,159.37783220762287
143024.4743902989,48.42393591052288,16.669753884999313,-0.1401779578393123,-45.448844787031874
143024.4743902989,65.76426049764315,21.86264367038636,0.16099693846432467,62.012556134906966
143024.4743902989,171.67027409751736,28.04800521593481,0.023760864467255824,-169.35941696699524
143024.4743902989,15.932438243028658,15.429507735093981,0.13904658986701124,-3.79128122434137
143024.4743902989,64.11318035618258,25.9247027643286,0.2724312293106036,-58.625555272820286
143024.4743902989,21.245989286304912,14.327771890086737,0.3141001899693059,-15.640608119433352
143024.4743902989,363.78032273203775,19.870129740477093,-0.29141633303164804,363.23523575707594
143024.4743902989,31.86931248891978,31.125195618589576,0.07123398549843683,6.744662318890473
143024.4743902989,869.3442289119815,12.43284386041527,-0.10209269896126455,-869.2545211737737
143024.4743902989,32.257585170839874,17.11201701311306,-0.13248519240686493,-27.319103029314693
143024.4743902989,63.04841009272689,29.09299033332363,-0.477326925739726,55.92041090288382
143024.4743902989,35.71738892099559,21.466808362098163,-0.28686037278825255,-28.520974546125437
143024.4743902989,53.129298283776635,8.99212329350707,0.02943442275553881,-52.349627088177385
143024.4743902989,666.4022727575198,10.693197767842124,0.19061440853468553,-666.3154122424969
143024.4743902989,155.2381827781106,6.180354136974216,0.3694892638918046,155.11022003894882
143024.4743902989,16.693866228123984,15.576601032353153,0.06636339769443991,-5.888168957871327
143024.4743902989,109.27894627080306,10.89315275746086,-0.02035215929826885,-108.72831818208581
143024.4743902989,114.60277413570816,34.17316652667261,0.17405572932474747,-109.38272487737325
143024.4743902989,207.92479159629684,27.475742184355955,-0.07381915440004659,-206.09807706616363
143024.4743902989,586.3279626651179,40.601209272487296,0.12228282475383115,-584.9193336891898
143024.4743902989,821.4385851614317,19.11536832384231,-0.3931586612080684,-821.2152078353037
143024.4743902989,160.012417452939,46.51333731211896,-0.04489538285568149,153.09833912712074
143024.4743902989,38.54207207005912,25.99601038355385,0.36280584142867206,-28.428637029741974
143024.4743902989,40.053474390098806,22.83047117719616,-0.2566033324215365,-32.88776093215995
143024.4743902989,314.33103085668125,23.984116251557943,-0.1221752465811949,313.4124510419463
143024.4743902989,59.94752651533839,49.44520609131461,0.36428897573396896,-33.87277802738335
143024.4743902989,82.37907190357825,17.920511939189247,-0.010670240134647624,80.39767965267325
143024.4743902989,186.552313492275,52.30273051300134,0.25847740939962494,179.06631036431398
143024.4743902989,20.611018288679503,18.613118275189077,-0.005991007549648651,8.774174316340646
143024.4743902989,20.574490613434907,17.851583102252125,-0.20378838933026347,-10.159201882711143
143024.4743902989,59.01318664869682,13.823304830359115,-0.18803343115175172,-57.35902155097547
143024.4743902989,267.6493026613286,14.536451806710712,0.3633928146343509,-267.25143404196075
143024.4743902989,42.77462693178058,20.24768157035618,0.08322671750336894,-37.66050240434348
143024.4743902989,192.08668542892084,40.26389151852244,0.41791542281673316,187.8152266814616
143024.4743902989,90.67377036901762,18.49342391360299,-0.30866428256056094,-88.75951159792051
143024.4743902989,19.22288249438848,15.204848514094996,0.11224886520753402,11.70211353151002
143024.4743902989,182.72717806374632,33.25289256157766,-0.183975776604865,179.67207117467493
143024.4743902989,45.18727804135455,19.543213992196776,0.4325333215961905,40.7232865375966
143024.4743902989,63.1786825464651,41.66709137606287,-0.2761001992815283,-47.475714434870795
143024.4743902989,23.710145937237197,11.331256163737946,-0.025534873357075633,20.794068143167152
143024.4743902989,23.21860549280694,13.996895560109829,0.3682395683665289,-18.48445896383964
143024.4743902989,24.509301187597913,11.521665938311541,-0.030443715171742183,-21.60037962041747
143024.4743902989,863.1021574518563,13.439511790600553,0.08847206165073872,862.9967127176262
143024.4743902989,31.273546713591795,28.23472591740636,-0.08282278517132755,-13.395834601024541
143024.4743902989,38.177744561773835,14.35037604720102,-0.37034552509702956,-35.356611816965874
143024.4743902989,113.03074659621072,14.707660464616879,-0.07222559022869511,-112.0635955655273
143024.4743902989,600.5362232021262,30.609879831384557,0.13323263382693498,-599.7544440448132
143024.4743902989,270.4169114660073,34.407158186405724,-0.0989321670424629,-268.21644981736677
143024.4743902989,136.19511991929812,29.673084312387736,-0.1490927511680731,-132.9180830302223
143024.4743902989,54.18812648716878,26.167846198739348,0.22324470853655928,-47.43592844210215
143024.4743902989,6.50964366771475,6.327828770609017,0.31934319548535794,-0.9232180184380778
143024.4743902989,60.791874556577284,15.652169699410774,0.01413140867813857,-58.730585421587314
143024.4743902989,39.49447303201497,34.99380314354399,0.16427808233233548,-18.271300506387426
143024.4743902989,29.096131774142965,27.16672677368294,0.22158228571403793,-10.350121244150149
143024.4743902989,116.22477499014899,13.255859793584385,-0.08509128840701002,-115.46035479753138
143024.4743902989,5.87952209744852,2.1657602756965417,0.01802418311475758,5.3383710537038676
143024.4743902989,9.631323860090303,8.344830739525618,-0.4433240036414796,-4.642190313850605
143024.4743902989,43.91825743440121,43.898828685818295,-0.3144077155947297,-0.47706575174571
143024.4743902989,78.83690905318117,36.99605069865038,0.34554221725494627,69.60640293963009
143024.4743902989,17.611909940561837,13.920708300000667,-0.2080673650049667,10.722417078624268
143024.4743902989,523.850026138246,14.504195843775491,-0.006058983194192186,523.6478763626477
143024.4743902989,13.854924775490943,9.840830306607476,0.411250635020484,9.673062606117249
143024.4743902989,70.04642847585933,28.078990234406135,0.2553360664776669,64.16095012535706
143024.4743902989,14.426639145476246,14.174598255111285,0.2125091459987417,-2.4049509472025714
143024.4743902989,49.52677334021084,11.784297644645811,0.09039997993297177,-48.08995427544346
143024.4743902989,36.54142858464482,23.1610000899451,-0.15948721281502917,28.23896084357229
143024.4743902989,235.2060600497461,23.68799254609348,-0.31707379734475,-234.00702858103136
143024.4743902989,39.41012907501691,29.378331003331397,-0.46937436433041146,26.23874800233234
143024.4743902989,48.36821641617328,9.610882347869879,0.22307930898596098,47.3886674559929
143024.4743902989,41.904771637635584,18.133074815618635,-0.3164067677991494,37.75872929994408
143024.4743902989,84.8854774958844,28.323140450477425,-0.08693039221537231,80.01222853845114
143024.4743902989,58.95599655928767,17.663939392814772,-0.15180378540118702,-56.235149140835794
143024.4743902989,85.55425200357315,63.690004581281514,-0.3540911934598237,57.11049150208354
143024.4743902989,30.2194748424135,26.43640070587523,0.3076093618647989,14.58968888653062
143024.4743902989,70.73648487123607,9.481440756088453,-0.03948979068348087,-70.0883105912778
143024.4743902989,27.214168874119075,10.77854548138158,-0.1367885160967693,-24.960679108796786
143024.4743902989,67.69214624271156,13.75968522932401,-0.08112399171359211,-66.26847977800712
143024.4743902989,91.51264302843055,31.265368973258937,0.06662360169980097,85.9980021056666
143024.4743902989,67.03243451928556,22.266737447008744,-0.10125578199815569,63.215106550337296
143024.4743902989,99.10550149653791,25.946108676278286,-0.11740286982661452,95.64155140868844
143024.4743902989,245.05287935109945,21.74307618630722,-0.25938294694139963,-244.08339825675029
143024.4743902989,141.31366312025244,29.552416460718412,-0.24441194450839132,-138.18381452418157
143024.4743902989,19.456948097786515,12.820332679678188,0.15587298486212822,14.587935794022535
143024.4743902989,179.49233091029447,18.978952920222312,0.19233498226704357,178.4821545050732
143024.4743902989,186.3341275087531,25.769469289586475,0.07470929433663678,184.5398499331736
143024.4743902989,21.008439438720345,20.257154085943892,0.13425778366906366,5.440999787891126
143024.4743902989,260.33165934478484,43.96213866064218,-0.24992917370100454,256.5900641584847
143024.4743902989,118.67777826789766,94.55243781766993,-0.003237398895689988,71.71381885463072
143024.4743902989,43.95647914700207,10.24780348549037,0.11945643030619421,-42.72891972353686
143024.4743902989,152.15258233192233,31.912742001125114,0.01691621363061453,-148.76358825310487
143024.4743902989,120.16144539355507,28.810411106585406,0.1505118170870306,-116.650464143896
143024.4743902989,254.73454205535467,26.498765073366837,-0.4674876107517975,253.3493715976559
143024.4743902989,347.2631869509202,29.21356899302666,0.20189957995656418,346.0301546143264
143024.4743902989,1095.7238620231874,36.52517673624499,-0.0901928976712665,-1095.1142887409023
143024.4743902989,188.1773481512645,20.30818930408747,-0.37794749498209573,-187.07423453799885
143024.4743902989,71.2998426993779,11.936940514832617,0.24112492136839428,-70.28327785988125
143024.4743902989,1237.7304389984663,29.686969535491492,0.15051819793316693,-1237.3738000601365
143024.4743902989,320.4504344959299,19.557385060222725,-0.018912302876082993,-319.8509177232681
143024.4743902989,24.975356739191735,23.59957253124104,0.1478975115542743,-8.088696729032403
143024.4743902989,12.239372507031147,6.836848393741536,0.19356160345835782,-10.081792755662574
143024.4743902989,30.818268694926488,29.61355687080694,-0.23079684145951163,-8.448072885915549
143024.4743902989,32.057557410080356,31.70996054753236,-0.3094173146194593,4.548617147612307
143024.4743902989,29.14051933028518,22.61010963289704,0.3821067413176057,-18.34194841124957
143024.4743902989,1.7939190269078615,1.3367034264764568,0.20672207893640665,-0.09435710057202562
143024.4743902989,28.90570899323983,21.68363874897468,-0.2483977277468612,-19.07664513037551
143024.4743902989,58.63520997236002,16.175926760277846,0.336955863253873,56.346552428260374
143024.4743902989,239.84280300256373,1.570647743971328,-0.0560049821667483,239.83477718856483
143024.4743902989,181.71072669020091,30.56731918964333,-0.2773375355150214,179.11719778844895
143024.4743902989,97.27438408574577,36.40666816282722,-0.20028139486037388,90.19667658933697
143024.4743902989,12.423125948887563,11.247084635862034,-0.1355952478970988,5.141889469837661
143024.4743902989,499.3908819013967,28.514044286335363,0.23891419250644713,498.5747340094119
143024.4743902989,63.951313320528634,23.852737633810232,0.05964534706021623,-59.32481852548063
143024.4743902989,16.162094763495634,8.78541469457395,-0.15401954450746505,13.513931390386988
143024.4743902989,520.9202512595022,26.05603449938202,-0.24204895464721432,520.2668093570732
143024.4743902989,201.99603774513943,24.664063812051594,0.09292958141973372,-200.4811583490063
143024.4743902989,59.65131439926445,20.29695841117328,-0.14229434834574595,56.079522189378764
143024.4743902989,13.276152310891472,11.692988608360066,0.17874473145357347,-6.174022656528588
143024.4743902989,71.66311598469768,25.679332850686787,-0.1216934911331878,66.89379280269348
143024.4743902989,26.450544440997074,25.551925387738436,-0.44854815385445557,6.719336471250912
143024.4743902989,25.777126910473516,10.949065267396664,-0.2345437180730839,-23.305439249858793
143024.4743902989,24.108019031229937,23.73188526316024,0.4186232956796708,-4.05453152142844
143024.4743902989,184.18453813552833,50.521066529731385,-0.23711074482212985,-177.1161482509334
143024.4743902989,27.747940345352664,23.38990991066185,0.08129701646351373,14.88200142558409
143024.4743902989,161.0778692212196,51.062577389990295,-0.03818723398290528,-152.7655456990559
143024.4743902989,14.66851144217457,14.542571319796604,-0.10498238419888366,-1.5126446682692076
143024.4743902989,21.687506852976554,15.945570474449124,0.12121423288728954,-14.65238242428947
143024.4743902989,161.18536500529422,22.64619716543114,0.10724025817511007,159.58220581636593
143024.4743902989,35.450158398780495,13.232228183161773,-0.018554731153095763,-32.867031983203454
143024.4743902989,716.2399174346621,33.7494929900133,0.22532768097418607,-715.4433314700894
143024.4743902989,18.51890392591667,18.479163120282422,0.2442236077797015,0.1759422528241006
143024.4743902989,589.5377189240553,27.046481192998634,0.24757430753574802,-588.9157570179907
143024.4743902989,10.245030772373124,3.6867073756003723,0.1588119206762293,-9.484929672012182
143024.4743902989,79.01681786079561,14.087295885176887,-0.023782593881211254,-77.74204333392231
143024.4743902989,27.442951560598523,27.355524722737723,0.42474997764822964,1.7974183745389285
143024.4743902989,4.850149740824316,0.4123151819884269,-0.41978569096774176,-4.668832458803675
143024.4743902989,110.55097593361555,40.270757408747926,0.13594510577656815,102.94846363294806
143024.4743902989,779.4139129384367,14.332137759128837,0.037621162306155635,779.2812434299711
143024.4743902989,68.2302936581201,56.349869745926284,-0.24060383780324565,-38.45292615574634
143024.4743902989,28.376625563728606,25.209050476134482,-0.2613681151349869,-12.972609877728937
143024.4743902989,54.522834055960956,25.77293125743817,0.3471189319538618,48.031190118462625
143024.4743902989,372.29850130494685,25.509037216760966,0.4440737262367506,371.4214400927397
143024.4743902989,756.2568963338326,54.123345243165744,-0.08787832288537753,754.3167566065507
143024.4743902989,434.08828263242407,32.05112912330759,-0.14570861349243114,-432.9017917236471
143024.4743902989,43.091053578787566,22.44665461347874,0.1380769438053838,36.763946983509854
143024.4743902989,27.044978906267257,19.586219158942562,-0.14318744313632065,-18.612110796737696
143024.4743902989,61.541048316183264,11.393399369868666,-0.1999055649172499,-60.46545612392413
143024.4743902989,51.48644325252408,15.30669629443909,-0.15658005254770488,-49.14422283328868
143024.4743902989,648.8964340055556,42.0889052576691,0.28627486576961375,-647.5288753668783
143024.4743902989,36.87307271283793,26.7314356772631,-0.38831823328298126,25.367761326610562
143024.4743902989,127.6611547288223,31.322148168382366,0.07003857489081912,-123.75341944070814
143024.4743902989,177.74615194276473,31.662161667612995,0.3471682009696357,174.89911889740952
143024.4743902989,11.191248351812662,6.927253746455407,-0.05361685973548393,8.710602062551205
143024.4743902989,28.694997240083847,28.47505248838142,0.23670977235853902,-3.3374374498426866
143024.4743902989,62.1309070146883,30.605356815176982,-0.46744581815348657,-54.05518941735598
143024.4743902989,25.5135894058276,25.403605697072475,0.27857825056507074,-2.0353682641568893
143024.4743902989,273.9053724813759,18.130512655734556,-0.023615303097971753,-273.3021355481412
143024.4743902989,18.44523200144619,18.328588119237207,-0.013912948962451323,1.7057301744363051
143024.4743902989,15.728071944713662,14.993809526505455,-0.20222850578651758,-4.597531344973151
143024.4743902989,242.2494246681933,20.245816966582673,0.36918123570622996,-241.3987875290535
143024.4743902989,1278.453951583379,25.86290343373678,-0.13705712736288503,-1278.1917767018895
143024.4743902989,95.74200747098773,17.35600116308239,0.06275375479104545,-94.14838048539981
143024.4743902989,1179.9894883075167,26.716634391721758,-0.39462015068321604,1179.6863475118319
143024.4743902989,43.2225087107377,27.34511903199706,-0.09788514230791809,33.452061382375575
143024.4743902989,20.66733731884481,16.734371037540992,0.14296513130199626,12.070604237388302
143024.4743902989,1499.832260715243,28.69122993478238,0.09099138161043539,1499.557346551125
143024.4743902989,132.8835915404877,26.645660757228885,0.1898481984629784,130.1792682765846
143024.4743902989,24.135450787936264,18.173646420059136,-0.27632029173760625,-15.836113017010803
143024.4743902989,89.78274205103445,57.75697437784822,-0.22675135224769047,-68.72875331765464
143024.4743902989,319.33807889872025,18.703174162903693,0.05677295493758997,-318.7877302463891
143024.4743902989,31.115201706878395,28.302659063515364,0.18477338018817965,12.87250534463721
143024.4743902989,52.80826247236472,9.227832576264252,0.1624334591796305,-51.982242876981935
143024.4743902989,31.950444401388246,31.04448030656563,0.13523262805333847,-7.461442215374389
143024.4743902989,135.87746181881292,26.29842737726491,-0.1281469939812495,-133.30296768642935
143024.4743902989,29.44833396014376,29.415752479284606,0.37517681822730864,0.6303882266367797
143024.4743902989,133.1687054450872,22.09703767140972,-0.43438504831570085,131.31662733086813
143024.4743902989,144.46342327536317,20.316596445423492,-0.17763629124032804,143.02274394834612
143024.4743902989,199.83342746963928,17.983415685299082,-0.09890339472758064,-199.0191095863094
143024.4743902989,13.577233124316878,9.109426413224098,-0.38753887262718195,-9.99148093186918
143024.4743902989,55.44347503720698,7.820183705162852,0.2605553094378614,54.87600595711411
143024.4743902989,31.184577173434917,28.24905054528304,-0.12689167234534746,-13.155727389051942
143024.4743902989,293.63258615526996,34.7143208237037,-0.37369870231096497,291.5707327547065
143024.4743902989,494.2269175245167,15.526248944224111,0.23627953909701221,493.98152398580896
143024.4743902989,183.3912044590267,33.28075485666951,-0.20511019503313177,-180.34218426859061
143024.4743902989,57.84070896193143,24.584747603558206,0.03270663578026361,-52.34268809126801
143024.4743902989,590.8692845789051,15.148310411185859,-0.04812843389310663,-590.673901659776
143024.4743902989,126.53468578380316,10.279920096952413,-0.21142930322874764,126.11076684689299
143024.4743902989,21.51894211280929,11.971191184115359,0.252333487032999,-17.84130171693527
143024.4743902989,276.88449081123014,20.732242886032008,-0.007184902462347662,-276.10471849090436
143024.4743902989,167.30278682839526,20.13798605615618,0.09997452035695475,-166.082191312315
143024.4743902989,52.61835520577258,24.073452885102967,0.012064983459748005,-46.77371369734668
143024.4743902989,26.97513633373265,25.584490045089535,-0.39795067113118193,8.458945115977734
143024.4743902989,99.65706245542889,33.47797878878721,-0.07962048589492837,93.85823864689019
143024.4743902989,37.989622312347336,22.90772311561123,0.1685042477655285,-30.282660042793047
143024.4743902989,37.33630372379203,35.414232980437966,-0.3602587754431048,11.761044155721144
143024.4743902989,7.270182747200262,7.049761827607891,-0.22846819468434748,-1.3131966689375392
143024.4743902989,9.53288440200602,9.40494213008575,-0.3083654313694444,0.9737182180097735
143024.4743902989,203.90577563792374,14.259006452963934,-0.007837856505582075,-203.4032110855215
143024.4743902989,20.804346386634037,19.51347167508791,0.04522574783163002,7.117827916431233
143024.4743902989,25.41574758506681,8.591073174971914,-0.2130536625598961,-23.889925973149786
143024.4743902989,68.78123558584227,19.30471154145856,0.2447962540114587,-66.00565751256353
143024.4743902989,939.0170758053816,37.664567422568055,-0.010790065251273516,-938.2606616321453
143024.4743902989,228.91925770843295,25.327454325931065,0.34266489112122644,-227.51054800992372
143024.4743902989,227.65673116518795,27.5136992601873,-0.47162019545386674,-225.98447167910774
143024.4743902989,304.2607616548596,31.564904246521643,0.27471131219473777,-302.6166100931239
143024.4743902989,36.72514320584084,22.35381233915068,-0.001145943694382526,-29.114660979272372
143024.4743902989,23.471175830973404,8.676661254242306,0.46994945247071657,-21.771795050829475
143024.4743902989,31.716239278156788,17.365774330049362,0.08890128027689281,-26.513432072914657
143024.4743902989,68.33782925833646,25.075952649322847,0.07797644089094583,63.559969273126065
143024.4743902989,71.373144374995,33.63369238531236,0.20140075099219304,62.940290594317716
143024.4743902989,10.55217700372173,10.116493463666714,0.02390651937669278,-2.761285181105647
143024.4743902989,141.30315859817358,25.84909857384425,-0.05403288013250304,138.9137289149051
143024.4743902989,837.1205786503601,28.544105753842864,0.2462175524580034,-836.6329283929722
143024.4743902989,27.751828271803326,24.1851704997678,-0.4838318435631925,-13.550928932275363
143024.4743902989,399.35672459659486,49.391145151051674,0.30958947477152643,-396.2888248278027
143024.4743902989,55.42619865890823,21.386460590975783,-0.31217311684972227,-51.11952285544258
143024.4743902989,51.731547656369706,6.092816447251516,-0.1420380155389114,51.35786895618911
143024.4743902989,62.59481446940595,30.789259603809747,-0.2536635510310347,54.48566980561989
143024.4743902989,85.14068589028632,48.453192134420966,0.030775232999102665,69.99888489536045
143024.4743902989,66.3690352723886,21.239077401327116,0.09641311771012744,62.86780898436283
143024.4743902989,31.66477662260064,6.277403300279302,-0.02065506115555029,-31.014063384034134
143024.4743902989,80.77039530476583,43.02813676719355,-0.43346065335590545,68.34375307041176
143024.4743902989,2338.811761422732,30.213139654415286,-0.28256826079728703,2338.616292166066
143024.4743902989,27.29660427164969,21.311417863106634,0.07119990999050584,-17.015971081766715
143024.4743902989,70.21010315426517,37.031677959166515,0.3307529819246557,-59.637440276907284
143024.4743902989,19.697575146679835,13.405622036740434,-0.018607713464274547,-14.384147040257826
143024.4743902989,28.9927609286123,21.333617859115805,0.3880525832571368,-19.594045482061905
143024.4743902989,275.92742563762846,31.867648694515765,0.10353005377261607,-274.07846820769316
143024.4743902989,33.7987803112794,20.1340717288894,-0.31275452080382743,27.12008773236881
143024.4743902989,40.805777219353764,17.412003747018414,-0.15666737603314543,-36.88535350485657
143024.4743902989,124.98332365209784,105.1093579620521,-0.18352259035899665,67.61242968008665
143024.4743902989,157.95042974516306,30.382576207172402,0.3492379378958857,-154.9959213025149
143024.4743902989,101.52117992370952,17.951819500356713,-0.24287207620738113,99.91418032861509
143024.4743902989,1066.3618155606334,32.2226642498524,0.020261178124761255,-1065.8742146481222
143024.4743902989,666.6339923453128,17.714347365108456,-0.2147510649120475,666.3975208518671
143024.4743902989,65.84818703491035,19.350773053375878,-0.015775297666663128,-62.929733330253846
143024.4743902989,40.652908305800054,25.88516520288656,0.2807870650668676,-31.323451320356586
143024.4743902989,68.94742876046735,16.880572144161803,-0.24665587389832405,66.83826483011764
143024.4743902989,573.4800563039535,29.73281755124735,-0.20978207267322693,572.7075264026024
143024.4743902989,23.624727910638242,21.05159927321793,-0.2142509907739101,-10.655153741738895
143024.4743902989,43.42856723580036,37.502038165583414,0.3326502853127926,21.8665771721328
143024.4743902989,629.1600738774097,120.59425989695379,-0.22419222172003891,617.4933141719323
143024.4743902989,111.52934608635196,29.342102537811968,-0.05706664103536508,107.5939267262046
143024.4743902989,1025.8111517509155,16.3650388836577,0.4508460948839575,1025.6798338490091
143024.4743902989,83.07252393749363,21.511426737842328,0.2109411462344483,80.23015969531856
143024.4743902989,36.59463086823788,7.483819236916677,0.3930700327389046,35.79979360019701
143024.4743902989,41.052643801424765,30.010579576644332,-0.13727284202461645,-27.98724889271898
143024.4743902989,90.06981815967072,41.368887492381766,-0.24618877098053063,-79.99841842126285
143024.4743902989,197.58820809090236,55.996772965917344,0.20308807429056927,189.48361516782103
143024.4743902989,38.27775254579867,24.48902396119406,0.3677027171219487,-29.393181317320536
143024.4743902989,33.83123806512148,15.359989488859432,-0.06821975213005808,30.120408460744226
143024.4743902989,18.123943113305995,18.0579891215731,-0.20710148674023285,0.9816922579349665
143024.4743902989,190.95248420150432,54.49066641631284,-0.05777026987813186,-183.00883975011533
143024.4743902989,44.239307465603396,17.21823403272002,0.04226203084332931,-40.73410393769603
143024.4743902989,30.193607919575257,27.010660180737432,-0.23941008403907418,13.440280743683275
143024.4743902989,10.66879517332619,8.77158592248508,0.06518886837361589,-5.958060852482957
143024.4743902989,28.747322910995194,17.49649756460405,0.36022526557608964,-22.77655929095688
143024.4743902989,76.44445470730122,23.15192572612189,-0.1893983646538258,-72.84454260123972
143024.4743902989,352.4350401735989,34.17552599925557,0.2139281837341193,-350.77209904356454
143024.4743902989,24.121520319052905,23.624723156636918,-0.2760478578182841,-4.71850227408435
143024.4743902989,42.30841308437449,24.62542831273827,-0.28039139457834844,34.38214284557765
143024.4743902989,87.78967133643218,25.612776490955664,0.016321065957713904,83.96208713021333
143024.4743902989,675.5615570881309,22.788606638629098,0.17506964268034142,-675.1760410746856
143024.4743902989,33.572490722844265,32.19509084042895,0.03978573115041483,9.44494277712627
143024.4743902989,36.71400393071264,17.137061603075864,-0.1803339130966227,32.44729498389894
143024.4743902989,271.63255420723243,29.112657118654234,0.15402126518972986,-270.0653518057106
143024.4743902989,81.43944621042927,9.461543208920403,0.006645639661601503,-80.87943386830923
143024.4743902989,321.1173991030531,30.274463473513055,-0.16528867400949543,-319.6848976971077
143024.4743902989,69.92940729526343,26.30979619864534,-0.04292118255033185,-64.78066883168373
143024.4743902989,96.38438625038654,24.814501234140632,-0.46376834756632046,93.12677181208383
143024.4743902989,46.973040401643495,30.243379118583782,0.18251913144556675,35.92201969107941
143024.4743902989,87.19885807119212,26.064166566325866,0.1886883250270462,-83.20387451732238
143024.4743902989,23.377957779797626,17.561027254583927,-0.11336976432945817,-15.386573590955754
143024.4743902989,20.26051201141608,19.939966742358884,0.05313721846464234,-3.391683589306462
143024.4743902989,1430.0772111979595,31.405953422637488,0.38776467841798756,-1429.7317811337055
143024.4743902989,415.4420467508602,14.538124145752423,0.23632829389392726,415.1858638870785
143024.4743902989,116.460809697942,25.56706626876634,0.10464310074057234,113.61361993874607
143024.4743902989,28.446912005633653,18.1129247082117,0.33552599707044833,21.90106050701216
143024.4743902989,109.74362050997189,25.087797363565308,-0.14243403272436586,106.83100976066515
143024.4743902989,603.4377105443776,13.69171034751839,-0.02773755696076716,603.2812172389287
143024.4743902989,73.16669581866074,9.05258595827913,-0.34586687098023916,72.59419197464459
143024.4743902989,87.26309088245453,12.072298420118516,0.056717422748839404,-86.41599210912689
143024.4743902989,200.61764659012067,33.50747272567718,-0.1691006172412953,-197.79605928261918
143024.4743902989,1066.4959314229604,18.756375797651938,0.36210719893467874,1066.330276816192
143024.4743902989,45.77051870212202,11.936565401563973,0.2667213375403474,44.170215261635164
143024.4743902989,10.977908168048543,6.28131007981108,0.084374577987745,8.925959904321777
143024.4743902989,71.31916962467264,21.54186118647271,-0.15416816439184777,-67.97770717380999
143024.4743902989,349.41615004430156,33.87653007670674,-0.16500202335623634,-347.76805440398306
143024.4743902989,232.5048133641678,31.72632146434568,0.27002044750124404,-230.32688970387505
143024.4743902989,1348.7902624498768,37.01883909477609,-0.43078241395158273,-1348.281577537144
143024.4743902989,27.425192497447398,11.403490617854539,-0.37436322779824827,24.911477380513205
143024.4743902989,31.574451105290382,19.039396646276863,-0.2092578313575033,25.159964565987174
143024.4743902989,202.61199245582088,20.186680363188966,0.31786930705085603,-201.6001901035594
143024.4743902989,5.61104898632504,3.2017644747597775,0.0742167404178702,4.455034759252418
143024.4743902989,166.4767568475541,20.83638293941475,0.3778894749277409,165.16305029843102
143024.4743902989,62.96066480681918,20.522771922658535,-0.21634769506471133,59.50995384855898
143024.4743902989,339.2089498123646,16.068321184462988,0.21283940697305218,338.82605515863537
143024.4743902989,368.51425946946097,19.237092294954493,-0.016540506514089646,368.0099369672346
143024.4743902989,82.77450761308043,21.323942893015047,0.02255678809014247,-79.97204717356092
143024.4743902989,25.031965985588947,10.314077810700313,-0.47233186522386705,22.773148453457104
143024.4743902989,28.286469531161362,25.986778749796024,-0.08885334266729282,11.109638233784503
143024.4743902989,2270.8840549916736,21.573808204792872,0.08984385171480387,-2270.7812695658085
143024.4743902989,821.5353870700262,33.38077481615078,0.017892918679706448,-820.8560994648639
143024.4743902989,74.92682576593891,24.306605702326806,0.2355723190383796,70.864539172488
143024.4743902989,429.35794878934246,22.00180487718284,0.11989179676364764,428.7922278499817
143024.4743902989,41.6899693540407,33.94518404334969,0.1272597168032665,24.173996314719034
143024.4743902989,337.54035121172353,20.927892634341287,-0.26822138928283196,-336.8887951997827
143024.4743902989,585.8884734993659,29.293133882927044,-0.17634428075756772,585.154513660524
143024.4743902989,38.64539117594654,34.40923906491957,-0.3382901173074639,-17.5492550772753
143024.4743902989,35.721329080428546,13.503977598045388,0.04985992056594814,-33.049564628716055
143024.4743902989,149.407576113895,21.88935538044133,-0.07697912156945022,-147.79071101841453
143024.4743902989,8.978742815207529,8.411774503735751,0.16927786115593232,2.90714380471012
143024.4743902989,136.88368018857022,20.95757265188775,-0.21045083589029073,135.26454830741457
143024.4743902989,39.36043272096211,31.746326823525063,0.14313008485369588,-23.238205155083016
143024.4743902989,760.7506008229076,11.142424393953252,0.27127298914238435,760.6680417303337
143024.4743902989,964.6753679283668,29.236261109493324,-0.2611808972744697,-964.2314859910258
143024.4743902989,66.62613860932757,11.958353064620432,-0.12717996835155534,-65.53353516393315
143024.4743902989,61.754131738993586,28.74386875170494,-0.20487741931000045,-54.64376532707453
143024.4743902989,244.25736661040676,57.914819702965374,-0.20277356267321617,-237.28909362413089
143024.4743902989,38.13743963941153,37.92691123556068,0.14707784196604365,3.8226093632049034
143024.4743902989,27.107435003554468,12.7926155426572,-0.38585264585200996,23.86699406378994
143024.4743902989,204.20965223235638,17.254381186035737,-0.4139791092604801,-203.4755938285956
143024.4743902989,156.01494904273324,30.041793956576125,0.014140497746743797,-153.09074109357235
143024.4743902989,436.71352903365266,25.384581302145577,0.21204215990904784,-435.9735138504629
143024.4743902989,22.64728247584333,21.769347142364893,0.24451735885638773,-6.128246702986737
143024.4743902989,275.88885237921636,40.99469154389099,-0.04130423869653379,-272.82359262746644
143024.4743902989,63.7664161075686,17.201770814750443,-0.16588157017645738,-61.39094114933131
143024.4743902989,76.73460133182668,10.42374232697514,0.23036448846720692,-76.01389239812191
143024.4743902989,34.6461367936327,17.84762550247159,0.10633670016021023,-29.671973628466883
143024.4743902989,27.073811726461315,26.85554536341556,0.2819404168606022,-3.2111901361246176
143024.4743902989,124.2204945076305,25.822717920210753,-0.13838539550200873,-121.50110951045427
143024.4743902989,50.732882860199176,50.53790004569525,-0.23600222971954696,4.2790925534713145
143024.4743902989,530.2037065449773,10.82054787177692,0.45512625632219655,530.0917838504322
143024.4743902989,56.05972085052454,25.020227517160365,-0.02021787321363663,50.15277037135108
143024.4743902989,125.46996120030806,22.674753470602607,-0.09740861079056744,-123.39845014453118
143024.4743902989,26.493755461886316,13.526551772525295,0.13521449101401417,22.749801329164246
143024.4743902989,1063.6060816614154,35.04119832235966,0.11761841724366247,1063.028041869567
143024.4743902989,22.77689650504389,22.45838502377236,0.152097289193033,3.606257172706619
143024.4743902989,709.0145995375016,19.4146854715968,0.44499223411607075,-708.7476240490192
143024.4743902989,57.6883095812593,33.76830868210634,0.10369934117126962,-46.75737273837609
143024.4743902989,53.33922145756793,19.086696736641414,-0.15745134846078213,-49.79323277626614
143024.4743902989,562.5778995668882,27.542040941907967,-0.1433270652431579,-561.9020633411608
143024.4743902989,173.06712837595137,27.668845475184337,0.14832457772490223,170.83695203919922
143024.4743902989,61.99844272704859,16.71690006872854,-0.29748790323640095,-59.68989798512221
143024.4743902989,1262.0058841210723,17.671463623683316,-0.0928032525472896,-1261.8816040282934
143024.4743902989,227.84113993066907,25.79197979359019,-0.027225356765385553,226.3735372119924
143024.4743902989,26.09093914064684,25.56609244552885,-0.3621549377569061,5.05975631471199
143024.4743902989,103.9530920231091,25.500607511609868,0.22341225732363987,100.76971128529988
143024.4743902989,11.86051802794292,8.939358501866353,-0.04872265509698738,-7.7056895489468715
143024.4743902989,568.3145589778248,30.189511795386963,0.2259982646976418,-567.510881407886
143024.4743902989,33.902109402183676,17.55711424505184,0.18296294029818044,28.97736278065873
143024.4743902989,247.010341191629,24.541703075248076,-0.026581282828300818,-245.78533932491243
143024.4743902989,60.47876418965579,22.32604792055808,-0.37104545112684745,-56.19351470842283
143024.4743902989,135.35620754866935,12.287131846893681,-0.09746778163281092,-134.7922107572342
143024.4743902989,21.58713098051337,9.195884610644802,-0.4249195799783353,19.490501312272535
143024.4743902989,166.6101855899636,13.885813004447296,-0.2776543865396164,166.02614648128431
