8.754039303930394e6,1844.855224609375,9.08517837524414,-11.06883716583252,-1844.798828125
8.754039303930394e6,32.05313491821289,-17.705087661743164,21.368995666503906,-15.944091796875
8.754039303930394e6,198.18099975585938,20.4310245513916,38.20661926269531,-193.3790283203125
8.754039303930394e6,64.83882141113281,11.191985130310059,35.1219482421875,-53.31206130981445
8.754039303930394e6,20.335670471191406,-7.894300937652588,0.38088259100914,-18.654470443725586
8.754039303930394e6,135.20361328125,-5.6697587966918945,-37.95554733276367,129.630859375
8.754039303930394e6,40.648170471191406,-2.3413782119750977,-25.370677947998047,31.623334884643555
8.754039303930394e6,70.27542114257812,-57.2878303527832,-9.570440292358398,-39.52290725708008
8.754039303930394e6,51.59470748901367,-16.157882690429688,19.156709671020508,-45.0651969909668
8.754039303930394e6,47.72569274902344,14.664600372314453,-32.32588577270508,-31.85346031188965
8.754039303930394e6,22.86241912841797,-4.7155985832214355,-19.799156188964844,-10.264579772949219
8.754039303930394e6,1434.729248046875,30.569541931152344,27.09389877319336,1434.146484375
8.754039303930394e6,836.8834838867188,-20.06583023071289,28.167293548583984,836.1668090820312
8.754039303930394e6,47.792091369628906,-0.9024747610092163,40.260231018066406,25.676801681518555
8.754039303930394e6,44.1500244140625,41.133785247802734,-14.052146911621094,7.529163837432861
8.754039303930394e6,95.3076400756836,-30.837703704833984,19.78725814819336,87.96568298339844
8.754039303930394e6,99.93201446533203,-14.964645385742188,27.761829376220703,-94.80855560302734
8.754039303930394e6,76.25479888916016,-3.5060744285583496,35.12449645996094,67.56986999511719
8.754039303930394e6,49.34839630126953,21.716344833374023,-11.964367866516113,-42.63136672973633
8.754039303930394e6,395.8908386230469,7.715703964233398,-37.025367736816406,394.0762023925781
8.754039303930394e6,35.146270751953125,9.557058334350586,-29.858787536621094,-15.788933753967285
8.754039303930394e6,305.7713928222656,-32.53392028808594,-21.785110473632812,303.2491149902344
8.754039303930394e6,93.28297424316406,10.009352684020996,45.54116439819336,80.7740249633789
8.754039303930394e6,47.00679016113281,9.17938232421875,28.127012252807617,-36.485107421875
8.754039303930394e6,143.22189331054688,-14.179854393005371,-22.381322860717773,140.7388916015625
8.754039303930394e6,77.32344818115234,-7.292087554931641,-31.016252517700195,70.43186950683594
8.754039303930394e6,206.93223571777344,-0.12013568729162216,38.61859893798828,-203.28909301757812
8.754039303930394e6,63.76707077026367,56.50130844116211,-4.069847106933594,-29.22657012939453
8.754039303930394e6,44.41648483276367,-3.811553478240967,29.93282699584961,-32.545921325683594
8.754039303930394e6,92.66973876953125,14.2909517288208,5.157976150512695,-91.3989028930664
8.754039303930394e6,226.84231567382812,-28.149667739868164,35.42784118652344,-222.2764434814453
8.754039303930394e6,75.83826446533203,39.6019287109375,3.1163768768310547,64.57810974121094
8.754039303930394e6,126.4656753540039,-27.699718475341797,18.07856559753418,122.05070495605469
8.754039303930394e6,280.41064453125,14.315184593200684,-30.75719451904297,-278.3453063964844
8.754039303930394e6,45.93150329589844,-11.63057804107666,30.565046310424805,32.20443344116211
8.754039303930394e6,69.67840576171875,14.691162109375,-32.077720642089844,-60.05984115600586
8.754039303930394e6,69.63675689697266,-42.753746032714844,-8.986251831054688,54.19923782348633
8.754039303930394e6,77.66626739501953,22.49258804321289,41.91136932373047,-61.37168884277344
8.754039303930394e6,178.329345703125,23.008438110351562,-31.917329788208008,173.92575073242188
8.754039303930394e6,38.42035675048828,-7.048113822937012,-27.6799373626709,-25.635595321655273
8.754039303930394e6,129.34152221679688,40.906124114990234,-28.371540069580078,-119.36453247070312
8.754039303930394e6,244.69586181640625,-5.615962505340576,-32.14076614379883,-242.50445556640625
8.754039303930394e6,52.0386848449707,1.2152005434036255,36.025089263916016,37.4920768737793
8.754039303930394e6,600.9738159179688,11.096664428710938,-44.57866287231445,-599.212890625
8.754039303930394e6,72.84977722167969,41.09941101074219,29.786495208740234,52.22650909423828
8.754039303930394e6,21.315160751342773,-9.117412567138672,6.408128261566162,-18.084789276123047
8.754039303930394e6,80.31694030761719,6.368419647216797,0.9892279505729675,80.03868103027344
8.754039303930394e6,37.704681396484375,36.69150161743164,-0.9666909575462341,-8.447311401367188
8.754039303930394e6,73.68048858642578,1.094101071357727,6.0955657958984375,-73.39875030517578
8.754039303930394e6,409.0386047363281,-30.508867263793945,-15.21217155456543,-407.6116943359375
8.754039303930394e6,42.57867431640625,-8.797359466552734,-38.128299713134766,-16.694229125976562
8.754039303930394e6,139.32315063476562,-10.881508827209473,-19.98335838317871,137.44129943847656
8.754039303930394e6,21.26036262512207,13.332066535949707,-16.17533302307129,-3.087468147277832
8.754039303930394e6,89.01882934570312,21.681928634643555,10.533665657043457,85.67498016357422
8.754039303930394e6,30.31852912902832,11.774234771728516,-22.984813690185547,-15.785873413085938
8.754039303930394e6,1627.924072265625,3.4321234226226807,20.004926681518555,1627.7965087890625
8.754039303930394e6,154.69924926757812,50.94392395019531,-1.436428189277649,146.0528106689453
8.754039303930394e6,271.6729431152344,-4.352329730987549,34.930686950683594,-269.3770446777344
8.754039303930394e6,558.091064453125,16.14710807800293,-27.21199607849121,557.1905517578125
8.754039303930394e6,93.06208801269531,5.875224590301514,-15.1415376663208,-91.6170425415039
8.754039303930394e6,32.14422607421875,6.559952259063721,31.03444480895996,-4.898601055145264
8.754039303930394e6,420.1722717285156,-37.10926055908203,6.015071392059326,418.4833984375
8.754039303930394e6,98.1376724243164,-5.041624069213867,-34.995548248291016,-91.53038024902344
8.754039303930394e6,753.88720703125,9.122424125671387,-38.70602798461914,-752.8356323242188
8.754039303930394e6,361.62408447265625,-8.306159973144531,3.796119213104248,361.5044860839844
8.754039303930394e6,43.49913787841797,29.83551597595215,-23.261213302612305,21.397377014160156
8.754039303930394e6,1816.594970703125,-13.952791213989258,10.873311996459961,-1816.5079345703125
8.754039303930394e6,460.8312683105469,22.557096481323242,-23.74142837524414,459.6628112792969
8.754039303930394e6,49.197052001953125,29.010194778442383,39.64572525024414,1.9722983837127686
8.754039303930394e6,277.7219543457031,-10.834799766540527,28.963390350341797,-275.9893493652344
8.754039303930394e6,23.567594528198242,-11.316716194152832,9.029472351074219,18.513423919677734
8.754039303930394e6,149.04632568359375,4.928384304046631,13.124602317810059,-148.3751220703125
8.754039303930394e6,323.5953674316406,-37.468597412109375,-24.801193237304688,-320.45574951171875
8.754039303930394e6,133.653564453125,59.76331329345703,-10.61966323852539,-119.06199645996094
8.754039303930394e6,1113.2139892578125,-24.453081130981445,-34.784263610839844,-1112.4002685546875
8.754039303930394e6,562.2665405273438,14.166518211364746,13.743379592895508,-561.917236328125
8.754039303930394e6,135.9599151611328,34.974571228027344,31.54251480102539,-127.52983856201172
8.754039303930394e6,605.025146484375,-28.93092155456543,-2.103626012802124,-604.3267822265625
8.754039303930394e6,91.20792388916016,6.971235275268555,-22.643327713012695,88.05953216552734
8.754039303930394e6,175.9364013671875,24.80710792541504,13.819979667663574,-173.62069702148438
8.754039303930394e6,266.3547058105469,12.324848175048828,34.424556732177734,263.8271789550781
8.754039303930394e6,185.73583984375,10.46590518951416,2.8187568187713623,185.41099548339844
8.754039303930394e6,1296.7379150390625,-34.766937255859375,2.5738863945007324,-1296.26806640625
8.754039303930394e6,94.306884765625,-6.613352298736572,39.09767532348633,-85.54729461669922
8.754039303930394e6,489.8901672363281,23.851797103881836,0.5445346236228943,-489.30572509765625
8.754039303930394e6,29.618202209472656,26.11297607421875,13.697351455688477,-2.155856132507324
8.754039303930394e6,495.19073486328125,-11.24210262298584,-3.294379711151123,-495.04901123046875
8.754039303930394e6,121.37528228759766,17.626432418823242,15.0975341796875,119.1228256225586
8.754039303930394e6,666.5257568359375,40.175662994384766,1.67827570438385,665.3093872070312
8.754039303930394e6,255.5113067626953,27.370634078979492,29.895057678222656,252.2698516845703
8.754039303930394e6,22.62398338317871,15.969805717468262,4.402137756347656,15.308361053466797
8.754039303930394e6,535.7169189453125,7.518276214599609,2.478994131088257,535.655517578125
8.754039303930394e6,68.56542205810547,22.04589080810547,32.31477355957031,-56.28379821777344
8.754039303930394e6,259.3494873046875,40.24240493774414,-4.995945930480957,-256.153564453125
8.754039303930394e6,66.06854248046875,19.96489143371582,20.413698196411133,59.55376434326172
8.754039303930394e6,207.47669982910156,-19.42355728149414,19.734333038330078,205.61317443847656
8.754039303930394e6,846.3213500976562,16.379512786865234,-43.357120513916016,845.0494995117188
8.754039303930394e6,18.696949005126953,-12.240838050842285,13.758756637573242,-2.710944652557373
8.754039303930394e6,332.1210632324219,-4.056004524230957,11.808627128601074,-331.88165283203125
8.754039303930394e6,2510.87744140625,48.377017974853516,-68.86104583740234,-2509.466064453125
8.754039303930394e6,984.8406372070312,-35.04281997680664,-33.07158279418945,-983.6596069335938
8.754039303930394e6,95.24742126464844,-4.64279317855835,9.730877876281738,94.6189193725586
8.754039303930394e6,30.807096481323242,11.860788345336914,-28.161344528198242,3.5003368854522705
8.754039303930394e6,188.25465393066406,-17.553142547607422,22.404775619506836,186.08236694335938
8.754039303930394e6,58.70946502685547,-20.47216796875,19.897375106811523,51.27085876464844
8.754039303930394e6,31.911842346191406,-5.843381404876709,26.856857299804688,16.119699478149414
8.754039303930394e6,568.0556030273438,-16.16005516052246,38.986915588378906,-566.4829711914062
8.754039303930394e6,58.291866302490234,38.139183044433594,-10.647168159484863,42.742218017578125
8.754039303930394e6,1529.3846435546875,15.70881462097168,17.51090431213379,-1529.20263671875
8.754039303930394e6,40.569026947021484,-1.8398418426513672,-28.159881591796875,29.092897415161133
8.754039303930394e6,857.1084594726562,8.592301368713379,-14.833162307739258,-856.9352416992188
8.754039303930394e6,199.2046356201172,57.81846237182617,-60.7525520324707,-180.68080139160156
8.754039303930394e6,2042.07177734375,-11.873147964477539,6.379242897033691,2042.0264892578125
8.754039303930394e6,46.85327911376953,-7.204293727874756,-46.238441467285156,1.4998515844345093
8.754039303930394e6,39.957210540771484,6.827075958251953,35.275272369384766,17.3936710357666
8.754039303930394e6,68.54834747314453,-13.65318775177002,10.485551834106445,-66.32823181152344
8.754039303930394e6,1237.98486328125,33.22922897338867,-13.92221736907959,1237.459228515625
8.754039303930394e6,146.4840545654297,29.582624435424805,-15.421634674072266,-142.62374877929688
8.754039303930394e6,342.0212097167969,6.440556526184082,37.597312927246094,339.8829040527344
8.754039303930394e6,916.3053588867188,47.203819274902344,-7.262874126434326,-915.0581665039062
8.754039303930394e6,319.2176513671875,7.668788433074951,-12.72282886505127,318.8669738769531
8.754039303930394e6,84.91079711914062,15.359695434570312,25.66548728942871,-79.4488525390625
8.754039303930394e6,919.8980102539062,-40.11846923828125,5.777485370635986,-919.0029296875
8.754039303930394e6,51.53639602661133,47.278255462646484,-2.5886423587799072,20.27264976501465
8.754039303930394e6,519.6055908203125,16.396068572998047,-28.33841323852539,-518.5701293945312
8.754039303930394e6,41.51614761352539,-13.545489311218262,19.725217819213867,33.88127899169922
8.754039303930394e6,616.4146118164062,28.658506393432617,-22.030059814453125,615.351318359375
8.754039303930394e6,199.23660278320312,-12.70236587524414,-39.40284729003906,-194.87997436523438
8.754039303930394e6,40.77114486694336,11.624314308166504,39.01280212402344,-1.4413726329803467
8.754039303930394e6,91.98490142822266,-46.426815032958984,30.53938865661621,73.280517578125
8.754039303930394e6,26.235532760620117,19.623756408691406,-17.3085994720459,-0.7338975071907043
8.754039303930394e6,467.6168518066406,125.76580047607422,-26.946575164794922,-449.5767822265625
8.754039303930394e6,874.6500244140625,22.676607131958008,54.869449615478516,872.6309204101562
8.754039303930394e6,414.3749694824219,15.116839408874512,-39.73274230957031,412.184814453125
8.754039303930394e6,39.7430534362793,-24.801393508911133,3.9769160747528076,-30.74898338317871
8.754039303930394e6,31.884599685668945,-6.828366756439209,-11.915992736816406,-28.72150993347168
8.754039303930394e6,1065.6346435546875,-35.11428451538086,21.37310028076172,-1064.840087890625
8.754039303930394e6,569.0095825195312,-29.374624252319336,-36.80101013183594,-567.0552368164062
8.754039303930394e6,296.50262451171875,14.70234203338623,39.51382827758789,-293.484619140625
8.754039303930394e6,138.60159301757812,-17.10981559753418,-30.170982360839844,-134.18003845214844
8.754039303930394e6,33.872642517089844,-26.052003860473633,-2.3472135066986084,21.448881149291992
8.754039303930394e6,243.7991180419922,-12.534579277038574,-10.323410034179688,-243.2513885498047
8.754039303930394e6,780.63623046875,-1.8859792947769165,36.63459777832031,-779.7718505859375
8.754039303930394e6,19.91969108581543,1.5825796127319336,-8.513059616088867,-17.853071212768555
8.754039303930394e6,92.43771362304688,-23.68528938293457,29.193090438842773,84.42994689941406
8.754039303930394e6,340.56378173828125,-14.419788360595703,28.25676155090332,339.0785217285156
8.754039303930394e6,253.6699981689453,132.9136199951172,-69.1035385131836,-204.70480346679688
8.754039303930394e6,45.585845947265625,7.907718181610107,-3.337066411972046,-44.7360725402832
8.754039303930394e6,50.579444885253906,31.946332931518555,15.12662124633789,36.136024475097656
8.754039303930394e6,143.82479858398438,-7.980110168457031,5.03577184677124,-143.50416564941406
8.754039303930394e6,197.7830352783203,-81.02507781982422,25.218595504760742,-178.6448974609375
8.754039303930394e6,39.10728073120117,-21.518966674804688,12.410673141479492,30.152999877929688
8.754039303930394e6,213.23147583007812,-43.05928421020508,12.27823543548584,208.46995544433594
8.754039303930394e6,69.498779296875,34.8131217956543,27.00225830078125,-53.72075271606445
8.754039303930394e6,36.84770965576172,-0.38856029510498047,-30.271163940429688,20.93260955810547
8.754039303930394e6,21.09709358215332,-9.409178733825684,-3.945563793182373,18.382112503051758
8.754039303930394e6,12.902508735656738,-9.032421112060547,2.9737303256988525,-8.541770935058594
8.754039303930394e6,59.37153244018555,32.49653625488281,-10.859918594360352,-48.4554557800293
8.754039303930394e6,52.15428161621094,-15.707186698913574,15.152429580688477,47.33573532104492
8.754039303930394e6,94.3498306274414,-10.834096908569336,-30.428144454956055,-88.6315689086914
8.754039303930394e6,1743.5836181640625,21.774242401123047,8.013322830200195,1743.4283447265625
8.754039303930394e6,161.07705688476562,-25.829065322875977,-32.845863342285156,-155.55300903320312
8.754039303930394e6,66.0214614868164,25.4749755859375,16.268125534057617,-58.66959762573242
8.754039303930394e6,20.293182373046875,1.2861062288284302,-6.96725606918335,18.93492317199707
8.754039303930394e6,261.22637939453125,-20.972387313842773,-38.0875129699707,-257.5764465332031
8.754039303930394e6,866.3629150390625,39.442230224609375,-47.539390563964844,864.1561889648438
8.754039303930394e6,373.75927734375,-34.71495056152344,6.257838726043701,372.08685302734375
8.754039303930394e6,31.457035064697266,-2.340869903564453,-11.697836875915527,-29.054101943969727
8.754039303930394e6,1040.174560546875,36.16971969604492,-6.610651969909668,1039.52294921875
8.754039303930394e6,51.36766815185547,-14.72083854675293,10.657696723937988,48.01314926147461
8.754039303930394e6,55.80741882324219,11.282191276550293,-14.788395881652832,-52.58705520629883
8.754039303930394e6,788.7159423828125,-3.1298067569732666,35.9501838684082,787.8880004882812
8.754039303930394e6,52.44769287109375,-19.872385025024414,28.02968978881836,-39.58661651611328
8.754039303930394e6,178.30831909179688,30.733230590820312,-8.844518661499023,175.4081268310547
8.754039303930394e6,320.3082275390625,-15.994852066040039,35.30885696411133,317.9492492675781
8.754039303930394e6,266.30352783203125,-90.12266540527344,14.523519515991211,-250.16287231445312
8.754039303930394e6,107.01960754394531,-8.647077560424805,52.283260345458984,-92.9612808227539
8.754039303930394e6,29.084556579589844,-21.24113655090332,5.891179084777832,-18.89270782470703
8.754039303930394e6,49.088348388671875,-29.165802001953125,3.5664377212524414,39.2838020324707
8.754039303930394e6,62.66796112060547,-30.585098266601562,-44.72200393676758,-31.443315505981445
8.754039303930394e6,188.1529541015625,-18.96012306213379,-13.958121299743652,-186.66583251953125
8.754039303930394e6,1117.224365234375,-12.166768074035645,-7.882436275482178,1117.12890625
8.754039303930394e6,956.8096923828125,-13.677401542663574,43.957008361816406,955.699951171875
8.754039303930394e6,37.19157409667969,-24.258228302001953,-23.420347213745117,-15.593385696411133
8.754039303930394e6,153.6322784423828,6.160048484802246,-13.826072692871094,152.87472534179688
8.754039303930394e6,867.3225708007812,7.882463455200195,-15.566740036010742,-867.145263671875
8.754039303930394e6,207.11752319335938,-48.638084411621094,5.404158115386963,-201.2454071044922
8.754039303930394e6,183.50181579589844,-36.406341552734375,17.878950119018555,178.95460510253906
8.754039303930394e6,139.5972900390625,42.65985107421875,-11.240684509277344,-132.43150329589844
8.754039303930394e6,53.12659454345703,6.072103977203369,-40.198890686035156,-34.15447998046875
8.754039303930394e6,421.9228210449219,36.609825134277344,21.572439193725586,419.7738952636719
8.754039303930394e6,101.427490234375,41.235050201416016,8.610681533813477,92.24954223632812
8.754039303930394e6,944.2149658203125,-35.33650207519531,22.810096740722656,-943.276123046875
8.754039303930394e6,19.917774200439453,-16.556060791015625,7.6831488609313965,-7.778085708618164
8.754039303930394e6,360.80902099609375,-22.51499366760254,13.319011688232422,359.8551940917969
8.754039303930394e6,306.9835205078125,-18.767215728759766,19.800945281982422,305.7638244628906
8.754039303930394e6,80.2374267578125,-28.958932876586914,24.74944305419922,-70.5960693359375
8.754039303930394e6,115.74562072753906,31.527246475219727,25.52122688293457,-108.39125061035156
8.754039303930394e6,74.29865264892578,6.515535831451416,41.68429946899414,-61.132408142089844
8.754039303930394e6,568.0559692382812,6.366329669952393,33.823429107666016,567.0096435546875
8.754039303930394e6,423.7983703613281,3.0697953701019287,5.630232810974121,423.7462158203125
8.754039303930394e6,78.60576629638672,20.01629066467285,-12.97669506072998,-74.87813568115234
8.754039303930394e6,1301.1083984375,-7.6893439292907715,-41.482078552246094,-1300.4229736328125
8.754039303930394e6,793.8650512695312,32.102577209472656,11.0182466506958,-793.13720703125
8.754039303930394e6,161.3123016357422,35.12649917602539,-17.80899429321289,156.42103576660156
8.754039303930394e6,25.22828483581543,10.414002418518066,-18.484004974365234,13.537774085998535
8.754039303930394e6,257.72021484375,51.25938034057617,-0.9138232469558716,-252.5634002685547
8.754039303930394e6,44.50827407836914,-36.71394348144531,5.233661651611328,24.54783821105957
8.754039303930394e6,150.27511596679688,11.089234352111816,-29.037925720214844,147.01480102539062
8.754039303930394e6,308.082763671875,-30.083236694335938,12.469223022460938,-306.351806640625
8.754039303930394e6,79.53086853027344,34.37156677246094,-19.628110885620117,-68.95945739746094
8.754039303930394e6,53.188865661621094,-21.846529006958008,-15.223703384399414,-46.010196685791016
8.754039303930394e6,56.20489501953125,45.3260498046875,12.916036605834961,-30.57172393798828
8.754039303930394e6,161.2167510986328,12.944671630859375,-27.273406982421875,158.3551483154297
8.754039303930394e6,704.2681274414062,14.151713371276855,-27.089374542236328,-703.6024780273438
8.754039303930394e6,321.8299560546875,26.52986717224121,17.903881072998047,-320.22967529296875
8.754039303930394e6,2229.005126953125,4.717543601989746,20.254779815673828,-2228.9072265625
8.754039303930394e6,91.62918853759766,-7.750512599945068,11.232431411743164,-90.59020233154297
8.754039303930394e6,1477.9735107421875,11.150548934936523,-3.9749510288238525,-1477.925048828125
8.754039303930394e6,34.83483123779297,-7.854823589324951,-8.006269454956055,32.932987213134766
8.754039303930394e6,81.2769775390625,-2.9660465717315674,-25.463512420654297,77.10820007324219
8.754039303930394e6,169.55795288085938,-30.3291015625,-14.851276397705078,-166.1517333984375
8.754039303930394e6,105.35415649414062,43.57229232788086,-0.7245106101036072,-95.90277862548828
8.754039303930394e6,49.23478317260742,17.950559616088867,-33.99580001831055,-30.708980560302734
8.754039303930394e6,60.717201232910156,-20.404403686523438,-12.767509460449219,-55.714847564697266
8.754039303930394e6,35.98734664916992,-13.324362754821777,-33.350791931152344,-1.4798774719238281
8.754039303930394e6,1299.9912109375,-19.653820037841797,4.048252105712891,-1299.8350830078125
8.754039303930394e6,593.9838256835938,-24.408845901489258,-26.809764862060547,-592.8736572265625
8.754039303930394e6,282.4671630859375,27.308420181274414,20.37174415588379,-280.39947509765625
8.754039303930394e6,262.05401611328125,10.873661994934082,19.752212524414062,261.0763244628906
8.754039303930394e6,603.3657836914062,6.940711975097656,38.1634407043457,-602.1151123046875
8.754039303930394e6,536.1614379882812,28.40511131286621,21.65625,534.9674682617188
8.754039303930394e6,179.6743927001953,-0.26363787055015564,-17.16581916809082,-178.8437042236328
8.754039303930394e6,261.3703918457031,-34.7204475402832,2.113318681716919,259.0394287109375
8.754039303930394e6,675.9503173828125,-20.074764251708984,-14.573259353637695,675.4927368164062
8.754039303930394e6,289.77459716796875,14.345084190368652,30.540441513061523,-287.7980651855469
8.754039303930394e6,56.54621505737305,28.055557250976562,-22.885324478149414,43.39973449707031
8.754039303930394e6,78.41128540039062,-15.73131275177002,-35.9770622253418,67.84851837158203
8.754039303930394e6,1216.7119140625,-36.99356460571289,-9.073019027709961,1216.1142578125
8.754039303930394e6,950.1640014648438,0.972464919090271,22.626270294189453,-949.8923950195312
8.754039303930394e6,2128.878173828125,14.79937744140625,3.4955661296844482,2128.8232421875
8.754039303930394e6,121.08262634277344,16.161502838134766,7.234692096710205,119.76803588867188
8.754039303930394e6,3115.3603515625,-19.087547302246094,-14.762286186218262,-3115.266357421875
8.754039303930394e6,164.47935485839844,2.2461671829223633,44.061309814453125,158.44219970703125
8.754039303930394e6,160.0083465576172,4.199924468994141,-9.521090507507324,-159.65994262695312
8.754039303930394e6,586.7135620117188,-35.09919738769531,-25.72722625732422,-585.0947875976562
8.754039303930394e6,99.22496795654297,1.105035662651062,-7.798146724700928,-98.89629364013672
8.754039303930394e6,1130.47216796875,0.7686881422996521,-37.11714172363281,-1129.861083984375
8.754039303930394e6,68.78955078125,51.32194900512695,-21.222230911254883,-40.55356216430664
8.754039303930394e6,33.513389587402344,30.066665649414062,9.075849533081055,11.562300682067871
8.754039303930394e6,36.895843505859375,35.08366394042969,-2.6941306591033936,10.958844184875488
8.754039303930394e6,91.78672790527344,-24.783977508544922,31.86545181274414,82.41398620605469
8.754039303930394e6,270.1205749511719,-20.724342346191406,-28.202905654907227,267.837890625
8.754039303930394e6,16.126447677612305,-0.3708106279373169,-4.646543025970459,15.337837219238281
8.754039303930394e6,307.91326904296875,-5.3873982429504395,93.34291076660156,293.3693542480469
8.754039303930394e6,102.97982788085938,-32.906898498535156,-12.660645484924316,96.73987579345703
8.754039303930394e6,52.139835357666016,20.899261474609375,10.223335266113281,-46.62812042236328
8.754039303930394e6,32.58664321899414,-17.426069259643555,22.353315353393555,15.983288764953613
8.754039303930394e6,35.80179214477539,-16.6275691986084,-10.705460548400879,-29.792619705200195
8.754039303930394e6,283.81634521484375,10.966019630432129,12.737361907958984,-283.3127746582031
8.754039303930394e6,36.86499786376953,-23.294063568115234,28.007831573486328,-5.375018119812012
8.754039303930394e6,306.8137512207031,-38.6601676940918,-0.2647421956062317,304.3631286621094
8.754039303930394e6,400.611572265625,-27.571266174316406,-2.055030107498169,-399.65252685546875
8.754039303930394e6,104.4761734008789,73.35246276855469,-42.93155288696289,-60.73289108276367
8.754039303930394e6,667.682861328125,-38.80384826660156,-16.48440170288086,666.34814453125
8.754039303930394e6,80.760009765625,-9.202164649963379,23.22821617126465,-76.77801513671875
8.754039303930394e6,73.78466033935547,29.428030014038086,10.780702590942383,66.7746810913086
8.754039303930394e6,498.37786865234375,-13.988726615905762,37.920013427734375,-496.7331237792969
8.754039303930394e6,114.55492401123047,29.078044891357422,-19.529502868652344,109.05416870117188
8.754039303930394e6,1130.522705078125,-18.112720489501953,13.161558151245117,-1130.2996826171875
8.754039303930394e6,712.9268798828125,24.073535919189453,-3.9308736324310303,-712.50732421875
8.754039303930394e6,38.752872467041016,1.6219266653060913,-36.85239028930664,11.746099472045898
8.754039303930394e6,113.41385650634766,15.031325340270996,35.41034698486328,-106.67607116699219
8.754039303930394e6,268.155029296875,5.5072197914123535,14.214038848876953,-267.7156677246094
8.754039303930394e6,37.212646484375,-34.83651351928711,-8.67953872680664,9.632165908813477
8.754039303930394e6,1308.2230224609375,27.034955978393555,-23.367292404174805,-1307.733642578125
8.754039303930394e6,61.982826232910156,-23.102249145507812,26.945890426635742,50.78376388549805
8.754039303930394e6,144.73580932617188,17.605487823486328,-36.429500579833984,-138.95433044433594
8.754039303930394e6,1569.127685546875,-18.437021255493164,-3.79314923286438,1569.0137939453125
8.754039303930394e6,115.7591323852539,-25.799884796142578,5.6869797706604,112.69035339355469
8.754039303930394e6,99.5614013671875,6.529586315155029,-38.157623291015625,91.71012878417969
8.754039303930394e6,175.43211364746094,-24.984506607055664,28.670127868652344,171.25167846679688
8.754039303930394e6,1411.6697998046875,-23.196475982666016,-3.9511895179748535,1411.4725341796875
8.754039303930394e6,63.38861846923828,20.779644012451172,-6.996109485626221,59.44991683959961
8.754039303930394e6,27.047765731811523,22.69775390625,6.119235992431641,-13.261347770690918
8.754039303930394e6,32.156089782714844,24.976123809814453,-4.219099521636963,19.731229782104492
8.754039303930394e6,14.973085403442383,-3.140937566757202,-8.635895729064941,-11.690333366394043
8.754039303930394e6,35.64008712768555,8.157427787780762,-7.174826145172119,33.89850616455078
8.754039303930394e6,63.301883697509766,-16.513235092163086,46.184661865234375,-39.979164123535156
8.754039303930394e6,58.08132553100586,-29.422836303710938,-33.13040542602539,37.510372161865234
8.754039303930394e6,26.343585968017578,5.502717971801758,-16.000839233398438,-20.114486694335938
8.754039303930394e6,70.53055572509766,22.73118782043457,-19.534191131591797,-63.82148742675781
8.754039303930394e6,172.96066284179688,-10.944422721862793,33.03530502319336,169.41427612304688
8.754039303930394e6,36.48706817626953,-22.202367782592773,-28.55996322631836,4.427664279937744
8.754039303930394e6,124.52984619140625,52.43424987792969,60.202640533447266,-95.5556869506836
8.754039303930394e6,227.7569122314453,-1.5883046388626099,36.08741760253906,-224.86729431152344
8.754039303930394e6,47.31447982788086,-38.83588790893555,5.346770286560059,26.434078216552734
8.754039303930394e6,177.54620361328125,-5.558994293212891,33.33665084838867,174.29095458984375
8.754039303930394e6,410.3204345703125,44.87383270263672,-16.485509872436523,-407.522216796875
8.754039303930394e6,17.073060989379883,-12.988930702209473,-10.101004600524902,4.202570915222168
8.754039303930394e6,1806.593505859375,-8.491066932678223,-9.567015647888184,-1806.54736328125
8.754039303930394e6,27.490554809570312,3.0393130779266357,-26.617584228515625,-5.9086594581604
8.754039303930394e6,2042.4300537109375,1.2952260971069336,34.49164581298828,2042.1376953125
8.754039303930394e6,118.97559356689453,-30.87942886352539,-28.390647888183594,111.32177734375
8.754039303930394e6,118.6297836303711,-23.207075119018555,-56.79049301147461,101.51951599121094
8.754039303930394e6,39.08852767944336,16.302539825439453,-35.044681549072266,-5.561051368713379
8.754039303930394e6,45.983123779296875,-36.500091552734375,23.579240798950195,14.937371253967285
8.754039303930394e6,37.70630645751953,-32.384727478027344,-17.940574645996094,-6.9315056800842285
8.754039303930394e6,835.0279541015625,38.393062591552734,13.091773986816406,-834.0402221679688
8.754039303930394e6,12.793313980102539,10.470526695251465,6.996688365936279,-1.4135421514511108
8.754039303930394e6,791.7852783203125,24.52989959716797,95.92692565917969,-785.5680541992188
8.754039303930394e6,293.3862609863281,18.01172637939453,28.00588607788086,291.4852600097656
8.754039303930394e6,829.9061889648438,27.755062103271484,-25.900606155395508,-829.03564453125
8.754039303930394e6,64.85054779052734,-29.733104705810547,-45.39677047729492,-35.46243667602539
8.754039303930394e6,38.09934616088867,29.7814998626709,5.874874591827393,-22.956985473632812
8.754039303930394e6,153.25962829589844,-3.995325803756714,27.770254135131836,-150.6594696044922
8.754039303930394e6,118.4165267944336,28.902013778686523,20.99711799621582,-112.88571166992188
8.754039303930394e6,1124.5040283203125,-29.412691116333008,-3.192534923553467,-1124.1134033203125
8.754039303930394e6,96.86893463134766,-23.74966049194336,-26.214256286621094,90.16246795654297
8.754039303930394e6,861.6849365234375,-40.641876220703125,-44.0806999206543,-859.5946655273438
8.754039303930394e6,64.45230865478516,-4.092266082763672,23.897905349731445,59.692195892333984
8.754039303930394e6,507.3305969238281,32.69688415527344,30.670381546020508,505.34295654296875
8.754039303930394e6,30.005592346191406,-9.393871307373047,20.12847328186035,20.09602165222168
8.754039303930394e6,176.51226806640625,2.315653085708618,-25.883058547973633,174.58006286621094
8.754039303930394e6,1753.4384765625,-47.43252182006836,6.3964738845825195,-1752.7843017578125
8.754039303930394e6,245.0115509033203,39.38832092285156,-2.825873851776123,-241.8018798828125
8.754039303930394e6,675.7943115234375,11.538764953613281,12.429917335510254,675.5791625976562
8.754039303930394e6,825.8469848632812,7.736242771148682,36.256961822509766,-825.0125732421875
8.754039303930394e6,462.57666015625,-47.989402770996094,16.121631622314453,459.79473876953125
8.754039303930394e6,46.409366607666016,-26.162372589111328,-16.975170135498047,34.32372283935547
8.754039303930394e6,293.92816162109375,-3.957777261734009,-22.315399169921875,293.0478210449219
8.754039303930394e6,1174.591796875,15.457808494567871,49.60530090332031,1173.440673828125
8.754039303930394e6,402.0486755371094,7.803708076477051,46.039493560791016,399.3238525390625
8.754039303930394e6,122.68104553222656,52.11967468261719,-13.08977222442627,-110.27125549316406
8.754039303930394e6,40.76155471801758,-2.105936288833618,18.083799362182617,-36.427467346191406
8.754039303930394e6,128.82028198242188,-15.258545875549316,-30.4759521484375,124.21744537353516
8.754039303930394e6,57.853485107421875,12.720151901245117,-5.681168556213379,-56.12363815307617
8.754039303930394e6,112.38997650146484,-21.81269645690918,-16.27572250366211,-109.0308609008789
8.754039303930394e6,140.66815185546875,1.1811354160308838,46.85984802246094,-132.61676025390625
8.754039303930394e6,207.29237365722656,38.67280578613281,18.55750274658203,202.79811096191406
8.754039303930394e6,91.06551361083984,13.948579788208008,4.46234655380249,89.86305236816406
8.754039303930394e6,213.88563537597656,-31.841400146484375,11.368988990783691,-211.1891326904297
8.754039303930394e6,37.277122497558594,9.747572898864746,35.24595642089844,-7.014713287353516
8.754039303930394e6,1314.818603515625,-2.8022663593292236,-29.317461013793945,-1314.487548828125
8.754039303930394e6,2.814000368118286,-0.9982181787490845,-0.9152275919914246,1.7318575382232666
8.754039303930394e6,40.662723541259766,2.3661344051361084,-17.04329490661621,36.80080795288086
8.754039303930394e6,1011.2188720703125,20.862293243408203,-28.249557495117188,-1010.6073608398438
8.754039303930394e6,192.72364807128906,-41.700069427490234,10.280135154724121,187.8689422607422
8.754039303930394e6,50.14133071899414,13.956777572631836,7.759676933288574,47.49803924560547
8.754039303930394e6,36.29515838623047,1.073197364807129,27.93742561340332,23.078170776367188
8.754039303930394e6,692.4496459960938,-22.233423233032227,32.8277587890625,-691.3114013671875
8.754039303930394e6,574.920166015625,38.723873138427734,21.51866340637207,573.2080688476562
8.754039303930394e6,28.659082412719727,21.737449645996094,-18.079843521118164,4.342846870422363
8.754039303930394e6,40.90678405761719,6.136647701263428,-37.848716735839844,14.145533561706543
8.754039303930394e6,13.81236457824707,5.205755233764648,-9.043462753295898,8.877619743347168
8.754039303930394e6,105.43254852294922,-0.07286565005779266,-25.470096588134766,-102.2947006225586
8.754039303930394e6,136.55523681640625,12.441652297973633,-23.19023323059082,-133.98382568359375
8.754039303930394e6,56.539920806884766,28.65634536743164,19.636262893676758,44.57475280761719
8.754039303930394e6,36.287776947021484,18.11526870727539,-29.890470504760742,-9.597618103027344
8.754039303930394e6,101.79009246826172,-5.899456024169922,-22.56209373474121,99.06707763671875
8.754039303930394e6,39.369354248046875,-37.456748962402344,5.873231410980225,10.45743179321289
8.754039303930394e6,195.78855895996094,-26.675153732299805,-23.1947021484375,-192.56301879882812
8.754039303930394e6,120.37310791015625,-0.03202490136027336,40.00817108154297,-113.51627349853516
8.754039303930394e6,42.031524658203125,12.329216003417969,-7.2666401863098145,-39.48101043701172
8.754039303930394e6,343.1314697265625,52.84158706665039,-1.9259860515594482,-339.0282897949219
8.754039303930394e6,39.43602752685547,17.543933868408203,20.671361923217773,-28.583566665649414
8.754039303930394e6,69.97810363769531,-12.526589393615723,-21.023008346557617,-65.53599548339844
8.754039303930394e6,880.76953125,-7.577293872833252,-1.4643620252609253,-880.7340087890625
8.754039303930394e6,61.556941986083984,11.015511512756348,-17.753950119018555,57.87596893310547
8.754039303930394e6,60.66733169555664,-29.579456329345703,8.748198509216309,52.21077346801758
8.754039303930394e6,147.75149536132812,32.83358383178711,45.85396194458008,-136.55325317382812
8.754039303930394e6,3157.97998046875,-12.52068042755127,-23.10860252380371,3157.8701171875
8.754039303930394e6,1960.49169921875,4.183559417724609,18.675901412963867,-1960.3974609375
8.754039303930394e6,52.15498733520508,-12.303555488586426,-40.06993865966797,30.985157012939453
8.754039303930394e6,78.20954132080078,49.88461685180664,1.6873875856399536,-60.185752868652344
8.754039303930394e6,392.1395263671875,-50.67699432373047,-6.285817623138428,-388.7964172363281
8.754039303930394e6,1977.4212646484375,-7.676727294921875,30.244726181030273,1977.1741943359375
8.754039303930394e6,86.18708801269531,-15.513040542602539,-38.88027572631836,75.31797790527344
8.754039303930394e6,93.22148895263672,-38.47185516357422,0.37937861680984497,-84.8936538696289
8.754039303930394e6,74.05006408691406,-32.724815368652344,16.897855758666992,-64.2174072265625
8.754039303930394e6,904.620849609375,58.498111724853516,-10.11348819732666,-902.6690673828125
8.754039303930394e6,30.44725799560547,2.442957639694214,-29.985679626464844,-4.340656757354736
8.754039303930394e6,1794.00390625,9.852662086486816,2.783809185028076,1793.973876953125
8.754039303930394e6,29.260250091552734,14.223176956176758,-10.894810676574707,23.066890716552734
8.754039303930394e6,83.01412963867188,-35.11640930175781,-6.8740997314453125,-74.88554382324219
8.754039303930394e6,52.607425689697266,24.062347412109375,-38.575927734375,-26.407522201538086
8.754039303930394e6,71.91285705566406,47.2041015625,1.4375654458999634,-54.20405960083008
8.754039303930394e6,27.747709274291992,21.116344451904297,7.9325385093688965,-16.063156127929688
8.754039303930394e6,67.45252227783203,23.91122055053711,14.078937530517578,61.455631256103516
8.754039303930394e6,40.98102569580078,4.764067649841309,-36.28915023803711,18.35103988647461
8.754039303930394e6,642.689697265625,22.788240432739258,-11.990673065185547,-642.1712036132812
8.754039303930394e6,14.362250328063965,3.0561225414276123,-13.75117301940918,-2.180455207824707
8.754039303930394e6,37.53977966308594,2.034210205078125,-32.121334075927734,-19.241405487060547
8.754039303930394e6,31.93204689025879,11.96971321105957,-14.563990592956543,-25.713546752929688
8.754039303930394e6,33.03848648071289,16.148788452148438,28.59412956237793,3.1699979305267334
8.754039303930394e6,104.66632080078125,10.318941116333008,28.83684730529785,-100.06951904296875
8.754039303930394e6,109.66156768798828,-13.70221996307373,-39.1331787109375,101.50575256347656
8.754039303930394e6,805.5396118164062,47.984554290771484,17.15522575378418,-803.9241943359375
8.754039303930394e6,26.008729934692383,1.8599997758865356,-20.940078735351562,15.212571144104004
8.754039303930394e6,26.297639846801758,26.092849731445312,-2.3489363193511963,1.4582098722457886
8.754039303930394e6,46.84733581542969,-9.514861106872559,-14.032679557800293,43.636444091796875
8.754039303930394e6,170.47462463378906,-0.10386700928211212,-43.49547576904297,164.82305908203125
8.754039303930394e6,638.9263916015625,36.1394157409668,7.615695476531982,637.8556518554688
8.754039303930394e6,1328.654296875,-39.77033996582031,10.13025188446045,1328.0191650390625
8.754039303930394e6,37.35585403442383,36.0843505859375,1.9730929136276245,-9.295226097106934
8.754039303930394e6,59.44644546508789,-4.445207595825195,16.484357833862305,56.91485595703125
8.754039303930394e6,293.2511291503906,22.709442138671875,36.475303649902344,-290.08099365234375
8.754039303930394e6,313.7577209472656,-10.650252342224121,-1.5337675449700328e-6,313.5719909667969
8.754039303930394e6,28.895099639892578,-2.0040807723999023,-11.340828895568848,26.442594528198242
8.754039303930394e6,203.6471710205078,-1.520761251449585,43.70891189575195,-198.88766479492188
8.754039303930394e6,324.4623718261719,39.60117721557617,34.66017532348633,-320.1611328125
8.754039303930394e6,69.69712829589844,37.763465881347656,-10.923263549804688,-57.52571105957031
8.754039303930394e6,45.2408561706543,43.25413131713867,13.082864761352539,-1.2525076866149902
8.754039303930394e6,7.63028621673584,-0.40421414375305176,4.3161163330078125,6.028584003448486
8.754039303930394e6,215.79969787597656,13.061711311340332,-13.613410949707031,214.96624755859375
8.754039303930394e6,103.28414916992188,3.776567220687866,-12.961372375488281,102.3829574584961
8.754039303930394e6,48.54405975341797,-42.07512664794922,3.8366222381591797,-23.84123992919922
8.754039303930394e6,19.908979415893555,19.601314544677734,0.5170290470123291,2.9670567512512207
8.754039303930394e6,320.6552734375,-1.007716417312622,32.54764938354492,318.9927062988281
8.754039303930394e6,32.63797378540039,18.426063537597656,11.695975303649902,-24.20406150817871
8.754039303930394e6,198.90298461914062,16.361101150512695,18.229936599731445,197.381103515625
8.754039303930394e6,29.000362396240234,5.961763381958008,-3.7910561561584473,-28.071712493896484
8.754039303930394e6,428.1377868652344,-16.908628463745117,7.15989875793457,-427.740234375
8.754039303930394e6,52.301307678222656,21.042247772216797,-8.67594051361084,47.056278228759766
8.754039303930394e6,100.59529876708984,-3.800051689147949,42.64731979370117,91.01151275634766
8.754039303930394e6,165.0238800048828,22.089744567871094,-17.713655471801758,-162.56710815429688
8.754039303930394e6,205.6598663330078,5.562758922576904,-28.382295608520508,203.6084442138672
8.754039303930394e6,62.1690788269043,-4.475358486175537,-18.961217880249023,59.01145935058594
8.754039303930394e6,97.46324157714844,79.08258056640625,49.4979248046875,-28.140705108642578
8.754039303930394e6,1297.180908203125,-1.2559375762939453,-6.971988201141357,1297.160400390625
8.754039303930394e6,140.88766479492188,-15.306678771972656,-41.842769622802734,-133.64556884765625
8.754039303930394e6,159.31472778320312,1.9252744913101196,24.30419921875,157.4283905029297
8.754039303930394e6,42.266319274902344,-37.4564208984375,5.138485431671143,-18.814067840576172
8.754039303930394e6,95.04379272460938,17.46993637084961,15.184701919555664,92.16541290283203
8.754039303930394e6,100.1429672241211,-6.89252233505249,-30.63189697265625,95.07738494873047
8.754039303930394e6,415.2729797363281,-17.69133949279785,49.14529800415039,411.97125244140625
8.754039303930394e6,177.21249389648438,-44.41384506225586,-28.265483856201172,169.2030029296875
8.754039303930394e6,1151.1671142578125,27.170875549316406,24.18199348449707,1150.5909423828125
8.754039303930394e6,42.319881439208984,4.3699259757995605,-27.0523738861084,-32.20186233520508
8.754039303930394e6,111.75177001953125,-27.2938175201416,-24.286439895629883,-105.59634399414062
8.754039303930394e6,455.5782470703125,34.253883361816406,-0.15356236696243286,454.2852478027344
8.754039303930394e6,42.496639251708984,15.773067474365234,-6.009785175323486,-38.96116256713867
8.754039303930394e6,277.30548095703125,-41.72246170043945,-1.3303724527359009,-274.1399230957031
8.754039303930394e6,146.37265014648438,-10.267692565917969,21.339900970458984,144.43356323242188
8.754039303930394e6,110.68718719482422,24.53477668762207,17.032798767089844,-106.56686401367188
8.754039303930394e6,34.58940887451172,0.11371781677007675,28.053247451782227,-20.157987594604492
8.754039303930394e6,667.5164184570312,34.61296463012695,21.616134643554688,666.2655029296875
8.754039303930394e6,1224.0751953125,-23.439496994018555,-22.845659255981445,1223.63623046875
8.754039303930394e6,109.33419799804688,24.781330108642578,-7.613445281982422,106.20170593261719
8.754039303930394e6,1185.79443359375,-34.24660873413086,-23.84879493713379,-1185.05859375
8.754039303930394e6,177.23353576660156,5.474624156951904,37.83495330810547,-173.05255126953125
8.754039303930394e6,36.47604751586914,26.480989456176758,3.4687631130218506,24.78188705444336
8.754039303930394e6,723.1659545898438,-11.295097351074219,-45.017494201660156,-721.6728515625
8.754039303930394e6,82.72731018066406,32.583580017089844,12.641091346740723,-74.96155548095703
8.754039303930394e6,123.73110961914062,-30.231216430664062,-24.46747589111328,117.44666290283203
8.754039303930394e6,36.46212387084961,-26.14543342590332,24.391202926635742,6.920037269592285
8.754039303930394e6,43.645050048828125,34.00299072265625,26.00538444519043,8.325961112976074
8.754039303930394e6,217.77801513671875,20.950664520263672,3.6805591583251953,216.72955322265625
8.754039303930394e6,20.26938819885254,6.811882019042969,-17.891101837158203,-6.4241461753845215
8.754039303930394e6,28.889108657836914,15.939069747924805,23.869117736816406,2.7760887145996094
8.754039303930394e6,22.187110900878906,-15.06623363494873,-6.139854431152344,-14.983107566833496
8.754039303930394e6,31.779680252075195,16.881738662719727,-16.52943229675293,-21.181304931640625
8.754039303930394e6,19.415958404541016,-8.048555374145508,-16.89851188659668,4.853384017944336
8.754039303930394e6,265.7350158691406,-29.53482437133789,12.9492826461792,-263.76507568359375
8.754039303930394e6,24.080366134643555,-18.635494232177734,-11.627062797546387,9.711258888244629
8.754039303930394e6,35.05729675292969,-23.86888313293457,6.093426704406738,24.881229400634766
8.754039303930394e6,531.16552734375,-42.96118927001953,13.806310653686523,-529.2423095703125
8.754039303930394e6,2924.805908203125,-11.155009269714355,-7.580289840698242,-2924.774169921875
8.754039303930394e6,569.849853515625,-4.956756114959717,-21.17945671081543,-569.431884765625
8.754039303930394e6,43.35416793823242,-36.78778839111328,-16.306407928466797,16.03927230834961
8.754039303930394e6,38.13236618041992,5.154956817626953,36.67250061035156,8.918874740600586
8.754039303930394e6,205.21527099609375,2.18302583694458,17.429346084594727,-204.45457458496094
8.754039303930394e6,530.9530029296875,-21.381759643554688,24.485525131225586,529.9540405273438
8.754039303930394e6,95.69706726074219,-10.338353157043457,-29.91044807434082,90.2957763671875
8.754039303930394e6,43.722251892089844,-24.45116424560547,-8.894974708557129,35.09373092651367
8.754039303930394e6,51.63032150268555,9.097138404846191,26.27190589904785,-43.46991729736328
8.754039303930394e6,2220.110595703125,-37.7823486328125,17.004039764404297,-2219.723388671875
8.754039303930394e6,31.584571838378906,-2.9419472217559814,-25.010366439819336,18.98226547241211
8.754039303930394e6,142.39683532714844,-29.824190139770508,-10.096746444702148,138.86090087890625
8.754039303930394e6,1248.68310546875,-3.124457597732544,-40.33957290649414,-1248.026123046875
8.754039303930394e6,32.68851852416992,-14.433394432067871,-29.025711059570312,3.826141119003296
8.754039303930394e6,176.4580535888672,9.183158874511719,41.102256774902344,171.34945678710938
8.754039303930394e6,77.10174560546875,-30.10586929321289,-45.41765213012695,54.52034378051758
8.754039303930394e6,44.243492126464844,-37.028114318847656,2.9099349975585938,-23.976083755493164
8.754039303930394e6,10.491325378417969,-1.2330193519592285,-9.59894847869873,-3.6500117778778076
8.754039303930394e6,456.4150390625,35.96099090576172,7.496698379516602,454.9309997558594
8.754039303930394e6,177.4252471923828,-40.64482879638672,-17.01852798461914,171.85751342773438
8.754039303930394e6,76.36801147460938,33.97031021118164,-17.882110595703125,65.99421691894531
8.754039303930394e6,2328.46875,22.10676383972168,19.06843376159668,2328.28515625
8.754039303930394e6,89.73358154296875,-3.9848577976226807,-22.743587493896484,86.69417572021484
8.754039303930394e6,29.65550994873047,-5.721316337585449,25.67442512512207,-13.581402778625488
8.754039303930394e6,127.90274810791016,-34.454444885253906,20.098356246948242,121.5112075805664
8.754039303930394e6,55.47314453125,25.643749237060547,14.522181510925293,46.96476364135742
8.754039303930394e6,1500.5587158203125,2.5786821842193604,3.664447784423828,-1500.551025390625
8.754039303930394e6,479.139404296875,42.38491439819336,5.423898220062256,-477.22698974609375
8.754039303930394e6,37.63779067993164,-35.16971206665039,8.80087947845459,9.957605361938477
8.754039303930394e6,39.883174896240234,26.717151641845703,26.978918075561523,12.079500198364258
8.754039303930394e6,166.76084899902344,-11.8198881149292,30.554729461669922,163.5016632080078
8.754039303930394e6,1199.4171142578125,-9.362617492675781,-35.63887405395508,1198.8497314453125
8.754039303930394e6,301.68402099609375,-40.1378173828125,-45.56346130371094,295.5047912597656
8.754039303930394e6,83.897216796875,33.82674789428711,-26.622241973876953,-71.99073028564453
8.754039303930394e6,329.79254150390625,-5.505936622619629,-35.100074768066406,-327.8684387207031
8.754039303930394e6,41.02937698364258,-32.85416030883789,18.166091918945312,-16.45970344543457
8.754039303930394e6,27.581703186035156,26.60314178466797,-2.487701416015625,6.614322185516357
8.754039303930394e6,37.393951416015625,11.421659469604492,-11.576998710632324,-33.626495361328125
8.754039303930394e6,157.6250457763672,-4.922862529754639,41.49889373779297,-151.97427368164062
8.754039303930394e6,45.18763732910156,-38.98772048950195,17.44950294494629,14.639328002929688
8.754039303930394e6,940.571044921875,-8.466015815734863,-38.68556213378906,939.7353515625
8.754039303930394e6,178.02865600585938,7.050826549530029,59.54711151123047,-167.61724853515625
8.754039303930394e6,28.212013244628906,-21.35198974609375,9.997100830078125,15.394250869750977
8.754039303930394e6,119.02656555175781,-1.4653241634368896,37.27653121948242,-113.01571655273438
8.754039303930394e6,40.35420227050781,36.66975021362305,8.475973129272461,14.452119827270508
8.754039303930394e6,47.538360595703125,17.22006607055664,12.604971885681152,42.442840576171875
8.754039303930394e6,353.2557373046875,-24.93049430847168,-12.020711898803711,352.1654357910156
8.754039303930394e6,211.17127990722656,39.409725189208984,-5.570716381072998,-207.3790283203125
8.754039303930394e6,42.65325164794922,-37.96129608154297,-18.543655395507812,-5.593527317047119
8.754039303930394e6,546.0520629882812,46.45584487915039,-5.688907623291016,544.039794921875
8.754039303930394e6,49.60165786743164,34.2269172668457,-30.11614227294922,19.462148666381836
8.754039303930394e6,152.50990295410156,29.248701095581055,25.84685707092285,-147.41995239257812
8.754039303930394e6,34.2517204284668,6.337285041809082,29.187395095825195,-16.674230575561523
8.754039303930394e6,66.52880859375,28.014753341674805,5.266741752624512,60.086875915527344
8.754039303930394e6,46.423492431640625,-16.955923080444336,-2.3508787155151367,43.116416931152344
8.754039303930394e6,75.138916015625,38.8819694519043,-1.3115952014923096,64.25918579101562
8.754039303930394e6,61.77863311767578,21.943267822265625,18.895353317260742,-54.543312072753906
8.754039303930394e6,721.2017211914062,-6.57261323928833,27.366952896118164,-720.650146484375
8.754039303930394e6,326.51446533203125,-17.475051879882812,-19.80854034423828,-325.439453125
8.754039303930394e6,43.297607421875,30.349279403686523,27.95101547241211,-13.00997543334961
8.754039303930394e6,129.75010681152344,-23.200441360473633,19.093158721923828,-126.21092224121094
8.754039303930394e6,1767.529296875,-10.897332191467285,10.124394416809082,1767.4659423828125
8.754039303930394e6,21.445810317993164,-7.597945213317871,16.776906967163086,-10.846390724182129
8.754039303930394e6,98.84368896484375,3.4569897651672363,-18.848575592041016,96.95240783691406
8.754039303930394e6,389.89532470703125,-34.38363265991211,-18.847063064575195,-387.9147033691406
8.754039303930394e6,25.87740707397461,3.922137975692749,-6.841684818267822,24.583799362182617
8.754039303930394e6,452.117431640625,-9.556689262390137,42.25836181640625,-450.0333251953125
8.754039303930394e6,399.6733093261719,19.270122528076172,-39.58009719848633,-397.2376403808594
8.754039303930394e6,564.2684326171875,24.886484146118164,-26.902339935302734,563.0742797851562
8.754039303930394e6,18.911401748657227,-6.989805698394775,-16.33502769470215,-6.2342119216918945
8.754039303930394e6,744.6913452148438,-29.01081657409668,7.639816761016846,-744.084716796875
8.754039303930394e6,1441.593994140625,-33.793479919433594,-16.840662002563477,-1441.098388671875
8.754039303930394e6,19.13870620727539,15.290414810180664,2.6090164184570312,11.072540283203125
8.754039303930394e6,1023.2412719726562,-26.636716842651367,20.733924865722656,1022.6828002929688
8.754039303930394e6,75.65048217773438,-59.58334732055664,32.04024124145508,33.81061935424805
8.754039303930394e6,42.57926559448242,29.34463119506836,-26.91739273071289,14.975150108337402
8.754039303930394e6,1393.88818359375,8.91425895690918,12.25600528717041,-1393.8046875
8.754039303930394e6,185.6863555908203,-27.753347396850586,-41.04991149902344,178.94410705566406
8.754039303930394e6,141.2924041748047,-25.246200561523438,33.85848617553711,-134.82095336914062
8.754039303930394e6,25.991987228393555,13.048354148864746,3.4886534214019775,-22.13747787475586
8.754039303930394e6,30.267139434814453,-30.113365173339844,2.3691492080688477,-0.7660745978355408
8.754039303930394e6,430.0675048828125,23.419872283935547,-91.21763610839844,419.62579345703125
8.754039303930394e6,560.6988525390625,28.045085906982422,-7.276804447174072,559.947021484375
8.754039303930394e6,673.3873901367188,28.292139053344727,20.689720153808594,-672.4722900390625
8.754039303930394e6,39.46477127075195,-14.742115020751953,34.94301223754883,-10.772130966186523
8.754039303930394e6,61.90182113647461,32.058650970458984,-22.1623477935791,48.06062316894531
8.754039303930394e6,126.35836791992188,26.671321868896484,-3.3045408725738525,123.45474243164062
8.754039303930394e6,136.76858520507812,1.7236725091934204,25.025615692138672,-134.43699645996094
8.754039303930394e6,1522.714599609375,11.127364158630371,-38.38530731201172,-1522.1890869140625
8.754039303930394e6,119.42231750488281,6.950850486755371,-37.965476989746094,112.9996109008789
8.754039303930394e6,72.971435546875,-44.01690673828125,-3.4224870204925537,58.0736083984375
8.754039303930394e6,91.89546203613281,44.77712631225586,51.576759338378906,61.45353698730469
8.754039303930394e6,633.6815185546875,42.324501037597656,-18.354036331176758,-631.9976196289062
8.754039303930394e6,616.966064453125,-17.453575134277344,47.720314025878906,-614.8676147460938
8.754039303930394e6,998.2130737304688,1.1731367111206055,-20.701568603515625,997.9961547851562
8.754039303930394e6,126.5240249633789,26.111371994018555,-15.524514198303223,-122.810546875
8.754039303930394e6,48.96919250488281,-33.8125,-3.4774527549743652,35.20680236816406
8.754039303930394e6,51.95878982543945,39.85055160522461,25.422130584716797,-21.500688552856445
8.754039303930394e6,207.47625732421875,12.46109676361084,0.5978568196296692,207.09339904785156
8.754039303930394e6,7.641056060791016,6.995372772216797,-1.7187732458114624,-1.8469233512878418
8.754039303930394e6,38.313880920410156,-16.777969360351562,2.5339059829711914,34.30666732788086
8.754039303930394e6,16.292057037353516,13.814263343811035,3.9069385528564453,-7.4998602867126465
8.754039303930394e6,421.6686096191406,22.26847267150879,45.75379180908203,418.5833740234375
8.754039303930394e6,595.0313110351562,15.81792163848877,-28.84479522705078,594.11865234375
8.754039303930394e6,731.0975952148438,82.03522491455078,2.4561214447021484,726.4742431640625
8.754039303930394e6,53.70581817626953,29.650890350341797,25.970720291137695,-36.43592071533203
8.754039303930394e6,41.75437927246094,29.134235382080078,27.797868728637695,10.900362968444824
8.754039303930394e6,35.2985725402832,-33.098388671875,11.986903190612793,-1.9274083375930786
8.754039303930394e6,114.73043823242188,-28.852853775024414,12.829432487487793,110.28557586669922
8.754039303930394e6,473.26776123046875,-7.762776851654053,53.25396728515625,470.1947021484375
8.754039303930394e6,935.797119140625,-13.243001937866211,2.0696537494659424,935.6995239257812
8.754039303930394e6,44.355159759521484,21.662321090698242,36.83021545410156,-11.771743774414062
8.754039303930394e6,145.25050354003906,27.894441604614258,30.927288055419922,-139.14031982421875
8.754039303930394e6,11.341351509094238,-9.152769088745117,-6.063737392425537,2.235836982727051
8.754039303930394e6,34.90691375732422,12.772910118103027,-20.215394973754883,-25.369234085083008
8.754039303930394e6,48.67876434326172,-4.072693824768066,46.206748962402344,-14.658998489379883
8.754039303930394e6,57.84147262573242,13.55885124206543,-20.578113555908203,-52.29961395263672
8.754039303930394e6,67.35802459716797,-23.68195152282715,48.601810455322266,40.137847900390625
8.754039303930394e6,1361.7657470703125,32.43793869018555,7.462509632110596,-1361.3577880859375
8.754039303930394e6,15.855713844299316,3.5915462970733643,-12.420902252197266,9.00779914855957
8.754039303930394e6,147.7895965576172,-21.392026901245117,25.00783348083496,-144.0682830810547
8.754039303930394e6,101.03978729248047,20.552114486694336,-1.168209195137024,-98.9050064086914
8.754039303930394e6,127.25257110595703,-11.556370735168457,-24.426183700561523,124.33802032470703
8.754039303930394e6,79.95381927490234,-10.127667427062988,10.632952690124512,-78.57415771484375
8.754039303930394e6,71.39297485351562,-35.071189880371094,-18.64655876159668,-59.29746627807617
8.754039303930394e6,3.614938735961914,-2.9601142406463623,-0.3357802629470825,1.052411437034607
8.754039303930394e6,156.06817626953125,16.738460540771484,-22.750144958496094,-153.48109436035156
8.754039303930394e6,87.0894775390625,19.716154098510742,51.64152145385742,-67.27494812011719
8.754039303930394e6,46.17901611328125,-23.520793914794922,17.248979568481445,-35.75837326049805
8.754039303930394e6,70.90450286865234,7.126222133636475,-33.25667953491211,62.189815521240234
8.754039303930394e6,242.56190490722656,33.12784957885742,2.49560809135437,-240.2696533203125
8.754039303930394e6,138.4162139892578,-22.772647857666016,-18.131547927856445,-135.30934143066406
8.754039303930394e6,37.655155181884766,35.6396484375,3.705406427383423,11.441627502441406
8.754039303930394e6,42.298011779785156,-2.0124893188476562,-41.017276763916016,9.978440284729004
8.754039303930394e6,797.5175170898438,26.088586807250977,-18.77014923095703,-796.8677368164062
8.754039303930394e6,83.28358459472656,25.011192321777344,-12.189077377319336,-78.47889709472656
8.754039303930394e6,2630.89794921875,-3.6881003379821777,-5.4164934158325195,2630.889404296875
8.754039303930394e6,1858.8746337890625,-32.877288818359375,-19.42646598815918,-1858.4815673828125
8.754039303930394e6,439.04095458984375,26.839141845703125,-36.092437744140625,-436.7274475097656
8.754039303930394e6,8.583916664123535,-0.20262330770492554,-2.407517194747925,-8.047436714172363
8.754039303930394e6,123.88365936279297,39.84305953979492,27.462421417236328,114.02816009521484
8.754039303930394e6,492.2186279296875,28.590789794921875,26.79950523376465,490.653076171875
8.754039303930394e6,383.29095458984375,5.16465950012207,4.236772537231445,383.22869873046875
8.754039303930394e6,601.732421875,-51.78004837036133,6.724423885345459,-599.4601440429688
8.754039303930394e6,76.1556625366211,-50.063175201416016,-23.510162353515625,52.32160186767578
8.754039303930394e6,54.30904769897461,-36.01786422729492,24.646879196166992,-32.27432632446289
8.754039303930394e6,41.548927307128906,37.83864974975586,11.168814659118652,12.912101745605469
8.754039303930394e6,155.34410095214844,-22.160802841186523,-15.577628135681152,-152.95404052734375
8.754039303930394e6,935.9264526367188,-6.364371299743652,41.997901916503906,-934.9603881835938
8.754039303930394e6,55.8570671081543,4.820995807647705,15.582501411437988,-53.3935432434082
8.754039303930394e6,129.23284912109375,-18.124353408813477,-33.04433822631836,123.60269165039062
8.754039303930394e6,38.64925765991211,19.207324981689453,-33.44694137573242,-1.749444603919983
8.754039303930394e6,150.24546813964844,-31.067005157470703,19.506528854370117,145.68785095214844
8.754039303930394e6,805.9144287109375,27.268491744995117,45.26121520996094,-804.1784057617188
8.754039303930394e6,346.3317565917969,-19.999128341674805,-18.634550094604492,-345.2468566894531
8.754039303930394e6,9.76112174987793,7.072574615478516,6.478679180145264,-0.4469010829925537
8.754039303930394e6,246.3955841064453,13.812347412109375,8.610211372375488,245.85113525390625
8.754039303930394e6,387.34515380859375,-31.942651748657227,-22.20248031616211,-385.3827819824219
8.754039303930394e6,1763.6400146484375,36.86074447631836,9.628963470458984,-1763.2276611328125
8.754039303930394e6,319.96038818359375,18.26766586303711,11.328191757202148,-319.23272705078125
8.754039303930394e6,193.7796173095703,-16.081815719604492,16.268070220947266,-192.41668701171875
8.754039303930394e6,35.67516326904297,-22.07054328918457,-4.2366533279418945,27.65093231201172
8.754039303930394e6,601.779296875,-146.8015594482422,-6.681543350219727,-583.5579833984375
8.754039303930394e6,851.197509765625,-16.18592071533203,-28.225353240966797,-850.5736083984375
8.754039303930394e6,62.42917251586914,-19.882543563842773,34.861656188964844,47.7877197265625
8.754039303930394e6,56.19622039794922,-26.93068504333496,29.14670753479004,39.750946044921875
8.754039303930394e6,47.1985969543457,-19.009780883789062,-38.48591995239258,19.546981811523438
8.754039303930394e6,58.19516372680664,-34.658546447753906,-15.32253646850586,44.131587982177734
8.754039303930394e6,40.52051544189453,36.05479431152344,-12.257818222045898,-13.7340669631958
8.754039303930394e6,19.051025390625,15.791966438293457,-9.25947093963623,-4.973166465759277
8.754039303930394e6,68.6209716796875,-12.910761833190918,-22.15437889099121,63.62584686279297
8.754039303930394e6,528.4114990234375,-33.64299392700195,-29.81627082824707,-526.492919921875
8.754039303930394e6,42.4792366027832,3.657935857772827,37.133811950683594,-20.226219177246094
8.754039303930394e6,632.7353515625,21.01392936706543,-20.955947875976562,-632.0365600585938
8.754039303930394e6,32.12362289428711,-13.602082252502441,-25.393644332885742,-14.106318473815918
8.754039303930394e6,252.329345703125,37.6819953918457,-42.223060607910156,-245.89488220214844
8.754039303930394e6,366.46685791015625,-34.67439651489258,-9.171265602111816,-364.7032470703125
8.754039303930394e6,18.90651512145996,-3.8918721675872803,-14.655957221984863,-11.154703140258789
8.754039303930394e6,114.47148895263672,4.888530731201172,25.660701751708984,-111.4372787475586
8.754039303930394e6,219.18603515625,29.887985229492188,3.0183002948760986,217.1106414794922
8.754039303930394e6,176.44659423828125,-13.549100875854492,15.98250675201416,-175.18931579589844
8.754039303930394e6,462.79180908203125,25.625368118286133,58.58512496948242,458.34954833984375
8.754039303930394e6,43.25650405883789,12.361684799194336,41.138309478759766,4.782078266143799
8.754039303930394e6,23.67413902282715,17.429664611816406,15.732542037963867,-2.464465618133545
8.754039303930394e6,43.45195007324219,23.711706161499023,26.218381881713867,25.205913543701172
8.754039303930394e6,23.62108612060547,-9.112052917480469,10.901869773864746,18.788036346435547
8.754039303930394e6,480.592041015625,25.132625579833984,25.716575622558594,479.2417297363281
8.754039303930394e6,106.10152435302734,-6.5603413581848145,20.100337982177734,103.95858001708984
8.754039303930394e6,36.36101531982422,35.46436309814453,-4.482929706573486,6.420331001281738
8.754039303930394e6,3560.308349609375,-21.517597198486328,-30.066125869750977,-3560.115966796875
8.754039303930394e6,133.95327758789062,9.28917121887207,34.705596923828125,129.03343200683594
8.754039303930394e6,200.40408325195312,-24.744707107543945,-13.833719253540039,198.38104248046875
8.754039303930394e6,52.14326477050781,-32.531185150146484,-40.24675750732422,6.144534111022949
8.754039303930394e6,58.15705871582031,11.891687393188477,-5.35651159286499,-56.64851379394531
8.754039303930394e6,537.4600219726562,16.151912689208984,21.119970321655273,536.799072265625
8.754039303930394e6,86.6973876953125,1.9027304649353027,-27.20582389831543,82.27742004394531
8.754039303930394e6,17.578601837158203,11.844228744506836,-12.404440879821777,3.4301815032958984
8.754039303930394e6,33.05393600463867,-10.551826477050781,-0.3802264928817749,31.272859573364258
8.754039303930394e6,29.543474197387695,-23.528987884521484,15.807640075683594,-8.138605117797852
8.754039303930394e6,24.844099044799805,0.7352299690246582,12.169760704040527,-21.575458526611328
8.754039303930394e6,42.548465728759766,35.413761138916016,7.671329021453857,-22.232929229736328
8.754039303930394e6,67.9752197265625,16.754480361938477,-6.185059547424316,-65.56353759765625
8.754039303930394e6,50.87898635864258,18.160903930664062,32.03769302368164,-35.0621452331543
8.754039303930394e6,91.12112426757812,12.033610343933105,28.319156646728516,85.7507553100586
8.754039303930394e6,59.22578811645508,-2.238525629043579,53.048587799072266,26.181005477905273
8.754039303930394e6,88.58934020996094,-19.31743049621582,-26.373098373413086,-82.31817626953125
8.754039303930394e6,25.15040397644043,-17.600770950317383,-17.81598663330078,-1.5036977529525757
8.754039303930394e6,877.2838134765625,6.088645935058594,61.26251220703125,875.1192016601562
8.754039303930394e6,653.3358154296875,3.8850467205047607,4.364344596862793,653.3073120117188
8.754039303930394e6,287.9825439453125,-25.655868530273438,-29.776662826538086,285.2823181152344
8.754039303930394e6,83.31623077392578,7.974608421325684,29.63953399658203,77.43650817871094
8.754039303930394e6,182.4924774169922,-15.846614837646484,-26.684404373168945,-179.8256072998047
8.754039303930394e6,56.50970458984375,-4.56733512878418,13.184653282165527,54.73176193237305
8.754039303930394e6,117.48539733886719,-11.952375411987305,-5.941359996795654,116.71150207519531
8.754039303930394e6,13.901487350463867,6.196376323699951,-11.069940567016602,5.40624475479126
8.754039303930394e6,2510.408203125,10.74783992767334,-14.923211097717285,2510.34033203125
8.754039303930394e6,174.69235229492188,-18.036699295043945,33.5003776550293,-170.48968505859375
8.754039303930394e6,324.6623840332031,-2.7217445373535156,48.455806732177734,-321.0096740722656
8.754039303930394e6,36.39072036743164,-15.29743480682373,31.401611328125,10.056180953979492
8.754039303930394e6,470.5651550292969,33.73656463623047,12.861916542053223,-469.1747131347656
8.754039303930394e6,73.54703521728516,25.348485946655273,-10.939284324645996,68.14592742919922
8.754039303930394e6,28.655736923217773,26.615278244018555,10.421388626098633,1.0428951978683472
8.754039303930394e6,771.5513916015625,-42.4002685546875,-10.883087158203125,770.3065795898438
8.754039303930394e6,1223.6387939453125,-43.04924392700195,-4.677103519439697,-1222.87109375
8.754039303930394e6,43.71759033203125,17.13979148864746,-6.1194167137146,-39.710487365722656
8.754039303930394e6,1121.240478515625,-2.1672887802124023,-33.38719177246094,1120.7398681640625
8.754039303930394e6,101.9269790649414,-31.593225479125977,-15.16743278503418,95.69660949707031
8.754039303930394e6,253.7374725341797,-27.374027252197266,-32.92402267456055,-250.0925750732422
8.754039303930394e6,66.7198486328125,-23.388513565063477,-7.9233527183532715,61.95684814453125
8.754039303930394e6,47.773807525634766,-44.05445861816406,14.82852840423584,-10.889015197753906
8.754039303930394e6,21.1817569732666,-19.73465919494629,7.257180213928223,1.859623908996582
8.754039303930394e6,1652.6221923828125,20.081676483154297,36.3250846862793,1652.0999755859375
8.754039303930394e6,207.2781219482422,-5.3474602699279785,32.076820373535156,204.7037353515625
8.754039303930394e6,41.04785919189453,6.835740089416504,-40.43501663208008,0.351650208234787
8.754039303930394e6,76.08417510986328,-13.130714416503906,21.83345603942871,-71.67008972167969
8.754039303930394e6,180.16307067871094,-25.839696884155273,24.13941192626953,176.6500701904297
8.754039303930394e6,1489.616943359375,-2.3664371967315674,-5.980727195739746,1489.60205078125
8.754039303930394e6,711.1375122070312,-40.40633010864258,-9.865787506103516,-709.91796875
8.754039303930394e6,139.02423095703125,-41.82072067260742,46.91695022583008,123.99386596679688
8.754039303930394e6,62.45315933227539,39.93821716308594,-11.445398330688477,46.59671401977539
8.754039303930394e6,61.14075469970703,12.626459121704102,11.321976661682129,58.71534729003906
8.754039303930394e6,221.40069580078125,-14.132442474365234,28.252870559692383,-219.1283416748047
8.754039303930394e6,205.92935180664062,-21.189950942993164,-34.66914367675781,-201.87335205078125
8.754039303930394e6,91.7304916381836,-1.8312709331512451,37.11672592163086,-83.84744262695312
8.754039303930394e6,80.86534118652344,-43.12411117553711,3.35446834564209,68.3021011352539
8.754039303930394e6,113.52894592285156,-28.940670013427734,17.65810203552246,-108.33450317382812
8.754039303930394e6,1065.053466796875,-27.812976837158203,-30.518146514892578,-1064.2513427734375
8.754039303930394e6,304.3349609375,-37.429195404052734,-5.089267253875732,-301.9765625
8.754039303930394e6,652.5624389648438,5.829944610595703,-9.471552848815918,-652.4652709960938
8.754039303930394e6,126.27445983886719,35.09803009033203,9.103973388671875,-120.94378662109375
8.754039303930394e6,1850.8193359375,28.36106300354004,-26.489517211914062,-1850.41162109375
8.754039303930394e6,82.656005859375,45.645484924316406,-27.551000595092773,63.13764953613281
8.754039303930394e6,25.33539581298828,10.971224784851074,16.7257080078125,15.449270248413086
8.754039303930394e6,109.46997833251953,-28.218708038330078,3.0906333923339844,-105.71066284179688
8.754039303930394e6,130.31521606445312,42.53074264526367,19.3100643157959,-121.64385986328125
8.754039303930394e6,2925.36572265625,9.291844367980957,14.861430168151855,-2925.3125
8.754039303930394e6,36.24142074584961,-23.686555862426758,10.493355751037598,25.282245635986328
8.754039303930394e6,69.51424407958984,3.8336377143859863,27.467920303344727,63.717830657958984
8.754039303930394e6,360.2148742675781,-30.990121841430664,-1.6369627714157104,-358.8713073730469
8.754039303930394e6,123.98728942871094,-29.572498321533203,-9.527040481567383,-120.01860046386719
8.754039303930394e6,1669.416015625,-26.60317611694336,26.70354652404785,1668.989501953125
8.754039303930394e6,30.203123092651367,-16.020641326904297,21.45362663269043,-13.864500999450684
8.754039303930394e6,1261.169189453125,-19.429733276367188,-31.057241439819336,1260.6357421875
8.754039303930394e6,177.39920043945312,20.44685173034668,13.201744079589844,175.71292114257812
8.754039303930394e6,86.17874145507812,-8.976914405822754,-21.543167114257812,-82.9397201538086
8.754039303930394e6,41.11391830444336,30.280668258666992,-19.7777156829834,19.47286033630371
8.754039303930394e6,73.84407043457031,39.42219161987305,-33.98067855834961,-52.355186462402344
8.754039303930394e6,27.420984268188477,-11.140180587768555,23.34392547607422,-8.932117462158203
8.754039303930394e6,35.424766540527344,5.624637603759766,9.342267990112305,33.65879440307617
8.754039303930394e6,85.21306610107422,-6.789522171020508,-54.75856018066406,-64.91212463378906
8.754039303930394e6,71.23081970214844,27.292421340942383,-37.036476135253906,-54.352256774902344
8.754039303930394e6,36.4898681640625,-22.793624877929688,-28.339580535888672,2.396716356277466
8.754039303930394e6,60.96426773071289,-36.915138244628906,29.06756019592285,-38.806007385253906
8.754039303930394e6,1192.6927490234375,-44.48774337768555,1.8563889265060425,1191.8599853515625
8.754039303930394e6,95.39775085449219,30.15188217163086,19.653532028198242,88.33032989501953
8.754039303930394e6,1622.3409423828125,33.36457061767578,-47.681583404541016,-1621.2958984375
8.754039303930394e6,564.3258056640625,12.634160041809082,1.854349136352539,564.1785888671875
8.754039303930394e6,120.03878784179688,3.628272533416748,36.63454055786133,-114.2408447265625
8.754039303930394e6,266.1897277832031,-41.853450775146484,11.934820175170898,-262.60186767578125
8.754039303930394e6,408.5521545410156,32.88744354248047,16.43938636779785,406.8905944824219
8.754039303930394e6,67.17121887207031,-10.36497688293457,-35.88920974731445,55.79802322387695
8.754039303930394e6,341.3158874511719,-33.84950637817383,4.862092018127441,-339.5939025878906
8.754039303930394e6,203.34471130371094,-5.967552185058594,30.289182662963867,-200.97994995117188
8.754039303930394e6,915.5156860351562,-53.6878776550293,-10.000431060791016,-913.8837280273438
8.754039303930394e6,438.323486328125,8.020279884338379,-30.614486694335938,437.17596435546875
8.754039303930394e6,175.1238250732422,35.53144836425781,-33.157527923583984,168.2360382080078
8.754039303930394e6,92.84984588623047,34.46388244628906,-0.4549669921398163,-86.19769287109375
8.754039303930394e6,1998.774658203125,21.961740493774414,-5.123041152954102,-1998.6466064453125
8.754039303930394e6,71.17250061035156,64.92082214355469,-22.42584800720215,18.569005966186523
8.754039303930394e6,75.42545318603516,-27.182514190673828,15.426513671875,-68.62249755859375
8.754039303930394e6,516.49462890625,-30.92228126525879,-31.138648986816406,-514.6239624023438
8.754039303930394e6,53.5213737487793,-11.172301292419434,-4.318593978881836,-52.1342658996582
8.754039303930394e6,155.263671875,1.3980193138122559,-33.09917449951172,-151.67799377441406
8.754039303930394e6,34.329078674316406,-19.119266510009766,-28.260074615478516,-3.3499536514282227
8.754039303930394e6,432.482421875,-7.970844745635986,24.01363182067871,431.7380676269531
8.754039303930394e6,164.3514404296875,-26.970046997070312,31.09804916381836,-159.10324096679688
8.754039303930394e6,357.9171142578125,5.182249546051025,27.545413970947266,356.8136291503906
8.754039303930394e6,852.9943237304688,18.689104080200195,-34.78471374511719,-852.0780029296875
8.754039303930394e6,184.4418182373047,-29.738611221313477,7.36058235168457,-181.8712158203125
8.754039303930394e6,27.455276489257812,6.746176242828369,9.245230674743652,-24.89421272277832
8.754039303930394e6,806.1344604492188,-37.34946060180664,-4.030725955963135,-805.2567749023438
8.754039303930394e6,467.0763244628906,15.121187210083008,-0.5027268528938293,-466.8279113769531
8.754039303930394e6,47.909996032714844,-20.71510124206543,-17.72450828552246,39.35744857788086
8.754039303930394e6,31.15896224975586,-5.391005992889404,23.964679718017578,-19.0899715423584
8.754039303930394e6,30.888477325439453,22.50405502319336,20.794355392456055,3.4892942905426025
8.754039303930394e6,146.12374877929688,-26.035558700561523,23.069021224975586,-141.9120635986328
8.754039303930394e6,262.39996337890625,-22.088481903076172,-32.55733871459961,-259.42779541015625
8.754039303930394e6,23.21472930908203,-12.406633377075195,-2.217637777328491,19.416383743286133
8.754039303930394e6,42.60436248779297,-35.82184600830078,-13.05375862121582,-18.932546615600586
8.754039303930394e6,117.1215591430664,10.106592178344727,-34.733924865722656,-111.38125610351562
8.754039303930394e6,86.20692443847656,-17.913772583007812,-4.934657096862793,84.16231536865234
8.754039303930394e6,1176.60009765625,-12.796655654907227,79.73822021484375,-1173.823974609375
8.754039303930394e6,22.81096649169922,-6.162463665008545,-7.400167465209961,20.60379981994629
8.754039303930394e6,93.41731262207031,42.24067306518555,32.34711456298828,-76.76652526855469
8.754039303930394e6,16.13582420349121,7.358730792999268,13.378233909606934,4.914422035217285
8.754039303930394e6,52.59788513183594,-50.87806701660156,7.368910789489746,10.980610847473145
8.754039303930394e6,137.1756134033203,-13.886584281921387,-43.04806900024414,129.49166870117188
8.754039303930394e6,587.5932006835938,33.84690475463867,9.642118453979492,-586.5357055664062
8.754039303930394e6,199.35093688964844,17.563453674316406,-23.060754776000977,197.22433471679688
8.754039303930394e6,237.11769104003906,-33.606224060058594,-14.119939804077148,234.29248046875
8.754039303930394e6,248.1987762451172,-24.06232452392578,17.049652099609375,-246.43429565429688
8.754039303930394e6,71.48677062988281,-12.830033302307129,-20.009775161743164,-67.39637756347656
8.754039303930394e6,219.14695739746094,-43.124515533447266,19.30427360534668,213.98580932617188
8.754039303930394e6,60.303131103515625,40.43898391723633,-36.06269454956055,26.41123390197754
8.754039303930394e6,76.88446044921875,-37.88102722167969,27.711284637451172,-60.870750427246094
8.754039303930394e6,114.91520690917969,1.8839672803878784,25.686058044433594,111.97811126708984
8.754039303930394e6,58.418983459472656,-18.58871841430664,-19.991418838500977,51.61874771118164
8.754039303930394e6,47.51108169555664,9.84683609008789,24.406997680664062,-39.51652908325195
8.754039303930394e6,90.3343734741211,-15.360143661499023,26.6711368560791,-84.91130828857422
8.754039303930394e6,33.97189712524414,15.108330726623535,-29.421377182006836,-7.558137893676758
8.754039303930394e6,3011.560302734375,17.346311569213867,-47.60574722290039,-3011.133544921875
8.754039303930394e6,301.5813903808594,-20.144441604614258,-27.186641693115234,299.6720275878906
8.754039303930394e6,105.61007690429688,-47.80246353149414,5.11111307144165,94.01704406738281
8.754039303930394e6,23.957443237304688,22.443462371826172,-6.828243732452393,-4.532101631164551
8.754039303930394e6,979.1478881835938,-32.11203384399414,7.1963210105896,-978.5931396484375
8.754039303930394e6,116.9885482788086,-32.071083068847656,3.5475077629089355,112.43707275390625
8.754039303930394e6,24.298660278320312,-7.318034648895264,15.803925514221191,-16.852954864501953
8.754039303930394e6,53.17920684814453,-22.993576049804688,29.99294090270996,-37.37194061279297
8.754039303930394e6,183.00692749023438,35.6972541809082,25.997644424438477,-177.5902099609375
8.754039303930394e6,89.64019775390625,33.900169372558594,6.473504066467285,-82.71125793457031
8.754039303930394e6,12.569653511047363,-3.2534193992614746,4.183894634246826,-11.261496543884277
8.754039303930394e6,651.5437622070312,-51.9142951965332,-9.516836166381836,649.400146484375
8.754039303930394e6,518.3444213867188,-109.5317611694336,36.03752136230469,505.3533020019531
8.754039303930394e6,1803.568115234375,38.364593505859375,-26.409868240356445,-1802.9656982421875
8.754039303930394e6,56.05990219116211,-47.9337272644043,15.279595375061035,24.668176651000977
8.754039303930394e6,10.974961280822754,-9.24657917022705,-2.855417490005493,4.869492530822754
8.754039303930394e6,341.350830078125,-13.010634422302246,-14.978463172912598,340.76922607421875
8.754039303930394e6,437.3214416503906,4.893208026885986,-51.6897087097168,434.22479248046875
8.754039303930394e6,41.25361633300781,-30.520112991333008,26.308012008666992,8.671025276184082
8.754039303930394e6,903.4127807617188,4.7718329429626465,-44.839351654052734,902.2850341796875
8.754039303930394e6,96.7502670288086,41.08979034423828,11.120588302612305,-86.86478424072266
8.754039303930394e6,78.85376739501953,-47.37952423095703,-7.444568157196045,-62.566688537597656
8.754039303930394e6,75.63800048828125,2.038789987564087,27.53197479248047,-70.39783477783203
8.754039303930394e6,135.03213500976562,-11.512752532958984,20.00762939453125,-133.03286743164062
8.754039303930394e6,96.88947296142578,32.12796401977539,-28.551498413085938,86.81642150878906
8.754039303930394e6,3346.101806640625,30.874189376831055,1.574690341949463,3345.95849609375
8.754039303930394e6,627.9141235351562,16.09307861328125,-24.965959548950195,627.208740234375
8.754039303930394e6,337.970947265625,-36.815940856933594,-7.575748920440674,335.8697204589844
8.754039303930394e6,139.49618530273438,29.91263771057129,-18.063264846801758,-135.0372314453125
8.754039303930394e6,32.65852737426758,-10.2777738571167,-17.945510864257812,-25.21547508239746
8.754039303930394e6,46.38203430175781,-37.02339553833008,27.785932540893555,-2.327638626098633
8.754039303930394e6,90.43209838867188,-1.2436903715133667,-11.91166877746582,89.61833190917969
8.754039303930394e6,39.181880950927734,19.09912872314453,11.612943649291992,-32.13249588012695
8.754039303930394e6,974.5238037109375,30.3409481048584,21.319889068603516,973.8164672851562
8.754039303930394e6,74.05171966552734,39.205936431884766,22.367870330810547,58.678314208984375
8.754039303930394e6,113.7540512084961,-21.257680892944336,-31.04107093811035,-107.33807373046875
8.754039303930394e6,23.70100975036621,-4.758974552154541,-16.8851375579834,15.839728355407715
8.754039303930394e6,261.0931396484375,-15.781013488769531,-36.887027740478516,-257.98614501953125
8.754039303930394e6,267.6591491699219,-30.920368194580078,41.912899017333984,-262.5368347167969
8.754039303930394e6,66.19715118408203,16.92917823791504,-24.273283004760742,-59.18773651123047
8.754039303930394e6,550.98974609375,-34.096412658691406,13.003209114074707,549.7772216796875
8.754039303930394e6,738.3784790039062,10.973814964294434,-43.60915756225586,-737.0057373046875
8.754039303930394e6,237.7738800048828,-55.66061782836914,-9.337014198303223,230.9719696044922
8.754039303930394e6,14.345283508300781,-12.959372520446777,5.503779888153076,2.1130645275115967
8.754039303930394e6,1065.4412841796875,10.550392150878906,-2.1529901027679443,-1065.3853759765625
8.754039303930394e6,391.75653076171875,33.1639518737793,32.7962532043457,-388.9661560058594
8.754039303930394e6,50.56141662597656,47.41096878051758,-12.284299850463867,12.436542510986328
8.754039303930394e6,1654.8223876953125,-6.817436218261719,-27.24326515197754,1654.5831298828125
8.754039303930394e6,121.79499053955078,32.64266586303711,2.568209409713745,117.29788970947266
8.754039303930394e6,554.27880859375,40.47947692871094,-1.8574957847595215,-552.7927856445312
8.754039303930394e6,190.92514038085938,19.982786178588867,17.73443603515625,189.03836059570312
8.754039303930394e6,3168.0341796875,-21.301816940307617,-26.8498477935791,3167.848388671875
8.754039303930394e6,1112.69677734375,-28.949138641357422,6.700133323669434,1112.298583984375
8.754039303930394e6,427.6497802734375,11.043950080871582,14.223464965820312,-427.2668762207031
8.754039303930394e6,56.998165130615234,33.11043167114258,19.596336364746094,-42.01652908325195
8.754039303930394e6,495.3148193359375,33.507606506347656,-29.30158233642578,-493.30755615234375
8.754039303930394e6,64.84501647949219,-18.977025985717773,-23.89093017578125,57.19166946411133
8.754039303930394e6,2132.68701171875,-51.734130859375,29.959728240966797,-2131.84814453125
8.754039303930394e6,358.4250793457031,-10.428634643554688,-20.3466854095459,357.6907958984375
8.754039303930394e6,37.80097961425781,-33.5824089050293,10.578689575195312,-13.643389701843262
8.754039303930394e6,41.55601501464844,-39.1376838684082,13.3565092086792,3.696265697479248
8.754039303930394e6,1310.918701171875,20.096973419189453,-13.469646453857422,1310.6942138671875
8.754039303930394e6,341.57659912109375,37.55793762207031,12.023109436035156,-339.2879943847656
8.754039303930394e6,407.950439453125,-17.51721954345703,-7.163906097412109,-407.5074462890625
8.754039303930394e6,43.552574157714844,18.607929229736328,30.54440689086914,-24.789627075195312
8.754039303930394e6,727.7969360351562,6.539180278778076,-21.95682716369629,727.4341430664062
8.754039303930394e6,61.138248443603516,33.617549896240234,35.42933654785156,36.73448944091797
8.754039303930394e6,81.41993713378906,24.421791076660156,16.394731521606445,-75.9006576538086
8.754039303930394e6,1610.434814453125,-30.89117431640625,-17.323122024536133,-1610.04443359375
8.754039303930394e6,204.2531280517578,6.924854278564453,35.478614807128906,-201.0213165283203
8.754039303930394e6,28.779428482055664,-11.136794090270996,-11.603934288024902,-23.801069259643555
8.754039303930394e6,50.502681732177734,-25.75056266784668,24.816835403442383,35.615570068359375
8.754039303930394e6,650.21240234375,-35.41533279418945,-35.661197662353516,-648.2646484375
8.754039303930394e6,254.7783203125,-55.739410400390625,3.0984909534454346,-248.58082580566406
8.754039303930394e6,14.75940227508545,6.2375807762146,-7.067886829376221,11.220175743103027
8.754039303930394e6,40.115455627441406,-8.020021438598633,-10.458477020263672,-37.84790802001953
8.754039303930394e6,407.698974609375,35.4939079284668,14.668167114257812,405.88226318359375
8.754039303930394e6,62.737274169921875,-14.324206352233887,-15.399890899658203,-59.08080291748047
8.754039303930394e6,313.4295654296875,18.008962631225586,1.6567310094833374,-312.9024353027344
8.754039303930394e6,323.9278869628906,-6.197896480560303,30.402130126953125,-322.4337158203125
8.754039303930394e6,57.954071044921875,-27.759057998657227,-13.250068664550781,-49.086246490478516
8.754039303930394e6,439.21539306640625,-42.41697692871094,22.941404342651367,436.5564880371094
8.754039303930394e6,43.42000961303711,22.45616340637207,17.174907684326172,32.90828323364258
8.754039303930394e6,101.98336791992188,41.06220245361328,12.92490005493164,92.43572998046875
8.754039303930394e6,73.47538757324219,15.51455307006836,35.5431022644043,62.38216018676758
8.754039303930394e6,41.54511642456055,35.21809387207031,-5.087961673736572,-21.37077522277832
8.754039303930394e6,260.78662109375,44.02447509765625,2.9837450981140137,257.02044677734375
8.754039303930394e6,100.83460235595703,39.24974060058594,-21.985605239868164,-90.22539520263672
8.754039303930394e6,1943.67724609375,18.376768112182617,-1.144629955291748,-1943.5892333984375
8.754039303930394e6,44.84695816040039,6.648421764373779,-40.26115417480469,18.52031707763672
8.754039303930394e6,110.62629699707031,-1.7702784538269043,-33.03354263305664,-105.54972076416016
8.754039303930394e6,44.384498596191406,-31.934558868408203,24.910411834716797,-18.07080078125
8.754039303930394e6,245.9970245361328,34.89402389526367,32.157833099365234,-241.3705291748047
8.754039303930394e6,49.0471076965332,-19.820056915283203,-17.690818786621094,-41.191429138183594
8.754039303930394e6,100.73594665527344,22.86053466796875,29.042451858520508,-93.6940689086914
8.754039303930394e6,517.3508911132812,6.997964859008789,29.730594635009766,516.445556640625
8.754039303930394e6,91.54828643798828,17.107759475708008,52.8643798828125,-72.73709869384766
8.754039303930394e6,56.394554138183594,-21.86231803894043,34.81748580932617,-38.56218719482422
8.754039303930394e6,22.049152374267578,13.384978294372559,0.7494193911552429,17.41724967956543
8.754039303930394e6,302.6552734375,18.11555290222168,40.57291030883789,-299.37066650390625
8.754039303930394e6,73.4015884399414,-25.54091453552246,-29.439865112304688,-62.17446517944336
8.754039303930394e6,18.88058853149414,-15.451047897338867,10.578332901000977,1.6599552631378174
8.754039303930394e6,735.1555786132812,19.795879364013672,-16.802091598510742,734.6947631835938
8.754039303930394e6,42.239192962646484,-27.91780662536621,-4.5566911697387695,-31.31927490234375
8.754039303930394e6,1363.5076904296875,-9.660563468933105,-46.10499954223633,-1362.692626953125
8.754039303930394e6,37.06989288330078,22.637088775634766,-29.285545349121094,1.0053560733795166
8.754039303930394e6,104.85003662109375,-17.927820205688477,24.434602737426758,100.35929870605469
8.754039303930394e6,46.60261535644531,-41.35130310058594,19.52762794494629,-8.801137924194336
8.754039303930394e6,189.84774780273438,-16.035398483276367,16.93475341796875,-188.40159606933594
8.754039303930394e6,18.900798797607422,15.661455154418945,-10.090435028076172,2.6564950942993164
8.754039303930394e6,80.48548126220703,54.388763427734375,-17.251285552978516,56.736961364746094
8.754039303930394e6,153.10470581054688,1.9224209785461426,-27.1541805267334,150.65496826171875
8.754039303930394e6,64.5399398803711,39.37701416015625,6.3555121421813965,50.708744049072266
8.754039303930394e6,208.93885803222656,-30.676971435546875,43.587711334228516,-202.018310546875
8.754039303930394e6,197.1558380126953,23.868745803833008,-17.565507888793945,-194.90786743164062
8.754039303930394e6,118.80635833740234,-19.49359703063965,27.985448837280273,-113.79226684570312
8.754039303930394e6,157.9482421875,-13.143514633178711,31.411378860473633,-154.2242889404297
8.754039303930394e6,100.10314178466797,-30.18383026123047,41.28935623168945,-86.03301239013672
8.754039303930394e6,424.0736999511719,8.640345573425293,-37.257347106933594,422.34185791015625
8.754039303930394e6,556.5661010742188,-38.64471435546875,24.425443649291992,-554.6825561523438
8.754039303930394e6,50.96794509887695,23.184511184692383,35.359249114990234,-28.40507698059082
8.754039303930394e6,98.12220001220703,-38.73921585083008,-8.566695213317871,-89.72605895996094
8.754039303930394e6,114.5850830078125,32.72859191894531,28.473112106323242,106.04139709472656
8.754039303930394e6,24.23030662536621,-8.439825057983398,-22.6448917388916,-0.028704999014735222
8.754039303930394e6,44.08005905151367,16.178672790527344,-27.40216636657715,30.452228546142578
8.754039303930394e6,1194.2557373046875,1.570608139038086,-3.7520790100097656,-1194.2474365234375
8.754039303930394e6,9.886882781982422,9.166762351989746,-3.235163927078247,-0.41163018345832825
8.754039303930394e6,725.16455078125,30.991830825805664,25.650222778320312,724.045654296875
8.754039303930394e6,977.3143310546875,-140.25827026367188,152.03387451171875,955.1719970703125
8.754039303930394e6,3110.864501953125,33.68696975708008,-25.34613037109375,-3110.578125
8.754039303930394e6,1195.8441162109375,-13.4210786819458,19.272661209106445,-1195.6121826171875
8.754039303930394e6,286.9748229980469,28.801179885864258,23.56979751586914,-284.5459899902344
8.754039303930394e6,123.64818572998047,-34.702789306640625,18.372541427612305,-117.234619140625
8.754039303930394e6,50.62177658081055,31.174190521240234,4.259636402130127,39.61697006225586
8.754039303930394e6,21.13347816467285,-20.461463928222656,-1.3003530502319336,4.814174652099609
8.754039303930394e6,1085.5799560546875,-41.053470611572266,-33.33847427368164,1084.28955078125
8.754039303930394e6,160.1006622314453,-27.36189842224121,-24.574378967285156,155.80938720703125
8.754039303930394e6,15.897709846496582,3.453723430633545,-14.342144966125488,5.659211158752441
8.754039303930394e6,150.57919311523438,-38.145206451416016,0.5181061625480652,-145.6560516357422
8.754039303930394e6,919.22314453125,46.7346076965332,-24.277807235717773,-917.7115478515625
8.754039303930394e6,51.82867431640625,-16.195892333984375,32.21858215332031,37.18578338623047
8.754039303930394e6,374.9682312011719,-2.796520709991455,33.8466911315918,-373.42291259765625
8.754039303930394e6,96.6952896118164,9.821824073791504,31.861848831176758,90.7482681274414
8.754039303930394e6,36.72870635986328,-16.813030242919922,-23.01903533935547,-23.094562530517578
8.754039303930394e6,827.3344116210938,-15.598471641540527,-43.180877685546875,-826.0576171875
8.754039303930394e6,482.461181640625,6.524073600769043,-42.925209045410156,-480.5003356933594
8.754039303930394e6,49.972869873046875,20.44736099243164,39.65669631958008,22.437788009643555
8.754039303930394e6,38.9812126159668,3.503329038619995,-17.990835189819336,34.35849380493164
8.754039303930394e6,45.001068115234375,1.9983344078063965,33.40608596801758,-30.034164428710938
8.754039303930394e6,34.51300811767578,20.82594108581543,-8.609102249145508,-26.081144332885742
8.754039303930394e6,65.5391845703125,26.881582260131836,-6.94017219543457,59.342350006103516
8.754039303930394e6,36.78525924682617,21.383222579956055,27.023563385009766,12.749702453613281
8.754039303930394e6,18.15412139892578,8.894399642944336,-12.835898399353027,-9.089351654052734
8.754039303930394e6,72.45346069335938,-22.06509017944336,-21.88973045349121,-65.42469787597656
8.754039303930394e6,466.4767761230469,24.501541137695312,-47.26972198486328,463.4250183105469
8.754039303930394e6,325.3399658203125,-32.51818084716797,-28.9259090423584,322.4110107421875
8.754039303930394e6,27.1131591796875,-19.39710235595703,17.494144439697266,7.053050994873047
8.754039303930394e6,414.69775390625,32.95993423461914,22.936887741088867,412.74530029296875
8.754039303930394e6,104.6911849975586,-13.083566665649414,-4.107027530670166,-103.77433013916016
8.754039303930394e6,47.86137008666992,-11.46838092803955,-41.9035758972168,20.00480079650879
8.754039303930394e6,430.21026611328125,5.568565368652344,-14.874250411987305,429.91339111328125
8.754039303930394e6,1394.2493896484375,-3.6809072494506836,-29.603084564208984,1393.9290771484375
8.754039303930394e6,24.078174591064453,-19.342153549194336,9.409682273864746,-10.677651405334473
8.754039303930394e6,30.925065994262695,-3.662536382675171,4.884185791015625,-30.265575408935547
8.754039303930394e6,8.269487380981445,0.2765576243400574,-6.125681400299072,-5.262962341308594
8.754039303930394e6,43.841121673583984,21.350696563720703,32.21372985839844,-20.624794006347656
8.754039303930394e6,408.2863464355469,20.382272720336914,37.850250244140625,406.0130310058594
8.754039303930394e6,106.31521606445312,-1.4202769994735718,-26.971599578857422,102.8122329711914
8.754039303930394e6,728.1492919921875,47.86137771606445,-19.653322219848633,-726.306640625
8.754039303930394e6,19.76654624938965,-3.5829615592956543,8.374798774719238,17.45440673828125
8.754039303930394e6,36.94748306274414,5.706422805786133,-27.891286849975586,23.484975814819336
8.754039303930394e6,53.79060363769531,40.12898254394531,5.494007110595703,-35.35285949707031
8.754039303930394e6,117.26453399658203,25.476661682128906,31.09590721130371,110.14476776123047
8.754039303930394e6,303.8652648925781,13.304523468017578,22.387495040893555,-302.74212646484375
8.754039303930394e6,284.067138671875,38.19295120239258,76.23540496826172,270.9621887207031
8.754039303930394e6,19.306608200073242,5.712772846221924,-5.3470354080200195,17.562271118164062
8.754039303930394e6,68.7196273803711,12.559611320495605,6.321019172668457,67.24285888671875
8.754039303930394e6,1677.310791015625,-31.21135711669922,-8.431856155395508,-1676.998291015625
8.754039303930394e6,268.64068603515625,42.205570220947266,16.524478912353516,-264.7835998535156
8.754039303930394e6,186.697509765625,38.98151397705078,24.704553604125977,-180.89500427246094
8.754039303930394e6,57.93522262573242,-25.763479232788086,-15.314424514770508,49.549129486083984
8.754039303930394e6,452.97686767578125,-30.81399154663086,-17.09343147277832,451.60076904296875
8.754039303930394e6,1649.8460693359375,-14.396946907043457,-37.73643493652344,1649.3505859375
8.754039303930394e6,95.8583755493164,19.18937873840332,21.538267135620117,-91.39810943603516
8.754039303930394e6,204.3448486328125,57.88246536254883,14.395870208740234,-195.43826293945312
8.754039303930394e6,13.992974281311035,-4.7266740798950195,-10.936627388000488,-7.125086784362793
8.754039303930394e6,159.17251586914062,-36.61279296875,-29.56269073486328,152.04721069335938
8.754039303930394e6,443.8317565917969,23.13796615600586,-41.302757263183594,441.2961120605469
8.754039303930394e6,139.7450408935547,-0.46311432123184204,-2.413241386413574,139.71240234375
8.754039303930394e6,298.4150695800781,1.967635154724121,-42.20656204223633,295.4034729003906
8.754039303930394e6,37.404239654541016,6.47236442565918,-16.848859786987305,32.71416091918945
8.754039303930394e6,131.7802734375,14.455612182617188,-49.525577545166016,121.24853515625
8.754039303930394e6,139.6924285888672,-14.432344436645508,0.5414720773696899,138.93272399902344
8.754039303930394e6,89.79988098144531,1.0523515939712524,41.42890167236328,-79.64591979980469
8.754039303930394e6,50.38878631591797,31.062145233154297,-6.366286754608154,39.122344970703125
8.754039303930394e6,49.75678253173828,2.0333971977233887,13.877816200256348,-47.706642150878906
8.754039303930394e6,28.599977493286133,13.396896362304688,-9.032158851623535,-23.533313751220703
8.754039303930394e6,294.0832824707031,49.40861511230469,41.605247497558594,286.8966369628906
8.754039303930394e6,20.89712905883789,20.74413299560547,0.8312138915061951,1.6108609437942505
8.754039303930394e6,82.96443939208984,-18.267274856567383,34.59357452392578,-73.1409912109375
8.754039303930394e6,14.896343231201172,-10.554739952087402,2.376215696334839,10.087959289550781
8.754039303930394e6,45.538963317871094,1.7750564813613892,24.783756256103516,-38.12252426147461
8.754039303930394e6,104.61773681640625,-34.2627067565918,-11.804238319396973,-98.12498474121094
8.754039303930394e6,78.51374816894531,-15.707900047302246,-24.959033966064453,-72.74360656738281
8.754039303930394e6,76.63306427001953,-30.99402618408203,-35.47048568725586,-60.42148971557617
8.754039303930394e6,77.93295288085938,-19.881317138671875,-0.09600405395030975,75.33381652832031
8.754039303930394e6,938.4086303710938,2.92706036567688,25.029754638671875,938.0685424804688
8.754039303930394e6,87.35216522216797,-5.233326435089111,11.562692642211914,86.40736389160156
8.754039303930394e6,59.1498908996582,0.2885574996471405,44.3759765625,-39.06806945800781
8.754039303930394e6,51.97407150268555,22.35031509399414,23.138383865356445,40.783546447753906
8.754039303930394e6,780.2440795898438,18.67704963684082,10.45398235321045,-779.948486328125
8.754039303930394e6,199.40745544433594,-7.657230377197266,-39.97255325317383,195.2019805908203
8.754039303930394e6,313.1592102050781,9.14108657836914,-45.063446044921875,309.7601013183594
8.754039303930394e6,241.06752014160156,12.278199195861816,-30.02168083190918,-238.8690185546875
8.754039303930394e6,708.0780639648438,14.35230541229248,-29.430164337158203,707.3184204101562
8.754039303930394e6,1095.755615234375,-17.40318489074707,8.807523727416992,-1095.58056640625
8.754039303930394e6,854.4371948242188,-19.627124786376953,-13.489529609680176,-854.1034545898438
8.754039303930394e6,28.012100219726562,-0.540986955165863,-19.830047607421875,-19.69947052001953
8.754039303930394e6,67.65899658203125,-4.314039707183838,-32.938690185546875,-58.915924072265625
8.754039303930394e6,108.14350891113281,-16.852548599243164,-61.45329666137695,-87.35797882080078
8.754039303930394e6,61.3410530090332,31.356002807617188,-8.869512557983398,51.940086364746094
8.754039303930394e6,124.47943115234375,-22.922578811645508,-6.043785095214844,-122.18867492675781
8.754039303930394e6,280.05133056640625,-44.402587890625,9.724352836608887,276.3322448730469
8.754039303930394e6,65.3558578491211,41.41419219970703,14.7365140914917,-48.33220672607422
8.754039303930394e6,88.07445526123047,-11.07802963256836,-40.03681564331055,77.6424789428711
8.754039303930394e6,506.25311279296875,11.616172790527344,-10.428536415100098,-506.00933837890625
8.754039303930394e6,30.387252807617188,15.273643493652344,-23.685678482055664,11.225168228149414
8.754039303930394e6,39.18426513671875,11.389698028564453,30.178823471069336,22.177349090576172
8.754039303930394e6,1345.9573974609375,5.1631340980529785,-10.625117301940918,1345.9044189453125
8.754039303930394e6,102.08573150634766,13.720381736755371,47.99861145019531,89.02974700927734
8.754039303930394e6,404.4912414550781,26.981260299682617,24.760826110839844,402.82623291015625
8.754039303930394e6,141.71961975097656,66.43330383300781,1.334299921989441,-125.1646957397461
8.754039303930394e6,15.172744750976562,12.73795223236084,7.576475620269775,2.7328693866729736
8.754039303930394e6,36.010257720947266,2.360283851623535,-35.681697845458984,-3.859916925430298
8.754039303930394e6,33.42404556274414,-12.544514656066895,-22.127595901489258,21.612178802490234
8.754039303930394e6,70.54798889160156,-14.649453163146973,29.68482780456543,-62.27470016479492
8.754039303930394e6,133.1873016357422,-35.702850341796875,-3.1926004886627197,128.26101684570312
8.754039303930394e6,30.98980140686035,-28.89851951599121,7.1829962730407715,-8.400164604187012
8.754039303930394e6,312.13330078125,37.58628845214844,14.205092430114746,309.53125
8.754039303930394e6,2979.168701171875,24.516876220703125,32.624027252197266,2978.888671875
8.754039303930394e6,91.19664001464844,-9.627511024475098,-25.432592391967773,-87.03009033203125
8.754039303930394e6,485.1974182128906,-34.4653434753418,-19.84263801574707,-483.5616455078125
8.754039303930394e6,2371.975830078125,-39.626792907714844,-41.01198196411133,2371.28955078125
8.754039303930394e6,34.46904754638672,-20.17759895324707,-5.8580451011657715,-27.26862335205078
8.754039303930394e6,141.79058837890625,-6.516343593597412,41.08312225341797,-135.5404052734375
8.754039303930394e6,256.5504150390625,10.958776473999023,-54.283382415771484,-250.49600219726562
8.754039303930394e6,64.97046661376953,16.1074275970459,-17.668649673461914,60.38581085205078
8.754039303930394e6,445.7222595214844,-29.15886688232422,-3.838338613510132,444.7474060058594
8.754039303930394e6,20.674240112304688,16.4959774017334,12.298946380615234,0.9786285161972046
8.754039303930394e6,156.0957794189453,12.915654182434082,-37.735618591308594,-150.90399169921875
8.754039303930394e6,33.28971481323242,23.163164138793945,-22.82390785217285,6.903405666351318
8.754039303930394e6,795.19970703125,13.121752738952637,-15.865525245666504,-794.9312133789062
8.754039303930394e6,78.468994140625,39.71889877319336,6.642353057861328,67.3244857788086
8.754039303930394e6,442.9603271484375,-20.41460609436035,40.509124755859375,-440.6279602050781
8.754039303930394e6,65.06204223632812,-29.16815948486328,33.46624755859375,-47.53117370605469
8.754039303930394e6,88.33283996582031,2.1327927112579346,35.394107818603516,80.88457489013672
8.754039303930394e6,799.0407104492188,47.52191925048828,-13.268068313598633,797.5140380859375
8.754039303930394e6,31.085887908935547,7.4812726974487305,27.468490600585938,-12.35960578918457
8.754039303930394e6,38.943382263183594,23.23607063293457,29.084875106811523,11.298539161682129
