290589.65888098546,1392.8786417760334,106.90734474296528,-0.4035336526937974,1388.7694134414553
290589.65888098546,17.873017726238924,4.83426528688799,0.24008526221770962,17.173619156185644
290589.65888098546,308.52694481555966,24.397273015728,0.17413623189078256,307.5589937187149
290589.65888098546,29.229112280471924,9.561650246415049,0.22871102195776669,-27.600357508816817
290589.65888098546,318.6437345001034,12.82531243862011,-0.2801100268112836,318.38369717916385
290589.65888098546,176.06686326329617,18.637399449797673,0.21569297088885392,-175.07443374674557
290589.65888098546,46.7265006226943,21.581467856059803,0.2884358396454539,-41.42993005622043
290589.65888098546,131.69988591421958,25.998808950199017,-0.2624501202528469,129.1037148845853
290589.65888098546,739.2623390406088,11.641613644076786,0.44835843546891313,739.1698004682983
290589.65888098546,102.42153253088566,27.38333097744153,0.1359434637516991,98.6874927435398
290589.65888098546,21.29181498532181,12.399996391100522,-0.044326616563003934,-17.277028219498067
290589.65888098546,52.32703694318147,23.04531280532051,0.010647860591514104,46.96752530906301
290589.65888098546,15.467874265816532,9.263762693275744,-0.045292302993672415,12.343094334463757
290589.65888098546,13.146390988021837,9.80441284778829,0.08832237787330546,-8.695371064769601
290589.65888098546,118.28037465338207,23.695367932438035,0.5304774406925353,115.87670755787002
290589.65888098546,60.214170399264894,36.38325107389594,0.005718700720405462,47.967921776312366
290589.65888098546,474.4807141932866,38.38860748666969,-0.022863509496065602,472.9240727938704
290589.65888098546,90.6720712736064,35.58449092512802,0.38993233533395044,-83.39024320324113
290589.65888098546,48.52037239844076,22.97986845160918,0.17364650696554504,-42.72046610931496
290589.65888098546,14.933885570697349,12.381393056953694,0.12250313651868816,-8.283914006425018
290589.65888098546,29.579372226104446,13.469279073108074,0.4404214065360913,-26.310454302467612
290589.65888098546,34.28161876291255,20.87353860314424,-0.3510596424944813,-27.172002546601846
290589.65888098546,137.89565310001376,24.747436271560336,-0.000019778799347960625,-135.65283534058702
290589.65888098546,20.227707495393624,11.776648583432106,-0.32181585159483683,16.409854578746646
290589.65888098546,19.670889806678968,16.901889431191854,-0.3822059910465447,-10.002007403470548
290589.65888098546,57.154696523871245,37.854758840445236,0.3639053312321199,-42.80724628907883
290589.65888098546,140.73079949335013,30.43774225613499,-0.35816150684331693,137.3953772395492
290589.65888098546,22.76546325429848,20.288175020076928,-0.4761193795527621,-10.263809037114605
290589.65888098546,12.661928266502809,10.881206815928493,-0.11691438273755093,6.3895454265982945
290589.65888098546,328.849550774598,27.344377810511716,0.514666383403361,-327.70865621677
290589.65888098546,14.799351655473217,14.522303924822447,0.05741138837979864,2.652620618620151
290589.65888098546,156.5480802969647,10.158531782578454,0.3072400011439956,-156.21436385411346
290589.65888098546,183.33593646703085,39.65068667125079,0.27787578881805336,178.99365247366694
290589.65888098546,22.6012633262313,21.312366477149112,0.2749237786176949,7.445854556576383
290589.65888098546,564.6812247686287,27.10584378938691,-0.17005086365854127,564.029295440799
290589.65888098546,233.58595625968928,30.520957161528674,0.5666020985592437,-231.58036465088293
290589.65888098546,78.87465312325116,19.93257462667344,0.43797852962417216,76.30614485707737
290589.65888098546,39.286884849505576,36.491642394256736,-0.4542969303125441,14.509623183373982
290589.65888098546,36.618655242757704,36.48065552908515,0.2505552491759885,2.9901672360731526
290589.65888098546,20.696876189810723,17.611481833525122,0.21290674620889902,10.819762309662222
290589.65888098546,41.64688237414623,22.700107034662054,-0.24855121530875635,-34.90017719826973
290589.65888098546,58.445302252735814,24.942905671696234,-0.0926178058722394,-52.8451741229504
290589.65888098546,31.91786953054107,4.75235594186444,0.15595415697989506,31.544530124060945
290589.65888098546,93.31609677478434,9.112911181076104,-0.29314938113720157,92.86376594023889
290589.65888098546,132.68383758315454,12.869119537439373,0.1424217245262332,-132.0540890251143
290589.65888098546,163.42098197255484,22.336969471473417,-0.12112182684287913,-161.88384313230281
290589.65888098546,18.054207728000634,13.013031506409146,0.34458390165982233,-12.466470378985289
290589.65888098546,24.229992094270088,6.226834944522743,0.0004259349762813105,-23.39305959803122
290589.65888098546,889.8319666154305,15.718981362027838,0.20423543386516413,-889.6924844672959
290589.65888098546,13.132792465572312,13.088910590947611,0.2041445421002662,0.15867125859139897
290589.65888098546,9.179641717875963,1.8609633149088172,0.25396859919208326,8.92492754234771
290589.65888098546,23.9903994867714,21.7271118421178,0.14684482309771513,-10.117633577537552
290589.65888098546,33.78992692900326,18.633638418737853,0.18855495243473958,-28.167841987866737
290589.65888098546,193.2492169267987,20.961089478384473,-0.22023381668158915,192.10611719006363
290589.65888098546,334.1729079368393,24.148816075105092,-0.12966094948172768,333.29756444241923
290589.65888098546,36.29122789191414,6.672702893388397,-0.05571073554878575,-35.657276233466824
290589.65888098546,29.39446388844841,24.339690041011686,-0.052601818044990166,-16.447717869720194
290589.65888098546,28.49010694368942,17.215061791310617,-0.4175639496805138,-22.673104675111098
290589.65888098546,55.9597579983225,11.562210546545959,-0.413114178765876,54.74080135748713
290589.65888098546,1178.2496333492313,17.95594757547932,0.0009903936336414453,1178.112345503331
290589.65888098546,141.18039527239137,15.374767339381934,0.49292775121457777,140.33600305993122
290589.65888098546,24.30650382181383,20.225726870624367,0.5535401532504152,-13.428919836304521
290589.65888098546,20.98439459375155,20.696427548949,-0.32394155416536596,-3.288458472181027
290589.65888098546,127.43546753918643,22.58098376999407,0.15994851985648387,125.41446555105875
290589.65888098546,15.692391707228834,14.738639285313473,0.3083403252876633,-5.276816258950098
290589.65888098546,575.0587878597887,26.19818516179278,0.13931627562691704,-574.4607570357175
290589.65888098546,99.3582833378798,15.918128016797514,0.39512084463841396,-98.06855633629866
290589.65888098546,93.88001282699686,8.58666794209385,-0.22607039491847775,-93.480431258645
290589.65888098546,447.01754052681935,12.35942563804753,-0.26473216780750686,-446.84535607690924
290589.65888098546,19.823814390967698,14.842802668336878,0.48299055630447507,-13.090368220767145
290589.65888098546,151.43722409305587,21.834729168958546,-0.05641300247222107,149.85122773864154
290589.65888098546,27.160074718539345,19.00443265027814,-0.27600107382601885,-19.373724882978212
290589.65888098546,65.78342342380293,10.376486662118365,-0.30110231726562026,64.95084952005757
290589.65888098546,32.18612640009749,31.27185027819331,0.05930375971441702,7.545249496325322
290589.65888098546,33.149229816211786,7.013963540607087,-0.13309448333260043,-32.38169595302206
290589.65888098546,83.12810479654931,23.450627371836706,0.2718377696510458,79.7445432693469
290589.65888098546,122.40511527095333,17.48118802661229,0.2864289874728847,121.14559200476565
290589.65888098546,63.04959472400001,26.27152625711317,-0.15949271812945442,-57.30575066371374
290589.65888098546,86.24779814622973,43.047304074623824,0.3581316305946364,-74.72884471735951
290589.65888098546,48.44312134095281,19.496048297521895,0.33497658709251693,-44.33332934483346
290589.65888098546,23.322800354719103,23.253150558864483,0.30376555035001,-1.4380285253382272
290589.65888098546,7.858408799867686,4.336421571375265,0.07088099796326998,6.470023707968687
290589.65888098546,676.3807792887052,17.339486149901585,-0.24011398207766152,-676.1576438602211
290589.65888098546,174.16849986011914,13.884239093958142,-0.39604682354153575,173.6106378920834
290589.65888098546,39.41742873682087,29.787631647950676,-0.28440617299819193,25.792750846575466
290589.65888098546,32.463978095877444,31.62451092504083,-0.30406030630360026,-7.254234898879055
290589.65888098546,13.485333804302133,12.648218091128985,0.23707523472531464,-4.553767269214717
290589.65888098546,181.68712462368822,17.278724301007422,0.5279640388144404,-180.85987500991897
290589.65888098546,1461.5941056129384,31.893627779414462,-0.3807626100761922,-1461.2456663010037
290589.65888098546,1617.4855984162218,18.343398476034587,-0.17137031711589096,-1617.381237569709
290589.65888098546,211.0682421569707,17.501775318853923,0.410552376078945,-210.3383900973498
290589.65888098546,18.0910408494106,18.051317770060678,-0.135232975237403,0.5775741494760165
290589.65888098546,31.072490348165203,5.379296651133043,-0.3204317028354822,-30.583922926533596
290589.65888098546,29.783667248867353,12.826688440698423,0.12174039074746658,26.859714663230655
290589.65888098546,96.53762229798026,17.32289981739473,-0.05888575230357783,94.9649534692066
290589.65888098546,8.88929491104048,4.738803564932992,0.024673192368261987,7.44841527429875
290589.65888098546,663.2130361909045,28.279869404219276,0.3731148608100037,-662.6089022488417
290589.65888098546,60.62855673928492,36.917458575645846,0.15919979949924606,48.081326875455545
290589.65888098546,60.10934870433564,40.64743479728013,0.29634583681471943,44.269043577670395
290589.65888098546,52.18882357546819,48.80986388613678,0.03324577869134104,-18.44412053752481
290589.65888098546,15.973903143266142,15.939714256461047,-0.0836774831410644,-0.016828785921548906
290589.65888098546,58.590819311846545,22.761378976498555,0.2677074160131175,-53.978220251667
290589.65888098546,54.891001031330454,21.887178385988776,0.28737701039235475,50.32700095427628
290589.65888098546,31.65456484897459,25.993802582398608,0.16792018308008494,-18.033904180008832
290589.65888098546,40.70952388686091,16.939225114453468,0.220428518897579,37.00264305372286
290589.65888098546,319.34607153699454,33.25975339741445,0.17558553148660294,317.6075999938477
290589.65888098546,62.75568383355457,11.213612001331953,0.43537755766553526,61.735382073486264
290589.65888098546,176.0701425322914,17.109190493106695,0.2863214404749057,-175.2335724286905
290589.65888098546,27.57542127121125,26.44827447761012,0.5704827407334181,7.712546853063028
290589.65888098546,185.84907275257757,12.674313079054008,-0.0347330534127127,-185.41346935608098
290589.65888098546,32.7707940700238,21.836672097919514,0.5198696282789226,-24.40759359940762
290589.65888098546,336.3180290089954,28.6251755753439,0.27320757792131234,335.0958930089593
290589.65888098546,31.10403992339856,22.23883982286668,-0.1990153829953554,-21.720310537443556
290589.65888098546,126.98657744393113,27.05167604888922,0.1152427837249163,-124.0673228011577
290589.65888098546,548.5568303248479,28.5988570796285,0.043255402837830435,-547.8098354290742
290589.65888098546,26.000633316296497,23.234351387503438,0.21176804586262057,11.621927414231939
290589.65888098546,19.94211621865383,18.968501193415456,-0.2580767011078805,-6.060821086819652
290589.65888098546,64.46147640322806,9.39789105435752,-0.30013713819692367,63.763529510128535
290589.65888098546,15.55034647411808,15.465773889179196,0.2427266315742504,1.2167133321470005
290589.65888098546,13.151578785398451,12.65490385280744,-0.22215970722146489,-3.418226464941898
290589.65888098546,47.161012096030106,12.34866835092616,-0.4147798918057568,-45.50181978337225
290589.65888098546,73.6143056754604,26.566232279291246,-0.1686437058989497,68.64538626841376
290589.65888098546,72.27428231005067,33.625557641686726,-0.5404540379431885,63.96497369832787
290589.65888098546,28.519672139689618,20.589631257641404,0.4074989061405425,-19.7025105595109
290589.65888098546,64.34572902907323,21.10771244199658,-0.20128150788587765,-60.775924506171705
290589.65888098546,507.3869601871247,24.063154222859822,0.15196525450633955,506.8149416477533
290589.65888098546,32.685096716715556,12.505390850707968,-0.3839169404429757,30.177798940799516
290589.65888098546,7.946752172744535,7.840785298864055,0.346614310852061,-0.6848420168548867
290589.65888098546,22.2787412836482,18.728920150975892,0.07114027739227535,-12.020024804443308
290589.65888098546,222.69605651721858,20.891485582223783,-0.0016489902790540823,221.7115143826436
290589.65888098546,232.10058436899595,38.01982868246765,0.19446215754661986,-228.96299323237997
290589.65888098546,14.674960938330413,10.832092055806417,-0.10847506756995477,-9.84503364505042
290589.65888098546,18.516989086596574,16.163777080577848,-0.34170230735708046,-8.967197384471344
290589.65888098546,17.693211187306957,11.551837089932354,0.2665579833459102,13.358514995470935
290589.65888098546,316.93859058822204,32.82868933658342,0.31152600425294513,-315.2319249475151
290589.65888098546,637.7261530540934,24.684824387565172,0.3494780950163312,-637.2472830803325
290589.65888098546,417.7865827725994,12.710429637284754,-0.048132530713059674,-417.5918912054898
290589.65888098546,18.102119024029122,10.773187187566224,-0.07434542700209382,-14.509852439486068
290589.65888098546,11.518653053510771,9.218043415507216,-0.303679964607957,6.821364695753541
290589.65888098546,261.8403921027894,20.7793811468542,0.1317893210636187,261.012465375406
290589.65888098546,81.63534952185508,32.90165340377788,0.3985880822555288,74.7032048607702
290589.65888098546,15.317388009358572,14.786936505694808,-0.5619533894143375,-3.816973496150815
290589.65888098546,155.3539052645771,40.21984894570663,0.3393983602199625,-150.05332596970055
290589.65888098546,15.728233580754424,14.3024981517602,0.009476058104097318,6.460029602903534
290589.65888098546,203.98906985754587,80.06210598708334,-0.09347051728179981,-187.61798225009923
290589.65888098546,164.6925016804654,24.631509418468482,0.29847609708915157,-162.8365314038403
290589.65888098546,302.25979744919937,26.32751376610852,-0.5615942613640241,301.108697946254
290589.65888098546,37.43379540131148,18.91228426455752,-0.16458499824399944,-32.28782507228647
290589.65888098546,564.6077032611698,22.046670533524956,-0.04395976794668193,564.1761401919214
290589.65888098546,46.574387897,14.018634007873015,0.49435692983401597,44.39958686559878
290589.65888098546,17.730038547884273,7.362943931173539,-0.4211504853110695,-16.08975294779194
290589.65888098546,1174.3755672542438,15.828348075251126,0.10144630453658393,-1174.2684285390878
290589.65888098546,1.5775541765644356,0.19410501431904015,0.1816194581247313,-1.1550795956307853
290589.65888098546,38.87457161619315,27.482481543950364,-0.343276117082864,-27.47260239061452
290589.65888098546,173.2921470358854,29.5979838265409,0.3151816630328098,170.74233345104088
290589.65888098546,50.61707913338977,50.408315050832364,-0.021875222504641315,-4.472827884337897
290589.65888098546,71.95664163561466,17.871741586835263,0.1869131728531073,-69.69390493918294
290589.65888098546,134.42498025902532,6.7349251321648005,-0.4741027978440086,134.25128499093393
290589.65888098546,353.4729066012877,27.35433276321369,0.15671749188244277,352.41130488953706
290589.65888098546,40.50095439872854,29.826654835588997,0.04683552663377259,27.379042514966955
290589.65888098546,18.967870511401458,18.881570655827094,0.3020976954710344,-1.4461439641658629
290589.65888098546,54.24749992266803,28.425456442102885,-0.3456562838442522,46.19070674635557
290589.65888098546,268.88018978757884,26.784312857215035,0.3725541629596297,-267.5405285978992
290589.65888098546,72.94067954869041,16.95744894766029,-0.34539125144588917,-70.93366307453792
290589.65888098546,301.17362066463954,22.598966548501835,-0.1617913774377398,-300.322703958283
290589.65888098546,55.87077309271165,22.100774492302797,-0.34941723912947276,51.30198002501511
290589.65888098546,32.61397966153825,11.988016492045059,-0.04029850525116565,-30.312929585517796
290589.65888098546,82.39674970419085,11.977568209338298,0.41806598407457324,-81.51382481834038
290589.65888098546,266.35318748844907,26.15179055592889,0.27676165569482764,265.0640374193339
290589.65888098546,162.4836537648223,30.409463499644637,-0.2896877976652319,-159.60900521426325
290589.65888098546,565.2864206117745,25.21761549985114,0.2668237374780162,564.7226347471325
290589.65888098546,17.334321614353517,17.298771006296054,-0.33140340234030397,0.19389007940519234
290589.65888098546,21.267448510936156,19.939533408738242,-0.1546844515914696,7.3219970229417495
290589.65888098546,138.25706851410888,14.570003293319449,0.43617706300481845,137.48257322945975
290589.65888098546,73.79154115457457,9.118477059708603,-0.08199300316785196,-73.21853859032335
290589.65888098546,30.633846169818945,26.53470783780538,-0.2628004402733648,15.270525240587903
290589.65888098546,24.352094592676487,18.65536850979166,0.0043863077000072396,15.61787154676467
290589.65888098546,12.396193461035207,7.302698798841151,-0.16920115722368342,-9.96111277024863
290589.65888098546,1127.9921475236606,15.977060652805928,0.2850130312923465,-1127.8784745572477
290589.65888098546,22.71397464242058,21.75167096204485,0.25674775166271185,6.452885330135338
290589.65888098546,33.20599245658013,22.06975976471686,0.14144574168638616,-24.78830018643271
290589.65888098546,48.00282324289466,34.172833043218574,0.2209528287186333,-33.695042588083744
290589.65888098546,51.79943470856209,33.268272519090424,0.2689994840411275,-39.68938539554507
290589.65888098546,195.68752274096792,59.391370087633874,0.03245165048064012,186.45424869543012
290589.65888098546,141.8397582109747,17.070114054008712,-0.21322944057530416,140.8048257085423
290589.65888098546,42.50105080223797,23.067285691401775,-0.007673199930378711,-35.68130862684364
290589.65888098546,25.93482196357136,24.512538003251958,-0.3887726826656837,-8.39735201113334
290589.65888098546,11.050052466061816,8.930366885727317,-0.5216923417919601,6.402830465187989
290589.65888098546,11.989199391717765,6.370770288052161,-0.3085728494895915,10.098275341076581
290589.65888098546,20.046733328928237,19.90072148700461,-0.44608173921870503,-2.1330744516239606
290589.65888098546,57.91598952503415,33.50222455663405,-0.07451384244132635,-47.23106429231101
290589.65888098546,151.6914356919045,24.949779390299504,-0.38553961853314284,-149.62141465687836
290589.65888098546,518.1035904720602,20.210427209682983,0.5342393515061237,-517.7079291206907
290589.65888098546,1800.827254973278,21.840743673396602,0.44062684991399576,-1800.6944510972542
290589.65888098546,39.495250130200446,25.55300877505918,-0.13071755203110733,30.09680435506132
290589.65888098546,29.106904101346586,17.108915371534252,0.07967859935107549,-23.52459832966062
290589.65888098546,250.3953309741573,27.273008563548796,0.2328670780783833,248.90332811063558
290589.65888098546,157.62180415182428,27.07175914366251,0.021517561645957046,-155.27610483269638
290589.65888098546,21.276750718454398,13.236834483201921,0.11670184137293106,-16.624948383564572
290589.65888098546,68.8446473068881,13.16604888143714,0.4262408167055065,-67.56459969913237
290589.65888098546,63.8385038156386,41.18307208577635,0.21708251119375402,48.76656859219014
290589.65888098546,28.00926314817258,23.96831923229139,-0.06565726435357767,14.455115996856852
290589.65888098546,17.757863757995164,16.58485161307641,0.13065497836142229,6.259676155583799
290589.65888098546,90.35080367151971,33.99820602414906,-0.030880471672894247,83.70367346599481
290589.65888098546,259.40074065767215,13.205925946073373,0.018848567403864334,259.0622774787244
290589.65888098546,680.4682710136399,4.435574956556822,-0.317347275836384,680.4529440129421
290589.65888098546,480.6353505895477,31.39078290806843,-0.00812693151993504,-479.60804321110516
290589.65888098546,180.23488545220064,20.775290140869824,0.0993921821498542,-179.03046547669223
290589.65888098546,352.8781725980699,22.17206280992915,0.26664528950296523,-352.17928590601656
290589.65888098546,18.011039773608456,17.762419509884708,0.2023906385576271,-2.787335463699537
290589.65888098546,10.407084091132496,2.4221014521999633,0.1907711964952559,-10.065814634799395
290589.65888098546,186.2813490996294,6.1402041164275225,-0.17966753086206658,-186.17712756791948
290589.65888098546,22.252053933034386,19.444205697507247,0.08060065790507658,-10.769701325572736
290589.65888098546,158.2959987485146,21.441715619423196,-0.11237587771269736,-156.83360487097156
290589.65888098546,80.91049234500544,42.727520492803194,0.027995891911333542,68.70067084355657
290589.65888098546,362.45343041805046,8.687314102062246,0.001284395307271442,-362.34781079500306
290589.65888098546,55.16517559733133,38.5927679229524,-0.24096277842568464,-39.40371801931067
290589.65888098546,162.0834441187807,41.54187433267985,-0.3999060318840776,-156.66547738278467
290589.65888098546,49.42595704248778,30.601934341976733,-0.3587601962943176,38.7973495137638
290589.65888098546,545.5209811038866,17.01910577731013,-0.39015785043667495,545.2543029027978
290589.65888098546,409.5676613837822,24.55658677427435,0.33334025972097436,-408.82936339715826
290589.65888098546,31.461014080655936,29.546464238630726,0.19850582820570173,-10.755400852181886
290589.65888098546,8.811113057268718,8.702805322263808,-0.2905644769421628,-0.8536153653065073
290589.65888098546,21.408335186013954,20.134271726310516,-0.0030361342274341854,-7.200284879510322
290589.65888098546,3.6631232385898826,0.19216768720441024,0.5036678457535877,-3.470454756749564
290589.65888098546,161.0029283171229,12.860022508630426,0.4306135842746929,-160.4845584901662
290589.65888098546,951.7359216031214,23.284391332031646,0.32179022034113774,-951.4504265778487
290589.65888098546,40.616986360781056,7.6406767653519125,0.13056248870885667,-39.878048938134214
290589.65888098546,16.09734802835878,12.20626047458196,-0.07477800904750076,10.44233791344292
290589.65888098546,21.45103836632461,17.850816176891453,0.041015981207792214,11.849469210814737
290589.65888098546,17.76956732810358,6.444519644859246,0.2485638528044242,16.525135390141543
290589.65888098546,64.52957934869848,8.811031714714565,-0.019862390448887376,-63.91672809683012
290589.65888098546,7.41935950131048,2.2455317893297266,0.08774763446541296,-6.993781296397641
290589.65888098546,38.08251761283643,37.74699179824222,0.04492285437074448,4.935274453258644
290589.65888098546,615.171658889855,21.182346508552975,-0.42278855972134727,614.8058356437406
290589.65888098546,49.44449784156376,21.445421808372704,-0.3736108592659079,-44.537948530075056
290589.65888098546,588.7969209570264,7.258651501910094,-0.15271103004463119,-588.7512369246167
290589.65888098546,230.21246132351007,26.334050522209402,0.3239659438972913,-228.6987240276297
290589.65888098546,251.32892487335113,20.843613013284145,0.2837868154099245,-250.46079121025474
290589.65888098546,53.86133144447586,27.293941385751847,-0.3539315835635531,-46.42062812062524
290589.65888098546,30.03000291251811,29.84820636787116,-0.39265920271139254,-3.106068958305313
290589.65888098546,24.863503792519627,6.9295233596463195,-0.09910252518766373,23.85543752721075
290589.65888098546,267.2566462561677,1.8657877629222386,-0.3767133489363374,-267.2478401881805
290589.65888098546,9.328120700542563,6.31605877567091,0.17987256383404046,-6.782704275091236
290589.65888098546,85.07327649352074,6.08484434105641,0.23538081398477353,-84.84867608063755
290589.65888098546,34.49555011485617,8.402445809045942,0.1387442631298111,-33.44007814372521
290589.65888098546,321.5477581037582,28.583808244241563,0.1634621286776456,-320.2730337103302
290589.65888098546,74.35949957833785,20.604249935078244,-0.42012017366040716,71.43906323062849
290589.65888098546,130.38230236363916,37.032660753289726,0.32641530853899886,125.00774557721586
290589.65888098546,14.5490642905475,11.281699517322725,-0.07847018376158144,-9.127352531702995
290589.65888098546,1028.497163544994,18.479874600192744,0.5220397888186835,-1028.3304689268887
290589.65888098546,1198.0530362319232,21.328605848849527,-0.3741033174483081,1197.8626567507054
290589.65888098546,26.74008110029673,14.977459547409758,0.1399858274787819,-22.127002526339993
290589.65888098546,18.146589282619964,15.567504512052931,-0.19709365848752347,-9.264386327517503
290589.65888098546,253.9174017173682,32.27832706328801,-0.00858641621067886,251.85526124590805
290589.65888098546,164.4824346032837,37.66889905164544,0.31471539947489435,-160.10728429885438
290589.65888098546,55.880374551295134,12.843985372075561,0.32788948013728697,-54.37331130545719
290589.65888098546,914.6886975710393,15.486875471868021,-0.08491175212705723,-914.5569851771916
290589.65888098546,68.63782585124,10.925410192228078,-0.10281760213255879,-67.75464686893292
290589.65888098546,177.8891871488765,16.828513773628732,0.07451812922487783,177.08832448748169
290589.65888098546,306.95631368964524,20.437941960454868,0.09606507987495591,-306.2733681010052
290589.65888098546,55.80780312177414,38.035226357359804,-0.20710771949738993,40.82530766193968
290589.65888098546,13.533275168422641,8.731333887792006,0.240085877636478,-10.284546571040424
290589.65888098546,32.25584263798089,16.75487176340994,0.03657062876074098,-27.54321174342938
290589.65888098546,59.876201343645086,59.45719469558958,0.22727849959653057,-6.990423795128644
290589.65888098546,394.54116589889213,38.930495592617206,-0.3756002903837992,-392.6142167831784
290589.65888098546,25.667255351192757,25.641281548849143,-0.49769247736490985,0.034264710069671966
290589.65888098546,412.4877742783364,26.069989412814778,-0.02053716286142308,-411.6617972965343
290589.65888098546,46.49713141277254,30.58050805307525,0.39027818900388195,35.008279504197674
290589.65888098546,23.034502594662644,22.778948092008736,-0.4044159794649624,3.2342658204057666
290589.65888098546,4.008207896496722,3.0581014227223227,0.08419335756244278,2.3712553183545517
290589.65888098546,352.19657927888727,28.823859461213065,-0.3207761150868241,351.0134311935515
290589.65888098546,67.65600612836445,28.23433160723346,-0.5144555841882252,61.47201976072009
290589.65888098546,164.11451251226583,21.565501570285626,0.20323207613858882,-162.6879751240401
290589.65888098546,47.39679465724354,35.474012002691495,-0.20028399331034197,-31.415389486877817
290589.65888098546,20.579901000714703,19.461312775283165,0.014103581651390076,-6.61102302425297
290589.65888098546,25.48472346849403,19.712495404534238,0.019233792283016485,-16.11845151773151
290589.65888098546,141.44680252728782,21.32232353556296,0.21815400489118986,-139.82641047793823
290589.65888098546,25.22782295754887,18.511878135266848,-0.17959584444325827,-17.106646617368284
290589.65888098546,46.020031946469615,25.16338729151923,-0.05236274339525881,38.5170187396506
290589.65888098546,197.66960433194478,18.507575337628367,-0.3271831471267736,196.79825018819204
290589.65888098546,692.2564197747071,12.323088404476003,-0.004239925810870913,692.1459444275972
290589.65888098546,24.9803246219086,17.19809497639669,-0.02067290494880974,18.08750712801996
290589.65888098546,118.63851897936439,9.505925780831564,0.06832551025680406,-118.25247179812933
290589.65888098546,13.448453477544648,5.016773523289543,0.15501456940237068,-12.433223592993762
290589.65888098546,35.04541201454103,7.6525353960907605,0.12132039725481705,34.18363761682079
290589.65888098546,97.67783063724742,34.7436199307921,0.18544690491662885,-91.2837404778382
290589.65888098546,46.81286972023037,13.757922007709848,0.5433893715141697,-44.730138335806195
290589.65888098546,822.7646263270221,40.343175781068524,0.004877011994997501,-821.7742845047131
290589.65888098546,92.6027049375008,30.122140175160993,-0.06800104387422076,-87.5604317197227
290589.65888098546,48.54653775965551,25.761921082929693,0.05226639168955787,-41.13396665612569
290589.65888098546,13.883412359951988,6.555260222885204,-0.017926148451966304,12.193997494518698
290589.65888098546,29.467494937195674,15.347474497974744,-0.09394476957130679,25.133556311519822
290589.65888098546,718.0700537489873,27.127878512815833,-0.007808022426710789,717.556685169596
290589.65888098546,68.29403690801311,14.552809700644367,-0.5366481211414353,66.71521123312407
290589.65888098546,54.12680113442177,17.88592489859768,-0.017192076498664284,51.07563205752692
290589.65888098546,91.11262514152142,15.73505752562772,0.3768824759809875,-89.73679612355392
290589.65888098546,271.1830101278306,37.94577770592365,-0.34073908509432865,268.5128358705333
290589.65888098546,266.24847555309975,22.36892272016958,0.03739865330235664,265.3051013948011
290589.65888098546,10.380701062379364,8.254671504630863,0.0718670692889088,6.207284599393775
290589.65888098546,251.65655256180554,16.787881698585146,-0.27235694509008573,251.09366676827588
290589.65888098546,97.87221172855355,16.592529006689393,0.3230033189351209,96.44931141658472
290589.65888098546,210.97591845619723,16.40467852460655,0.18927042346292894,210.33450753911853
290589.65888098546,29.05115975143105,12.447906559204865,0.07056380359678205,26.228433426769772
290589.65888098546,171.7381628187064,13.995935638204305,0.33767525804433424,171.16340883334928
290589.65888098546,15.394248841105348,2.8815049233821917,-0.3993481676618323,15.080999365949946
290589.65888098546,31.586488290781382,22.42584917492492,-0.3356402725055213,22.216909573814743
290589.65888098546,261.85210011696125,11.242618834392735,-0.2721878633237675,261.60842487437424
290589.65888098546,27.9375102120624,23.810007011319044,-0.18066345954172433,14.576405515792128
290589.65888098546,77.19540022473481,6.879686759716317,0.5672948114866342,76.87908751161417
290589.65888098546,222.199867463895,21.68676101167967,-0.28262852756584,-221.13638735627973
290589.65888098546,28.284270619510483,11.274303877288878,0.13280335728907075,25.918884889303122
290589.65888098546,91.42994730968184,19.26592540415503,0.35006427359583847,-89.37031404472896
290589.65888098546,23.748800294875917,22.00919190331939,-0.34615681663654346,-8.854228184514694
290589.65888098546,10.67218961480254,10.569145593385986,-0.18541969913218578,1.0347010252640505
290589.65888098546,4.234107975967886,2.751669071949504,-0.17134311991819287,3.040201191087216
290589.65888098546,928.1463888322414,45.86531714901891,-0.3782897431317064,927.0117932777861
290589.65888098546,381.84579682627935,24.13944115882066,0.3827785076392732,381.0803978284983
290589.65888098546,68.94946300307654,21.581180984262147,-0.5234973046959286,-65.47459981080844
290589.65888098546,62.54930447741832,14.37799264547311,0.2996205921699317,60.86472902817076
290589.65888098546,141.99882875259377,22.108622200326035,0.21472309514175336,140.2631322892103
290589.65888098546,3.2733141596417843,1.0040086417704523,-0.40555976022286705,2.908310092175459
290589.65888098546,29.493898483441008,6.400871743170702,0.06384900239871356,-28.772052517335208
290589.65888098546,19.983877541432374,19.456947928532806,-0.09030649878316739,-4.437406642398887
290589.65888098546,340.6427184770709,66.28682717095101,-0.07628701417348034,-334.1293590354271
290589.65888098546,18.96776835883966,17.370985765237673,0.30042435360243064,7.539962157907131
290589.65888098546,12.228878764116544,9.750437106095406,0.3226697141550707,-7.299762352262265
290589.65888098546,187.52550538990783,3.4269833921752144,0.5350604143277466,187.49053539045516
290589.65888098546,294.04278060164506,21.9897348598031,0.4018641110399119,-293.2172625955972
290589.65888098546,17.70526779001735,15.949677171698292,0.05413735571088886,7.615613491896026
290589.65888098546,1.9296934154531147,1.612678472117645,-0.19202695757752178,0.04800569940045081
290589.65888098546,20.63325394809886,17.707118502106965,0.3630221603187959,-10.534397554041515
290589.65888098546,107.74518306571173,29.590245367211082,0.007451230749465458,-103.59709451296177
290589.65888098546,260.35376896551946,29.459302109287435,0.23219653628906833,-258.67952530617833
290589.65888098546,181.72720144326175,35.35827238598564,0.11967951132854432,-178.2511435844641
290589.65888098546,14.381401358830598,5.720832377325191,-0.19198797202149676,13.152038497864943
290589.65888098546,67.15271460417291,26.75717757449691,-0.224590009293476,61.58251602817528
290589.65888098546,426.6968944777881,11.776623729782896,0.09645071806076201,426.53306762999176
290589.65888098546,45.53582524206915,17.821884823675326,0.30325365047600694,-41.889330778944014
290589.65888098546,203.97235358393883,49.25568612327229,-0.012998677540152319,197.93310596312037
290589.65888098546,16.0996008550769,10.91147472713996,0.23197203546472742,-11.789794316396748
290589.65888098546,953.5668963601687,50.774140488889,0.14410193194356213,952.2135831420851
290589.65888098546,8.842725536488155,4.46505065073389,0.2097209685236077,7.558394590903687
290589.65888098546,54.832481188340815,26.017589748260413,-0.4279905346645844,-48.25369452321348
290589.65888098546,28.831509348816336,7.02687262883571,0.3538771300187499,27.94047167537178
290589.65888098546,363.5961166962971,33.421211472802035,0.2038833571310333,-362.05529042671174
290589.65888098546,13.232370639589627,12.858030057114018,0.11744075593734192,-2.944333122978941
290589.65888098546,24.38290941015505,24.335155177397585,0.32214008816464007,-1.0671989672992424
290589.65888098546,35.8727416191746,25.492927131229735,-0.33001413617054326,25.214510550557996
290589.65888098546,46.01603734593178,24.836502019201042,0.12235245676914948,38.72370184299449
290589.65888098546,212.01169838149167,18.851003534412854,0.3827032080153881,-211.16905466635285
290589.65888098546,901.5369874327124,21.954586796017082,0.36980793227978515,901.2689472427398
290589.65888098546,13.310824890369204,8.249212126159684,0.014442189026995891,-10.39444775152911
290589.65888098546,223.00708673992276,25.045591307902853,-0.16751554822600054,221.59369852250418
290589.65888098546,948.3349647910412,31.302615759730543,0.31328323522079865,-947.8175825228793
290589.65888098546,31.52527886644636,24.104686613986857,0.34317407261962735,20.288068327984657
290589.65888098546,23.495611734922214,15.394297449577845,0.19961163983353397,-17.718231460893005
290589.65888098546,18.87052154750925,15.687951928149708,0.08262625405202156,10.435234293182692
290589.65888098546,18.390938142541575,15.188908253506268,-0.3406450244085803,10.311344571543781
290589.65888098546,11.381932914619458,9.928873794726423,0.05854886475536404,-5.46613466245834
290589.65888098546,57.77223093524487,18.127777565437842,-0.04911876844584762,54.84458158465845
290589.65888098546,252.06720621988902,14.576017696298921,0.3009471575158577,251.64308411816523
290589.65888098546,33.355036672832426,32.141359719635226,0.2960375255869784,-8.849860037246346
290589.65888098546,643.4778571910063,32.28607937042382,0.04712162534198622,-642.666535419143
290589.65888098546,163.00877659272095,24.55404329531171,0.3264718737517294,-161.14518241107803
290589.65888098546,11.645910202155182,11.442015435474927,-0.27837128687660456,1.8831385275805805
290589.65888098546,9.161206725110723,8.733368252646377,-0.17487566580273528,-2.5576552155817236
290589.65888098546,300.64977950952897,26.846385014789256,-0.193878599327576,-299.4468903427304
290589.65888098546,35.267327534717,11.855420773522333,-0.13979114929255052,-33.19834396825725
290589.65888098546,187.05085432564042,13.034320908492061,0.3180035620444896,-186.59298928474595
290589.65888098546,108.2580156565734,18.395664297512834,-0.464862207589399,-106.6775402142197
290589.65888098546,61.558490773846984,14.892413094224164,-0.331667174365778,59.7199297516887
290589.65888098546,24.00966506216386,7.820209246826297,-0.015472117154905667,-22.676514247633722
290589.65888098546,241.94983335723086,33.105080853120455,-0.11144150903117948,239.67202435446362
290589.65888098546,87.015571160896,22.55562394369505,-0.2015737803456831,-84.03468935537897
290589.65888098546,70.46207955164292,38.61403350300578,0.5702534378109483,-58.92751544451765
290589.65888098546,66.22476902329424,21.25283044720902,0.17169186157519295,62.7130285200127
290589.65888098546,64.57460577382001,21.243576121662453,0.17843800389333067,60.97109592554958
290589.65888098546,20.540259978494685,17.38503937881846,-0.01643736105066491,-10.889380591688564
290589.65888098546,17.836090790198664,16.903497086787937,0.22475526325754344,5.59138623788406
290589.65888098546,70.00235523175311,23.124887209803724,0.11334283450795718,66.06415576547296
290589.65888098546,73.98355434497786,22.56214822519224,-0.45971269413861854,-70.45012873867579
290589.65888098546,25.926021622908795,15.73151826118649,-0.5291150120246028,-20.574599917615426
290589.65888098546,17.329725939884185,15.554179509295734,-0.05608341328275485,7.569673022743726
290589.65888098546,6.242917200793263,4.303281429916165,-0.14544853488394918,4.398957025363989
290589.65888098546,288.644553365962,27.082747126501438,0.20315364169466368,287.36923620769136
290589.65888098546,302.64192049221754,17.706555367278295,-0.3026386486548294,302.12155590121006
290589.65888098546,27.97859466345301,23.44012466699168,0.16580668592977835,15.239784025929975
290589.65888098546,143.49441810744582,18.930898359463434,0.22803870300447632,142.23618846033685
290589.65888098546,197.24784987742845,18.463077343375033,0.24666149410900162,196.37893066330918
290589.65888098546,898.4554581162348,19.750400679271,-0.005631666933235996,-898.2377458413906
290589.65888098546,22.279144021545214,16.689788527780717,0.21416503998076428,-14.72010681492369
290589.65888098546,105.56697904689153,23.54902063129395,-0.2995499627742694,-102.90120094678164
290589.65888098546,25.6152465388164,7.703220467750809,0.2669350463527748,24.40586383283737
290589.65888098546,367.8523609690758,13.814270847549183,-0.38626340965708633,-367.59120281384395
290589.65888098546,36.61093560872854,29.033171648050747,0.12063575489632797,-22.278626333154616
290589.65888098546,191.24219192514587,14.54815964842639,-0.06778081658838399,190.68518197021902
290589.65888098546,35.09867837404481,13.050664148744177,-0.2609312187722699,-32.56448215244323
290589.65888098546,44.042929102733495,15.1402404938482,0.5202980899734344,-41.34245040767199
290589.65888098546,4.4870520464452985,1.9066225778064787,-0.03289478969493309,-3.9260079498796796
290589.65888098546,46.27122583154224,20.791616396683885,0.0027213830417970645,-41.32373669257418
290589.65888098546,6.966320092001298,4.236473772520433,-0.09178703985270524,5.430439652061566
290589.65888098546,1035.080233227514,37.916273841151266,-0.3696862382387007,-1034.3849500657332
290589.65888098546,223.4362343754047,20.65145159358112,-0.3321520180077442,-222.47713196652848
290589.65888098546,313.71020889508463,24.39063579336012,0.38081302166950953,312.7586341351941
290589.65888098546,99.05499522581034,29.310333242097297,0.08444599775514525,94.6134530992944
290589.65888098546,421.1514772649431,29.164246553133562,0.27347986749049946,420.139089978867
290589.65888098546,709.5984379614933,20.720432126539517,0.4078977935636453,-709.2949715480487
290589.65888098546,161.04680848826243,10.519540161927207,0.1936890015381356,160.69938543032376
290589.65888098546,201.9638829695825,7.912434936739031,-0.4127208405348624,-201.80572155691544
290589.65888098546,44.34988880935527,16.688010838593346,-0.35570883710147916,-41.07569350543913
290589.65888098546,65.87461827124534,12.67508360783544,-0.3729785965168173,-64.63423759092092
290589.65888098546,125.09308412805947,17.16459649452283,-0.45687527015114265,-123.9046560178991
290589.65888098546,120.31343386506478,28.9892127925871,-0.13270323033885195,-116.76406336711
290589.65888098546,120.05856967109936,11.910713337054991,0.502515720319325,119.4606995262457
290589.65888098546,920.7598215893261,31.065241245626265,-0.2343047299939607,-920.2350032110974
290589.65888098546,647.2373655673407,7.766805644491869,0.5701088975982548,647.1896748917997
290589.65888098546,142.90779010826833,37.06546170181612,-0.2853056050973804,138.01312552524914
290589.65888098546,114.57719687651633,10.23523613170975,-0.18164358132182384,-114.11422867063462
290589.65888098546,27.808022067907736,22.23650300523619,0.049152291979837885,-16.66546739686465
290589.65888098546,434.0324990439723,43.43753218059631,0.03546381360171423,-431.85218068317045
290589.65888098546,122.69379223926217,29.143091186493137,0.5601808974106621,-119.17654669265069
290589.65888098546,481.0461869033407,61.223835151628904,-0.2389752745212452,477.13303703313665
290589.65888098546,78.39909992608294,24.033342515775068,-0.2247398547993492,74.61690829036968
290589.65888098546,43.36964151307163,22.250191321872013,-0.022536573541004492,-37.21250431362676
290589.65888098546,35.75584774742404,11.335492285954226,-0.2857166914064259,33.89427418931836
290589.65888098546,39.644062689864136,19.75849678829896,-0.3828922882677157,-34.35146428897381
290589.65888098546,35.47440577248772,12.655145551665992,-0.16115715594185082,-33.12357134164049
290589.65888098546,883.1030046064685,46.10329391872111,0.27007603891394144,-881.8980929154036
290589.65888098546,76.28188599112347,35.81193577003371,-0.276495892618793,-67.34442167591541
290589.65888098546,836.3346904787389,29.596152573263037,-0.29019605341604426,-835.810154419863
290589.65888098546,143.78230358797887,25.290121361252094,0.1655244642929186,-141.53674216374696
290589.65888098546,137.45389510660846,0.4134849496606044,0.36728967212423025,137.4488399461708
290589.65888098546,170.55675076007276,12.817228100716623,-0.24905523314278724,170.07109707182764
290589.65888098546,93.31322975659263,31.497003637501518,-0.12533446658156286,-87.8305077681653
290589.65888098546,81.14902142102628,25.55164372769143,0.38816643310538707,-77.01326315187481
290589.65888098546,2787.528863936528,19.831357622809065,0.3559547788186325,-2787.458102649146
290589.65888098546,804.8148915486859,27.67382308412689,0.26065229381474103,804.3382481449514
290589.65888098546,7.936564729953207,3.2859678880709433,0.37940656628865754,-7.1388878325101075
290589.65888098546,1288.1716056186333,23.81970282496212,-0.2549922013012811,-1287.9509146130035
290589.65888098546,106.9668452103958,18.91143555612575,-0.46289660232488705,105.27566433076177
290589.65888098546,25.99921079411822,12.148321491303694,-0.40122897691298504,-22.959365327582717
290589.65888098546,294.2147485011104,26.89434177607644,-0.03832009673586494,292.98110406927236
290589.65888098546,459.39904376407367,44.39614955893863,0.11683687034913767,457.2475979804681
290589.65888098546,16.67219088642717,10.92523168847123,-0.4003386235173738,12.544209204633407
290589.65888098546,11.564674859183128,11.503516831107946,-0.22167130594468878,0.5271252446613723
290589.65888098546,100.63929622864045,10.62423900095723,0.45431902840481897,100.07049155142295
290589.65888098546,871.3359433374751,18.33118254363201,-0.4018495074435665,871.1423813644985
290589.65888098546,14.967394800882795,12.981207336107754,-0.18144985626101592,7.375258181822413
290589.65888098546,114.63494258973245,14.201853948725313,0.39931327399945554,113.74635884262818
290589.65888098546,439.39933747611695,30.300010031314827,-0.04300015347022334,438.3521432725246
290589.65888098546,109.68744332779593,29.24945696681477,0.33997249011997793,105.71000474750372
290589.65888098546,198.50973241193188,18.00415406052648,0.0304687324466882,197.68884532151623
290589.65888098546,67.74290998580017,42.49889663573811,-0.03218423275266415,-52.74334836110268
290589.65888098546,31.043545530539696,24.538087365879562,-0.5460617500128766,-18.97898833375283
290589.65888098546,32.24708991035886,14.30831215563919,-0.3594814878246428,-28.87791505770227
290589.65888098546,123.1487752445249,20.014634146258558,-0.07301522903493424,121.50697974631194
290589.65888098546,116.61228055151734,12.542655387823658,-0.06027523405940671,-115.93109303470165
290589.65888098546,84.22808710035424,13.952869269605667,-0.4157440041344622,-83.05679651136072
290589.65888098546,154.41061462485763,25.32896619072447,-0.23401633791398568,-152.31527438495925
290589.65888098546,95.69770738427351,15.277257525553095,0.14886963353921265,-94.46454696346444
290589.65888098546,160.28060768560954,23.679945966006905,0.3667431425756706,-158.51786982122567
290589.65888098546,84.52905682404192,17.06743789957744,0.023086960361179548,82.78151769673494
290589.65888098546,419.58065553283814,22.924692853858367,0.020941829092344013,418.95262346766447
290589.65888098546,363.7172605912563,25.733449109927026,0.08698854051771016,362.8042776428978
290589.65888098546,689.4603021358922,42.73542349572969,-0.08575401469546298,-688.1337810631605
290589.65888098546,840.3930626798079,23.025807457464342,-0.04937412838926984,840.0769165663052
290589.65888098546,32.847947872285665,11.613659452632765,-0.35184407449538413,30.706725539567266
290589.65888098546,46.31764980015515,39.0761076985147,-0.3143111359921888,-24.84350806005633
290589.65888098546,19.83712482732776,18.12420086548151,-0.15031524940995605,7.994902363685095
290589.65888098546,36.88286124527866,7.283283308013206,0.3711418451910666,36.139696812519645
290589.65888098546,266.0697684565848,7.948123757801019,0.08485718924757651,265.9489763255447
290589.65888098546,34.91600316848079,8.079814603476132,0.46645650473696443,33.94911612458273
290589.65888098546,382.68851642642977,19.474832099884082,-0.13713490307959605,382.19122034321754
290589.65888098546,379.00968505360873,7.645442273609218,0.37037382721411044,-378.930953597329
290589.65888098546,24.391891724342052,23.134255231206257,0.04545849362761707,7.660596869121154
290589.65888098546,1276.2866456327813,16.540371990496563,0.493512410295554,1276.1789414320276
290589.65888098546,170.0165928986773,31.944469427819584,-0.2047789309496507,-166.98522986634325
290589.65888098546,504.427447640928,5.292539991976498,0.12608417894555235,504.3985916423942
290589.65888098546,95.08919591422827,11.345810820606289,-0.05647483346386062,-94.40413529664411
290589.65888098546,23.36724032999691,18.20145865535452,0.10652654580480937,-14.61641781110178
290589.65888098546,261.06743729417707,42.630905587798374,-0.12067036643881231,257.56108855347765
290589.65888098546,43.6947591345256,19.970439435122444,-0.07205616323799643,-38.85002608207688
290589.65888098546,16.797240469327583,16.756738869005698,-0.40111445275196383,0.33806971553706766
290589.65888098546,64.92567901038984,41.00872522533954,0.2141248124333861,-50.323936600725865
290589.65888098546,26.992316873269132,22.995538341382403,-0.2966544436755345,-14.093210308316172
290589.65888098546,1749.6761981382704,56.85310625306775,0.08267729999932509,-1748.7519641159836
290589.65888098546,277.7708055273747,21.005100516603896,0.3149673190704207,-276.9733256927069
290589.65888098546,13.394053596335132,11.724504228846477,0.40356257336172596,6.378871660022703
290589.65888098546,60.63174975231148,24.465630580882454,-0.4827808547258405,55.46462940495881
290589.65888098546,294.67059170494554,49.46635905245155,-0.2539048130737732,290.48698536123607
290589.65888098546,12.262316635790594,12.084592479415223,-0.06816503140445515,-1.7996059256796981
290589.65888098546,10.7236931198234,5.674493429348091,0.07709233184712878,-9.039246058007462
290589.65888098546,15.241959801612515,14.71971034666888,0.20201174451899126,-3.8108858859348382
290589.65888098546,42.14343376962799,27.106240369455264,0.11303960829045412,-32.2525062445028
290589.65888098546,70.44075524344466,31.662152600724887,0.27070704725828426,-62.91463266781625
290589.65888098546,98.85845133147149,26.990245771538472,-0.35856835319049024,-95.09630726616757
290589.65888098546,188.30365113678522,17.542397840565336,-0.31373983304885106,187.48159128522724
290589.65888098546,29.931670735222205,18.372455281717432,0.4084727909272918,-23.60311725129803
290589.65888098546,41.89632673987463,24.904283959002377,-0.4721203686624096,33.67153295021784
290589.65888098546,6.48195500626879,6.131911798114515,0.5074504088390981,-1.753307321152249
290589.65888098546,162.2872762160212,22.15827170559227,-0.28565081186382113,160.7638193572372
290589.65888098546,2199.2865479215793,25.231566280870773,0.3242316678416398,-2199.141536827435
290589.65888098546,232.07035843742233,23.544264915772246,0.3314942060695081,230.87036440504303
290589.65888098546,173.17601728186196,17.236981916927782,-0.1945533599281875,172.312790468583
290589.65888098546,339.4734969526126,31.623439378606804,-0.4177267841055084,-337.99549540417433
290589.65888098546,57.454906523819815,26.598151667605457,0.4650333604931038,50.91467911691046
290589.65888098546,153.1301678695587,31.135675599003672,0.3978691529003641,-149.92723538759196
290589.65888098546,58.80799227040828,21.48735583519121,-0.1365845005232819,-54.73181006360826
290589.65888098546,30.20485289777934,10.483082005961121,-0.3582402695687508,28.30593556515033
290589.65888098546,74.94511723628543,12.628876267411432,-0.10803938651465854,73.86600438192349
290589.65888098546,24.80120810169935,24.56855338006579,-0.5638421633727247,3.1755919457415422
290589.65888098546,56.489653975303945,36.795687732665996,0.10489396939598601,-42.84931226824172
290589.65888098546,53.94987223672205,12.856822577042106,-0.5473592561525361,52.38231972242349
290589.65888098546,143.30317336052653,16.90382695887999,0.1518548806511746,142.298816802927
290589.65888098546,35.456284133061274,11.252286497707374,-0.13043715823990648,-33.60704261493467
290589.65888098546,122.5419486320304,7.815432514432417,0.3817422227193205,122.28744275721576
290589.65888098546,3.9122954141924318,3.6358686720489795,-0.4027942432872524,-0.9167689357185776
290589.65888098546,310.08476187938834,12.263635446218744,-0.3493941334370148,-309.8402119048706
290589.65888098546,29.09687807873222,28.306675848944963,-0.3716171774836451,-6.643682040944061
290589.65888098546,555.1472228009825,27.334820952703318,-0.0556215315188915,554.4728664663845
290589.65888098546,22.265301133338852,15.598563830320337,-0.3824561487723537,-15.849238541972568
290589.65888098546,452.80738085746015,13.03664753333699,0.2268100310490107,-452.6184206717296
290589.65888098546,63.39400669922487,17.834275023728186,0.40846779169347636,-60.823417101466276
290589.65888098546,53.81454948188494,30.548082619420647,-0.05070370534874453,44.29146653054012
290589.65888098546,7.8845603725853355,0.1361544800568748,-0.04288825216281765,-7.814224779255449
290589.65888098546,276.8349377678047,29.675174217522667,0.42507092063878943,-275.23753797920233
290589.65888098546,36.36999223798027,30.240572618961053,-0.3088453991389663,20.176840973351585
290589.65888098546,39.86018680225327,34.92955905670387,0.29305010746434557,19.172655312336822
290589.65888098546,39.50754444243513,23.23415017723522,0.43330027335198074,31.933505575839625
290589.65888098546,140.9667931716331,9.864613574750198,0.179240023602676,140.6172473176928
290589.65888098546,45.10576114230632,25.57286920745353,0.29344727275236965,37.1401148557699
290589.65888098546,41.06294188231883,35.736197843401214,-0.3722731705373611,-20.195716538188947
290589.65888098546,90.54122358786599,20.11141440353013,0.25189844035974357,88.2728549483337
290589.65888098546,90.89665542731676,18.8531597567965,-0.11244818669435322,88.91380030422032
290589.65888098546,6.095981229642305,3.010478097053588,-0.3448509527936339,5.186066011541816
290589.65888098546,47.80101690461136,47.551614543493535,0.11587676943067007,4.762765800736191
290589.65888098546,70.6309102553396,21.166209216610593,0.5426425594764467,67.37461542766347
290589.65888098546,86.1854220683702,15.54533840718618,-0.16439585580163696,-84.76531483447795
290589.65888098546,78.63081786555485,53.647247531006514,-0.022980666917263148,57.477769759432405
290589.65888098546,182.3188528545436,12.114723362374065,0.11221755789703153,181.91289449993906
290589.65888098546,15.440817007939941,12.048588991498296,0.1046996355714348,9.599769020624642
290589.65888098546,77.83992990593342,25.332078076998275,0.1682627451972449,-73.59502965409057
290589.65888098546,65.26833924493226,29.276480708619562,0.0633596718673152,-58.324574278238586
290589.65888098546,14.687931524837925,14.396126051415624,-0.15042488160140258,2.716699030344615
290589.65888098546,75.97243063575459,13.017838554024154,0.25748805611731385,-74.8411383536038
290589.65888098546,82.57405992284231,23.495235826923317,0.5408465300279504,-79.15221376996203
290589.65888098546,59.308978332481274,11.924485700530912,-0.31032500027282245,-58.08770475833222
290589.65888098546,58.03404752953129,17.74218741902456,0.47311164932417754,55.24362241645436
290589.65888098546,40.34648270255606,21.61909517367069,0.09437623015600842,-34.04938586146607
290589.65888098546,14.406058287658063,10.478720421254026,-0.19057552325985164,-9.82907975178397
290589.65888098546,78.09880367931162,9.007277134590204,-0.23079681766442955,77.57032307310381
290589.65888098546,12.78541303710426,10.649048804380486,0.35860887576333283,-6.9894305806626225
290589.65888098546,34.9380882947402,18.523553374697414,-0.3932251787308894,-29.60252611013138
290589.65888098546,187.31926804653688,33.2743299811545,0.045090282846621914,184.3373030798117
290589.65888098546,17.08499690550242,12.945089684917805,0.4322594436399586,11.092840851659501
290589.65888098546,49.04446778626361,6.786305506920885,-0.2980257012567014,-48.560614213191066
290589.65888098546,67.47757926042378,8.25236852902918,-0.012610678789733189,-66.96296104231833
290589.65888098546,70.4403506413606,8.266124207684422,-0.5572366959916126,-69.94369071190054
290589.65888098546,18.652071306422233,8.790071012152874,0.5279787639236042,-16.409504810396168
290589.65888098546,46.98414626989653,13.414844547825957,-0.11279154217923415,-45.01616841328357
290589.65888098546,107.40552161784723,37.69590970246979,0.27442118452972525,-100.56741695397656
290589.65888098546,160.84661730209046,12.99843195756447,-0.005586412268988203,-160.31715824277236
290589.65888098546,187.00606214581097,31.98402567798308,0.04125244608327173,-184.24766992563335
290589.65888098546,51.55827501661655,23.501385327285547,0.19401978910944317,45.87830817265767
290589.65888098546,6.768859822652531,6.4783567164464495,0.010121098074856004,1.6626632830993104
290589.65888098546,39.60457247225382,19.472419488692392,-0.24942075452361923,-34.47029189505089
290589.65888098546,51.27176193299283,5.833878401650655,-0.021011372520285905,50.928137479264564
290589.65888098546,27.084711778575727,12.35205919257853,-0.017545778841225018,24.081613983568452
290589.65888098546,433.5654896496775,27.402652885223084,0.46281045281632216,-432.69715787208236
290589.65888098546,893.966300424979,10.128128699879966,0.14183548770088455,893.9083081509721
290589.65888098546,399.91104906035525,23.541298145121054,0.1896477549173179,399.21615031208574
290589.65888098546,71.69168702481386,17.61221461641931,-0.15203263211822324,69.48669631608787
290589.65888098546,215.78775997035459,42.247548897501,0.24148388502061668,-211.60897864879527
290589.65888098546,413.24808330567316,19.60792752064795,-0.5137565815383243,-412.7810070514497
290589.65888098546,19.545114890703548,19.45775701669843,-0.5100189084434735,-1.4364131576098842
290589.65888098546,98.92131537375889,30.61697577526337,-0.15886001905381977,94.05805859798694
290589.65888098546,109.1785844066189,33.46711679923715,0.10777274128465844,103.91737085440558
290589.65888098546,77.21669951681572,17.89066665408074,0.3961430061983885,75.10726992600524
290589.65888098546,85.16370208739971,36.426086239020634,-0.38951888813903196,-76.97246821851944
290589.65888098546,92.4991532902981,28.390403864353114,-0.022824690005850787,-88.028370432213
290589.65888098546,335.40434817620945,22.49650728113141,-0.03252043552756684,-334.64742501946074
290589.65888098546,206.7025210625657,26.189643286883413,-0.1625722013588038,205.03395953471212
290589.65888098546,38.11937571469106,26.743864650629742,-0.1433644910285699,-27.143105001559576
290589.65888098546,74.67983799954109,22.188415193520598,-0.09200686741686735,-71.29979076862983
290589.65888098546,67.64735238876179,41.23985333170904,0.21365491670528708,53.61258553773927
290589.65888098546,28.158978273949998,24.04347170796447,0.4481785496660265,14.61351619991299
290589.65888098546,127.16701274388379,15.333053731234791,-0.06169654495659897,-126.234935660026
290589.65888098546,24.191022796732614,24.1440629340001,0.015113907093868902,-1.0889327974176546
290589.65888098546,10.070631196195016,9.989161875193863,-0.3808481336081425,-0.636715396764426
290589.65888098546,81.69222043306826,7.661027689675598,-0.13367133049991958,-81.32543181609822
290589.65888098546,45.48387627135625,28.31753880567106,-0.08728930643313004,-35.57820359870268
290589.65888098546,27.865558878365224,27.161841194126502,-0.3508291092600113,6.125101432726433
290589.65888098546,19.716454148459544,19.660193942082863,0.23575136716978964,-1.037281889012608
290589.65888098546,773.7451025262214,18.842123503701877,-0.11629385566278654,-773.5149389216732
290589.65888098546,27.43898263759227,19.030857681647323,-0.07001579276235274,-19.739187317418594
290589.65888098546,26.822618084799615,6.1766346939778,0.15636112582679493,-26.080524727368868
290589.65888098546,450.36744479960583,13.628217146016055,-0.07136962302583401,450.15999170650457
290589.65888098546,150.26271702425208,11.93457965969439,0.37010700685523007,149.78394156496464
290589.65888098546,175.79877224833234,21.05576679354274,0.027283493039402713,-174.53016489548264
290589.65888098546,35.77294239602325,11.302472092899443,0.16247511610335172,-33.92414078751994
290589.65888098546,63.918980344158484,15.260170559932192,-0.326802488378179,62.06103960560671
290589.65888098546,149.0081143679125,20.336810627150594,0.11533634459973725,-147.61007815389954
290589.65888098546,293.9719945913581,33.40131631059235,-0.17649699463311538,-292.0663806664994
290589.65888098546,46.264636545587,11.25097907152655,0.13596211759788404,44.86345698902743
290589.65888098546,18.38333928800681,18.321883384052118,-0.33326773109695895,-1.029989968387659
290589.65888098546,16.471498655076154,6.285565176524086,0.5337587101669005,-15.180027472688062
290589.65888098546,41.11507480437692,16.132334196368053,-0.014404090296772528,37.80361300384907
290589.65888098546,24.961272302193148,7.373347008217147,0.004226044397836628,23.82467303149403
290589.65888098546,22.28081463840473,12.394676680801682,-0.46758094522152716,18.479833686086224
290589.65888098546,72.77468943160255,15.367131750570062,-0.222276680640683,-71.12575813852862
290589.65888098546,12.442171346396036,11.816800646802022,0.308339497841094,-3.74058432832211
290589.65888098546,38.13185659609681,23.673912475567146,0.038111637401562065,-29.87472338188209
290589.65888098546,45.76345586440041,31.690741900422196,-0.41688523168591224,-32.99595689222773
290589.65888098546,29.54088717060072,10.885925794216098,-0.29090986433393584,-27.440703342957804
290589.65888098546,60.314018161644384,34.06168876312074,-0.3604798906136523,-49.76312282938366
290589.65888098546,34.04580583539333,23.083867492148165,0.23033706998611364,-25.002301803970724
290589.65888098546,59.542544967473646,17.470022380969283,0.07461918641400674,56.91242048327827
290589.65888098546,794.4016559209892,27.87528182232348,0.151760796514776,793.9117411627522
290589.65888098546,191.37564417507502,19.15369408982096,0.08960745341466862,190.4118729247711
290589.65888098546,372.2499217787633,22.739665777744793,0.30164296511647687,371.55314165030256
290589.65888098546,74.78631625028082,15.392995303001712,-0.17409989220620692,73.17741917554018
290589.65888098546,12.230777134419267,9.750816553445091,0.21048495092039485,7.306529683422244
290589.65888098546,7.646354419232412,7.479648624725521,-0.1817915838215345,1.185216542075029
290589.65888098546,30.90279195652135,30.665686992455225,-0.4238229985938798,-3.651679083800554
290589.65888098546,132.6233356492948,19.430652637000968,0.10002815779556978,-131.18805237249984
290589.65888098546,21.634050737357562,4.914585615153206,0.4048885976412516,21.03880364559236
290589.65888098546,87.73724854275092,30.49597449583876,0.15814414454404013,82.26002374122892
290589.65888098546,96.08258496764334,16.85810072000103,0.5261685867304975,-94.58491906680177
290589.65888098546,26.977064581136037,26.876074205202684,-0.24828162188131378,-2.072003630271793
290589.65888098546,10.362010601858438,9.951129446855441,-0.4474091395582729,-2.6574998745424074
290589.65888098546,10.766205042358276,5.564578330900309,0.4883557547683864,-9.144634587918759
290589.65888098546,75.33331084089619,14.353425957093746,-0.30493384908520615,73.94531827620594
290589.65888098546,8.248675779388293,7.604212563666635,-0.12563683361857475,-3.019439163566616
290589.65888098546,457.68430811983995,18.570716774581836,0.13661049588846552,457.3061905433423
290589.65888098546,38.007366978378855,14.346314838826846,0.27120268944407117,-35.17933823072938
290589.65888098546,270.5202019904732,19.250498106873515,-0.1719937357576025,-269.83232686213665
290589.65888098546,18.93708315377321,18.1900058613139,-0.5143631803102082,5.136966978035599
290589.65888098546,622.6741115962471,10.607514628699963,0.18523611118473524,-622.582855343156
290589.65888098546,397.50406461868096,28.50099780691925,-0.16739504140552794,-396.47958671961794
290589.65888098546,339.3169001952235,30.061624895376614,-0.02425984236940663,337.98102472221933
290589.65888098546,1180.1257117700106,18.057201588267525,-0.39477851145931336,1179.9870310285107
290589.65888098546,464.82534032249555,26.65710445160322,-0.16057151889752447,464.05914084203084
290589.65888098546,41.37464298072171,27.69898347019801,-0.18232249950518775,30.71661356794489
290589.65888098546,270.9257798038298,17.187091529958202,-0.2888363505396228,270.37791110720036
290589.65888098546,46.70251531089498,3.4836815824041394,0.22931737615436,46.56020303450353
290589.65888098546,92.83012391466553,24.524970264642544,-0.19880397913301057,89.5256075689232
290589.65888098546,123.25623527950944,14.294741173814295,-0.2174358776767327,122.41988737850951
290589.65888098546,43.793220942079856,3.915649002980487,-0.3186117111221633,43.60422656143801
290589.65888098546,33.75493445262725,5.484545529533018,-0.3853687871721965,-33.28788135658253
290589.65888098546,30.82285139208255,17.3176354260081,-0.09081219832522844,-25.476569989135314
290589.65888098546,370.9331938223797,30.06595222875465,-0.15231719808212502,369.7111924048241
290589.65888098546,3.7925212163900364,2.9020917831393787,0.21701071338443026,2.19776725011541
290589.65888098546,2.354245721772505,2.0926246823355763,-0.26574728770297196,0.09469589665127143
290589.65888098546,31.833625050174852,26.216985267101336,0.14893195331508643,18.026185971785413
290589.65888098546,220.803805169204,19.724620910996723,0.09025758585422779,219.9185480007584
290589.65888098546,26.796819568348916,24.711535288791325,-0.40055770563248605,10.30365518883115
290589.65888098546,54.90223065984114,17.323074987194865,-0.1828637479632823,52.08693463182975
290589.65888098546,14.853983716258064,13.677126792567948,0.11505669345070772,5.699121947859339
290589.65888098546,103.07359234453729,29.95803200383639,-0.40243336395429363,98.61762519311114
290589.65888098546,7.4803150958216245,6.802498061455909,-0.2731010420125755,-2.919373897587826
290589.65888098546,712.4801322141032,29.783116222763578,0.20380135558131365,-711.8565722439957
290589.65888098546,428.8884197562015,45.873602038132745,0.036543683719341,-426.42678632521944
290589.65888098546,25.646786635987436,25.423877788333265,-0.030757591617905356,-3.20926019554601
290589.65888098546,235.16778766137077,4.6635904982917,0.08139507042901174,235.11922262147493
290589.65888098546,6.473144682037091,6.380228169780899,-0.23970479860029398,-0.23027431912249274
290589.65888098546,23.31404609605762,21.763736927776787,-0.5562321123914191,-8.275947089075016
290589.65888098546,91.42923663290998,28.67286258610445,-0.08251519975024771,86.8106079215739
290589.65888098546,82.32880787207418,27.504889906640486,0.17162311627738894,-77.59123904438471
290589.65888098546,238.32979517674045,5.316574806580542,0.20634291667662044,-238.2681240073674
290589.65888098546,93.70059691924001,12.455866511950159,-0.09511297111758593,-92.86312723604289
290589.65888098546,60.6564062955043,14.095873649563158,-0.3634305771368412,58.98550739828255
290589.65888098546,38.05578167162113,37.52614214983542,0.04510920419511825,-6.240619618638604
290589.65888098546,139.69468315148478,26.659385429484946,-0.48929327713516796,137.12242141780183
290589.65888098546,174.36918434211395,30.68477808024906,0.3560049349526983,171.64453471305944
290589.65888098546,56.12843581327677,13.102954545987249,0.10438333400925862,54.567565340657296
290589.65888098546,8.833623256861129,8.770134394489807,0.013311385092783352,-0.18346506526208878
290589.65888098546,495.2672146468799,6.730742595642204,-0.21449736580916587,-495.22033600524355
290589.65888098546,495.6661363667771,49.00898683002806,-0.04779339150983161,-493.23620290944854
290589.65888098546,127.541343564521,22.870023216630916,0.33026654637272224,125.46937265483832
290589.65888098546,44.73321141426373,43.09547426431548,0.09288339994740255,11.947713928503275
290589.65888098546,23.22572619139097,21.461158776503886,-0.07477728925776378,-8.818368529414375
290589.65888098546,158.68657712912588,16.24336992706799,0.30200554714670785,157.84931954587685
290589.65888098546,85.17197689091387,10.283228369695511,-0.03920933897055782,84.54250716951321
290589.65888098546,9.620507207430336,9.517529203975135,-0.3714558539717908,-0.8654544497831913
290589.65888098546,40.03729527230952,38.1798182972818,-0.034110970281586696,-12.008393648892039
290589.65888098546,288.2604814072564,25.915771687201495,0.367851240800319,287.09102876708135
290589.65888098546,634.3149855814067,8.54480328131173,-0.284680220492037,-634.2565115324178
290589.65888098546,49.87253355947963,15.067403453302681,-0.17546603480555367,47.53028889628017
290589.65888098546,33.138583099905325,17.044545111309066,-0.13968895505079532,-28.399750930071864
290589.65888098546,24.698098331730648,23.890172317596434,0.2859058716646761,6.171724211947019
290589.65888098546,82.91307074996128,22.515452077930206,0.07251252742820115,79.79061758705893
290589.65888098546,484.95186481709896,11.038716427888389,-0.010870031194205754,-484.8250963029093
290589.65888098546,44.605922184954444,15.198072043141051,0.2982682881425767,-41.92295469365672
290589.65888098546,62.745626405807364,40.87536666085292,0.2211391092420363,47.592912549756264
290589.65888098546,135.3190096353037,12.773834741468423,0.5526698550618601,-134.70959232654806
290589.65888098546,118.03459548175022,38.73721153912479,0.2471737133266574,111.49192469387792
290589.65888098546,731.0988700074232,18.82372874839056,-0.41822886703640727,730.8556398091414
290589.65888098546,127.67144798228517,39.71633459598203,0.4197731006389877,121.3315761900987
290589.65888098546,298.35093230367397,35.54982377710372,-0.27651464332229164,-296.22344365295726
290589.65888098546,200.287845977187,38.348592354622276,-0.4709993275190106,-196.5789944635751
290589.65888098546,5.07747883184134,4.870357210911418,-0.40619258801438596,-0.9008959894250994
290589.65888098546,109.39526403407868,19.029049228624576,0.24050184806825148,107.72222348001294
290589.65888098546,864.0337427030082,37.16918030796557,-0.013126046072829595,863.2332689293119
290589.65888098546,277.8748413038323,12.755469630303987,0.0018108044624906188,-277.5799733679246
290589.65888098546,54.12193748287213,2.3797132606529368,0.4047307174605562,54.058056465431086
290589.65888098546,168.94000867523087,20.645341728861617,-0.39224438784309335,167.67008896789616
290589.65888098546,59.62515293997139,20.605422541529354,0.425084326127829,-55.94024421105161
290589.65888098546,41.58413672625639,13.850474573664108,0.559630285520968,39.19193525933871
290589.65888098546,129.79367050705207,21.536186223028437,-0.06565613265230913,-127.9902397451028
290589.65888098546,14.939482330054162,14.338277428546292,-0.025264152870794504,-4.064171314182036
290589.65888098546,89.02518132340651,35.84168822755782,0.08096769746259062,-81.48475889988457
290589.65888098546,24.979472972602256,16.39876683179121,0.5006448060578607,-18.80744706865017
290589.65888098546,420.8818263180303,22.711549248866447,0.2662477440519681,420.26722756090805
290589.65888098546,28.003684212632468,27.275082763294975,0.2557519606721432,6.25515585315529
290589.65888098546,756.7389040640202,10.721510977707688,-0.25132970023475454,-756.6621909107308
290589.65888098546,48.5952144084403,25.334583348050057,0.3069011373897512,-41.454502237407894
290589.65888098546,45.64530134787509,21.527339178300494,0.1456800892033744,40.236329037683674
290589.65888098546,35.09230442998894,21.57305790535035,0.16299810605159717,-27.657957779150042
290589.65888098546,40.11757097384264,6.1948942123583555,0.22918755958253917,-39.62204504663943
290589.65888098546,444.40479577422883,7.582183777455774,-0.013860625071239752,-444.3388898107596
290589.65888098546,135.55402136928788,5.968030970886161,-0.3002603691685745,135.4182460139807
290589.65888098546,18.960718097343086,17.52482514752665,-0.5401242253467788,-7.142394151342023
290589.65888098546,105.03486938981314,10.915701709023159,-0.15578462557677156,-104.46082121619358
290589.65888098546,66.03677827254867,19.690040350059263,-0.2065313232539355,-63.02405837868352
290589.65888098546,150.2062435045999,19.943467386476197,-0.1911104122064099,-148.87260784729494
290589.65888098546,559.1442211261509,37.762808058399074,-0.23077348422015212,-557.8665550864201
290589.65888098546,898.0326048024496,21.109510356802286,0.5529386432203729,-897.7836923857002
290589.65888098546,130.12829114209296,37.736595326832436,-0.4923307564446976,124.53110187098989
290589.65888098546,35.57308265698608,24.1537434940308,-0.3492151281878,-26.09281755226854
290589.65888098546,32.99977900593555,18.80515229256018,0.5346030643480898,-27.092103191413408
290589.65888098546,259.55689794670116,19.107438697762724,0.18885091322456737,258.8504772789389
290589.65888098546,31.47037843041417,26.020467095660145,-0.2514473805889492,-17.668417556995315
290589.65888098546,154.48866158620885,33.59065554250029,0.17219433696977834,150.78892851303766
290589.65888098546,260.7945078123466,73.6453126738336,-0.24737861995005592,250.17793312790835
290589.65888098546,17.699632634593588,15.813758257031685,-0.41757032649329295,7.870443080701672
290589.65888098546,10.581147683684103,9.006577880175795,-0.045075648746441446,-5.454943029450593
290589.65888098546,51.68935289911963,12.250771549924172,0.2398304463655988,-50.2052435009999
290589.65888098546,371.6567780270214,20.20595348431651,-0.13574119412252209,-371.10561551345575
290589.65888098546,31.657521724686745,14.578740359290753,-0.21458944123502807,-28.08076132752655
290589.65888098546,137.74604149157608,28.33479746978101,-0.03830610633561318,134.7962385441971
290589.65888098546,104.73404483820968,21.60991026093786,0.5612978681104732,-102.4735725222166
290589.65888098546,25.70255921944917,20.813629273011436,0.4294351344674666,15.03815701662335
290589.65888098546,132.3329008905142,24.50611195677651,-0.35974010518340543,130.0393552582975
290589.65888098546,33.95201599709134,14.556334862366056,0.21393312995400085,30.65490062508311
290589.65888098546,32.55512859375182,21.592089976787314,-0.2811230575917901,-24.340402874499194
290589.65888098546,40.06791162530992,19.48821135158558,-0.28863433757233947,34.99257127770336
290589.65888098546,24.510517163258978,14.77144491030024,-0.007329198667150244,-19.531666780682723
290589.65888098546,37.61764362244563,17.985941403090845,0.09005215370408041,-33.022736231813376
290589.65888098546,762.7326910998463,11.879407024011167,0.4204066905128275,762.639349373911
290589.65888098546,38.85368381403825,34.86400032652519,0.43907412598172973,-17.112382509212516
290589.65888098546,33.6152009229703,12.58950471705138,0.3099511712235258,-31.149738817827373
290589.65888098546,178.89359762670082,23.04844933352122,-0.04167690475115778,-177.3995566856244
290589.65888098546,306.17651127972476,15.384259116726094,0.10863491803334298,-305.787973967885
290589.65888098546,245.96636257000392,30.95707131748214,-0.22802518247259576,-244.00814627785587
290589.65888098546,166.37739428729225,35.8164433152695,-0.32367856404833956,-162.47286279356553
290589.65888098546,34.37747809720311,17.043911981217768,-0.14941404241988457,-29.836386078419558
290589.65888098546,6.03158198549316,5.725334726922113,0.14413859677145818,-1.5798549470587677
290589.65888098546,68.17203726614454,17.55187258059296,-0.3320251217052868,-65.86474312806652
290589.65888098546,51.51076751330455,45.85169032433608,0.3506974110291642,-23.447278511869836
290589.65888098546,26.38579850118138,24.624752438807494,0.4093408839380186,-9.411724814800253
290589.65888098546,130.82233044060916,14.455753094424892,0.5005191747306644,-130.01607215654946
290589.65888098546,5.601962148121868,1.7438825649699559,0.41176365631515977,5.204565138061196
290589.65888098546,11.321799354640596,9.739685414108681,0.4555504349981081,-5.659535010803613
290589.65888098546,30.583654159170173,30.557946531781997,0.05870053314503336,-0.6960989960401007
290589.65888098546,66.63941637675983,31.407265363047895,-0.5283398513962215,58.76250971944684
290589.65888098546,20.315985568751188,16.15636586477597,0.33649161663347166,12.268417955936444
290589.65888098546,292.94164403856166,7.960888375918053,-0.3065578669317874,292.8314417623766
290589.65888098546,17.45224355291982,12.464198598333017,0.24766959922764317,12.16878844329883
290589.65888098546,59.051214699923094,23.77297046851102,-0.2716275717116966,54.04381782570881
290589.65888098546,18.171726845261833,17.774924335821034,0.5526885923062309,-3.58809849237465
290589.65888098546,70.19725150913867,16.884972840570285,-0.5441427963363443,-68.12614706780408
290589.65888098546,25.889214195146696,16.85641898527254,-0.2522216286278402,19.620528253887066
290589.65888098546,280.46131105583527,28.62552316686658,0.26335428084717294,-278.99457568415255
290589.65888098546,52.16552457400837,38.65233735575551,-0.18330322118743772,35.016015835954846
290589.65888098546,52.758011088529805,9.929981802838727,-0.02455603865373935,51.80462128507544
290589.65888098546,46.121919816965836,19.794563532604585,-0.08667342707722611,41.645112845924004
290589.65888098546,132.49880083991874,44.8348053293922,-0.18888964063290054,124.6781976524846
290589.65888098546,74.33641564885924,22.29549123752229,0.14806530557752492,-70.90633281124623
290589.65888098546,79.53813113543052,59.28237269627735,0.1542706388607125,53.01704430334644
290589.65888098546,28.095867622219412,24.762635787178752,0.008199074902194499,13.232753801396814
290589.65888098546,70.54450651975189,9.662496163850825,-0.30784043641205633,-69.87120291179332
290589.65888098546,17.85607335012337,6.892949928811225,-0.11880489868476038,-16.438633648704982
290589.65888098546,92.94093508991241,19.577150065849064,-0.40231761642859776,-90.84881367028656
290589.65888098546,77.72361184115739,26.8695374538058,-0.44983773128571924,72.92257287524447
290589.65888098546,97.63729249651378,32.8129767300293,0.4548425397251119,91.95139344515013
290589.65888098546,105.25783983980212,27.205236330713472,-0.012171110147492422,101.67597557865841
290589.65888098546,244.83267270630748,22.11269161021268,-0.3538667349965901,-243.82956643253038
290589.65888098546,100.46631356805821,20.680108117459188,0.13552119901081902,-98.30926262711267
290589.65888098546,26.198888339021618,17.7190142684605,0.41833885572859353,19.265499480491115
290589.65888098546,214.44465294130362,22.326617099371443,0.5162866179383999,213.27606754209143
290589.65888098546,165.26729891308725,23.135093227534373,-0.23099465089139626,163.63651911150112
290589.65888098546,31.750174651188544,30.745025683703634,-0.3052807609215493,7.8511135403068915
290589.65888098546,293.6793191784513,49.51617754026089,0.4317607030814261,289.47265924727964
290589.65888098546,83.2865510799172,66.58000266418901,-0.04179425109640937,50.02666572280441
290589.65888098546,31.270674116128284,6.848521855290973,0.14760115896946388,-30.49339626950347
290589.65888098546,145.04755191980462,30.21363006862833,-0.5516179467373233,-141.8609910712657
290589.65888098546,137.26413679740708,32.885714222188284,0.32162604488407354,-133.26209439145666
290589.65888098546,204.728211122623,21.171322975699418,-0.3843184068165961,203.62756200074315
290589.65888098546,414.6434627335557,35.274760322650316,0.2846440043793293,413.1388721044297
290589.65888098546,849.8203769989091,28.146921062589847,0.4864379193285956,-849.3533443564529
290589.65888098546,173.48536619388818,18.72880269671707,0.1960294159861431,-172.4682057641912
290589.65888098546,40.04775046875607,6.859353149696368,0.41816384665598505,-39.43999144332124
290589.65888098546,1203.2296867566563,28.67021116383748,-0.4436595106188787,-1202.8875331653653
290589.65888098546,428.16082908789355,26.011486908691683,-0.0027416401309227657,-427.36871001582585
290589.65888098546,21.465927549572733,20.279965658325803,0.36272739901323015,-6.949364098321297
290589.65888098546,11.286262598095748,6.210811957239144,0.34992040034567246,-9.35944913201692
290589.65888098546,21.747080559095036,20.839650356067096,0.23634673093973171,-6.124117910345615
290589.65888098546,27.8466030653227,27.583933098864744,-0.4256933133485463,3.6462194605321985
290589.65888098546,32.58439012242529,25.306241227843206,0.563715158548472,-20.492316947213137
290589.65888098546,1.7917703597189898,1.3364588738130545,0.5571934886721724,-0.17334414658474592
290589.65888098546,20.955685112894983,16.240353189853746,0.11809550221875649,-13.202042052211903
290589.65888098546,76.12805755177342,21.629115053979007,0.004587956847818199,72.98341388024346
290589.65888098546,239.87802544710453,1.8316714380770376,0.3160618564698679,239.86856478314115
290589.65888098546,202.43734462605767,34.292021277143014,0.5691849013569475,199.50821536618906
290589.65888098546,86.47088640915575,32.23453239605114,0.1899278507741411,80.23109895222021
290589.65888098546,11.568688909755446,10.558406543559117,0.4822425931411345,4.586747268968192
290589.65888098546,523.246159711009,29.39717478411464,0.203688327696682,522.4186295225052
290589.65888098546,57.91732720709546,21.48654197302679,0.5231305159709202,-53.77162665751128
290589.65888098546,16.50738266027178,9.700100672618904,0.039972712361838636,13.316017628869604
290589.65888098546,465.9544452939489,23.532670644619376,0.4723862316965956,465.3584119223032
290589.65888098546,162.3842285203693,19.71566925528319,0.2985777063361687,-161.17927007962743
290589.65888098546,99.07708537936922,33.89203698502839,-0.3225060321335005,93.09355971393467
290589.65888098546,6.875743137732282,5.980964241245565,0.0264217371101319,-3.227910533026359
290589.65888098546,95.57830484551852,34.15895267907723,-0.09381624802180992,89.2596532684249
290589.65888098546,26.173079356868037,25.461418688604834,-0.21737258687365935,5.96784589440379
290589.65888098546,26.32933936426885,10.954769839475706,0.3731524606085929,-23.916606791944645
290589.65888098546,24.095986900654765,23.638344021606436,0.2979954513530343,-4.54672073258104
290589.65888098546,157.10206682084376,43.20194641964052,0.028722938721290607,-151.0416055065774
290589.65888098546,29.00688410901243,24.318834592944338,0.4087937371151308,15.771578599226745
290589.65888098546,158.23486852798007,50.36352774785695,-0.22952654065239128,-150.0021739925843
290589.65888098546,15.352937243279184,15.19524950331327,-0.41140159111544605,-1.8878605179817962
290589.65888098546,25.705949017188388,18.896224558846257,-0.1745892465820012,-17.395810557928083
290589.65888098546,118.83107961026107,16.401915727871174,0.5707412325452702,117.68769302827671
290589.65888098546,30.289713202278232,11.744212065828185,0.07857482276059112,-27.90072093876343
290589.65888098546,447.34169106639683,20.4703723131277,0.302714000417878,-446.87176793999396
290589.65888098546,30.204678298815036,30.182789592960855,-0.10298018041758038,0.47685708635078344
290589.65888098546,622.4843892424165,28.23293114158847,-0.43251511703858236,-621.8427820393257
290589.65888098546,15.476521710729077,5.881576036798528,0.278977988871839,-14.274738279357376
290589.65888098546,138.64783076953574,24.00139500481901,-0.19947782886470378,-136.55046839023532
290589.65888098546,30.982466914946276,30.873850880142307,-0.2787834056295621,2.3573421167964788
290589.65888098546,3.550219691211232,0.13097164211075948,0.324052970449208,-3.376105749761081
290589.65888098546,141.68524778729125,51.540976906171466,0.5032337044867062,131.97310366138507
290589.65888098546,443.7532999021644,7.808084301006098,-0.2919872931996285,443.6832833577412
290589.65888098546,49.19305520204323,40.77554308638111,-0.33931756857492384,-27.497505773906227
290589.65888098546,24.352703641641234,21.441354585779692,0.4124314539849717,-11.492109578168586
290589.65888098546,74.73798830919372,35.55482831443424,-0.3188888850844951,65.73002041679018
290589.65888098546,271.5299761131097,18.961573086118875,-0.4870282011023236,270.86466301770236
290589.65888098546,566.8632884651526,40.645335511988016,0.4943475413686263,565.4030565227158
290589.65888098546,283.23887187607613,21.18247107828282,-0.06320315787322997,-282.4437530909247
290589.65888098546,27.703050191050163,14.527030963569427,0.06163078625224319,23.56558416407124
290589.65888098546,28.300418083017462,20.28264759770996,0.4670706056372258,-19.70344917080362
290589.65888098546,52.927877150686804,9.32771225139405,-0.46859497151382795,-52.08695207691135
290589.65888098546,29.650237891430468,9.118652598235329,0.08588159504439916,-28.193892959986
290589.65888098546,536.8830710284169,35.44684387682271,-0.04761338418180547,-535.7106188448371
290589.65888098546,27.804324368770548,20.41746221297982,-0.01295641417220403,18.844726492923172
290589.65888098546,87.13676373972602,21.151253202659742,-0.13528605278024755,-84.52418573846266
290589.65888098546,177.90483893123894,31.750210113819783,-0.1333955447583161,175.04557770073316
290589.65888098546,6.1631661797120145,3.655542747831902,0.009534899026399866,4.851569616074794
290589.65888098546,23.09339841550256,22.950861649204747,0.17562499871492043,-2.334170060733665
290589.65888098546,63.45370831571232,30.693450076797504,-0.04579547075061017,-55.52656407747463
290589.65888098546,29.30336654710493,29.124839633523568,0.4735586416060772,-3.020421097278243
290589.65888098546,194.27644593421275,12.543344451324092,0.26789778737730763,-193.868115943949
290589.65888098546,15.05242701423234,14.955462636145539,-0.13040931245081103,1.3449475250999254
290589.65888098546,17.620615531555682,16.700299361336384,-0.1792904747337726,-5.519976626283727
290589.65888098546,297.6737006871241,25.04067874711435,-0.33620226235078243,-296.6165869447738
290589.65888098546,1244.884105014073,25.544405846259373,-0.3114578720174992,-1244.6215237712713
290589.65888098546,83.02997965125606,15.170868363223644,0.31426658629788634,-81.62499436191632
290589.65888098546,905.1289744071112,20.153474083490963,-0.29887983489727976,904.9039311764293
290589.65888098546,38.300693458745684,24.713837064238795,0.3620904768204412,29.239604332925868
290589.65888098546,12.815844083937796,10.216472374166326,-0.3083733881309417,7.6609824266599285
290589.65888098546,1089.2762200719521,21.26282212408229,0.24404108938227193,1089.0681487618592
290589.65888098546,155.59176924790142,31.638562968035455,0.08138248198626426,152.33748574129046
290589.65888098546,21.37144535489801,16.061722547015695,0.05016983514561493,-14.059638062344309
290589.65888098546,96.21463765189974,62.08604679286673,0.38919880043992083,-73.49383654763479
290589.65888098546,305.24151369336215,17.410647489929737,0.27717291831799296,-304.7426625942717
290589.65888098546,32.281717995714445,29.56516579231895,-0.5214952618244766,12.909474241649884
290589.65888098546,41.318882211239945,7.488917530388425,0.331809912247811,-40.619850291057155
290589.65888098546,38.64655040520876,37.54335024389959,-0.2231960068833268,-9.10599189024115
290589.65888098546,88.252379095999,16.922838184141515,-0.07865214614592345,-86.60837125713422
290589.65888098546,38.04911600032627,38.03404958258982,-0.04832528758322002,0.24527433286701736
290589.65888098546,74.41671473215077,12.378174072507035,0.002882176238447754,73.37264084061908
290589.65888098546,131.79288882890384,18.529336677757115,0.4114314344032651,130.47902569532513
290589.65888098546,223.6201798656376,19.79180300394288,0.3063466588670309,-222.73996435932693
290589.65888098546,15.48038304713539,10.260996213095137,-0.47030652068690404,-11.534696435272297
290589.65888098546,65.78595171411718,9.029652318050122,0.07497018084970304,65.15494912511001
290589.65888098546,23.654884363493498,21.32270328101918,-0.5490548180064359,-10.174016508886108
290589.65888098546,200.80429393611473,23.60738693954899,0.0034360613255604486,199.40905678363222
290589.65888098546,264.82860455378056,8.733770453402206,-0.18747833789824989,264.68243630720787
290589.65888098546,178.11675216044785,32.44321961026212,-0.19177111452310674,-175.13393251858062
290589.65888098546,105.0721829518502,45.1076866270232,0.12935746049795033,-94.89130464984221
290589.65888098546,483.9317313918158,12.138428802721036,0.23871028045509649,-483.77829468214077
290589.65888098546,126.73963820946923,10.65389099625644,0.1501476743632235,126.2866744746227
290589.65888098546,31.68921529679733,18.14013710431954,0.35328740763184774,-25.960222919830095
290589.65888098546,107.99928053245647,8.011556651629238,-0.10520803687911566,-107.69663263487554
290589.65888098546,229.8615049748588,26.7788712834219,0.027041061295396213,-228.29393111721208
290589.65888098546,61.980935827186144,28.210382480985402,0.05606769156974715,-55.179015728632216
290589.65888098546,20.2642484413817,19.078408737829236,-0.141105295339791,6.749101295608823
290589.65888098546,60.690814164126095,19.95222020388791,-0.03797616107373115,57.30792776508015
290589.65888098546,24.308548113922164,14.790876179580454,-0.2223072854712007,-19.26141912721944
290589.65888098546,22.915026962686298,21.766441161376456,0.3850933687604697,7.077315666459518
290589.65888098546,6.483275022676379,6.2533937576943535,-0.31603020704154033,-1.3206969809634503
290589.65888098546,4.0222738663679305,3.870773935420028,-0.07399817048521985,0.32636566011793144
290589.65888098546,280.6377157426751,19.53553337316881,0.11230644589260949,-279.95498569311263
290589.65888098546,14.492478534460133,13.39542077093133,-0.02262829928943514,5.432340055442088
290589.65888098546,14.419954409631517,5.4269089710887926,0.09437518821772467,-13.318822455292969
290589.65888098546,61.93673016404098,17.713601488058735,0.06852984051243019,-59.340528843892415
290589.65888098546,703.8087963759294,27.956452097050025,0.570552643069603,-703.2523368649677
290589.65888098546,328.3561221762778,36.197125099238185,-0.14758519457253552,-326.3531913707594
290589.65888098546,276.37421254029493,33.412256902437605,0.18485257092584503,-274.3450536633694
290589.65888098546,184.1237772389099,19.458187166250386,-0.17258057546451366,-183.08967941134273
290589.65888098546,59.54198553837426,35.9396063209,0.026342887636658163,-47.46059670378541
290589.65888098546,14.099135970860713,4.749561494875349,0.012708520565295204,-13.234172936044049
290589.65888098546,25.984348889909867,13.969326103759235,0.16387683958668045,-21.884552860345085
290589.65888098546,36.012234003835445,13.026405926876656,0.3594916299247957,33.55563598592118
290589.65888098546,33.57800779825472,15.564499977411508,0.04832674185751533,29.73453895313048
290589.65888098546,10.593832836547584,10.284147441299485,0.4875482344895468,-2.26806004545145
290589.65888098546,188.94762897627803,34.53964120755738,-0.19279837180032716,185.76086429567087
290589.65888098546,690.2946180464639,23.858415546669644,-0.5377211611970422,-689.8811946716227
290589.65888098546,15.585682275549788,13.456756213024631,-0.28179206310136373,-7.7888376236241355
290589.65888098546,383.6608297544916,47.23195602198947,-0.4025479198630233,-380.7407632070546
290589.65888098546,61.53949501443056,23.949085649384788,0.3532737713861547,-56.67752760052616
290589.65888098546,43.8919287777477,5.108043807435013,-0.2757493468314114,43.58037926253424
290589.65888098546,53.0158928021559,26.059906274844924,0.5182008309454151,46.15423963766699
290589.65888098546,60.357125004228074,34.19672599743092,0.38623589494112465,49.72256515650118
290589.65888098546,77.10276139536347,24.702199354091988,0.5363152663497363,73.0292114285272
290589.65888098546,35.29213659546548,7.462901864515974,0.15045043169361771,-34.478015603825
290589.65888098546,80.52768471666542,43.06627443187595,0.12556342033257117,68.03605250371962
290589.65888098546,2997.440907907998,38.9307735031699,-0.40680318085330835,2997.1878723196546
290589.65888098546,27.807641649814812,21.739397563656595,-0.36423173727395675,-17.304538624642937
290589.65888098546,37.90187608710472,20.08231215278381,0.39285061103052527,-32.12498734621081
290589.65888098546,16.133954754064032,11.189545397233347,-0.3809215254207562,-11.570205818277843
290589.65888098546,25.16871408324859,18.530347210043242,0.5367125006558779,-16.9917195906594
290589.65888098546,256.3972921555838,29.528407246832437,-0.20564652052907453,-254.6890623756073
290589.65888098546,30.243128661434042,18.41229559708603,0.5272846837620724,23.96398061708968
290589.65888098546,38.629353357567,17.27167736196288,-0.11947804958155446,-34.53719764254331
290589.65888098546,121.04761172968945,101.75025295976872,0.3851221071409934,65.56049270043444
290589.65888098546,113.72209889661428,21.829843212950788,-0.44200128263597593,-111.60149887744275
290589.65888098546,85.84159746058407,15.274707305615202,-0.34201411245612984,84.46456293461783
290589.65888098546,1046.0649263682374,30.83279464269047,0.2748021437853656,-1045.6098744896042
290589.65888098546,398.5098148772629,10.394053500648425,-0.2082342484311408,398.3728266811257
290589.65888098546,30.125737188217972,9.199648987431669,0.27136557419884605,-28.666514515077807
290589.65888098546,38.82475238014182,24.69663375289156,0.20643837989574812,-29.938457808086422
290589.65888098546,42.652238290941554,10.623686760235248,0.3403801962099733,41.29347462064787
290589.65888098546,685.4563911723877,35.25315170087279,0.23750281308129775,684.5484199680243
290589.65888098546,20.365176304235984,18.112655575986558,0.41836396942003884,-9.241930510114706
290589.65888098546,36.21875446175804,31.21932862520537,0.3412346441215994,18.32897836614472
290589.65888098546,373.1460524518549,71.34680318003309,-0.04958586322926191,366.2601860313383
290589.65888098546,144.46697264394393,37.51390385360299,0.11114260237169679,139.5074085630115
290589.65888098546,736.2290543885044,11.408866894420296,-0.351640356224045,736.1398310274435
290589.65888098546,64.0488398688476,15.94255271251922,-0.06653489037174416,62.0241942207925
290589.65888098546,22.80546920042096,4.3021080250733,-0.27238273834663473,22.370142907728585
290589.65888098546,33.0654497017893,23.90817969116167,0.07449276105924017,-22.81739583610785
290589.65888098546,78.40432597988462,36.05062410351484,0.2013114344293331,-69.61656772557704
290589.65888098546,196.13363406004436,55.58594193628714,0.4969864546736312,188.08847563632224
290589.65888098546,39.03182725179276,24.881435101236587,-0.3704988482983303,-30.05289754077888
290589.65888098546,38.40472847948315,17.727731050007755,-0.4032543570257634,34.05002645228569
290589.65888098546,14.678803062822247,14.628606620092473,0.2955024420647717,0.54772264408211
290589.65888098546,215.85636227150428,61.29718547620123,0.15603281635220245,-206.9674274701691
290589.65888098546,33.98635833120789,12.816209341068967,0.4083553725817557,-31.457380226414973
290589.65888098546,44.0244800369301,39.44102429104282,0.023591751027373414,19.53141272159061
290589.65888098546,17.722747040869773,14.660370880539519,0.06312465825938553,-9.903610335307363
290589.65888098546,23.503780347974917,14.350025113980431,0.5325223414767192,-18.577865429220086
290589.65888098546,87.77717315865011,26.393960672644802,0.4930758620613079,-83.70701307539997
290589.65888098546,254.9434218739315,25.36188771894888,0.06189444789650169,-253.67663544614146
290589.65888098546,23.687112825425224,23.34023331633748,-0.22052581219680586,-3.896201379024057
290589.65888098546,48.046361131001646,28.02506895753713,-0.11803753616926384,39.01218513583121
290589.65888098546,142.81899262738256,41.093453169685176,-0.01494991036092091,136.77539520055436
290589.65888098546,582.5241721232252,19.849462830479737,0.06740351829187792,-582.1849547901702
290589.65888098546,34.023639334932305,32.608741383776554,-0.18244573246565934,9.651990809705355
290589.65888098546,37.56891207662489,17.962931194508105,0.328795333916367,32.97824048107076
290589.65888098546,285.8209314807256,30.498917086873764,-0.2664396007467382,-284.18702667970825
290589.65888098546,60.58454120564752,7.566018014985266,-0.46149354497579953,-60.09946108144453
290589.65888098546,183.31710840589307,17.07098405336987,-0.376320698250754,-182.5171726565914
290589.65888098546,45.203436380905075,17.061114280158524,0.34393394916617387,-41.845751799638094
290589.65888098546,65.30183944980004,17.0650833331918,-0.2911186685067565,63.02336559051674
290589.65888098546,40.88636408447914,26.827232421577836,0.33971691636957596,30.834966436504523
290589.65888098546,61.13583462345393,17.988478085536684,0.026699018319532825,-58.42020551582557
290589.65888098546,34.95214013185891,26.64257849438721,-0.03090435542235351,-22.599565260525132
290589.65888098546,12.808193809817016,12.493872790661015,0.43301927370309107,-2.5848906641513736
290589.65888098546,1269.8395705126447,28.067614798989858,-0.07098417377676786,-1269.5289106572395
290589.65888098546,247.3263312411689,8.418869763867551,-0.0012895008757308072,247.1808102372209
290589.65888098546,116.82686098268289,25.757949786043284,0.4114008357337688,113.94643659770826
290589.65888098546,30.22612856357791,19.147956548104453,0.31462298094047175,23.362187706422283
290589.65888098546,124.12328197803085,28.24695675317965,-0.26991742863255286,120.86166431850867
290589.65888098546,596.5577869713553,13.85305970200616,0.11514295347379983,596.3960000446266
290589.65888098546,110.05019313040219,13.810384330641131,0.17303581738689985,109.17510955048823
290589.65888098546,57.75846152723744,8.407995351797283,0.4428546444245769,-57.13200124271717
290589.65888098546,167.8655503680434,27.970172442414597,0.5581710302742768,-165.5147035555605
290589.65888098546,1201.9155177860416,21.66602887522393,0.3333359412423924,1201.719726129555
290589.65888098546,46.22994233057678,11.937506904226835,-0.4186974444273293,44.64800536783723
290589.65888098546,10.037199303548679,5.516950399017006,-0.28404783899527264,8.315295488165544
290589.65888098546,101.35695336859226,30.212674785354615,0.10604664012348203,-96.74363662104035
290589.65888098546,292.32714234104066,28.227644111141107,0.10897086879941405,-290.9592111905721
290589.65888098546,187.03709353640264,26.2282524919149,-0.08170361822483922,-185.18602174127653
290589.65888098546,1122.1697510159713,31.3405650644576,0.12382532552077853,-1121.7315275671147
290589.65888098546,33.6967283256664,14.423433180120867,0.26151330009324975,30.43487933313735
290589.65888098546,15.984924958820589,9.604576845141414,-0.08244800140212553,12.734964702281808
290589.65888098546,179.359672641248,17.865069139951125,-0.27999256165530306,-178.46447622101783
290589.65888098546,5.1793347407722665,2.7183080265318855,-0.48059949316580614,4.2569388101582595
290589.65888098546,149.42621840236058,19.119053696370216,-0.2152874523785729,148.19421843369776
290589.65888098546,58.923971334629265,18.892181112406217,0.359783275737261,55.802389202713826
290589.65888098546,300.8007726815606,13.636657131499147,-0.45725407763685466,300.48935678470656
290589.65888098546,438.7347969123402,22.779415135531814,-0.10185725824017966,438.141787652092
290589.65888098546,98.65607200205324,24.684985173846584,0.1845620082588857,-95.51206301186669
290589.65888098546,15.620901866694384,6.811516463973691,-0.13070952654880166,14.01837821168986
290589.65888098546,19.569060916774383,17.684775478621603,0.10586087789889725,8.312752190827108
290589.65888098546,2700.5463724788256,25.509447921799623,0.09012734881283975,-2700.425686081068
290589.65888098546,366.4667332034586,14.809885663054109,-0.0641831959707255,-366.16587212089553
290589.65888098546,119.06704090213717,38.44454430953231,-0.09275110213238648,112.68489177051671
290589.65888098546,430.53415977356065,22.207591654201295,0.07592573200930543,429.95976094770276
290589.65888098546,32.531619084743376,26.100132713441354,0.04125579865994098,19.390817534365716
290589.65888098546,302.7621603532885,19.10243720296418,0.2931661510270762,-302.15700038619246
290589.65888098546,592.1672778786256,29.770517110232063,0.12532605680160502,591.417535915724
290589.65888098546,38.47387708108782,34.24330927929131,0.3812055941205868,-17.50445267995741
290589.65888098546,24.24942668242104,9.196726272529004,0.13172680971675121,-22.413249706775904
290589.65888098546,238.49643967805832,34.99619690491699,0.05756909517075007,-235.9125490964346
290589.65888098546,7.270364037408583,6.640897280151004,-0.015392235034836242,2.769951932151108
290589.65888098546,171.17671143923445,25.5044098075146,-0.2938039561564069,169.26258149051446
290589.65888098546,32.97098077789389,26.720509441794206,0.2795788326363243,-19.285693619363975
290589.65888098546,1061.727160046753,14.872073630182406,0.3543366341991225,1061.6224255574614
290589.65888098546,1072.03096121595,32.1565624473645,0.39207021636933126,-1071.5479922860125
290589.65888098546,79.80839936044734,14.461447904657598,-0.5000202846726854,-78.47874429913391
290589.65888098546,27.69576861870839,12.815418344188638,-0.03604601236658954,-24.5302985470185
290589.65888098546,101.63190530010499,23.89387657178084,0.23325306605150248,-98.77747022669485
290589.65888098546,28.711228659755506,28.56267141736432,0.004273248884621135,2.724817144725334
290589.65888098546,39.09224457115165,19.051006041220003,-0.08948449969298695,34.11994931163951
290589.65888098546,239.99574476602353,20.721807851743417,-0.184087876650223,-239.0971486464943
290589.65888098546,141.388912517344,26.820229438600542,-0.4194837878131621,-138.8172903608414
290589.65888098546,253.88503576792658,15.28789225952204,0.11755005805315097,-253.42216578903052
290589.65888098546,35.624957961543515,34.3367439128735,-0.05789909461898955,-9.436020824199645
290589.65888098546,388.82138298893165,58.73460260484355,-0.09416719467607822,-384.3581944656475
290589.65888098546,93.44676778745344,25.12569209682777,0.22389876787289145,-89.99924483014175
290589.65888098546,72.46165243376893,9.339145390358407,0.21186779471619369,-71.84944497297137
290589.65888098546,17.8743441085202,8.82599267458573,-0.11539999429442124,-15.507962713898518
290589.65888098546,14.960643486651895,14.805655745443104,-0.1853997596010763,-1.8695540879223786
290589.65888098546,85.29060431101618,18.136315894879893,-0.39384906415574295,-83.33260050238754
290589.65888098546,46.77496342248871,46.60925324089027,-0.48343148201335734,3.76260595602497
290589.65888098546,523.611736004752,11.064874291956734,0.48286626832014234,523.49355456687
290589.65888098546,47.17273691881584,20.88692915010265,0.34830503166407006,42.28236247860001
290589.65888098546,57.53447389111321,10.275030706155764,0.035006235123471015,-56.599950517245546
290589.65888098546,26.74257040689959,14.180333284198317,0.17148495923336327,22.648841182325324
290589.65888098546,673.6320970882789,22.168146006337867,0.42584432430528774,673.2662997513554
290589.65888098546,29.40907781030503,29.034815666503505,-0.3026596720410821,4.5494975617158016
290589.65888098546,855.9909103544469,23.631511362913784,0.04508684302152472,-855.66401375855
290589.65888098546,34.06206863003617,20.02302088416647,0.3655433996875283,-27.533356608464448
290589.65888098546,47.68344070749322,17.122182601497855,-0.0006863120633916561,-44.491095449217255
290589.65888098546,783.4834973451523,37.62234770817956,0.13383340264424617,-782.5789722755222
290589.65888098546,121.6342887060958,19.742441582846908,-0.3498525519792524,120.01637382729913
290589.65888098546,60.46278272743752,16.202018091448277,-0.06120918418439186,-58.24221108802336
290589.65888098546,833.7533170060508,11.225136902313292,-0.002589647075392347,-833.6770994260831
290589.65888098546,318.0777192432114,35.299701008720476,0.3202589856421166,316.11102514135234
290589.65888098546,32.725095434523176,32.09896304488519,0.1631371106678251,6.283153905584932
