2.8416731008322807e6,387.6934925784827,29.20655441698879,0.4755961483664718,386.59149651161897
2.8416731008322807e6,26.272931405526855,8.133811671609958,0.05933793391205468,24.9818836627645
2.8416731008322807e6,329.61325217323645,25.348195959713067,-0.628849232722424,328.63651580195415
2.8416731008322807e6,41.73366602275506,12.829647595099846,-0.1715693788820023,-39.712209536018506
2.8416731008322807e6,40.826795282356045,2.157179145074913,-0.044286279210133526,40.76961895687694
2.8416731008322807e6,209.85473884183946,22.534869949944316,-0.625942093747126,-208.6403346604175
2.8416731008322807e6,20.403614870309248,9.431111420937402,0.6659200454650261,-18.080602524108997
2.8416731008322807e6,100.40996714265421,19.067831267244536,0.5455226737741934,98.58129496697225
2.8416731008322807e6,444.07307122019324,7.37538058830501,-0.27017153033068303,444.01172659227905
2.8416731008322807e6,64.89403707694859,17.079669391067476,-0.07065597471875641,62.6059577785489
2.8416731008322807e6,3.7535505971084007,1.8590459883796226,0.09424692489294383,-3.2579453057549452
2.8416731008322807e6,29.059413928897726,13.55318799926772,-0.05211483730610841,25.70501735053399
2.8416731008322807e6,0.9507728098908164,0.6962691051518564,-0.13104710433367514,0.6261029673180523
2.8416731008322807e6,25.06364396915718,18.877467446282107,-0.23347584220697762,-16.48523463158271
2.8416731008322807e6,1.872915788862791,0.40942984745945843,-0.1128396925832893,1.8213862731333421
2.8416731008322807e6,2.3856947177595096,1.5076679167578506,0.14932384251352113,1.8401573653309296
2.8416731008322807e6,273.5094376586366,21.31803618251312,0.2652513493455185,272.6772331225809
2.8416731008322807e6,51.325432086108236,20.740740399945274,-0.6206722172493544,-46.943864694830154
2.8416731008322807e6,15.237435718580667,7.867746309954461,-0.2506208743551512,-13.046271668849059
2.8416731008322807e6,6.260158100975834,5.385254949068292,0.24097322951609718,-3.181279693048923
2.8416731008322807e6,50.74845589262848,23.070651133368838,0.0002149485631519951,-45.20111538139565
2.8416731008322807e6,22.074171489545634,13.132212231693943,-0.5884736900338364,-17.732956537694307
2.8416731008322807e6,126.49735025288896,21.85062052960796,-0.041374023534835776,-124.59581971985784
2.8416731008322807e6,4.149338462271448,2.799648169859662,-0.03318722396467671,3.0606990063794477
2.8416731008322807e6,11.73964619393847,9.874393330127667,0.7856300338208431,-6.299875758357694
2.8416731008322807e6,16.322873473369874,10.933187664206626,-0.5245228027791226,-12.108529297823377
2.8416731008322807e6,117.51534214078282,25.51257734286036,0.2831796886851977,114.71213468963835
2.8416731008322807e6,7.264066157077942,6.418892633909143,0.2978485964598454,-3.3861129193130823
2.8416731008322807e6,5.72759278964738,4.592304763265981,0.0321494248471235,3.4212603729893525
2.8416731008322807e6,33.25853692357937,2.5665995276550024,-0.37656168973957005,-33.1570663125608
2.8416731008322807e6,5.018253128035533,4.967021154345507,-0.6262531394903664,0.33071485391664746
2.8416731008322807e6,93.92668642127575,5.743996857616473,-0.7345237034483685,-93.74795676231793
2.8416731008322807e6,79.39230892904108,17.274355855503615,-0.7766165270088596,77.4862711299989
2.8416731008322807e6,9.92573585275487,9.492978334179732,0.024272478336011382,2.8970684169092475
2.8416731008322807e6,77.26736993533086,3.9697283304269817,0.3909361695091595,77.16427206043767
2.8416731008322807e6,276.4403935137045,36.163137538504685,-0.026352476820365543,-274.06478787857804
2.8416731008322807e6,10.089720472968992,2.338345590177484,-0.285853230006058,9.810345919203975
2.8416731008322807e6,17.52735419828788,16.107560699749897,-0.5560047698628725,6.887342897809148
2.8416731008322807e6,56.57184056773881,56.33984145528327,0.4620289987416761,5.096267184864341
2.8416731008322807e6,4.20247800450382,3.4524981535619252,0.5040430413342404,2.3403030766275563
2.8416731008322807e6,32.53713817184526,16.93446814703681,-0.2797890130608271,-27.781304272818367
2.8416731008322807e6,81.0564027219578,34.41168365786764,0.13929444969673263,-73.38901176001306
2.8416731008322807e6,44.95468071068733,6.690490667325842,0.4790506427330115,44.45133477087011
2.8416731008322807e6,90.97097187138904,9.132618419745107,-0.6442279055014245,90.50904913007408
2.8416731008322807e6,80.39933665617521,7.6018177725616365,0.48374180715015785,-80.03762674623592
2.8416731008322807e6,130.09481772863228,18.086181678174796,-0.6196192151932133,-128.82995654807263
2.8416731008322807e6,16.586386765163205,11.911201321510166,0.48248386770097307,-11.532073461413772
2.8416731008322807e6,28.83568382704287,8.11364422145241,-0.7649706065459512,-27.65990345594131
2.8416731008322807e6,522.3785508738521,9.201615741778557,0.32487091838241716,-522.2973914731843
2.8416731008322807e6,10.513274594722688,10.488369570717953,0.6325731463320841,0.33600248007821587
2.8416731008322807e6,5.002850797416578,1.3694266917569415,0.5767308535626063,4.776041055064777
2.8416731008322807e6,9.653895075417125,8.53878970027236,-0.3443192716054979,-4.489788950595196
2.8416731008322807e6,23.57969231405707,13.40328786109878,0.003938271126560285,-19.3995811456883
2.8416731008322807e6,195.5255347664661,20.982313909464406,-0.10523591099582973,194.3963893031974
2.8416731008322807e6,396.15948863928253,29.19017638180808,0.40104943428125917,395.0824005205598
2.8416731008322807e6,30.505415825696993,5.841428191014294,0.1756149608437309,-29.940228301959152
2.8416731008322807e6,27.87613659311326,23.11303229029879,-0.4932541771466876,-15.576053095127822
2.8416731008322807e6,11.98634440007379,7.372516868766272,-0.6925290605068961,-9.424905866760188
2.8416731008322807e6,19.644678463036335,3.5026351495947385,-0.3610248516920552,19.32626709898649
2.8416731008322807e6,792.438337256725,10.92931711190178,0.4344308835841356,792.3628396457509
2.8416731008322807e6,72.48150220603567,8.16317696060554,0.7264791695498266,72.01661566589755
2.8416731008322807e6,3.778527186667441,3.3474883875206114,0.016277671826461844,-1.749664034379034
2.8416731008322807e6,6.50851860956594,6.269766664141292,0.10398105789674383,-1.74069767848626
2.8416731008322807e6,82.8485970783201,15.155409605559749,-0.27108713889883557,81.4501080987414
2.8416731008322807e6,17.096517227955793,16.411433028333487,0.021490011072624205,-4.7901258294264135
2.8416731008322807e6,508.06343358421407,23.584279368221473,-0.7106775414528471,-507.5152404110589
2.8416731008322807e6,104.21618421168344,17.118165535197978,-0.16011150595174975,-102.80051471008672
2.8416731008322807e6,41.49620286203283,3.7711539461239285,-0.705269684702365,-41.3183475535198
2.8416731008322807e6,125.2552706493059,2.954193679121846,-0.02005279485313226,-125.22038637147915
2.8416731008322807e6,8.998641510008648,6.7778917655477215,-0.09207646178372819,-5.917537846550415
2.8416731008322807e6,30.228464680165295,4.5542827272089585,0.029413430792952923,29.88323477488231
2.8416731008322807e6,27.8483415727209,19.545756976649677,0.7055466196757766,-19.823867345403364
2.8416731008322807e6,55.43945184646122,8.581259823225185,0.09747479812539654,54.77111738449494
2.8416731008322807e6,11.371376577015472,11.022175574434982,-0.6553126418815156,2.7166921437688143
2.8416731008322807e6,7.624537232788596,1.3099464010427901,-0.27431334176101624,-7.505488700351659
2.8416731008322807e6,17.681823716862908,4.595928752450316,-0.17732506464339837,17.072869843059927
2.8416731008322807e6,43.86125026592702,6.361161861602613,-0.6375658885642533,43.392722942891176
2.8416731008322807e6,46.86078348671708,20.248830956587078,-0.6867667802617264,-42.254422552794
2.8416731008322807e6,75.84529182437618,38.42229467793045,-0.04342163309312583,-65.39284118440521
2.8416731008322807e6,69.58714867024918,27.304685507533698,-0.07299935775506312,-64.00632844089566
2.8416731008322807e6,19.609827808279665,19.59869231623036,0.5126948326638113,-0.40466056475934764
2.8416731008322807e6,9.694524097375814,6.020419527456648,0.18561459204383315,7.595649637209407
2.8416731008322807e6,1249.1194794522844,31.631068588787212,0.5644563634441179,-1248.718791736591
2.8416731008322807e6,251.05820435993087,20.11835292233885,0.16256557182307826,250.25074909889858
2.8416731008322807e6,23.746490623093987,18.04703961628964,0.8163956467987247,15.41180314397543
2.8416731008322807e6,3.541157761192248,3.4964441220459825,0.34171676651228383,-0.433481767259713
2.8416731008322807e6,9.785561605583892,9.072970904772083,0.20066040853644276,-3.6589821396507034
2.8416731008322807e6,162.3881245403799,15.781492626409534,0.4982335851758196,-161.61865376719084
2.8416731008322807e6,978.1170072053399,20.862704506567898,-0.4582598866107291,-977.89437432827
2.8416731008322807e6,269.7014994056517,2.744831794130711,0.2086527130421278,-269.6874323065947
2.8416731008322807e6,183.40598509578842,14.960685834517147,0.7125787345952385,-182.7933682600779
2.8416731008322807e6,9.557975917578917,9.51847226259083,0.07347357903073895,0.8591804586301792
2.8416731008322807e6,0.505661329215144,0.14412638078056217,-0.08315929313889782,-0.46691058907607186
2.8416731008322807e6,10.56653471930781,4.183791977679958,-0.28097716215402035,9.698380921379924
2.8416731008322807e6,17.404271214976205,3.587821349222259,0.02096611090469885,17.03014253941252
2.8416731008322807e6,1.173441458801312,0.9264124977821555,0.21299102296363065,0.6807051970740949
2.8416731008322807e6,380.9451562386432,15.757248666847858,-0.4553510352729316,-380.6188432429089
2.8416731008322807e6,2.5068743326439016,1.3172484383741176,0.08704125756101258,2.1287788261705227
2.8416731008322807e6,24.19198342218572,16.228153913377742,-0.06309567361873387,17.941156634927477
2.8416731008322807e6,2.9746068470210436,2.7428697099979327,0.2569053086216666,-1.1175649022416316
2.8416731008322807e6,23.254970981924334,23.242136928029723,-0.6396193073887049,0.42146593038556457
2.8416731008322807e6,0.7457801959444978,0.4127410530925619,0.03127100679026787,-0.6122540713538633
2.8416731008322807e6,21.330911870660973,8.352952494121546,0.4048606152170017,19.622998592139275
2.8416731008322807e6,20.027066061946748,16.48254067387959,-0.019777116135019982,-11.375360954675754
2.8416731008322807e6,27.543528230468397,11.641422928761566,0.794947591858002,24.94957470384041
2.8416731008322807e6,136.89305189035875,14.078036942780631,-0.49667301659963425,136.16629482955298
2.8416731008322807e6,112.74303806300715,20.07919881842804,-0.20869493355364355,110.94036620144819
2.8416731008322807e6,60.5998900558037,6.428120102470285,-0.33308627443511385,-60.25699129775314
2.8416731008322807e6,20.968278124706924,20.18997188362044,-0.4469126589761695,5.641275735941817
2.8416731008322807e6,233.62260548800435,17.056107080124853,-0.5659517728705853,-232.9984564430971
2.8416731008322807e6,17.451769296918027,11.97621474027083,0.6237658214276609,-12.678148456607893
2.8416731008322807e6,372.32934254743935,31.755470199412173,-0.34862697445572066,370.9725028805442
2.8416731008322807e6,26.373499755581953,18.869866675595006,0.6453887626150621,-18.413665967102823
2.8416731008322807e6,14.423184352909008,3.0280818704603605,-0.28268239682438023,-14.098548071568011
2.8416731008322807e6,6.446978046490187,0.22357631981001802,-0.06066400826706556,-6.4420384537230575
2.8416731008322807e6,12.110581712587729,10.831314878577096,0.11295151981140497,5.415353116145891
2.8416731008322807e6,23.783246883126026,22.669172917465282,-0.6051317063033965,-7.167652834771559
2.8416731008322807e6,30.881615438984532,4.689230350960749,-0.7003728149910512,30.51532023028723
2.8416731008322807e6,2.5118744542129554,2.428813488299343,0.2882697779115679,0.563275108562092
2.8416731008322807e6,4.828232490165689,4.506022615738226,0.2681231539620536,-1.7104675208423683
2.8416731008322807e6,49.11403685574227,12.521918302298685,0.3306231045426221,-47.48969221484289
2.8416731008322807e6,55.90813967524895,20.487491096612466,0.6663022209569858,52.01469822909404
2.8416731008322807e6,17.679096212821847,8.76637081670384,0.21254769637187595,15.350765749076558
2.8416731008322807e6,32.64198577454962,23.912830060616685,-0.6229141501205916,-22.209857535777797
2.8416731008322807e6,20.31680247202688,7.141856696487698,0.3112626726468763,-19.01734632283926
2.8416731008322807e6,288.6337767829237,14.034339802194493,-0.31532689464433505,288.29218680921724
2.8416731008322807e6,18.707926322841125,7.227065864520116,0.688863550072853,17.241562959897838
2.8416731008322807e6,10.582834072411517,10.577993912930543,0.21712360901551056,-0.21278891091081897
2.8416731008322807e6,15.530072130407621,12.646205261087896,0.4321123947280505,-9.003327815225811
2.8416731008322807e6,54.15712169614022,5.497700236087352,-0.2961688035633088,53.87644574918119
2.8416731008322807e6,196.32568851221302,31.782184675659153,0.32213147994660796,-193.73578641631087
2.8416731008322807e6,6.482072396999257,5.199635493013306,-0.31279145068865766,-3.8565807145854016
2.8416731008322807e6,24.65868014125413,21.92982008968393,0.03182638289730993,-11.274860718613233
2.8416731008322807e6,7.259915961258677,4.837473687438697,0.7542264431389967,5.359698737834677
2.8416731008322807e6,179.76397472019735,19.458992419177505,-0.5200606799062263,-178.70689342642427
2.8416731008322807e6,268.4850701632163,10.827037464649873,-0.5395189586666632,-268.26611243237465
2.8416731008322807e6,337.4298549820308,9.838256776278488,0.38825458137980867,-337.2861618791651
2.8416731008322807e6,20.542268438606733,12.214940523709204,-0.45350926250163287,-16.509523008095965
2.8416731008322807e6,9.898827456133224,8.34765209413826,-0.6416266541397482,5.280322410442711
2.8416731008322807e6,161.32477643738687,12.019239471074178,-0.051895901161657695,160.87637701640742
2.8416731008322807e6,3.9084405786109917,1.574478204841051,0.08049089949367227,3.5749751543349526
2.8416731008322807e6,12.769611275938388,12.370100618428292,0.42921993506209877,-3.138367900020325
2.8416731008322807e6,128.59593695743055,33.69802698440315,-0.5600198160192786,-124.10090393354739
2.8416731008322807e6,24.39536687355673,22.21808245500185,0.713469609062494,10.048467447084272
2.8416731008322807e6,67.35901773712365,25.922677485163202,0.27683741235260534,-62.17045458702611
2.8416731008322807e6,23.40227737431126,3.043701046867108,-0.3699980774909883,-23.200335593782995
2.8416731008322807e6,191.18090244902925,16.96601938933142,-0.6351343317846789,190.42551890880236
2.8416731008322807e6,40.03667680409766,19.65049332453629,-0.2946482263599524,-34.881180943896226
2.8416731008322807e6,179.1570001430106,6.857637480664275,-0.6777520410025899,179.02439543424632
2.8416731008322807e6,6.409988724402362,1.7927714394444871,0.28263660877876745,6.146872583701056
2.8416731008322807e6,0.2455631157513043,0.17355942745827813,0.08370965016439168,-0.11476525357092093
2.8416731008322807e6,1111.615075817071,15.085425008884698,0.1980217530339668,-1111.5126888720072
2.8416731008322807e6,1.4829233141710354,0.9617015616114665,0.11895359969542059,-1.1180526388437961
2.8416731008322807e6,35.854665600053586,25.765409623211532,0.4500223517774251,-24.9296649019333
2.8416731008322807e6,62.85400243971251,11.32699565222928,0.6079081557151932,61.821883179501896
2.8416731008322807e6,24.08115573830723,23.967481683095624,0.6778428674267312,-2.234370719053117
2.8416731008322807e6,17.614162891254598,4.3947968581354715,-0.37145535412686936,-17.052756840325365
2.8416731008322807e6,118.84796800609845,5.570718666822644,-0.0022139077147774948,118.71729691924564
2.8416731008322807e6,112.30930925284503,9.181472242846631,0.5988327858173407,111.93173326452002
2.8416731008322807e6,19.496749925912024,14.069046960502384,-0.5019835438500094,13.487890413939192
2.8416731008322807e6,29.83348612156831,29.77649795102101,0.23856179806249406,-1.8248704631165789
2.8416731008322807e6,49.9861709737038,27.197659708802696,-0.23992870892375667,41.93849102186621
2.8416731008322807e6,298.1573695279685,29.95859666930169,0.3692260344245195,-296.64819763750324
2.8416731008322807e6,116.53226331302537,28.194218479874714,0.38172024898696266,-113.06944205583082
2.8416731008322807e6,51.45316696176445,3.4416387362962233,0.22608531233924753,-51.33733922434608
2.8416731008322807e6,3.25887319158376,1.0844192922188576,-0.13892500045943726,3.068385425876979
2.8416731008322807e6,65.22700022501132,24.707734240321866,-0.40687753075646926,-60.36483974747402
2.8416731008322807e6,44.59328309245818,7.169278708394026,0.3955215547548962,-44.01131561843169
2.8416731008322807e6,21.497970284893512,1.9729549680262988,-0.3969409987450247,21.403331817916126
2.8416731008322807e6,185.05499829868492,34.79706618368101,-0.544601163555697,-181.7531567536241
2.8416731008322807e6,360.7276646030659,15.565495752970953,0.7722469453379611,360.3908392101576
2.8416731008322807e6,4.6886511100855985,4.675964997201284,-0.30147101377534047,-0.1338499342868772
2.8416731008322807e6,3.08776390513749,2.7219499906994313,-0.4035680419103354,1.3972855891155316
2.8416731008322807e6,113.2006035624087,11.114590710104459,-0.22145199296788295,112.65337757588668
2.8416731008322807e6,48.00984121640129,6.403654883602477,0.5117785780552465,-47.578000593160944
2.8416731008322807e6,2.529661515163615,2.0459572696869146,-0.19052828782223785,1.4720547555898382
2.8416731008322807e6,45.474277559187506,34.6220379312452,-0.11447378332720044,29.48222014656247
2.8416731008322807e6,21.903692129164753,13.080762712418174,0.061720450357742845,-17.56848218647963
2.8416731008322807e6,1093.1875255286964,15.754685561754535,-0.5602092017247036,-1093.07384563901
2.8416731008322807e6,32.96696867142705,31.793653498166286,-0.4167774085472537,8.706372218847267
2.8416731008322807e6,9.031453606476234,6.303636518953809,-0.2995286919826735,-6.460000266681384
2.8416731008322807e6,3.7956466799562154,2.610740186812313,0.3699080878669537,-2.7283946566720214
2.8416731008322807e6,54.14321684344847,35.00920312589946,-0.0726274407695269,-41.30167492851885
2.8416731008322807e6,145.19133541512127,44.27375934991072,0.24794976121499826,138.27612459701186
2.8416731008322807e6,117.87565157703722,13.785954765307974,0.06752963432724692,117.06665676301023
2.8416731008322807e6,37.930851028192855,19.721593508617282,0.1502757395755176,-32.40024114734207
2.8416731008322807e6,19.96091028081446,18.559667616733638,-0.16421439146424385,-7.344365924212185
2.8416731008322807e6,13.242297741046542,10.6530530152181,0.4113790733400624,7.854405017281497
2.8416731008322807e6,11.375190403885018,5.225346158619409,-0.21898942532322446,10.101126564836012
2.8416731008322807e6,12.344314994260895,12.16398494706075,0.2554421332137801,-2.084306167959248
2.8416731008322807e6,12.783926233760564,7.69618406532377,0.3207532717325497,-10.202187908559651
2.8416731008322807e6,39.84350651757204,6.463772114485238,0.3551671098686082,-39.31397357164341
2.8416731008322807e6,239.3156366155436,8.637212947640021,-0.16250189204798557,-239.1596455808026
2.8416731008322807e6,413.09444046228145,5.015171761271059,0.672635236412021,-413.0634362357547
2.8416731008322807e6,14.179223082557558,8.56695584906587,0.369920571369643,11.292067723670744
2.8416731008322807e6,13.574019304989932,8.596892673293205,-0.26397819417323004,-10.500845297837603
2.8416731008322807e6,7.240593159899561,0.7543383091638542,-0.2379059583101856,7.196566110132835
2.8416731008322807e6,148.26487189605356,24.86190922170916,0.11008405100361966,-146.16543910824606
2.8416731008322807e6,27.72235574927056,17.955443827806846,0.4728909558078698,-21.11628327569752
2.8416731008322807e6,70.35727032296236,13.157565242027458,0.5603281422059266,-69.11367445428758
2.8416731008322807e6,32.84406312316228,20.937606426180952,0.8319372271090472,25.29124354457021
2.8416731008322807e6,15.635662111843173,13.112201723341872,0.3497348489925904,8.509511218484809
2.8416731008322807e6,1.0552799018392411,0.9564634647790546,0.07330824000246576,0.4282746942283927
2.8416731008322807e6,41.938151311223635,15.427535842249464,0.283055171370587,38.996276142846725
2.8416731008322807e6,185.50848152831892,10.295170918072822,-0.4924393743804933,185.2219038833498
2.8416731008322807e6,576.9343093065118,4.430339059487413,0.335566182916776,576.9171922781784
2.8416731008322807e6,140.12503379193367,9.964576951336918,0.14632204392531187,-139.77017167919232
2.8416731008322807e6,231.83979460847138,27.27857684493027,0.6642761686327683,-230.22840473448366
2.8416731008322807e6,33.69900430032483,2.1533028586986998,0.30078888343622845,-33.62864409517033
2.8416731008322807e6,21.27177200564852,20.800406660469683,-0.1705691234926041,-4.448850772221002
2.8416731008322807e6,11.667814315956347,3.4506815140207676,0.4471047918918334,-11.136461974321044
2.8416731008322807e6,147.92774802011616,4.7606246472478,-0.8086681400973418,-147.8488794110736
2.8416731008322807e6,2.3024004710535775,1.946289470972785,-0.32413042928657654,-1.1823471102424634
2.8416731008322807e6,164.01924617996394,23.28522533003461,-0.2393549667084382,-162.3577657766115
2.8416731008322807e6,16.411511076402668,9.173709712214297,0.2765326805001438,13.604935707438244
2.8416731008322807e6,485.8945941025436,11.278744276258417,-0.1702238877382222,-485.7636333953525
2.8416731008322807e6,32.737137960674076,22.73437656231964,0.505089373038587,-23.550015051037708
2.8416731008322807e6,138.6754014705678,35.80158409624976,0.5764448509740535,-133.97302437638746
2.8416731008322807e6,61.08034095257456,37.7378264898786,0.12179401400830299,48.0274886801374
2.8416731008322807e6,693.7829700957634,21.572759202631133,-0.1906109089371464,693.4474596699924
2.8416731008322807e6,43.53455720751555,2.4434035799120117,-0.4074568051810474,-43.463909501470596
2.8416731008322807e6,26.725982913702698,25.28494888377917,0.4580079142763964,-8.644637146732267
2.8416731008322807e6,4.713914347828128,4.675700818857045,0.5773317974741599,-0.12449227616483788
2.8416731008322807e6,3.373452788832873,3.275562578427224,-0.27414189587401006,-0.752143426626922
2.8416731008322807e6,2.7930660332569532,0.7813677370360647,-0.3882262652778209,-2.65140768132728
2.8416731008322807e6,51.81585534102222,3.426605242091347,-0.0716746926568118,-51.7022833535913
2.8416731008322807e6,650.1617474270867,15.982265902035826,0.7964091682253226,-649.9647842202808
2.8416731008322807e6,54.05379274922908,10.594327095557752,0.7794403643357947,-52.99957751423482
2.8416731008322807e6,15.683683180357901,11.596902917654193,-0.3468216054819184,10.55269991965639
2.8416731008322807e6,20.356576941477478,16.551430734313307,-0.5565358978492987,11.837256152332198
2.8416731008322807e6,10.29999409232315,3.237118045900493,0.08795201558268735,9.777177992741674
2.8416731008322807e6,67.97101982431865,9.452220688310053,-0.7318287667808401,-67.30653375916422
2.8416731008322807e6,7.722400772800782,1.8779587682635204,-0.5000033309535518,-7.473201538128865
2.8416731008322807e6,17.17652453853788,16.87938005248726,0.06060101271211301,3.178970239550418
2.8416731008322807e6,502.0687016283629,17.01571849954049,0.6076444146835623,501.77989920581706
2.8416731008322807e6,24.546842116578983,11.215077410860992,-0.24228692215033173,-21.83347873363305
2.8416731008322807e6,460.9962495670614,5.619519612699663,0.7445069630851622,-460.96138539318093
2.8416731008322807e6,280.0291867677048,32.43977954909041,-0.23303465459215614,-278.1437431247345
2.8416731008322807e6,187.53677810624876,15.21100226539248,0.6077496114570913,-186.91786750592988
2.8416731008322807e6,16.74820341900383,9.124774990388795,0.07251393450938262,-14.043701110049614
2.8416731008322807e6,23.806372471070592,23.65649966683571,-0.6330225996357655,-2.588952709629977
2.8416731008322807e6,53.749752609683526,15.29495003645,0.5817531878625274,51.52428526639736
2.8416731008322807e6,377.22642256699623,2.937159900242056,0.11836524440635966,-377.2149559125186
2.8416731008322807e6,4.348017175241153,3.300155980297884,0.535754681218678,-2.7779832223122645
2.8416731008322807e6,54.01411491645341,3.3937595456910934,0.0029452571506176934,-53.907300040711775
2.8416731008322807e6,9.92694893467036,2.5791497729097763,-0.5059161126292125,-9.572165402218804
2.8416731008322807e6,219.7708925137011,19.135236882086247,-0.6230266913514327,-218.93535517014394
2.8416731008322807e6,6.078876909746157,1.3054146574285959,0.11537105036078411,5.935092802707825
2.8416731008322807e6,137.07345077644618,38.51209391727703,-0.05483123791455155,131.55202971982223
2.8416731008322807e6,10.199741454838449,8.333308820334771,-0.4927189568713557,-5.8598564726467695
2.8416731008322807e6,717.8909892279726,12.802230020621053,0.8115237836322587,-717.7763626300082
2.8416731008322807e6,576.049852121862,11.074938979484164,0.29333827180851624,575.9432973903579
2.8416731008322807e6,8.68461045565038,4.98173367654724,-0.4717741045950621,-7.097338764394772
2.8416731008322807e6,10.354085504817224,8.990559456854438,-0.6191060689693891,-5.0974145377040525
2.8416731008322807e6,273.1917352155779,35.39960878601273,-0.047064739183007645,270.88850044401295
2.8416731008322807e6,12.800376894160301,3.1806771599612578,0.22948325925480284,-12.39638168460359
2.8416731008322807e6,72.71554707062239,16.547402999640745,-0.5429952010693873,-70.80557461075361
2.8416731008322807e6,435.81448348561673,7.840544310819654,0.6110098619730552,-435.7435100465565
2.8416731008322807e6,172.46323359363458,27.112517132661452,-0.10672311105008644,-170.3186923578304
2.8416731008322807e6,168.93451825096258,16.083492301535085,0.656641496400686,168.1658453848952
2.8416731008322807e6,212.82749037338573,15.110505141065095,0.35045330076771786,-212.29008567405918
2.8416731008322807e6,18.53294288265177,12.90408024243726,-0.23988447437450786,13.299892496833476
2.8416731008322807e6,2.698463407625596,1.4392576741713565,-0.1991052262636202,-2.2716952301107027
2.8416731008322807e6,4.531852010088366,2.2601343416374875,0.10642520158256177,-3.9253215251187976
2.8416731008322807e6,14.926349886574858,14.777972439678358,0.5499176247563721,-2.0236210402499712
2.8416731008322807e6,275.2353757118115,27.01639287581986,-0.5800939409587461,-273.90560426946547
2.8416731008322807e6,7.646009008337381,7.641928025525205,-0.01488773297387871,-0.22840351064666728
2.8416731008322807e6,23.700073436743423,1.692960664230469,-0.22680926146487654,-23.63823010835023
2.8416731008322807e6,19.371642104289997,12.689775300712789,-0.7022814980246568,14.619402222103776
2.8416731008322807e6,14.231714817922683,13.9670489679553,-0.560906478354316,2.671822169972967
2.8416731008322807e6,2.7244660087522607,2.5911791186821445,-0.20165326944179565,0.8110744519928692
2.8416731008322807e6,226.31277273013646,18.240855482502436,0.575347166743812,225.57571072193605
2.8416731008322807e6,44.3519693451308,18.989053650248728,0.2191045172084014,40.080606525724335
2.8416731008322807e6,88.00876120999071,12.194310330978599,0.3393016775619494,-87.15914019562467
2.8416731008322807e6,2.1458091317440466,1.5749946729853654,-0.34010535280280285,-1.4135830215939675
2.8416731008322807e6,34.29110653542057,32.114339377571724,-0.21084087977715626,-12.020596486411318
2.8416731008322807e6,21.63941130474224,16.402122647245175,0.19671201029762878,-14.113319902331195
2.8416731008322807e6,55.617196431145985,8.94119935841672,-0.21436199235266531,-54.89327410375482
2.8416731008322807e6,28.11244956808012,20.811203628520854,-0.034244182420979596,-18.89953575054316
2.8416731008322807e6,39.77299423352639,21.979492267521238,-0.6893291713737488,33.14072744004861
2.8416731008322807e6,216.0326607424023,20.599969418038867,0.6512942952072126,215.0472450024849
2.8416731008322807e6,425.40745357540493,7.686789258919271,-0.4417511519187889,425.33775953272607
2.8416731008322807e6,6.761005644950567,4.9406317038107765,0.1726440218377929,4.611024803671837
2.8416731008322807e6,54.552027623822994,4.596991806452754,-0.17573832812972182,-54.35761676381499
2.8416731008322807e6,15.24663903934033,5.5447831685469176,-0.0034648080253087076,-14.202301560128934
2.8416731008322807e6,54.88613007008671,11.908202576417255,-0.7957705958029359,53.57274245946665
2.8416731008322807e6,44.94616879715585,15.959600062733005,-0.2406335560098795,-42.016441435130616
2.8416731008322807e6,28.966034916821325,7.833298539801836,-0.17234570999936327,-27.886034313704332
2.8416731008322807e6,600.3842305115782,29.269661632534984,0.37127109465132574,-599.6702121271917
2.8416731008322807e6,1.3562118538862649,0.46747210764712044,-0.0646225612135988,-1.2675189725506186
2.8416731008322807e6,39.00696895451782,20.789929236010384,0.8501900895132837,-32.99378193223825
2.8416731008322807e6,6.143629757648307,3.118258115947269,-0.6790408870030419,5.248767130971701
2.8416731008322807e6,5.055828328392821,2.8863293254841187,0.1530816677052908,4.14693490593261
2.8416731008322807e6,315.55797507035754,11.551415738907428,-0.5044157885453302,315.34605751403274
2.8416731008322807e6,2.4023968063235834,0.444044441108729,0.19333025699798087,2.3509483960910877
2.8416731008322807e6,43.43019572432136,13.991643887268205,0.706147437753825,41.108480363312935
2.8416731008322807e6,16.256383170631977,2.7427436880116964,0.4663884682385902,-16.016236532000008
2.8416731008322807e6,88.7407563681643,11.74789393101155,-0.15592156087237477,87.95950498636545
2.8416731008322807e6,307.5550286585342,25.37563499988806,-0.13048638989249434,306.5063551948088
2.8416731008322807e6,7.347097059373256,6.1884843069701,-0.06237297242986267,3.9583591037886166
2.8416731008322807e6,287.01346280751267,19.591942582739826,0.4562129667946746,286.3436143662418
2.8416731008322807e6,125.49638202610792,20.761197554136878,0.5682386659980666,123.76583406812796
2.8416731008322807e6,192.19709748091745,15.78894447405765,0.25798047965510823,191.54727081991155
2.8416731008322807e6,7.827449439293605,2.964095268443373,-0.33351395638168346,7.23615038574987
2.8416731008322807e6,186.13385861141967,14.417008380041741,-0.02839617971718312,185.57465447792904
2.8416731008322807e6,1.0000174742900185,0.28931823923769295,-0.259271435699466,0.9160285082682353
2.8416731008322807e6,9.92541828298177,6.923523505332687,0.630938797781153,7.083125482208336
2.8416731008322807e6,196.1557054255974,8.573659306811914,-0.49713264202040947,195.96758914739112
2.8416731008322807e6,45.962447140192495,38.70144816114471,-0.46139012052495865,24.789545709873362
2.8416731008322807e6,12.251077101174943,1.469729909987695,0.38415435096128564,12.156118194771643
2.8416731008322807e6,301.11128558356154,29.993867003961963,-0.48933335183336263,-299.61329209633635
2.8416731008322807e6,3.6234066616816065,1.8425252312023979,0.06696629718369743,3.1176420774910483
2.8416731008322807e6,56.58431960011555,12.249561096961806,-0.5257321859295638,-55.23990480810495
2.8416731008322807e6,14.432495976865406,13.72453609287631,0.1924793715586321,-4.459484370316364
2.8416731008322807e6,7.864113976725471,7.655751528926828,-0.22507488570181233,1.7813193037997763
2.8416731008322807e6,6.917607694709297,4.391273538113438,-0.36882008925644394,5.331414884730583
2.8416731008322807e6,249.69675012258136,13.07162752074049,-0.11257012968258846,249.35432000208795
2.8416731008322807e6,501.3220992378205,32.38468709813168,0.4482781448153758,500.27479276141446
2.8416731008322807e6,62.391627942484526,20.034469972600427,0.14251573212538518,-59.08726545962745
2.8416731008322807e6,3.4905848243187254,0.6532803200888107,0.01648841888783938,3.427409425672904
2.8416731008322807e6,81.35270663237503,12.46040114503906,-0.24325315784366583,80.39236349068975
2.8416731008322807e6,0.9272457424173843,0.21003812582777948,0.5857237133136366,0.6801443848125235
2.8416731008322807e6,3.3395350777877795,0.9266015606282725,0.25941714803799604,-3.196342726761344
2.8416731008322807e6,12.218868601025235,11.78945141669639,-0.2757729264870707,-3.1974262267474716
2.8416731008322807e6,168.57496044353758,32.993456446156415,0.5674404013709222,-165.3136931160475
2.8416731008322807e6,1.2208719192243584,1.1783023767024454,-0.040359602368180085,0.30083692377203064
2.8416731008322807e6,10.297351490884155,8.15063990325176,0.535641111076797,-6.269418274007462
2.8416731008322807e6,81.6860666699681,1.4343250244408825,-0.4113181268994497,81.67237609579644
2.8416731008322807e6,157.4430085815996,12.220592010328875,-0.21364938808285658,-156.96783885905322
2.8416731008322807e6,11.640465948116388,10.523957866103185,0.798317407957312,4.909118824992358
2.8416731008322807e6,2.0853913936132082,1.9552382598273061,-0.2994757973245121,-0.6528513296918166
2.8416731008322807e6,7.988943425724548,6.804501457474018,-0.6767182082527258,-4.129652460108559
2.8416731008322807e6,79.8713179049376,22.628984877745697,0.38816487980614073,-76.59762264783708
2.8416731008322807e6,183.7823051091055,20.73505655641259,0.7347676509306571,-182.60734710662072
2.8416731008322807e6,186.70181788410804,36.66686295588395,-0.25342898747581233,-183.065659630509
2.8416731008322807e6,24.588571397800486,10.272031586314643,0.05393935981267574,22.339881401205993
2.8416731008322807e6,25.088270800976414,9.59039375418557,-0.6830697838523665,23.172593620335043
2.8416731008322807e6,250.36248522216673,5.993732520553905,0.35940974563467454,250.2904512795613
2.8416731008322807e6,19.47426474020993,8.112140874121325,0.3008790271584256,-17.70140190553307
2.8416731008322807e6,97.45398598998639,23.37922226767492,-0.6773677943274068,94.60561571263264
2.8416731008322807e6,16.656558689980084,11.325524800414396,-0.7090261485944394,-12.192650134755732
2.8416731008322807e6,347.05280571119073,19.15914442507905,-0.12296759288994295,346.52352303397754
2.8416731008322807e6,10.100283768265825,5.529230657641336,0.41018302620510017,8.441865340024473
2.8416731008322807e6,7.460253225039207,3.2464502506787456,-0.10413968101272983,-6.71528807114143
2.8416731008322807e6,1.8491792848092796,0.29198130887912344,0.272077131496537,1.8028269404326167
2.8416731008322807e6,72.74358560001713,6.5530540100706585,0.6149183924792946,-72.44514203491298
2.8416731008322807e6,12.361672137163373,11.917336658301059,-0.6038729557511394,-3.226974194620609
2.8416731008322807e6,16.988358925515783,16.985126270020793,-0.2893934313649927,-0.1267912279458796
2.8416731008322807e6,9.004103292938064,6.38415284749446,-0.2860962353729671,6.342288031446692
2.8416731008322807e6,45.88052237025831,24.645069199332667,0.20963683460975452,38.698694416290756
2.8416731008322807e6,78.00346079908971,6.395726493169681,-0.5177946815602698,-77.7390279584678
2.8416731008322807e6,1090.7076086410125,25.572567358676455,-0.17828001221384243,1090.4077629778317
2.8416731008322807e6,1.216928834098928,0.9107098268441458,0.10736169154588514,-0.7937234189182574
2.8416731008322807e6,200.24758047377037,23.223513136840158,0.11928959769576924,198.89629884232147
2.8416731008322807e6,245.39303869694714,8.172331237757357,0.7260538484126021,-245.2558241691134
2.8416731008322807e6,4.770667458485253,3.8839981531315297,0.36561871712043836,2.7441117505692416
2.8416731008322807e6,12.376996923198478,8.127392423749708,-0.7110905485364001,-9.306981006697214
2.8416731008322807e6,16.172124715910204,13.643918782575383,0.056849841417159055,8.681466821739924
2.8416731008322807e6,2.95186130248214,2.315284185446159,-0.48334248386355644,1.7633276306481096
2.8416731008322807e6,7.319172450827091,6.607538438978681,-0.38443120733882363,-3.12296874611153
2.8416731008322807e6,2.8879581336683557,0.719658829247269,0.07456250873010929,2.7940711844188115
2.8416731008322807e6,132.40321333837076,7.700864385996706,-0.7498615579696277,132.17690909413216
2.8416731008322807e6,8.715589234864034,8.171185781827603,0.18042792024067195,-3.025006511618413
2.8416731008322807e6,332.2311507747875,16.017671825695267,0.25004123296820924,-331.8446914051899
2.8416731008322807e6,124.57421359328475,18.698871429554163,-0.16928847964876237,-123.16269013405395
2.8416731008322807e6,4.408957721253377,4.227695604207212,0.7673353120847944,0.9832062778453587
2.8416731008322807e6,9.280219748096227,8.645899468630043,-0.0495242043441007,-3.370229710936928
2.8416731008322807e6,89.11538805209608,7.286168620510982,-0.0717099642590604,-88.81694090763415
2.8416731008322807e6,16.171799609690538,5.187055772863628,0.15946662436025583,-15.316204667635652
2.8416731008322807e6,71.24227997411253,4.40046370834123,-0.2505366559092686,-71.10573539768403
2.8416731008322807e6,157.30973157151814,26.550293795044887,-0.6132001082858287,-155.0517575912221
2.8416731008322807e6,33.88166488856831,8.02345481204143,0.18675285938645397,32.9172676853636
2.8416731008322807e6,56.141381509857375,18.517357128880928,0.09148678475464278,-52.99947011966302
2.8416731008322807e6,54.686612956571985,7.816132267663942,0.25090300257234843,54.12449316824676
2.8416731008322807e6,12.621068344098425,2.7979895112826654,-0.17823110127869357,-12.305318139556285
2.8416731008322807e6,99.09170764205646,54.44635994118313,0.27498395209291077,-82.79296344738489
2.8416731008322807e6,46.767410075377185,14.170408995633663,-0.45356229066930764,44.56651697522972
2.8416731008322807e6,67.5850469649637,23.200769620783955,-0.4942876082159115,63.47604699427981
2.8416731008322807e6,0.29873347685287266,0.22109064718931304,-0.05669682068216668,-0.16476069447095143
2.8416731008322807e6,5.951288317692751,5.451290728379798,0.635177619619311,2.299524173937173
2.8416731008322807e6,53.31858422871858,17.93337798203205,-0.030774596326388817,50.21209447167829
2.8416731008322807e6,115.10359073445707,35.644693438668334,-0.4282676961321215,-109.44450199260442
2.8416731008322807e6,14.332918828427328,8.145236612166856,0.06694710159444484,-11.792930117646389
2.8416731008322807e6,22.317986292732535,20.078918967518256,-0.5086467382754483,9.729378384772323
2.8416731008322807e6,6.8739825337476725,5.033683642104795,-0.2735512540547609,4.672133835505971
2.8416731008322807e6,222.75233098324733,20.735203271775937,0.13664914118821378,221.78508432886218
2.8416731008322807e6,125.4943058839059,7.155239359760279,0.12485160407805099,125.29005455767363
2.8416731008322807e6,14.259659470874514,11.848554046560261,-0.40773701574983673,7.922966979423119
2.8416731008322807e6,251.9703916577691,32.98334179134268,-0.1294848596084456,249.80222310883497
2.8416731008322807e6,351.98265189195376,32.88764597739495,0.17729296043396184,350.4427892569114
2.8416731008322807e6,241.52427008658816,5.008354801695543,0.5176082010202084,-241.4717612988934
2.8416731008322807e6,0.8455236701888316,0.5177901788772523,-0.09044677684492701,-0.6546930487382738
2.8416731008322807e6,26.989436016890913,6.552948644895412,0.3535680705552719,-26.179257250477825
2.8416731008322807e6,2.480684152814593,0.9839514752245675,0.3731665168065291,2.244188073928594
2.8416731008322807e6,312.18490573085205,11.104540871787233,0.4920802311455441,-311.9869426678846
2.8416731008322807e6,30.73870008059066,24.312821421724777,0.5012195360172846,-18.80141420575962
2.8416731008322807e6,180.60115749978561,13.076310012560207,-0.3914593737478594,180.12669143210425
2.8416731008322807e6,29.390099162652785,10.695854082344269,0.6381840515421737,-27.367121795251325
2.8416731008322807e6,56.606551943434894,19.150453845764847,-0.7471608834637232,-53.2634357795312
2.8416731008322807e6,4.268522605602097,1.41274384729409,0.05363200861180196,-4.026358610968611
2.8416731008322807e6,9.619484353316786,4.485728092214602,-0.3382088293913062,-8.50225484763571
2.8416731008322807e6,0.6821071054678018,0.14813811906335828,-0.3322100978569428,0.5682971510503234
2.8416731008322807e6,313.53084699989256,11.992526415827381,0.5666013381610532,-313.300878220217
2.8416731008322807e6,121.95868814601761,11.492288079847647,-0.6239209868140959,-121.41437168469632
2.8416731008322807e6,454.56801920004204,35.76771814461277,-0.5890644227534093,453.158247658898
2.8416731008322807e6,97.60846861091684,29.837685311318577,-0.38104243088251155,92.9353026922328
2.8416731008322807e6,169.88326109692963,10.916870501920512,-0.341651582671416,169.5317598963921
2.8416731008322807e6,579.77132863844,16.503816864027765,0.4638556450453334,-579.536187289492
2.8416731008322807e6,250.62616071125763,15.630230032215383,0.48033649280073715,250.1378172505286
2.8416731008322807e6,31.980445193018113,1.6132420814492052,-0.3501306754977023,-31.937653846836554
2.8416731008322807e6,25.614988509326373,9.37698678714472,-0.2658711634376608,-23.83524842855823
2.8416731008322807e6,27.25656975537116,4.768997147812433,-0.09206005184891343,-26.83577436893566
2.8416731008322807e6,18.195710100389654,2.8807306046536016,0.17491983914238127,-17.96509561039708
2.8416731008322807e6,45.776644820994015,10.596261829624385,0.5105762259062598,-44.530324030069906
2.8416731008322807e6,130.47075965052088,12.714400080540404,-0.2786778274719125,129.84943393424717
2.8416731008322807e6,30.95450996938372,0.9628832499945039,-0.060489883395904796,-30.939309692776973
2.8416731008322807e6,226.0315824133182,2.575564527721504,0.6243470743457341,226.01602356108054
2.8416731008322807e6,132.14271187764172,34.27264023081626,-0.11953421533387264,127.62075906982311
2.8416731008322807e6,14.862624384414762,1.146806353333233,0.24554869253162775,-14.815942245424374
2.8416731008322807e6,21.243474575551815,17.498858200479287,0.028422674706014436,-12.044266929672293
2.8416731008322807e6,142.2958473219289,14.242322806767778,-0.5765048925383341,-141.58009057859223
2.8416731008322807e6,108.83903417453668,25.405501510551773,0.5331762993496147,-105.8310047957456
2.8416731008322807e6,164.43697078692315,21.535232219714864,-0.16324283559795044,163.02059528353772
2.8416731008322807e6,69.11656235574341,21.19619614215445,0.41425196105067974,65.78479198334102
2.8416731008322807e6,23.589666678333554,11.926230411170124,0.6007297965523241,-20.34370973756005
2.8416731008322807e6,15.568018700511866,4.427341603064635,0.34616594155680613,14.920858612364313
2.8416731008322807e6,27.270051479576466,13.764154025090944,0.779828381111841,-23.528400697207108
2.8416731008322807e6,20.962765544598977,8.217811115838071,0.17498797299404512,-19.28378850100627
2.8416731008322807e6,445.59372706961767,22.42977503280258,-0.37970937705095853,-445.02867392625365
2.8416731008322807e6,5.777648124103372,2.9555554163569884,0.048248154655544225,-4.9632229591637795
2.8416731008322807e6,169.52783319893678,5.437534543507031,-0.29054019192051717,-169.44032882879912
2.8416731008322807e6,140.58195856054292,25.088751440488586,0.2574498724758432,-138.32485439514747
2.8416731008322807e6,45.359726200717986,0.07391161048438832,0.27567799426284634,45.3587180123228
2.8416731008322807e6,131.9163473891833,9.935150632336303,0.7035622136309388,131.53976771542526
2.8416731008322807e6,108.35462573054161,35.67969755630885,0.012388129312626357,-102.31165107665075
2.8416731008322807e6,119.60931866137156,37.231809001685406,0.14933443287257708,-113.66683424960291
2.8416731008322807e6,895.3331650809806,7.125227086596896,0.36462931108439167,-895.3047328582354
2.8416731008322807e6,858.6463037344395,29.603479897307174,-0.1746632179785375,858.135809990205
2.8416731008322807e6,1.9490941503479204,0.6734309720062427,0.13054404449549203,-1.8216522679452214
2.8416731008322807e6,593.9079532519672,10.850676348067754,0.1928325711166686,-593.808784521019
2.8416731008322807e6,20.90607803627885,3.2978628645852446,0.2051030498182985,20.64306498861845
2.8416731008322807e6,14.224586778404309,6.158713579758619,-0.38047003924353484,-12.816175662345206
2.8416731008322807e6,73.51065165604248,7.124410304928318,-0.522977569106985,73.16266246635146
2.8416731008322807e6,256.7890449760225,24.93135804796257,0.6555850143907418,255.57504027950557
2.8416731008322807e6,7.130624883679556,4.12575903355854,-0.19377879760862507,5.811744437460884
2.8416731008322807e6,0.6104244068047646,0.5706892094912832,-0.100685830933068,-0.16368917509255407
2.8416731008322807e6,43.66126201228088,4.467930880823289,0.10432587598449918,43.43181449422562
2.8416731008322807e6,444.7394551656363,8.597541080241669,-0.061676626132480185,444.6563296124259
2.8416731008322807e6,9.756780811673716,7.989826080520791,0.19305219289801906,5.59555018393111
2.8416731008322807e6,3.074850250088545,0.5741211854570185,-0.04345961449371856,3.018807742600899
2.8416731008322807e6,308.27290637451574,21.688743476594837,0.40219907260403737,307.50871767626916
2.8416731008322807e6,13.892216115497362,4.033287348364615,-0.39068642830578715,13.28772463140114
2.8416731008322807e6,227.1873935271159,20.704636554707896,-0.16632190748669531,226.24188856134748
2.8416731008322807e6,53.97059458941922,34.42546644450218,-0.3840654285041497,-41.56386452389298
2.8416731008322807e6,2.4761412559078364,2.0897922477354838,-0.014922161444639476,-1.3243191494542872
2.8416731008322807e6,20.355308380745658,8.721321403758367,0.3427016738800991,-18.38884683198814
2.8416731008322807e6,111.43657733793104,19.049326105971538,-0.30526779650691743,109.79585946324868
2.8416731008322807e6,34.08669225935398,4.455424152046551,0.15865383768578592,-33.79373630969282
2.8416731008322807e6,137.36309238200948,23.163742436221483,-0.3158969811162922,-135.39553313973906
2.8416731008322807e6,6.576695816828092,1.2739893864766945,-0.1923202379091116,-6.448479808165587
2.8416731008322807e6,193.41129728302417,31.268076932476077,-0.587409355829432,-190.86613694392145
2.8416731008322807e6,285.29226329359454,43.04309323284833,0.10141388491929615,-282.0265011224193
2.8416731008322807e6,58.928939102625634,11.42843403477529,0.6839180287856362,57.80599463207646
2.8416731008322807e6,687.7610875688026,36.799150522110125,-0.20173656006059143,686.7758625614572
2.8416731008322807e6,127.30026905368693,8.923334425563398,-0.2722499819406395,126.98680436887118
2.8416731008322807e6,408.27459180579126,24.655147894454295,0.49013460712626405,-407.52915940402966
2.8416731008322807e6,331.0113829957186,8.951687583766866,0.7293317509594167,330.88949973871627
2.8416731008322807e6,30.861246446940697,11.844632276022946,0.3455684306744304,28.495469832314157
2.8416731008322807e6,42.591692938524844,35.93683027077814,-0.21768320503967442,-22.859115282117
2.8416731008322807e6,3.9315536050997224,3.544825373580966,0.575117899989807,1.5970492233179663
2.8416731008322807e6,12.99265809835849,2.14479549686999,0.42308280323684566,12.807030010078527
2.8416731008322807e6,154.15891064514085,4.8662831646926,0.5133915276085598,154.0811975829528
2.8416731008322807e6,12.946115901956759,3.2018137337762225,0.3539613742249108,12.538541267095482
2.8416731008322807e6,446.41808399175636,22.820834076491487,0.004624947051328581,445.8343921519895
2.8416731008322807e6,441.1851522848934,8.872179939584653,-0.7553784893957242,-441.0952759020459
2.8416731008322807e6,8.851397486630358,8.442567321448255,-0.4199344192882648,2.623728181926867
2.8416731008322807e6,1237.9036394233153,16.186080294860098,-0.36700307371826923,1237.7977567482185
2.8416731008322807e6,239.84633201455568,45.39591598841942,0.0677363440131035,-235.51105962182868
2.8416731008322807e6,160.84235378448835,1.2948486948373281,-0.41068393968149935,160.83658624981348
2.8416731008322807e6,64.5844117436992,7.814467676976276,-0.6550769330214313,-64.10648336492174
2.8416731008322807e6,4.952377107518317,3.5201108052454546,-0.17705126457729412,-3.477572685592254
2.8416731008322807e6,38.48076849531054,6.099368973436668,0.47731626385944753,37.99117543982835
2.8416731008322807e6,66.58426830957703,29.74010101821502,0.6669178179845424,-59.56959290084299
2.8416731008322807e6,5.097716739172955,5.092245235186524,0.09422903877404329,0.19202943997210334
2.8416731008322807e6,63.63419470230065,39.9168139291913,0.13071891860907814,-49.557356807208194
2.8416731008322807e6,9.436899735273194,7.833657797026529,0.23881166203200677,-5.255649448237795
2.8416731008322807e6,1069.299083123196,35.301899975849686,0.5846019988373086,-1068.716030228192
2.8416731008322807e6,314.7684650390821,23.50231669509617,-0.3330828352641139,-313.88964103462877
2.8416731008322807e6,11.468034666165979,10.181938910190182,-0.6647829339546755,5.233736980806588
2.8416731008322807e6,20.200538528367296,7.717812500318171,-0.44296247595226285,18.66255371836561
2.8416731008322807e6,153.84944943280172,25.61150728842592,0.7748453161366327,151.70067040038805
2.8416731008322807e6,13.986088480111448,13.941240770263924,-0.35279328418090883,-1.0573616494245872
2.8416731008322807e6,19.04058716669656,10.661748456837906,-0.12518063060155712,-15.774834683932712
2.8416731008322807e6,2.2728574169974856,2.110207023508326,0.28514020175841315,-0.7884175424721256
2.8416731008322807e6,19.626925893161165,12.136563284533759,-0.38061055201906463,-15.419636418017097
2.8416731008322807e6,48.88937348207626,21.881569441427548,-0.47252510230601846,-43.716524087324416
2.8416731008322807e6,29.385742109688874,7.523438555297017,-0.0091920115357131,-28.406154740632108
2.8416731008322807e6,10.03959049528656,0.7842220931165258,0.3224640644859987,10.003218979350152
2.8416731008322807e6,7.00254977570595,3.935210798783338,-0.34473187868312183,-5.781088069057423
2.8416731008322807e6,55.10701669652671,32.99666220220486,-0.4767997236690023,44.133504673075414
2.8416731008322807e6,0.43325266857915945,0.3574049768735117,0.18519580276797928,0.1251881463004072
2.8416731008322807e6,3.615813486240384,0.37100531511574,-0.1408895648025166,3.592577397073512
2.8416731008322807e6,1920.197984462317,21.826679361942016,-0.14254975547602483,-1920.073921827163
2.8416731008322807e6,36.24565736731492,4.140060654771952,-0.02866665966775797,36.008287295929875
2.8416731008322807e6,109.86020252188503,10.392995628305343,0.43621106849283636,109.3665829214909
2.8416731008322807e6,215.0354719339752,19.48801735284284,-0.22158213270806656,-214.1504430788813
2.8416731008322807e6,39.07839055168377,18.969888374947878,0.349138652243435,34.163314320385446
2.8416731008322807e6,119.83521091594707,23.838309308156358,-0.5134399493345164,-117.43908703671286
2.8416731008322807e6,22.513980341825466,8.67026150676235,0.04942194958634979,-20.777233543168293
2.8416731008322807e6,25.211259037662195,9.182238723687398,-0.11650425786079943,23.479150347557713
2.8416731008322807e6,90.06344600286106,14.515925647583007,0.6666631735765932,88.88339422365186
2.8416731008322807e6,7.578278563043969,7.405239874568374,0.06314317105885775,1.6058459823853042
2.8416731008322807e6,22.206105619385475,14.684480519124273,0.7031373044715012,-16.642498508151455
2.8416731008322807e6,3.6579062914842213,0.8384181782997369,0.06859810389336586,3.558458612337458
2.8416731008322807e6,169.31795864782603,19.87969847519778,-0.4899678166610799,168.14612288346342
2.8416731008322807e6,11.328303005724386,4.063211248206167,-0.5864678042720803,-10.557784751381675
2.8416731008322807e6,6.540642765424451,0.3943974731067774,-0.32058000454140195,6.520098686277265
2.8416731008322807e6,1.0445526820185291,0.8020609631901303,0.2160334275415927,-0.6253943356181386
2.8416731008322807e6,311.46034254133053,13.118681790037542,0.07434108278695563,-311.1839160969894
2.8416731008322807e6,11.495533070735522,11.10102054518524,0.5759848717378594,-2.9279455021018337
2.8416731008322807e6,13.45558512808742,0.4930894631879923,-0.12120338193622386,13.445629165669743
2.8416731008322807e6,6.743143144799451,5.0162691649248705,-0.055604638967638904,-4.504878606622498
2.8416731008322807e6,310.1640565248949,8.872908291018009,0.6712375733926769,-310.03637350891177
2.8416731008322807e6,41.003390746010695,11.368387861810053,-0.3436489742996771,-39.394285314953336
2.8416731008322807e6,40.37493773251304,22.774938512031966,-0.08599700105669619,33.33797200180715
2.8416731008322807e6,5.185801012243488,0.881491160909455,-0.32382684603893147,-5.099082431733044
2.8416731008322807e6,33.16284695914827,3.8171934750160545,-0.19787695145288342,-32.941680241333586
2.8416731008322807e6,42.357528241664674,34.64109320545988,0.1604654106034146,24.374558685770317
2.8416731008322807e6,42.36740865325812,37.38637346856616,-0.3372350130203272,19.928187760231896
2.8416731008322807e6,1.231563373255602,0.7228151616574756,0.13029188810618048,0.9835195007301678
2.8416731008322807e6,205.02789160881554,14.30757428061914,-0.5009818414060475,204.52742767891885
2.8416731008322807e6,8.626377998547444,4.829031054716777,-0.29168473464053934,7.141412777733972
2.8416731008322807e6,33.62159219123781,29.632075184756367,-0.7517183891657362,-15.867466753777668
2.8416731008322807e6,29.310116691948235,6.854334653095198,-0.5913191055070929,28.491075421515127
2.8416731008322807e6,62.17895683043303,13.509721077562808,0.31052986817669503,60.69269873821957
2.8416731008322807e6,3.9536413443132026,1.7249116686472339,0.7503020679693768,3.476061912801353
2.8416731008322807e6,22.00529229178754,21.902538335637146,-0.753031647557859,1.9835943740406539
2.8416731008322807e6,5.274078112705745,1.5868833432644553,0.2726058930188973,5.021293381279662
2.8416731008322807e6,31.380148000550516,5.672730181147026,0.3065922333865873,-30.861461761082943
2.8416731008322807e6,40.998332220794815,27.760594471457583,-0.8474766115262479,30.15765943953305
2.8416731008322807e6,83.40291359525303,5.50051303226914,-0.442905821879795,83.22009485089538
2.8416731008322807e6,18.377679977660762,14.533362015321737,-0.4956195071610407,11.236764267218481
2.8416731008322807e6,23.312292136304492,7.157165700376716,0.18128249522886644,-22.185470029789286
2.8416731008322807e6,52.198546875559174,23.161194457455114,-0.8142117464077122,-46.77151298018816
2.8416731008322807e6,16.628348881648186,16.348694583076647,0.12653111368379819,3.032517409077915
2.8416731008322807e6,68.61900262647262,12.601053911758468,-0.323131585423465,-67.45121605829887
2.8416731008322807e6,24.66894997297975,7.023542637555428,-0.5387756077431114,-23.64162985989586
2.8416731008322807e6,22.529709963125367,4.862341391736268,0.5062942581163848,-21.99270636681527
2.8416731008322807e6,45.76900722109901,13.37133669779793,0.5835189848086171,43.768240569087354
2.8416731008322807e6,4.34135666048245,2.049399687377706,0.16936905226328672,-3.8221267246164032
2.8416731008322807e6,20.40066614655587,14.631277212131664,0.16341225782158353,-14.215350955885018
2.8416731008322807e6,46.78333784971991,5.438735422578121,-0.623528704376507,46.461834545345354
2.8416731008322807e6,18.01144908307868,15.321754361818401,-0.006858531098898012,-9.468162139981866
2.8416731008322807e6,60.770731257235326,32.844101871204856,-0.3191385202398227,-51.12958928465919
2.8416731008322807e6,143.2045263697985,26.03726183593751,-0.40200420393712366,140.8169938661707
2.8416731008322807e6,0.9619997118441925,0.8081791244604655,0.028147400738924813,0.5113684309832469
2.8416731008322807e6,50.95578927250212,6.572016460004175,-0.7871902983327043,-50.52396848494076
2.8416731008322807e6,26.560663591214087,2.7534596124358117,0.6385243890014379,-26.40964969803615
2.8416731008322807e6,36.12511407477013,4.334588187918957,-0.7289950273660322,-35.85657231814531
2.8416731008322807e6,2.8786363327389006,1.191745911019087,0.520365024058547,-2.5662246708872356
2.8416731008322807e6,83.85822059698198,23.740037413798643,-0.06507544364764783,-80.42759197234597
2.8416731008322807e6,18.55407306758964,6.189598741151629,-0.20422480216625158,-17.489733761586237
2.8416731008322807e6,39.57882304936596,2.6277916597474675,0.26653997812897146,-39.49046595579801
2.8416731008322807e6,76.48810250437867,12.144885623631138,-0.11915100910338375,-75.51759649873856
2.8416731008322807e6,53.44657662477579,25.430562478690412,0.22544135352646116,47.00810803597154
2.8416731008322807e6,4.6140268377505524,4.477935688244372,0.5077703399252558,0.9846344059202717
2.8416731008322807e6,43.11053410596586,21.164239126407576,-0.4765695214410929,-37.5547069565603
2.8416731008322807e6,63.83950731001897,6.799320069624332,0.5760193135808029,63.47369645709277
2.8416731008322807e6,18.820511115151657,9.500612836078442,-0.23545575798918889,16.244523845299938
2.8416731008322807e6,296.0218144491227,19.363767962511947,-0.25119136984629686,-295.38768766307874
2.8416731008322807e6,30.363352961280782,0.28378545003395406,-0.06328170830308164,30.361796130911898
2.8416731008322807e6,28.988637595802345,1.5493819716171657,0.2844821357702937,28.94563170983176
2.8416731008322807e6,3.99227821964962,1.1662620173722864,-0.1606869294502148,3.813436508010483
2.8416731008322807e6,154.60406541990207,30.721433386337793,0.5279654912592328,-151.52003770950628
2.8416731008322807e6,361.7841290192109,17.72926801833831,-0.4429380508645124,-361.3491702932305
2.8416731008322807e6,14.764582734851759,14.71490551749355,-0.7691418158806889,-0.9289132427650472
2.8416731008322807e6,99.83054294097701,30.091489769209666,0.03594503396818558,95.18733243091927
2.8416731008322807e6,34.73375953836179,10.75748805862965,-0.4128204243934489,33.02317491753908
2.8416731008322807e6,10.09125217082641,2.310403755311111,0.04189748252390411,9.822609096549204
2.8416731008322807e6,12.548088326771234,5.102675978301969,0.2709786533510998,-11.46009550947725
2.8416731008322807e6,45.38914892281589,13.405656408587559,-0.5800596736497456,-43.36031304046893
2.8416731008322807e6,277.1236879920102,18.44970043333204,0.165431770038599,-276.50878762264097
2.8416731008322807e6,34.62804666504458,4.619493368962621,0.31652096187377277,34.31693038911426
2.8416731008322807e6,5.463371176808529,4.082241393323542,0.18180815362333977,-3.6250069817166235
2.8416731008322807e6,16.665583577217472,5.185537545921049,-0.5347079404131693,-15.828959654617954
2.8416731008322807e6,2.728694986240928,1.4816284805274167,0.19779582045937627,2.280664417891243
2.8416731008322807e6,26.85019685420679,22.77400706359117,-0.45330054197956454,14.214858141951218
2.8416731008322807e6,21.119212889419796,2.487489786390326,0.07803992077147012,-20.971825323562204
2.8416731008322807e6,21.791042266652386,21.77480212411603,-0.7636490785214742,-0.3381650595438017
2.8416731008322807e6,2.7211859969727628,2.620407637495371,0.39062863200160947,-0.6129651828098688
2.8416731008322807e6,27.65473046285355,2.6552224932255726,0.532268972590143,-27.521638763441516
2.8416731008322807e6,35.09977083413947,21.990083283959493,-0.23077211993576835,-27.356295326712157
2.8416731008322807e6,48.06380003890926,46.98543331178678,-0.34830400327534744,10.117638805827804
2.8416731008322807e6,13.497687253188356,13.459769731310203,0.534135499949265,-0.8525603982610525
2.8416731008322807e6,796.811739513877,19.155596616115407,-0.7979185583707765,-796.5810471454776
2.8416731008322807e6,19.44669129342358,13.30060480682399,0.7977749223818489,-14.164083775791
2.8416731008322807e6,16.325221509882013,4.061480786132416,-0.4383574023826054,-15.805539344115019
2.8416731008322807e6,515.915393371243,15.552517707939918,-0.08484672551910932,515.6809043501434
2.8416731008322807e6,36.037354900972396,2.5174785911362756,-0.07206248164196742,35.94910369954374
2.8416731008322807e6,241.3504381362946,29.2337187801536,0.20651051949248458,-239.57331034209463
2.8416731008322807e6,6.92794737899249,2.036888271009743,-0.30874418106378554,-6.613789994259806
2.8416731008322807e6,101.69378896871922,23.61585121013323,0.17825461337302945,98.91347992932036
2.8416731008322807e6,111.17807154692163,15.687450121241358,0.6990202013066331,-110.06347655941164
2.8416731008322807e6,350.67283824157005,39.83591447636984,0.19102027088137197,-348.40277396927513
2.8416731008322807e6,19.337568432612585,5.425963803246122,0.12946601539027824,18.560002916020697
2.8416731008322807e6,29.361016411307403,29.260488328749982,0.3086457938628269,-2.405794098022408
2.8416731008322807e6,18.119970722305133,7.321107591449571,0.12797659229177832,-16.574327877879092
2.8416731008322807e6,6.3466658080245635,2.1274429142248708,0.1794327439554519,5.975948244074666
2.8416731008322807e6,4.963180002884316,2.0500811026801813,-0.0669978342956199,4.518388485252688
2.8416731008322807e6,3.7013154964571964,2.0062843049002907,0.5351072518096601,3.062387944282314
2.8416731008322807e6,55.29996764380337,11.9008874177559,0.39179237551014984,-54.00270177324549
2.8416731008322807e6,3.582717466892292,3.3429394820125244,0.3530530836197521,-1.2353030346127798
2.8416731008322807e6,31.100192500966543,19.58991775848301,0.3261426415924101,-24.15244763559964
2.8416731008322807e6,13.332745005282735,9.397060351194433,0.3899865131113431,-9.449616746275613
2.8416731008322807e6,26.940911364790306,10.12775667079579,0.1587232192326576,-24.96409535557648
2.8416731008322807e6,75.26078734860471,42.67463468500729,-0.14829971244058635,-61.992174296667166
2.8416731008322807e6,1.145277503962971,0.5788471769450307,0.07916556562916695,-0.9799639381349916
2.8416731008322807e6,23.311664064905074,6.324755554853241,-0.3069331388423771,22.434949090528814
2.8416731008322807e6,258.91227700191956,9.609352456903821,-0.4548176941686429,258.7334741940881
2.8416731008322807e6,281.3095432833713,28.711809562747142,-0.6046168865277786,279.8398034096508
2.8416731008322807e6,213.67753496992844,12.767954119034304,-0.01299736647691623,213.29570583935273
2.8416731008322807e6,38.06618613726593,7.3275514134033175,-0.33389921118298305,37.352644198740194
2.8416731008322807e6,7.910312029558932,6.600767975675766,0.22386936530404328,4.35233053013628
2.8416731008322807e6,3.279364608414195,3.1208389903891893,0.037301183600473506,1.0016011445122124
2.8416731008322807e6,21.336243781562363,21.2707601219893,-0.3631754062482594,-1.627318703679404
2.8416731008322807e6,107.24099723656047,15.410629459686657,-0.226285508754962,-106.1276720879938
2.8416731008322807e6,21.525027584821704,5.568040608615839,0.1695407438043116,20.791464408365524
2.8416731008322807e6,49.103144866232,17.592365132888105,0.1729230209772447,45.84307605750432
2.8416731008322807e6,77.61587860782285,13.214160642484778,0.28899018773451624,-76.48213553013733
2.8416731008322807e6,31.114965688260355,30.996105985989075,0.011272955345064126,-2.715212037287208
2.8416731008322807e6,7.46809882808405,7.173097579767965,-0.7062818963605877,-1.952008478473044
2.8416731008322807e6,6.925236192591935,3.819858139482844,0.7222158983789392,-5.730269130986832
2.8416731008322807e6,42.72998648881841,8.427705995850701,0.18631686484034946,41.89010387917391
2.8416731008322807e6,6.222772000034611,6.023833977947858,0.44814768622484075,-1.4918040159038901
2.8416731008322807e6,93.90346644921351,3.5106691584619236,0.44410760739863103,93.83671446545563
2.8416731008322807e6,76.3451460874293,28.3601672929233,-0.23249142065570752,-70.88171971649422
2.8416731008322807e6,191.77867766333873,13.956383915431157,0.6459985042141834,-191.26905980904604
2.8416731008322807e6,13.709545845654514,13.155221398935236,-0.6518413351331096,3.802223048811216
2.8416731008322807e6,1212.4855450205903,20.573240191266404,-0.513510260111605,-1212.3108780255677
2.8416731008322807e6,263.2682886977314,18.25690002490662,0.7719417380684633,-262.63334049824226
2.8416731008322807e6,8.909891189447876,0.8100858203808095,0.2060843792832094,8.870031070973425
2.8416731008322807e6,1117.5973852542127,17.549245058789978,-0.17323149367166038,1117.4595739962003
2.8416731008322807e6,384.439054044305,21.75328032301399,0.3971341897973226,383.8228932126167
2.8416731008322807e6,15.710659067112042,11.125367365979324,0.042114059139229824,11.092305247380054
2.8416731008322807e6,182.8955124900923,11.723160393352028,0.4575551557962757,182.51881175014444
2.8416731008322807e6,29.420080109459395,2.660877037199047,0.5990284627209915,29.2932076075797
2.8416731008322807e6,40.254763442628835,10.30608427741574,-0.7544898439599278,38.90567248826541
2.8416731008322807e6,113.76981368606944,12.334201140629881,-0.15766008033134285,113.09908545909872
2.8416731008322807e6,57.03296727510073,4.649842496665146,0.7792735406999137,56.8376728385996
2.8416731008322807e6,31.4451912686095,5.473700500068599,0.14546079953780733,-30.964616870079006
2.8416731008322807e6,4.433308654915924,2.447111045042794,-0.11017766490681592,-3.693742552633804
2.8416731008322807e6,342.4388817601304,27.075655905084393,-0.3098441195019163,341.36665126379825
2.8416731008322807e6,3.5293718337329683,3.30149352564719,-0.26790132842219033,1.2144278155110484
2.8416731008322807e6,2.9084085860754456,2.8785650129878046,0.3871952652674276,0.1130654505779039
2.8416731008322807e6,2.0018555668323907,1.700798545390827,-0.2143538629712327,1.0289618262518714
2.8416731008322807e6,23.037897285757822,1.6503953626662078,-0.2056385811858851,22.977567740514786
2.8416731008322807e6,34.16746366583407,31.64865434378973,0.3085150992766379,12.87140512985777
2.8416731008322807e6,65.53605780142246,21.675008120336386,0.3489593783988746,61.84688450105603
2.8416731008322807e6,9.223829852853996,8.538667567664142,-0.6712012028068625,3.4219413011727404
2.8416731008322807e6,38.0710445993737,11.497509532867314,-0.056710578143407936,36.29322933192158
2.8416731008322807e6,4.849968644296337,4.356660666805111,-0.7320044136305184,-1.9989680396135237
2.8416731008322807e6,391.12597901916286,17.349919649158018,0.15455654295440674,-390.74093446187777
2.8416731008322807e6,77.05016246416605,7.784847727026417,0.13075957961420198,-76.65570157237968
2.8416731008322807e6,10.775197382263192,10.732873185526099,0.08259428876578956,-0.945245996346838
2.8416731008322807e6,38.81174031459872,0.4297916299517037,-0.19171464819826997,38.80875817256123
2.8416731008322807e6,4.810478347747569,4.804593919602312,-0.16446100504411254,0.13975614365223354
2.8416731008322807e6,22.305469757209252,20.74565594892022,0.6973681983900357,-8.164276938877183
2.8416731008322807e6,59.239501771579256,18.17078666802349,0.10159588670622914,56.38369232575963
2.8416731008322807e6,21.80470568036543,7.775866480184899,-0.29035159232465846,-20.368769875535747
2.8416731008322807e6,382.5960181893886,8.40112288215641,-0.2064595691227273,-382.5037014763912
2.8416731008322807e6,181.72333831391305,24.261203489125958,-0.2748872253844363,-180.09630793057767
2.8416731008322807e6,6.421192149681319,1.299125038386852,-0.10836426854306304,6.286671610881904
2.8416731008322807e6,15.502088191900139,15.2842515388399,0.015682323578844973,-2.5876914946815104
2.8416731008322807e6,167.80837802456318,32.203062636817016,-0.4286819876731638,164.6888603512617
2.8416731008322807e6,87.90021404714034,16.301976404346682,0.09756320489344977,86.37519132405015
2.8416731008322807e6,81.14307944395998,18.95506381496169,-0.8008779766658877,78.89393824550795
2.8416731008322807e6,1.4667847668104346,1.3558798138428916,-0.5178345678626571,-0.18680161371627282
2.8416731008322807e6,94.16177816460709,0.8948930642630541,0.30073977361978305,-94.15699224759032
2.8416731008322807e6,556.9854813117738,54.66805081169272,0.43459064549975895,-554.2959784659541
2.8416731008322807e6,7.596165267157218,1.2058404373311848,-0.2988527907225963,7.493221110786735
2.8416731008322807e6,2.063808695851804,1.9537064241422033,0.2974475182294129,0.5863979154449643
2.8416731008322807e6,35.79244883894668,32.941851671754264,-0.011054310588845226,-13.99727402485835
2.8416731008322807e6,56.68352101401053,5.920396841532062,0.2640582373205741,56.37278358420715
2.8416731008322807e6,65.44161975543685,8.114627102920634,-0.5660338328006154,64.93402828175576
2.8416731008322807e6,8.817759684012474,8.735658380628362,0.6587388849396457,-0.998609825418153
2.8416731008322807e6,1.9546648851373325,1.8363259305096986,-0.34988706297612804,-0.5623174666401292
2.8416731008322807e6,59.83521384588036,5.375689456340469,0.6007945161954891,59.59013194145933
2.8416731008322807e6,638.7532980449869,8.291448880510169,0.5714557991102535,-638.699218002558
2.8416731008322807e6,29.866197989405837,8.474776792782698,0.41619106024086444,28.635375423700598
2.8416731008322807e6,2.949974271215119,1.1161116092011287,0.10481575560433143,-2.7268400638861703
2.8416731008322807e6,14.131076038274824,13.562446330360974,-0.34774488714707436,3.951763280998273
2.8416731008322807e6,32.256129601671816,7.988270512556275,0.3582485076066478,31.249113413101334
2.8416731008322807e6,212.032917693506,4.483378050044083,0.32877942460379317,-211.98523394560152
2.8416731008322807e6,36.87172583159496,12.043516797393476,-0.12977856676009905,-34.84897453978837
2.8416731008322807e6,4.7568900911363805,2.820423512789036,-0.09966910751275919,3.827960372922603
2.8416731008322807e6,144.06620200585448,14.066754325837046,-0.15791441759335692,-143.37769019678387
2.8416731008322807e6,95.45854431726562,30.90175108654922,-0.6642451133922821,90.31591355561685
2.8416731008322807e6,801.7808980457933,20.30058003101427,0.10500240000779824,801.5238448705186
2.8416731008322807e6,35.09616914112003,10.429792183423944,-0.453298729565922,33.50738789661869
2.8416731008322807e6,3.6174665598054787,0.36004389559662364,0.07592236217398521,-3.597314067394791
2.8416731008322807e6,200.8920226676079,38.225476803042085,0.5178792943456497,-197.22104222343842
2.8416731008322807e6,0.364729930699335,0.3428075690500261,-0.04036949371121156,-0.062299253024845805
2.8416731008322807e6,28.61834401527755,4.9724053663625725,0.123261361288314,28.182611761264333
2.8416731008322807e6,311.8124207339004,12.703265588136654,0.09961636483556849,311.55351521674737
2.8416731008322807e6,406.6027239906229,17.73490275869966,0.29947262947957654,-406.21564309720804
2.8416731008322807e6,38.13931990666519,2.283568998137559,-0.4846369795973984,38.06767871267829
2.8416731008322807e6,134.8967403486435,16.221694998933337,0.5604914659245644,133.916627113169
2.8416731008322807e6,0.782811299534643,0.288919743789954,0.10102283135997046,-0.7135217585129965
2.8416731008322807e6,38.23307897431074,12.062315372187836,-0.09699855859985687,36.28015252169419
2.8416731008322807e6,156.3873566660936,25.754831698288104,0.4507245552862775,-154.25135596349253
2.8416731008322807e6,3.3487123206331715,3.1723699512794203,-0.5155547690314324,-0.9349579555834334
2.8416731008322807e6,51.46800094592837,21.13647083260866,0.11231225779140791,-46.92741318322496
2.8416731008322807e6,30.280028568125932,20.20977331243123,-0.3091065024151723,-22.54638875555971
2.8416731008322807e6,184.4192907629916,10.238450336609562,0.6786054752381885,184.13358855689143
2.8416731008322807e6,17.949296369816608,17.44919786444422,0.13109427099080603,4.204229816637089
2.8416731008322807e6,388.33103236761224,5.033597889151289,0.45030877915404216,-388.29813393060385
2.8416731008322807e6,33.971345084730814,17.886528889936145,0.8352442077425031,-28.868958038848174
2.8416731008322807e6,11.671440728084056,5.066895039481289,0.43156981640873204,10.50489651646432
2.8416731008322807e6,48.70635154469692,28.917473918232346,-0.4281027759617408,-39.19049771305752
2.8416731008322807e6,7.236717245364515,0.7165332535133531,0.14886729479622227,-7.198923191318675
2.8416731008322807e6,519.3022333448619,8.964158602963378,-0.2989708319194441,-519.2247625392534
2.8416731008322807e6,119.72711597938624,4.874504545420513,-0.6340823853315902,119.62612359224339
2.8416731008322807e6,9.494124844307603,8.45395008137672,-0.21550735353281367,-4.314242825973369
2.8416731008322807e6,123.36392689428848,12.525512492133654,0.6062138466704078,-122.72486504519313
2.8416731008322807e6,108.83887155911049,32.47488333622013,0.2632866670909441,-103.88071329505959
2.8416731008322807e6,218.6295190580029,28.992099467544776,0.2438880111325806,-216.6985355064396
2.8416731008322807e6,542.9486135387488,37.578306725504454,-0.6899947137392278,-541.6461776054442
2.8416731008322807e6,369.29163679392633,8.309125934427389,0.11006289880318686,-369.19811662344824
2.8416731008322807e6,5.306003094599532,1.6455207556766922,-0.21978172854763217,5.038613526986737
2.8416731008322807e6,32.53684006103613,21.95337295560425,-0.43211451020054037,-24.01038637922479
2.8416731008322807e6,20.182709314716114,11.920276233528313,-0.33358610630914926,-16.282735952793253
2.8416731008322807e6,239.4476852897609,18.29455382266483,-0.27057781771132833,238.74760748266894
2.8416731008322807e6,4.128820565282098,3.5376508216432896,-0.024766203789492777,-2.1263989652868043
2.8416731008322807e6,31.822144712430333,6.385837818067767,-0.35714288764573615,31.17262289923641
2.8416731008322807e6,220.96678104871532,61.410391538981834,0.2108100408368621,212.26169625532185
2.8416731008322807e6,18.700271654264338,17.01657459202854,0.3372186775033048,7.746782084243355
2.8416731008322807e6,14.079459156731758,11.956072741232317,0.7780361772738456,-7.393791615895895
2.8416731008322807e6,29.223626038303877,7.100833252565167,0.08276506457720918,-28.347515515296624
2.8416731008322807e6,61.44525244719591,3.8199719931874156,-0.19933153966368164,-61.32599065003507
2.8416731008322807e6,29.626050920012773,13.580271749594552,-0.6786982057729132,-26.3212553094991
2.8416731008322807e6,221.10238651934048,46.56104084725899,0.06711636337625142,216.14421180119876
2.8416731008322807e6,114.23518797524926,23.070323476411104,0.10046004259841709,-111.88126855829859
2.8416731008322807e6,9.514740612826419,7.805169196593843,0.19548682652618918,5.437040338508246
2.8416731008322807e6,104.64202928553058,18.40059425444406,0.492756267282701,103.010288880957
2.8416731008322807e6,69.4174222355468,30.278143071522983,-0.4303773018371595,62.464528633030085
2.8416731008322807e6,42.881578774576845,27.771015379606737,-0.12479405377117943,-32.67376515539691
2.8416731008322807e6,5.106332595238159,2.3612459682505267,-0.39222108829372676,4.509469222481732
2.8416731008322807e6,11.803009706505758,6.945017473631694,-0.6118540638935234,-9.523308512660742
2.8416731008322807e6,3.3076736091678036,1.2750183445394212,-0.30651577458472706,-3.0349762776344447
2.8416731008322807e6,272.14139048166805,4.351108379049267,-0.7065915275691733,272.1056688082456
2.8416731008322807e6,14.209508727093539,13.026445035082794,-0.36684671584019707,-5.663681797240338
2.8416731008322807e6,4.859442943547627,2.233676060436153,0.18288641661565533,-4.3106182314427635
2.8416731008322807e6,164.80272678536548,21.95192177155616,-0.010593116901604879,-163.33414148368726
2.8416731008322807e6,96.92273135151763,5.163908961983143,-0.2037598260535069,-96.78480448295642
2.8416731008322807e6,38.19466045032824,4.474262250461754,-0.38883889074129885,-37.92956457101782
2.8416731008322807e6,43.12592167287025,9.140835348957573,-0.41489888657466445,-42.143897638587084
2.8416731008322807e6,49.92822990817113,24.516912809796743,-0.39839880386924287,-43.49230284122807
2.8416731008322807e6,0.31611872317934153,0.1504405375141848,0.01871220614559745,-0.258744169322025
2.8416731008322807e6,26.023696168017647,6.8637225704543425,0.7548123938304528,-25.09068219421807
2.8416731008322807e6,35.80015720536833,31.892906649204445,-0.8361739139578819,-16.241446197301308
2.8416731008322807e6,3.406766049760451,3.1829559881026723,0.3381893775323346,-1.1620989805201876
2.8416731008322807e6,160.16596552235467,17.64450744844605,-0.4538852784354204,-159.19042639795856
2.8416731008322807e6,2.269660682505235,0.9559019458668598,0.19561345145278167,2.0467893055243396
2.8416731008322807e6,3.1956263371144162,2.41403694803424,-0.19698890566422567,-2.0822220513264282
2.8416731008322807e6,16.341969914511612,16.323539094253107,-0.24097518850332458,-0.7307414616122277
2.8416731008322807e6,33.18856757730278,16.161678111153563,0.1286238604960119,28.987146019695764
2.8416731008322807e6,9.700485779368597,7.278589166519593,-0.30394976353216885,6.404621662674913
2.8416731008322807e6,368.7143284098891,9.91031793259222,0.44553997070860213,368.580836543851
2.8416731008322807e6,7.163667917839562,4.59392025338739,-0.6451938552849013,5.457816379441832
2.8416731008322807e6,4.736017568697406,1.6850938503770871,0.19321263331197946,4.420745412796407
2.8416731008322807e6,4.107676953992719,3.9415637553773957,0.27095264953079395,-1.1196739625312286
2.8416731008322807e6,48.13697647184782,11.71885812728899,-0.5888302266264976,-46.68490277389376
2.8416731008322807e6,30.5505758331646,19.355323950659947,-0.2382739154924019,23.63561600729176
2.8416731008322807e6,199.74627889637537,20.36042989292766,-0.5647721592712039,-198.70505745937083
2.8416731008322807e6,15.276063265232025,10.924142186009359,0.08577246376050467,10.677259454920176
2.8416731008322807e6,2.865989853157089,0.550329551440699,0.24889541477111857,2.7998368337666335
2.8416731008322807e6,7.399906637167527,3.6746599443241443,0.12637210300177212,6.421021929876787
2.8416731008322807e6,21.71744469602058,7.340366346414866,0.6170960255904624,20.429772845539247
2.8416731008322807e6,20.998649479899374,6.008011351500162,-0.5516493285464824,-20.112999840855103
2.8416731008322807e6,10.095565633865682,7.615976705950141,0.4445734650939811,6.611331085057614
2.8416731008322807e6,16.845070586889143,15.192717432979643,-0.07179941106872204,7.2747910570327985
2.8416731008322807e6,49.853493273883664,6.539640480243367,0.6552479283929757,-49.41826124167728
2.8416731008322807e6,30.843745035127604,12.602201266495985,-0.36351218481932085,-28.149227163852537
2.8416731008322807e6,81.31247755567395,17.587748809920043,-0.4805560400069922,-79.38607663774263
2.8416731008322807e6,13.944605960869954,4.561268387354472,0.3778322978008834,13.171716245698182
2.8416731008322807e6,101.63675350228507,34.18275273349322,-0.12784219502258046,95.71594817175604
2.8416731008322807e6,97.74371165982761,25.27516689172284,-0.02006154272225951,94.41921788052251
2.8416731008322807e6,15.219292881204197,1.4086372761367514,0.22189570815206053,-15.152009078760969
2.8416731008322807e6,9.501248893925274,1.9559454973269395,-0.06469317977174784,-9.296979216298897
2.8416731008322807e6,1.3783795857870693,0.8681638223410308,-0.29857436487913225,1.0232669293638752
2.8416731008322807e6,222.48168051227827,23.45573185972536,-0.6247255612384475,221.24087896332642
2.8416731008322807e6,84.06268632557507,12.032505090320106,-0.6017810988831541,83.19484306753915
2.8416731008322807e6,26.425910518469173,25.48255341950999,-0.07503846784402617,6.996612550392003
2.8416731008322807e6,73.74837687133554,12.68860670649849,0.1274490143238992,72.64844188111049
2.8416731008322807e6,54.63492649804526,43.86829666392839,-0.5648363828327467,32.56099969461941
2.8416731008322807e6,26.445452430349548,6.344298853133083,0.7378266651997233,-25.66237397670245
2.8416731008322807e6,139.84519195846516,28.75849928058662,-0.8148382269192405,-136.85376308926405
2.8416731008322807e6,55.176219681179276,12.474912789901872,-0.4310926199273967,-53.74565962329554
2.8416731008322807e6,146.37412958873483,15.967287231734124,0.5217566477209086,145.49965402474191
2.8416731008322807e6,141.9029679165298,12.424329432031854,0.5130142172682253,141.35704849103533
2.8416731008322807e6,24.770513699990033,0.9061774730858332,0.16122294295836453,-24.753205822909763
2.8416731008322807e6,17.020225373546907,1.4297611706814468,0.06727506588925733,-16.95963822805932
2.8416731008322807e6,16.56997826357003,2.4209102558877897,-0.5483114399947435,-16.38269598548699
2.8416731008322807e6,1411.6680070036796,33.42673424684701,0.17490007408248992,-1411.2721831189388
2.8416731008322807e6,161.95199447754925,10.418589796992295,0.2964295796827407,-161.61622329272024
2.8416731008322807e6,21.730507210818956,20.529386328633837,0.2697391172217981,-7.118741561385495
2.8416731008322807e6,3.1069293796104356,1.777425367809051,-0.6682277672421741,-2.4570797469438985
2.8416731008322807e6,11.30150497976395,10.701431257386087,0.3245542887732096,-3.6177407818565888
2.8416731008322807e6,24.062849037024844,23.791677338546656,-0.5037959190203793,3.565527011412374
2.8416731008322807e6,18.263065992560342,13.828759166206659,0.4857318223738641,-11.918853299223159
2.8416731008322807e6,0.3945290501418587,-0.11712673039802202,-0.2871997187997621,0.22237540770832542
2.8416731008322807e6,19.34091204211645,14.895996070293146,0.5773196508282267,-12.322210910200484
2.8416731008322807e6,67.5377802214494,18.1373002412341,0.008317756203206805,65.05674467735886
2.8416731008322807e6,281.7592985762646,1.5843776978387667,0.5589054510242776,281.7542718508382
2.8416731008322807e6,73.51031983953996,11.924864272102038,-0.3564494772794152,72.53569934021144
2.8416731008322807e6,57.716340636879394,21.020411618457036,0.7244681701261892,53.74740382356537
2.8416731008322807e6,13.400333875838559,12.607828775089112,-0.45493664675911255,4.516041874187723
2.8416731008322807e6,449.9142332493377,25.340386097621092,0.4924581649251211,449.1997658032768
2.8416731008322807e6,31.0916350355938,11.902793312344704,-0.41125126333807993,-28.71992606098715
2.8416731008322807e6,14.425725116035732,8.227482895318099,-0.7071651788264398,11.82793252181156
2.8416731008322807e6,217.00580723115146,11.26398350677305,0.586241492120994,216.71245780645776
2.8416731008322807e6,176.222298873277,22.168924121089965,0.6484915228230943,-174.8210710476307
2.8416731008322807e6,30.114348888632883,9.880003954213198,0.4445038799668772,28.443838474294044
2.8416731008322807e6,6.54995360323591,6.164385462665393,-0.02160228752431614,-2.211736289297699
2.8416731008322807e6,9.801839227166322,3.7633664358368826,0.3639932029356289,9.042711664818768
2.8416731008322807e6,5.891209112682636,5.5509355885271745,0.3822477103037249,1.9332215572315834
2.8416731008322807e6,13.79679624988185,6.279794176726492,-0.49560732219381876,-12.274369443718642
2.8416731008322807e6,15.255933932105155,14.992904312020018,-0.3046952502181997,-2.802409897902769
2.8416731008322807e6,25.00705968515078,7.130306780602055,0.38721447564565664,-23.965638407124544
2.8416731008322807e6,19.41877164574749,16.320614361161898,0.7961829968605437,10.492012759210352
2.8416731008322807e6,244.2321868131213,77.36763383027713,0.09816712760375647,-231.6540322857312
2.8416731008322807e6,0.2731329350651863,0.20045004234057012,0.06126678139977519,-0.1437628680845592
2.8416731008322807e6,1.6865856603581317,1.065648425683258,-0.3062742646363318,-1.2669493665438831
2.8416731008322807e6,115.9856022163894,16.557972969047242,-0.254973975154679,114.79729282925973
2.8416731008322807e6,30.565732458543224,12.009092603791414,-0.47377261285764627,-28.103580467123958
2.8416731008322807e6,863.7224600043323,40.044318534335694,0.043115945690995576,-862.7936767327815
2.8416731008322807e6,4.856589205636817,4.853199800664532,-0.012586766701373682,-0.15083759624778667
2.8416731008322807e6,464.78468618925706,21.071590494701823,-0.5878621940503507,-464.3064042290506
2.8416731008322807e6,2.0462465567550137,0.5866353745730333,-0.2246544333785846,-1.9448687086522456
2.8416731008322807e6,14.169209740981117,2.2642310634055782,-0.27223072530608555,-13.984121452834387
2.8416731008322807e6,15.924958144833296,15.881388682451712,-0.8272124112233862,0.8315678314514938
2.8416731008322807e6,2.127150425887447,0.5512486515448892,0.6361939525641735,-1.950935958263075
2.8416731008322807e6,4.134678946043451,1.635770827765736,-0.17249496437315281,3.792106179045021
2.8416731008322807e6,315.20895715553036,5.600275679480031,0.8487984570488123,315.1580446769051
2.8416731008322807e6,2.425373956298099,2.0304038298588765,-0.2091120340989642,-1.3062049122471162
2.8416731008322807e6,32.08665312615165,28.172109936383332,0.07831236362726555,-15.358040166115346
2.8416731008322807e6,59.36613830855926,28.250104362527363,-0.5821508769328086,52.21035416020261
2.8416731008322807e6,173.40515665973925,12.302378879171902,0.7715855618104984,172.9664547992553
2.8416731008322807e6,165.25590133844577,12.105563301925322,-0.29881576045474534,164.8116166217251
2.8416731008322807e6,501.32266073261695,36.1578357113159,-0.2547819172029357,-500.0169458797159
2.8416731008322807e6,54.02555337366506,27.864751071582205,-0.4173407351549084,46.28317071852653
2.8416731008322807e6,17.183801154438417,12.753537183785877,-0.1821855952812251,-11.514648054801416
2.8416731008322807e6,61.06211050878473,11.351723641972768,0.039809776073186996,-59.99756766173978
2.8416731008322807e6,25.393855022645297,7.367402512229552,-0.4868484963796864,-24.29654773163246
2.8416731008322807e6,376.6538066059097,24.49890410226085,-0.8038647023512867,-375.8553412285777
2.8416731008322807e6,16.439231180923933,11.88018097657863,0.13345093620985546,11.361417721007602
2.8416731008322807e6,62.31353990433006,15.094396907949053,-0.7490336817689228,-60.453001463429494
2.8416731008322807e6,64.01762987640154,11.0862384913526,-0.44686000177732094,63.04873168624095
2.8416731008322807e6,9.806592242512618,5.485913723251137,0.7851763001777573,8.089962930050586
2.8416731008322807e6,20.815407854610502,20.668762234904385,-0.8656107620908535,-2.3074206030377917
2.8416731008322807e6,72.40310024800395,36.007113685719254,0.20210664316399807,-62.81437608104525
2.8416731008322807e6,14.762082676987967,14.644818058703894,0.3260247092619549,-1.8254032098797248
2.8416731008322807e6,189.04670501071286,13.01868569669178,-0.11442556879216643,-188.59784570595562
2.8416731008322807e6,16.2859871446235,16.254377280123677,-0.5832053669120784,0.8236916961133345
2.8416731008322807e6,14.236038905791306,13.52283718152107,0.22659074069833166,-4.442559501627957
2.8416731008322807e6,80.25491788842602,7.2263520027165935,-0.19622347597175518,-79.92861301410355
2.8416731008322807e6,834.6335020601846,16.748989115240988,0.7327506989226913,-834.4651024466384
2.8416731008322807e6,47.95818280677963,9.077362007011912,-0.6800998011904966,-47.08626404146512
2.8416731008322807e6,58.930567994198896,1.398747455343269,0.2836245166065478,58.913198069775945
2.8416731008322807e6,33.15511862622123,20.839988109371234,0.3429273071822196,25.78428179302376
2.8416731008322807e6,18.38178029470703,14.55039975784363,-0.6107950098708618,11.215731948729005
2.8416731008322807e6,1135.3280345504365,21.310966449513188,0.15776518294920597,1135.1279900765783
2.8416731008322807e6,125.0954430413092,25.40692558535455,-0.3052434190436823,122.48777419994543
2.8416731008322807e6,36.34146198900517,26.733992831691687,-0.2607596178375386,-24.61539134759124
2.8416731008322807e6,18.265866878520022,11.661160303480244,0.4248259576300485,-14.052357670728249
2.8416731008322807e6,75.82640876360227,4.450868209135576,-0.3611494897539568,-75.69473964032014
2.8416731008322807e6,36.82707092721627,33.84779124310126,-0.46416104898605437,14.502921621599558
2.8416731008322807e6,21.406946755473818,3.084134567573305,-0.42815531506792276,-21.179050176695124
2.8416731008322807e6,17.220312481422365,16.75922271455569,-0.7500574381659758,-3.885232271203789
2.8416731008322807e6,116.73539554189875,22.893256010973325,0.8377232720356401,-114.46545164921633
2.8416731008322807e6,26.019650580388085,26.019302536271912,0.07878065305629417,-0.04365157669632974
2.8416731008322807e6,2.964184719511934,0.4118610543709629,-0.15142517906777248,2.929817731263327
2.8416731008322807e6,141.15535456029565,19.34511177792713,0.15933949556363533,139.82333632933893
2.8416731008322807e6,72.5894447213669,6.959643640574255,-0.007799613951320735,-72.25497065613283
2.8416731008322807e6,8.53432363458622,5.803673559670694,0.1702584154798294,-6.254043906513172
2.8416731008322807e6,55.06085052646233,7.973710658826178,0.7470185176571109,54.475216037763694
2.8416731008322807e6,9.832899022642323,8.852016855483377,-0.6904965521855975,-4.223850765727678
2.8416731008322807e6,293.1152186482857,34.795365842288135,0.023987619698858438,291.0426143088461
2.8416731008322807e6,376.8391425799773,12.276690782857319,-0.5239933129571531,376.6387362909484
2.8416731008322807e6,80.39797937965987,14.61835937201155,0.704303130172159,-79.05461792143308
2.8416731008322807e6,57.74581288638637,25.55061131806869,-0.06216968916753137,-51.785435231465186
2.8416731008322807e6,1190.6100524905096,30.224371167301236,0.2472503061203616,-1190.2263286225361
2.8416731008322807e6,34.8081139514301,3.3761285247116772,-0.061987211199818995,34.643797578008375
2.8416731008322807e6,17.024400428956234,10.291407550635409,-0.18492556926373477,-13.559975778960748
2.8416731008322807e6,167.14202430572647,12.39343998015268,0.6288582565905617,-166.68069315840853
2.8416731008322807e6,218.2749897679177,26.216026227766964,0.44128087157219315,-216.69445400886934
2.8416731008322807e6,29.489806416280594,12.96245649075086,-0.5667773480150807,-26.481921524558448
2.8416731008322807e6,5.317202021412214,4.889328592288596,0.217694612800854,2.075984660034085
2.8416731008322807e6,9.866284905894783,3.3945753424076677,-0.18137972005015215,9.261616353863916
2.8416731008322807e6,36.52729777362644,22.401088856752402,-0.5940685933905463,-28.845654493899165
2.8416731008322807e6,17.6106695372722,16.500266713689413,0.27316512007908145,6.147541032420404
2.8416731008322807e6,5.41896023161785,5.195761430061089,-0.5494992256396765,-1.4343095045235976
2.8416731008322807e6,2.0546645837228485,1.8848276756451214,0.6052400554498724,0.5410689974543285
2.8416731008322807e6,135.29283923268554,9.945519142625967,-0.7158291349922361,-134.92485532797303
2.8416731008322807e6,4.998722675535088,4.715764870303372,0.4738104249325002,1.5856524701669623
2.8416731008322807e6,8.061413832298026,2.440256043520661,-0.46623358811721766,-7.6683876831403195
2.8416731008322807e6,8.953857285552017,2.365114235164455,0.22376333783463306,-8.63236496640964
2.8416731008322807e6,402.9319546550256,16.72832871190073,-0.10601304143739622,-402.5845275986911
2.8416731008322807e6,341.18938133472363,37.09780859272374,0.28335784555590604,-339.166413787569
2.8416731008322807e6,222.53902898338498,26.197149020229524,0.37114472738883747,-220.99135968555666
2.8416731008322807e6,100.41009524976853,9.582993760910053,-0.005088904612108534,-99.95170550195222
2.8416731008322807e6,21.35506885017564,12.6606936851838,0.5117774132414625,-17.189353823951173
2.8416731008322807e6,9.217193062270773,3.8796802899729865,-0.531914290107552,-8.343368383497577
2.8416731008322807e6,6.131450976768706,2.8897195467016994,0.28496924069613233,-5.399352234646772
2.8416731008322807e6,54.00992295540074,19.42045082316916,-0.27542055353022676,50.39674603575001
2.8416731008322807e6,32.24339859109056,14.968568708302683,0.6188519360596746,28.551457507629927
2.8416731008322807e6,9.201387727852646,9.056817593888429,-0.2691607498667633,-1.5991071508943586
2.8416731008322807e6,31.84876273812619,6.25320864483515,-0.02774374905204163,31.228677523680105
2.8416731008322807e6,343.65078348022325,11.407752004252366,-0.7491866761478284,-343.46055508617746
2.8416731008322807e6,13.819299956974227,12.154803919882887,-0.25518459562817586,-6.569526146700497
2.8416731008322807e6,376.7796724557535,46.980194736293576,0.16587131225693977,-373.8391972026375
2.8416731008322807e6,5.53245781627669,2.345979078803987,-0.31424744930409065,-4.999572000811767
2.8416731008322807e6,41.44439798421814,4.183276521998667,-0.11779094925233095,41.23244410785071
2.8416731008322807e6,36.04638187429246,18.05382366647915,-0.5704879078844579,31.194000076840968
2.8416731008322807e6,23.27000527158641,12.904009961078634,-0.5122199233291955,19.357357852098186
2.8416731008322807e6,33.6016650812946,10.93007186103203,0.3494972457225691,31.772209193309187
2.8416731008322807e6,27.156192344804804,4.9214180915507235,-0.2933204958728133,-26.704725981048625
2.8416731008322807e6,46.745599757207955,25.07034805546963,0.3026701878948378,39.45284699227738
2.8416731008322807e6,1244.9803039013082,16.65615193583296,-0.5440714713237885,1244.8687576170905
2.8416731008322807e6,14.870011750549548,11.53935024470293,0.7822531155285294,-9.34551900403621
2.8416731008322807e6,80.13944282718023,42.27477253621126,-0.17330547163097815,-68.08181746161006
2.8416731008322807e6,9.231427823575805,6.0380368995347045,0.6725728053378329,-6.949749339599725
2.8416731008322807e6,6.971208167021504,4.901238650741904,0.37051995684750705,-4.9425011844205695
2.8416731008322807e6,248.53842006462105,28.52713082573048,0.05294573808358859,-246.89580039323977
2.8416731008322807e6,8.332821983037444,5.466932264919873,0.2977980893579377,6.280914751033082
2.8416731008322807e6,49.70594181090502,21.911205738141895,-0.28221531476336226,-44.61490859484088
2.8416731008322807e6,8.475183823236787,7.202122811269206,-0.19572058148755672,4.46204676163669
2.8416731008322807e6,25.69112803896752,5.13738708860417,0.40719706451575005,-25.168740619409547
2.8416731008322807e6,20.293775752332877,3.705199902510647,0.4165391750229222,19.948065647678227
2.8416731008322807e6,478.1711529543807,14.060708872307446,0.656368549980443,-477.9639182658628
2.8416731008322807e6,641.5356515626389,16.52000860667285,-0.4648939781842746,641.3227388882482
2.8416731008322807e6,9.226341113801098,2.9590471813995256,0.46741587800764645,-8.725877177880417
2.8416731008322807e6,46.787940033020504,30.497599598432508,0.008250819672868816,-35.482357351100354
2.8416731008322807e6,52.70041770697377,13.413826905372872,0.2652712059606188,50.9639373030528
2.8416731008322807e6,457.34008706643345,24.250595774818013,0.6422797598949415,456.69622433211475
2.8416731008322807e6,4.6004764860942755,4.178981585936813,0.2315411691349896,-1.9070620048920752
2.8416731008322807e6,10.00451665237049,8.841535299217995,-0.44288748727440774,4.659555523207797
2.8416731008322807e6,550.0990248670394,104.34043681760909,0.22160290137919297,540.11290606366
2.8416731008322807e6,40.89232010123097,10.246909846285073,-0.6123680809583975,39.58279534339468
2.8416731008322807e6,535.6951875919646,7.933265570461635,0.24562643213891236,535.6363757011228
2.8416731008322807e6,25.892240752654807,6.6805379759238,0.14638550939231668,25.014937833788792
2.8416731008322807e6,29.23934000710276,5.0176513857860225,-0.21737132624952582,28.804599082927787
2.8416731008322807e6,16.09171663304581,11.323774623374616,-0.22429866892850742,-11.430448923134076
2.8416731008322807e6,2.162830451735262,0.8575459133298002,0.06705757850200518,-1.9819066200631603
2.8416731008322807e6,118.4108833184008,34.21250038189146,0.15784585779188484,113.36051865860611
2.8416731008322807e6,23.464201832620788,15.471621805997271,0.3213108442165264,-17.63758616351862
2.8416731008322807e6,25.28628387520829,12.18980613513025,-0.3674967688870461,22.150840271430283
2.8416731008322807e6,5.49724079163144,5.457491861002789,0.6427530488813722,0.11093884089306663
2.8416731008322807e6,56.74941054488174,16.288728508198055,0.5841681565442258,-54.35827138847067
2.8416731008322807e6,29.040750039579166,10.858124415805179,0.6461212245513424,-26.926544976944157
2.8416731008322807e6,9.63563146335223,8.890791202659393,-0.21189538778657663,3.7073340600615685
2.8416731008322807e6,9.909327003596141,8.148436641077291,0.196093604807323,-5.634650767235037
2.8416731008322807e6,11.440068899930928,6.761766931505402,0.30723299812421484,-9.22221731928013
2.8416731008322807e6,24.388255635925645,7.652724046995809,-0.40765715086304327,-23.152681124896567
2.8416731008322807e6,217.91754943012808,21.09007267492757,-0.011007171561523817,-216.89457591890294
2.8416731008322807e6,24.297147989389423,24.018796998928753,-0.21117895132209966,-3.65980799948028
2.8416731008322807e6,20.423291139152436,12.267323597212858,-0.5698440518437431,16.31835991980889
2.8416731008322807e6,27.656574490178194,8.276924852078501,0.5834334261393915,26.382346994933627
2.8416731008322807e6,790.7696015504911,27.43064684874664,0.42356825601038445,-790.293573894989
2.8416731008322807e6,32.751918798106054,31.64175508377207,-0.4550265359022501,8.442184020023607
2.8416731008322807e6,32.24941103348015,15.151470199169914,0.4476550588096404,28.46483914864687
2.8416731008322807e6,284.4367980101189,29.890527393489922,-0.09002959682420249,-282.8618573244895
2.8416731008322807e6,11.273545956838149,1.2292729933673234,-0.18958287896017556,-11.204275285832846
2.8416731008322807e6,142.9936747860845,13.825634845582183,-0.44116377808846846,-142.32300665902903
2.8416731008322807e6,33.157017325635444,12.078759351894861,-0.7719761289840116,-30.86884227352526
2.8416731008322807e6,93.73638011550233,24.568189015541066,-0.038179251631797834,90.45939192808747
2.8416731008322807e6,38.70935228540843,25.21818240327395,-0.6216817063995648,29.360870942241927
2.8416731008322807e6,130.02242587649633,38.755956453109675,0.525325808876611,-124.11092257737906
2.8416731008322807e6,3.490108349412843,2.8649095599216974,-0.12699430203768458,-1.9867113407237742
2.8416731008322807e6,13.832170183430494,13.705472287207321,0.0550044854532715,-1.8643861924386125
2.8416731008322807e6,1162.266385781537,25.141666894874696,0.23114633758818856,-1161.994399588395
2.8416731008322807e6,583.084817985759,20.482469345032477,0.3100627464750281,582.7248641306708
2.8416731008322807e6,7.674893575185963,1.751705625481034,-0.055437887661658775,7.471441991523487
2.8416731008322807e6,21.735554175753684,13.502539855388365,0.7944510488834081,17.013952518791754
2.8416731008322807e6,12.725556089350079,3.178873447733084,0.1499817629848462,12.320797330419197
2.8416731008322807e6,222.11355016691732,4.350846244869201,0.15507360695878136,222.07085638795925
2.8416731008322807e6,59.43135318367663,7.694179694103736,0.6001502566453327,58.928050703779434
2.8416731008322807e6,32.53923695358623,4.755993185811879,0.2156133215523468,-32.18891084261337
2.8416731008322807e6,216.24441626046547,35.8357337542453,-0.1676843642829699,-213.2543308635918
2.8416731008322807e6,1480.568272320451,26.266679186388046,-0.3099408389766779,1480.3352203143586
2.8416731008322807e6,41.15342875951616,9.955233500016329,-0.469494621185837,39.928280697087395
2.8416731008322807e6,5.110194623869544,3.0502304736390533,0.6805968551641229,4.041901912744738
2.8416731008322807e6,29.897353459192523,8.410634677376343,0.32928136033361444,-28.687881447979784
2.8416731008322807e6,462.137123266339,45.13531838932579,-0.2347853538871788,-459.9276667157774
2.8416731008322807e6,131.53267007368353,17.555673640576632,-0.5495805828360462,-130.35463007089933
2.8416731008322807e6,50.654537835252995,1.1460038200102964,-0.10095173884236333,-50.64137327614685
2.8416731008322807e6,23.75600195817779,9.770595291373702,0.11603512987188362,21.653166801596683
2.8416731008322807e6,7.594211273733778,4.89007641844544,0.5315302198296503,5.785038730836371
2.8416731008322807e6,57.59998045583097,5.485082952011357,-0.5085634214688949,-57.335878616866154
2.8416731008322807e6,1.0992151829509096,1.0165560838960759,-0.00804611921286313,0.4059839980704747
2.8416731008322807e6,27.93471844816721,3.708669712768587,-0.3961775141286125,27.684423546775626
2.8416731008322807e6,53.097627524313744,17.59643106245621,-0.15582459398994306,50.096800110095806
2.8416731008322807e6,20.878856417875852,1.2946398735389533,-0.0708873221740801,20.838318739852156
2.8416731008322807e6,584.658327997607,30.537116482946324,0.1202653140602085,583.8602748518849
2.8416731008322807e6,76.70220255624699,19.619332334792162,0.745630715091901,-74.14677141017827
2.8416731008322807e6,10.347445702986485,4.9098950753316615,-0.10669277757441999,9.10720481688541
2.8416731008322807e6,15.881305988875766,14.243558720781348,0.413248055813249,7.0111440524583015
2.8416731008322807e6,2318.112975175853,22.060919245671247,0.4069263435843393,-2318.0079607136017
2.8416731008322807e6,331.97167447344054,12.909589063061329,-0.432733274702258,-331.7202705666868
2.8416731008322807e6,45.49026132747987,14.030005224792975,0.29472348317075986,43.27153760964775
2.8416731008322807e6,336.394613884347,17.564176774512372,-0.11554730597360843,335.935726878599
2.8416731008322807e6,23.268891304112678,18.968820487303617,-0.8508016695169244,13.449583204033067
2.8416731008322807e6,332.79578629585666,20.652037610989545,-0.7626837225116871,-332.15348414901683
2.8416731008322807e6,148.40449575385628,6.990238832289981,-0.45411222667155443,148.23904581151854
2.8416731008322807e6,27.459104613906884,24.45406917212965,-0.7581131429238688,-12.46660304913519
2.8416731008322807e6,37.71274011125499,14.275913958341201,0.4479496066140592,-34.90327188822037
2.8416731008322807e6,142.9944926303829,21.143188957431178,0.6816645950606116,-141.42105860412312
2.8416731008322807e6,6.1205048682872025,5.73427947753472,0.6785278351434091,2.0268741187323642
2.8416731008322807e6,157.73989398545135,23.734426151612194,-0.8392833509256922,155.9417736632874
2.8416731008322807e6,18.38335996930141,14.619803041529934,-0.7176773442022903,-11.121340837210422
2.8416731008322807e6,123.67967081410279,1.6939192903669085,0.47828802811426296,123.66710496605276
2.8416731008322807e6,492.72802500051046,14.194882435443914,0.34496955959088016,-492.5233831297258
2.8416731008322807e6,71.13272175888554,11.93444314946401,0.1814830831458731,-70.12410595101925
2.8416731008322807e6,33.09026648800314,15.900984502369655,-0.3063350835281207,-29.017590990967243
2.8416731008322807e6,129.94261861285523,30.38279595233965,0.522221188226882,-126.33957070971474
2.8416731008322807e6,2.4937828197758014,2.4210396871018722,0.22401373391483043,0.5452865601719261
2.8416731008322807e6,33.6049888802699,16.395485678181288,0.11002381931755577,29.333619309229444
2.8416731008322807e6,209.94984714202806,18.653416894381117,0.11983764323610424,-209.1194969199779
2.8416731008322807e6,125.792608563649,24.405855270168527,-0.7235847121892149,-123.40016621926935
2.8416731008322807e6,449.856363359397,26.862367136173347,0.33934384246024285,-449.053488721043
2.8416731008322807e6,17.349824907557696,16.871201231909243,-0.05976942185697415,-4.045419747262869
2.8416731008322807e6,204.89775248203668,30.41094544592986,-0.6033173767716976,-202.62746451904673
