8.774114611461148e6,781.8804931640625,-14.562949180603027,20.113996505737305,-781.4837036132812
8.774114611461148e6,157.90298461914062,-44.67947006225586,41.671749114990234,145.59169006347656
8.774114611461148e6,649.9224243164062,-13.419478416442871,32.28951644897461,648.978271484375
8.774114611461148e6,821.7254638671875,-11.023245811462402,1.255314826965332,821.6483154296875
8.774114611461148e6,184.37677001953125,-2.5768606662750244,30.48600196838379,-181.8107147216797
8.774114611461148e6,65.16131591796875,20.792085647583008,9.080970764160156,61.05405807495117
8.774114611461148e6,118.53114318847656,35.62031555175781,18.74815559387207,-111.47065734863281
8.774114611461148e6,47.89695358276367,15.219388961791992,24.121929168701172,-38.43172073364258
8.774114611461148e6,105.89756774902344,29.44038963317871,19.59046173095703,99.800537109375
8.774114611461148e6,325.5281677246094,-11.544256210327148,-38.28287124633789,-323.0574645996094
8.774114611461148e6,47.26129913330078,22.5891170501709,-22.566909790039062,34.79185104370117
8.774114611461148e6,65.96708679199219,23.344867706298828,28.644542694091797,-54.612632751464844
8.774114611461148e6,190.79440307617188,-38.347808837890625,2.251648426055908,186.87765502929688
8.774114611461148e6,635.7177734375,23.658462524414062,46.51566696166992,633.5692749023438
8.774114611461148e6,28.650033950805664,-27.053316116333008,-3.1876580715179443,8.669339179992676
8.774114611461148e6,38.710533142089844,-13.20797061920166,-36.206905364990234,3.080752372741699
8.774114611461148e6,149.52978515625,5.7497477531433105,30.049808502197266,146.3539581298828
8.774114611461148e6,32.82644271850586,-12.055488586425781,-21.97208595275879,21.115020751953125
8.774114611461148e6,267.1988220214844,4.189257621765137,50.59000778198242,-262.3255615234375
8.774114611461148e6,297.2926025390625,38.700992584228516,-20.587312698364258,-294.0368347167969
8.774114611461148e6,40.717350006103516,-22.149280548095703,11.482261657714844,-32.12236022949219
8.774114611461148e6,57.15195083618164,-33.55902862548828,10.666701316833496,44.974822998046875
8.774114611461148e6,53.41677474975586,12.442737579345703,50.500247955322266,12.026269912719727
8.774114611461148e6,1872.0784912109375,16.245285034179688,37.140316009521484,-1871.6385498046875
8.774114611461148e6,775.7859497070312,-22.149822235107422,-24.668073654174805,-775.0748901367188
8.774114611461148e6,29.610275268554688,26.00645637512207,-13.432355880737305,-4.047293663024902
8.774114611461148e6,2265.11328125,-6.521994590759277,-2.0179247856140137,-2265.102294921875
8.774114611461148e6,109.84586334228516,22.071456909179688,35.90840530395508,-101.41956329345703
8.774114611461148e6,189.94589233398438,-22.012155532836914,22.404212951660156,-187.32147216796875
8.774114611461148e6,190.34580993652344,-6.3384623527526855,-40.706119537353516,-185.82447814941406
8.774114611461148e6,1781.4781494140625,-23.13046646118164,6.928765773773193,1781.3134765625
8.774114611461148e6,37.7894172668457,-14.908946990966797,-34.314701080322266,-4.963936805725098
8.774114611461148e6,49.11967468261719,-16.42837142944336,-2.8621842861175537,-46.16313552856445
8.774114611461148e6,44.89151382446289,-17.43827247619629,21.767253875732422,35.12431335449219
8.774114611461148e6,45.284454345703125,32.03031921386719,-29.465545654296875,-12.365208625793457
8.774114611461148e6,1479.0648193359375,-33.215641021728516,-33.97447967529297,-1478.30029296875
8.774114611461148e6,50.16183853149414,-15.087705612182617,-16.520475387573242,-44.85555648803711
8.774114611461148e6,82.76741027832031,26.796875,-27.942462921142578,73.12979125976562
8.774114611461148e6,908.5756225585938,5.529379367828369,11.13928508758545,908.488525390625
8.774114611461148e6,724.2501831054688,23.0958251953125,-12.75152587890625,-723.7670288085938
8.774114611461148e6,38.36775588989258,-29.265310287475586,-23.260440826416016,8.42343807220459
8.774114611461148e6,352.3149108886719,20.383129119873047,23.23487091064453,-350.9513244628906
8.774114611461148e6,41.47817611694336,19.794221878051758,34.2364616394043,-12.364006996154785
8.774114611461148e6,600.5215454101562,58.44589614868164,-13.72591781616211,597.510009765625
8.774114611461148e6,229.0633544921875,-34.7841682434082,13.759462356567383,225.98037719726562
8.774114611461148e6,17.9919490814209,13.767683029174805,-8.393633842468262,-7.751399040222168
8.774114611461148e6,31.239892959594727,11.257521629333496,-0.447220116853714,-29.07533836364746
8.774114611461148e6,24.587621688842773,-9.73192310333252,-19.338659286499023,11.49927043914795
8.774114611461148e6,466.1639404296875,36.116783142089844,33.185768127441406,-463.572509765625
8.774114611461148e6,323.7972412109375,-29.674575805664062,23.214723587036133,321.5921936035156
8.774114611461148e6,95.45681762695312,26.862369537353516,-2.9687464237213135,91.53130340576172
8.774114611461148e6,924.2144775390625,-26.681095123291016,40.48353576660156,922.9398193359375
8.774114611461148e6,486.11773681640625,-10.234382629394531,50.62370300292969,483.3625183105469
8.774114611461148e6,41.9349365234375,-35.853370666503906,-0.8256087303161621,-21.651077270507812
8.774114611461148e6,100.16360473632812,-36.552188873291016,-13.32647705078125,-92.27928161621094
8.774114611461148e6,48.49554443359375,11.19178295135498,33.10527038574219,-33.57051086425781
8.774114611461148e6,36.266441345214844,-23.81795310974121,23.1481876373291,14.439441680908203
8.774114611461148e6,57.93952178955078,48.1957893371582,30.276185989379883,-10.671578407287598
8.774114611461148e6,826.039306640625,22.71828269958496,-25.68539047241211,-825.3250732421875
8.774114611461148e6,54.60108947753906,-19.859268188476562,-16.920495986938477,47.9266242980957
8.774114611461148e6,22.193761825561523,-17.066692352294922,10.214152336120605,9.661173820495605
8.774114611461148e6,1819.4700927734375,-21.45281219482422,33.25519943237305,1819.0386962890625
8.774114611461148e6,151.40863037109375,-41.54585266113281,28.348154067993164,142.79800415039062
8.774114611461148e6,307.8581237792969,-34.03489303588867,8.874417304992676,-305.8363342285156
8.774114611461148e6,101.67106628417969,27.372621536254883,41.644935607910156,-88.5992202758789
8.774114611461148e6,59.13309097290039,35.31228256225586,47.35161209106445,1.9914703369140625
8.774114611461148e6,430.2348937988281,-15.342098236083984,23.587913513183594,-429.3095397949219
8.774114611461148e6,90.16487884521484,-55.713172912597656,-43.42732238769531,-56.00170135498047
8.774114611461148e6,175.6500244140625,-37.952674865722656,-7.777401924133301,171.3137969970703
8.774114611461148e6,1651.1656494140625,9.737088203430176,-15.703707695007324,-1651.0611572265625
8.774114611461148e6,79.2228012084961,42.35092544555664,-5.900673866271973,-66.66490173339844
8.774114611461148e6,109.81591796875,-25.06544303894043,-26.760025024414062,103.49655151367188
8.774114611461148e6,23.145694732666016,21.89200210571289,-7.212945938110352,0.9016200304031372
8.774114611461148e6,53.476470947265625,-12.868273735046387,19.273927688598633,48.156333923339844
8.774114611461148e6,718.8596801757812,4.445899963378906,-12.381502151489258,718.73681640625
8.774114611461148e6,98.57928466796875,-30.332780838012695,18.732234954833984,-91.8873062133789
8.774114611461148e6,402.2392883300781,-20.182907104492188,46.62746810913086,-399.0129699707031
8.774114611461148e6,44.34076690673828,23.978832244873047,5.833727836608887,36.7894401550293
8.774114611461148e6,43.93685531616211,-27.62225914001465,-34.073883056640625,-1.6747146844863892
8.774114611461148e6,34.524620056152344,-6.203996181488037,32.744022369384766,8.812774658203125
8.774114611461148e6,53.378990173339844,8.932770729064941,33.517093658447266,40.52779769897461
8.774114611461148e6,43.393951416015625,1.6367803812026978,26.529172897338867,34.24814224243164
8.774114611461148e6,72.17304992675781,17.314064025878906,-12.546791076660156,68.90664672851562
8.774114611461148e6,87.50959777832031,26.594928741455078,-33.89759826660156,76.14439392089844
8.774114611461148e6,391.59808349609375,-32.831565856933594,43.17929458618164,-387.818359375
8.774114611461148e6,353.1634826660156,-3.891352415084839,-32.281036376953125,-351.65838623046875
8.774114611461148e6,1434.0694580078125,-4.166769027709961,17.198041915893555,-1433.958984375
8.774114611461148e6,55.7351188659668,4.499781131744385,-31.46231460571289,45.745540618896484
8.774114611461148e6,629.3060913085938,37.13892364501953,11.06663990020752,-628.10888671875
8.774114611461148e6,280.40234375,22.52978515625,-15.44920825958252,-279.06195068359375
8.774114611461148e6,376.2568054199219,1.596321702003479,46.790428161621094,373.32781982421875
8.774114611461148e6,17.506813049316406,2.162325382232666,-17.13756561279297,2.1196160316467285
8.774114611461148e6,1382.868896484375,33.908226013183594,-6.106809616088867,1382.4383544921875
8.774114611461148e6,142.94290161132812,30.35285758972168,-16.979455947875977,-138.63424682617188
8.774114611461148e6,245.19656372070312,-0.9379479885101318,-37.343265533447266,242.326904296875
8.774114611461148e6,194.429931640625,8.201168060302734,-34.76993179321289,191.1103515625
8.774114611461148e6,54.190120697021484,14.68039321899414,-0.9989335536956787,-52.119415283203125
8.774114611461148e6,50.03834915161133,-28.43818473815918,-2.625145673751831,-41.04376220703125
8.774114611461148e6,78.79896545410156,-2.0142059326171875,-12.907651901245117,-77.68518829345703
8.774114611461148e6,48.89931869506836,16.91990852355957,-12.115654945373535,-44.209129333496094
8.774114611461148e6,127.67013549804688,-35.25431823730469,36.100059509277344,117.26021575927734
8.774114611461148e6,72.92276000976562,30.52994155883789,-17.714933395385742,-63.78251266479492
8.774114611461148e6,48.865848541259766,39.89500427246094,9.290159225463867,-26.576845169067383
8.774114611461148e6,156.473876953125,-22.372894287109375,-13.899275779724121,-154.2294158935547
8.774114611461148e6,2095.47265625,-30.319190979003906,13.909539222717285,-2095.206298828125
8.774114611461148e6,164.7941436767578,29.800926208496094,-17.77101707458496,-161.08872985839844
8.774114611461148e6,31.908193588256836,24.853958129882812,-17.773788452148438,-8.993446350097656
8.774114611461148e6,63.67237091064453,-17.425737380981445,-33.882022857666016,50.979400634765625
8.774114611461148e6,406.1102600097656,54.1182861328125,-21.416833877563477,401.9134826660156
8.774114611461148e6,31.9022216796875,14.46896743774414,15.233268737792969,-23.931659698486328
8.774114611461148e6,99.58146667480469,6.342177391052246,-0.9524280428886414,99.35650634765625
8.774114611461148e6,94.203857421875,-27.485403060913086,-40.205604553222656,80.61516571044922
8.774114611461148e6,49.707401275634766,-20.265663146972656,9.301362991333008,-44.384559631347656
8.774114611461148e6,25.56290054321289,16.50090980529785,-3.0677783489227295,19.187149047851562
8.774114611461148e6,130.60972595214844,-2.884796380996704,-23.502748489379883,128.43121337890625
8.774114611461148e6,951.3523559570312,29.27251625061035,-15.438980102539062,-950.774658203125
8.774114611461148e6,479.42919921875,23.288236618041992,-22.78733253479004,478.3169860839844
8.774114611461148e6,59.577781677246094,-37.44468307495117,-9.886229515075684,45.233245849609375
8.774114611461148e6,12.11007308959961,0.2555440068244934,0.9481155872344971,11.919134140014648
8.774114611461148e6,17.009525299072266,-12.562895774841309,11.181995391845703,1.6842482089996338
8.774114611461148e6,141.0504608154297,29.150226593017578,30.912456512451172,134.4852752685547
8.774114611461148e6,248.7262725830078,-43.997718811035156,15.231156349182129,244.3222198486328
8.774114611461148e6,387.93817138671875,9.715110778808594,-6.387753963470459,387.75921630859375
8.774114611461148e6,38.04000473022461,-31.610523223876953,-4.476279258728027,20.59504508972168
8.774114611461148e6,389.47998046875,41.817222595214844,1.082735300064087,387.2223815917969
8.774114611461148e6,143.77305603027344,34.00700759887695,-10.82748794555664,139.26002502441406
8.774114611461148e6,143.70318603515625,49.0688591003418,-13.065204620361328,-134.41921997070312
8.774114611461148e6,172.17970275878906,-57.66912841796875,-11.899585723876953,161.7865753173828
8.774114611461148e6,289.5146484375,-26.59820556640625,16.794567108154297,287.7943420410156
8.774114611461148e6,108.48194885253906,27.73746109008789,-34.31437301635742,99.08514404296875
8.774114611461148e6,33.066314697265625,-0.13335955142974854,-27.87165641784668,17.689268112182617
8.774114611461148e6,180.8761749267578,-19.470531463623047,8.657382011413574,179.60655212402344
8.774114611461148e6,119.38551330566406,-12.434615135192871,-2.0848968029022217,-118.7026138305664
8.774114611461148e6,30.63426399230957,-17.99953269958496,-23.218280792236328,8.471272468566895
8.774114611461148e6,363.7795104980469,1.2277692556381226,-19.39778709411621,-363.2549133300781
8.774114611461148e6,827.139404296875,0.6903772354125977,-33.866172790527344,-826.4432983398438
8.774114611461148e6,14.86398983001709,2.158686876296997,13.75721549987793,-4.836673259735107
8.774114611461148e6,42.273067474365234,-1.307599663734436,-37.45414733886719,-19.464468002319336
8.774114611461148e6,335.9563903808594,-25.6696834564209,-28.63707160949707,-333.74249267578125
8.774114611461148e6,72.35823059082031,-7.249497890472412,-2.384978771209717,-71.92945861816406
8.774114611461148e6,936.3673706054688,-17.06816864013672,-31.420610427856445,-935.6824340820312
8.774114611461148e6,270.98883056640625,4.790853977203369,67.0379638671875,262.5152893066406
8.774114611461148e6,74.28555297851562,-48.95681381225586,26.16156768798828,-49.33073806762695
8.774114611461148e6,45.45381164550781,23.621381759643555,3.663093090057373,-38.61395263671875
8.774114611461148e6,94.11795806884766,40.86125183105469,-8.808816909790039,-84.30497741699219
8.774114611461148e6,33.66128158569336,-33.073387145996094,-2.4440066814422607,-5.443882942199707
8.774114611461148e6,65.14519500732422,9.514082908630371,-18.7685489654541,61.62382888793945
8.774114611461148e6,326.40252685546875,46.01201248168945,-15.994928359985352,322.7414245605469
8.774114611461148e6,53.64713668823242,40.400272369384766,-34.27518844604492,-8.21100902557373
8.774114611461148e6,36.344661712646484,14.038955688476562,29.857072830200195,-15.125256538391113
8.774114611461148e6,43.74058151245117,31.04163932800293,-6.725217342376709,-30.013378143310547
8.774114611461148e6,878.3981323242188,-7.19072151184082,22.70357322692871,878.0731811523438
8.774114611461148e6,53.698455810546875,29.201627731323242,-3.20489764213562,-44.90983963012695
8.774114611461148e6,301.5494689941406,27.700910568237305,-15.228182792663574,-299.88201904296875
8.774114611461148e6,61.934814453125,11.952232360839844,33.006221771240234,-50.99049758911133
8.774114611461148e6,236.1009521484375,-13.275308609008789,-28.907447814941406,233.9405059814453
8.774114611461148e6,8.772275924682617,5.030430316925049,-6.319334983825684,-2.8442435264587402
8.774114611461148e6,106.29519653320312,5.904265880584717,18.714784622192383,104.4506607055664
8.774114611461148e6,51.42124557495117,13.625100135803223,-38.72664260864258,30.90508270263672
8.774114611461148e6,892.3046875,0.2747896611690521,60.02635955810547,890.2813110351562
8.774114611461148e6,283.32757568359375,-3.9070186614990234,-19.623414993286133,282.61376953125
8.774114611461148e6,95.631591796875,-41.04796600341797,18.18195152282715,84.41716766357422
8.774114611461148e6,1019.9389038085938,-28.068572998046875,31.399362564086914,-1019.0671997070312
8.774114611461148e6,86.49311065673828,-25.288108825683594,-53.18303298950195,-63.320701599121094
8.774114611461148e6,1535.22998046875,21.47848129272461,-25.874181747436523,-1534.8604736328125
8.774114611461148e6,64.34313201904297,-1.8324120044708252,41.54612731933594,-49.06093978881836
8.774114611461148e6,8.887031555175781,-7.454047679901123,-2.3725454807281494,-3.7634618282318115
8.774114611461148e6,1069.07666015625,-35.78509521484375,-14.627934455871582,1068.375732421875
8.774114611461148e6,28.396657943725586,-10.668643951416016,17.37579917907715,-19.672517776489258
8.774114611461148e6,494.910888671875,-13.565796852111816,-45.0642204284668,-492.6645202636719
8.774114611461148e6,915.271240234375,16.48432731628418,-35.618247985839844,-914.4273681640625
8.774114611461148e6,51.09671401977539,-27.122350692749023,-27.593358993530273,-33.320186614990234
8.774114611461148e6,143.0122833251953,32.95072937011719,-2.720578670501709,-139.12490844726562
8.774114611461148e6,37.84906768798828,0.47477397322654724,33.88805389404297,16.74223518371582
8.774114611461148e6,383.3461608886719,29.818391799926758,-12.584803581237793,-381.9726867675781
8.774114611461148e6,699.7220458984375,50.436744689941406,18.58775520324707,-697.6517333984375
8.774114611461148e6,1545.7139892578125,23.299449920654297,9.727765083312988,1545.506591796875
8.774114611461148e6,451.98529052734375,-0.13415099680423737,-18.18413543701172,451.6153259277344
8.774114611461148e6,842.0232543945312,16.96819496154785,-37.58302307128906,-841.0108032226562
8.774114611461148e6,74.04964447021484,-25.09274673461914,-12.666921615600586,-68.48086547851562
8.774114611461148e6,1534.77880859375,2.511259078979492,-70.62505340576172,1533.1497802734375
8.774114611461148e6,85.06684875488281,-27.228641510009766,16.019041061401367,78.9603500366211
8.774114611461148e6,18.118452072143555,12.238592147827148,6.681615829467773,11.41171646118164
8.774114611461148e6,119.33078002929688,-37.86581802368164,-16.651103973388672,111.91573333740234
8.774114611461148e6,63.98896408081055,-10.117947578430176,-2.6946728229522705,-63.0977783203125
8.774114611461148e6,38.8057975769043,-22.44303321838379,-6.628400802612305,30.897258758544922
8.774114611461148e6,249.673828125,-31.954294204711914,16.111093521118164,-247.0885467529297
8.774114611461148e6,31.250267028808594,8.750285148620605,19.62169075012207,-22.6136474609375
8.774114611461148e6,1069.7105712890625,-31.555843353271484,-9.982416152954102,1069.19677734375
8.774114611461148e6,468.0859680175781,15.283979415893555,-37.94976043701172,-466.290771484375
8.774114611461148e6,88.396484375,10.200711250305176,29.157915115356445,-82.80142211914062
8.774114611461148e6,484.1535949707031,5.9737091064453125,20.16183853149414,483.6929931640625
8.774114611461148e6,34.87954330444336,3.6712234020233154,-26.378189086914062,22.44263458251953
8.774114611461148e6,104.88885498046875,-31.78605842590332,31.458229064941406,94.85818481445312
8.774114611461148e6,20.550533294677734,20.379087448120117,1.4258512258529663,-1.1663264036178589
8.774114611461148e6,645.210693359375,-21.499740600585938,13.263653755187988,-644.713134765625
8.774114611461148e6,75.2610092163086,-3.4156877994537354,-8.680325508117676,-74.65641784667969
8.774114611461148e6,615.3006591796875,-26.819486618041992,36.596275329589844,-613.6226196289062
8.774114611461148e6,87.22611236572266,40.47965621948242,4.37734842300415,-77.11683654785156
8.774114611461148e6,1239.493896484375,-22.832719802856445,5.315525531768799,1239.270751953125
8.774114611461148e6,1150.74951171875,-13.042821884155273,-4.203799247741699,-1150.6663818359375
8.774114611461148e6,9.812872886657715,8.081649780273438,4.764728546142578,2.157052993774414
8.774114611461148e6,76.76844787597656,29.457427978515625,18.321945190429688,-68.45682525634766
8.774114611461148e6,19.425146102905273,0.09889673441648483,-8.099602699279785,17.552751541137695
8.774114611461148e6,89.62726593017578,-3.3758697509765625,26.830734252929688,85.42914581298828
8.774114611461148e6,93.52107238769531,-24.032533645629883,-24.169260025024414,-87.06808471679688
8.774114611461148e6,53.11349868774414,-27.845380783081055,-2.6375908851623535,-45.112056732177734
8.774114611461148e6,95.81407928466797,5.721718788146973,-37.981910705566406,87.75733947753906
8.774114611461148e6,26.14965057373047,-7.646170139312744,23.509180068969727,-8.308720588684082
8.774114611461148e6,103.2850341796875,28.116865158081055,22.644847869873047,-96.75137329101562
8.774114611461148e6,1289.41259765625,-15.841785430908203,4.873898029327393,-1289.3046875
8.774114611461148e6,506.317138671875,-34.14570999145508,-1.883075475692749,505.1573486328125
8.774114611461148e6,59.37868881225586,33.51933670043945,-2.7634294033050537,-48.89807891845703
8.774114611461148e6,76.65553283691406,12.893301010131836,-25.78428840637207,-71.00267791748047
8.774114611461148e6,42.756858825683594,5.01021671295166,-39.50737380981445,15.446364402770996
8.774114611461148e6,56.978546142578125,-10.519611358642578,15.377126693725586,-53.8127555847168
8.774114611461148e6,122.47066497802734,-7.385410785675049,-43.096073150634766,-114.3836669921875
8.774114611461148e6,155.59716796875,-9.562882423400879,57.8631706237793,144.10850524902344
8.774114611461148e6,116.1899642944336,-37.19568634033203,-14.872838020324707,-109.04936218261719
8.774114611461148e6,31.590099334716797,31.43007469177246,-2.369553804397583,0.91988205909729
8.774114611461148e6,71.18107604980469,-49.543128967285156,2.6420681476593018,51.006072998046875
8.774114611461148e6,27.31831169128418,11.040863990783691,20.49703025817871,-14.164651870727539
8.774114611461148e6,30.60946273803711,-8.612162590026855,-25.325895309448242,-14.756187438964844
8.774114611461148e6,18.47707748413086,-0.1155630424618721,16.762577056884766,7.5353288650512695
8.774114611461148e6,41.420135498046875,-2.596073865890503,39.295494079589844,12.69362735748291
8.774114611461148e6,1190.547607421875,31.222808837890625,32.555198669433594,1189.6912841796875
8.774114611461148e6,34.74406051635742,5.929627895355225,5.881235599517822,33.67159652709961
8.774114611461148e6,28.10544776916504,23.37444305419922,-7.489886283874512,13.558365821838379
8.774114611461148e6,55.127960205078125,-27.854524612426758,-10.665966033935547,-46.32311248779297
8.774114611461148e6,45.93817138671875,-6.898492813110352,-23.11687469482422,39.047569274902344
8.774114611461148e6,39.76133728027344,-24.576366424560547,1.2133077383041382,31.174835205078125
8.774114611461148e6,79.66752624511719,-23.978532791137695,-20.71198081970215,73.07074737548828
8.774114611461148e6,50.0630989074707,28.490156173706055,-20.59903335571289,35.590457916259766
8.774114611461148e6,44.399295806884766,29.210128784179688,28.873130798339844,16.756622314453125
8.774114611461148e6,216.68226623535156,25.5080509185791,-26.061243057250977,213.5830841064453
8.774114611461148e6,130.10231018066406,-36.58822250366211,-13.070916175842285,-124.15087890625
8.774114611461148e6,508.2525939941406,58.232154846191406,76.79210662841797,-499.0281066894531
8.774114611461148e6,467.0697021484375,20.259178161621094,10.589890480041504,466.50604248046875
8.774114611461148e6,23.481496810913086,-19.502138137817383,8.345215797424316,9.888420104980469
8.774114611461148e6,175.73074340820312,-26.910812377929688,38.44230270385742,169.3389129638672
8.774114611461148e6,21.646747589111328,-15.607858657836914,-14.333473205566406,3.987990617752075
8.774114611461148e6,73.37350463867188,46.89009094238281,-34.54499816894531,44.587100982666016
8.774114611461148e6,360.34503173828125,-22.15864372253418,13.222777366638184,359.4148864746094
8.774114611461148e6,131.43997192382812,-34.6064453125,-39.44184112548828,120.49720764160156
8.774114611461148e6,107.12178039550781,-38.00680923461914,10.116189002990723,99.62226867675781
8.774114611461148e6,387.1106872558594,37.57902908325195,-16.122583389282227,384.940185546875
8.774114611461148e6,224.2909698486328,37.006126403808594,8.149986267089844,221.05868530273438
8.774114611461148e6,45.74534606933594,-29.209238052368164,-9.191474914550781,-33.93154525756836
8.774114611461148e6,203.91001892089844,-39.66462707519531,15.342631340026855,199.41664123535156
8.774114611461148e6,740.7982177734375,-6.999297618865967,16.421634674072266,740.5806274414062
8.774114611461148e6,16.531864166259766,1.148924469947815,11.361411094665527,11.801567077636719
8.774114611461148e6,43.69027328491211,-36.18304443359375,-3.374577283859253,24.17882537841797
8.774114611461148e6,283.9684753417969,37.729156494140625,5.307028770446777,-281.3944091796875
8.774114611461148e6,112.70133209228516,-22.788339614868164,-27.64772605895996,-106.8375473022461
8.774114611461148e6,83.82923889160156,12.047175407409668,7.719759941101074,82.57716369628906
8.774114611461148e6,1206.3787841796875,38.90119934082031,-12.192007064819336,1205.688232421875
8.774114611461148e6,1274.150146484375,-13.6104736328125,-4.2208027839660645,1274.069091796875
8.774114611461148e6,1089.431884765625,-19.030344009399414,-33.463951110839844,-1088.749755859375
8.774114611461148e6,382.7289123535156,4.370726108551025,-22.408039093017578,-382.0426330566406
8.774114611461148e6,97.74382019042969,-9.50199031829834,11.365323066711426,-96.5959243774414
8.774114611461148e6,46.10880661010742,-27.388559341430664,14.610109329223633,-34.04129409790039
8.774114611461148e6,53.101505279541016,-1.902517318725586,-37.598934173583984,-37.40115737915039
8.774114611461148e6,62.32854080200195,-0.3010650873184204,-36.4595832824707,50.51565170288086
8.774114611461148e6,448.4810485839844,28.072193145751953,36.5467643737793,-446.10302734375
8.774114611461148e6,72.80467987060547,25.56966209411621,-22.72349739074707,64.23965454101562
8.774114611461148e6,58.30720138549805,-18.57746124267578,-8.255385398864746,54.61531448364258
8.774114611461148e6,43.97816848754883,27.332679748535156,22.612049102783203,25.924415588378906
8.774114611461148e6,1255.1146240234375,3.935177803039551,8.124876022338867,-1255.0806884765625
8.774114611461148e6,157.21778869628906,18.877622604370117,83.60199737548828,-131.7882843017578
8.774114611461148e6,29.04300880432129,-20.516578674316406,20.46791648864746,0.08278763294219971
8.774114611461148e6,46.11020278930664,18.852909088134766,-8.608588218688965,-41.14591979980469
8.774114611461148e6,43.761802673339844,20.490421295166016,-6.185060501098633,-38.122947692871094
8.774114611461148e6,104.55227661132812,21.74845314025879,63.03116226196289,80.50859069824219
8.774114611461148e6,64.03937530517578,30.044824600219727,21.52723503112793,52.261878967285156
8.774114611461148e6,2869.31640625,10.13532829284668,17.070552825927734,2869.2470703125
8.774114611461148e6,38.99559783935547,25.7387752532959,-17.263124465942383,23.59095001220703
8.774114611461148e6,637.6929321289062,15.357011795043945,-16.281230926513672,637.2972412109375
8.774114611461148e6,316.03631591796875,-36.69414520263672,-2.974217176437378,313.8789978027344
8.774114611461148e6,41.359642028808594,29.42148780822754,22.67728042602539,18.086267471313477
8.774114611461148e6,187.24583435058594,-26.391780853271484,-2.3258769512176514,-185.3522186279297
8.774114611461148e6,52.40939712524414,-43.70454788208008,26.18319320678711,-12.143890380859375
8.774114611461148e6,2171.76806640625,-5.977230072021484,11.238451957702637,2171.72998046875
8.774114611461148e6,162.55059814453125,-8.817981719970703,-13.749212265014648,161.71665954589844
8.774114611461148e6,14.974665641784668,-13.465827941894531,-0.4145137667655945,6.254310131072998
8.774114611461148e6,1231.3619384765625,1.7328885793685913,9.903547286987305,1231.3194580078125
8.774114611461148e6,37.6623649597168,-30.613359451293945,16.051013946533203,-14.832969665527344
8.774114611461148e6,33.31559371948242,28.112688064575195,9.864837646484375,-14.787379264831543
8.774114611461148e6,27.24758529663086,-14.980259895324707,22.48659896850586,2.958329677581787
8.774114611461148e6,54.10307693481445,51.165931701660156,-16.74976921081543,-5.001163482666016
8.774114611461148e6,36.773277282714844,-14.889026641845703,-13.85025691986084,-30.58001708984375
8.774114611461148e6,41.81987380981445,-33.0041389465332,20.983810424804688,-14.686201095581055
8.774114611461148e6,48.42478561401367,-42.99667739868164,-10.144682884216309,-19.740999221801758
8.774114611461148e6,177.07989501953125,24.661537170410156,-25.981800079345703,-173.4082489013672
8.774114611461148e6,76.86978149414062,9.054849624633789,-18.959035873413086,-73.91822814941406
8.774114611461148e6,98.60590362548828,-36.89918899536133,72.01773834228516,56.31514358520508
8.774114611461148e6,30.64807891845703,2.2497358322143555,30.3458194732666,3.1226346492767334
8.774114611461148e6,161.4025421142578,38.9559326171875,1.6729800701141357,156.61033630371094
8.774114611461148e6,7.838292121887207,-3.443784236907959,-5.478298664093018,3.992936134338379
8.774114611461148e6,309.2494812011719,25.687952041625977,-21.979677200317383,-307.3900451660156
8.774114611461148e6,70.4160385131836,-12.8966646194458,41.339778900146484,-55.49317932128906
8.774114611461148e6,264.57318115234375,44.06513214111328,-6.6478729248046875,-260.7861633300781
8.774114611461148e6,97.47408294677734,14.15614128112793,23.1339168548584,93.60554504394531
8.774114611461148e6,2449.22119140625,28.894044876098633,-20.727630615234375,2448.962158203125
8.774114611461148e6,54.20541000366211,21.545021057128906,-45.346290588378906,-20.35014533996582
8.774114611461148e6,171.37831115722656,22.821332931518555,24.55905532836914,-168.05636596679688
8.774114611461148e6,128.2758026123047,-15.861733436584473,29.612272262573242,-123.78438568115234
8.774114611461148e6,97.51197814941406,-13.51102352142334,-37.34729766845703,89.03703308105469
8.774114611461148e6,2128.3564453125,10.979485511779785,-23.59124183654785,-2128.196533203125
8.774114611461148e6,418.0422668457031,23.33380889892578,43.80487823486328,415.0811767578125
8.774114611461148e6,18.829051971435547,-9.24573802947998,16.27958106994629,0.6331575512886047
8.774114611461148e6,99.9630355834961,29.527082443237305,7.922377586364746,-95.15445709228516
8.774114611461148e6,111.65316009521484,-5.235427379608154,41.675960540771484,103.43359375
8.774114611461148e6,43.560157775878906,-33.42477798461914,3.3933417797088623,-27.661039352416992
8.774114611461148e6,49.630523681640625,15.875505447387695,45.8851203918457,10.103904724121094
8.774114611461148e6,44.61286926269531,-14.049188613891602,3.8170995712280273,-42.127593994140625
8.774114611461148e6,63.76832580566406,-15.571820259094238,49.41497039794922,-37.12754440307617
8.774114611461148e6,162.33111572265625,15.148425102233887,28.153587341308594,159.14041137695312
8.774114611461148e6,312.2759094238281,72.44673919677734,15.62934684753418,303.34765625
8.774114611461148e6,54.838340759277344,21.65989875793457,-11.118614196777344,-49.1003532409668
8.774114611461148e6,199.6560516357422,-37.38547134399414,-10.426356315612793,-195.83802795410156
8.774114611461148e6,18.990049362182617,8.8472318649292,-10.475654602050781,-12.999431610107422
8.774114611461148e6,577.0880737304688,35.307395935058594,-13.890040397644043,575.8363647460938
8.774114611461148e6,1337.56689453125,-17.369020462036133,-42.698829650878906,-1336.77099609375
8.774114611461148e6,1063.800537109375,29.485919952392578,31.39729881286621,-1062.926513671875
8.774114611461148e6,1372.6614990234375,46.20664596557617,6.955605506896973,1371.8646240234375
8.774114611461148e6,81.68416595458984,-20.011926651000977,27.424762725830078,74.27034759521484
8.774114611461148e6,138.67929077148438,-18.07876968383789,16.48710060119629,136.49049377441406
8.774114611461148e6,170.23988342285156,-40.14848709106445,5.087747097015381,-165.3487548828125
8.774114611461148e6,68.05440521240234,14.376364707946777,37.05296325683594,-55.210289001464844
8.774114611461148e6,233.55081176757812,-12.837596893310547,44.63800811767578,-228.87770080566406
8.774114611461148e6,78.14633178710938,26.718870162963867,-42.89823913574219,-59.57405471801758
8.774114611461148e6,33.37028884887695,-16.3313045501709,11.261415481567383,-26.76604461669922
8.774114611461148e6,25.851470947265625,14.805938720703125,19.916852951049805,-6.9841156005859375
8.774114611461148e6,10.830796241760254,2.545480728149414,4.106595039367676,-9.50466537475586
8.774114611461148e6,552.1954956054688,-40.87522888183594,-22.298114776611328,550.2256469726562
8.774114611461148e6,525.4185791015625,27.83022689819336,-23.583984375,524.147216796875
8.774114611461148e6,183.2096405029297,17.75165557861328,28.668106079101562,180.0699005126953
8.774114611461148e6,232.55392456054688,-21.86176300048828,4.475030899047852,231.4729766845703
8.774114611461148e6,1620.817626953125,39.909996032714844,-10.070938110351562,1620.2938232421875
8.774114611461148e6,9.95489501953125,-8.34371280670166,-2.525949239730835,4.413400173187256
8.774114611461148e6,147.15989685058594,-25.02897071838379,17.384428024291992,-143.9574432373047
8.774114611461148e6,150.9587860107422,-0.1001606434583664,22.064611434936523,149.32540893554688
8.774114611461148e6,35.11406326293945,-34.81119918823242,4.185184001922607,0.19523252546787262
8.774114611461148e6,137.2715301513672,26.123554229736328,-10.921161651611328,134.30613708496094
8.774114611461148e6,710.5623168945312,4.473323345184326,23.856386184692383,-710.1450805664062
8.774114611461148e6,90.89469909667969,2.286593198776245,48.544921875,-76.78791809082031
8.774114611461148e6,67.83150482177734,10.499629974365234,-48.33477783203125,46.37882995605469
8.774114611461148e6,313.43212890625,-30.73530387878418,-41.1410026550293,-309.19061279296875
8.774114611461148e6,95.15901184082031,-28.968809127807617,30.79518699645996,-85.22956085205078
8.774114611461148e6,34.50006866455078,-32.3126220703125,-7.605502605438232,9.202252388000488
8.774114611461148e6,400.3168640136719,-27.1383113861084,-8.097280502319336,399.3092956542969
8.774114611461148e6,124.85952758789062,-29.787044525146484,-22.816740036010742,119.07310485839844
8.774114611461148e6,154.46783447265625,-38.16191864013672,-25.245426177978516,-147.52296447753906
8.774114611461148e6,597.4804077148438,1.2982749938964844,-48.73916244506836,-595.4846801757812
8.774114611461148e6,30.697641372680664,7.807973861694336,15.654557228088379,25.153362274169922
8.774114611461148e6,18.28360366821289,-10.529336929321289,8.42270278930664,12.200712203979492
8.774114611461148e6,652.8837280273438,14.670696258544922,39.54880142211914,651.516845703125
8.774114611461148e6,62.233787536621094,40.714332580566406,-11.398470878601074,-45.627166748046875
8.774114611461148e6,2172.20263671875,16.719369888305664,-14.748775482177734,-2172.08740234375
8.774114611461148e6,66.92282104492188,-17.891921997070312,-4.2737202644348145,-64.31683349609375
8.774114611461148e6,35.40157699584961,-30.35964584350586,-1.462213397026062,-18.049972534179688
8.774114611461148e6,459.15869140625,-23.16657066345215,41.23887252807617,-456.7118835449219
8.774114611461148e6,60.68701171875,3.1841025352478027,16.517963409423828,-58.27785110473633
8.774114611461148e6,179.28208923339844,-21.8255672454834,-1.5848749876022339,177.93138122558594
8.774114611461148e6,47.107967376708984,27.366689682006836,-5.022943496704102,37.96539306640625
8.774114611461148e6,52.744083404541016,33.21181869506836,-17.843551635742188,36.836090087890625
8.774114611461148e6,24.40399169921875,-8.730669021606445,3.7418148517608643,22.39877700805664
8.774114611461148e6,59.364261627197266,11.65967845916748,-8.457727432250977,-57.55875778198242
8.774114611461148e6,1018.2507934570312,33.25339126586914,-17.975685119628906,1017.547119140625
8.774114611461148e6,156.88026428222656,16.029598236083984,29.836843490600586,-153.16856384277344
8.774114611461148e6,27.285852432250977,10.257637977600098,-23.505168914794922,9.120400428771973
8.774114611461148e6,72.95328521728516,-8.465442657470703,3.6083366870880127,-72.34552001953125
8.774114611461148e6,39.57502746582031,-15.218158721923828,-23.541933059692383,27.870126724243164
8.774114611461148e6,92.51356506347656,19.06411361694336,-33.857181549072266,-83.93679809570312
8.774114611461148e6,132.13580322265625,40.90293502807617,-20.45401954650879,-123.95494842529297
8.774114611461148e6,35.24653625488281,-32.98549270629883,-5.0408711433410645,11.191123962402344
8.774114611461148e6,766.5004272460938,-8.655638694763184,-31.476167678833008,765.8025512695312
8.774114611461148e6,58.32272720336914,2.9162521362304688,1.773856282234192,58.191627502441406
8.774114611461148e6,32.737403869628906,-29.76044273376465,4.188859939575195,-12.840683937072754
8.774114611461148e6,100.3317642211914,36.10517120361328,4.935123443603516,93.46068572998047
8.774114611461148e6,48.98933029174805,-23.194469451904297,-42.23750305175781,-8.622105598449707
8.774114611461148e6,64.98339080810547,29.19404411315918,-23.135948181152344,53.213279724121094
8.774114611461148e6,38.20717239379883,-30.345121383666992,-5.2361297607421875,22.537097930908203
8.774114611461148e6,1156.7694091796875,53.37908935546875,33.57785415649414,-1155.0477294921875
8.774114611461148e6,56.4607048034668,43.663246154785156,-22.442079544067383,27.82195281982422
8.774114611461148e6,188.8377685546875,-3.3822758197784424,11.50305461883545,-188.44712829589844
8.774114611461148e6,324.18585205078125,22.689889907836914,-30.553607940673828,321.9386291503906
8.774114611461148e6,34.88760757446289,25.292417526245117,-17.461732864379883,16.39825439453125
8.774114611461148e6,345.6363220214844,30.019771575927734,8.919954299926758,344.2093505859375
8.774114611461148e6,28.938669204711914,4.165092468261719,-26.645660400390625,10.319086074829102
8.774114611461148e6,826.7718505859375,10.926987648010254,23.873106002807617,826.3527221679688
8.774114611461148e6,319.0297546386719,-31.450796127319336,-11.929606437683105,317.24578857421875
8.774114611461148e6,129.0487518310547,16.49127197265625,31.428001403808594,-124.05754089355469
8.774114611461148e6,1499.2708740234375,-15.37026309967041,19.59988784790039,1499.062744140625
8.774114611461148e6,384.7413024902344,1.7281068563461304,-43.499916076660156,382.265625
8.774114611461148e6,505.0047607421875,28.74150276184082,-1.2055208683013916,-504.1811828613281
8.774114611461148e6,180.12481689453125,25.856882095336914,-2.759026527404785,-178.22776794433594
8.774114611461148e6,1805.490234375,2.848224401473999,8.188677787780762,1805.468505859375
8.774114611461148e6,144.1541290283203,-12.18509578704834,-20.82354736328125,142.1080322265625
8.774114611461148e6,178.86465454101562,-21.262258529663086,-17.697866439819336,176.70213317871094
8.774114611461148e6,823.9269409179688,49.64229965209961,-4.916928291320801,-822.4132080078125
8.774114611461148e6,687.8312377929688,16.294782638549805,24.76237678527832,687.1895751953125
8.774114611461148e6,24.486780166625977,16.185293197631836,-13.496147155761719,12.323507308959961
8.774114611461148e6,1066.1568603515625,36.76992416381836,-20.67194175720215,-1065.3203125
8.774114611461148e6,101.95984649658203,14.022871971130371,-30.668893814086914,96.20272827148438
8.774114611461148e6,71.95301055908203,11.50178050994873,11.114336013793945,70.1269760131836
8.774114611461148e6,163.1237335205078,-37.3919792175293,-15.496089935302734,-158.01087951660156
8.774114611461148e6,116.04852294921875,8.975561141967773,21.50733184814453,113.66841888427734
8.774114611461148e6,167.41929626464844,27.80513572692871,1.274802803993225,-165.07830810546875
8.774114611461148e6,54.511810302734375,-3.118995428085327,-39.32804489135742,37.56980895996094
8.774114611461148e6,733.879150390625,26.52133560180664,9.326530456542969,-733.3379516601562
8.774114611461148e6,2606.896240234375,2.416038990020752,55.48773956298828,2606.303955078125
8.774114611461148e6,943.9751586914062,36.50218200683594,17.26000213623047,-943.1093139648438
8.774114611461148e6,94.1801986694336,-37.17383575439453,-26.233198165893555,82.43913269042969
8.774114611461148e6,42.72130584716797,-38.52188491821289,18.37148666381836,-0.1978103667497635
8.774114611461148e6,110.63060760498047,46.93267059326172,-54.756649017333984,83.8721694946289
8.774114611461148e6,266.907470703125,6.734318733215332,25.126895904541016,265.6299133300781
8.774114611461148e6,222.2657470703125,28.00628089904785,-27.992996215820312,218.70179748535156
8.774114611461148e6,16.457027435302734,-10.161171913146973,12.257309913635254,-3.7038936614990234
8.774114611461148e6,60.93341827392578,0.5063055753707886,50.983436584472656,-33.31201934814453
8.774114611461148e6,1620.2921142578125,6.496924877166748,-28.901912689208984,1620.0201416015625
8.774114611461148e6,86.63330078125,16.742164611816406,-41.69493865966797,-74.04685974121094
8.774114611461148e6,43.55387496948242,12.141793251037598,24.052766799926758,34.1666145324707
8.774114611461148e6,170.34536743164062,35.35471725463867,-8.696673393249512,-166.3981170654297
8.774114611461148e6,29.661640167236328,8.036994934082031,-28.364046096801758,-2.660200357437134
8.774114611461148e6,270.57098388671875,29.454334259033203,19.10466194152832,-268.2768859863281
8.774114611461148e6,207.66854858398438,-19.108469009399414,-31.044015884399414,-204.43516540527344
8.774114611461148e6,29.531414031982422,12.455904960632324,17.32584571838379,20.32599449157715
8.774114611461148e6,963.5382080078125,-7.536721706390381,10.550931930541992,963.4490966796875
8.774114611461148e6,347.19757080078125,-11.792171478271484,-24.027732849121094,-346.15911865234375
8.774114611461148e6,1571.59912109375,5.750174522399902,-35.184932708740234,-1571.1934814453125
8.774114611461148e6,35.526859283447266,-3.619863748550415,23.645002365112305,26.198171615600586
8.774114611461148e6,57.19940185546875,11.893844604492188,49.31727981567383,26.35317611694336
8.774114611461148e6,196.9475555419922,30.239749908447266,20.405437469482422,-193.5300750732422
8.774114611461148e6,14.566841125488281,12.46862506866455,-0.7345476150512695,-7.2500200271606445
8.774114611461148e6,63.79507064819336,-2.6687068939208984,31.971113204956055,-55.108192443847656
8.774114611461148e6,132.15725708007812,-9.730578422546387,-25.834428787231445,129.22776794433594
8.774114611461148e6,27.683826446533203,-8.188536643981934,-24.580360412597656,9.566823959350586
8.774114611461148e6,1585.2666015625,47.67974853515625,-15.009773254394531,1584.4771728515625
8.774114611461148e6,503.2370300292969,6.309652805328369,44.905338287353516,501.1861877441406
8.774114611461148e6,98.30194091796875,4.514049530029297,-9.660552024841309,-97.7033462524414
8.774114611461148e6,90.32695770263672,-34.13178634643555,10.977997779846191,-82.8844985961914
8.774114611461148e6,324.460693359375,-0.9301744699478149,73.96517181396484,315.9104309082031
8.774114611461148e6,196.19378662109375,-20.732107162475586,22.609745025634766,-193.7714080810547
8.774114611461148e6,419.7999572753906,21.57623291015625,8.36937141418457,-419.1572570800781
8.774114611461148e6,46.49781799316406,-45.02009201049805,0.1585949957370758,-11.471240043640137
8.774114611461148e6,322.44757080078125,-24.74970054626465,-18.947860717773438,320.93182373046875
8.774114611461148e6,38.70134353637695,23.0262451171875,-30.58124542236328,-5.361852645874023
8.774114611461148e6,47.32398986816406,-3.0808656215667725,41.45953369140625,22.528898239135742
8.774114611461148e6,154.36212158203125,45.5983772277832,-16.409828186035156,-146.54537963867188
8.774114611461148e6,56.33599853515625,22.6474552154541,-39.0318603515625,33.67087173461914
8.774114611461148e6,351.4453430175781,-20.493408203125,-22.43084144592285,-350.1243896484375
8.774114611461148e6,611.6970825195312,33.49974822998047,-45.70500946044922,609.0635986328125
8.774114611461148e6,1930.7115478515625,28.563688278198242,17.53693962097168,1930.419677734375
8.774114611461148e6,661.3604125976562,-34.82448196411133,109.2481918334961,-651.3417358398438
8.774114611461148e6,100.39047241210938,34.121925354003906,-32.65846252441406,-88.56490325927734
8.774114611461148e6,93.06049346923828,15.005972862243652,-16.30645751953125,-90.36344146728516
8.774114611461148e6,79.5787353515625,-19.5202579498291,-2.5045907497406006,-77.08332061767578
8.774114611461148e6,169.0814666748047,36.874759674072266,13.914484024047852,164.41278076171875
8.774114611461148e6,128.8813934326172,-24.847959518432617,85.86676025390625,-92.82386779785156
8.774114611461148e6,75.14221954345703,-46.643096923828125,28.322267532348633,-51.623634338378906
8.774114611461148e6,49.80926513671875,27.81454849243164,40.84056854248047,-5.978135108947754
8.774114611461148e6,199.97398376464844,-29.65966033935547,6.722048282623291,197.63877868652344
8.774114611461148e6,1073.7943115234375,11.567281723022461,-1.954408884048462,-1073.728515625
8.774114611461148e6,22.421480178833008,-17.008394241333008,-0.7270622253417969,-14.46667766571045
8.774114611461148e6,169.8122100830078,-11.012818336486816,-16.80409812927246,-168.6087188720703
8.774114611461148e6,84.26395416259766,26.44611358642578,32.811729431152344,-72.9437026977539
8.774114611461148e6,67.77010345458984,-32.89282989501953,24.066238403320312,-54.11137390136719
8.774114611461148e6,79.02701568603516,-29.3128604888916,18.389284133911133,71.02278900146484
8.774114611461148e6,20.378421783447266,-8.77256965637207,16.74188804626465,7.376133918762207
8.774114611461148e6,283.374755859375,19.322751998901367,13.318160057067871,-282.3949279785156
8.774114611461148e6,34.720516204833984,-30.199846267700195,-12.923140525817871,-11.083871841430664
8.774114611461148e6,1741.4876708984375,-21.946752548217773,10.336324691772461,-1741.3177490234375
8.774114611461148e6,2371.3056640625,9.66817855834961,-29.596118927001953,2371.100341796875
8.774114611461148e6,337.51434326171875,32.23702621459961,10.066956520080566,335.8150329589844
8.774114611461148e6,554.7919921875,10.052779197692871,-17.252559661865234,-554.4292602539062
8.774114611461148e6,682.0565795898438,19.854366302490234,33.835445404052734,680.9247436523438
8.774114611461148e6,940.0721435546875,-21.635969161987305,43.98495864868164,938.7913208007812
8.774114611461148e6,404.7104187011719,40.94731903076172,5.4983015060424805,-402.5915832519531
8.774114611461148e6,108.11495208740234,10.277362823486328,-19.04484748840332,-105.90982055664062
8.774114611461148e6,204.39810180664062,-0.030243100598454475,35.8879280090332,-201.21385192871094
8.774114611461148e6,881.3917846679688,-15.520699501037598,-14.981090545654297,881.125732421875
8.774114611461148e6,39.94505310058594,-30.240520477294922,-2.114424705505371,-25.94269561767578
8.774114611461148e6,53.548423767089844,28.436513900756836,3.882399082183838,45.167484283447266
8.774114611461148e6,29.285799026489258,-2.6786859035491943,24.139972686767578,-16.25178337097168
8.774114611461148e6,349.2112731933594,17.290193557739258,-51.6125373840332,344.9377746582031
8.774114611461148e6,1123.6097412109375,-15.654821395874023,52.797813415527344,-1122.2578125
8.774114611461148e6,235.36135864257812,-19.501934051513672,12.469630241394043,-234.2125701904297
8.774114611461148e6,559.7373657226562,-19.918622970581055,-34.99816131591797,558.28369140625
8.774114611461148e6,113.69681549072266,-35.974117279052734,-22.433713912963867,105.47954559326172
8.774114611461148e6,69.12582397460938,16.462421417236328,1.38361394405365,-67.0956802368164
8.774114611461148e6,185.96434020996094,7.333435535430908,19.502317428588867,184.7836456298828
8.774114611461148e6,23.617389678955078,-14.808805465698242,-5.462826251983643,-17.464651107788086
8.774114611461148e6,641.2579956054688,1.530312180519104,-24.9350643157959,-640.7683715820312
8.774114611461148e6,21.58517074584961,9.756808280944824,-12.522944450378418,-14.500905990600586
8.774114611461148e6,248.7412567138672,-22.571561813354492,33.6496467590332,245.41152954101562
8.774114611461148e6,210.8175506591797,26.669015884399414,-30.197200775146484,206.92343139648438
8.774114611461148e6,109.13805389404297,-39.951263427734375,12.399808883666992,100.78507232666016
8.774114611461148e6,36.277565002441406,-3.1306755542755127,36.08339309692383,0.7909809947013855
8.774114611461148e6,45.89633560180664,-7.408320903778076,-45.0558967590332,-4.234720230102539
8.774114611461148e6,302.75732421875,-32.247982025146484,-13.149737358093262,-300.7416076660156
8.774114611461148e6,71.6178207397461,4.639902591705322,15.547444343566895,69.729736328125
8.774114611461148e6,1582.80712890625,21.510963439941406,42.88602066040039,-1582.07861328125
8.774114611461148e6,736.5889892578125,-27.455448150634766,2.6462085247039795,736.0699462890625
8.774114611461148e6,55.34230422973633,38.81067657470703,4.789689540863037,-39.114410400390625
8.774114611461148e6,84.05879211425781,17.16693687438965,13.314191818237305,-81.1805648803711
8.774114611461148e6,994.6259155273438,-49.319400787353516,-0.384240984916687,993.4005126953125
8.774114611461148e6,2152.322021484375,-3.6382272243499756,1.7839871644973755,-2152.3173828125
8.774114611461148e6,52.309425354003906,-21.158832550048828,-35.48969268798828,32.0224494934082
8.774114611461148e6,741.7603759765625,6.475557804107666,11.89382266998291,-741.63427734375
8.774114611461148e6,73.57182312011719,39.80692672729492,-11.89464282989502,-60.68867111206055
8.774114611461148e6,688.936279296875,-11.698857307434082,1.4937806129455566,-688.8327026367188
8.774114611461148e6,40.885528564453125,15.610509872436523,35.44815444946289,-12.951552391052246
8.774114611461148e6,662.328369140625,11.791290283203125,-1.5590511560440063,662.2188110351562
8.774114611461148e6,255.57025146484375,9.44243049621582,-19.712705612182617,-254.62673950195312
8.774114611461148e6,132.75877380371094,-15.338390350341797,-34.92036056518555,127.14783477783203
8.774114611461148e6,112.55445098876953,-103.76197814941406,7.718778610229492,-42.88068771362305
8.774114611461148e6,244.569091796875,11.991499900817871,5.53496789932251,-244.20480346679688
8.774114611461148e6,1624.719970703125,28.749053955078125,23.429645538330078,-1624.2955322265625
8.774114611461148e6,30.797164916992188,-11.42651081085205,11.866122245788574,-25.95132827758789
8.774114611461148e6,76.36499786376953,-18.69684600830078,38.19172668457031,-63.4019660949707
8.774114611461148e6,178.2124481201172,34.75572967529297,2.871856689453125,-174.75653076171875
8.774114611461148e6,145.56814575195312,4.086501121520996,-27.66482925415039,142.8440399169922
8.774114611461148e6,426.27978515625,-13.749004364013672,-31.534927368164062,424.88507080078125
8.774114611461148e6,332.44683837890625,-36.525577545166016,13.02209758758545,-330.17205810546875
8.774114611461148e6,331.36895751953125,17.9500675201416,-53.643856048583984,-326.49945068359375
8.774114611461148e6,56.65584945678711,22.481040954589844,-20.815284729003906,-47.619197845458984
8.774114611461148e6,167.27952575683594,-8.839778900146484,29.63499641418457,-164.38504028320312
8.774114611461148e6,50.661231994628906,8.449677467346191,49.596397399902344,-5.633561134338379
8.774114611461148e6,1018.9448852539062,4.26826286315918,-34.62124252319336,1018.3458251953125
8.774114611461148e6,132.0673370361328,22.062501907348633,-16.554645538330078,129.1407928466797
8.774114611461148e6,48.196868896484375,26.89934539794922,26.901206970214844,-29.53074073791504
8.774114611461148e6,29.774518966674805,13.241608619689941,-23.253355026245117,-12.916630744934082
8.774114611461148e6,451.1820983886719,65.40084838867188,-68.31221008300781,441.1551208496094
8.774114611461148e6,72.51387023925781,4.041735649108887,26.771936416625977,67.24259185791016
8.774114611461148e6,190.66575622558594,-22.707962036132812,-26.859182357788086,-187.38394165039062
8.774114611461148e6,176.22109985351562,46.87279510498047,-16.31675910949707,169.07676696777344
8.774114611461148e6,179.61679077148438,23.877840042114258,42.04080581665039,172.97683715820312
8.774114611461148e6,454.494873046875,-38.270294189453125,-11.448244094848633,-452.7320251464844
8.774114611461148e6,205.94195556640625,20.483978271484375,17.11268424987793,204.19606018066406
8.774114611461148e6,52.49333572387695,-43.52442169189453,-1.333400011062622,29.253599166870117
8.774114611461148e6,1595.884521484375,-19.5183048248291,33.11012268066406,1595.4205322265625
8.774114611461148e6,70.03150177001953,-10.089822769165039,-9.352716445922852,-68.64043426513672
8.774114611461148e6,278.7552795410156,36.02322769165039,4.728452205657959,-276.370849609375
8.774114611461148e6,32.6324348449707,-20.619958877563477,22.138891220092773,-12.080510139465332
8.774114611461148e6,113.89752197265625,0.773557186126709,-36.4889030456543,-107.87484741210938
8.774114611461148e6,94.59078979492188,14.433969497680664,37.333740234375,-85.68340301513672
8.774114611461148e6,238.7091064453125,-9.710339546203613,-39.110225677490234,235.27540588378906
8.774114611461148e6,32.136085510253906,13.939571380615234,-11.32907772064209,-26.579023361206055
8.774114611461148e6,47.10526657104492,43.79475402832031,-8.054708480834961,-15.245437622070312
8.774114611461148e6,143.3302764892578,-15.275859832763672,-61.41006088256836,-128.5900421142578
8.774114611461148e6,381.6051025390625,-26.936195373535156,-7.5397844314575195,380.57379150390625
8.774114611461148e6,21.61156463623047,7.735966682434082,18.079090118408203,-8.759976387023926
8.774114611461148e6,172.05113220214844,18.906810760498047,25.246522903442383,169.12454223632812
8.774114611461148e6,27.38675880432129,-1.75835382938385,-12.756098747253418,24.095659255981445
8.774114611461148e6,62.45356369018555,41.569297790527344,19.353368759155273,-42.358760833740234
8.774114611461148e6,91.36196899414062,-26.512914657592773,-12.991966247558594,86.43875885009766
8.774114611461148e6,31.613731384277344,-22.231525421142578,-6.080219268798828,21.55445098876953
8.774114611461148e6,40.37190628051758,3.1490187644958496,20.31083106994629,-34.69612121582031
8.774114611461148e6,99.17169189453125,-22.59819793701172,35.97017288208008,89.59278869628906
8.774114611461148e6,2593.302734375,24.91530418395996,-17.13275146484375,-2593.125732421875
8.774114611461148e6,41.74622344970703,-26.894100189208984,22.50102424621582,22.572872161865234
8.774114611461148e6,309.2528076171875,-48.555572509765625,-26.12908363342285,-304.2914733886719
8.774114611461148e6,906.061767578125,120.74361419677734,29.293109893798828,897.50048828125
8.774114611461148e6,115.13818359375,-17.59555435180664,41.86461639404297,105.78717803955078
8.774114611461148e6,865.3702392578125,-5.2083740234375,17.03689956665039,-865.1846923828125
8.774114611461148e6,49.393714904785156,-25.821125030517578,-37.97005081176758,-18.10137939453125
8.774114611461148e6,34.78235626220703,-30.744245529174805,8.991924285888672,13.421072006225586
8.774114611461148e6,78.27657318115234,-21.472333908081055,21.423851013183594,72.13568115234375
8.774114611461148e6,465.9988098144531,35.365962982177734,6.6199164390563965,-464.6037902832031
8.774114611461148e6,610.7302856445312,9.643495559692383,-39.67322540283203,-609.3610229492188
8.774114611461148e6,1183.725341796875,-53.919593811035156,-24.619003295898438,1182.2388916015625
8.774114611461148e6,344.98895263671875,-1.8287969827651978,27.521270751953125,343.87933349609375
8.774114611461148e6,426.2567443847656,41.27814483642578,36.950721740722656,422.63690185546875
8.774114611461148e6,35.64943313598633,1.3646538257598877,32.84026336669922,-13.671619415283203
8.774114611461148e6,75.40367889404297,-18.02004623413086,-36.63420867919922,-63.36642837524414
8.774114611461148e6,163.98570251464844,10.15709400177002,-29.37891960144043,161.00123596191406
8.774114611461148e6,863.2335815429688,-36.78128433227539,19.930570602416992,862.2171630859375
8.774114611461148e6,306.529052734375,17.58922004699707,25.131834030151367,-304.98431396484375
8.774114611461148e6,338.4352722167969,19.785297393798828,-25.273099899291992,336.90447998046875
8.774114611461148e6,1281.5360107421875,-27.57054328918457,-20.96563720703125,-1281.06640625
8.774114611461148e6,101.24444580078125,4.416950225830078,-39.820743560791016,-92.96027374267578
8.774114611461148e6,556.5211181640625,-4.608010768890381,2.001706123352051,556.4952392578125
8.774114611461148e6,960.94384765625,38.3192253112793,10.745664596557617,-960.1174926757812
8.774114611461148e6,195.03713989257812,25.566837310791016,-16.662277221679688,192.62545776367188
8.774114611461148e6,214.32920837402344,-7.266712665557861,9.058449745178223,214.0059051513672
8.774114611461148e6,81.21688842773438,36.2645378112793,16.50251007080078,70.7468032836914
8.774114611461148e6,82.27838134765625,-0.4066241383552551,-33.853515625,-74.96587371826172
8.774114611461148e6,39.6903076171875,16.362964630126953,-8.538814544677734,35.08616256713867
8.774114611461148e6,39.013729095458984,-5.298673152923584,21.304487228393555,32.19456481933594
8.774114611461148e6,749.2973022460938,-41.3674430847168,16.880390167236328,-747.9616088867188
8.774114611461148e6,201.30625915527344,-13.504249572753906,-48.98234558105469,194.77923583984375
8.774114611461148e6,33.61280822753906,28.913761138916016,-14.902349472045898,8.252963066101074
8.774114611461148e6,21.005699157714844,14.956499099731445,-1.7758872509002686,14.517742156982422
8.774114611461148e6,74.41447448730469,35.7685546875,-18.82454490661621,62.45107650756836
8.774114611461148e6,72.13060760498047,30.059968948364258,23.669565200805664,61.11751937866211
8.774114611461148e6,12.222496032714844,-11.865438461303711,2.211350917816162,-0.2946547567844391
8.774114611461148e6,309.0742492675781,-8.721455574035645,-46.142154693603516,-305.4801330566406
8.774114611461148e6,768.9337158203125,-32.73084259033203,-13.99661922454834,-768.1068725585938
8.774114611461148e6,1669.6785888671875,32.30070877075195,21.453777313232422,1669.2271728515625
8.774114611461148e6,52.56714630126953,13.505181312561035,-29.131763458251953,-41.576812744140625
8.774114611461148e6,899.5809326171875,23.34120750427246,20.92470932006836,-899.0325927734375
8.774114611461148e6,147.3193817138672,-7.658970832824707,5.544078350067139,147.0033416748047
8.774114611461148e6,266.8798828125,40.77847671508789,15.762741088867188,263.2677307128906
8.774114611461148e6,2387.376953125,-36.926597595214844,10.938739776611328,-2387.065673828125
8.774114611461148e6,44.952301025390625,16.626815795898438,31.495986938476562,-27.361238479614258
8.774114611461148e6,85.36247253417969,-41.164302825927734,-24.86775779724121,70.49980926513672
8.774114611461148e6,975.270751953125,48.972389221191406,-15.352435111999512,-973.9176025390625
8.774114611461148e6,991.7183837890625,-1.506749153137207,-9.045092582702637,-991.6741333007812
8.774114611461148e6,821.201904296875,-6.558035373687744,13.471988677978516,-821.06298828125
8.774114611461148e6,40.19257736206055,19.853742599487305,-34.56853103637695,-4.760768890380859
8.774114611461148e6,38.47180938720703,-37.29075622558594,9.155068397521973,1.4284588098526
8.774114611461148e6,216.65582275390625,11.251001358032227,16.178756713867188,-215.74935913085938
8.774114611461148e6,769.9168701171875,-24.915815353393555,-0.29070383310317993,-769.5111694335938
8.774114611461148e6,43.496334075927734,-33.895774841308594,-26.107410430908203,7.601765155792236
8.774114611461148e6,2166.95361328125,-8.734545707702637,-17.414575576782227,2166.865234375
8.774114611461148e6,340.6042785644531,-10.820144653320312,16.04987144470215,-340.0484924316406
8.774114611461148e6,1042.4384765625,-204.4777374267578,99.25106048583984,-1017.3555908203125
8.774114611461148e6,987.7835083007812,7.333264350891113,9.407059669494629,987.7096557617188
8.774114611461148e6,417.2060546875,-19.119081497192383,-34.376861572265625,-415.34320068359375
8.774114611461148e6,46.37366485595703,25.75819969177246,18.262489318847656,-33.9100227355957
8.774114611461148e6,121.46160125732422,-39.01333236694336,9.069286346435547,-114.65167236328125
8.774114611461148e6,241.18350219726562,-21.85149383544922,-29.706039428710938,-238.33993530273438
8.774114611461148e6,32.90631866455078,-18.711580276489258,-4.464348316192627,26.629837036132812
8.774114611461148e6,26.642536163330078,26.34441375732422,2.8961286544799805,-1.9455550909042358
8.774114611461148e6,30.27745819091797,-6.003352642059326,-29.581552505493164,-1.4113876819610596
8.774114611461148e6,56.83194351196289,3.290492534637451,-37.23755645751953,42.76427459716797
8.774114611461148e6,404.10870361328125,-23.347227096557617,-81.3239974975586,395.1474914550781
8.774114611461148e6,34.30590057373047,11.707422256469727,-29.584226608276367,-12.687811851501465
8.774114611461148e6,86.89069366455078,-43.37348556518555,-5.330667018890381,-75.07791900634766
8.774114611461148e6,91.6434326171875,3.3829283714294434,36.645179748535156,83.90816497802734
8.774114611461148e6,84.8923110961914,-9.762720108032227,21.272449493408203,-81.57972717285156
8.774114611461148e6,45.291839599609375,4.764901638031006,-28.26630401611328,-35.01483154296875
8.774114611461148e6,621.7988891601562,-23.726428985595703,-24.890745162963867,-620.8444213867188
8.774114611461148e6,43.99055862426758,-18.780277252197266,25.264801025390625,30.668167114257812
8.774114611461148e6,42.76913070678711,31.101200103759766,-27.726896286010742,9.460929870605469
8.774114611461148e6,109.4260482788086,37.92294692993164,15.920504570007324,101.38453674316406
8.774114611461148e6,172.66217041015625,39.945899963378906,7.470973491668701,-167.80081176757812
8.774114611461148e6,126.31330871582031,1.4542056322097778,39.19255065917969,120.05522155761719
8.774114611461148e6,16.18277931213379,-15.790348052978516,-1.1973741054534912,2.736732006072998
8.774114611461148e6,9.995875358581543,-0.9975730180740356,-5.934309959411621,-7.751287937164307
8.774114611461148e6,492.5533447265625,-34.531959533691406,-13.775050163269043,491.14453125
8.774114611461148e6,398.9415283203125,8.224766731262207,14.960307121276855,398.5715026855469
8.774114611461148e6,581.756591796875,41.34640121459961,-7.41933012008667,580.23486328125
8.774114611461148e6,1707.8197021484375,-23.87725830078125,-29.539155960083008,-1707.396240234375
8.774114611461148e6,73.3895492553711,40.550907135009766,-17.55632972717285,58.56450271606445
8.774114611461148e6,521.9378051757812,21.8856143951416,22.12740135192871,-521.005615234375
8.774114611461148e6,140.38304138183594,92.78407287597656,70.11894226074219,78.60166931152344
8.774114611461148e6,1247.2825927734375,1.2835769653320312,6.127336502075195,-1247.2655029296875
8.774114611461148e6,22.050037384033203,10.047636985778809,19.483182907104492,1.4250898361206055
8.774114611461148e6,42.775428771972656,-31.851057052612305,21.679250717163086,18.483335494995117
8.774114611461148e6,411.4966735839844,-26.50320053100586,29.33228302001953,409.58892822265625
8.774114611461148e6,20.66761589050293,5.223084926605225,-17.55182456970215,9.390382766723633
8.774114611461148e6,832.90625,20.736154556274414,20.469715118408203,-832.394287109375
8.774114611461148e6,146.479248046875,35.98994445800781,-40.954837799072266,-135.94105529785156
8.774114611461148e6,241.9150390625,-103.89437103271484,-25.367368698120117,216.98321533203125
8.774114611461148e6,51.0391731262207,-28.56517791748047,-19.8348388671875,37.309288024902344
8.774114611461148e6,738.093994140625,62.023101806640625,42.558292388916016,734.2486572265625
8.774114611461148e6,149.4251708984375,-16.819334030151367,-29.931259155273438,-145.41488647460938
8.774114611461148e6,308.0123596191406,10.641040802001953,11.199501991271973,307.6188049316406
8.774114611461148e6,243.7750244140625,-40.795230865478516,28.050954818725586,238.68710327148438
8.774114611461148e6,373.342041015625,-23.7981014251709,-13.027575492858887,-372.35009765625
8.774114611461148e6,178.90309143066406,30.163801193237305,-0.0271607618778944,176.33160400390625
8.774114611461148e6,510.6408386230469,-3.60888934135437,30.622600555419922,-509.7054748535156
8.774114611461148e6,370.684814453125,26.682781219482422,26.26428985595703,-368.78424072265625
8.774114611461148e6,55.26805114746094,-41.95295333862305,28.51481056213379,-21.858379364013672
8.774114611461148e6,90.56385803222656,41.32186508178711,12.682775497436523,79.56028747558594
8.774114611461148e6,565.665771484375,-15.707230567932129,46.73298263549805,563.5099487304688
8.774114611461148e6,101.8421859741211,-5.956092834472656,-2.2782793045043945,101.62451171875
8.774114611461148e6,141.82835388183594,32.63725280761719,-17.101417541503906,136.94528198242188
8.774114611461148e6,249.55836486816406,1.2357739210128784,-31.638668060302734,247.53427124023438
8.774114611461148e6,37.78041076660156,18.84104347229004,30.124492645263672,-12.699041366577148
8.774114611461148e6,83.38954162597656,26.420320510864258,-55.16647720336914,-56.646427154541016
8.774114611461148e6,37.34282684326172,25.41077995300293,25.569297790527344,-9.558563232421875
8.774114611461148e6,272.670166015625,-29.83089256286621,-6.891233444213867,-270.9391784667969
8.774114611461148e6,31.361955642700195,11.287185668945312,19.477563858032227,21.752525329589844
8.774114611461148e6,524.5640258789062,3.8185603618621826,35.77864074707031,-523.3250732421875
8.774114611461148e6,16.64533233642578,8.45593547821045,-11.429556846618652,8.444262504577637
8.774114611461148e6,928.8778076171875,48.98411560058594,-1.6198651790618896,927.5819702148438
8.774114611461148e6,24.794300079345703,-14.417610168457031,2.083928346633911,-19.973060607910156
8.774114611461148e6,2520.315185546875,-10.709209442138672,35.743709564208984,2520.038330078125
8.774114611461148e6,486.5561218261719,-33.7883415222168,7.579329967498779,485.318603515625
8.774114611461148e6,131.58201599121094,-24.99337387084961,11.052576065063477,128.6987762451172
8.774114611461148e6,39.18733596801758,37.482337951660156,3.8470771312713623,10.597054481506348
8.774114611461148e6,797.5850830078125,35.29963684082031,19.219791412353516,-796.5693969726562
8.774114611461148e6,41.95487594604492,-13.672605514526367,19.85517120361328,34.284393310546875
8.774114611461148e6,37.38202667236328,18.518184661865234,20.755220413208008,24.901599884033203
8.774114611461148e6,2159.5263671875,15.151713371276855,0.7915369272232056,-2159.47216796875
8.774114611461148e6,66.997802734375,-28.389795303344727,-25.341001510620117,55.10839080810547
8.774114611461148e6,41.778968811035156,-3.0900492668151855,-38.03556442260742,16.899871826171875
8.774114611461148e6,79.80876922607422,20.121877670288086,36.75804901123047,-67.89530181884766
8.774114611461148e6,63.635982513427734,-15.29659652709961,-53.189308166503906,-31.350051879882812
8.774114611461148e6,50.92287826538086,-40.62839889526367,-26.830955505371094,14.796908378601074
8.774114611461148e6,862.5154418945312,-56.740413665771484,70.81805419921875,857.7263793945312
8.774114611461148e6,405.1867370605469,-35.410030364990234,-20.18427276611328,403.12701416015625
8.774114611461148e6,62.14814376831055,-6.467100143432617,-36.767723083496094,49.64956283569336
8.774114611461148e6,237.72113037109375,-7.410603046417236,1.3423751592636108,237.59417724609375
8.774114611461148e6,1415.4805908203125,18.79139518737793,38.27845764160156,1414.8367919921875
8.774114611461148e6,223.15652465820312,-1.855119228363037,29.225290298461914,-221.21856689453125
8.774114611461148e6,50.65620422363281,38.5370979309082,5.930542945861816,32.28231430053711
8.774114611461148e6,2569.00634765625,-45.59850311279297,47.46334457397461,-2568.162353515625
8.774114611461148e6,1801.3763427734375,24.32864761352539,-34.084468841552734,1800.8885498046875
8.774114611461148e6,305.82073974609375,-12.417494773864746,-37.50408172607422,-303.2522888183594
8.774114611461148e6,1042.14208984375,-13.113411903381348,2.3852877616882324,1042.0550537109375
8.774114611461148e6,2312.658447265625,-10.96367359161377,29.956327438354492,2312.437744140625
8.774114611461148e6,1829.0775146484375,-44.35212707519531,22.690471649169922,-1828.39794921875
8.774114611461148e6,9.48898983001709,-0.12712524831295013,-6.149087429046631,-6.9706244468688965
8.774114611461148e6,35.33354187011719,31.685026168823242,5.4774394035339355,14.522127151489258
8.774114611461148e6,302.2716979980469,-10.991750717163086,-33.52499771118164,300.1996154785156
8.774114611461148e6,2012.2603759765625,-29.55825424194336,-45.46861267089844,-2011.5284423828125
8.774114611461148e6,51.16973114013672,50.69306182861328,-5.847025394439697,3.277675151824951
8.774114611461148e6,139.6920623779297,-14.6552095413208,-28.1860294342041,136.01846313476562
8.774114611461148e6,706.9505615234375,46.8314323425293,-1.0853184461593628,-705.394287109375
8.774114611461148e6,48.11354446411133,16.019813537597656,20.781272888183594,40.28390884399414
8.774114611461148e6,75.03009796142578,-11.797216415405273,-36.08780288696289,64.68685150146484
8.774114611461148e6,123.93342590332031,-23.246286392211914,-23.975757598876953,119.33415985107422
8.774114611461148e6,28.722352981567383,-24.712322235107422,-11.412764549255371,-8.966581344604492
8.774114611461148e6,41.95405197143555,3.7828025817871094,28.98151206970215,-30.037992477416992
8.774114611461148e6,81.4268569946289,-36.708824157714844,-36.123958587646484,63.041500091552734
8.774114611461148e6,96.38275146484375,-32.69990921020508,-19.15738868713379,-88.5986557006836
8.774114611461148e6,85.8037109375,39.65318298339844,-14.696221351623535,-74.63443756103516
8.774114611461148e6,72.09756469726562,-3.582439422607422,-37.6743049621582,61.33716583251953
8.774114611461148e6,35.121368408203125,33.56169891357422,4.763817310333252,-8.989157676696777
8.774114611461148e6,73.33888244628906,-36.179141998291016,-2.04388427734375,-63.73272705078125
8.774114611461148e6,578.9675903320312,-4.2627997398376465,-23.91868019104004,-578.4544677734375
8.774114611461148e6,203.92929077148438,23.825700759887695,-26.717260360717773,200.75372314453125
8.774114611461148e6,45.00323486328125,19.560382843017578,10.064833641052246,-39.21425247192383
8.774114611461148e6,244.07257080078125,-33.40068054199219,-27.891916275024414,-240.15460205078125
8.774114611461148e6,9.281096458435059,-8.203939437866211,-3.066234588623047,2.410071611404419
8.774114611461148e6,25.05066680908203,-17.961103439331055,-0.151153102517128,-17.357646942138672
8.774114611461148e6,45.76179504394531,1.8069639205932617,-35.04726791381836,29.30771255493164
8.774114611461148e6,37.56474685668945,22.894962310791016,-26.63685417175293,-13.182758331298828
8.774114611461148e6,295.34356689453125,2.640048027038574,23.3580322265625,-294.40045166015625
8.774114611461148e6,22.271116256713867,-15.715375900268555,-10.498004913330078,-11.627449989318848
8.774114611461148e6,31.44948387145996,25.059478759765625,-12.05176830291748,14.567893028259277
8.774114611461148e6,51.2659912109375,-0.7435957789421082,-29.402070999145508,41.94690704345703
8.774114611461148e6,75.01970672607422,29.817317962646484,-7.25840950012207,-68.4293441772461
8.774114611461148e6,355.0799560546875,-2.130349636077881,22.34532928466797,-354.3646545410156
8.774114611461148e6,26.388477325439453,-18.020130157470703,-0.43031808733940125,19.178569793701172
8.774114611461148e6,115.24068450927734,-47.44042205810547,13.729622840881348,104.104248046875
8.774114611461148e6,29.38823890686035,7.227774143218994,27.005783081054688,-8.859552383422852
8.774114611461148e6,113.10303497314453,31.599666595458984,-1.253562569618225,108.57514953613281
8.774114611461148e6,61.10335922241211,3.442100763320923,-0.7602329254150391,-60.971885681152344
8.774114611461148e6,27.15420150756836,12.333036422729492,-3.1406729221343994,23.91148567199707
8.774114611461148e6,172.7569122314453,40.62883377075195,-31.2570743560791,-164.96551513671875
8.774114611461148e6,824.37109375,-35.49603271484375,15.56248664855957,823.457275390625
8.774114611461148e6,92.32854461669922,8.895444869995117,-35.653282165527344,-84.67969512939453
8.774114611461148e6,165.97438049316406,-2.214705228805542,-28.9768123626709,163.39923095703125
8.774114611461148e6,130.27017211914062,2.2338359355926514,-47.19284439086914,121.38591003417969
8.774114611461148e6,461.16107177734375,-32.512001037597656,14.192628860473633,-459.7906494140625
8.774114611461148e6,17.023767471313477,-12.036481857299805,-8.016097068786621,-8.777817726135254
8.774114611461148e6,62.77179718017578,24.541257858276367,12.281951904296875,-56.42300033569336
8.774114611461148e6,151.93548583984375,-6.540380001068115,4.644540309906006,151.71163940429688
8.774114611461148e6,976.2660522460938,45.06229019165039,7.429819583892822,-975.1953735351562
8.774114611461148e6,440.8722229003906,-49.76654815673828,-13.043553352355957,-437.8559875488281
8.774114611461148e6,22.8256893157959,-11.330159187316895,18.203521728515625,7.592594146728516
8.774114611461148e6,359.0936584472656,0.13185441493988037,-20.425397872924805,-358.5072021484375
8.774114611461148e6,56.070289611816406,-5.208531379699707,28.63697624206543,-47.88578414916992
8.774114611461148e6,180.5106658935547,-43.35086441040039,12.304710388183594,174.78494262695312
8.774114611461148e6,1284.541015625,8.20661449432373,-9.675074577331543,1284.4769287109375
8.774114611461148e6,211.49240112304688,24.66130828857422,9.377116203308105,209.83160400390625
8.774114611461148e6,36.86412811279297,11.881553649902344,-14.245126724243164,-31.800079345703125
8.774114611461148e6,27.116640090942383,8.472745895385742,21.95522117614746,13.336759567260742
8.774114611461148e6,47.11085891723633,38.1870002746582,9.519122123718262,25.825347900390625
8.774114611461148e6,49.13064193725586,-2.191272735595703,-4.222033977508545,-48.862754821777344
8.774114611461148e6,2077.7724609375,9.442607879638672,-12.112371444702148,-2077.71484375
8.774114611461148e6,57.61237716674805,-7.132214546203613,45.97528076171875,-33.92591094970703
8.774114611461148e6,38.003501892089844,-34.88344192504883,-0.3436574339866638,14.955587387084961
8.774114611461148e6,81.26757049560547,14.087307929992676,-23.316129684448242,76.54214477539062
8.774114611461148e6,155.62078857421875,-29.593612670898438,23.603498458862305,150.93475341796875
8.774114611461148e6,5328.41064453125,19.684980392456055,-1.2837600708007812,5328.37353515625
8.774114611461148e6,46.86672592163086,38.66572570800781,-19.283578872680664,18.054670333862305
8.774114611461148e6,259.1295166015625,-42.954322814941406,3.445944309234619,-255.5142364501953
8.774114611461148e6,33.41344451904297,32.6541862487793,0.6168504953384399,6.793968677520752
8.774114611461148e6,127.39855194091797,-34.286041259765625,-29.93206787109375,118.97607421875
8.774114611461148e6,238.9801025390625,15.670320510864258,-13.537138938903809,-238.07362365722656
8.774114611461148e6,130.5334930419922,-12.661922454833984,28.52817726135254,-126.73273468017578
8.774114611461148e6,124.06800842285156,16.905948638916016,-40.62471008300781,-115.98735809326172
8.774114611461148e6,140.6842041015625,-13.386345863342285,13.944228172302246,139.33694458007812
8.774114611461148e6,36.15517044067383,28.830263137817383,-21.72493553161621,0.6446110010147095
8.774114611461148e6,63.839420318603516,28.826204299926758,-20.872220993041992,-52.96459197998047
8.774114611461148e6,419.9349365234375,-31.788738250732422,28.881366729736328,-417.72845458984375
8.774114611461148e6,55.5367546081543,13.397468566894531,-45.407569885253906,28.97183609008789
8.774114611461148e6,44.077640533447266,42.62962341308594,0.8622862696647644,11.00846004486084
8.774114611461148e6,71.85359954833984,-14.86752700805664,-5.553699970245361,70.05304718017578
8.774114611461148e6,8.578364372253418,7.077665328979492,0.5397821664810181,-4.424900054931641
8.774114611461148e6,57.62672424316406,6.853933811187744,-37.45722579956055,43.211055755615234
8.774114611461148e6,92.00230407714844,-37.75269317626953,-3.0009405612945557,-83.82438659667969
8.774114611461148e6,130.20974731445312,19.558780670166016,-5.348587512969971,-128.60716247558594
8.774114611461148e6,74.51920318603516,7.675838470458984,-24.927108764648438,69.77971649169922
8.774114611461148e6,126.05079650878906,42.061737060546875,28.08315086364746,-115.44404602050781
8.774114611461148e6,1369.4786376953125,-47.30927276611328,9.718255996704102,1368.62548828125
8.774114611461148e6,303.0442199707031,-24.36901092529297,30.940589904785156,-300.46795654296875
8.774114611461148e6,91.76021575927734,-26.16364288330078,32.648658752441406,81.64460754394531
8.774114611461148e6,898.608154296875,-20.004135131835938,31.681306838989258,-897.8246459960938
8.774114611461148e6,398.24151611328125,18.763586044311523,-58.375877380371094,-393.48809814453125
8.774114611461148e6,37.84299087524414,-2.225895881652832,-13.543168067932129,35.214996337890625
8.774114611461148e6,146.11404418945312,24.269268035888672,-16.88716697692871,-143.07870483398438
8.774114611461148e6,66.62938690185547,-31.947298049926758,0.4272201955318451,-58.438331604003906
8.774114611461148e6,327.5494384765625,9.775961875915527,-43.54936218261719,-324.4886779785156
8.774114611461148e6,19.302501678466797,15.732314109802246,10.431072235107422,-3.556642770767212
8.774114611461148e6,150.15167236328125,22.204986572265625,42.18235778808594,142.37095642089844
8.774114611461148e6,1684.321533203125,-113.56419372558594,90.579345703125,-1678.044677734375
8.774114611461148e6,176.92977905273438,16.59275245666504,-46.27412796020508,169.95266723632812
8.774114611461148e6,198.74746704101562,3.90140700340271,-46.95794677734375,193.0716552734375
8.774114611461148e6,61.919960021972656,3.0343823432922363,40.48061752319336,-46.717979431152344
8.774114611461148e6,75.455810546875,-21.610584259033203,-50.433502197265625,51.7629280090332
8.774114611461148e6,11.523848533630371,8.813087463378906,3.3484561443328857,6.347639560699463
8.774114611461148e6,23.817655563354492,2.466498613357544,-20.800888061523438,-11.175702095031738
8.774114611461148e6,109.10472106933594,13.07433795928955,-25.07120704650879,105.35991668701172
8.774114611461148e6,1187.875732421875,31.183258056640625,-4.333703994750977,-1187.4569091796875
8.774114611461148e6,287.5050048828125,28.35525131225586,-6.935128211975098,286.012939453125
8.774114611461148e6,497.20281982421875,-6.924313068389893,-15.654873847961426,496.9044189453125
8.774114611461148e6,45.94097900390625,-44.213741302490234,-5.756290435791016,-10.90687370300293
8.774114611461148e6,48.005088806152344,31.845029830932617,-8.21717357635498,-34.917572021484375
8.774114611461148e6,295.5869445800781,22.473007202148438,-4.271081447601318,-294.6943054199219
8.774114611461148e6,390.9831237792969,48.02627944946289,21.34305763244629,387.43017578125
8.774114611461148e6,296.5167541503906,-6.563276290893555,-12.638587951660156,-296.16845703125
8.774114611461148e6,727.7024536132812,-37.217918395996094,3.8983705043792725,-726.7371215820312
8.774114611461148e6,72.6807861328125,-34.89433670043945,-23.820005416870117,-59.10892868041992
8.774114611461148e6,567.085693359375,-20.679046630859375,-21.629436492919922,566.2924194335938
8.774114611461148e6,670.4205322265625,17.878250122070312,7.1030378341674805,-670.1417236328125
8.774114611461148e6,49.88617706298828,26.930559158325195,-39.67580795288086,-13.622838973999023
8.774114611461148e6,131.6995086669922,33.99269485473633,-16.870574951171875,-126.09923553466797
8.774114611461148e6,34.14043426513672,24.06989097595215,12.416521072387695,-20.69820785522461
8.774114611461148e6,586.8157958984375,1.0024186372756958,-3.9720077514648438,586.7984008789062
8.774114611461148e6,106.06333923339844,-27.39173698425293,-7.924768924713135,-102.14058685302734
8.774114611461148e6,45.827701568603516,-12.0220947265625,-30.60788917541504,-31.86189842224121
8.774114611461148e6,268.970703125,28.082094192504883,13.976776123046875,267.1285400390625
8.774114611461148e6,399.51531982421875,29.324905395507812,32.6861686706543,-397.090087890625
8.774114611461148e6,660.0769653320312,20.116914749145508,-17.399229049682617,-659.5381469726562
8.774114611461148e6,44.11830520629883,21.121793746948242,32.85728073120117,20.422286987304688
8.774114611461148e6,762.9757080078125,44.21222686767578,58.715389251708984,-759.4248657226562
8.774114611461148e6,433.1957092285156,18.22134780883789,-26.656261444091797,-431.9864807128906
8.774114611461148e6,235.6561279296875,-32.62215042114258,-4.954029560089111,-233.32688903808594
8.774114611461148e6,113.48461151123047,23.592391967773438,32.48362731933594,-106.12891387939453
8.774114611461148e6,189.2427520751953,17.654964447021484,3.4820189476013184,188.3756103515625
8.774114611461148e6,6.451677322387695,2.508091926574707,-3.772429943084717,4.18073034286499
8.774114611461148e6,990.13818359375,-11.503368377685547,-5.486239433288574,990.0543212890625
8.774114611461148e6,34.47743606567383,-28.74379539489746,5.585691452026367,18.10148811340332
8.774114611461148e6,790.9063110351562,-18.53058624267578,19.08275032043457,790.4566040039062
8.774114611461148e6,19.80908966064453,0.02935737371444702,-19.65935516357422,-1.511644721031189
8.774114611461148e6,221.01806640625,42.39393997192383,7.704374313354492,216.76890563964844
8.774114611461148e6,91.69402313232422,33.894866943359375,7.203179836273193,-84.87297821044922
8.774114611461148e6,87.43775939941406,-56.18417739868164,-3.305464267730713,66.88908386230469
8.774114611461148e6,529.8907470703125,39.740360260009766,-34.20817565917969,527.2865600585938
8.774114611461148e6,194.90933227539062,45.44133377075195,4.1661858558654785,189.4828643798828
8.774114611461148e6,116.73095703125,39.5621223449707,28.24165916442871,-106.11192321777344
8.774114611461148e6,76.02529907226562,-38.41420364379883,22.1697940826416,61.71767807006836
8.774114611461148e6,50.84614181518555,-19.604238510131836,-2.6854450702667236,-46.79923629760742
8.774114611461148e6,11.031410217285156,-4.646924018859863,-9.251535415649414,-3.2989883422851562
8.774114611461148e6,1787.069091796875,-14.030317306518555,16.689285278320312,1786.93505859375
8.774114611461148e6,75.124755859375,-15.023970603942871,24.955595016479492,-69.2214126586914
8.774114611461148e6,312.58935546875,25.68781280517578,27.284196853637695,-310.32916259765625
8.774114611461148e6,86.58773803710938,17.79684066772461,-3.7126996517181396,-84.63628387451172
8.774114611461148e6,98.75585174560547,-19.06883430480957,-14.843297004699707,-95.73479461669922
8.774114611461148e6,345.6151428222656,-4.8242645263671875,-7.505038261413574,345.4947204589844
8.774114611461148e6,32.63163757324219,5.794579029083252,-13.4603853225708,-29.093652725219727
8.774114611461148e6,213.7122802734375,21.92133140563965,21.143510818481445,211.52239990234375
8.774114611461148e6,38.888427734375,-21.33591651916504,21.95255470275879,23.90711212158203
8.774114611461148e6,33.54481887817383,-19.00900650024414,11.49394416809082,25.063478469848633
8.774114611461148e6,397.4442138671875,40.301422119140625,9.376004219055176,395.27984619140625
8.774114611461148e6,148.3894500732422,26.157917022705078,-16.090532302856445,145.1642608642578
8.774114611461148e6,283.9237365722656,17.10642433166504,-34.988162994384766,-281.2334899902344
8.774114611461148e6,87.90524291992188,-6.0225749015808105,-21.485742568969727,85.00469970703125
8.774114611461148e6,35.4957389831543,-25.465511322021484,7.206300735473633,23.577545166015625
8.774114611461148e6,56.414710998535156,-0.12973710894584656,23.833017349243164,-51.09761428833008
8.774114611461148e6,38.691062927246094,0.44908076524734497,0.460185706615448,-38.63885498046875
8.774114611461148e6,20.20213508605957,18.37371063232422,-7.631676197052002,2.943909168243408
8.774114611461148e6,930.6280517578125,20.892925262451172,-10.413722038269043,930.3333129882812
8.774114611461148e6,29.284099578857422,25.55721092224121,9.471415519714355,10.538305282592773
8.774114611461148e6,46.29960632324219,6.323220729827881,-42.20451354980469,-17.855684280395508
8.774114611461148e6,44.276546478271484,-44.09785842895508,3.4494781494140625,0.5183970332145691
8.774114611461148e6,27.0926456451416,-2.226562976837158,-16.689517974853516,-21.139772415161133
8.774114611461148e6,761.5155639648438,18.153974533081055,45.31509017944336,-759.9468994140625
8.774114611461148e6,39.77273178100586,17.857391357421875,26.75571060180664,-23.31291389465332
8.774114611461148e6,144.8260955810547,26.513240814208984,6.266792297363281,142.22781372070312
8.774114611461148e6,40.4967155456543,15.414209365844727,5.311638355255127,37.02092361450195
8.774114611461148e6,954.3587646484375,6.8599066734313965,-44.23081588745117,953.306640625
8.774114611461148e6,186.55224609375,-11.999316215515137,37.676109313964844,-182.30372619628906
8.774114611461148e6,357.2044677734375,-20.216976165771484,38.66177749633789,-354.52496337890625
8.774114611461148e6,119.85404968261719,-11.469279289245605,-39.94291305541992,-112.40279388427734
8.774114611461148e6,481.02191162109375,51.52334976196289,-5.20143985748291,-478.2225036621094
8.774114611461148e6,40.22365951538086,7.806116104125977,-38.80821228027344,-6.87794828414917
8.774114611461148e6,671.7200927734375,10.145838737487793,-9.722630500793457,671.5704345703125
8.774114611461148e6,80.82437896728516,-41.03220748901367,6.362734317779541,-69.31687927246094
8.774114611461148e6,17.517667770385742,13.440387725830078,10.47956657409668,-3.574836492538452
8.774114611461148e6,55.95546340942383,-15.870323181152344,33.901302337646484,41.54785919189453
8.774114611461148e6,81.31758880615234,17.011987686157227,12.638866424560547,78.4842529296875
8.774114611461148e6,123.29718017578125,29.322830200195312,39.96769332885742,-112.87747955322266
8.774114611461148e6,152.492919921875,21.51894187927246,-32.673370361328125,147.37657165527344
8.774114611461148e6,2771.59130859375,5.173008441925049,-34.399986267089844,2771.372314453125
8.774114611461148e6,75.87939453125,10.501358032226562,-45.41411590576172,-59.84428405761719
8.774114611461148e6,27.89512062072754,3.9473929405212402,17.5954532623291,-21.197452545166016
8.774114611461148e6,278.5653076171875,-23.77017593383789,-34.25574493408203,275.4206237792969
8.774114611461148e6,48.707916259765625,10.716034889221191,22.104843139648438,-42.016422271728516
8.774114611461148e6,148.47808837890625,-37.66706466674805,9.3328275680542,143.3046112060547
8.774114611461148e6,50.4052848815918,46.651580810546875,-18.573144912719727,-3.967021942138672
8.774114611461148e6,871.6776733398438,-21.573766708374023,26.85413360595703,-870.9946899414062
8.774114611461148e6,50.217952728271484,33.676273345947266,35.100379943847656,12.332512855529785
8.774114611461148e6,27.979576110839844,12.996021270751953,-5.741387844085693,-24.028579711914062
8.774114611461148e6,44.504024505615234,19.6390380859375,38.50956344604492,10.407022476196289
8.774114611461148e6,115.32978820800781,20.05132484436035,5.974703311920166,113.40010833740234
8.774114611461148e6,287.1330871582031,-13.554624557495117,39.21527862548828,284.113037109375
8.774114611461148e6,783.0718994140625,16.078279495239258,57.33102035522461,780.8025512695312
8.774114611461148e6,1732.3017578125,-44.84415054321289,3.4442832469940186,1731.716796875
8.774114611461148e6,482.21624755859375,21.434778213500977,-25.506818771362305,-481.06011962890625
8.774114611461148e6,705.009033203125,-30.366653442382812,27.140254974365234,703.8291015625
8.774114611461148e6,108.93634796142578,55.10324478149414,-48.666805267333984,-80.36590576171875
8.774114611461148e6,955.2350463867188,-15.750261306762695,27.897003173828125,-954.69580078125
8.774114611461148e6,105.96841430664062,35.78843307495117,-2.793583631515503,99.68482971191406
8.774114611461148e6,733.296875,3.9124088287353516,50.1762580871582,-731.5652465820312
8.774114611461148e6,63.594261169433594,45.730655670166016,-18.28866195678711,-40.18505096435547
8.774114611461148e6,285.81353759765625,2.8729047775268555,15.005735397338867,285.3985595703125
8.774114611461148e6,555.3102416992188,-42.18033218383789,-10.077263832092285,-553.6109619140625
8.774114611461148e6,217.14109802246094,17.260713577270508,34.33473587036133,-213.70498657226562
8.774114611461148e6,54.877952575683594,14.13766860961914,-17.706043243408203,49.94585418701172
8.774114611461148e6,113.76966094970703,50.7785758972168,-15.533918380737305,-100.59893798828125
8.774114611461148e6,13.6497802734375,1.5311017036437988,-6.198918342590332,-11.913091659545898
8.774114611461148e6,45.19221878051758,22.430866241455078,16.691932678222656,35.453468322753906
8.774114611461148e6,462.4934387207031,-20.0533504486084,-79.68287658691406,-455.13189697265625
8.774114611461148e6,1394.945068359375,10.358009338378906,42.98881912231445,1394.24267578125
8.774114611461148e6,102.71995544433594,36.975711822509766,-7.420583724975586,-95.5274658203125
8.774114611461148e6,260.6418762207031,-1.4966803789138794,40.77476119995117,257.42132568359375
8.774114611461148e6,93.19178771972656,4.385227680206299,-8.973151206970215,-92.63550567626953
8.774114611461148e6,898.9574584960938,13.846718788146973,-22.602787017822266,-898.5645751953125
8.774114611461148e6,65.4402847290039,2.216578245162964,30.9471435546875,57.586181640625
8.774114611461148e6,97.58838653564453,-13.379137992858887,20.106565475463867,-94.53356170654297
8.774114611461148e6,47.52240753173828,31.63790512084961,-5.856153964996338,-34.92139434814453
8.774114611461148e6,93.68660736083984,29.351295471191406,7.3047099113464355,88.64930725097656
8.774114611461148e6,214.188720703125,-38.93632125854492,12.325998306274414,-210.2503662109375
8.774114611461148e6,50.8397216796875,6.951155185699463,-37.92759704589844,33.07918167114258
8.774114611461148e6,48.95831298828125,-16.29875946044922,-8.762048721313477,-45.28652572631836
8.774114611461148e6,43.58004379272461,12.923468589782715,10.55893611907959,40.21304702758789
8.774114611461148e6,530.214599609375,7.071274757385254,-4.542044639587402,530.1445922851562
8.774114611461148e6,348.77398681640625,27.17425537109375,27.54497528076172,-346.6158142089844
8.774114611461148e6,397.55816650390625,22.178794860839844,25.674985885620117,-396.10321044921875
8.774114611461148e6,2954.21533203125,-4.494020462036133,13.88381290435791,-2954.1787109375
8.774114611461148e6,2122.0234375,23.842260360717773,-17.474130630493164,-2121.81689453125
8.774114611461148e6,88.3170394897461,-33.689056396484375,-27.373594284057617,76.88958740234375
8.774114611461148e6,40.50189208984375,6.288756847381592,29.285001754760742,27.195947647094727
8.774114611461148e6,41.758628845214844,15.926279067993164,26.152881622314453,-28.329132080078125
8.774114611461148e6,480.8714599609375,39.05815505981445,0.27907416224479675,-479.27874755859375
8.774114611461148e6,1095.0994873046875,-60.127315521240234,-29.728776931762695,-1093.041748046875
8.774114611461148e6,13.309600830078125,2.3050918579101562,-1.1936699151992798,-12.914460182189941
8.774114611461148e6,246.26736450195312,-33.1889533996582,16.67544174194336,-243.44284057617188
8.774114611461148e6,44.20140838623047,-1.3694123029708862,22.302345275878906,-38.09029769897461
8.774114611461148e6,136.7632293701172,-31.566104888916016,34.22946548461914,-128.57870483398438
8.774114611461148e6,51.65769958496094,23.487764358520508,14.00899600982666,43.783180236816406
8.774114611461148e6,150.2550506591797,-19.669334411621094,10.537055015563965,148.5767364501953
8.774114611461148e6,1044.43408203125,-110.86107635498047,54.0626106262207,-1037.1239013671875
8.774114611461148e6,624.0333251953125,-27.567340850830078,26.472745895385742,622.85888671875
8.774114611461148e6,458.9751281738281,2.007657289505005,-38.244056701660156,-457.3706359863281
8.774114611461148e6,209.4430389404297,37.5307731628418,24.50238609313965,204.5821075439453
8.774114611461148e6,493.66912841796875,-13.120878219604492,-28.3822021484375,492.6741943359375
8.774114611461148e6,111.36672973632812,-51.02964782714844,53.190582275390625,-83.46054077148438
8.774114611461148e6,29.828956604003906,-23.84585189819336,8.519791603088379,-15.65027904510498
8.774114611461148e6,21.911293029785156,-10.514301300048828,16.452878952026367,-9.758744239807129
8.774114611461148e6,158.88864135742188,9.109173774719238,-47.998104095458984,151.17930603027344
8.774114611461148e6,60.820701599121094,-4.8727264404296875,14.869954109191895,-58.7424430847168
8.774114611461148e6,88.8172836303711,-9.166069984436035,-27.526697158813477,-83.92347717285156
8.774114611461148e6,487.4334411621094,11.755090713500977,11.12515926361084,-487.1609191894531
8.774114611461148e6,46.77718734741211,-32.343257904052734,6.009284973144531,-33.200653076171875
8.774114611461148e6,221.79795837402344,-9.753318786621094,26.225746154785156,220.01771545410156
8.774114611461148e6,9.062262535095215,-0.05834931507706642,-7.532833576202393,4.664090633392334
8.774114611461148e6,49.21125030517578,-41.19206237792969,6.115689754486084,26.15216064453125
8.774114611461148e6,42.83589553833008,-18.9078311920166,-31.00868797302246,22.632837295532227
8.774114611461148e6,1028.855712890625,-18.03459358215332,33.877525329589844,1028.137939453125
8.774114611461148e6,155.94178771972656,28.701805114746094,-1.9540739059448242,153.25340270996094
8.774114611461148e6,851.4736328125,24.293657302856445,-21.89824104309082,-850.8431396484375
8.774114611461148e6,189.97804260253906,14.986503601074219,-6.312288284301758,189.27120971679688
8.774114611461148e6,707.1787109375,-52.35483932495117,11.518875122070312,705.141357421875
8.774114611461148e6,228.77212524414062,-31.63448715209961,22.028833389282227,225.49290466308594
8.774114611461148e6,274.3473815917969,-38.96709442138672,-3.1262693405151367,-271.541259765625
8.774114611461148e6,684.0235595703125,-33.19095993041992,-29.897205352783203,682.5607299804688
8.774114611461148e6,810.076904296875,-26.52484893798828,-7.270823001861572,-809.6076049804688
8.774114611461148e6,113.69752502441406,25.123058319091797,24.274457931518555,108.18080139160156
8.774114611461148e6,220.8959503173828,3.2571330070495605,19.235210418701172,-220.0245361328125
8.774114611461148e6,48.561126708984375,-39.5298957824707,9.527918815612793,26.479522705078125
8.774114611461148e6,23.530620574951172,-13.19245433807373,8.116769790649414,-17.610889434814453
8.774114611461148e6,111.89855194091797,32.504947662353516,-0.44648438692092896,-107.05555725097656
8.774114611461148e6,151.25726318359375,45.506675720214844,-32.6430549621582,140.49452209472656
8.774114611461148e6,115.134033203125,-5.83413028717041,40.38473129272461,107.64412689208984
8.774114611461148e6,105.09477996826172,-30.37879180908203,4.933604717254639,100.46928405761719
8.774114611461148e6,459.6719665527344,-34.6988639831543,-13.298365592956543,-458.1635437011719
8.774114611461148e6,129.28836059570312,18.68684196472168,22.53278923034668,-125.9163589477539
8.774114611461148e6,43.722259521484375,19.560321807861328,-23.51332664489746,31.185401916503906
8.774114611461148e6,189.24066162109375,-9.458986282348633,10.051679611206055,-188.72705078125
8.774114611461148e6,27.136985778808594,17.509845733642578,-17.2509708404541,11.340255737304688
8.774114611461148e6,1681.691162109375,-0.8092427253723145,-16.731191635131836,1681.6065673828125
8.774114611461148e6,323.303955078125,24.04522705078125,-39.459415435791016,319.97906494140625
8.774114611461148e6,9.262469291687012,1.7383309602737427,5.286880016326904,-7.155177116394043
8.774114611461148e6,236.52525329589844,-29.28935432434082,13.39260482788086,234.31463623046875
8.774114611461148e6,281.4185485839844,17.242618560791016,-0.12312450259923935,280.8833312988281
8.774114611461148e6,636.8323364257812,-0.8533558249473572,-36.04084396362305,-635.8082885742188
8.774114611461148e6,265.87249755859375,36.813819885253906,-23.556467056274414,-262.2487487792969
8.774114611461148e6,4246.88037109375,-12.019491195678711,-22.81096076965332,-4246.80126953125
8.774114611461148e6,27.948747634887695,-22.143362045288086,-16.87083625793457,1.59847092628479
8.774114611461148e6,35.18377685546875,-12.634515762329102,31.994184494018555,-7.1424994468688965
8.774114611461148e6,96.0192642211914,-33.38298797607422,-1.1196411848068237,90.00220489501953
8.774114611461148e6,73.02863311767578,-2.6698827743530273,38.22909164428711,62.13666915893555
8.774114611461148e6,1098.78759765625,13.358776092529297,40.220115661621094,-1097.96826171875
8.774114611461148e6,24.45454216003418,7.101848125457764,23.108985900878906,-3.1526687145233154
8.774114611461148e6,340.8565368652344,11.08453369140625,-12.246989250183105,340.45074462890625
8.774114611461148e6,304.3756103515625,-29.117496490478516,4.7252197265625,-302.9368591308594
8.774114611461148e6,85.34290313720703,-17.78989601135254,30.799240112304688,-77.55458068847656
8.774114611461148e6,21.413759231567383,8.236124992370605,-18.79024314880371,-5.832514762878418
8.774114611461148e6,73.477783203125,31.043792724609375,2.519526481628418,66.52289581298828
8.774114611461148e6,42.57281494140625,-36.331871032714844,17.141550064086914,13.963630676269531
8.774114611461148e6,3427.763916015625,14.364298820495605,-18.45001220703125,3427.68359375
8.774114611461148e6,35.02880859375,-20.362720489501953,6.340056419372559,-27.722856521606445
8.774114611461148e6,341.3894348144531,9.577632904052734,-45.749202728271484,-338.169189453125
8.774114611461148e6,208.43182373046875,-23.21204948425293,-9.515264511108398,206.90785217285156
8.774114611461148e6,226.9282684326172,-38.51032638549805,-14.75932788848877,223.1410675048828
8.774114611461148e6,222.52804565429688,-13.046144485473633,41.64891052246094,-218.19778442382812
8.774114611461148e6,246.8213653564453,22.384647369384766,-37.83513641357422,-242.86744689941406
8.774114611461148e6,40.85478210449219,-6.166549205780029,40.271453857421875,2.3818342685699463
8.774114611461148e6,28.471525192260742,-26.312135696411133,9.441973686218262,5.052177429199219
8.774114611461148e6,920.0225830078125,23.404605865478516,9.429854393005371,919.674560546875
8.774114611461148e6,36.271053314208984,18.870004653930664,17.185543060302734,-25.701080322265625
8.774114611461148e6,861.8720092773438,-21.282907485961914,-5.883342266082764,861.5870361328125
8.774114611461148e6,184.67930603027344,18.89107322692871,-16.9030704498291,182.92140197753906
8.774114611461148e6,554.5508422851562,-42.90049743652344,9.542763710021973,552.8033447265625
8.774114611461148e6,583.1787719726562,-30.490909576416016,29.019399642944336,-581.654541015625
8.774114611461148e6,181.41754150390625,-9.713408470153809,-30.273286819458008,178.59976196289062
8.774114611461148e6,34.50655746459961,-14.1741304397583,-16.3839168548584,-26.790668487548828
8.774114611461148e6,104.14061737060547,37.56880187988281,6.701557636260986,-96.87785339355469
8.774114611461148e6,133.53695678710938,33.757930755615234,-18.174814224243164,127.900634765625
8.774114611461148e6,56.420169830322266,45.04375076293945,-15.54325008392334,30.150943756103516
8.774114611461148e6,697.8466186523438,21.76248550415039,-1.2794005870819092,697.50341796875
8.774114611461148e6,370.2113342285156,-38.86355209350586,16.764347076416016,367.77899169921875
8.774114611461148e6,145.8172149658203,-33.923492431640625,21.54654312133789,-140.156982421875
8.774114611461148e6,481.6423645019531,22.96293067932129,2.565842390060425,-481.08404541015625
8.774114611461148e6,67.01513671875,-18.202484130859375,23.639238357543945,-59.977169036865234
8.774114611461148e6,1403.32177734375,44.6785888671875,-11.177597045898438,1402.564453125
8.774114611461148e6,209.3332061767578,66.69788360595703,-11.872828483581543,198.05856323242188
8.774114611461148e6,26.24970817565918,4.363844871520996,25.557857513427734,-3.629883289337158
8.774114611461148e6,286.93017578125,-30.78776741027832,-7.199590682983398,-285.1763916015625
8.774114611461148e6,117.06326293945312,7.7018938064575195,-8.074843406677246,116.51464080810547
8.774114611461148e6,397.6816101074219,-8.899360656738281,26.857017517089844,396.6693115234375
8.774114611461148e6,53.037109375,-45.51136779785156,-23.72415542602539,13.23597526550293
8.774114611461148e6,369.6932067871094,-12.974288940429688,-15.796756744384766,369.1227111816406
8.774114611461148e6,61.49614715576172,-12.490212440490723,18.324968338012695,57.326629638671875
8.774114611461148e6,141.4402313232422,32.32857131958008,29.80844497680664,-134.41738891601562
8.774114611461148e6,226.13858032226562,44.45344543457031,-7.568808078765869,221.58889770507812
8.774114611461148e6,178.7740020751953,68.70489501953125,45.05329895019531,-158.76510620117188
8.774114611461148e6,2070.71484375,25.906723022460938,-25.06321144104004,-2070.400146484375
8.774114611461148e6,99.32315826416016,14.217405319213867,-20.230222702026367,-96.17727661132812
8.774114611461148e6,77.43638610839844,6.367792129516602,-25.98361587524414,72.64346313476562
8.774114611461148e6,590.8267211914062,15.506373405456543,3.5885231494903564,-590.6091918945312
8.774114611461148e6,1095.632080078125,43.673587799072266,4.357677459716797,1094.7508544921875
8.774114611461148e6,71.27845001220703,27.051923751831055,-30.716899871826172,-58.32373809814453
8.774114611461148e6,216.46902465820312,-35.19859313964844,13.81623363494873,213.13230895996094
8.774114611461148e6,25.47945785522461,-18.25749397277832,15.888042449951172,-7.733881950378418
8.774114611461148e6,37.612972259521484,-8.564133644104004,-33.88371276855469,-13.771767616271973
8.774114611461148e6,159.68638610839844,35.47012710571289,-10.484600067138672,155.3321075439453
