65969.3175438954,1123.2942133293564,86.38238177089083,-0.2452380050937556,1119.967094615205
65969.3175438954,33.2122551396124,9.639868959752922,-0.2506741264170669,31.755996663265783
65969.3175438954,309.4332218304592,24.423412060018016,-0.22372147507213302,308.46514391114573
65969.3175438954,54.12230517653344,17.688604397756137,0.3295372837786395,-51.1332371453011
65969.3175438954,227.57613818057945,9.526806976248016,0.029258735266359324,227.37307911370561
65969.3175438954,285.6974271403527,31.205974779633706,0.28662786984633026,-283.9850422131978
65969.3175438954,56.37961408282263,26.86236817264888,-0.12542367899611248,-49.5523730297886
65969.3175438954,118.26566320517594,22.873593695346006,-0.3676697379858034,116.02504026063343
65969.3175438954,1030.8046881157413,16.54878632860821,-0.08194721788675455,1030.6710509860998
65969.3175438954,83.5764782494578,22.047876753619338,-0.19222090609073048,80.6055906377471
65969.3175438954,19.629006035075275,11.887067872023295,-0.041753824821575594,-15.56833631595059
65969.3175438954,38.94945318374898,17.018773978470506,-0.18376103200191993,35.010952731444
65969.3175438954,16.34480480547533,9.760447891885349,-0.2265107418880985,13.046621695296817
65969.3175438954,17.464493843623693,12.953907925435878,-0.16090006583729075,-11.642949348838243
65969.3175438954,109.18020274795342,21.366054278561958,0.10076204438839549,107.06155980256248
65969.3175438954,44.68091908624314,27.036961043687015,-0.04572908738482506,35.54946582526416
65969.3175438954,367.0707859955894,29.35736888855213,0.21931645258752552,365.892659214902
65969.3175438954,87.21595571817488,34.24820686597127,0.037884254939660314,-80.20013196236656
65969.3175438954,48.494374319131424,23.248151367209918,0.1800301950450343,-42.5390965047179
65969.3175438954,31.811173954265136,26.214436357747555,0.1499549476096586,-17.97528781425509
65969.3175438954,44.37966001740799,20.308380190042143,0.35116152426377195,-39.43830557464155
65969.3175438954,35.41117022511314,21.24216927040468,0.050305716849795665,-28.30367528134406
65969.3175438954,126.42159951658614,22.128311653179466,-0.1345964089644138,-124.46332743107929
65969.3175438954,21.452309316817598,11.802383369179614,-0.25107123746419235,17.86677443643787
65969.3175438954,25.127333343787345,21.590743866577746,-0.16500136296026371,-12.78963558923256
65969.3175438954,98.17802839405336,64.90055368475225,0.31271457502973626,-73.65544748386367
65969.3175438954,94.18363807904836,20.156559041252844,0.13558002499670566,91.99256367324472
65969.3175438954,27.109950979783118,24.02524412224732,-0.0295530005674255,-12.49462113512538
65969.3175438954,22.080516790389837,18.77246934284479,-0.2599037916420445,11.552290258612363
65969.3175438954,258.8791777694028,21.489576578854958,0.3406616964781278,-257.982344501188
65969.3175438954,15.652885950108908,15.398710433720602,-0.1099835396614503,2.5019598046421074
65969.3175438954,182.40198617767084,11.481544264070628,-0.19264844326198524,-182.03571334533845
65969.3175438954,123.81083877700198,26.490943585571998,-0.08754861856802595,120.93686528742055
65969.3175438954,22.457249830071984,21.166499428792058,-0.10699556291266175,7.394272615222571
65969.3175438954,443.9849056623326,21.07665399238548,0.27312286511209205,443.48244143378844
65969.3175438954,239.5965522342085,31.208984736448784,0.07613318186951884,-237.5518483651012
65969.3175438954,148.65953997004837,37.96668557857636,-0.23557901434651102,143.72374005886928
65969.3175438954,31.167232463846634,29.060479859889973,0.2075145354482155,11.19022659214112
65969.3175438954,47.29773801737878,47.10947531588456,-0.04146068269508225,4.018828402899478
65969.3175438954,30.76176621467362,25.99793902854266,0.07545081317842495,16.394117170091967
65969.3175438954,43.74563807866192,23.757727360823736,0.1472607965472461,-36.70979296473005
65969.3175438954,103.97659893613715,43.75121889486092,0.161231917732675,-94.31498989824729
65969.3175438954,44.09886999936215,6.655197773165128,0.3440588552598319,43.573841292939946
65969.3175438954,112.62592823862978,10.814682648985563,0.2923659453129344,112.09788676271394
65969.3175438954,176.92397969243413,17.825148044415283,0.041809689813320075,-176.01913612744173
65969.3175438954,167.29351517683395,23.17554345684576,-0.40687553405026716,-165.6750681354884
65969.3175438954,23.184820521485477,16.071926017706406,0.06293319416925625,-16.661466916374373
65969.3175438954,31.141713792027165,8.677401509321252,0.002244313113301224,-29.88123791965659
65969.3175438954,1532.1355318223818,26.264601720716474,-0.0903693279352947,-1531.9098634535217
65969.3175438954,24.773629483558253,24.734661208803267,-0.04143198628429601,0.5539672935850728
65969.3175438954,10.847915834466246,1.5091847616220266,0.3479306576683244,10.661047193493978
65969.3175438954,40.942383140100034,37.15711273577768,-0.022739478225340785,-17.14661881961237
65969.3175438954,42.490617716326,22.773151168867862,0.05688116707747114,-35.849857572732155
65969.3175438954,214.63880826848887,23.908943175318175,-0.04869453220319047,213.29922040105203
65969.3175438954,496.2912350852537,36.18047670621455,-0.01998942838028278,494.9690314270964
65969.3175438954,52.49400135979578,9.46506215678769,-0.03693549661720996,-51.61793057259248
65969.3175438954,22.06190150493421,18.231776199021084,-0.17381618995636614,-12.356333043093152
65969.3175438954,35.45662367260627,20.79596984152867,0.07104788099617042,-28.6892679674327
65969.3175438954,80.25340040052227,15.858690039958352,-0.2428859122787512,78.66022232484595
65969.3175438954,1641.3430326510204,24.339710901909022,0.11449121585702579,1641.162056452902
65969.3175438954,202.18041787841983,22.263860761995698,0.024319455726820555,200.94681044924425
65969.3175438954,24.901546833946313,20.742347278774297,0.3994030106098581,-13.713565729691231
65969.3175438954,33.15287867189274,32.68932925931695,-0.18540095990355443,-5.3727169096065985
65969.3175438954,155.57421777956583,27.48201188983118,0.14152696419310454,153.12228960548777
65969.3175438954,18.719981452427863,17.585359385303168,-0.23463427211573937,-6.28626529227184
65969.3175438954,562.4045223262827,25.437255561765664,0.04370229008757281,-561.8275270902514
65969.3175438954,131.803420416548,20.84419425960732,-0.2055749470221177,-130.13838127857483
65969.3175438954,89.24577196577349,8.546501652641616,-0.2801117532817387,-88.8260435028568
65969.3175438954,504.0294378916624,14.531998129809747,0.07426225005829357,-503.8182897836838
65969.3175438954,22.999113991533324,17.070249513617522,-0.13323784975857908,-15.359928948770449
65969.3175438954,141.79194193372874,20.19207971203036,0.06283247265259267,140.34104926933813
65969.3175438954,29.702832528725153,21.038189207142477,0.09103719206596998,-20.929020785529556
65969.3175438954,100.35284907102958,15.613939286402736,0.239856595686037,99.12225294627025
65969.3175438954,31.053717574159144,30.199800358487032,-0.31382790875163413,7.112403899129705
65969.3175438954,43.64856151778906,9.531508235358483,0.2020515177675608,-42.57564787778546
65969.3175438954,156.37806958417488,44.621834713318144,0.11847593482113628,149.8711373842233
65969.3175438954,156.29737117467292,21.907234543294972,-0.38194154145966197,154.7487472490002
65969.3175438954,48.866106044635906,20.659498558520994,-0.004135552922275913,-44.26579679471243
65969.3175438954,90.51104094088706,45.09476271287057,-0.34512460207762413,-78.46636948896878
65969.3175438954,67.9463032247795,26.44597556598456,-0.11382735905993187,-62.57536963779646
65969.3175438954,27.403460950425924,27.337290224099462,0.2980199515288831,-1.3830267787954673
65969.3175438954,9.310582135891263,5.5870160965505375,-0.22158660426511714,7.335014241320392
65969.3175438954,1062.4259074963406,26.97924875331083,0.05605437993307762,-1062.082532225125
65969.3175438954,152.46560089649273,12.19959047728825,-0.1868768939723136,151.97129291296787
65969.3175438954,37.80531240557448,28.70233563104943,-0.08662292484028637,24.572126801969475
65969.3175438954,25.943667682773523,25.290639639087807,-0.016947275289321617,-5.642383890462308
65969.3175438954,20.06404701792812,19.03580439352455,0.05393693205677253,-6.21132581128715
65969.3175438954,156.84050837297616,14.98979799039434,0.3671607811413352,-156.1169291254445
65969.3175438954,906.088175242289,19.601437879836745,-0.10966278051218378,-905.875229965317
65969.3175438954,1997.2427686430105,23.364585165239177,0.1785134721986492,-1997.1056858698016
65969.3175438954,235.87256389064765,19.427352310137117,0.1769921102956641,-235.06763366328403
65969.3175438954,15.625965853828099,15.573242011452123,0.15217069405038638,0.03361391254367696
65969.3175438954,40.839123654872004,6.865155184305247,-0.03838367855638412,-40.237812261404734
65969.3175438954,31.404375719567664,13.483068502214227,-0.2722997828199911,28.3327879783502
65969.3175438954,116.49317353238166,21.36080225482819,-0.3469665950372447,114.51041247220769
65969.3175438954,9.116228826256092,4.764369767548246,-0.18029611070677545,7.665066584231269
65969.3175438954,462.1158474007634,19.700757447905886,0.03987299533546246,-461.6939617633591
65969.3175438954,61.24527647331174,37.437788553780585,-0.290906061762743,48.45297303422711
65969.3175438954,78.99901514850224,53.717742067027736,0.0524866289830518,57.910492749629086
65969.3175438954,43.668804699132345,40.68450261073839,-0.01125807906093258,-15.815023494163391
65969.3175438954,19.144150477187186,19.098549755898155,0.0974446954478793,0.33725797766392496
65969.3175438954,43.893361756503026,16.818424026749277,0.001874383729731758,-40.523414956391456
65969.3175438954,49.91997324449037,19.990187402369155,0.11326277471960154,45.72485813635903
65969.3175438954,29.611835476440874,24.009520676638523,-0.34794900075555546,-17.28183995852997
65969.3175438954,50.75425831046149,21.008916347273136,-0.1258493369009077,46.184236230560636
65969.3175438954,289.89602073649263,30.18782560124189,0.050219325174832644,288.31714282372957
65969.3175438954,73.21268301644778,13.11343881545223,-0.1682864527731709,72.01725973867352
65969.3175438954,217.1662206044954,20.873973313173757,-0.3260985125315557,-216.15669689653132
65969.3175438954,40.91457145248628,39.21931118373209,-0.08649559414736468,11.585320436823729
65969.3175438954,241.04271324859863,16.7126767544542,-0.005326164795671485,-240.45925925461202
65969.3175438954,24.037273131879324,16.159336305575046,-0.03895817151030956,-17.74948381610757
65969.3175438954,430.20853764027316,37.02753729390077,0.012252759639779063,428.61022681930774
65969.3175438954,61.27942009961018,43.75558213877776,-0.25289917627816666,-42.88276746136281
65969.3175438954,87.79250245348442,18.47176235720994,-0.06671294520195112,-85.81778589281055
65969.3175438954,424.2562129008251,22.479478064208095,-0.22117983521380774,-423.6582793645003
65969.3175438954,24.475130548806238,21.813243477096123,0.41177510178946447,11.019265372658834
65969.3175438954,33.7511629659383,32.26944060548359,0.3779203404995963,-9.801057314199744
65969.3175438954,86.00963995555782,12.340563776826352,-0.0012237478699690758,85.11021086306103
65969.3175438954,15.916631423583357,15.806111013159082,-0.18722331323066635,1.3602579322964194
65969.3175438954,20.872015919939507,20.294879624839396,-0.3090223013629227,-4.694971617618911
65969.3175438954,40.94709959957426,10.991592980468763,0.051383653463979787,-39.423680102025244
65969.3175438954,84.48481275677071,30.658372168304084,-0.3192394992853026,78.71483489391287
65969.3175438954,78.33989592392452,36.26478871442831,0.054829337780920744,69.42896175451867
65969.3175438954,37.580476678621714,27.294912715354496,-0.3107086787556455,-25.798503271857747
65969.3175438954,65.49717992120797,21.22020683950627,0.06383424335469351,-61.95126042468011
65969.3175438954,482.4461056657431,22.363402196987117,0.19453511742769436,481.92578745487634
65969.3175438954,33.273768105588864,12.717463076456447,-0.3353829996189553,30.719320285197337
65969.3175438954,13.773026092495003,13.68250535106341,0.3182244194533671,-0.8737116109065199
65969.3175438954,25.485367897444846,21.091416925041926,-0.2541485703449717,-14.24678423939448
65969.3175438954,282.83855644101374,26.14139210733322,-0.38424180497084187,281.6247651224232
65969.3175438954,230.7638514059806,37.241107787139384,-0.2411923030269374,-227.7353204412496
65969.3175438954,28.185113159845308,21.22647021681856,-0.42715707380982304,-18.49417331214331
65969.3175438954,24.981417966772256,21.818775173496462,0.2042732636350516,-12.097516674518365
65969.3175438954,13.66076892977728,8.993020524557776,-0.09883772258708756,10.203517256306503
65969.3175438954,288.6555039086948,29.99569060352854,0.022571869398111233,-287.08994638650813
65969.3175438954,832.8774973188824,31.604721283631932,-0.05766029814448084,-832.2766626259181
65969.3175438954,373.3197070974637,11.646468456035482,0.14667256475913462,-373.13579473255436
65969.3175438954,28.558942651329012,16.4382019807139,0.09951156375567022,-23.318837066829293
65969.3175438954,11.670137818223331,9.577718032778787,-0.16819941741123837,6.542972308851152
65969.3175438954,340.7460307642976,26.70576741125184,0.23812014095935663,339.6954255080508
65969.3175438954,70.02522443608346,28.06064282675711,0.07065235362577846,64.14442090638475
65969.3175438954,16.174677445692392,15.646877162843591,0.04238755026811248,-3.895249994051215
65969.3175438954,153.55125778977427,39.93850071046985,-0.08713971528412928,-148.26084000904973
65969.3175438954,26.50259306537858,23.916682704811873,-0.3334789010983291,11.342304135687222
65969.3175438954,198.90661517199655,77.85401780054262,-0.19982682902212792,-183.03260060554632
65969.3175438954,121.7693330490176,18.14083168440139,-0.38590059117108066,-120.40311923464454
65969.3175438954,275.0212156694757,24.087678184171416,-0.14941175127397827,273.96132911021976
65969.3175438954,40.44339903480234,20.218935161958655,-0.35025953500671864,-35.00171207755985
65969.3175438954,660.5827708519056,25.086972394286764,-0.38873804880867496,660.1048925654895
65969.3175438954,56.17318532929718,16.959148867418797,0.2964045035856809,53.53602065712441
65969.3175438954,17.742123241981844,7.949258246460949,-0.11770348349114569,-15.81005123496502
65969.3175438954,1287.7929601681471,16.900983817241794,0.2220760912188951,-1287.6814027664436
65969.3175438954,1.8764350316855654,0.5985510528261113,0.0014545549126526805,-1.2418078140628561
65969.3175438954,48.22173101193127,34.147704968882515,0.22747156236076171,-34.02347994445935
65969.3175438954,164.21524895359087,28.32732253924595,-0.3984473878002871,161.74804904549546
65969.3175438954,50.22346154948587,49.996248904369715,-0.008297974129891921,-4.598962964204116
65969.3175438954,78.41336659876178,19.306623488609894,0.017212941498077932,-75.98874520764909
65969.3175438954,119.8273016188335,6.066093952867759,0.40829101911938953,119.66619138063636
65969.3175438954,347.87996505426986,27.15804047957329,0.40068926636290564,346.81569992617
65969.3175438954,40.88097566055977,29.960377579118585,0.1696312114384314,27.784537340498126
65969.3175438954,27.98744169434122,27.893248768109892,-0.3049268196250034,-1.884125549600818
65969.3175438954,58.51416880745448,30.726432983952076,0.2018789276940933,49.780848284315454
65969.3175438954,264.6699087561986,26.74412718964051,-0.03156153887793172,-263.31215431393514
65969.3175438954,111.93114286204755,26.559944530567826,0.040512664326244605,-108.72684945016475
65969.3175438954,342.70778054050487,25.886725844336887,-0.40042668358490346,-341.72608807380743
65969.3175438954,71.69645277857423,27.97131420908749,-0.3979586843650963,66.0015749435562
65969.3175438954,84.80726277058905,31.191264093328762,0.1109314884308932,-78.85267212214393
65969.3175438954,88.29951790335237,12.95558389843523,-0.40463356410502704,-87.33368950863893
65969.3175438954,274.5499162456762,27.020616993263353,0.10461107805276582,273.2140391122517
65969.3175438954,211.6018563868967,40.030614892864726,0.12466339264896854,-207.77694602726274
65969.3175438954,523.8120725185111,23.195913399565434,-0.3429590599045377,523.2965685349736
65969.3175438954,33.76881590533602,33.74234124734374,0.06366920543965983,0.40326756137644226
65969.3175438954,23.961260090240195,22.343313763163305,-0.29513322896286287,8.556316688133785
65969.3175438954,132.22430178611913,14.01544678455829,-0.3882664934951504,131.4726657031166
65969.3175438954,114.41977996347623,13.997461053865525,-0.12046294802326826,-113.55316800209266
65969.3175438954,34.483938016045926,30.000564269742803,0.40122851057488274,16.950707477014944
65969.3175438954,36.894254342946184,28.459137342632538,0.12109060552965249,23.44415035777441
65969.3175438954,18.155755962802637,10.948165992858522,-0.2875450623226936,-14.424486039658175
65969.3175438954,1120.718800534709,16.111719305421268,-0.32738545468988334,-1120.6022106597159
65969.3175438954,33.56802848043869,32.30806674948821,-0.2562714012024697,9.01748455172411
65969.3175438954,88.2033451333721,58.76192169837098,0.05157932430930612,-65.76658220024878
65969.3175438954,42.28323870122766,30.22036152501381,0.3734593816954542,-29.543897781947884
65969.3175438954,40.10817733149136,26.16192390543683,-0.2331329336445828,-30.373419615730484
65969.3175438954,142.66228075312736,43.54186308686295,0.04756279781709958,135.84921637641776
65969.3175438954,146.38776339750174,17.971465018970868,0.32024171039210825,145.27450053791026
65969.3175438954,43.15669861797413,22.888666282454885,-0.2933708612977707,-36.56368237265366
65969.3175438954,41.85741624072008,39.38438026031375,-0.17838543440712426,-14.115998306680188
65969.3175438954,9.456561787500718,7.518859827176909,0.32479769645419926,5.582755403379414
65969.3175438954,12.162687709308356,5.905246650753099,0.1882192772986279,10.55475966136051
65969.3175438954,20.530883631801533,20.328578821675027,-0.018985534300994273,-2.5777992630360274
65969.3175438954,70.07726445095582,40.48063996690893,0.07878076402891443,-57.188407200125894
65969.3175438954,169.21960449747917,27.743746121035723,-0.1658129404387363,-166.92486617403972
65969.3175438954,402.1425745860077,15.94109604962,0.18862289610857932,-401.82443369772835
65969.3175438954,1520.1789116047544,18.478137596762366,0.3235628107198068,-1520.066036844971
65969.3175438954,29.266825050070068,19.072850806221314,0.1799930146629264,22.16123545399047
65969.3175438954,27.340516941289486,15.995407841719055,-0.009572019227958358,-22.136622295823678
65969.3175438954,212.62327392894338,23.6314466363617,-0.10515050699760604,211.30210513197372
65969.3175438954,182.76295720162446,30.997361533571663,-0.16509571397686693,-180.11056101778868
65969.3175438954,25.337432672677323,16.110842891050662,-0.09644084098192089,-19.51400211755727
65969.3175438954,110.7174331805496,21.58883786749219,0.0640181029410752,-108.58474724840778
65969.3175438954,38.18065998175777,24.76577642906578,0.14347416065574944,29.03063680615451
65969.3175438954,34.66762935988138,30.009972798491177,0.11948894979145028,17.30927855678299
65969.3175438954,22.530330713428004,21.256087789351458,0.06911642277152329,7.359966070942444
65969.3175438954,84.8303990761604,31.717963556890172,0.14250725976504194,78.66718776340512
65969.3175438954,365.17556842659513,18.84990732837958,0.3053720751177333,364.6863897391724
65969.3175438954,1005.0316317198693,6.8214586137414335,-0.13957264153677174,1005.0076658031317
65969.3175438954,324.9003936486106,21.293560090469274,0.030021668243012695,-324.1993654128469
65969.3175438954,211.04757858254123,24.730342114688092,0.006242185455991417,-209.5897657548599
65969.3175438954,374.83768253292504,23.403425314776374,0.02581840336759992,-374.10419218086446
65969.3175438954,20.069248688593575,19.702419686033146,-0.022916599600138067,-3.601141481112772
65969.3175438954,23.03936692535362,5.459974027341382,0.2596618633933134,-22.345313409214803
65969.3175438954,190.16757894217966,6.110822837876274,0.2999318898881695,-190.06487131906607
65969.3175438954,23.356151280342576,20.265500019316853,-0.40183129770465775,-11.534174738705913
65969.3175438954,228.08912393915537,31.220852272338664,-0.041232277081637,-225.9386741713711
65969.3175438954,87.54478944316945,46.48166161074083,-0.24828894647232608,74.17454407578126
65969.3175438954,434.2644875336613,10.403485567017476,-0.13686846602492117,-434.1379656648918
65969.3175438954,42.486006778163,29.85174707860158,-0.07958058040479572,-30.204419857663837
65969.3175438954,133.31347923565735,34.25210397709102,0.04386774391362084,-128.83188478935307
65969.3175438954,41.786316626006425,25.6046823000604,-0.3700820327269628,32.99604346688231
65969.3175438954,862.5387691243869,27.222351325887196,-0.017964028434064618,862.108143362475
65969.3175438954,530.112245985729,32.03252106115668,0.07354592810992955,-529.142027128062
65969.3175438954,27.643336226803154,26.084717917713863,0.04116374645688134,-9.06196326106341
65969.3175438954,14.557811476297022,14.423513911221361,-0.2100896872443011,-1.49242334912808
65969.3175438954,40.70446197035883,38.59361680858055,-0.12291831081428646,-12.87440098471398
65969.3175438954,5.205782355514544,0.11342877623448555,0.053579016357596855,-5.046164566501439
65969.3175438954,187.28514145485775,14.192782684218717,0.03544888999605266,-186.74224807610705
65969.3175438954,924.6732198675484,22.510768889839657,-0.4130554579357034,-924.3982029153312
65969.3175438954,81.15854175169032,15.425689111711296,0.2754010137707368,-79.66844113366852
65969.3175438954,28.26347662985311,21.5939348053235,0.06071815949841375,18.19070498447761
65969.3175438954,44.21441519917849,36.31796747221691,-0.1396383984306044,25.184908078202795
65969.3175438954,21.554993527107893,7.39886588428879,0.2727720562665445,20.203451900177615
65969.3175438954,95.18534253073045,13.901637491002829,-0.25234607846935075,-94.15577291337695
65969.3175438954,13.959294423597497,4.5476021027380495,0.1165038726608422,-13.135714158925952
65969.3175438954,23.71827542694633,23.431600401373363,-0.09693203773364308,3.447700644836542
65969.3175438954,645.2077239850325,22.32096885487672,-0.008196765280343743,644.8202545793954
65969.3175438954,80.31600633987077,34.462662086584814,0.13739644165027812,-72.53513812082632
65969.3175438954,468.3233717580648,5.9638560228335145,-0.08216033693774781,-468.28365928095116
65969.3175438954,302.3449638990146,33.840033142222154,0.11687175592726597,-300.44249871933886
65969.3175438954,485.16816053177797,40.45316020127254,0.32660596146944004,-483.47694722268056
65969.3175438954,43.18944425163127,21.856945220865924,-0.0750802523393691,-37.228695209878644
65969.3175438954,22.71586435142573,22.574679744460518,0.13215405789927429,-2.180872914660301
65969.3175438954,39.299065733628375,11.227329519512162,0.08220138565321501,37.63955666617277
65969.3175438954,322.44459803580116,2.828028655396158,-0.02398752869680882,-322.429681984599
65969.3175438954,17.15565601734677,12.02225824948069,-0.01205407810349927,-12.17214189717738
65969.3175438954,140.35155234350742,10.100987367068766,-0.2797453211470271,-139.98153230228414
65969.3175438954,62.85274787877434,15.870048948923488,-0.36778438592153084,-60.80175606522
65969.3175438954,374.5393176164586,32.27424518788153,0.07272539471748979,-373.1440038281057
65969.3175438954,56.696597489746566,15.958753816521568,-0.10064343493152976,54.38925958435635
65969.3175438954,122.17153197026745,34.91381749754909,0.05760663455071954,117.06957160971876
65969.3175438954,12.33425280298352,9.789581787732201,0.015592675511074901,-7.3943884936605295
65969.3175438954,1083.0427892125651,19.078251730927775,-0.3023197202034663,-1082.8739499695744
65969.3175438954,1027.9383244312428,18.864581422994583,-0.2710587901587191,1027.7643855831334
65969.3175438954,35.62670849503031,19.62542711067765,0.257188031016718,-29.70552418200267
65969.3175438954,22.281435571194894,18.62435860654455,0.16308619420105552,-12.16340347924461
65969.3175438954,302.5035364781647,38.9783148471911,-0.052801287943690135,299.979094453582
65969.3175438954,182.80826863320212,42.140494119674,-0.18734498208243364,-177.88025770605884
65969.3175438954,107.3709556265088,24.675104416893685,-0.2506473564848056,-104.48912792135506
65969.3175438954,962.4793337148326,16.472695742537695,-0.016212814815712753,-962.3375173004347
65969.3175438954,169.4299100480926,27.393112244936447,0.014657340254295026,-167.19596570880813
65969.3175438954,207.389156399162,19.412015866945517,-0.10170250093863391,206.4747074879544
65969.3175438954,469.9269078843018,31.718348051028002,0.2889633104125091,-468.85343231602525
65969.3175438954,67.22460234938042,45.72359610901134,0.025968036999934448,49.26335950025008
65969.3175438954,23.061015993371328,15.155844242264784,-0.29218808141352287,-17.33219010319577
65969.3175438954,38.005363905904105,19.6907921723673,0.3963955371380273,-32.47926420842187
65969.3175438954,66.45859894257825,65.95827423053532,0.3012357423855768,-8.033681264835673
65969.3175438954,405.15871963471454,39.82233936107788,-0.10030694135060415,-403.1949139883431
65969.3175438954,33.34628325825361,33.31683349480864,-0.07087050885599225,0.580976838915585
65969.3175438954,575.5899054783271,36.84883600116412,-0.17476955882238904,-574.4077396529468
65969.3175438954,36.199370883521055,23.813351179849906,-0.14488635770464608,27.233749458873714
65969.3175438954,25.1639792655936,24.909155929318914,-0.1845224409300644,3.3324313247828914
65969.3175438954,5.625293192353785,4.884867179121377,0.023310999504689737,2.4820951708358594
65969.3175438954,358.1594468718308,29.8160411842923,0.14508398682322057,356.9139271112387
65969.3175438954,68.00323246570156,28.057934973952253,-0.14696255159897761,61.93181457447892
65969.3175438954,201.7669280111342,26.877128871720025,0.1485365284604298,-199.96467303816536
65969.3175438954,38.099869946215854,28.71375450947609,0.2923156350811909,-25.008284370485907
65969.3175438954,28.464347678353185,26.77352960330455,-0.028039161557811387,-9.579966536374997
65969.3175438954,28.35278501741271,21.70960975136966,-0.019598606496816634,-18.19209230074928
65969.3175438954,157.9929608869191,23.196479144813644,-0.00234358221205674,-156.27564872143356
65969.3175438954,27.516706257465287,20.412179626735863,0.23209886579219383,-18.40753975846573
65969.3175438954,72.27940346889211,39.87584117091713,0.24092541590804512,60.27064588480991
65969.3175438954,237.68082571114275,22.33850931144391,0.1583685229101557,236.62527374644824
65969.3175438954,1441.1905237704357,26.26604373740713,0.11052913425271696,1440.9505848151407
65969.3175438954,38.36431959633048,25.86020895146641,0.3464277789133295,28.307771769734554
65969.3175438954,241.58396099000964,19.385394156715023,0.032769134505906204,-240.80156762548833
65969.3175438954,14.727873734003811,5.90697165584074,0.37174343383858255,-13.426060520448706
65969.3175438954,56.010980897742975,12.538669225916628,-0.35965339870288643,54.57345277972323
65969.3175438954,122.36229699345922,44.26721960942271,0.18515311580624727,-114.06704193406557
65969.3175438954,68.5936258115782,20.36072316949175,0.22132899311421794,-65.48936410722308
65969.3175438954,668.5800879669202,32.556622334146255,0.0991025717491008,-667.7857215382975
65969.3175438954,103.6782980427728,33.0673584564733,0.32693911695319905,-98.25483064088216
65969.3175438954,45.308332141450954,24.19245170490874,0.06849369993641963,-38.287659816920964
65969.3175438954,21.63166769971273,10.896735577883923,0.054185970069362197,18.643138383722345
65969.3175438954,41.609754052418026,22.324006164123723,0.37602799409291654,35.08914829020565
65969.3175438954,850.5877959670834,32.38735816823997,-0.17917841446385377,849.9700023635047
65969.3175438954,65.47417908742105,14.014102518296207,0.050595457982129596,63.944114987819646
65969.3175438954,67.16588103604138,21.781128339076904,0.18510148573808985,63.52309111466322
65969.3175438954,131.17115121020345,21.93335521830392,0.12018390887749222,-129.3180719706387
65969.3175438954,207.18718797566777,28.780637105927838,-0.3506564515821392,205.17422394831192
65969.3175438954,507.40085221810233,43.49659077904148,0.11423813015026817,505.5314408774237
65969.3175438954,12.220341807994048,9.798686856325844,-0.034647802894454446,7.190315224183775
65969.3175438954,203.85321959991398,14.10130000857779,0.036937722965189705,203.36092657789732
65969.3175438954,123.22555325167724,20.623293407227116,-0.07555397854274676,121.48082308955264
65969.3175438954,279.31737963856676,22.315233580459854,0.22992074869953175,278.4215426265568
65969.3175438954,23.987327507223213,10.805585725123994,0.26318616493082503,21.376184758180617
65969.3175438954,337.4144401807844,27.294652538044893,0.05154612253685652,336.30623406656366
65969.3175438954,22.550226367089238,4.635575446632405,0.06214217331626351,22.031786843861326
65969.3175438954,35.563872841622604,24.99987624804755,-0.2047167860889436,25.261288047374062
65969.3175438954,329.86858549172706,13.626432048885423,-0.04809496936083154,329.58455830712296
65969.3175438954,47.4380883070553,39.96500949730073,0.3528783163898423,25.523029967070165
65969.3175438954,95.55314666314896,8.417425104021667,0.2518059269538283,95.1728255823063
65969.3175438954,386.0968688180788,38.358904539618095,0.0878526328762897,-384.18453662173545
65969.3175438954,35.07193876830951,14.065723224932754,0.41489810960006884,32.09989910239266
65969.3175438954,133.2738868463096,27.748021320773788,0.16958888772026903,-130.34694784002994
65969.3175438954,23.757160513779798,22.014411402977704,0.266463808562238,-8.836102477572878
65969.3175438954,10.448236844284,10.276879976244437,-0.045305075466883615,1.38877005143282
65969.3175438954,5.824837045706292,3.548412171992427,-0.3309973917376191,4.428011076188866
65969.3175438954,783.2960641722458,38.66334931686969,-0.018857431132627882,782.3402383588791
65969.3175438954,739.1171964848102,47.27339295468931,-0.1306183570496821,737.6027513103916
65969.3175438954,86.91681855275908,26.6799273446021,-0.20676910535225784,-82.71064873675317
65969.3175438954,102.464167372299,23.267373277815842,-0.3903694565593469,99.7785642882988
65969.3175438954,115.43756376044499,18.64461760720713,0.1206794554406894,113.91476700320447
65969.3175438954,5.426166888030778,2.2558159520645207,-0.12044366180464713,4.766489117684416
65969.3175438954,51.80451446878448,10.977302816107994,-0.08770411266886394,-50.61203605780041
65969.3175438954,23.9600274344898,23.424909412686915,0.048213549923657534,-4.871709435097648
65969.3175438954,437.11481187887324,84.52269207575817,-0.07556072837257655,-428.86320304083347
65969.3175438954,17.837872926946968,16.44326764042481,0.08508480139143987,6.795643026037943
65969.3175438954,19.35568533403162,15.342578264525617,-0.031201837226106716,-11.731420079845682
65969.3175438954,204.39876211561062,3.4474329949658435,-0.2619365989552444,204.36555456596602
65969.3175438954,355.02989652075513,26.398940381417866,0.29949538171719087,-354.0446483375935
65969.3175438954,14.70482619072197,13.362914278699712,0.026157695126049946,6.003590155228115
65969.3175438954,2.7710645836312144,2.437931629185643,0.22017185301787595,0.25720876872716913
65969.3175438954,26.751441868482868,22.685312839959142,-0.07138720012023089,-14.120569073559398
65969.3175438954,85.39977730122006,23.645994504080747,-0.21310643997784368,-82.05073330783645
65969.3175438954,345.77268655240204,39.153499663489356,-0.32991546151646317,-343.5462483120032
65969.3175438954,199.64330863798972,39.15450571551546,-0.38548531549699727,-195.76160530315013
65969.3175438954,24.79795419813474,9.942332263060706,-0.13609612479732647,22.681476652237738
65969.3175438954,70.50506723496005,27.438137720330026,-0.10861657401824716,64.93443347241731
65969.3175438954,437.5641689238381,11.499727343572257,-0.15738426826099616,437.41114843008074
65969.3175438954,91.7950563466095,36.08016377356725,0.1497281402132351,-84.39734046124504
65969.3175438954,262.44689031349606,64.3049605289541,-0.006368980435016775,254.44374936265874
65969.3175438954,23.541084678001123,16.33018784677099,0.04004654022154417,-16.908145157825814
65969.3175438954,566.1263638890287,30.048403354898912,0.1860124005683199,565.3268948927854
65969.3175438954,7.599128641107056,4.302245590139171,-0.02078188243128857,6.133217002282261
65969.3175438954,44.32358082797249,21.124121213685566,0.08348858192661249,-38.945136971353925
65969.3175438954,28.00682286862428,6.84505006105868,0.1752291801361747,27.127035504972252
65969.3175438954,306.85278836010065,28.503150999857393,0.16696050371112112,-305.5234124831283
65969.3175438954,27.49065757985063,26.765377623334967,-0.23249702182260126,-6.138086321095718
65969.3175438954,24.196013045186497,24.131988409703265,0.009171480274136808,-1.2138542986008287
65969.3175438954,65.46534578653134,46.689845286193986,0.1978322539040258,45.8705793750003
65969.3175438954,57.11611554656591,30.219172660899677,-0.398288968964683,48.44866322628626
65969.3175438954,216.82182021010652,18.945265514452192,-0.32488419069870644,-215.9885469828685
65969.3175438954,1136.0687269338225,26.993895056685528,-0.07082418499214369,1135.747267782026
65969.3175438954,24.06672674216889,14.885925647556533,-0.041233021570650195,-18.867808490470686
65969.3175438954,153.52829218313937,17.596368231714493,-0.007564956071884349,152.51125732939937
65969.3175438954,985.5571760412276,33.15034496611574,0.25251801749328173,-984.9986383002444
65969.3175438954,26.852475728811307,20.787999414078197,0.09326760579824742,16.949489018194434
65969.3175438954,20.92870827635946,13.68384884979071,-0.4151858806001912,-15.77878560457327
65969.3175438954,30.421956305688916,24.9927760495087,0.1111447245342042,17.29807970128645
65969.3175438954,17.35139658498984,14.39432674026935,-0.1838280751727612,9.603117831217224
65969.3175438954,8.409623201366584,7.05503762128124,-0.09532029715328807,-4.395277498602346
65969.3175438954,89.34162288415384,28.07871385386563,-0.01150893673017498,84.80501529466858
65969.3175438954,453.0263147882341,26.565381806622558,-0.03758247848905466,452.24495609274777
65969.3175438954,28.38071845436592,27.162493423584145,0.27161081203945503,-8.122173493838783
65969.3175438954,687.1529927728924,34.61666995536045,-0.2472033881943552,-686.2792725065552
65969.3175438954,191.48363851356333,28.939948280025725,-0.17008465996778707,-189.27972323217392
65969.3175438954,13.95653672144435,13.723156519579762,-0.057473609214290955,2.1990754597975832
65969.3175438954,14.50259049965003,13.696810576198091,0.07321353305387139,-4.593092064869279
65969.3175438954,233.20937313496637,20.896791495821617,0.02469388312406853,-232.2677647825754
65969.3175438954,55.575620101393014,18.29924853474338,0.3773947199281617,-52.45973665241678
65969.3175438954,234.57547759367293,17.04206361431021,-0.2983531436737161,-233.9519461025377
65969.3175438954,170.73082087565004,29.199654550723157,0.0334110243086846,-168.21049788402829
65969.3175438954,60.261494590399785,14.977351777955345,-0.32075876543458354,58.35583194077571
65969.3175438954,48.715564073601236,16.08835597751061,0.05311241017989333,-45.96463322729151
65969.3175438954,173.09702711515055,23.55866749117432,-0.2967883200572118,171.481372873365
65969.3175438954,119.57030276280011,30.125772520094117,0.07748548591271093,-115.7059569449741
65969.3175438954,96.47392294271168,52.63168928017927,0.17035801652212462,-80.84227491427143
65969.3175438954,87.93851981670653,27.247182886408282,0.025243899372710328,83.60115429078088
65969.3175438954,70.03067588027588,23.52432155003698,-0.2605504786949989,65.94856569330578
65969.3175438954,17.723262175130184,14.92565771805042,-0.16235600127713717,-9.470572740777161
65969.3175438954,21.268207419674688,20.051088084598685,-0.08633703905771255,6.975844255941845
65969.3175438954,110.69254551121628,36.85449689423806,-0.04811191341161772,104.36935718574955
65969.3175438954,111.61537501395918,34.79889233620685,0.03657716803359663,-106.04436353474004
65969.3175438954,28.659261415899607,17.37068629962549,-0.02768939228995315,-22.75941781724502
65969.3175438954,21.17305118440727,19.11128761906913,0.08455094793417979,9.023800575890883
65969.3175438954,6.612293982125171,4.856582145782561,-0.25747853951960914,4.295240396823168
65969.3175438954,372.5898185336607,34.54645669646928,-0.3013254399853051,370.9824844266126
65969.3175438954,737.8053583283072,43.331336127855224,-0.14513443703821668,736.5307192283492
65969.3175438954,30.892970116435137,25.868287994152478,-0.07495812624469496,16.83986353398837
65969.3175438954,313.91758535264483,40.74835939050434,0.2181992254331465,311.25898112891923
65969.3175438954,423.3310712067298,39.59481402812438,0.21492362670621962,421.47334400012505
65969.3175438954,1329.985373531732,28.32338869853936,0.16276887505571513,-1329.6831322954213
65969.3175438954,42.26093791585334,31.47273137067375,-0.10199199022239966,-28.17486459467818
65969.3175438954,97.75786638245137,22.091770357604037,0.29647318329770134,-95.21998513686711
65969.3175438954,22.98422985909199,7.371395515167752,-0.00040031597338026896,21.73284826965365
65969.3175438954,451.88565914748824,16.401412751634403,-0.06412236450529399,-451.58611342127244
65969.3175438954,41.78729503831642,32.846756101475954,-0.15431780816732268,-25.79969321408763
65969.3175438954,329.35591356382,24.971704995927432,0.13336141652777686,328.4053795349354
65969.3175438954,62.72075864983862,23.076779636804737,-0.20580276173192508,-58.306884637463035
65969.3175438954,80.63320739769767,27.632184881507126,-0.009328758989063855,-75.74005380633214
65969.3175438954,5.723647876504378,2.4013437114063043,-0.34461489239508036,-5.025363436343882
65969.3175438954,66.3239565871924,29.655096502825057,0.15930053684129666,-59.311014456206834
65969.3175438954,6.314190635647246,3.505406837952386,0.02612089879671044,5.095074845365678
65969.3175438954,909.4549181962581,33.61851948701663,-0.32946785458129185,-908.8323905833757
65969.3175438954,379.9519805598163,35.3200783470268,0.07719051717735563,-378.30460343777014
65969.3175438954,397.5781547764585,30.924755886327546,-0.38300673147626013,396.371393113032
65969.3175438954,132.79066539561566,39.2855517372821,0.09361096689564433,126.83996539573823
65969.3175438954,357.9027444464582,24.633506749517924,-0.3953798180022613,357.05151987636924
65969.3175438954,639.1948123058763,18.705618100363097,-0.3162315190175142,-638.9197033051586
65969.3175438954,283.7547458864547,18.32335453481143,-0.05186905948743909,283.15964957065523
65969.3175438954,207.64496138315167,7.810431827490025,-0.1697775089115406,-207.49404247296755
65969.3175438954,32.40235151504019,12.232537989902104,-0.00887710183121589,-29.977602688080175
65969.3175438954,125.92036395391585,24.748134549913594,0.19611348786038943,-123.4577206082446
65969.3175438954,151.14734224616484,20.14341056516974,0.27870947351080916,-149.7934035383707
65969.3175438954,116.1213776233731,28.41685762742487,-0.04810494412203005,-112.583451596336
65969.3175438954,94.34952733361786,9.193567190547013,-0.20607575891298507,93.89168497193506
65969.3175438954,705.2449087037335,23.96501058343334,0.08479943299432384,-704.8364573949243
65969.3175438954,952.5785160027294,11.330286446563218,0.22674497871305216,952.5102528001539
65969.3175438954,113.23517238647304,29.383366196088712,-0.031153591680409726,109.34898458390931
65969.3175438954,91.05157770628384,8.020270974620914,-0.23846624294950838,-90.68840903801087
65969.3175438954,29.34354753882388,23.639578771906073,-0.3362256055651908,-17.334370299775152
65969.3175438954,317.78754420631674,31.92097979344879,-0.041001108659474005,-316.1777221189288
65969.3175438954,126.47766108193753,30.19070120004906,0.4091290508095239,-122.81421852100061
65969.3175438954,510.99279643459005,64.57570053426218,0.08660645664301687,506.8944552385347
65969.3175438954,87.8990352684247,27.03279314459794,0.1715547225584611,83.62905241957375
65969.3175438954,28.909380552790324,14.548420387349514,-0.09395017868459597,-24.949273841946376
65969.3175438954,39.8216055675322,12.892150499011482,-0.35551786649395345,37.65376045272308
65969.3175438954,45.46578642519385,22.501537368026447,-0.07799263089679707,-39.486602945602655
65969.3175438954,51.43455985901226,18.887757291236802,-0.39542143242603844,-47.82247963025259
65969.3175438954,776.3540165953392,40.0557171124911,-0.023782014469277316,-775.3189520374397
65969.3175438954,72.73957956528352,33.96927291111458,-0.2372934302894311,-64.30752653266856
65969.3175438954,1113.6888395499986,38.76717466393276,-0.1597814263250042,-1113.01315864656
65969.3175438954,105.27248225918929,18.580704339604253,-0.09959805737014857,-103.61188334925686
65969.3175438954,139.70041270794414,0.7389377862051679,0.1449870731697987,139.6925824951495
65969.3175438954,289.20716392978494,22.31843259952683,-0.21574803602730724,288.34181804083204
65969.3175438954,95.53355438208732,31.706669644946835,-0.05668397292164283,-90.10950695418411
65969.3175438954,87.37182470012142,27.89499249759171,-0.06159700103164,-82.78937549284338
65969.3175438954,2221.652973940122,15.965129690155557,0.07830575323409916,-2221.595243167142
65969.3175438954,642.1134146639926,22.006775713791868,0.18930568110530838,641.7349005790412
65969.3175438954,10.264738234281602,4.839268842525091,-0.17869914352453425,-8.960677340563716
65969.3175438954,1888.1880831213903,34.90498742031705,0.1600777013239881,-1887.8649932698168
65969.3175438954,135.43617245164387,23.717501548920342,0.2448181309420198,133.33700287770324
65969.3175438954,39.591369097242705,18.998400674777116,-0.2609178572350692,-34.71092831319854
65969.3175438954,469.91293730865823,43.724223373184444,0.04186049599679381,467.87256655189697
65969.3175438954,439.33619296118036,41.98088820015834,0.08078851421704282,437.32398549412176
65969.3175438954,12.5698484564974,8.331400823750426,-0.15573377148178533,9.324373502988871
65969.3175438954,15.791295038117033,15.734153200867567,0.0761530995456417,0.418289893994822
65969.3175438954,194.48295923483053,20.562423439073047,0.03748307115394753,193.38869179392543
65969.3175438954,1732.2271942894715,36.40747054432238,0.012184070436125433,1731.8440830281995
65969.3175438954,19.12669647176943,16.21288275827204,-0.15120744963334198,10.06625206292778
65969.3175438954,112.19477566727345,13.881090375147004,-0.4049802164766725,111.32474276524773
65969.3175438954,357.66045052783176,24.680434305842418,0.32555402503389197,356.80547556409624
65969.3175438954,105.66974084041603,28.197855619485853,-0.06863137938134148,101.83000393388278
65969.3175438954,226.75153723158041,21.33585472227645,-0.38044275765824914,225.74161235173358
65969.3175438954,74.68685034876432,46.76525739527556,-0.3480289519935306,-58.218506811137075
65969.3175438954,25.652940222055133,20.394462208956227,0.293944579313506,-15.505876096679682
65969.3175438954,37.36874384106473,17.19242345486762,0.24280442524452214,-33.1536420580939
65969.3175438954,203.84965638899558,33.20808288523383,-0.21499714075207652,201.12244718311774
65969.3175438954,108.29343178231744,12.113085216989035,-0.18057597880659837,-107.6061674335202
65969.3175438954,130.96593042732093,22.01660531784723,0.16318924053593495,-129.09568829337906
65969.3175438954,151.9409411400943,25.149054565708663,0.047838889910182175,-149.83975341719804
65969.3175438954,223.14225212186557,36.42824702076497,0.16966945759063135,-220.14494783434165
65969.3175438954,230.22190444218148,34.66123571244459,-0.3390982060357962,-227.59391112236605
65969.3175438954,68.88038740031952,14.129650088988196,-0.2168387868269979,67.40321269360147
65969.3175438954,831.7849319635407,45.1702559860527,-0.0030071240645240796,830.556560596809
65969.3175438954,532.5580585173161,38.25419582425948,-0.08059409025596495,531.1808308305773
65969.3175438954,651.2839840887632,40.09120416392223,-0.08715821410367129,-650.0476098151291
65969.3175438954,781.9016206311363,21.564897301424505,-0.2981205811248513,781.6030898210375
65969.3175438954,25.516492137168505,9.234144770240711,0.2786722835280776,23.751286845228222
65969.3175438954,45.29342039565964,38.11909676372629,-0.268820308752481,-24.42816964888549
65969.3175438954,22.03219719079144,19.994918240962384,-0.1344085165714683,9.164182213341292
65969.3175438954,35.90747769283631,7.71208295528563,0.32666534655617735,35.044876432956485
65969.3175438954,265.1636424968617,7.172451054714531,0.33563239567171654,265.0633508100728
65969.3175438954,47.76213935806515,11.041149020824506,-0.19554386078337,46.450576860305965
65969.3175438954,500.80309918782456,25.670025453622205,-0.033337030141229115,500.1431516892742
65969.3175438954,506.45387036168466,10.839544238582745,0.033199295556383436,-506.3362571715897
65969.3175438954,36.70481985651392,34.4467595730722,-0.08803383333867447,12.610953546650785
65969.3175438954,1571.0684905779099,20.48211335685583,0.15991399713414858,1570.9344476745046
65969.3175438954,228.06873047931305,43.67030787187514,0.15438408919468988,-223.84504806243015
65969.3175438954,523.1407584340026,5.537960354764142,-0.15884957864379673,523.1098720541618
65969.3175438954,113.18985863679322,13.259680597760674,0.06869632972820983,-112.40328995707551
65969.3175438954,28.827191455175935,22.19471091345325,-0.047538878979493805,-18.351535587358722
65969.3175438954,249.78040429906144,40.75130081854897,-0.005145602051280178,246.43043880701708
65969.3175438954,58.92881033646681,26.442346888864172,0.40383811909872797,-52.64620819348072
65969.3175438954,21.93055475601418,21.89354698691062,0.032239370076645124,0.011685845706195751
65969.3175438954,40.57915967690593,25.792575790506685,-0.1324335720962386,-31.301326477024553
65969.3175438954,30.69327485221314,26.40370840504423,-0.32424673880462235,-15.594727037199808
65969.3175438954,2032.927551175201,66.30164420431912,0.19820717850266098,-2031.8456782838148
65969.3175438954,381.0296870821494,29.01373144658392,-0.009048110964389192,-379.92131433666026
65969.3175438954,22.054080063180127,19.08984357924283,0.38930114917716296,10.963033698112472
65969.3175438954,84.28329529080096,33.3645325443597,-0.11764642405640702,77.38764330427126
65969.3175438954,389.3658880258906,64.97865364313012,0.30094484453613257,383.9034489358159
65969.3175438954,19.06429611916629,18.948766963245106,0.17308306673374102,-1.655597487736617
65969.3175438954,14.725171921416763,8.105262268073922,-0.3700752850956141,-12.222021095624047
65969.3175438954,10.773390692684204,10.366162639301717,0.35960319730108115,-2.6189021346264107
65969.3175438954,28.443407136106305,18.68586039727216,-0.15061626793982333,-21.40613671733623
65969.3175438954,79.83281032495492,35.822567819888214,-0.022586376438211694,-71.33302231591509
65969.3175438954,136.01141350401065,37.714920999687486,0.15967726706756974,-130.67150869341864
65969.3175438954,170.5427968694433,15.558255665897502,0.17535143225297997,169.82677892564374
65969.3175438954,29.494836411616987,18.091925646999517,-0.38940911299938447,-23.25629604153897
65969.3175438954,44.771526395440794,26.83518577802354,0.23628768489336252,35.81460444935953
65969.3175438954,11.250686877199145,10.733504180805701,0.3066833371916092,-3.107270866467327
65969.3175438954,163.42386264537058,23.198097036091365,0.03578241817679512,161.76398004238482
65969.3175438954,1784.9222231017072,20.643879805958388,-0.028577860825956397,-1784.8023843764613
65969.3175438954,255.90533882301048,25.54234631939878,0.40509137958657826,254.62393097918226
65969.3175438954,361.7044892487392,35.86487935171751,0.10141933199252795,359.9197369269913
65969.3175438954,244.30487111613104,23.020811273610214,-0.012283315362176125,-243.21449687917834
65969.3175438954,70.58006955397931,32.92105904144899,0.2171550914132836,62.41860521669608
65969.3175438954,150.94602235846406,30.657566525510216,-0.2909141124823898,-147.794147357913
65969.3175438954,83.69435416031968,30.536119091580474,-0.014211996022042815,-77.91450115899161
65969.3175438954,35.93627986086818,12.893212454948515,-0.2457316334783282,33.518655141458304
65969.3175438954,101.81853139929896,16.110846206330503,-0.07722104611868943,100.5277441875303
65969.3175438954,20.235093259034194,20.036036429644618,-0.09886931565991179,2.5270164122312613
65969.3175438954,42.495180510144465,27.320028255947218,0.3288125030380784,-32.522725112132804
65969.3175438954,43.519832742227585,10.560402464824167,-0.2177168234816409,42.19935644976914
65969.3175438954,161.45297138536236,19.753506562629823,-0.21841297884703015,160.23480454355396
65969.3175438954,42.32952182948425,13.51355032039132,0.08612466490416547,-40.09419287491183
65969.3175438954,161.7362061194696,10.318716463973558,0.20335680791531188,161.401556529551
65969.3175438954,4.622726829160538,4.32813011898968,-0.2683714501812905,-0.9717064743854558
65969.3175438954,502.276143847084,20.01180166970879,0.35324235777662094,-501.875589200514
65969.3175438954,32.706699190041704,31.765500239726435,0.15214949013669177,-7.683577334677212
65969.3175438954,514.048877783229,25.55936540521791,0.0069770112127977655,513.4114791132921
65969.3175438954,26.318778331201003,18.810643861922614,-0.1600854725251561,-18.362774482245193
65969.3175438954,662.7248219658173,18.35772192675626,-0.3438087591327656,-662.4692029328751
65969.3175438954,77.97873874947902,21.848494289133292,-0.3897128864145256,-74.84353319974191
65969.3175438954,56.131199671193535,31.993472164410313,-0.04038393701067859,46.10322145173405
65969.3175438954,9.675165484753407,0.3565911626619216,0.199005397553414,-9.582348900416832
65969.3175438954,238.74972402804013,25.837888874773945,-0.03155164841590841,-237.34408054584196
65969.3175438954,41.73863906540947,34.48972359644899,0.029655530424527073,23.472354409391702
65969.3175438954,36.24073917969078,31.725958232793072,-0.29820177859114705,17.468404904231758
65969.3175438954,58.21222889637216,34.04806891616136,-0.3327575949417439,47.19810602391224
65969.3175438954,206.7784530138989,14.950462943334465,0.31747259760009844,206.23309832189508
65969.3175438954,49.27805299699071,27.760578297766962,-0.26663301021522695,40.69379621371221
65969.3175438954,33.94659695647527,29.768605081486626,0.28853292651126916,-16.263384914453802
65969.3175438954,91.02590628426914,20.342157494938522,0.38507789030329154,88.71382813315837
65969.3175438954,101.97297606369226,21.099628128109657,0.28444983183946043,99.7576662323879
65969.3175438954,7.509562493213593,3.906677807633153,-0.38867474199303625,6.273728794685312
65969.3175438954,45.90591362132314,45.65736370393059,-0.23476509187276326,4.591543756137039
65969.3175438954,82.03697171416945,24.805899893683,0.07353292905136802,78.18635427682928
65969.3175438954,151.91923472903042,27.833630030704203,-0.047610312855226634,-149.34229138768333
65969.3175438954,75.42516873216034,51.39288956568004,0.30845865466634775,55.19068016722147
65969.3175438954,244.79553359612152,15.926444874469187,0.38049201398759747,244.27328178045818
65969.3175438954,25.91520595051213,19.913598123083954,-0.34377040976733836,16.532019684619154
65969.3175438954,84.21307031089478,27.77493866807739,0.004480425064683807,-79.49071214170581
65969.3175438954,83.72387191786396,36.98982905063369,0.03483891128426324,-75.0987177365336
65969.3175438954,12.302668671094498,12.113910739856943,-0.1677566386530579,1.7204721518224415
65969.3175438954,129.94621924980677,22.898791298378264,0.22907305660158642,-127.90618485290072
65969.3175438954,111.34597470520988,32.175794609476235,-0.01705298151318861,-106.58810148039677
65969.3175438954,70.25549852517906,14.556864287605247,0.17522045011449647,-68.71885779482253
65969.3175438954,70.14163051182094,20.987593204327894,-0.23382195238744657,66.91557317499822
65969.3175438954,63.47230168391811,34.81164257883622,0.040531118589324115,-53.059026780969106
65969.3175438954,26.665821554016624,19.936382394090092,0.0645479065041896,-17.663008618367886
65969.3175438954,130.04395566842044,14.834589409914194,-0.13697033402677608,129.18872220807228
65969.3175438954,19.010507660592054,15.9105529497038,-0.25372043492347596,-10.323210546458071
65969.3175438954,49.87794087668203,26.860319513196075,0.038193105980917026,-42.00845280096569
65969.3175438954,198.98394521914602,36.09584280076183,-0.24618447996025553,195.6783568113196
65969.3175438954,25.153604121361166,19.4448736820137,0.3189049608565039,15.902148631808517
65969.3175438954,61.873120226301054,8.042462153293059,0.360614479543586,-61.33393114700703
65969.3175438954,66.34876998610189,7.519818060314099,0.40502282665877654,-65.90771514182399
65969.3175438954,59.925676304997864,6.978270587016175,0.13835546192838383,-59.50420675624055
65969.3175438954,13.379931413040055,6.118525766855524,-0.13497009359242365,-11.829933804942304
65969.3175438954,75.06677305911415,20.751935240259005,-0.3443818157296667,-72.12931682856241
65969.3175438954,95.46228748221701,34.18717689692228,-0.1818997737746492,-89.12144255635559
65969.3175438954,136.97555349114756,10.932756427429146,-0.17973975160516478,-136.53250209537623
65969.3175438954,192.100915133687,32.54242075411305,-0.2639036545676992,-189.31999932712048
65969.3175438954,53.72462808361998,24.938174416307888,0.061692057084728455,47.56888328826617
65969.3175438954,5.168490843359019,4.873365489476999,0.13555226878767027,1.1509021173788667
65969.3175438954,38.0184806482696,19.026393363021622,0.013463065997550828,-32.89043004951093
65969.3175438954,102.77564503748822,11.787579794869385,-0.0281193345655796,102.08949372218419
65969.3175438954,30.83211736817931,14.839134268649923,-0.12173954317961282,26.996001162084912
65969.3175438954,321.6509185031846,20.294521297635413,0.09348923568307925,-321.007502066077
65969.3175438954,1176.8665537213137,12.976813074701177,-0.0909609277400614,1176.7943145087474
65969.3175438954,553.0511671591697,32.79488319859166,-0.16384453656827974,552.0764816859852
65969.3175438954,105.13678043543001,25.931380137184103,-0.12628787289395974,101.88066312887511
65969.3175438954,191.26230618969927,37.46409371156221,-0.40897646359714124,-187.55245541800642
65969.3175438954,396.87159101376716,19.445459983546193,0.061360290501179145,-396.39287256261235
65969.3175438954,19.563265794058108,19.442987503716918,0.17721325405732913,-1.7434289831703276
65969.3175438954,125.6371587616989,38.80236853977229,-0.3459155765736364,119.48778826109138
65969.3175438954,151.1666279016635,47.36123392997005,-0.012511832709812822,143.55013792728374
65969.3175438954,105.15003465929826,24.260359264927942,-0.2616980710571735,102.30481716422427
65969.3175438954,94.5727666700957,40.43422892992718,0.03690479611227343,-85.48367860715946
65969.3175438954,123.58299604758152,37.69615831055256,-0.041631256373081967,-117.68659299707123
65969.3175438954,195.11574345658562,12.862341777324922,0.16107578134166534,-194.68710000128294
65969.3175438954,221.11423835544207,27.476434960073597,-0.3095993540707655,219.39652553613865
65969.3175438954,57.48696424988927,40.2469325494696,0.3960038772764653,-41.0263086769109
65969.3175438954,74.1077093608497,22.401811810321156,-0.06759065040034663,-70.62921626018941
65969.3175438954,50.44280019767754,30.8171043612562,0.1370901672120427,39.91419196919581
65969.3175438954,38.89645884002502,33.242339489667636,-0.044659867828899774,20.155860803774907
65969.3175438954,131.13659576050398,16.27470282500632,0.04718203892084856,-130.11655510796567
65969.3175438954,30.102387688438466,30.05135968881313,-0.22327117705816787,-1.1828013686262524
65969.3175438954,16.37256773312234,16.252710580707348,-0.24408137918909853,-1.4933656395120918
65969.3175438954,128.22749407984503,11.966816105853296,-0.2944126361343496,-127.66118523334558
65969.3175438954,35.2945333130218,21.679545060751597,-0.32799918102556513,-27.820373253743263
65969.3175438954,50.92339701849873,49.66721529118252,-0.30381551419337594,11.164547861593256
65969.3175438954,22.551513144866988,22.496967982620635,0.14148078139592885,-0.9036058864606888
65969.3175438954,1341.9631493741426,32.208757860924315,-0.2861687873341759,-1341.5759343571824
65969.3175438954,49.07423054221996,33.70098016723643,-0.37027435829945987,-35.64780890427317
65969.3175438954,44.79986286046647,9.79786145712772,0.042104422069335214,-43.69676411473367
65969.3175438954,494.6512149575556,14.448240949187959,0.4019505463792348,494.4383587181681
65969.3175438954,160.31681594644846,12.752017409862594,-0.007262133723629754,159.80377598212408
65969.3175438954,176.2771201681108,21.664435841492878,0.22775292917325396,-174.93599625786896
65969.3175438954,55.39946745617997,17.37280706902775,0.1319813773826363,-52.58943328829669
65969.3175438954,125.04828690536456,29.509339915388722,-0.0716713090156781,121.50986430181453
65969.3175438954,155.10228842343497,21.708429096653035,-0.22623768109179002,-153.5701538077994
65969.3175438954,316.68735361369204,35.507593870179186,-0.30725955569839936,-314.68774309092015
65969.3175438954,63.22732329562006,15.766932250833445,0.06416740101842947,61.21661118331064
65969.3175438954,32.70234821713222,32.59729092736687,0.2949992067236159,-2.269916799512386
65969.3175438954,21.04536193585696,8.408989831672946,0.15699180122273027,-19.249697303954857
65969.3175438954,38.787990506518256,15.485204177172092,0.04371733371496979,35.54003505368666
65969.3175438954,28.980310566137028,9.10229546862067,-0.011060981749106804,27.484283491913406
65969.3175438954,22.839736535670966,12.72089547589633,-0.23819208434491418,18.924983263893225
65969.3175438954,55.68735406464706,12.10324636662937,0.296584582722091,-54.34044728738278
65969.3175438954,10.338170890190101,9.846371889506326,0.06540363386756502,-2.881285135228807
65969.3175438954,26.78271577226437,16.590627986284147,0.10835378369110092,-20.98648446771597
65969.3175438954,57.46435791651227,39.56665455143432,-0.07380981212848381,-41.65340531305479
65969.3175438954,27.499187505399824,9.80583388788581,0.03823331629048999,-25.65986783152543
65969.3175438954,58.49674837846082,33.50877244221121,-0.2361807354435885,-47.93073442611505
65969.3175438954,26.47197812795936,17.633207768525295,-0.3465321154451582,-19.70012357802973
65969.3175438954,101.70865473819042,30.16587912306015,0.342108047283638,97.12328501017062
65969.3175438954,812.3931672810758,27.9354904069727,-0.2693878406428853,811.9116783213485
65969.3175438954,217.60859438922373,22.621108939013894,0.018027724848937488,216.4258875484206
65969.3175438954,417.279933572117,25.889685873106806,-0.3792757604056192,416.4738918839179
65969.3175438954,67.68652828686754,13.883903564030692,-0.1919212320150019,66.234778200669
65969.3175438954,16.82773030819095,13.305925008998443,-0.0637491951613241,10.22253132632688
65969.3175438954,10.963877720687647,10.816093919962448,0.07683682073279005,1.2618109165885236
65969.3175438954,34.073368049638326,33.87874417732646,0.004457721573703339,-3.4065271229803695
65969.3175438954,105.36095516230755,15.698502903590501,-0.26547651394706345,-104.17675722164607
65969.3175438954,28.888456779560325,6.853543196987761,-0.11568763858361868,28.034582943559663
65969.3175438954,88.1529882740945,30.688918751479,-0.2802454270401817,82.62832694491573
65969.3175438954,84.91255302804835,15.318584186992428,-0.18217665941382105,-83.50945333080206
65969.3175438954,39.39427220824701,39.30045819985692,-0.28659648427342804,-2.383248675959941
65969.3175438954,9.052357723349166,8.732461643491867,-0.3487794762859138,-1.9867034431047792
65969.3175438954,12.923146872039535,6.751057773401136,0.16500036811286933,-10.944544878272824
65969.3175438954,74.25503561398351,13.575476816309372,-0.3618620378870838,72.99154158398656
65969.3175438954,11.098348012467309,10.393273779991125,-0.031947023930951245,-3.678520330941227
65969.3175438954,414.10672239136176,16.992770666470456,-0.06035531138036585,413.7559654865739
65969.3175438954,55.635701526589926,20.48123290846438,0.4025652178742204,-51.71138818333824
65969.3175438954,317.46188443880516,23.11171305705367,-0.15058477832825182,-316.6168875138023
65969.3175438954,21.23449295430903,20.452824658820415,-0.40985821232383923,5.549505783890877
65969.3175438954,1161.0062110488454,19.28091716039117,-0.15380792343064176,-1160.8453919511721
65969.3175438954,505.87941601860194,35.79196336273577,-0.3691884611882197,-504.60991067708926
65969.3175438954,424.3924102638289,38.409878892515216,0.06355050200080602,422.6487600810341
65969.3175438954,1387.9846300483623,20.77684576269034,-0.043575281957908316,1387.8285316909778
65969.3175438954,537.2024610115507,31.16958025265586,0.023361402827271602,536.2959259417156
65969.3175438954,38.43267573794365,26.077437810986233,-0.3666832119825118,28.200756881892698
65969.3175438954,540.0447599782838,34.53139919154287,0.06564101256572345,538.9381228720338
65969.3175438954,62.99949951954955,5.683901092411507,0.26827553279099875,62.72908081600919
65969.3175438954,82.5384142714773,21.3789657137262,-0.004820825558773146,79.71141057539043
65969.3175438954,109.72005543760285,12.520093339931503,-0.03806706966913489,108.99594360610746
65969.3175438954,58.10205057803994,4.900506603276785,-0.0830221232668847,57.880962046504564
65969.3175438954,45.241584977806,7.053035573942891,0.08178512817198585,-44.67021776740122
65969.3175438954,33.8771401205529,18.880800707760507,-0.01852332922039451,-28.099021121120575
65969.3175438954,357.92820342378644,28.474704956743604,-0.29302678484309497,356.791372461284
65969.3175438954,4.455535366486161,3.6740227999328474,-0.0963641756034705,2.173340633849841
65969.3175438954,3.5930978743904176,3.2379402555144585,-0.39770435556798595,0.8045310309305376
65969.3175438954,28.78607113004832,23.712949704610168,0.2706494269598593,16.267759526007765
65969.3175438954,195.4054516625703,17.646697941683204,-0.044419809531892285,194.60283133034346
65969.3175438954,30.736547101171535,28.38671315101402,-0.05113964331412195,11.71778872564981
65969.3175438954,62.88210514821822,20.383143891883517,-0.13724269536400635,59.473078792798454
65969.3175438954,27.580991918726642,25.530961888863427,0.34775091188473395,10.350821863555128
65969.3175438954,93.20852593907847,27.76089019065713,0.10614579352519926,88.96926638073485
65969.3175438954,9.502694888321487,8.800851767293546,-0.25086206844067377,-3.341052263999338
65969.3175438954,496.48272846304974,21.199778513487463,-0.00015273522827145803,-496.0282737876619
65969.3175438954,298.16203979116506,32.36624673091399,0.25213850453691994,-296.3972736292525
65969.3175438954,22.141925383434607,21.86257650519419,-0.380853564715482,-3.2445188394984372
65969.3175438954,247.348472851003,4.5449042149913135,-0.038729862582451396,247.30343449110285
65969.3175438954,7.482024447808198,7.359693801744978,-0.38565401018232415,0.21496898401024045
65969.3175438954,19.910738991119807,18.631070402860946,0.08659128157295405,-6.905982078140143
65969.3175438954,74.17852826352517,22.917058665860587,-0.2395388455582595,70.53782277818812
65969.3175438954,88.24134460683368,29.284893336269967,-0.029846152314046373,-83.23045340024262
65969.3175438954,322.38696911442264,7.684707768325938,0.018752006822993023,-322.29285147728433
65969.3175438954,183.01243496693579,24.3210005512707,0.4124399915060718,-181.3842592995955
65969.3175438954,81.01206225540074,18.52642643207663,0.039523807430570226,78.8549525147021
65969.3175438954,38.47587523905958,37.90541726726367,-0.2468033944494247,-6.472306311377377
65969.3175438954,154.07457675168087,29.48080785890787,-0.4058187031040504,151.221929044942
65969.3175438954,313.2742141190876,55.47218524985911,0.1995156946362708,308.321114153284
65969.3175438954,96.48628624522584,22.373364868895358,-0.2677041496036608,93.84744885197851
65969.3175438954,7.04542298602242,6.910171187394423,-0.05543307043233923,-0.5136049893444112
65969.3175438954,840.5056900972153,11.207431455004702,-0.30918846296477437,-840.4299449163917
65969.3175438954,575.6835136724724,56.70378705730421,0.3120546823487114,-572.882597408244
65969.3175438954,139.79865073857653,24.810195472458545,0.3329415979539431,137.57320030636328
65969.3175438954,27.899416173293446,26.870994670492465,0.1400782023295504,7.395051725561196
65969.3175438954,33.18062871869962,30.535987050752077,0.20198071899486816,-12.916894537432357
65969.3175438954,317.50994502065066,32.51845772347931,0.2710540847903737,315.83764969946753
65969.3175438954,92.70656469488311,11.103517089329838,0.1223841868605719,92.03033962548338
65969.3175438954,11.02445094475246,10.920356919538529,-0.36437348821746646,-0.7286281916894068
65969.3175438954,34.881070514249316,33.16226176123584,0.10972720594779184,-10.738751265258125
65969.3175438954,317.9426396675658,28.643769322753066,0.3693133588288426,316.6469635873759
65969.3175438954,1149.5289657439416,16.079127013257974,-0.07038155338323178,-1149.4157990687972
65969.3175438954,77.33308676067877,23.155289752369956,0.25658858203625456,73.77365634435866
65969.3175438954,41.18492555003238,21.000708520635023,-0.15298876150382149,-35.405144715554975
65969.3175438954,35.31615420599372,34.396530342422324,-0.2357941069152431,7.901467783962221
65969.3175438954,57.66943189491363,15.43593391047228,0.24963146015152052,55.55008863381963
65969.3175438954,484.22668105663604,10.471375630883296,-0.23580893219846358,-484.1117150796571
65969.3175438954,46.40471968540149,16.16142421265681,-0.04086988346944184,-43.48084693114157
65969.3175438954,49.452702469403754,32.103992619800934,-0.2936964028794033,37.59250624147816
65969.3175438954,178.69065871444474,16.76399352000498,0.023432996125983395,-177.8980011907261
65969.3175438954,100.99404480633676,32.85861873079554,-0.41446716645925924,95.4898728772533
65969.3175438954,818.3387563273913,21.414487622003264,-0.19207649903437435,818.0575054833645
65969.3175438954,96.06131676368014,29.453364811163794,-0.18688121698086654,91.4254904213307
65969.3175438954,216.8102260806407,25.882438932883257,0.043934403764158095,-215.25601246304308
65969.3175438954,162.05702616098122,31.30999652611102,-0.34444304271523624,-158.9981903933617
65969.3175438954,7.229972641459332,7.091738487190502,0.12162884306235754,-0.586770609000413
65969.3175438954,118.49658847321653,21.044440274667927,0.06889480931547357,116.60595015057987
65969.3175438954,863.6646117353991,37.18289870450491,0.2948238255910002,862.8628431162149
65969.3175438954,686.4695434803083,30.97260447879729,0.044062031657529976,-685.7692828496314
65969.3175438954,57.80725689317821,2.6053179039933756,0.03865529251601369,57.73447079171067
65969.3175438954,201.41011853698427,24.39598084948448,0.20989699618015967,199.92300331483156
65969.3175438954,80.5335361149838,28.101341711698684,0.2937016400122187,-75.46030821716738
65969.3175438954,35.85218027245753,11.933011090296056,0.10331217724968346,33.78388294585446
65969.3175438954,194.60929520745597,31.95809273052293,0.050606342963090634,-191.96310810378537
65969.3175438954,25.98414417643293,24.999603360017705,0.02969517509384525,-6.96950803984907
65969.3175438954,88.35014966391888,35.63963365556429,-0.19883350058027197,-80.8325755340666
65969.3175438954,24.36843136894159,15.995767188869305,-0.37531904033538455,-18.33560358258681
65969.3175438954,325.1086623729519,17.502249691218882,0.2354140996592266,324.63462158182614
65969.3175438954,29.157248733918024,28.45390299186984,-0.023793555255544194,6.236933206717323
65969.3175438954,724.2948787542756,10.719201971480246,0.09290789930751589,-724.2144301314254
65969.3175438954,44.17344146429713,23.567122966830034,0.27655799385255314,-37.33880696058102
65969.3175438954,66.6553222066379,30.824615002167192,-0.0206032781646237,59.08598825137238
65969.3175438954,51.982301335555775,31.379150626602275,0.010848985462770138,-41.423275873481366
65969.3175438954,42.91797647285054,7.2798956626610165,-0.299523109138909,-42.275825873299205
65969.3175438954,708.6779812088884,11.736243994917869,-0.30811960443125785,-708.579583415444
65969.3175438954,196.27008883107706,8.427555449558843,0.07439244054514267,196.08492519407446
65969.3175438954,17.70868412272775,16.331927130333934,0.41067160564336797,-6.713891725209049
65969.3175438954,141.3583170036083,14.27844217521704,0.22133071082168534,-140.62940742090734
65969.3175438954,102.76877781481676,30.66092390021089,0.2996748014514939,-98.07965628940349
65969.3175438954,222.29630618844595,29.638711863313496,-0.2224528221219124,-220.30779460234766
65969.3175438954,630.2701266008386,43.1714513552934,-0.40039330680323193,-628.7884201400435
65969.3175438954,1026.6178262893254,24.36594221651328,0.36269449425344996,-1026.3277789825836
65969.3175438954,141.8972065200663,41.13778651325585,0.2677545232917102,135.79693439176341
65969.3175438954,44.65688570789609,30.220108384625405,0.0679266227593855,-32.853572408811296
65969.3175438954,37.98124252441578,21.660439671357462,-0.3267115345567457,-31.17166566310919
65969.3175438954,280.3825695456485,20.693216896783625,0.04096909306205664,279.61500987020355
65969.3175438954,49.268756294152865,40.63930137940111,0.05439476209633109,-27.82505912076723
65969.3175438954,112.45482237909107,24.27054156177892,-0.05932144619653102,109.79710248123311
65969.3175438954,361.2330698268746,101.51470024267782,0.13503214290397997,346.6734161732116
65969.3175438954,23.359470780684127,20.976417578166377,-0.312151311345654,10.194934330163843
65969.3175438954,18.61983441356153,16.022486638092264,-0.37545489025884543,-9.392365668109704
65969.3175438954,71.98470521645994,16.757144559812748,-0.0889832276222644,-69.99548068971936
65969.3175438954,345.01552803061736,18.50740450351541,0.08115041766169627,-344.5164195203128
65969.3175438954,33.721013596143905,16.138564686957416,0.13428480097705633,-29.580649064649347
65969.3175438954,223.60270209845726,46.399470000815356,-0.009543039607551974,218.73188341438183
65969.3175438954,120.88530114580112,25.060240509807613,0.11649510134602897,-118.25229871461481
65969.3175438954,22.731398112979534,18.402140318211572,-0.38176433783733793,13.278226220677125
65969.3175438954,183.2174085922834,33.134400567283336,-0.2812604473998796,180.19164949180288
65969.3175438954,58.13232340563409,25.195623128241795,0.032631342727943234,52.37294987500525
65969.3175438954,46.33724733889225,30.550013507908364,0.3993326507265897,-34.814609616421905
65969.3175438954,36.682193385052436,17.6839264012596,0.10304932014011972,32.11278223867152
65969.3175438954,23.488532190707314,14.407673128959,0.007141577001245331,-18.5070092715799
65969.3175438954,37.75916317789254,18.226734440318122,0.21129755837353664,-33.04353571541886
65969.3175438954,522.5566828858152,7.86825094729944,-0.2296407968125948,522.4958411934574
65969.3175438954,27.569600574632783,24.778615734001107,-0.2110682073986039,-12.018230820750215
65969.3175438954,33.06947334413921,12.523849834568376,0.16574166763538667,-30.579325139332703
65969.3175438954,211.22493767861565,27.63279670801858,-0.3801047610715851,-209.40543858146685
65969.3175438954,540.9082723183641,27.779910562502184,-0.01091125726219159,-540.1929422495438
65969.3175438954,163.78718110992472,20.719618751076926,0.20779044087806633,-162.46622498715075
65969.3175438954,159.4279488342462,34.53783396593289,0.07754801105330118,-155.63669947811206
65969.3175438954,45.50710411388705,22.112396262520075,-0.3407734004675475,-39.75175057212547
65969.3175438954,7.73464372355622,7.526855549283392,0.12992353681145627,-1.2383951883998203
65969.3175438954,47.40471844691382,11.936752804832054,-0.32173927951046927,-45.85844623448362
65969.3175438954,40.372990634815366,35.94345317123328,0.3982983560746975,-18.33759114614832
65969.3175438954,31.043855788264242,28.977156598293387,0.3910680790735538,-11.057657398181547
65969.3175438954,193.3626512842173,21.855298947248073,-0.2372069490546303,-192.11919189958365
65969.3175438954,6.238071181525884,1.9406990736671497,-0.0019263704534604675,5.790212358614154
65969.3175438954,13.899857032378776,12.263678547417161,0.2551019021939171,-6.412681242911333
65969.3175438954,38.24104885329923,38.217527547919076,-0.11261780026192894,-0.4062837100222079
65969.3175438954,85.66615718880891,40.259929764025884,-0.015042134042552127,75.60560601122857
65969.3175438954,15.656225352898042,12.41096204987329,-0.2592592702051439,9.455027320195597
65969.3175438954,646.7551903917707,18.244310898166276,0.1089222149830504,646.4965497960488
65969.3175438954,17.646032759735768,12.391479724871116,-0.34104946861699004,12.493867749549459
65969.3175438954,76.0069895707664,30.86337979970239,-0.08201256812999888,69.44700762873866
65969.3175438954,19.538383138894226,19.106782881744426,0.09118436085755864,-3.879470672906225
65969.3175438954,71.39778585605943,17.308809547243154,0.3776710095391068,-69.25522107040767
65969.3175438954,34.6677614826479,22.120097555606364,-0.18447385411437733,26.662713354849508
65969.3175438954,256.048236764985,26.134122917027927,-0.3917632925472928,-254.70754412666227
65969.3175438954,37.206296380052166,27.909958659645,0.05732011982392181,24.570688961414017
65969.3175438954,71.72369458546035,14.187227514422254,0.3301601752438243,70.29424783293862
65969.3175438954,41.95121089113051,17.841271621999955,0.28374614794906183,37.94590826377924
65969.3175438954,126.19693461312589,42.33258239545063,-0.2001703361990517,118.87791236817696
65969.3175438954,90.47051931740698,27.33445578514156,-0.052605973562916214,-86.23293436269287
65969.3175438954,54.303258443983054,40.487522202378855,-0.024487148130552534,36.16604993115744
65969.3175438954,20.30266785999388,17.776844669416832,-0.242744743217234,9.72124140836936
65969.3175438954,79.09842299560509,10.756146479788015,0.14721501806067636,-78.35319715705906
65969.3175438954,23.77905778476717,9.5233120989604,0.3103708915413542,-21.749324803411124
65969.3175438954,80.81800872092468,16.982760236401873,0.1852866703256646,-79.00304678248584
65969.3175438954,85.02216510739049,29.428801206717512,-0.07015047673372092,79.75643323075569
65969.3175438954,114.52002980680078,38.0089087733882,0.3626165980753129,108.02040517285191
65969.3175438954,70.57681249868996,18.03330104535242,-0.2385107110923734,68.22176318610597
65969.3175438954,287.89278372064115,25.559340701502133,0.03918954770924535,-286.7531217427305
65969.3175438954,110.23951512052004,22.86149258933583,0.013315217648056545,-107.83543952243892
65969.3175438954,28.376664521570547,18.82900075215832,-0.005230847346049777,21.191581733809254
65969.3175438954,248.19116855277423,26.16496004516421,-0.027622256052913338,246.8048411075744
65969.3175438954,273.9364507217814,38.40055609753742,0.034091934493862094,271.2286019336536
65969.3175438954,30.150170203066622,29.213022896148413,0.06086485268219659,7.348992836450628
65969.3175438954,309.75219262996586,51.96856631914161,-0.36425391466347407,305.35869991959873
65969.3175438954,84.12404772784711,66.97045394050743,-0.06987094316917336,50.8938912529615
65969.3175438954,56.06712996793284,12.473600783954653,-0.207430750971885,-54.646762598571655
65969.3175438954,156.84153462308933,32.898057996702406,-0.09625669632672226,-153.34717095961452
65969.3175438954,153.9660643596307,36.27997619860378,0.1667162222623111,-149.6250776134182
65969.3175438954,303.90648272750934,31.450450094644232,0.1110186073155793,302.2720404721822
65969.3175438954,433.6347004211067,36.73835164119191,0.17163005446949137,432.0737168757352
65969.3175438954,1213.252707659427,39.86908341987009,-0.2014852944968001,-1212.5967703971357
65969.3175438954,283.64869332856307,30.148569807369533,0.22259083912945116,-282.0389596537812
65969.3175438954,68.3133612139334,11.016174455938772,0.27370093581792493,-67.4067033179705
65969.3175438954,1606.5767908864052,38.45506559746812,-0.16121580986043024,-1606.1159815834953
65969.3175438954,426.1156956847727,25.724294375566615,0.3455565793340932,-425.3364629586147
65969.3175438954,23.692086540577442,22.37757752397279,-0.07181472800256487,-7.676794588051776
65969.3175438954,11.805547874712222,6.3224894863963925,0.18364048002679864,-9.886491146414128
65969.3175438954,34.99342133661248,33.61123916943553,-0.26872077845480535,-9.65045445445007
65969.3175438954,31.873352463308343,31.624490958302705,-0.12485083483615009,3.7637647170160835
65969.3175438954,41.072239579250244,31.64919969240283,0.05234159261976092,-26.14638841103912
65969.3175438954,2.236020203438906,1.7212625772016432,-0.18596164935450551,-0.617902462352655
65969.3175438954,28.31081600277312,21.63281021442275,-0.32153028556197893,-18.215372270217472
65969.3175438954,67.66787436723158,19.056897726323953,-0.11656327255074307,64.91642031973771
65969.3175438954,391.3396830323949,2.5816071667861955,0.049943086469159875,391.32909381966135
65969.3175438954,215.50073786828392,36.656939102313856,0.36074120992171094,212.35603605007563
65969.3175438954,104.28708509470547,38.51365832812036,-0.40511264163978816,96.90567303919947
65969.3175438954,14.080683615130154,13.054393469965158,0.08356666430047954,5.120627159913474
65969.3175438954,346.60028744865053,19.50776551071045,-0.05011954973756188,346.04852719812936
65969.3175438954,62.32603858684121,23.591338223132905,0.2862247026477174,-57.67392188751569
65969.3175438954,23.424651968520998,13.392590435596423,0.23204018565736842,19.174940477624588
65969.3175438954,312.00709871131187,15.758997654169317,0.06229909142390785,311.60625651887506
65969.3175438954,206.06382881623486,25.521771319716407,0.11748738782348281,-204.4732409767152
65969.3175438954,67.76131354682046,23.286300592764327,-0.11440577148873124,63.62161639970242
65969.3175438954,10.161410667168882,8.930620573883665,-0.17668523628877472,-4.674014220876624
65969.3175438954,69.60423210088382,25.030354511822217,-0.02630176698469798,64.93542277740833
65969.3175438954,24.059185767494707,23.315236457741367,-0.29249934277473333,5.791196469332031
65969.3175438954,36.15149730689387,15.429323784792297,0.07113385400171789,-32.668654835280755
65969.3175438954,27.158013776710792,26.69366511507871,0.3797576583237526,-4.820900625244983
65969.3175438954,153.58510827119196,42.105581899136965,0.026176722004263943,-147.6952406615919
65969.3175438954,34.50291619815247,28.770663532156103,-0.27464856315818176,19.000106788132783
65969.3175438954,284.399064300748,90.05467166025493,-0.09619470563505118,-269.76166143019805
65969.3175438954,18.52245527996755,18.304950352544846,0.06960623558500521,-2.526784687846088
65969.3175438954,25.89959820414585,19.082063282375458,0.02740852205440752,-17.46546994770058
65969.3175438954,131.58662396205452,17.83747094144225,0.21641742286484544,130.3656271543267
65969.3175438954,33.24003146863006,12.295222671094875,-0.30437074661848795,-30.854722388150154
65969.3175438954,797.8493564140497,36.87315045929562,-0.2886473850654404,-796.995773095381
65969.3175438954,21.63029704159412,21.59208622417197,-0.16399986249678636,0.06332723047085093
65969.3175438954,650.0670883707384,29.473849432260337,-0.22487486357912553,-649.3972900755336
65969.3175438954,13.237951140290487,5.125904575283253,-0.04603810936867878,-12.138602755992725
65969.3175438954,126.84726023486134,22.355164091764305,-0.38420192071049875,-124.85473879714195
65969.3175438954,27.951236896651146,27.86145131263476,-0.34872772491840776,1.8080120236792376
65969.3175438954,5.703735080396438,0.7145161911875744,0.11215694891740455,-5.512606007705004
65969.3175438954,135.04856869026995,49.269948233651796,-0.002880070212338196,125.73371640791713
65969.3175438954,590.7832645385081,10.845173850189196,0.3239929700427482,590.6822514983744
65969.3175438954,73.70195687448988,60.92540346923644,-0.20167872965483305,-41.4537372094172
65969.3175438954,37.662606933166686,33.08201075479956,-0.13963127997500654,-17.955845071304594
65969.3175438954,68.99306736721637,33.101095575378814,0.36209709381057814,60.51949310626327
65969.3175438954,360.960363869683,25.175035686082264,0.1545618991784901,360.07909869562724
65969.3175438954,561.7687864489563,40.492414889631604,-0.32274952813398633,560.3059958104843
65969.3175438954,400.7010730800645,29.73205811639694,0.02500303212049902,-399.59446118061277
65969.3175438954,41.69724991394763,21.658266791188115,-0.08176464938611232,35.608324704028604
65969.3175438954,40.95674049782461,29.414001521759186,-0.22123820450020024,-28.47106432921791
65969.3175438954,73.96114935917154,13.127809704598217,0.11398632067142994,-72.7755355714112
65969.3175438954,54.14365891065785,16.29463752627812,0.3416285749073927,-51.61669518416669
65969.3175438954,687.1673586857576,44.57901623092518,-0.3099420483548902,-685.7185818064636
65969.3175438954,53.215179424445246,38.88376441532613,-0.2741598302719952,36.30719441315018
65969.3175438954,150.91105765294574,37.365616420471646,0.1071623550627016,-146.20644955464877
65969.3175438954,197.05355856178986,35.478762767150435,0.2947562381530521,193.82893178479463
65969.3175438954,9.29247771172681,5.637647768319377,0.1503634539632632,7.274874857515788
65969.3175438954,35.522628964348094,35.276912319035844,-0.19508760756828128,-3.9671035147412734
65969.3175438954,74.19813094338775,36.423767497825146,-0.31231609632480767,-64.62935555233372
65969.3175438954,26.95247297367644,26.804632092306043,-0.06672998639222633,-2.5144360400081833
65969.3175438954,350.71336505421147,22.93743256011495,0.1302783270520048,-349.9601419968476
65969.3175438954,23.310321876813884,23.24537662131684,-0.09419453519717122,1.1806959053218469
65969.3175438954,14.87777240408902,13.98678354037076,-0.3041404634323847,-4.899473459331069
65969.3175438954,389.7671264314678,32.538187291839414,-0.14110126730457243,-388.40447815200946
65969.3175438954,1199.3160802476477,24.277063623409667,-0.2819384052558309,-1199.0696328307376
65969.3175438954,103.14017472576137,19.275888470058206,0.38840052331922514,-101.31418585213746
65969.3175438954,1336.4083661406034,30.05882005749904,0.045531793646412515,1336.0696709744973
65969.3175438954,43.54657758386009,27.597162631340186,-0.09216899624942171,33.661133114322475
65969.3175438954,13.723628031816283,11.01872910565145,-0.0557446516004423,8.080953624618886
65969.3175438954,1367.1114284044297,26.60680846510979,0.3332380676998646,1366.8518587299025
65969.3175438954,142.5748006811445,28.350807888472,0.07213881243532157,139.72179365091287
65969.3175438954,42.60524375935607,31.82519659854781,-0.251798488026011,-28.296282414424294
65969.3175438954,108.83432469350922,70.38076255086395,-0.23341906982673766,-83.00471886276368
65969.3175438954,328.1527375810728,19.651436833353397,0.05799486944649901,-327.56131669143986
65969.3175438954,29.15498279641415,26.592620742569473,0.24318799914137432,11.88131925316555
65969.3175438954,41.80326151415574,6.977507720020633,-0.37833529660391896,-41.19542772370244
65969.3175438954,41.76249976587494,40.47161147075724,-0.34554828099979584,-10.218365414183166
65969.3175438954,138.1898995184936,27.28684685353359,-0.407806930297698,-135.4625016560977
65969.3175438954,24.15721938731848,24.120111224027053,-0.3105359565131557,0.27275297397543197
65969.3175438954,175.26010371725934,29.148943440221217,0.046997567985452654,172.81440966027512
65969.3175438954,171.78218243935774,23.831054047057386,-0.03239221838579233,170.11636417780832
65969.3175438954,311.1627453623159,27.870852931706263,0.3863103695984295,-309.9091798676969
65969.3175438954,11.971129602221813,7.813963864981535,-0.33376415913644336,-8.973174346547053
65969.3175438954,51.495217897769486,7.393349794566382,0.284400987400863,50.945012561877064
65969.3175438954,22.3738607391774,20.176857006784694,-0.33678618791396914,-9.57862226340499
65969.3175438954,327.2915826254879,38.77351322333268,0.02671513367681246,324.98426632656503
65969.3175438954,383.10513268885217,12.557145696802857,0.2834628975363213,382.8970615935509
65969.3175438954,135.43192564009456,24.876468152165494,-0.11543761537613118,-133.1215002646562
65969.3175438954,79.19585883827553,33.98117232542792,-0.08111222661697089,-71.5236796384654
65969.3175438954,1006.7992055127376,25.251401575845573,0.09817054025534534,-1006.4816822206838
65969.3175438954,241.94207942399072,19.3925075905109,0.2918782931066953,241.16010158423
65969.3175438954,29.4162992750875,16.58626229217533,0.07731311674299074,-24.26083124289346
65969.3175438954,236.08292428137858,17.567603341089853,-0.16039500728739117,-235.42489262445548
65969.3175438954,255.82556630048327,30.74224516300676,0.07451129588770924,-253.9685187716478
65969.3175438954,52.24910180247133,23.46090228103063,-0.33104930304619734,-46.66716675974017
65969.3175438954,18.51355609611981,17.554368087212843,-0.18688294050278875,5.739367460519246
65969.3175438954,120.97711556438291,40.79845533498662,0.19302603823940595,113.88279333245747
65969.3175438954,38.604727758059965,23.30068331519497,-0.04602669692025962,-30.753542683072972
65969.3175438954,32.68943449122821,30.939458759508327,0.3383047071770437,10.469666310231002
65969.3175438954,7.084338844272788,6.84130054938903,0.0630180158246903,-1.3265881352489184
65969.3175438954,9.309631841081707,9.148542825797197,0.26660242257389805,1.13211131379153
65969.3175438954,266.77561779846053,19.35976303226488,-0.0853734196896292,-266.0691674774842
65969.3175438954,24.40256364627695,22.773175172994183,-0.14404634793846582,8.67330383405681
65969.3175438954,28.013056929984156,10.047836997707206,-0.3738813596208953,-26.11535729520979
65969.3175438954,72.43735209109481,19.918347981752625,-0.12579190422269138,-69.63327445798726
65969.3175438954,832.8515091053421,32.78105024923221,-0.11801760320687094,-832.2051456096304
65969.3175438954,265.610443194364,28.944470710813633,0.0029093544416502475,-264.02557543618855
65969.3175438954,209.19981978860798,25.57359930518177,-0.10298378532032916,-207.62688736336992
65969.3175438954,230.10874050076046,23.72924539751916,0.39310339645101183,-228.87809021644648
65969.3175438954,48.536482372723505,29.25531857979019,-0.07796750057022295,-38.70774755367506
65969.3175438954,20.49060729463262,7.2339144110669,-0.260271649506457,-19.12712921382018
65969.3175438954,43.8256820806648,23.507996145774673,0.04279536445214968,-36.9654168013838
65969.3175438954,63.586290093619034,23.494371350323213,0.28265509203440375,59.07224604261661
65969.3175438954,44.946130336328274,21.494890981309794,0.18456150000423674,39.45211749275357
65969.3175438954,12.189052262003267,11.741331967682008,-0.12081390193754614,-3.0131157244842384
65969.3175438954,167.10950247706933,30.259047287145577,0.14753315111559093,164.34212318536822
65969.3175438954,753.0956533011324,26.18980628384848,-0.2599626916404172,-752.6390029961049
65969.3175438954,28.441521495566988,24.878576010599946,0.10672020486620835,-13.723868083123392
65969.3175438954,499.3180125850105,61.8454655652287,0.027928721242181164,-495.47148721651854
65969.3175438954,59.02736517238128,22.743103481073927,0.05973915213738586,-54.45509028707983
65969.3175438954,81.99933906583126,9.776749816225724,-0.07307578097147538,81.40442723766213
65969.3175438954,62.51466542797195,30.405967099827077,-0.23487704722198774,54.606636361944986
65969.3175438954,84.83511527330046,48.200050073930555,-0.17854145385830383,69.8004256645439
65969.3175438954,71.81779864292365,22.831568972305913,-0.03301268373495393,68.08005518533733
65969.3175438954,34.677171310000546,7.001529645835676,-0.08172253759022961,-33.93902558716085
65969.3175438954,78.64674275065558,42.08313992459247,0.34525930480968825,66.42725057598658
65969.3175438954,2916.3778447095915,37.28725434118424,-0.057147402249607335,2916.139189039942
65969.3175438954,30.610773859384054,24.10924428526424,-0.07068061168536062,-18.81855903655845
65969.3175438954,78.30620762285591,41.19444468526624,0.21442681129667882,-66.58237938213422
65969.3175438954,28.480504472356124,19.56927906653955,-0.20701843317235716,-20.65233494986998
65969.3175438954,23.309556134713755,17.044522239479846,-0.1559235650861888,-15.848492053334267
65969.3175438954,178.62411046414695,20.593440676822944,0.021761107594984713,-177.42846984165095
65969.3175438954,45.34851304364692,27.429776322164425,0.2774023443630505,36.088743367187014
65969.3175438954,35.811487022404705,15.62435396846451,0.06272439789864617,-32.19809893722602
65969.3175438954,113.56774389925047,95.39608432194026,0.08199734994269035,61.608377437967846
65969.3175438954,155.43101990428764,30.45268090925785,-0.06296944551505437,-152.4132919153458
65969.3175438954,153.29048627978182,27.18708996417108,0.3013695405002386,150.85464475205796
65969.3175438954,1264.6331791324167,37.57172562843142,-0.13459100658412188,-1264.0742875420033
65969.3175438954,562.0533261272874,14.93700846469167,-0.3677584446317626,561.853247108439
65969.3175438954,42.03845492316716,12.642055024297703,0.261032970549486,-40.07145296312042
65969.3175438954,40.30450072239765,25.691521027895327,-0.27314596016364967,-31.02745978543701
65969.3175438954,84.61318887638808,20.604520255571252,0.047850372399515805,82.05621567503852
65969.3175438954,802.8037372315703,41.71008981317313,0.403925898578206,801.7183577219116
65969.3175438954,23.008100737670453,20.45696974203216,-0.030700059437257645,-10.452917761669376
65969.3175438954,34.98088578015512,30.159309770378904,0.4070612426983502,17.671786807812577
65969.3175438954,655.517377775889,125.27978541580704,-0.40424374603203606,643.4331541528135
65969.3175438954,102.11198530691347,26.378687997639524,-0.28167412411049847,98.63732744872911
65969.3175438954,1047.0833996949227,17.062717312420624,0.31968982501965565,1046.9435451526062
65969.3175438954,70.02954747880521,18.061480196495637,-0.06732557866667052,67.64832048293428
65969.3175438954,38.212997315002866,7.196417521186088,-0.24539080716536565,37.5068509169517
65969.3175438954,34.362290618033164,25.067546405625567,-0.32142781308646434,-23.46617057763052
65969.3175438954,83.52287141404223,38.23099013784665,-0.37422666250084413,-74.24756386864878
65969.3175438954,202.47132456748696,57.23894158821198,0.10780744622859632,194.20790035224093
65969.3175438954,51.42072883348468,32.516772388441574,-0.12244079688030139,-39.81350548687978
65969.3175438954,38.23113600242751,17.74367592229749,-0.3801671315709506,33.838093052803124
65969.3175438954,24.374033239020306,24.308560998013608,-0.07925421971159409,1.2491681267453727
65969.3175438954,243.71195868172535,70.18262887281483,-0.1245018638457008,-233.3844066169956
65969.3175438954,50.019709673702195,18.891800512799893,-0.2543249606824757,-46.2967157770171
65969.3175438954,31.060734584876407,27.854632236198512,0.3145134094167882,13.680976608088512
65969.3175438954,13.545537202407235,11.007422280373547,-0.14215828145619597,-7.789567867593681
65969.3175438954,26.853079723169113,16.322961087341227,-0.26155933656480485,-21.282851368436884
65969.3175438954,117.40104384986414,35.89912485004861,0.000017164295668512477,-111.77046692098745
65969.3175438954,301.350488389358,29.3932799659622,0.4052474810608523,-299.9105984514781
65969.3175438954,30.258740703464728,29.757521581885584,-0.21178070173022906,-5.330646386227569
65969.3175438954,35.187817435030354,20.43833929492743,0.13092421634750478,28.615013284175234
65969.3175438954,110.97788000704212,32.131102987425464,0.049882475041920574,106.21703689665362
65969.3175438954,927.536711232902,31.505450438704063,-0.3747767617015484,-927.000537304849
65969.3175438954,31.47120706732997,30.2392943802358,0.08716584493041868,8.625177996608361
65969.3175438954,54.17701177183802,25.753264678868778,-0.043558120300775445,47.64761703688508
65969.3175438954,298.3146143746929,31.354222261392206,-0.10229076632340829,-296.6595536573895
65969.3175438954,71.06639107675424,8.277691873709271,0.2821398534820855,-70.57061356342794
65969.3175438954,400.9695573434383,37.46966677481231,0.12384879684896774,-399.2129431683677
65969.3175438954,45.02737195271122,16.76140751869881,0.05399124020555331,-41.77195077565079
65969.3175438954,136.2920910534366,35.26791168362103,-0.29554704816825617,131.64345971157996
65969.3175438954,45.81153944036004,29.94041534518152,-0.15037827828233044,34.65004191807858
65969.3175438954,130.56805186405035,38.67596106170772,-0.25798460789822647,-124.70163988964298
65969.3175438954,37.63346697964123,28.623158514746166,-0.20746664617192048,-24.39936341045985
65969.3175438954,13.664649657543128,13.322491716580494,-0.0886663733659094,-2.7577793053056103
65969.3175438954,1194.241105380205,26.050784523328236,0.05406545871902689,-1193.956260013773
65969.3175438954,422.8252502194544,15.008051549771098,0.3974865515599235,422.5567085728997
65969.3175438954,126.3417056039296,28.233131218336155,-0.07498485155678741,123.14012586272504
65969.3175438954,32.41839315981596,20.408843879306897,-0.2779902466294964,25.1541919308643
65969.3175438954,199.7264154396169,45.36378418312609,-0.2284385712170879,194.50217291449957
65969.3175438954,651.2363831671626,14.611703608433093,-0.15206631414181562,651.0711797475299
65969.3175438954,97.24321784484277,11.973443210693015,0.07176208324416669,96.49484063099315
65969.3175438954,57.885326088279335,8.361000297785367,-0.16838495495809114,-57.26391220106525
65969.3175438954,132.9531826275505,22.250893134618295,-0.12841899093209802,-131.07177185712746
65969.3175438954,1345.6740481309112,24.25720047589615,-0.21297598025110376,1345.4547803709477
65969.3175438954,59.624833414850386,15.087183374085718,0.001938678087422716,57.670417004946295
65969.3175438954,8.823747025182158,4.855378130478006,-0.22011733494271127,7.253599577509399
65969.3175438954,76.23488917951649,22.839119522450407,0.29970517289886467,-72.72154060633768
65969.3175438954,396.6751374256359,38.605011199050786,0.3974098391684568,-394.78986710791537
65969.3175438954,200.68341905967208,27.461587130614223,0.2396498034848119,-198.79139274479877
65969.3175438954,1306.5586532691254,35.778094411408986,0.39503878934232856,-1306.0680172490142
65969.3175438954,24.67532653647956,10.406001418873839,0.29278750995258124,22.335632816730396
65969.3175438954,20.46116901249842,12.485329757031705,-0.2874316736255135,16.157744426333192
65969.3175438954,146.5846705152991,14.2347067135447,-0.27754437948991295,-145.88605508297593
65969.3175438954,4.820852357045052,2.5752997966471622,-0.027462206985862332,3.8713095885634585
65969.3175438954,186.15302719330586,23.44704815796304,-0.3533816991439602,184.66575191675915
65969.3175438954,53.06430646244351,16.995715025969982,-0.08777743177427144,50.25274052144931
65969.3175438954,337.1843396641844,15.882189136343914,-0.26796311451348775,336.80757491849295
65969.3175438954,579.2459956913069,30.62960482671837,-0.0665387190936811,578.4342017454268
65969.3175438954,70.87557640422963,17.71058885890705,-0.04081649232359737,-68.61530478409321
65969.3175438954,26.329683319604648,10.93191532723631,0.08635722666694125,23.918974416051068
65969.3175438954,24.95594371325241,22.589833520446653,-0.0038916641331043643,10.529856442040296
65969.3175438954,2685.222693360288,25.34231526978648,-0.31452750484257813,-2685.1027839563217
65969.3175438954,531.0609774158099,21.98960617293522,0.11096803896224579,-530.6039822541727
65969.3175438954,106.80833831135085,34.68127810586487,0.20808694835793465,101.01270279175318
65969.3175438954,382.7222228144207,19.64747319621565,-0.35673465208870386,382.2152910561018
65969.3175438954,40.75993009549162,32.95394820027691,-0.33960340354682267,23.951476209800283
65969.3175438954,392.27917367052527,24.721884324621747,-0.2282795644508323,-391.49726150154373
65969.3175438954,744.7133776218078,37.20627583027546,-0.022988869597515577,743.7822844508548
65969.3175438954,39.174481310789325,34.939352824737334,-0.004023808734889945,-17.670906532047674
65969.3175438954,35.97789367881862,13.832393281649459,-0.3274527141771645,-33.186531124593806
65969.3175438954,229.48748261158443,33.62413711934264,0.33056660969375984,-227.00703105365693
65969.3175438954,6.319971706442496,5.8184551584465165,-0.25469437246533144,2.0981173497960706
65969.3175438954,177.0419089127119,26.728184784700712,0.23811000303068316,175.0078978129154
65969.3175438954,35.84899470101598,28.893135348767622,-0.030787945203660627,-21.18290694383555
65969.3175438954,1086.2145066498265,15.763613267118263,-0.3652872237831012,1086.0993089318456
65969.3175438954,1101.8184452225996,32.9239386437181,0.07622060389621875,-1101.3256893539933
65969.3175438954,130.82758609982972,23.834154956843705,0.08209712370086177,-128.6318893041741
65969.3175438954,41.41071349261287,19.062469302482576,-0.17072125351723022,-36.7398918617118
65969.3175438954,177.305174941176,42.120280728855995,0.046149152457085126,-172.22480723228176
65969.3175438954,40.94055215295892,40.69024419998082,0.1810446441137658,4.333520978305583
65969.3175438954,24.51238109671945,11.905365033017294,-0.2801140485228096,21.38737922885219
65969.3175438954,159.55969950338925,13.637712841995107,-0.000032381096915560105,-158.97072006425464
65969.3175438954,186.79148082333435,35.5331205930708,0.08554298059543888,-183.37618895371435
65969.3175438954,417.67738912723865,24.39917912520336,0.32095946805241776,-416.96205795597314
65969.3175438954,28.636153985547573,27.521547133207694,0.042053741395554824,-7.808414285817216
65969.3175438954,311.0682314078257,47.00870252442669,-0.2810351481977325,-307.4929703929922
65969.3175438954,101.13323070475086,26.799867637809875,0.39225998525039935,-97.50857871581199
65969.3175438954,62.28189652203018,8.351287094733147,0.4146113127448123,-61.70492751311731
65969.3175438954,26.034619829725088,12.933879952784608,-0.2737751643156645,-22.55705144521719
65969.3175438954,21.515883673859676,21.387326334631286,0.18501729866570096,-1.9648498211677494
65969.3175438954,117.37152044089771,24.598636052449702,-0.24213891682006292,-114.75757764701052
65969.3175438954,62.72393560640178,62.47036365789931,0.2442746046922129,5.483195785383844
65969.3175438954,368.524659564679,7.50587540784022,0.13618363605934958,368.4459897180851
65969.3175438954,49.276267299425804,21.833613564189104,-0.032430239803558816,44.15679030082649
65969.3175438954,86.08673450612248,15.51741127166059,-0.3282212981960623,-84.6664480170904
65969.3175438954,41.75136976668183,21.638410442673216,-0.3872612939380382,35.681724219778424
65969.3175438954,625.818019994842,20.363966078172698,-0.15418173387372716,625.4852984743302
65969.3175438954,39.54078252111396,39.106761486120966,-0.10301463408350911,5.701177083054105
65969.3175438954,622.2963544513914,16.866236083498066,0.07538132947102844,-622.0664405875148
65969.3175438954,57.03643351286873,33.6434768048767,0.05584006602990419,-46.03962903773384
65969.3175438954,81.2851143992317,28.802360001374183,0.05069163121422996,-76.00046483610116
65969.3175438954,1009.8274937684776,48.91082399525211,0.33124824717983226,-1008.6414467416685
65969.3175438954,135.295717674528,21.941213721081443,0.26857811905906137,133.49839538737115
65969.3175438954,64.52936079763276,17.075782115606046,-0.2915299431092853,-62.21535521140409
65969.3175438954,1780.8769275372276,24.626896862680347,0.1556785093972827,-1780.7061807309065
65969.3175438954,282.6256003196578,31.2347266699527,0.2822777010441493,280.8912983146636
65969.3175438954,28.941189244421604,28.430689702352183,-0.031033217557129962,5.2599143117448595
65969.3175438954,128.12020405935837,31.29506762579475,-0.2295419553305601,124.23257255928016
65969.3175438954,14.312107320035485,10.54282343269606,0.02110315362860778,-9.595008512847453
65969.3175438954,385.32518110022096,20.52360006669098,0.07289955218925354,-384.7761051047393
65969.3175438954,63.4151912380744,32.30643679179574,0.11189432465229338,54.55407816961868
65969.3175438954,325.0677339255653,32.17090361977397,0.357186511186925,-323.4691891993473
65969.3175438954,61.568419438275384,22.69294327943081,0.32941123657785104,-57.21862834233846
65969.3175438954,104.91012723414485,9.919516418183017,-0.03180974849131154,-104.43235285174447
65969.3175438954,17.266590095696458,7.645288456670512,-0.15054834847754464,15.428589593328821
65969.3175438954,170.56754871763843,13.47989663689286,0.033278324299455944,170.02928953110774
65969.3175438954,72.04160443839766,34.39317178002858,0.21193357507130942,-63.28852133543066
65969.3175438954,64.47915834875747,17.240465226264295,0.19414740753164517,62.118192750817855
65969.3175438954,261.35333150835163,18.29823241309832,-0.1602934904207063,-260.7088265302213
65969.3175438954,29.57271717899525,27.09775515415851,0.3573743762892091,11.768980168510302
65969.3175438954,52.465054650373034,27.269035360747623,0.2677718280070118,44.80278241255278
65969.3175438954,27.52684318438292,20.648621251072885,0.3653622618667381,-18.155092680635185
65969.3175438954,147.51245111632062,31.55496835139886,-0.3239908527586021,-144.0919205934598
65969.3175438954,58.638034165291096,28.13558936251597,-0.33074433777138196,-51.43031804173737
65969.3175438954,39.5549020469491,24.70646311092048,0.3302487750578334,-30.861808695158118
65969.3175438954,54.00132722498969,12.690766806118091,0.27642867702877594,52.47276160844938
65969.3175438954,185.478006552458,5.757643344822117,-0.1862556474278842,-185.38415549965103
