2.0347202615048366e6,372.9655009762016,28.34487028035523,0.41259328676299156,371.8863504633093
2.0347202615048366e6,21.649644734760262,6.9341082722615655,-0.05480292167350043,20.504070404931344
2.0347202615048366e6,130.32286664833964,9.95491545800261,0.6574726792590867,129.93964601406947
2.0347202615048366e6,58.68317571758362,18.725558138065487,0.050641770240117415,-55.61349356991118
2.0347202615048366e6,289.7559591508788,12.558641393266358,-0.18011439982357952,289.4832613391054
2.0347202615048366e6,102.45111135314293,10.714829017401742,0.42777150382130036,-101.88736091921889
2.0347202615048366e6,8.919853649408022,4.469628040977682,0.12507289981589728,-7.704882737109912
2.0347202615048366e6,68.49589702681887,12.590229889365839,0.21394802765779955,67.32698488721796
2.0347202615048366e6,755.4139516883696,12.787960612404813,0.3817456406698836,755.3054715716021
2.0347202615048366e6,22.316039771540957,5.855143936408909,-0.32492675832831497,21.527006064275934
2.0347202615048366e6,12.372642380327942,7.355459551947804,-0.3252190509840251,-9.933195545278618
2.0347202615048366e6,14.53555639287397,6.944399752385825,0.13799953005690324,12.760615768053913
2.0347202615048366e6,3.4154267090462325,1.84155702607415,0.15276891847375773,2.836391352202771
2.0347202615048366e6,19.322696818668028,13.913735150610174,-0.14807009175605618,-13.399526434672413
2.0347202615048366e6,46.287822913960156,8.913114721130198,0.46913070166418624,45.41688561964133
2.0347202615048366e6,37.10890135440704,22.883356186369568,-0.46840548263198256,29.20612628548013
2.0347202615048366e6,128.92266612152855,10.466178530991778,0.5418692834611158,128.49519046034712
2.0347202615048366e6,105.28837059110715,41.04858250863384,-0.47905413572183997,-96.95473175569083
2.0347202615048366e6,51.756954839793075,24.66587747991204,-0.37800030322305,-45.49756724403878
2.0347202615048366e6,9.944328901937249,7.9521970971068185,-0.17117845619545297,-5.951267385651899
2.0347202615048366e6,16.631390047923905,7.08540265008563,-0.27606978853202513,-15.037241655467293
2.0347202615048366e6,11.988277576180309,7.531827446683586,-0.09218057134223084,-9.315391791004686
2.0347202615048366e6,82.18653291647452,14.002260587688529,-0.19692670423342476,-80.98344743254077
2.0347202615048366e6,10.457271710187177,6.181671047193457,-0.3972989565824276,8.412982535628414
2.0347202615048366e6,20.134750364012955,17.173513676290842,0.0058112042476365896,-10.501105340962708
2.0347202615048366e6,26.16223401024693,17.615893581974344,-0.33927363981983605,-19.334485305627325
2.0347202615048366e6,82.88758931611721,18.513572147022064,-0.2968830740248677,80.79174844224747
2.0347202615048366e6,15.283200053840014,13.244195626767008,0.2228798652679416,-7.610023493524732
2.0347202615048366e6,29.8690585412552,25.476614394568486,0.5085759485196434,15.576866647586815
2.0347202615048366e6,215.9396576700517,17.85053832570819,0.6000510398880657,-215.19927653645078
2.0347202615048366e6,8.351788950353303,8.253341792319542,0.5648497475329313,1.0537170463773253
2.0347202615048366e6,105.45258597401667,6.5216620430900925,-0.10791038675276242,-105.24969745834069
2.0347202615048366e6,92.3666363135269,19.152660976070777,-0.3842122568429562,90.35716966170118
2.0347202615048366e6,15.62918163412635,14.569834575702956,0.04698181100926847,5.637701536913452
2.0347202615048366e6,563.1425949924912,26.206856639225784,0.47668275006361954,562.5320883118087
2.0347202615048366e6,130.49592169431392,16.597735364363466,0.5939801257153481,-129.43393138645695
2.0347202615048366e6,96.43191936581923,24.743605771406603,0.3323191629205239,93.2016805476154
2.0347202615048366e6,23.30634316233881,21.456515166314627,0.5555493941004376,9.071361546639015
2.0347202615048366e6,36.17483787462005,36.00739682651702,-0.7737618538940677,3.3588999013003518
2.0347202615048366e6,25.151537978286093,20.936897863699564,-0.44857209159947664,13.922629080656332
2.0347202615048366e6,64.53035472212059,34.567194145869045,-0.45385528696338906,-54.48728688183806
2.0347202615048366e6,47.65237816459177,20.70418267437097,0.2928097972835835,-42.91613768585046
2.0347202615048366e6,13.096404629140102,1.8309395050107664,-0.45447676577368323,12.951894553664498
2.0347202615048366e6,27.528993922316943,2.8484005054320614,0.03324055807742146,27.37746633495575
2.0347202615048366e6,204.99052463991217,20.985261872431092,-0.4551219844465918,-203.91253391391103
2.0347202615048366e6,125.1880012417893,17.474730613669944,0.5019070052760954,-123.96052670577308
2.0347202615048366e6,17.606443602233192,12.265150437822196,-0.6548852956801463,-12.606296570620133
2.0347202615048366e6,11.780480017702535,3.577162676319469,0.07073657041239241,-11.214867805416208
2.0347202615048366e6,1152.8112796139583,20.306559949326935,-0.13632332412346296,-1152.6323204261923
2.0347202615048366e6,24.735270436127458,24.729561588574576,0.06769760352687221,-0.26916749516488836
2.0347202615048366e6,5.8921610053672895,0.47514663146675107,-0.42289580440284763,5.840171491584313
2.0347202615048366e6,29.739652664620955,26.79152847410044,0.43221440046014403,-12.894525205160349
2.0347202615048366e6,55.955048013497475,29.75836046718353,-0.007448371703451622,-47.38356225465171
2.0347202615048366e6,216.3695861604324,24.142660770570664,0.6206659692742342,215.01706715242221
2.0347202615048366e6,90.576921780607,6.93551793787784,-0.302077041646151,90.30936134512973
2.0347202615048366e6,23.696562871447092,4.284198446431353,0.578327255766686,-23.2944826106526
2.0347202615048366e6,23.985332991271882,19.937905409134675,0.4580717721520799,-13.317692884688032
2.0347202615048366e6,38.57040482165779,22.985129081138822,-0.11012042481166945,-30.97002566422423
2.0347202615048366e6,65.2611015932587,13.15097189056244,0.02699709856586672,63.920710552814256
2.0347202615048366e6,686.5562771072623,10.62784432508681,0.30978025543489085,686.4737935591567
2.0347202615048366e6,129.6343432735205,14.663754452180324,-0.08940553071112056,128.8014903442305
2.0347202615048366e6,12.690064177353362,10.411900118629145,-0.58516421052247,-7.216806392891534
2.0347202615048366e6,20.12995619534408,19.749188066022114,-0.246086281397382,-3.8624856792211313
2.0347202615048366e6,45.47189809171244,7.76731120420258,0.4184000029392486,44.79935246271322
2.0347202615048366e6,7.47943727318982,7.175055704308493,0.07241728817507262,-2.061543164899459
2.0347202615048366e6,220.28765470969148,10.682886260346518,-0.12805414295337056,-220.02796414933704
2.0347202615048366e6,103.77874009861812,16.457350073879194,-0.716495251306724,-102.46201152855575
2.0347202615048366e6,78.20736578119454,7.8111361945481645,-0.2663489737945734,-77.8145353962141
2.0347202615048366e6,227.97783972020477,5.686730511316304,0.055196517176305554,-227.90644593746845
2.0347202615048366e6,19.240843801627225,14.625043924508494,-0.5797138405046474,-12.48105521134573
2.0347202615048366e6,122.52567275340884,17.350165762133766,0.7934867449379405,121.28758080450052
2.0347202615048366e6,8.322767685613105,5.710728534404025,-0.5717036259746971,-6.010311426190471
2.0347202615048366e6,10.790498871271978,1.8020785124663776,0.09384453560028642,10.628886068148717
2.0347202615048366e6,12.449313764134962,12.196885441495501,-0.09998919540671962,2.4507239351742958
2.0347202615048366e6,5.804736288682928,1.3942684614085357,0.20137458843026668,-5.612938092882143
2.0347202615048366e6,26.790766778070946,7.82276044453468,-0.16010365287142236,25.618716152950967
2.0347202615048366e6,135.39220380097862,18.8199192236871,-0.4806451273397663,134.0761840062653
2.0347202615048366e6,9.003342087823118,3.8484815460457806,0.2921805454707344,-8.12149222678195
2.0347202615048366e6,74.52467581239102,36.91931163198666,0.6228549986564884,-64.73251448950212
2.0347202615048366e6,50.00962398759589,19.11289816998558,0.29863184642993956,-46.210010613129114
2.0347202615048366e6,5.483597941172255,5.454019020237495,0.27251313044651765,-0.2095385925538562
2.0347202615048366e6,5.7911534048941995,3.760282400831945,0.4002704599485882,4.362586905108341
2.0347202615048366e6,487.01053891342355,12.723710466508756,0.2945554504798024,-486.84399974603264
2.0347202615048366e6,260.8382738409479,21.314797889221165,0.1635226335221038,259.9654830906135
2.0347202615048366e6,18.565699713522797,14.372619402680776,-0.629885376625427,11.72650453849812
2.0347202615048366e6,7.255237697025121,7.06229135018298,0.4894730761357425,-1.522359337975865
2.0347202615048366e6,11.27357112803807,10.465604741252282,0.09115060535670082,-4.16543657575931
2.0347202615048366e6,63.37583741078133,5.467579647715767,-0.08970685501478672,-63.13785663066617
2.0347202615048366e6,598.4837460868304,13.501274006278306,-0.297280294107597,-598.3311927366652
2.0347202615048366e6,1274.2970975941835,15.419056373771497,0.24414097664186377,-1274.203704546336
2.0347202615048366e6,173.27235483153785,14.012903645897351,-0.25401108632127567,-172.7040173405526
2.0347202615048366e6,4.3348168915534195,4.296649262930724,0.1076190184348075,0.3354216186292007
2.0347202615048366e6,35.98216152997536,6.384322031001824,0.38339610380604,-35.406271124223295
2.0347202615048366e6,18.48987322356901,8.27643973903595,0.655726667524138,16.514860778340744
2.0347202615048366e6,45.28551986993744,8.76327123111868,-0.26146819765226376,44.42645235130396
2.0347202615048366e6,2.150040576287767,0.9127450968146903,0.3318887781994442,1.8638850896846764
2.0347202615048366e6,252.74596470182723,10.977863269009855,0.6179679756073867,-252.50628101812845
2.0347202615048366e6,32.39902561854644,20.031254304229698,-0.48366821418621864,25.45597030187247
2.0347202615048366e6,11.742257593424462,7.8247300160964794,-0.2491501529191276,8.739953357287018
2.0347202615048366e6,30.499140878190392,28.632353351008298,0.5247962694549863,-10.483566744528948
2.0347202615048366e6,13.20127715304104,13.170757214693097,0.6135111911592274,0.47235982265060816
2.0347202615048366e6,19.141283776410994,6.941396953728812,-0.3835487982387186,-17.82844048647968
2.0347202615048366e6,17.133173836216827,7.283440311589415,0.25884233414272834,15.499186768869961
2.0347202615048366e6,16.139913881155902,12.806786492633861,-0.2668878739588635,-9.808489058293976
2.0347202615048366e6,7.213029732186943,2.7534374901037753,-0.18923426735257548,6.648700415741587
2.0347202615048366e6,35.573585334916515,3.6934814216461014,0.11284835363175365,35.3782430419933
2.0347202615048366e6,48.60418057440195,9.146096601232992,0.24303826435113893,47.73312126388517
2.0347202615048366e6,157.21863209449913,14.83254280426304,-0.48125383200982663,-156.51599596621128
2.0347202615048366e6,24.079004594482562,23.08872921754279,-0.461911392353637,6.803699741054969
2.0347202615048366e6,42.454732247200496,2.633940020688441,-0.09331601873032876,-42.370421158990965
2.0347202615048366e6,17.774668786730167,11.913300482235403,0.7272922986713525,-13.163503140537541
2.0347202615048366e6,89.2704346063176,7.281280983806475,-0.22775475224707306,88.9715472312875
2.0347202615048366e6,13.900513874953333,9.664922401575772,0.19796559424732815,-9.978427606767617
2.0347202615048366e6,19.329782115238714,3.731893743623008,0.17232468821934557,-18.95991552806759
2.0347202615048366e6,175.41020195352337,9.716714119054005,0.08887288428291383,-175.14026140392608
2.0347202615048366e6,8.23683465349991,7.43998438821025,-0.40743246549417667,3.481482890818949
2.0347202615048366e6,25.65628907106115,24.44804279794679,0.4667426946510098,-7.753397347313132
2.0347202615048366e6,61.69820992310838,8.578717358558032,0.42507248233266354,61.09573370132654
2.0347202615048366e6,5.264504178430617,5.230177941508734,-0.3935567075161204,0.0017272975913529276
2.0347202615048366e6,2.5308997912296456,2.396272707483835,-0.019131398242690945,-0.6764700842865318
2.0347202615048366e6,6.3597832611379665,1.6713388738186135,0.20085086676531985,-6.11618961017005
2.0347202615048366e6,67.47763099783197,24.219942227812965,-0.12918725506202955,62.97938584278846
2.0347202615048366e6,77.20210098192334,35.61828318900665,-0.6068799696860228,68.49035437427614
2.0347202615048366e6,20.091783433674866,14.421482562140367,-0.18096971718739302,-13.98079036169819
2.0347202615048366e6,21.149753021456732,6.823611247429984,-0.31783438107125517,-20.011097187298184
2.0347202615048366e6,137.41087994516943,6.709576836042345,0.2900705859379337,137.24591801566595
2.0347202615048366e6,5.769328210704497,2.26732293066659,-0.2390522877676662,5.28033101759125
2.0347202615048366e6,3.469472987434747,3.396656975594367,0.11337976173500255,-0.5308070751538851
2.0347202615048366e6,11.948686793210742,9.605802729276142,-0.19209310635229265,-7.089246586746068
2.0347202615048366e6,295.65330446996927,27.83419234291342,0.3016538366268877,294.33966404906016
2.0347202615048366e6,29.267385748751835,4.684702803278702,0.04346208246168371,-28.88643602418444
2.0347202615048366e6,18.059636970958174,13.788965648969434,0.16144109777964055,-11.652617626396522
2.0347202615048366e6,34.61342020830998,30.491708908089123,0.10511746684318284,-16.37461888473389
2.0347202615048366e6,4.6460401508361855,2.911684858225483,-0.30085487888345275,3.5793733574654376
2.0347202615048366e6,213.0068362926239,22.901605259701498,0.23803147818543524,-211.77149659918254
2.0347202615048366e6,299.52299540258554,11.202607260561242,-0.16440653760952936,-299.31303677406703
2.0347202615048366e6,211.40709196826197,7.2656818117585935,0.03213222725044985,-211.28171245218584
2.0347202615048366e6,25.74025649617714,14.950398215529582,0.012992627282948825,-20.948529203703885
2.0347202615048366e6,5.7722563143274845,4.9838695103254,-0.31302572668044437,2.8594841278624985
2.0347202615048366e6,206.70157557366545,16.65061033462458,-0.40931569028888704,206.02894366497782
2.0347202615048366e6,57.17196407399442,23.267047382315155,-0.6301323473456675,52.217579054689594
2.0347202615048366e6,4.437277747128206,4.350895412127409,0.28043251584466145,-0.6893093954559548
2.0347202615048366e6,54.88366984512905,14.51485458880668,0.49316065853650026,-52.925302563334654
2.0347202615048366e6,4.684027106714408,4.112946137697845,-0.16199115746329382,2.189107076059643
2.0347202615048366e6,123.50917619395345,47.864764641195976,0.32498013834206535,-113.85591747811073
2.0347202615048366e6,131.96148612679266,19.538840898924356,-0.729195051976875,-130.50413954589754
2.0347202615048366e6,203.12820942779723,18.09655133173892,0.24192318887572867,202.3198468152153
2.0347202615048366e6,33.45662367753079,16.828183992530285,-0.36862939261156785,-28.910493781758262
2.0347202615048366e6,194.49778678436928,7.708436282371201,-0.5733556140248107,194.34360031747684
2.0347202615048366e6,39.49191818693211,11.310354084231077,0.5350945777735485,37.83114871750808
2.0347202615048366e6,1.7416226329126996,0.8520286054762534,-0.08657189280980661,-1.4472210885066188
2.0347202615048366e6,229.50932891467414,3.337512869973665,-0.18858427847147186,-229.48453575262425
2.0347202615048366e6,1.2528304863054998,0.6595388474095413,0.670582438566053,-0.6925018772393146
2.0347202615048366e6,51.4021379968014,36.22514924807981,0.3998728504546008,-36.463037465641094
2.0347202615048366e6,90.3498169530703,15.451145428200512,-0.7103819686721614,89.0148388348213
2.0347202615048366e6,22.712507204367483,22.57136537232826,0.45287576659584405,-2.4456081448292157
2.0347202615048366e6,58.217528130813704,13.572983340785267,-0.35673593349099986,-56.61026489327996
2.0347202615048366e6,132.85086902419602,6.895827458060846,-0.33612923756313473,132.67057936185066
2.0347202615048366e6,286.94919233403766,22.821999067784343,0.4308184836612903,286.03951542061714
2.0347202615048366e6,18.941889040165933,14.107920829441992,0.049173970768672394,12.63146702174663
2.0347202615048366e6,10.22883112408691,10.189965023493006,0.6076979201556529,-0.46792001841735475
2.0347202615048366e6,56.36332979850989,29.37973592653423,-0.42887425301713206,48.09643205746685
2.0347202615048366e6,35.2112813139924,3.7792309941860385,0.19901771013724145,-35.004382350463885
2.0347202615048366e6,87.69666510772893,20.871130734158037,-0.7266200528455785,-85.17257565152273
2.0347202615048366e6,71.30840987664618,5.7908256821442965,0.12859812955361216,-71.0713287233086
2.0347202615048366e6,79.77156389589592,31.153601710204484,-0.4738425204732112,73.43381800686562
2.0347202615048366e6,60.30202904798024,21.906579167910998,-0.11723792344098927,-56.18022248668589
2.0347202615048366e6,84.48286279035631,12.572612705050677,-0.6162697531037009,-83.5386040913726
2.0347202615048366e6,180.39263558863348,17.49618264587709,-0.013359474092834682,179.5415858119806
2.0347202615048366e6,27.75330332488781,5.535925330934965,-0.17508009403885774,-27.19123700854621
2.0347202615048366e6,177.0555244946768,7.238890882669357,0.13873496052366155,176.9068472739406
2.0347202615048366e6,10.703881836940525,10.680758191985465,0.15349778816910553,0.5153408321362676
2.0347202615048366e6,14.627435648894801,13.624230794698931,-0.7321162306325238,5.253652221159982
2.0347202615048366e6,58.20734629763844,6.248430247626927,-0.5715056934491504,57.866400532751456
2.0347202615048366e6,146.2954916207716,17.772612343424466,-0.5826880295950313,-145.21005557685905
2.0347202615048366e6,16.85304680143674,14.713074429169007,-0.5960256034973496,8.184743596096629
2.0347202615048366e6,31.523608803492415,23.84043335431911,-0.3440932699748708,20.616689749233995
2.0347202615048366e6,15.928801708271525,10.115689803096656,0.26321447440321827,-12.293287140962091
2.0347202615048366e6,435.8783777328507,6.695028598226063,-0.14223481380399952,-435.8266985663786
2.0347202615048366e6,30.74796527717513,29.763531952306273,0.23687106607380778,7.701173509874123
2.0347202615048366e6,79.20771343426948,52.396854171977616,0.2670762434721751,-59.39827318674138
2.0347202615048366e6,22.174747632184143,15.424024650244654,0.21380472138416015,-15.92381331847163
2.0347202615048366e6,32.763423144061505,20.829782410808686,-0.28756428426850605,-25.283868662416403
2.0347202615048366e6,66.370498971428,19.926490410845155,0.48459652359913064,63.30511769796227
2.0347202615048366e6,175.57478622316685,21.855474190967,-0.16786132678543214,174.20852526410528
2.0347202615048366e6,22.69132639651079,11.508607620168542,0.10078547284058716,-19.55077321967521
2.0347202615048366e6,31.827301421473397,29.863945336281425,-0.16782405419244628,-10.99492458966732
2.0347202615048366e6,5.207838428414794,4.026908465917626,0.7246870129596995,3.1898377635173483
2.0347202615048366e6,6.622004575212608,2.8193559880887804,0.325977137586583,5.965782616979478
2.0347202615048366e6,26.471698614465108,26.317997864093144,0.27067565279050154,-2.799142292268829
2.0347202615048366e6,24.181457925412143,14.283197622935292,0.47729507412587974,-19.501282250036468
2.0347202615048366e6,75.10646155671841,11.603050910193192,-0.4423519112996661,-74.20208048871389
2.0347202615048366e6,326.5491049154017,13.519046707780818,0.226486146523867,-326.2687491135321
2.0347202615048366e6,766.1671278117734,8.860606695362922,0.235031879857842,-766.1157202376601
2.0347202615048366e6,9.805234794913922,6.276957859643823,-0.48802310645713237,7.503259943513164
2.0347202615048366e6,31.115440102207504,18.621730115653975,-0.6292508722658168,-24.915867845898536
2.0347202615048366e6,205.70729007292448,23.42318227846553,0.022702679278444222,204.36887691770767
2.0347202615048366e6,37.85462988916113,5.985961043094033,-0.0846927278507147,-37.37551000987813
2.0347202615048366e6,10.087824256883513,6.228532944897442,0.46010176418796134,-7.909015670701681
2.0347202615048366e6,95.64628276625976,18.790360878689714,-0.6712034041913885,-93.77887756826081
2.0347202615048366e6,51.09627252539979,32.920847059051646,-0.2136685920642702,39.074235597871144
2.0347202615048366e6,13.34600962441606,11.707281095722514,-0.4020667294579898,6.3787562664305
2.0347202615048366e6,16.325495839142754,15.405699357241168,0.09830062746884449,5.382492509565115
2.0347202615048366e6,76.56498049055962,28.64077671034491,0.09246090440280666,71.00484662929578
2.0347202615048366e6,199.10261784397778,10.881004008129146,0.1179244553442365,198.80451937731115
2.0347202615048366e6,154.22319957054447,0.7558094036697778,-0.1734386104511316,154.22058424182683
2.0347202615048366e6,278.63176264716805,18.498520536159013,0.08825707422021326,-278.01663754432155
2.0347202615048366e6,68.74253505585568,7.962151543115018,0.2624357090570119,-68.27785909890079
2.0347202615048366e6,110.39767061384566,7.473092591157045,0.06603252174122684,-110.14349209424016
2.0347202615048366e6,5.306225793225618,5.191276839517857,0.5166182197929309,-0.8569886112868271
2.0347202615048366e6,16.141093156149108,4.392611647840306,-0.46005080839913176,-15.518468073916045
2.0347202615048366e6,138.40287092178522,4.012533373145993,0.40618263779352853,-138.34335516354662
2.0347202615048366e6,20.429385846971,18.01142952611378,-0.34620044219705737,-9.624084615421733
2.0347202615048366e6,107.63686066296046,14.766708858978758,-0.6366804893600639,-106.61626221044756
2.0347202615048366e6,55.3925808177114,29.310991864216106,-0.8176159763368614,46.9928709127087
2.0347202615048366e6,690.0995766481784,16.251370621779984,-0.008710806346315582,-689.9080469265098
2.0347202615048366e6,59.87969102733847,42.388260847205856,-0.46704731221154205,-42.28935153921881
2.0347202615048366e6,115.56884880056946,29.17099188727859,-0.08880745956891177,-111.82575197850026
2.0347202615048366e6,22.954856291727438,13.783660881662733,0.24962473589191525,18.34852731107129
2.0347202615048366e6,260.8109603747462,8.579367510176434,-0.00834427032680188,260.6694191538713
2.0347202615048366e6,269.91712481746055,15.506600619858073,-0.21517470851966228,-269.4708666140114
2.0347202615048366e6,28.465386808170223,26.788802618088887,0.27359100602780495,-9.610311925737115
2.0347202615048366e6,3.2078692218618077,3.170065193345561,0.10180030059072744,-0.15935882161301942
2.0347202615048366e6,6.399745161625674,5.985921365129407,0.3218717508118654,-2.1946592083935865
2.0347202615048366e6,3.9830577538204577,-0.2639483002688884,0.7330887487147902,-3.879730425207557
2.0347202615048366e6,34.555208474986685,2.971071282247772,0.2933031306349701,-34.42301248263827
2.0347202615048366e6,492.5714004356317,11.795175909381358,-0.46682018041641044,-492.42972603024896
2.0347202615048366e6,50.83630852539824,9.3559004929585,-0.4583738018296468,-49.96380620843304
2.0347202615048366e6,17.12255482791378,13.561890634987584,-0.1591282597505179,10.44156747606495
2.0347202615048366e6,16.32464641028743,13.090212388782636,0.3124341972773314,9.738452229721235
2.0347202615048366e6,6.63053673174165,2.8120565213237265,0.13722102453686222,5.985998060724711
2.0347202615048366e6,91.34805841902971,13.018872001586512,0.5078939020551952,-90.41301587403079
2.0347202615048366e6,9.117590112177625,3.50789738041381,-0.21051611488183558,-8.400918718108107
2.0347202615048366e6,16.391248553293796,16.160513223704918,-0.6549753213151178,2.6223073297196815
2.0347202615048366e6,867.8684266352302,29.51461576303293,-0.016379195315137065,867.3662938950956
2.0347202615048366e6,17.36134380888999,7.056733617942829,-0.14659495310284906,-15.855343778560034
2.0347202615048366e6,295.03838115867984,3.9751749269383545,-0.44253547912931424,-295.01092039161045
2.0347202615048366e6,310.05526310126453,35.33617634794206,-0.6126581447875121,-308.0341541368746
2.0347202615048366e6,52.586834857336726,4.379841367060056,-0.2520252333672715,-52.40155837486765
2.0347202615048366e6,13.061384189626242,6.939339246917095,0.12769399769330597,-11.055481397428453
2.0347202615048366e6,9.310825869814778,9.179390656887255,0.26400597816849725,-1.4680644776280922
2.0347202615048366e6,15.47831297454,4.182928542048023,0.34753550746610307,14.891445441652149
2.0347202615048366e6,159.6063534258219,1.8942342144123905,0.28242808433801136,-159.59421923092083
2.0347202615048366e6,7.6672931509859525,5.893999971825918,0.11642513175911252,-4.8815203271814855
2.0347202615048366e6,55.15450077358862,4.019663926591602,0.6334776845906277,-55.00231459170506
2.0347202615048366e6,27.359986402414073,6.837654580181316,-0.6133637749703225,-26.480818861634205
2.0347202615048366e6,385.48344035550116,32.96030990967354,-0.31547557866431686,-384.0713421762309
2.0347202615048366e6,31.662423154993526,8.179414656290506,-0.4575833325041113,30.580900580932266
2.0347202615048366e6,28.058335362181246,7.636378172611465,-0.3602516504413133,26.99297644518972
2.0347202615048366e6,13.408975093343015,10.578049773802778,0.7950330922765898,-8.189508247736763
2.0347202615048366e6,145.82138546430076,2.6600593715217276,-0.029703838914617798,-145.7964139047009
2.0347202615048366e6,387.23548821169084,7.238803551263684,-0.4722576373184763,387.1672696307599
2.0347202615048366e6,32.6801624229892,18.604462831148986,-0.22412246782951606,-26.862825517757514
2.0347202615048366e6,9.770119035294027,8.209088295725545,-0.6843777680780868,-5.233771996187455
2.0347202615048366e6,133.79000259862204,17.14103154800089,0.4751845764863089,132.68578928939118
2.0347202615048366e6,49.57304545054961,12.02595692042112,-0.13185863115623794,-48.089920519923304
2.0347202615048366e6,81.19130307105058,18.365124564734902,-0.16005413247093453,-79.08551652289032
2.0347202615048366e6,944.6837118875806,16.22219753713584,0.7162744675133375,-944.5440367767781
2.0347202615048366e6,20.58847548608555,3.2706640021108226,0.04371094139225679,-20.321929438435824
2.0347202615048366e6,124.5711007232006,11.526958271480844,-0.5174863694433829,124.03473393842344
2.0347202615048366e6,125.9226683798239,8.979209662115277,0.39193303052490164,-125.60068965240268
2.0347202615048366e6,18.70847124965432,13.026826395683608,0.33148601818180323,13.416163926261934
2.0347202615048366e6,7.902875215768799,5.100698124923385,-0.0992356586070978,-6.018564157604008
2.0347202615048366e6,16.931424538104068,8.488009953012067,-0.5258177244873138,-14.63369353814732
2.0347202615048366e6,33.49685170294548,33.32204648878269,0.12215038202215849,-3.3852648365257916
2.0347202615048366e6,70.88594936874912,6.505814126577421,0.15937508564603137,-70.5851361616742
2.0347202615048366e6,8.826072698746978,8.799735148092683,-0.45409658998035085,-0.22948597925865918
2.0347202615048366e6,58.126953815359,3.867481073729838,-0.19828545995722036,-57.99604020788246
2.0347202615048366e6,51.79513972895471,34.244652851277735,-0.035417330371011406,38.856577862323974
2.0347202615048366e6,11.00046034440758,10.861013084761318,-0.6365776433963232,1.5613898892250115
2.0347202615048366e6,2.107970601098968,1.9558814541038614,0.2766976492099065,0.5797871370001407
2.0347202615048366e6,157.39987178755337,12.860581662646675,-0.6888304966730963,156.87142900319424
2.0347202615048366e6,77.96187014100497,31.912539442980318,0.042642442570447164,71.12971144835296
2.0347202615048366e6,126.62079950767504,17.650041539272035,-0.01051348723837387,-125.38380054062853
2.0347202615048366e6,18.504067278002232,14.314737067498957,0.04183342252615409,-11.716727589334962
2.0347202615048366e6,34.69910936596282,32.82014108453214,0.12308896855565044,-11.253711654782778
2.0347202615048366e6,31.076123094545032,24.082176924610927,-0.3569769769374557,-19.63266144764148
2.0347202615048366e6,75.60057861667455,10.475721819726743,0.016515533455765848,-74.86989457511984
2.0347202615048366e6,22.817069371430236,16.219639739300685,0.22400744096011788,-16.040149906253095
2.0347202615048366e6,53.72325435929463,30.117477105518578,-0.4449970175830716,44.48283102869122
2.0347202615048366e6,82.57983992714796,7.85327943564314,-0.5765358310470072,82.20230056303362
2.0347202615048366e6,1051.453663020211,19.00324008813849,-0.46188710923492404,1051.2817242071658
2.0347202615048366e6,28.23689257198687,18.75378639047417,0.019699181352252886,21.104782799293776
2.0347202615048366e6,190.69829290384953,15.711650395994946,0.34795893474688605,-190.04908978939326
2.0347202615048366e6,10.051966888230664,3.930190224887107,0.5911884832641912,-9.221756135154642
2.0347202615048366e6,11.298653330898304,2.868869104911428,0.20466016396821832,10.917047141453025
2.0347202615048366e6,56.18247235520964,20.13867764336537,-0.296594375670295,-52.44626336944846
2.0347202615048366e6,72.85635702497692,21.604344826023794,-0.18806680652761987,-69.5777286305479
2.0347202615048366e6,61.045861993302765,2.9505770201685664,0.05009681323619533,-60.97280950541352
2.0347202615048366e6,119.00597098436208,37.4322814026964,-0.1618451965027643,-112.96465771192894
2.0347202615048366e6,41.86583526372417,22.130169447130193,-0.37112861833276617,-35.533936920076414
2.0347202615048366e6,19.729507077882097,10.469630007319713,0.17338963778607902,16.715408460467177
2.0347202615048366e6,6.696788781820501,3.3824917795323968,0.15612801529381581,5.759861136630992
2.0347202615048366e6,241.10964875736897,9.198756790471585,-0.5141504852150599,240.93313573190983
2.0347202615048366e6,50.98284808558789,11.375372656443043,0.5504916858284904,49.69248737656159
2.0347202615048366e6,84.5704936439654,26.910714240901488,0.11926656667056389,80.1733264660718
2.0347202615048366e6,62.9750956190242,11.103241249278533,0.10279420649124692,-61.98681135739593
2.0347202615048366e6,127.63160881617289,18.337593933398878,-0.40293964782222436,126.3059480163119
2.0347202615048366e6,519.089624895542,43.9317052270421,0.26252347376128976,517.2270001444097
2.0347202615048366e6,3.2759342776079543,2.4705823637468343,0.30256068980458567,2.0811228038858807
2.0347202615048366e6,203.98260772439104,13.271678752836685,-0.40411308200592705,203.54949800149834
2.0347202615048366e6,64.43247015806998,11.197049944021586,0.22505482999482404,63.45008495239291
2.0347202615048366e6,138.99750525266822,10.978715945180062,-0.7473384402616202,138.5604936294506
2.0347202615048366e6,18.00604879071293,8.39848882859368,-0.42879437949546856,15.915211615003866
2.0347202615048366e6,170.14570943493547,13.576598681795762,0.35392387435188727,169.60220456162367
2.0347202615048366e6,6.143690986989069,1.1740774684977906,0.4264996592730451,5.998268583761109
2.0347202615048366e6,33.211113302974105,23.333910047412722,-0.43178513469601243,23.62445549087661
2.0347202615048366e6,269.93616362598186,11.177587392063781,-0.21116009462182037,269.704178743194
2.0347202615048366e6,35.2687479974078,30.118645309103684,0.3582984772107285,18.34170273368891
2.0347202615048366e6,71.0479446253908,5.641734206619479,-0.10298409350175192,70.82206797200757
2.0347202615048366e6,237.51866912568215,23.990605835168097,-0.49685957763834226,-236.30301900817454
2.0347202615048366e6,6.4999417241425235,2.6581271348565076,-0.3999259320046374,5.900704086955864
2.0347202615048366e6,15.844303323666985,3.4144338882823355,0.06065622023262243,-15.465269372971811
2.0347202615048366e6,12.710754713623553,11.884903466596779,-0.5792249783683776,-4.446515526199401
2.0347202615048366e6,8.027163954719335,7.966843875458601,-0.30240230102252336,0.8172879474630577
2.0347202615048366e6,3.024084265642755,1.9388450811937141,-0.5726363264537933,2.2028844625135307
2.0347202615048366e6,526.5814864293643,26.62031823686218,0.2838213378390176,525.9079145625171
2.0347202615048366e6,576.9807318624929,36.43018641537272,0.30253231695506544,575.8292364750483
2.0347202615048366e6,49.98744963605314,14.856229586610127,0.17626503655491108,-47.72631497554035
2.0347202615048366e6,41.270065967720384,8.789442656523393,0.2980928131427373,40.31959610863123
2.0347202615048366e6,23.749294936493627,3.997395486551097,0.1880032706144351,23.405322920131226
2.0347202615048366e6,1.6208464342095121,0.5641536718352265,0.6422363062996206,1.3004050313014575
2.0347202615048366e6,16.107363976584576,2.913942812912639,0.3588049595718155,-15.831046000784493
2.0347202615048366e6,30.0450311913767,29.518081080873735,0.2798063970449009,-5.577019266118301
2.0347202615048366e6,375.5437252489324,72.51802554242727,-0.46319888433532064,-368.4749728800964
2.0347202615048366e6,5.961020578870656,5.278915634312666,-0.156591231408329,2.7270757551805858
2.0347202615048366e6,7.629750504898912,6.040227273743367,-0.5051770205446844,-4.611744826761833
2.0347202615048366e6,128.18982265359253,1.783487167102881,-0.32125602632470324,128.17621170470966
2.0347202615048366e6,322.8675219403784,24.56827161872792,-0.0263788331753546,-321.9310962064196
2.0347202615048366e6,2.9418337031257003,2.5384743745008453,0.07375924890441697,1.4141215933465106
2.0347202615048366e6,2.0870442860463227,1.9426888034492835,-0.3804022196648109,-0.48130565845882434
2.0347202615048366e6,25.51328597047586,21.844326780626407,0.5995904468507297,-13.160102078982998
2.0347202615048366e6,62.227774636780225,16.531589181397358,0.3087551631407874,-59.98918079581824
2.0347202615048366e6,111.7266105377465,12.629991565964259,-0.674600624116089,-111.00746991178397
2.0347202615048366e6,140.78686965059222,28.017138167556663,0.4216852088330579,-137.96955991601286
2.0347202615048366e6,3.776650212621293,1.6370625934202594,-0.17087058348908477,3.3687628379174583
2.0347202615048366e6,21.568014824574217,8.423777344241477,0.5811100486693707,19.841275078979983
2.0347202615048366e6,277.5328428780269,7.783650896186746,0.36729472456951745,277.42305851567534
2.0347202615048366e6,25.365628585674663,9.455615506086417,0.021718331876724697,-23.532968877348086
2.0347202615048366e6,37.896411790470864,9.249228556825553,0.3230447237925832,36.74615744161136
2.0347202615048366e6,7.54088501720172,5.656205679209687,0.08489589646190356,-4.965855793779796
2.0347202615048366e6,343.64668144216665,18.38362774443578,0.21874614898096553,343.15423747086527
2.0347202615048366e6,6.194814259211482,3.792196840342406,-0.2743060237351385,4.869740234990834
2.0347202615048366e6,6.39490960218799,2.860057605911747,0.10764608368352437,-5.70070158422708
2.0347202615048366e6,21.763131889815394,5.843949584786098,0.5202951386470516,20.95247247446939
2.0347202615048366e6,126.47366798927625,11.296602852611288,-0.5658661291719739,-125.96606646671405
2.0347202615048366e6,11.325562139152849,11.102714487822514,-0.6329474693842193,-2.095736908924318
2.0347202615048366e6,14.783270773510807,14.755491941252496,0.3232835310386614,-0.7146236868797428
2.0347202615048366e6,12.542015561238946,8.570881268367241,-0.09413333604188542,9.144831024008925
2.0347202615048366e6,27.478643691566873,14.845961573874172,-0.6930772785821282,23.108171171292902
2.0347202615048366e6,120.8779127058075,10.623299670068741,-0.7084329859896986,-120.40725914104105
2.0347202615048366e6,903.794541665924,21.666379980729683,-0.35279374607383085,903.5346212000633
2.0347202615048366e6,12.104767542990334,7.224516724291521,0.5255233425271155,-9.687632709152558
2.0347202615048366e6,96.8760895489778,10.490042069724483,-0.31261616183344687,96.30489427715011
2.0347202615048366e6,186.20961988612265,6.529417088320873,-0.3903125908647915,-186.09414701602844
2.0347202615048366e6,15.588708311967721,11.866273166070728,-0.5485945100664056,10.084298635405698
2.0347202615048366e6,3.107136281615504,2.1898258033039397,0.08442291976174483,-2.1555691858656676
2.0347202615048366e6,20.206287663892734,17.03786515205459,-0.3255198526578886,10.848681761515174
2.0347202615048366e6,15.147610619702766,12.516358707135916,-0.4598637392762384,8.50729360387032
2.0347202615048366e6,5.7720589369224475,4.9228942085970635,0.622998200988847,-2.913468232974482
2.0347202615048366e6,70.21857460011077,22.27850368702435,-0.5617977503340443,66.58675185460694
2.0347202615048366e6,303.28869329701115,17.438366526873914,0.4056589469172057,302.78633546186063
2.0347202615048366e6,5.584312507895809,5.2567344537438485,-0.05718356830134787,-1.8282959358099569
2.0347202615048366e6,129.01257534501858,6.7653809745567735,0.3159405449729706,-128.83388159143527
2.0347202615048366e6,131.34503104399522,19.611523732233554,0.722646829563605,-129.86984925427666
2.0347202615048366e6,10.356388042030172,10.130239296697102,-0.5552716344628957,2.029617057831161
2.0347202615048366e6,9.935208516688846,9.353454187508877,0.5232084059539287,-3.2775239002816368
2.0347202615048366e6,93.74842368608513,8.554504606892465,0.13201367230331237,-93.35611717433105
2.0347202615048366e6,41.47737853405984,13.345161618815256,-0.032214258285606735,-39.26923987789513
2.0347202615048366e6,202.14684395882767,14.765905559963869,0.7313184794605516,-201.60499590960333
2.0347202615048366e6,39.2095661635278,6.405851409256607,-0.18746664291443946,-38.679641281080976
2.0347202615048366e6,61.32364738518541,15.043231319826848,-0.27934963015820785,59.447519130621316
2.0347202615048366e6,35.45949471242956,11.473896619599554,0.5089838435995127,-33.54491085084645
2.0347202615048366e6,34.20704888491396,4.976935725169918,0.04892671696145343,33.83998459366535
2.0347202615048366e6,34.43790457359525,8.435346758077884,-0.12461836513235995,-33.385525511437265
2.0347202615048366e6,71.42529165613313,39.627267333723005,0.001981017127995795,-59.42261029962937
2.0347202615048366e6,77.91155198715396,24.788568916345998,-0.5276351123005572,73.85968475586355
2.0347202615048366e6,19.348429985079143,6.750144011675801,-0.05394905564420894,18.127024993894082
2.0347202615048366e6,16.518773256371308,14.428553017311451,-0.26780463078058575,-8.025562617193389
2.0347202615048366e6,8.757456191370157,8.472142848418962,0.1291778392130394,2.166516675755383
2.0347202615048366e6,112.25550794154452,37.19955992964988,-0.026034619853438152,105.91168855878865
2.0347202615048366e6,66.75928535821552,20.564060861716676,-0.6009515385312281,-63.50870087306397
2.0347202615048366e6,17.78114773692127,11.189228146433715,-0.24577671855780545,-13.809584680742933
2.0347202615048366e6,11.332700700073788,10.24580305477703,-0.11536510327881469,4.820265836428434
2.0347202615048366e6,2.3890640024301195,1.5790402301466238,0.5781146000200235,1.6354477030001937
2.0347202615048366e6,173.48799596915364,16.110306422260443,0.06578168800223083,172.73775815398372
2.0347202615048366e6,333.86907622878925,19.708907095757255,-0.6251281836707169,333.2859476555089
2.0347202615048366e6,3.5160895910941115,2.897489004264032,-0.07403223704672868,1.9381975212465434
2.0347202615048366e6,178.2593735333571,23.483830922808632,-0.48173524438997445,176.70448923490565
2.0347202615048366e6,189.61396241705967,18.30958224651292,-0.1013293443948056,188.72731206887087
2.0347202615048366e6,258.7183833307728,5.232615791341448,0.3277293916406765,-258.66485815749195
2.0347202615048366e6,45.1656737685152,33.99439726931449,-0.2992971625229605,-29.73254293512734
2.0347202615048366e6,84.94626962745026,18.726295120629647,-0.38180361404620483,-82.85435092736881
2.0347202615048366e6,15.75235187991517,4.494366079216646,0.3044890984565168,15.087716745892799
2.0347202615048366e6,431.25739259235445,16.09323380746096,-0.4799203365049375,-430.9565068711295
2.0347202615048366e6,14.825763691754009,11.317638111820125,-0.32381714494807656,-9.560550506689701
2.0347202615048366e6,388.36388615961437,29.028263722770205,0.6485052996395692,387.2766996167421
2.0347202615048366e6,72.58698231259143,27.11958726684732,-0.01889130203891073,-67.32898542057308
2.0347202615048366e6,47.625509839044895,15.742152673651324,-0.2934173907998368,-44.945326450966064
2.0347202615048366e6,2.2208697164316784,1.4131486798467257,0.498151455385307,-1.5753619121418665
2.0347202615048366e6,19.044142082237407,8.325223151381842,-0.19467531152999587,-17.120944938055874
2.0347202615048366e6,6.9863328248609395,3.513099881985972,0.32168934804018184,6.013163763194552
2.0347202615048366e6,391.5457848227809,13.967891152422379,-0.13377894352062353,-391.29627698121084
2.0347202615048366e6,363.0117349588837,33.11899531122193,-0.5748157818217872,-361.49704853728997
2.0347202615048366e6,237.68344250656025,19.173509657679077,-0.1712996306502614,236.90833812370025
2.0347202615048366e6,151.2455092777961,45.205036819107626,0.6211312908901759,144.32989144914933
2.0347202615048366e6,159.65014356028632,10.948887428018608,-0.6964637479300309,159.27209356342735
2.0347202615048366e6,654.6384533398943,19.388678526948123,0.35119207923880114,-654.3510182213151
2.0347202615048366e6,70.07843812204582,3.9589716834764648,-0.3190293150974286,69.96432591007836
2.0347202615048366e6,142.06744669287946,6.121777925044241,0.10585195109433557,-141.9347268541274
2.0347202615048366e6,22.270833635487364,8.105314640958449,-0.5322433028546296,-20.73174544938041
2.0347202615048366e6,90.7633418823651,17.23532556031373,-0.3924144650073363,-89.10986724428142
2.0347202615048366e6,126.56961429516306,16.441370835092098,-0.02868223442177334,-125.49638406001773
2.0347202615048366e6,13.024262019797561,3.1067450744434453,0.022949341183126713,-12.640160459868397
2.0347202615048366e6,33.35132375546224,3.1877001204436475,0.11711534786862934,33.19533544189299
2.0347202615048366e6,183.84851464058187,6.325984042685876,0.3658875116822832,-183.73872491853595
2.0347202615048366e6,555.8583624937688,6.1861467015081955,0.6773460004367002,555.8233411728567
2.0347202615048366e6,29.293655774196235,7.777909537361064,-0.07482483357509256,28.238474463234148
2.0347202615048366e6,116.38917633544186,10.612564149709986,0.25320823046895513,-115.90316813065814
2.0347202615048366e6,25.246722910226502,20.002869282143305,-0.09132479328711482,-15.397030391932518
2.0347202615048366e6,216.18270451307347,21.72530976500661,0.7497768472292463,-215.08650614997075
2.0347202615048366e6,44.93093248746144,10.595117616395836,0.5328613206799522,-43.658251025678965
2.0347202615048366e6,361.7545293134151,45.69880674710143,0.796614823304105,358.85528920778853
2.0347202615048366e6,10.928808255130402,3.497472644846768,-0.08547969721705549,10.343784371207551
2.0347202615048366e6,11.073876852672138,5.9298378200921,0.2188072054322772,-9.338872646263207
2.0347202615048366e6,13.04662720175591,4.1597813441278735,0.6983133143216292,12.337653988761518
2.0347202615048366e6,43.5807487645309,21.63987828202091,0.3310006763724769,-37.82436273474335
2.0347202615048366e6,22.564804104159336,8.860824132574773,0.17729078829400818,-20.746551396503744
2.0347202615048366e6,104.17756692474887,5.628890448038341,-0.013193428092278699,-104.02439865502078
2.0347202615048366e6,37.9331785585065,17.575389680782504,-0.42567755321264517,-33.61019426694215
2.0347202615048366e6,357.40794421313535,12.023967202648397,-0.506036027611437,-357.2049850909541
2.0347202615048366e6,128.20085134951074,22.681690234629606,-0.6842093884047341,-126.17577310749161
2.0347202615048366e6,72.83945237355603,0.14957893225080465,-0.5654939384837688,72.83569394018858
2.0347202615048366e6,281.98885275132267,21.062114726510075,-0.47934860828439724,281.2004005528564
2.0347202615048366e6,38.99024549947863,13.405542785675188,0.4843000462476115,-36.60725019879215
2.0347202615048366e6,77.99767045152149,24.637327200352676,-0.3459990420311594,-74.00211913094475
2.0347202615048366e6,2465.6767483094536,17.23995995750716,-0.2903951564130008,-2465.616418109703
2.0347202615048366e6,819.0045065933061,27.866287947135376,-0.3123138208965999,818.5301148541757
2.0347202615048366e6,1.9872099154669929,0.5233062437670165,0.013264430408356502,-1.8626928890640373
2.0347202615048366e6,1952.1176798323502,36.81401108444186,-0.30001094260482664,-1951.770444786545
2.0347202615048366e6,184.5423947868494,33.043506109649165,-0.11700750389080043,181.5593653156226
2.0347202615048366e6,15.913257090625777,7.0992263145968675,-0.33748219291224113,-14.230723441085946
2.0347202615048366e6,412.91656223896246,38.736059679562786,0.029889676301997813,411.09536461175566
2.0347202615048366e6,366.8554555879487,35.24246761549613,-0.7142067255152146,365.1577444429818
2.0347202615048366e6,12.058963021090694,8.526179259524419,-0.08234543477860408,8.515322808242715
2.0347202615048366e6,12.206890387862721,12.190168870708494,-0.4450586652718198,0.06727220890048224
2.0347202615048366e6,179.0981438966268,18.884177782862686,0.2659854576886646,178.09900863098335
2.0347202615048366e6,996.4774633943074,21.0189980987094,-0.5914688971658218,996.2554800768446
2.0347202615048366e6,15.37627670619202,13.13700996085007,-0.33051755591182297,7.970838080143294
2.0347202615048366e6,15.883283525951377,2.082001865523269,0.024610947398930896,15.739695200978431
2.0347202615048366e6,204.0670215486882,13.724869033983325,-0.04188189717728416,203.60444530161953
2.0347202615048366e6,18.416506071492222,4.732645714534158,0.25900003464217564,17.790371730933167
2.0347202615048366e6,113.50915732765884,10.842011106417825,-0.6938792786831013,112.98713542200657
2.0347202615048366e6,62.80230558190597,39.15469675854501,0.042041038323448354,-49.10022594267055
2.0347202615048366e6,32.07522087736167,25.697758092495995,-0.11331262744423615,-19.189237361611738
2.0347202615048366e6,30.142277029846426,13.111273002180386,-0.40229031183230407,-27.134557196166448
2.0347202615048366e6,172.03599364554606,28.84047916789796,0.0203781148493699,169.6007196406594
2.0347202615048366e6,160.92899393053852,18.424975832552192,-0.3823208423905185,-159.86966513619578
2.0347202615048366e6,98.11790109225674,16.09265336569352,0.6802258896267837,-96.78574772176589
2.0347202615048366e6,131.70389269641134,21.188303731046613,-0.46057921422426285,-129.9867441322264
2.0347202615048366e6,127.15437469168828,21.118375469870866,0.37730123996784093,-125.38700694825938
2.0347202615048366e6,182.9648831909642,27.790620007511748,-0.6111382602910398,-180.8404022270156
2.0347202615048366e6,31.562842764777454,6.606740077580541,-0.5725623704035414,30.854997134890038
2.0347202615048366e6,66.51838200323726,3.687214507530097,0.07755356940273563,66.41451818592566
2.0347202615048366e6,123.84092702256297,8.56381384227362,0.2953503584172725,123.54328680008939
2.0347202615048366e6,329.13297319379217,21.18709074470982,-0.054316511455776616,-328.4500158712102
2.0347202615048366e6,1102.5823941558378,30.6332700786421,0.41178465496034866,1102.1565967443225
2.0347202615048366e6,14.723113977079,4.945323566729068,0.3849949479893803,13.854973324158898
2.0347202615048366e6,21.55185552156794,18.280335334369184,-0.14197139187624971,-11.405538458580535
2.0347202615048366e6,4.147594847078561,3.942534688957163,0.11156198559726739,1.2004849378358253
2.0347202615048366e6,15.624589063253664,2.7004220141683,0.36515780455507724,15.3784528168289
2.0347202615048366e6,246.83883825540101,7.1213179335231525,0.6654487041749919,246.73477810618536
2.0347202615048366e6,42.149081201888244,9.692175690841285,0.24696021672913704,41.016343500040406
2.0347202615048366e6,129.5182200632145,6.898202857935785,0.49593280081397495,129.33264407430863
2.0347202615048366e6,525.6307113318547,11.004575488445948,-0.6200057667849849,-525.514941988637
2.0347202615048366e6,23.233295659876397,22.010969065633034,0.6550785796012093,7.3938343899659795
2.0347202615048366e6,1041.696563556483,13.978860767387758,-0.43893806382957756,1041.6025748611266
2.0347202615048366e6,146.88684374905262,28.6914544941078,-0.23048552624186738,-144.0565403892307
2.0347202615048366e6,176.30999688862033,1.588536596824335,-0.6314034585133897,176.3011274239027
2.0347202615048366e6,101.29616077813996,11.181244879519145,0.1217159262426187,-100.67607354028574
2.0347202615048366e6,6.900281677797287,5.207500136094095,-0.48944918762380896,-4.477824916070126
2.0347202615048366e6,178.58763192622888,29.214669559132723,0.689881607222612,176.17991959885106
2.0347202615048366e6,53.36898270743727,23.58051126339359,-0.2415642296411942,-47.874252969914664
2.0347202615048366e6,16.752456940571072,16.742043586712025,0.2424114160934103,0.29098747806234265
2.0347202615048366e6,56.93430409165832,35.51019854945873,0.3543158900109056,-44.49954930727102
2.0347202615048366e6,18.174589206429577,15.896204157764863,-0.26723136215432314,-8.794863302912995
2.0347202615048366e6,194.55263897718623,6.249714378966907,0.226783020462573,-194.45157139902733
2.0347202615048366e6,197.9902675864953,15.706646162309216,-0.20328487670698578,-197.36565214718507
2.0347202615048366e6,14.244427803895427,12.035524449948717,-0.44749412185475457,7.5923824065111525
2.0347202615048366e6,48.327704292852545,20.057680446516713,0.08731015724060488,43.966390358772685
2.0347202615048366e6,111.92823268232604,18.213846366565647,-0.3085078360227509,110.43497879639355
2.0347202615048366e6,20.09803269399094,19.923380865157004,0.06370918264954357,-2.6039203389101004
2.0347202615048366e6,13.952225053683355,8.129577454148727,0.5900631964083533,-11.31463771892806
2.0347202615048366e6,3.013236730525387,2.9537961050330077,0.15321234644910692,-0.35476338832201015
2.0347202615048366e6,10.25517116241135,6.589344416067793,-0.5757837246509587,-7.823822324154327
2.0347202615048366e6,35.101946289386376,15.899250766485558,0.5406907474328712,-31.28678249363033
2.0347202615048366e6,36.50415303372149,9.515978213638553,-0.2421421737151908,-35.23826558494813
2.0347202615048366e6,24.470064519347176,1.9493837797313835,-0.1199393718522512,24.387788377139316
2.0347202615048366e6,31.996800646497306,19.4048601438218,0.1583924187280066,-25.436513384754903
2.0347202615048366e6,49.76348697155902,29.730505066855528,-0.12498731735676848,39.90339245138716
2.0347202615048366e6,2.887330486248042,2.7299138053787386,-0.1579835783449304,-0.8086631324057382
2.0347202615048366e6,22.088905181960882,3.106971868987504,0.27944632524076735,21.862822658911327
2.0347202615048366e6,2157.453662046334,24.85519232207598,0.3146431818068547,-2157.310413208623
2.0347202615048366e6,109.34815286034751,10.962881613032115,-0.6817164164183659,108.79413435639292
2.0347202615048366e6,170.21651462484797,16.557802384243452,0.7004828997013332,169.4072164987766
2.0347202615048366e6,133.49353354991564,12.881173102826004,0.48524639273484527,-132.86895070706527
2.0347202615048366e6,17.563854509186125,8.137756369023297,-0.3072052419400801,15.555262079384004
2.0347202615048366e6,29.70921335970319,6.164996586608186,-0.33388968439321015,-29.057070398421985
2.0347202615048366e6,30.56764479890728,11.592903798921506,0.01364724824573204,-28.280381021733945
2.0347202615048366e6,33.79162602906447,12.389931548148642,-0.49993418125336103,31.431008552947702
2.0347202615048366e6,43.623825950080374,7.46252249265505,0.4636584486188245,42.97590739394884
2.0347202615048366e6,19.321731966716822,19.089352571053404,-0.7655947081955141,2.8520968207909467
2.0347202615048366e6,37.99316213399095,23.98686497274555,-0.10548976162355722,-29.46004406904219
2.0347202615048366e6,62.35186363085073,14.699949261182589,-0.13295808124414216,60.59243648367519
2.0347202615048366e6,111.19235821231223,13.401574638941902,0.6314703228495894,110.37904789480704
2.0347202615048366e6,8.256181038561522,2.508206578709708,-0.46400836976400517,-7.839181606107115
2.0347202615048366e6,55.86694921712437,3.028307162647702,0.21914225131404538,55.782542019451014
2.0347202615048366e6,2.3406013926780482,2.218452149339157,-0.5332505310140273,-0.259182816542975
2.0347202615048366e6,203.04814315683223,8.07924894178153,0.26964371151894795,-202.88665829759162
2.0347202615048366e6,6.1965803583734465,6.00051443212092,-0.3778257864999197,-1.4294506929106932
2.0347202615048366e6,389.24090187886895,18.688677921073577,-0.46437380125659256,388.79145054505904
2.0347202615048366e6,13.858951139868175,9.36646659568925,0.02306059209762671,-10.204604124555837
2.0347202615048366e6,227.4708965950283,6.321521983413373,0.25034947010135933,-227.38245123496856
2.0347202615048366e6,81.74791847977868,23.18452302350165,0.11114725571623456,-78.38993788208742
2.0347202615048366e6,18.30390882104176,10.087791907959295,0.07662342122434578,15.266247355612979
2.0347202615048366e6,6.2774059392320725,-0.38930505588771785,0.44696536148082444,-6.232907490547384
2.0347202615048366e6,92.8628691737998,10.040023239217307,-0.26281949555542417,-92.31704055795822
2.0347202615048366e6,21.173409812808977,17.32606756326092,0.3142806275904547,12.157982583566799
2.0347202615048366e6,22.61038573456051,19.726421835038806,0.7429970183837075,11.015463086185406
2.0347202615048366e6,15.998837368656648,9.089941602569343,0.4322681076269084,13.150800356421312
2.0347202615048366e6,140.6744058127194,10.2720984306708,-0.7284066984860578,140.2962455491757
2.0347202615048366e6,42.952731306380656,24.317472824403474,0.43472612076311656,35.400611608179545
2.0347202615048366e6,42.76925672055686,37.70290839086654,-0.2151999366113473,-20.185350014473986
2.0347202615048366e6,80.94585457096338,18.217421412122945,-0.5830371612314442,78.86578246556626
2.0347202615048366e6,19.04503506646514,3.8415740116495014,-0.4762829549484882,18.64198141999531
2.0347202615048366e6,8.797531175220758,4.771159211914379,0.5142461801597336,7.359537508597657
2.0347202615048366e6,7.186167638731995,7.133157355289384,0.3620349054696515,0.6501147010954513
2.0347202615048366e6,72.9797878152399,22.514666772941943,0.004088903054721542,69.41854103812909
2.0347202615048366e6,111.63302225011077,20.1373907445756,0.5425500744848057,-109.79944187941666
2.0347202615048366e6,74.44434041723972,50.77652018691445,-0.4969630877305395,54.43576482861146
2.0347202615048366e6,171.9747959707809,11.43896993065474,0.7466718944202363,171.59171758601894
2.0347202615048366e6,8.540594288463552,6.759521676252652,0.03467789012740462,5.200390550051228
2.0347202615048366e6,109.09010297875177,36.18771699773788,-0.29606160834992307,-102.9116451177955
2.0347202615048366e6,43.5306480256253,19.770287926650298,-0.4875638413250722,-38.77640985508549
2.0347202615048366e6,2.338857512836529,2.2257724114135797,0.23778319900764258,0.5042793957031613
2.0347202615048366e6,99.48212663677597,17.822056168465775,0.4855594633542012,-97.87045883734199
2.0347202615048366e6,58.35588410425011,17.17915097488614,-0.49035159414271395,-55.7659410716396
2.0347202615048366e6,39.99350010893079,8.612802742241778,-0.4302154334442846,-39.05008631857073
2.0347202615048366e6,57.18374548410068,17.059172987625317,-0.2770562051751591,54.577314438771836
2.0347202615048366e6,47.585162260742024,25.610207490101722,-0.3053573557476476,-40.101949372830916
2.0347202615048366e6,9.55323273448889,7.4005102756969094,0.023780796536589006,-6.024183324986847
2.0347202615048366e6,29.89014287759266,3.155311298820542,0.4099963624464457,29.71685046827706
2.0347202615048366e6,6.4565983284150725,5.163458401955071,0.3711109255812033,-3.8318772041135585
2.0347202615048366e6,23.679978053152354,12.951716103111185,-0.5392581192888196,-19.81156879663213
2.0347202615048366e6,75.95911022851232,13.5331758682324,-0.1788325541220896,74.74223868379298
2.0347202615048366e6,11.534129745097783,9.127565299071533,0.3921669875385636,7.025991222776942
2.0347202615048366e6,23.268562339928373,3.2443434511700517,0.009988978796014096,-23.03681349664064
2.0347202615048366e6,51.8518881071863,5.400795901330593,0.15531147902599213,-51.56762772493554
2.0347202615048366e6,19.187038881204373,2.6113181310107176,0.34600444357402116,-18.99995806556555
2.0347202615048366e6,6.3835015830832695,2.516138407771307,-0.07213931997515755,-5.848724887819325
2.0347202615048366e6,37.70300964767937,10.790435656494127,-0.629448357507291,-36.11761172228882
2.0347202615048366e6,17.75153442074406,5.915057017357965,0.05026730881223402,-16.73084561194232
2.0347202615048366e6,62.22672602834321,5.0732274911195026,0.5345733706682622,-62.01561636605675
2.0347202615048366e6,133.61391300812932,22.8966430363675,-0.3970542713416755,-131.63608350993826
2.0347202615048366e6,46.9221139905626,22.127581935851463,-0.40562893851630505,41.37251516526988
2.0347202615048366e6,2.4497913284312123,2.3985948984789847,-0.20088910438553526,0.050105431896469654
2.0347202615048366e6,36.063520905893675,18.123949114044514,-0.4194822965863485,-31.17240270118627
2.0347202615048366e6,16.451341115881092,1.9442584343520561,-0.4629064520549065,16.32319969212211
2.0347202615048366e6,41.09396745118732,19.240921690223733,0.34283497262498625,36.30672395703287
2.0347202615048366e6,148.06008533855413,9.72942410455196,0.5640100929599247,-147.73829468553325
2.0347202615048366e6,666.4740725365091,7.929210972130401,-0.48539770434268176,666.4265721088473
2.0347202615048366e6,265.400026014762,16.250712869749997,-0.3828923489440909,264.90137066506685
2.0347202615048366e6,38.86150354727789,9.161057117093153,-0.5659073073609283,37.75931522542011
2.0347202615048366e6,87.9614058895,16.741857617049185,0.004554830191857693,-86.3522654929334
2.0347202615048366e6,233.2480410856723,10.460963752283021,0.09943024760438449,-233.01287876043136
2.0347202615048366e6,16.66916065383014,16.632987562802054,0.4677357710255467,-0.8834657933917685
2.0347202615048366e6,37.24634617546136,11.06187654864891,-0.3219099727751826,35.56144276509184
2.0347202615048366e6,79.89867624694936,25.16458157550954,-0.5513566226445652,75.82897172545427
2.0347202615048366e6,17.57462372376194,4.21604630790114,0.08280601003426234,17.055208666177904
2.0347202615048366e6,92.8559780256385,39.145894316274365,-0.013845511506697323,-84.19991727133387
2.0347202615048366e6,78.03395351433306,23.62353242298665,-0.7389470575471043,-74.36716493926639
2.0347202615048366e6,244.37135568173403,16.481243816039143,-0.6031502223941363,-243.81377921835096
2.0347202615048366e6,173.2082809296183,21.26187774942227,0.5730754584708951,171.8967927816043
2.0347202615048366e6,29.778416599529837,20.7441087170312,0.6210744052847273,-21.350526040708314
2.0347202615048366e6,62.526587978653694,19.249977337313123,0.5515858984395734,-59.4853173201809
2.0347202615048366e6,38.92558659498212,23.30068596018549,0.5269072210088767,31.17364818639991
2.0347202615048366e6,35.28940490401882,29.899214864679593,0.450363936256463,18.734216508868183
2.0347202615048366e6,77.94155073552112,9.10807979216898,-0.28538331023824415,-77.40569369784274
2.0347202615048366e6,30.850030753140643,30.833084495942543,0.045540650459530325,-0.9153528858674581
2.0347202615048366e6,12.288251281008735,12.2716468520652,-0.3395262963568705,-0.29524887503990227
2.0347202615048366e6,22.70131837861277,1.7935363637645425,0.0789598597055227,-22.62568221513488
2.0347202615048366e6,32.28806080872406,20.389756282521557,-0.09277058344103772,-25.031235488221565
2.0347202615048366e6,50.26196434621853,48.98654430784524,-0.4817863801474773,11.23147655122333
2.0347202615048366e6,12.033850341837512,12.021020981904089,-0.2608283196672903,0.18768087473959716
2.0347202615048366e6,474.30184480985486,10.98364140879126,0.5616883728968638,-474.174101743787
2.0347202615048366e6,37.92010699232695,26.443313046050253,-0.12743723457952913,-27.174696247245773
2.0347202615048366e6,28.439918090785476,6.5129030913158745,0.47270779771037824,-27.676383950805747
2.0347202615048366e6,462.70696938641555,13.61369296122397,0.6305592852474959,462.50600420386684
2.0347202615048366e6,91.98294575894728,7.4796922933422305,-0.27218882994829247,91.67680772066578
2.0347202615048366e6,83.89457920422743,10.341825652376343,0.13438175300246033,-83.25337020502784
2.0347202615048366e6,50.442361918297564,16.23390316888972,0.26362794553085794,-47.75581023317146
2.0347202615048366e6,13.43566260843128,3.378713646228828,0.15467421137210247,12.99507778481685
2.0347202615048366e6,173.4145715994128,24.398563164822384,0.34279627805855467,-171.68867433856116
2.0347202615048366e6,291.23812680344446,32.54075187571168,-0.1969461064328097,-289.414066400537
2.0347202615048366e6,25.41870105264319,5.758791112355608,0.3166548451016837,24.75158711593442
2.0347202615048366e6,29.254197321205123,29.173574813527406,-0.06026348377959912,-2.121699493511262
2.0347202615048366e6,2.824746387935538,1.2350961161361536,-0.20112336009320314,-2.491571001357192
2.0347202615048366e6,21.72569366094169,8.937793912226175,0.26435488111214994,19.79510971046147
2.0347202615048366e6,32.29638580431007,10.278898329936723,0.6631567535717802,30.606464271205454
2.0347202615048366e6,12.813746201638798,7.642318955037016,-0.031479805316478024,10.27524737668495
2.0347202615048366e6,11.559206232811892,2.8492156981122827,-0.1758614313488308,-11.192003320049121
2.0347202615048366e6,10.564466559782952,9.970908224062596,-0.31575217468049577,-3.447301896410675
2.0347202615048366e6,9.265389034193602,6.111389111121226,-0.05447150045163038,-6.949103313650012
2.0347202615048366e6,26.455537517887265,18.012585996660356,0.6296877801076364,-19.360794180341834
2.0347202615048366e6,32.7228371163047,11.715922342957382,0.20023005750608217,-30.54956280274385
2.0347202615048366e6,19.927776567362137,11.010640438128936,0.17814279670291366,-16.602559685953523
2.0347202615048366e6,12.837035303584749,8.612228647058622,0.47674105713664483,-9.496649830409842
2.0347202615048366e6,46.31998176171667,13.87877688064665,0.6543550631466232,44.18468885343709
2.0347202615048366e6,545.930447554852,18.253616882300122,0.24937053387664143,545.6249549822779
2.0347202615048366e6,89.69319757744873,9.067536855711033,-0.18565808644160325,89.2323351988125
2.0347202615048366e6,420.77491410993173,25.851218366885057,0.13672094366674858,419.97978380806893
2.0347202615048366e6,78.565860142899,16.808853334862185,-0.4022382223710814,76.74431367139745
2.0347202615048366e6,14.005991293925444,11.206387456307283,-0.3243718824471845,8.382964994990182
2.0347202615048366e6,9.111664164717933,8.8973492667606,0.2171500162744126,1.8992347582725413
2.0347202615048366e6,23.67735800843629,23.46319928561367,-0.523162821004234,-3.1010496814270234
2.0347202615048366e6,137.74036490899582,20.11627973385213,-0.5413146599783983,-136.26167854643634
2.0347202615048366e6,20.861420804842492,5.394779127557678,0.09000969604037314,20.146507919163582
2.0347202615048366e6,17.867543110851265,6.185782108446558,-0.046460064805513984,16.75642219890775
2.0347202615048366e6,29.616405841103273,5.579821947405943,-0.4467190943906261,-29.079067573627754
2.0347202615048366e6,18.776402829711625,18.750572800297494,0.5728362975219962,-0.6601729934697884
2.0347202615048366e6,4.609632671482529,4.484197922003345,-0.6169964087744122,-0.7447447311519098
2.0347202615048366e6,5.624224633221474,2.4510324808394865,0.35431185336169574,-5.029259640751454
2.0347202615048366e6,88.90259073177417,16.255280841502707,0.6773709981294948,87.40007036059423
2.0347202615048366e6,12.931483925791316,12.195360847407684,0.36692007679177996,-4.261040589161413
2.0347202615048366e6,204.20764749395192,7.928382515075297,0.37913893519735187,204.05282391159724
2.0347202615048366e6,57.50845018953282,21.699581029813167,0.013238817179857167,-53.25546448944924
2.0347202615048366e6,149.25358469441903,11.378756012640096,0.1410360472023992,-148.81845050763377
2.0347202615048366e6,3.5108785986374134,3.4180986232992043,-0.13162583558303212,0.6482221038319846
2.0347202615048366e6,935.331613904908,15.597240402219516,-0.5728908786084802,-935.2012727240897
2.0347202615048366e6,331.4450395676355,24.07226305621983,0.020924342182527252,-330.56940967735693
2.0347202615048366e6,200.64463997011944,18.09135862834691,0.6225156388190554,199.8258777358917
2.0347202615048366e6,961.5859752864413,15.119691484377304,-0.10431259062029667,961.4669867253886
2.0347202615048366e6,411.4917542347345,23.9905569691905,0.609328185273618,410.79111522228743
2.0347202615048366e6,15.280276445463517,10.396870326798966,0.5886181230991067,11.173187158702422
2.0347202615048366e6,193.53157986442926,12.401773266934569,0.008731768755614454,193.13327780404504
2.0347202615048366e6,68.35829056412783,6.1220487617139865,0.07460951932376718,68.08204967646957
2.0347202615048366e6,26.648972073871075,6.883624681818424,-0.22817504780971598,25.739580550236177
2.0347202615048366e6,105.77812309755747,12.89095329165043,0.12246264614090853,104.98863890486213
2.0347202615048366e6,30.656078255177135,2.0004981853226163,0.4448349161192032,30.58414474554072
2.0347202615048366e6,10.178726326917346,1.660815005619046,-0.23836230775593864,-10.029256876077662
2.0347202615048366e6,12.970238599260513,7.256391986638108,0.5507542007973678,-10.72675073771292
2.0347202615048366e6,188.6633442864237,15.387520694435729,0.5668733524407499,188.03338795474318
2.0347202615048366e6,1.6336446999869996,1.5162391124471184,0.06751379110219832,0.39987844204357814
2.0347202615048366e6,1.7198685380091523,1.484842256686655,0.31784873825836907,0.6684387489501067
2.0347202615048366e6,26.158698015757594,21.994224577926595,0.07437375272871143,14.153468923234128
2.0347202615048366e6,159.50398706412457,14.363266481968578,-0.20875197659452624,158.85518416108857
2.0347202615048366e6,22.37861305175378,20.6575327958094,-0.5311284484364315,8.577949079014418
2.0347202615048366e6,48.050263146378256,14.84601971388595,-0.29722921288187265,45.69605878855237
2.0347202615048366e6,23.317182325220845,21.726123791034365,0.39403294777037906,8.444283365747046
2.0347202615048366e6,75.44630670079046,21.523645411463697,0.2186002413378891,72.30923000451965
2.0347202615048366e6,8.445823377291866,7.685995057505244,-0.6318328634956308,-3.413626612525258
2.0347202615048366e6,618.6073484518721,25.458996825050757,0.40463244432571227,-618.0829410029237
2.0347202615048366e6,106.02594035702157,11.383120696531462,-0.2533888008706873,-105.411835354647
2.0347202615048366e6,10.002378966146942,9.852440365871376,0.582643751794046,-1.5595438431097173
2.0347202615048366e6,128.06630469651236,3.061937293837097,0.2643753847217831,128.02862059401102
2.0347202615048366e6,2.047693746353593,1.8987077051484624,-0.6121585573159828,0.08869921470501013
2.0347202615048366e6,10.674827009787412,9.824995211663737,0.57641676837815,-4.108989098248258
2.0347202615048366e6,59.306466912476296,18.513118775583685,0.645063614630431,56.33737649816128
2.0347202615048366e6,51.13929570277361,17.522520122369023,-0.3902601296202279,-48.03989173061116
2.0347202615048366e6,137.0794398562286,2.963654391904676,0.5473037548962334,-137.0455569854905
2.0347202615048366e6,184.29606647748284,24.045351381513903,0.28495544462186145,-182.71993499158106
2.0347202615048366e6,13.682533654794323,3.1118042282608034,-0.057288605096480094,13.316146837430212
2.0347202615048366e6,8.492349207737474,8.356179532955284,-0.250810649926565,-1.4233761336276893
2.0347202615048366e6,63.927393976970315,12.087036623908121,-0.18736557777996038,62.77240466478934
2.0347202615048366e6,246.11100660918183,43.034707006778746,0.53676658928977,242.31827850076598
2.0347202615048366e6,113.38790407801207,26.081170470649965,0.558616262526446,110.34523973818409
2.0347202615048366e6,6.888038886466021,6.865636627719702,-0.2088825977778771,0.24316327569405505
2.0347202615048366e6,565.3294889753911,6.905250289374841,-0.6724066062891987,-565.2867335608491
2.0347202615048366e6,429.2675109450749,41.87603048766101,0.7973355742385037,-427.21909241802297
2.0347202615048366e6,47.74434777819329,8.94007225433552,0.1855858201176165,46.89731397080671
2.0347202615048366e6,17.480344492387445,16.860267568390363,0.14566777267329953,4.589907288339021
2.0347202615048366e6,9.14457215854512,8.230253093758758,0.3261129739375765,-3.946445391040083
2.0347202615048366e6,254.0312365112889,26.128895612816542,0.265286597612638,252.68334770508878
2.0347202615048366e6,83.43528612295714,9.141864185833546,-0.1826778800619612,82.9315052639246
2.0347202615048366e6,1.83507415638991,1.727176892810519,-0.4223062692106276,-0.025719177590754178
2.0347202615048366e6,8.503541385621451,7.94224853280278,-0.048002291972915036,-3.0038720080677868
2.0347202615048366e6,68.78952697869855,6.395104560065379,-0.3570154452272316,68.48918780735768
2.0347202615048366e6,186.79646150779718,2.364841229863517,0.1979949885759956,-186.7808368187077
2.0347202615048366e6,45.59342976773057,14.490040562831945,-0.2846109412951461,43.22630224765099
2.0347202615048366e6,14.730033256519711,6.883829814536873,0.27357199100014856,-13.011785892379612
2.0347202615048366e6,3.51881310221674,3.4072543513775297,-0.09138386845602949,0.74763583558852
2.0347202615048366e6,48.41851431239314,13.581458196926066,0.4576096450987578,46.47022446468277
2.0347202615048366e6,514.6500519806302,11.059902748207364,0.08708614826462417,-514.5309918924117
2.0347202615048366e6,19.979769089988697,6.502036199771883,0.4388919919845917,-18.881650322104118
2.0347202615048366e6,23.200848700459634,14.784049977618466,0.3999425374423075,17.87025292401767
2.0347202615048366e6,154.75030851474247,14.77531505279237,0.520340494730418,-154.0417863541869
2.0347202615048366e6,118.41619351389463,38.70306538554413,0.058623121548010096,111.91183505926784
2.0347202615048366e6,223.81760238144335,6.254677529987005,0.04301838445982004,223.7297274416457
2.0347202615048366e6,53.054513384220286,15.818040761099455,-0.2923618898109568,50.63872182789283
2.0347202615048366e6,135.39738027582962,15.349993179921805,0.1770264380782881,-134.52357266849148
2.0347202615048366e6,182.25235547954614,35.733211873033454,-0.4424338797187227,-178.7138985816787
2.0347202615048366e6,0.7784207328769929,0.6064024793928658,0.1773136365460472,0.037704978089851626
2.0347202615048366e6,109.63133045161582,19.82638516106667,0.5080477950435955,107.82151734415118
2.0347202615048366e6,628.4090875608952,27.09761945498837,0.2930763472690784,627.8243457386508
2.0347202615048366e6,377.1970246013452,17.592519533481987,0.03626124109433815,-376.78626826971146
2.0347202615048366e6,55.10259285021159,2.1925833790111824,0.31624842346282533,55.05617995100686
2.0347202615048366e6,91.01267890378782,10.953167725460466,-0.5882446567224708,90.3481292178564
2.0347202615048366e6,10.72742948054886,3.7120048958785397,0.2577268153844883,-10.05121817107127
2.0347202615048366e6,38.494041241501066,12.501094566826357,0.5176370512864241,36.40110636419591
2.0347202615048366e6,20.900232307718852,3.4937545910303953,-0.14238641935229998,-20.600673833701933
2.0347202615048366e6,9.689890999610316,9.251986603430145,0.03302502911483852,-2.8439915158890807
2.0347202615048366e6,32.17555498756243,12.61819477811456,0.38664746872430034,-29.592104520545075
2.0347202615048366e6,11.141614486312138,7.743145203438645,-0.4928444823035613,-7.983171484882902
2.0347202615048366e6,359.0437087800765,19.78363689924563,0.7564670676107944,358.4971616764734
2.0347202615048366e6,13.985019118195938,13.527047062155052,0.3754446015838199,3.5004922205896865
2.0347202615048366e6,361.0901923948577,5.44972951290397,-0.27943229089811766,-361.0486726973345
2.0347202615048366e6,27.9444873189619,14.590634016875635,0.574400459749737,-23.821680913356477
2.0347202615048366e6,25.491886803802192,12.363095417095503,-0.1500956331084193,22.288164633888023
2.0347202615048366e6,8.037059610156266,4.995085937913977,0.19716148277677153,-6.276879632467674
2.0347202615048366e6,22.60131303475019,3.2558875489012595,0.5509654172013511,-22.35418598816441
2.0347202615048366e6,750.6240599355933,11.918631758892325,0.18943038691520453,-750.5292694720429
2.0347202615048366e6,122.33395245541999,5.581484839758747,0.301957461521809,122.20534529618845
2.0347202615048366e6,7.434719051224302,7.027205955766743,0.007827125812578075,-2.384954817746975
2.0347202615048366e6,63.213578938295285,6.898432902262751,-0.12380269703940651,-62.83428606655759
2.0347202615048366e6,47.34759203452431,13.921060217048135,-0.5348172576615733,-45.24938862926986
2.0347202615048366e6,133.54479028431294,17.182292795208856,0.33928382664620366,-132.43360358982358
2.0347202615048366e6,605.9118064744634,41.34468323776588,0.07128392011561292,-604.4993994692136
2.0347202615048366e6,873.540546011945,20.227164208672917,0.031224438361260355,-873.3062126349942
2.0347202615048366e6,98.61892140989059,28.583734360356285,-0.592800534719071,94.38275808914214
2.0347202615048366e6,33.92838396607205,23.399537346411396,-0.3896607413209885,-24.560938539691538
2.0347202615048366e6,8.968034519898325,5.252210664306909,0.4820577333695691,-7.238935940471242
2.0347202615048366e6,188.73129804108922,14.50642345668128,-0.5199185565804274,188.1717058178119
2.0347202615048366e6,26.34629578975024,22.023430137256753,-0.5062397877031752,-14.444175124542326
2.0347202615048366e6,105.58779396623675,22.829717517255606,-0.04344846219891649,103.08917980026142
2.0347202615048366e6,236.85565989772948,66.67225584018969,0.47877376691316276,227.27731815860994
2.0347202615048366e6,5.125874468137787,4.482994869712576,-0.10028543074708261,2.44170756118263
2.0347202615048366e6,9.7803149485493,8.254991786621828,-0.6842393232825794,-5.180360466687226
2.0347202615048366e6,43.186492880134494,10.006708156783942,0.566518855215698,-42.00491236103541
2.0347202615048366e6,164.8812093358022,8.523070416545458,0.30699440743580203,-164.6598641565872
2.0347202615048366e6,29.123539159203155,14.219779161160046,0.1538402786070069,-25.411599592604855
2.0347202615048366e6,50.242936726629175,10.078969487331209,-0.25766022152066714,49.21885129826244
2.0347202615048366e6,75.87278423318209,16.269950050218647,0.4479009368823209,-74.10507502411595
2.0347202615048366e6,25.732419888316716,20.531110352566266,-0.007116965422435163,15.50566145860622
2.0347202615048366e6,76.39802754272446,13.35765690585878,-0.2775823245246634,75.21934066035197
2.0347202615048366e6,47.18634875746359,20.547351667180276,0.7070640167462243,42.46943084058404
2.0347202615048366e6,21.351044677882967,14.041751454313948,0.5923256423777433,-16.06673962527331
2.0347202615048366e6,13.865321795227501,6.636793454726449,-0.32838377165689286,12.160877112434871
2.0347202615048366e6,7.840688432565666,5.126218989003223,-0.3463931201693107,-5.905330871371236
2.0347202615048366e6,21.817089358573604,10.931751279667989,0.4502293690903926,-18.86992693349368
2.0347202615048366e6,168.53201996637227,2.588100217340023,-0.44127118870049326,168.51095934054095
2.0347202615048366e6,13.77863905069825,12.168014391507217,0.4684127918430099,-6.4316060385145555
2.0347202615048366e6,28.48850208881474,11.163591355471022,0.7703726747996248,-26.19484972614074
2.0347202615048366e6,110.03357549753147,14.335069991136578,0.23213392190145218,-109.09461153459043
2.0347202615048366e6,141.13642139780396,7.7278872176013085,-0.09635802936661447,-140.92393184332263
2.0347202615048366e6,88.10634043828856,10.82006988846271,-0.6535269995040375,-87.43580995460627
2.0347202615048366e6,75.94260487100601,16.66811741236679,-0.18307211864246278,-74.0892315255152
2.0347202615048366e6,46.57556748551717,22.17970172813139,0.5232820634783275,-40.94954383936225
2.0347202615048366e6,3.1345328664026724,2.9482578879855894,-0.5890263035909468,-0.7620804753346543
2.0347202615048366e6,51.97618052401934,12.617769012593016,0.0038067195330221343,-50.41934033126476
2.0347202615048366e6,23.005125927659932,20.319464998766733,0.14213268567518908,-10.776344757466077
2.0347202615048366e6,10.109680672044187,9.39401547467383,-0.24315166918532385,-3.7004919590216345
2.0347202615048366e6,90.28051706406644,10.6932249592315,-0.3358877121000965,-89.64322912352075
2.0347202615048366e6,2.888281206294851,0.30086996781767494,-0.20059646833965553,2.8294970518998754
2.0347202615048366e6,13.995392595407585,12.264168231279537,0.18804029693166815,-6.7246174063594175
2.0347202615048366e6,9.739615074467514,9.716013878024269,0.4804215064911582,0.1517175588204963
2.0347202615048366e6,47.95165722852088,22.04272420648885,-0.516499337489496,42.57942714355515
2.0347202615048366e6,10.565968985486156,8.773586447379635,0.04701235471342576,5.869950443729068
2.0347202615048366e6,524.5319457053395,14.460301075070598,0.4644424054203635,524.3321854496634
2.0347202615048366e6,13.177740476125415,8.936746677958105,0.5841806216623558,9.656126697186199
2.0347202615048366e6,74.26339533436914,29.71618875202737,0.10843938356109702,68.05720314899439
2.0347202615048366e6,6.166841649374653,5.918274713118851,-0.23695845412470345,-1.6560368233399014
2.0347202615048366e6,80.98244071836561,19.723748717807027,-0.06270298062360215,-78.54247358262501
2.0347202615048366e6,30.216637559488934,19.897267486065054,-0.4217258710908923,22.73237176802867
2.0347202615048366e6,204.64170486056432,20.445081859002936,-0.545410124234425,-203.61660828806203
2.0347202615048366e6,12.825965915087018,9.875748342869812,0.31954060513033167,8.165019108714318
2.0347202615048366e6,26.24582817886806,4.8598471082092045,0.4840593853340698,25.783438799192105
2.0347202615048366e6,12.926999254834747,5.790712679143946,0.01277137387974341,11.54856875179032
2.0347202615048366e6,35.06642867945082,11.729796851231093,0.32011688932043686,33.041768388779545
2.0347202615048366e6,95.55009723313235,28.466914803447988,0.5829993373626509,-91.20806215202487
2.0347202615048366e6,33.519686646949545,25.320425710959146,-0.19244842758662037,21.959122142037607
2.0347202615048366e6,14.097217597616615,12.177913103552726,0.3061942843327679,7.08031555919871
2.0347202615048366e6,16.528252832387132,2.3831217405764127,0.4644763101224428,-16.342667503775473
2.0347202615048366e6,6.272756829555346,2.658565019335182,-0.3941887873058001,-5.649670114385611
2.0347202615048366e6,28.73898033587959,5.810644951310578,0.5853854600865875,-28.135695597936092
2.0347202615048366e6,28.768093558932563,9.557859166261988,-0.14712633957866003,27.129753702057833
2.0347202615048366e6,45.24781790383875,15.673917191952157,0.24497690523008975,42.4432324187897
2.0347202615048366e6,23.980880785895245,6.490693583001779,-0.4733002814669487,23.07648530091143
2.0347202615048366e6,94.87196860302664,8.291566664041886,-0.5931811021513957,-94.50599521707709
2.0347202615048366e6,107.18102364669528,21.824219990486725,-0.0924988991317988,-104.93455742811642
2.0347202615048366e6,25.026670151324808,16.214781199719212,-0.2733768816531756,19.05610142473379
2.0347202615048366e6,127.80919057481556,13.9559500075754,0.4361915766953303,127.04339824880594
2.0347202615048366e6,218.84162512780227,30.137591390435084,-0.6813634463917931,216.7549604150626
2.0347202615048366e6,36.81331153102363,35.799087817247944,-0.01655313368857587,8.569690207215821
2.0347202615048366e6,418.61380763621213,69.7053632812073,-0.09490878858176889,412.76926716116486
2.0347202615048366e6,57.517342278826405,46.0947131749241,-0.4111154099696241,34.396914268311264
2.0347202615048366e6,31.114446629307498,6.400758935490639,0.28851934371990773,-30.444219116390215
2.0347202615048366e6,30.95405997665003,6.119489444227183,-0.16562934602744692,-30.339296165542322
2.0347202615048366e6,66.41088357400808,16.534855753816878,0.08827519740588129,-64.31788908764936
2.0347202615048366e6,54.89889699412393,6.171079710137743,-0.053319151717588165,54.54904646619711
2.0347202615048366e6,84.68463333831446,6.834101640562659,0.31260290824945086,84.40662950712868
2.0347202615048366e6,161.8829109949752,5.138120915962528,-0.23587742918906943,-161.80054262708506
2.0347202615048366e6,49.18160949740518,4.994238177152933,-0.40167570323358304,-48.923630295954894
2.0347202615048366e6,59.2235241655986,10.322937426701646,-0.047096058082003865,-58.3151370259873
2.0347202615048366e6,881.7288411056944,21.093071791522945,0.15101339352390242,-881.4763771093722
2.0347202615048366e6,49.80388072809495,2.903143369191042,-0.021806555657381616,-49.71712446985521
2.0347202615048366e6,15.37721917601089,14.573441280307968,0.5859935087032057,-4.850251268230279
2.0347202615048366e6,6.258880167582472,3.099281629660235,0.4031826381972758,-5.403714001793867
2.0347202615048366e6,35.6763506283506,34.26365993797948,0.6480696776712619,-9.908494054351221
2.0347202615048366e6,17.517607517218735,17.30202407763678,-0.5544030722701164,2.6445831615534257
2.0347202615048366e6,10.607863675825795,8.223468682404656,-0.017219189260262186,-6.685483154915165
2.0347202615048366e6,1.8744259966053098,1.5582710711221492,-0.48125438312513125,-0.8051740340420123
2.0347202615048366e6,5.05247471938476,3.7321788712001487,0.4125601742609416,-3.3500421917823795
2.0347202615048366e6,96.47020736627381,26.56349085358029,0.30203313490395506,92.73934055119092
2.0347202615048366e6,172.56886167770324,0.6620923561952854,-0.590807829222468,172.56598519835765
2.0347202615048366e6,275.18593122067443,46.26340002886603,0.32214567937548394,271.2686591345209
2.0347202615048366e6,82.90116170778079,31.213425304160722,-0.029922584049764632,76.79920862118881
2.0347202615048366e6,8.979954973416671,8.128143726954429,0.5866879816174243,3.744771690171092
2.0347202615048366e6,248.61444043722585,13.650607276051568,0.364225761830305,248.238721599643
2.0347202615048366e6,19.72192624121791,7.890337458003744,-0.36792306422641363,-18.065332241683002
2.0347202615048366e6,6.360583242957185,3.5166383561574857,-0.5318823338406944,5.253762648450811
2.0347202615048366e6,395.8672777548404,20.177385808272128,-0.27026397031295907,395.3523697959571
2.0347202615048366e6,120.84702749352958,15.155516391295365,0.8002903427032036,-119.88940136318627
2.0347202615048366e6,50.34067251546159,16.854000933952584,-0.4533473096682021,47.43116153927511
2.0347202615048366e6,7.9655554642475686,6.782097103128194,0.058615884253502254,-4.152642994115514
2.0347202615048366e6,74.14142657424898,26.60323725510637,0.5363044979504188,69.20062085284691
2.0347202615048366e6,35.634190903102784,34.56982658395918,-0.4048190882704659,8.622842901285717
2.0347202615048366e6,18.80135798956972,7.555570703122967,-0.07632554801338615,-17.21026539404627
2.0347202615048366e6,3.561290726773073,3.398933438455673,0.12100463637930617,-0.9539643181175641
2.0347202615048366e6,78.902079089881,21.119734669694253,-0.4947805640655833,-76.02002848790372
2.0347202615048366e6,25.52599169364482,21.786946821148405,-0.2913920245047209,13.289655291438136
2.0347202615048366e6,55.35209029356909,17.901201548137692,0.3316342220090994,-52.37447420894925
2.0347202615048366e6,11.140453944389552,11.10126201558782,0.11780813230309028,-0.8077523834777935
2.0347202615048366e6,5.954182366411904,4.57242350031107,0.4638899382104165,-3.7582820586325987
2.0347202615048366e6,110.16241094396506,14.831422709074639,-0.6119520421759033,109.15679478177515
2.0347202615048366e6,14.06720042111318,5.749007418750317,0.5690605710549467,-12.818184675456596
2.0347202615048366e6,339.6114298500396,16.42169819822091,0.24642969189240144,-339.21377482702934
2.0347202615048366e6,13.363215683629218,13.345671238268169,-0.4986303359969004,0.1208607297606068
2.0347202615048366e6,559.6263210913797,25.80395299301194,0.3554102380474641,-559.0308073788867
2.0347202615048366e6,8.103133475387386,2.467657953576393,-0.07088385760071346,-7.704612822429525
2.0347202615048366e6,69.33191333102519,11.78251770498662,0.6390467629943812,-68.31890476894291
2.0347202615048366e6,11.44068738480434,11.400374057811554,0.6224458443946003,0.5727191897547739
2.0347202615048366e6,2.1344227650968897,-0.3432539479274769,0.17212803745494554,-2.0501112474295056
2.0347202615048366e6,82.1418465049966,30.072910417462285,-0.10041145947832357,76.4374749107611
2.0347202615048366e6,211.80760847949912,3.770278453227596,0.6726962332694381,211.77249617664796
2.0347202615048366e6,9.058187793757787,7.546699239283651,0.011725291598957058,-4.989249055422476
2.0347202615048366e6,23.366313639758292,20.583151597642505,-0.5905695682561346,-11.03468884589819
2.0347202615048366e6,17.4690265242235,8.297505956858778,-0.5150521496113495,15.35733215125
2.0347202615048366e6,220.21657719725437,15.340908942270019,-0.39674651024822394,219.680756154076
2.0347202615048366e6,256.42523473721866,19.024923364983785,0.20272590175919536,255.71802214572912
2.0347202615048366e6,360.43815229573477,26.89241391270172,-0.3211462431847533,-359.43309699625945
2.0347202615048366e6,36.682659876681626,19.611584034752855,0.23902373634985005,30.99581942537275
2.0347202615048366e6,8.296897790366746,5.728310159784821,-0.05641033139608535,-5.984683822252384
2.0347202615048366e6,47.24515577103251,7.892207398989646,-0.3837475543454199,-46.577518084755354
2.0347202615048366e6,12.76520300276908,3.861148688426369,-0.39791941814009996,-12.152293839648308
2.0347202615048366e6,617.5226308413348,40.03619347497045,-0.23932289852071553,-616.2232064639478
2.0347202615048366e6,49.348626328791525,35.9321792588324,-0.3488042161103644,33.820680016661015
2.0347202615048366e6,61.52801732870571,15.551447071797686,0.19551817519410702,-59.52819357194096
2.0347202615048366e6,31.241504926612336,5.539075237680175,0.45488016348374644,30.739843957776515
2.0347202615048366e6,2.991104202499566,1.5587243213703774,0.024823014388487066,2.5121929820088837
2.0347202615048366e6,7.5975629322025995,7.563048501225363,-0.25282128512897006,-0.5039724153130739
2.0347202615048366e6,36.70226713721134,17.81563907100424,-0.3002441670644974,-32.083701748142985
2.0347202615048366e6,14.422798263815181,14.305368195364608,0.6755006832297469,-1.6467836231381687
2.0347202615048366e6,155.0754989536534,9.801239356192413,-0.039516268826864286,-154.76478658981958
2.0347202615048366e6,4.585129221093287,4.523749535130633,0.29485323972762806,0.5165351926733159
2.0347202615048366e6,13.991922491934597,13.147045736522866,0.42033519005721137,-4.748373265740573
2.0347202615048366e6,245.81104803901692,20.636232297401534,-0.7109991787763775,-244.94184285600545
2.0347202615048366e6,544.0468580639447,10.994750949851081,-0.035381917207067314,-543.9355592492932
2.0347202615048366e6,93.14980729860231,17.6405456375691,0.6246962988064522,-91.46093237459675
2.0347202615048366e6,717.546474671025,16.871414888242192,-0.12648537473708127,717.3479471782541
2.0347202615048366e6,20.55022373809451,13.70119610498706,-0.15401510599436663,15.30881599753147
2.0347202615048366e6,18.855685184933034,15.410438444745433,0.36166753207601476,10.849843051905225
2.0347202615048366e6,547.3218821567702,11.100267340454817,0.3069688199372817,547.2090342544285
2.0347202615048366e6,53.377790985898955,11.365314587301901,0.12170951392831499,52.151682893085216
2.0347202615048366e6,4.586753798642565,3.4760210843327295,-0.2962589952819971,-2.943206645662146
2.0347202615048366e6,27.434755645802316,17.860955607412393,-0.2100291788335455,-20.818324063182498
2.0347202615048366e6,340.06676835239915,20.377475675457877,-0.09063122464059774,-339.45537535240516
2.0347202615048366e6,32.581373608830326,29.953849453572314,-0.5219837501101449,12.799804257731882
2.0347202615048366e6,49.419186161686895,8.283661677574164,0.28616235983090665,-48.717036733769945
2.0347202615048366e6,24.310492222191726,23.695727161077198,-0.2891448918084496,-5.405884621899833
2.0347202615048366e6,65.20125891551704,12.321200445358278,-0.5560047389306609,-64.02247800112552
2.0347202615048366e6,15.813774274644196,15.806450561515359,-0.025646433009706954,0.1598957065159779
2.0347202615048366e6,164.0967308821022,27.23774688710049,-0.16907534647364064,161.81967831866203
2.0347202615048366e6,172.45069730393192,23.59623758351038,0.19446405123973817,170.82803459376444
2.0347202615048366e6,352.69097064555564,32.29653430892287,-0.0598010751588115,-351.20883490779227
2.0347202615048366e6,3.7597395043372237,2.455176919728446,0.026178938796938025,-2.810997868584947
2.0347202615048366e6,42.55324535222816,5.775126031018161,0.5781916922083833,42.15313690130978
2.0347202615048366e6,21.87103176018425,19.63759362574996,-0.6009186069076582,-9.598983831296092
2.0347202615048366e6,186.7252947439301,22.70339679744463,-0.08486008852253217,185.3393614879243
2.0347202615048366e6,233.854374178914,7.581536627165862,0.667952990805901,233.7300517920305
2.0347202615048366e6,81.50770167598498,15.710627504811763,0.006907527267402816,-79.9779733121139
2.0347202615048366e6,21.97234246139223,9.384289371717413,0.5430950922441097,-19.854939961381675
2.0347202615048366e6,286.59773948388926,7.329811657786573,-0.5377871689678775,-286.503130122898
2.0347202615048366e6,48.99711785590425,4.180841639911545,0.37686133967889457,48.81486191539136
2.0347202615048366e6,10.606631808211393,5.803112089434866,-0.17753511140937484,-8.86496794113506
2.0347202615048366e6,117.27770709751563,8.883824069513942,-0.6886181221857458,-116.93784119760001
2.0347202615048366e6,185.0689842768453,21.979639821459084,-0.590983121433758,-183.7576386451813
2.0347202615048366e6,62.12225068247169,28.56059144619748,0.44430639515189585,-55.16397270725878
2.0347202615048366e6,6.716983155241626,6.262315836977635,-0.35531500337690874,2.360012973445933
2.0347202615048366e6,104.95450040753767,34.90261056024006,-0.0635093358034456,98.98002599191932
2.0347202615048366e6,10.89313377456431,6.391240477212584,-0.3614348737953019,-8.802069094577519
2.0347202615048366e6,31.337563952460954,29.935875664470245,-0.3723997546485682,9.248904152353125
2.0347202615048366e6,2.3052541490104206,2.228779186797322,-0.3278064622826447,-0.18420062984030294
2.0347202615048366e6,7.841048443001989,7.773271890567316,-0.06785945115130161,0.9210465875450511
2.0347202615048366e6,73.4402965847551,4.9817167725120335,0.4206244832077743,-73.26852927703756
2.0347202615048366e6,16.63169050606547,15.638706046115509,-0.3165791952679281,5.633686788114963
2.0347202615048366e6,9.522808949025206,2.8865883496210567,-0.33792484469852935,-9.057149203779355
2.0347202615048366e6,14.864644547032064,4.32629990448407,0.2860345946695345,-14.211038588978727
2.0347202615048366e6,686.209673440783,27.500313629394626,0.7553833279149583,-685.657839389983
2.0347202615048366e6,220.92931101902303,23.354079773550204,0.18240299615209501,-219.69093927911223
2.0347202615048366e6,231.46087976093565,27.531591447408765,-0.14335724398774605,-229.81715433731355
2.0347202615048366e6,237.33842419273833,24.758678285745155,-0.27750484882606896,-236.04290518000062
2.0347202615048366e6,13.353742558899683,7.8859348675349805,-0.19940560409705269,-10.765191866387632
2.0347202615048366e6,4.240230568756715,1.665226136403612,-0.4204771155354186,-3.85024974604079
2.0347202615048366e6,26.697505289319054,14.845860068143196,0.038698284708322504,-22.18446251036545
2.0347202615048366e6,22.56052166967402,7.597890788085959,0.02186279236335772,21.237781487697312
2.0347202615048366e6,65.36559063082706,30.6608944294151,0.15535087321891158,57.72642812726279
2.0347202615048366e6,5.894169785447021,5.664360294632131,0.6033245865457793,-1.4446128464955366
2.0347202615048366e6,38.95766392859052,7.418408905883407,-0.37010208104003856,38.24035119410439
2.0347202615048366e6,347.89862445262173,11.782534571265208,-0.4190131011779553,-347.69849561084544
2.0347202615048366e6,14.010056890488325,12.13317179519537,-0.29587558522938767,-6.983905842848907
2.0347202615048366e6,202.06313289399057,24.863795645665824,0.7041275970151089,-200.52580929215281
2.0347202615048366e6,31.290754625770344,11.787114304554645,-0.5410732617227563,-28.977183232117287
2.0347202615048366e6,67.5063742857431,8.241594427874219,0.32354928792345433,66.99907949570854
2.0347202615048366e6,29.060354688381338,14.91573965214626,0.21287871774789355,24.93540163735421
2.0347202615048366e6,10.026464672604739,5.705252173776682,0.19200744377679066,8.230302031326715
2.0347202615048366e6,27.1018829237294,8.67470114821307,0.24950862319351338,25.67087864426142
2.0347202615048366e6,19.836473481157665,3.387161099610127,-0.3878287171608125,-19.536045036312327
2.0347202615048366e6,7.526566870827409,3.9246716004295727,-0.10726154262553203,6.405412053257063
2.0347202615048366e6,1496.3655769186234,19.68263547690377,-0.4576645464346136,1496.2359836729538
2.0347202615048366e6,7.903636980852064,6.150672180780381,0.11753664474009733,-4.941410862044248
2.0347202615048366e6,9.357387651030106,4.726062633094511,0.2480143104396205,-8.059663235039947
2.0347202615048366e6,27.077664341307482,18.475892034687202,-0.010861289348182125,-19.789791526345333
2.0347202615048366e6,8.265082918863033,5.6925030123597535,-0.12122721871890407,-5.973856040458059
2.0347202615048366e6,255.86367915916037,29.258974076185396,0.28925911587145053,-254.18466854819442
2.0347202615048366e6,40.11431642833787,24.64042394221301,-0.021264459196639933,31.651257245239517
2.0347202615048366e6,19.111057693922277,8.02967464830939,0.6926593825373928,-17.322578362450123
2.0347202615048366e6,134.74065926842965,113.12692259856686,-0.1661142814748018,73.19229260267181
2.0347202615048366e6,164.0562884306203,32.39766450608364,0.25842344145917645,-160.82470261880715
2.0347202615048366e6,28.99486259538496,5.568257559913189,-0.2606240767065314,28.450365317216637
2.0347202615048366e6,537.770572931843,16.37155506416412,0.1293297392816721,-537.5211058339597
2.0347202615048366e6,162.6364235136167,4.8225065723984155,0.19885110660176064,162.5641559164191
2.0347202615048366e6,21.249391069855633,6.647751316729154,-0.37754607639683496,-20.174145066185645
2.0347202615048366e6,17.601075995698785,11.598079301723804,0.46020864987887555,-13.223663926332422
2.0347202615048366e6,22.190480501867786,5.810396200143553,-0.16426508720875546,21.410847363030147
2.0347202615048366e6,85.65894727619116,4.311951378296829,0.20087945163043472,85.5489136000167
2.0347202615048366e6,21.847039853207637,19.491709641862986,-0.2419297686327038,-9.85406121823467
2.0347202615048366e6,21.57688641422732,18.99365273913087,-0.2534668851353032,10.22416668568313
2.0347202615048366e6,634.1243082614945,121.21434450616758,-0.6433848155902712,622.4308007457206
2.0347202615048366e6,130.79581666914518,34.11895061632682,0.526819316973684,126.26543460233792
2.0347202615048366e6,703.3746367288836,11.022407124172693,-0.7764472712538191,703.2876921368904
2.0347202615048366e6,26.014976251602068,6.1318992659491425,-0.008197597739133736,25.27792278815216
2.0347202615048366e6,13.801768683707754,2.408675509831047,0.39329877366235566,13.576710355688924
2.0347202615048366e6,15.25213505644315,11.27301489295293,-0.6091951104115585,-10.24550082921343
2.0347202615048366e6,59.513401268030094,26.558926328271276,0.02924273240339554,-53.2565691212112
2.0347202615048366e6,167.32247568312692,46.930621196487664,-0.3200906619820007,160.6051675748051
2.0347202615048366e6,29.363416178255527,19.21250153375244,-0.3569303669057753,-22.198136005234723
2.0347202615048366e6,24.239880318799358,11.288418247361916,0.3144434078258192,21.44386121029366
2.0347202615048366e6,3.3950690101746304,3.3596305736749947,0.18316518379133354,-0.02175841083532004
2.0347202615048366e6,55.400434279479285,16.184511363715174,-0.35436802363292574,-52.98055096445508
2.0347202615048366e6,45.381863189958544,17.77342929017803,0.3234264407869854,-41.75294911880207
2.0347202615048366e6,7.048201103575059,6.128672664760521,0.17220598435377177,3.446955494973156
2.0347202615048366e6,15.737802463707773,13.15797761975765,-0.11883168517590434,-8.62128629010547
2.0347202615048366e6,35.378923179165454,21.715320185984936,-0.18846108936561873,-27.92619207618467
2.0347202615048366e6,19.446469773449913,5.9981945098560345,-0.24771006987778693,-18.491082605235277
2.0347202615048366e6,219.3492134524594,22.200314385985386,-0.02317265441411064,-218.22240396743135
2.0347202615048366e6,3.2993131810657434,3.1732813193267857,0.08546068061396889,-0.7765928971821732
2.0347202615048366e6,14.865554999986088,9.21222216245525,-0.23229631186407765,11.655915821221123
2.0347202615048366e6,37.4406392709075,10.421926895097554,0.5089056681866225,35.954423521300825
2.0347202615048366e6,268.17254081448465,8.92279442553882,0.4818048418053753,-268.0232413384166
2.0347202615048366e6,23.695364554098397,22.750030382961665,0.601176274426461,6.583285876652319
2.0347202615048366e6,22.065224721951697,10.810485767600301,0.4300408097910482,19.225432409217042
2.0347202615048366e6,75.24101764044273,7.557983180195254,0.3687184500651949,-74.85817470017955
2.0347202615048366e6,52.7548628204381,6.0112545769480255,-0.5209184562698028,-52.406713887602216
2.0347202615048366e6,90.248108834952,8.655540714104287,0.1311455189097113,-89.83084220358515
2.0347202615048366e6,31.8522940564395,12.47801600975792,0.43110370866239967,-29.299770470623358
2.0347202615048366e6,143.61600335581406,37.061643132217725,0.14543475471034842,138.75072801210877
2.0347202615048366e6,34.46447935303381,22.00484969050551,-0.18176154238515027,26.52071901054686
2.0347202615048366e6,59.87144951963562,17.694006039920705,-0.6205432967455686,-57.19197662941113
2.0347202615048366e6,44.282015514059005,33.47934920343802,-0.36094458122521805,-28.97748161644865
2.0347202615048366e6,13.535789883743412,13.12581459601533,0.18668247136293453,-3.2696170331533088
2.0347202615048366e6,579.9283814565931,12.658439383084197,0.06907150581076801,-579.7900321731104
2.0347202615048366e6,268.94794922318044,9.328633496054401,0.010390860914289087,268.7857334893381
2.0347202615048366e6,36.862175394824185,8.129877408823285,-0.535177131957171,35.947646661700055
2.0347202615048366e6,46.82824571163375,29.6674133747469,0.2502189721731306,36.2279066117229
2.0347202615048366e6,199.3264093601165,45.47521030200715,0.25424015363646507,194.06893807420585
2.0347202615048366e6,189.93786947322226,4.3247729576373235,-0.19767942934030236,189.8879832128817
2.0347202615048366e6,103.04116864886484,12.846407573969179,0.5195034761276827,102.23491092589794
2.0347202615048366e6,32.803190097266636,3.9827271529712527,0.09345583699044765,-32.5572277368582
2.0347202615048366e6,174.64743428602668,28.90712948958053,0.2772717358653985,-172.2376902268195
2.0347202615048366e6,1344.5925736883264,24.396552289187326,-0.32136874816062166,1344.371112759883
2.0347202615048366e6,39.31478503852304,10.516704912264839,0.463828319877306,37.87651977972658
2.0347202615048366e6,6.353603908703892,2.991541563352799,0.20134275819356343,5.5832848501462
2.0347202615048366e6,68.43066745993184,20.07136571055645,0.3721260546161586,-65.41829023021823
2.0347202615048366e6,115.89829979288643,11.915316491029547,-0.1516791725411359,-115.28318510585012
2.0347202615048366e6,50.533331677755186,6.915018285642511,0.24061550013668753,-50.05533821347188
2.0347202615048366e6,617.1924112688046,16.575553281643547,0.36538079528453826,-616.9695168361268
2.0347202615048366e6,21.890894746110575,9.231564252618064,0.6012228173896289,19.834885234849352
2.0347202615048366e6,5.48729737364364,3.1147630100461643,0.2750800832802129,4.4863862658654465
2.0347202615048366e6,50.332277949067205,4.931234234410222,0.5519244507179706,-50.085039271113246
2.0347202615048366e6,3.1086587881028405,1.8702672090876953,-0.5011458324959039,2.3894266682096212
2.0347202615048366e6,159.83770017012478,19.54795799785437,0.2601508543608239,158.63699033404072
2.0347202615048366e6,8.40642258574831,2.864052192514828,-0.37860100417729603,7.881399236752653
2.0347202615048366e6,300.0950582435366,13.683986650122995,0.13616613545198533,299.78253551075176
2.0347202615048366e6,520.8186021070862,27.132471350955694,-0.20459635650004582,520.1111401291272
2.0347202615048366e6,54.51027398570248,14.376043245606022,0.20868598312898254,-52.5780414971686
2.0347202615048366e6,26.52453599652279,10.84259786201459,0.29382163118488636,24.20118586357364
2.0347202615048366e6,19.12940464274968,17.208582295169478,0.19622032473278947,8.339961743396271
2.0347202615048366e6,2036.420625341784,18.28922608827963,-0.1553253070168672,-2036.3384389750845
2.0347202615048366e6,819.5085116854883,34.114408945578106,-0.3382052172778713,-818.7979531553616
2.0347202615048366e6,39.50494079449946,12.938088291933328,-0.4984636593928133,37.32013396851664
2.0347202615048366e6,195.89883721267395,10.291454581814753,-0.6020733306688654,195.62687069647
2.0347202615048366e6,10.663361447508017,8.634075407227872,0.628880229073179,6.209603513969549
2.0347202615048366e6,468.592912510887,29.266415266194578,0.25789237755772526,-467.6777979884706
2.0347202615048366e6,525.9593567080881,26.40519387818861,0.11555921821230265,525.2959089294613
2.0347202615048366e6,16.780219022209412,14.837742438870674,-0.5253206468908743,-7.806140844855675
2.0347202615048366e6,21.329908192374596,8.774253919080582,-0.5146192819953583,-19.42954620092671
2.0347202615048366e6,184.3047423591124,26.591555877215413,0.5242363466658969,-182.37501757439608
2.0347202615048366e6,8.459069847663772,8.049448229116287,-0.08740374260358391,2.55915091405899
2.0347202615048366e6,86.46553426825294,13.616860947241626,-0.13448201970494955,85.3852813765054
2.0347202615048366e6,31.892253626547053,25.395794986344153,-0.41906816030143396,-19.281817009538322
2.0347202615048366e6,637.4797224437663,8.509828418206679,0.19254209129198466,637.4227301577325
2.0347202615048366e6,242.76528171569828,7.321706514637077,0.4694322704251743,-242.65396947192124
2.0347202615048366e6,40.1521379100061,7.622255442654202,-0.07853266843075686,-39.41933383825487
2.0347202615048366e6,54.401957581020994,25.175842400358885,-0.505600000373854,-48.2212501252284
2.0347202615048366e6,44.157703041986196,10.788723422887273,0.3695178103562367,-42.815467863346186
2.0347202615048366e6,21.6489336479873,21.41808295575221,-0.37919830378769664,3.097241702321078
2.0347202615048366e6,27.834451622502126,13.488481594377934,0.7724822977240734,24.33136821931641
2.0347202615048366e6,35.36172316427266,3.2560445542548804,-0.10747464432539218,-35.208418526382445
2.0347202615048366e6,45.32277770924999,8.278124957611503,0.30563542467025,-44.55702032650035
2.0347202615048366e6,126.18213696285437,7.489514157715075,-0.2689243170080854,-125.95856935050654
2.0347202615048366e6,30.270198664989042,29.108088349236326,-0.5084906809291806,-8.278901135965093
2.0347202615048366e6,253.74611694061207,38.64987642897126,-0.10116657855092953,-250.78489453455552
