8.765108610861087e6,283.0312194824219,-11.861244201660156,35.38784408569336,280.5595397949219
8.765108610861087e6,13.150086402893066,4.993204593658447,3.5625717639923096,-11.630525588989258
8.765108610861087e6,46.5902099609375,7.531856536865234,38.4842414855957,-25.156518936157227
8.765108610861087e6,104.47393798828125,-29.181339263916016,-37.71298599243164,92.95672607421875
8.765108610861087e6,42.28693771362305,11.523062705993652,5.995392799377441,40.24211502075195
8.765108610861087e6,41.492347717285156,-12.726749420166016,-25.191064834594727,-30.41419792175293
8.765108610861087e6,121.54527282714844,-32.488468170166016,-8.55858039855957,-116.80955505371094
8.765108610861087e6,46.676517486572266,-42.38025665283203,6.554748058319092,18.428646087646484
8.765108610861087e6,58.82743835449219,-31.714963912963867,39.69160842895508,29.65422821044922
8.765108610861087e6,115.20752716064453,14.960811614990234,-32.29777526855469,109.57084655761719
8.765108610861087e6,39.35356521606445,-20.79555320739746,-33.34393310546875,2.0972859859466553
8.765108610861087e6,626.0921020507812,35.951332092285156,-12.240997314453125,624.9391479492188
8.765108610861087e6,47.23464584350586,3.9971139430999756,-43.73617172241211,17.385356903076172
8.765108610861087e6,176.9798583984375,-9.4027099609375,4.021572589874268,176.68405151367188
8.765108610861087e6,32.78486633300781,-7.757238388061523,23.867717742919922,21.094385147094727
8.765108610861087e6,35.337677001953125,25.46467399597168,-22.84480857849121,8.853525161743164
8.765108610861087e6,119.54717254638672,29.94175910949707,-7.031746864318848,115.52290344238281
8.765108610861087e6,144.38467407226562,24.49924087524414,-33.261722564697266,138.34864807128906
8.765108610861087e6,70.37163543701172,11.43499755859375,35.489315032958984,-59.68153381347656
8.765108610861087e6,1754.310302734375,-28.470422744750977,27.192638397216797,1753.8685302734375
8.765108610861087e6,15.55027961730957,-6.9450459480285645,4.617927074432373,13.123286247253418
8.765108610861087e6,220.3756561279297,41.867916107177734,7.907455921173096,216.2173614501953
8.765108610861087e6,74.32264709472656,-16.936832427978516,30.87213706970215,-65.45134735107422
8.765108610861087e6,111.75621795654297,-41.71950912475586,47.25688171386719,92.28050231933594
8.765108610861087e6,1000.3111572265625,26.130590438842773,64.65061950683594,997.877685546875
8.765108610861087e6,741.5020751953125,38.72869873046875,-16.292558670043945,740.3107299804688
8.765108610861087e6,1006.6280517578125,42.301692962646484,11.697627067565918,-1005.6707763671875
8.765108610861087e6,27.79972267150879,-20.78216552734375,-3.413038969039917,18.145130157470703
8.765108610861087e6,588.4702758789062,-39.39086151123047,14.745357513427734,586.9652099609375
8.765108610861087e6,1495.2742919921875,-30.53899383544922,9.674043655395508,1494.9310302734375
8.765108610861087e6,53.67593002319336,40.75813293457031,-33.230220794677734,-10.751789093017578
8.765108610861087e6,26.392797470092773,-24.70796775817871,-2.5840306282043457,8.909953117370605
8.765108610861087e6,139.3449249267578,3.5501010417938232,-21.508934020996094,-137.62899780273438
8.765108610861087e6,954.5101928710938,-9.682594299316406,23.27879524230957,-954.1771850585938
8.765108610861087e6,45.64713668823242,29.63933563232422,-7.583006858825684,-33.876792907714844
8.765108610861087e6,262.2149963378906,5.92564058303833,36.90353775024414,-259.5374450683594
8.765108610861087e6,59.09172821044922,18.488996505737305,-16.12866973876953,53.757083892822266
8.765108610861087e6,88.47345733642578,9.196576118469238,35.116455078125,-80.68319702148438
8.765108610861087e6,208.93194580078125,-2.075716972351074,40.26264572143555,-205.00521850585938
8.765108610861087e6,121.72900390625,-33.10868835449219,9.129732131958008,-116.78347778320312
8.765108610861087e6,1098.2852783203125,32.865081787109375,-13.450226783752441,1097.7110595703125
8.765108610861087e6,49.42753982543945,-7.806501388549805,-28.374399185180664,-39.71148681640625
8.765108610861087e6,1806.1700439453125,23.0122013092041,-31.424835205078125,1805.75
8.765108610861087e6,115.6621322631836,-27.96648597717285,20.424942016601562,110.35576629638672
8.765108610861087e6,21.046123504638672,0.6776415109634399,9.113369941711426,-18.95771598815918
8.765108610861087e6,110.00482177734375,16.62596893310547,-13.384771347045898,-107.91410064697266
8.765108610861087e6,53.15385818481445,11.460972785949707,-35.07603073120117,38.25727844238281
8.765108610861087e6,82.5229263305664,-12.020674705505371,23.56829833984375,-78.166748046875
8.765108610861087e6,25.817346572875977,-24.550491333007812,5.260794639587402,-6.00842809677124
8.765108610861087e6,262.60418701171875,42.88833236694336,32.41010284423828,-257.0429992675781
8.765108610861087e6,16.230241775512695,-8.011540412902832,-2.304436445236206,13.924579620361328
8.765108610861087e6,1316.08349609375,-36.463863372802734,11.361786842346191,1315.5291748046875
8.765108610861087e6,23.517597198486328,3.48865008354187,15.937564849853516,-16.937210083007812
8.765108610861087e6,148.93463134765625,-23.40780258178711,29.881811141967773,144.01612854003906
8.765108610861087e6,43.742164611816406,-21.263004302978516,-17.85003089904785,33.802459716796875
8.765108610861087e6,93.19599151611328,-43.525299072265625,-19.255287170410156,80.12641906738281
8.765108610861087e6,495.0593566894531,-25.300931930541992,-21.243846893310547,-493.95574951171875
8.765108610861087e6,33.69573211669922,-2.377171754837036,-33.343902587890625,4.231318473815918
8.765108610861087e6,248.3311767578125,16.96918487548828,-17.796573638916016,247.1106414794922
8.765108610861087e6,70.4853515625,-43.657508850097656,0.15612195432186127,55.33669662475586
8.765108610861087e6,346.9331359863281,107.9100570678711,75.59249114990234,320.9419860839844
8.765108610861087e6,23.710268020629883,-15.641581535339355,-17.46629524230957,3.5234382152557373
8.765108610861087e6,312.2294921875,22.271404266357422,-27.023948669433594,310.2594299316406
8.765108610861087e6,127.96443939208984,30.176956176757812,-9.4933500289917,123.99231719970703
8.765108610861087e6,13.992327690124512,8.435481071472168,-5.084395885467529,-9.937061309814453
8.765108610861087e6,1107.718017578125,53.827110290527344,8.825254440307617,-1106.3741455078125
8.765108610861087e6,556.9827270507812,3.7739675045013428,-12.9724760055542,-556.8187866210938
8.765108610861087e6,84.05825805664062,6.6283392906188965,22.717308044433594,80.65821838378906
8.765108610861087e6,62.14289855957031,-33.88827133178711,21.463685989379883,47.46159744262695
8.765108610861087e6,34.8255729675293,-9.698135375976562,-16.264719009399414,-29.226594924926758
8.765108610861087e6,42.4923210144043,37.281978607177734,2.1807827949523926,20.26978302001953
8.765108610861087e6,65.16510772705078,7.93829345703125,-15.771197319030762,-62.72728729248047
8.765108610861087e6,61.39354705810547,14.457550048828125,0.7034301161766052,59.66255569458008
8.765108610861087e6,38.362030029296875,-24.072551727294922,5.657534122467041,-29.327775955200195
8.765108610861087e6,728.07421875,46.11096954345703,13.523307800292969,-726.4866943359375
8.765108610861087e6,15.260391235351562,-11.253227233886719,5.0543365478515625,-8.981452941894531
8.765108610861087e6,58.66530227661133,26.370784759521484,11.570586204528809,51.110557556152344
8.765108610861087e6,1036.152099609375,-33.26095962524414,32.20927047729492,-1035.1170654296875
8.765108610861087e6,78.93204498291016,12.584977149963379,33.125335693359375,-70.53060913085938
8.765108610861087e6,664.513427734375,-24.00238609313965,-1.3724921941757202,-664.0783081054688
8.765108610861087e6,177.199951171875,35.68406677246094,-13.702508926391602,173.02796936035156
8.765108610861087e6,42.26237106323242,38.44903564453125,-16.32575798034668,6.420101642608643
8.765108610861087e6,514.0035400390625,36.22197723388672,-67.9683609008789,508.20062255859375
8.765108610861087e6,14.131186485290527,-11.273283004760742,-4.06627082824707,7.485809803009033
8.765108610861087e6,2483.81494140625,1.6603249311447144,-36.009742736816406,-2483.55322265625
8.765108610861087e6,233.0330810546875,-28.36025619506836,-12.067182540893555,230.98583984375
8.765108610861087e6,324.8404235839844,45.7843017578125,-36.839195251464844,-319.4807434082031
8.765108610861087e6,1010.9382934570312,34.22633743286133,0.5117266178131104,1010.3585815429688
8.765108610861087e6,1252.3837890625,14.357449531555176,28.075740814208984,-1251.9866943359375
8.765108610861087e6,288.77728271484375,8.058250427246094,-18.535512924194336,288.0690612792969
8.765108610861087e6,154.2359161376953,-38.70156478881836,-13.868027687072754,148.65582275390625
8.765108610861087e6,110.3172836303711,-4.031174659729004,-44.524452209472656,100.85234069824219
8.765108610861087e6,995.0200805664062,33.76860427856445,1.7818795442581177,994.4453125
8.765108610861087e6,201.20472717285156,36.18935012817383,-4.8901190757751465,197.8629150390625
8.765108610861087e6,447.5324401855469,26.068567276000977,-15.529791831970215,-446.50250244140625
8.765108610861087e6,402.12396240234375,-18.62379264831543,31.601314544677734,-400.44744873046875
8.765108610861087e6,414.0631103515625,-24.925460815429688,-23.785383224487305,412.627197265625
8.765108610861087e6,35.15850067138672,-25.4092960357666,21.476045608520508,11.368195533752441
8.765108610861087e6,636.7421264648438,100.75165557861328,23.196142196655273,628.2925415039062
8.765108610861087e6,1025.6944580078125,11.072163581848145,-31.985023498535156,-1025.1358642578125
8.765108610861087e6,82.20960998535156,27.52799415588379,-7.971711158752441,-77.05225372314453
8.765108610861087e6,72.86211395263672,5.943209171295166,32.22713088989258,-65.07646942138672
8.765108610861087e6,1014.5111083984375,-20.82137680053711,-44.414249420166016,-1013.3245239257812
8.765108610861087e6,366.49700927734375,-2.4855563640594482,35.813907623291016,364.73443603515625
8.765108610861087e6,23.264890670776367,-1.6803600788116455,15.205554962158203,-17.526865005493164
8.765108610861087e6,850.1016235351562,4.614479064941406,-28.06508445739746,849.6256713867188
8.765108610861087e6,46.919105529785156,-22.477479934692383,30.129274368286133,-28.077760696411133
8.765108610861087e6,432.4540710449219,31.080089569091797,17.459177017211914,-430.98223876953125
8.765108610861087e6,221.20309448242188,-10.945018768310547,41.5773811340332,-216.9845733642578
8.765108610861087e6,49.28364944458008,-35.86575698852539,1.4827003479003906,-33.76826477050781
8.765108610861087e6,29.086421966552734,-7.0096235275268555,-25.861759185791016,11.314722061157227
8.765108610861087e6,106.88787078857422,30.99049186706543,13.134519577026367,-101.44979095458984
8.765108610861087e6,175.16500854492188,-21.05217170715332,2.26544451713562,173.8804931640625
8.765108610861087e6,45.983646392822266,37.77679443359375,0.8891046643257141,26.20281219482422
8.765108610861087e6,456.0331115722656,12.437314987182617,-41.59918212890625,453.96142578125
8.765108610861087e6,1649.5716552734375,-34.79464340209961,1.2903488874435425,-1649.2041015625
8.765108610861087e6,607.939453125,7.625616550445557,-37.002174377441406,606.764404296875
8.765108610861087e6,123.3232421875,2.7857377529144287,43.25909423828125,115.453369140625
8.765108610861087e6,187.61695861816406,-28.555166244506836,-19.172252655029297,184.4373016357422
8.765108610861087e6,1335.14501953125,-35.87358093261719,-34.22590637207031,-1334.2239990234375
8.765108610861087e6,147.13754272460938,-12.328149795532227,-18.84701156616211,-145.4036865234375
8.765108610861087e6,659.4190063476562,-30.24284553527832,-13.737825393676758,-658.5818481445312
8.765108610861087e6,43.42538833618164,31.756175994873047,13.7240629196167,26.2474422454834
8.765108610861087e6,78.07118225097656,2.5872652530670166,25.644012451171875,-73.6937484741211
8.765108610861087e6,37.366275787353516,-10.148975372314453,-1.3099395036697388,35.937294006347656
8.765108610861087e6,90.89396667480469,4.268013000488281,-35.58501052856445,-83.52947235107422
8.765108610861087e6,63.76095199584961,-4.48616361618042,22.340421676635742,59.5500373840332
8.765108610861087e6,109.02771759033203,37.46931076049805,-35.292510986328125,96.11192321777344
8.765108610861087e6,411.521484375,9.592040061950684,-37.755218505859375,-409.6735534667969
8.765108610861087e6,31.218862533569336,-4.698910236358643,-12.770462989807129,28.096641540527344
8.765108610861087e6,33.43622589111328,31.06368064880371,12.364974975585938,-0.3237312138080597
8.765108610861087e6,2107.687744140625,22.822956085205078,-6.20339822769165,-2107.55517578125
8.765108610861087e6,78.58334350585938,-11.070699691772461,-35.107276916503906,69.42786407470703
8.765108610861087e6,1496.9849853515625,6.625548362731934,-27.423240661621094,-1496.7191162109375
8.765108610861087e6,342.8661804199219,-30.03892707824707,40.92128372192383,-339.08746337890625
8.765108610861087e6,529.2080078125,-0.7801017761230469,90.1277847290039,-521.4762573242188
8.765108610861087e6,1240.9744873046875,-12.735644340515137,12.656861305236816,1240.8446044921875
8.765108610861087e6,287.37615966796875,2.8562657833099365,-7.514930725097656,-287.2636413574219
8.765108610861087e6,195.8583526611328,32.46125793457031,9.1768798828125,-192.93136596679688
8.765108610861087e6,40.71925354003906,-38.043853759765625,-13.452017784118652,5.452946186065674
8.765108610861087e6,454.3748779296875,-25.895170211791992,-6.893256664276123,453.5839538574219
8.765108610861087e6,170.7095184326172,-33.759796142578125,16.07593536376953,166.56394958496094
8.765108610861087e6,486.8461608886719,-25.511253356933594,-24.976806640625,-485.5352783203125
8.765108610861087e6,39.14558410644531,-25.723716735839844,-29.362350463867188,2.913382053375244
8.765108610861087e6,192.32249450683594,7.097723960876465,-35.737483978271484,-188.8395233154297
8.765108610861087e6,930.4071655273438,10.417394638061523,-36.12981414794922,-929.6470336914062
8.765108610861087e6,27.671585083007812,-19.539573669433594,19.455364227294922,2.3192312717437744
8.765108610861087e6,77.53960418701172,38.28860092163086,-11.358149528503418,66.46302032470703
8.765108610861087e6,43.1252326965332,-23.732675552368164,4.40193510055542,35.737056732177734
8.765108610861087e6,183.88442993164062,7.12432336807251,-33.070865631103516,-180.74571228027344
8.765108610861087e6,48.30451965332031,21.34127426147461,-29.40163230895996,31.833772659301758
8.765108610861087e6,208.9425506591797,-10.315598487854004,-26.227449417114258,207.0330047607422
8.765108610861087e6,52.68844223022461,22.80813217163086,-38.22392272949219,-28.191509246826172
8.765108610861087e6,77.74066925048828,14.527767181396484,-39.06219482421875,65.6252212524414
8.765108610861087e6,89.54890441894531,-7.361703395843506,-39.602073669433594,-79.97784423828125
8.765108610861087e6,21.270780563354492,-18.501039505004883,9.118544578552246,-5.1940460205078125
8.765108610861087e6,302.8880615234375,-18.587797164916992,-32.50841522216797,300.564208984375
8.765108610861087e6,108.93962860107422,6.220666408538818,4.109866619110107,108.68405151367188
8.765108610861087e6,144.68069458007812,-4.577146530151367,-18.091144561767578,143.4720458984375
8.765108610861087e6,224.3722686767578,11.572044372558594,-27.465837478637695,222.38389587402344
8.765108610861087e6,394.5251159667969,-7.437731742858887,38.036319732666016,392.6168212890625
8.765108610861087e6,187.34405517578125,2.835073709487915,-35.279151916503906,-183.97039794921875
8.765108610861087e6,49.54684066772461,-30.610082626342773,28.725318908691406,26.319889068603516
8.765108610861087e6,22.324554443359375,13.480377197265625,-6.911856651306152,-16.396944046020508
8.765108610861087e6,106.64181518554688,32.52598190307617,-5.902986526489258,101.38865661621094
8.765108610861087e6,150.01380920410156,-28.85322380065918,18.06423568725586,-146.10025024414062
8.765108610861087e6,1242.7132568359375,11.643528938293457,25.480484008789062,1242.3974609375
8.765108610861087e6,45.87548065185547,32.210872650146484,21.891359329223633,24.24368667602539
8.765108610861087e6,3309.73095703125,-19.443777084350586,-34.83934783935547,-3309.490234375
8.765108610861087e6,261.3712463378906,-18.96368408203125,-20.879125595092773,-259.8448181152344
8.765108610861087e6,56.59267807006836,-6.564043045043945,-13.022138595581055,-54.68122863769531
8.765108610861087e6,65.17716979980469,27.227506637573242,-27.754871368408203,-52.31024169921875
8.765108610861087e6,74.62796783447266,-7.980690002441406,1.5400501489639282,-74.1838150024414
8.765108610861087e6,56.43997573852539,-31.143081665039062,-16.42528533935547,-44.11074447631836
8.765108610861087e6,52.35756301879883,-6.392921447753906,-31.628751754760742,-41.231483459472656
8.765108610861087e6,574.478271484375,-21.96808624267578,4.947132587432861,574.0367431640625
8.765108610861087e6,54.33298873901367,5.963752269744873,-37.74059295654297,-38.62800979614258
8.765108610861087e6,180.1694793701172,-25.52871322631836,-18.07415008544922,177.4334259033203
8.765108610861087e6,555.7344360351562,-28.79324722290039,37.08818435668945,-553.7473754882812
8.765108610861087e6,81.15128326416016,13.557621955871582,40.44157791137695,69.03744506835938
8.765108610861087e6,56.95341110229492,25.106149673461914,2.1093666553497314,51.077308654785156
8.765108610861087e6,310.046142578125,31.708209991455078,27.840206146240234,307.1613464355469
8.765108610861087e6,691.5244750976562,54.320125579833984,2.7292189598083496,-689.3822631835938
8.765108610861087e6,5.404158592224121,3.477440595626831,3.2991387844085693,-2.4892566204071045
8.765108610861087e6,148.552490234375,15.815966606140137,-42.69753646850586,-141.40220642089844
8.765108610861087e6,106.4206314086914,21.740245819091797,-24.63332748413086,101.22193908691406
8.765108610861087e6,45.68312072753906,37.692543029785156,-25.582277297973633,3.425684928894043
8.765108610861087e6,67.74647521972656,-13.32013988494873,-27.04389762878418,60.66922378540039
8.765108610861087e6,346.93756103515625,-26.565765380859375,-23.13616180419922,-345.1443176269531
8.765108610861087e6,102.9725112915039,-18.587356567382812,25.719892501831055,-97.96072387695312
8.765108610861087e6,156.4658966064453,20.389787673950195,-5.3974714279174805,155.03762817382812
8.765108610861087e6,424.69061279296875,-34.078651428222656,2.363284111022949,-423.3144836425781
8.765108610861087e6,56.138431549072266,7.544132709503174,-22.38638687133789,50.92570877075195
8.765108610861087e6,49.39667892456055,-47.21955871582031,11.795987129211426,8.43613052368164
8.765108610861087e6,39.048038482666016,-4.839573383331299,38.690242767333984,-2.088409900665283
8.765108610861087e6,62.10154342651367,3.506061553955078,61.48189926147461,8.015825271606445
8.765108610861087e6,476.0873107910156,-29.05725860595703,-13.987090110778809,474.99383544921875
8.765108610861087e6,32.902767181396484,31.055877685546875,6.052473545074463,-9.025550842285156
8.765108610861087e6,44.835025787353516,-20.713457107543945,37.49174499511719,-13.246485710144043
8.765108610861087e6,41.12461471557617,-10.496204376220703,5.089041709899902,-39.435184478759766
8.765108610861087e6,72.63465881347656,9.417448997497559,35.06634521484375,62.9080696105957
8.765108610861087e6,129.58697509765625,-15.744368553161621,-29.88511848449707,125.10694122314453
8.765108610861087e6,38.379703521728516,29.313810348510742,22.031614303588867,11.326013565063477
8.765108610861087e6,75.70248413085938,-43.3964729309082,14.998063087463379,-60.188358306884766
8.765108610861087e6,1144.199951171875,46.2777099609375,12.401339530944824,-1143.1964111328125
8.765108610861087e6,126.658203125,4.48366117477417,-31.022480010986328,122.71826171875
8.765108610861087e6,54.19133377075195,-42.57612991333008,8.411470413208008,-32.452884674072266
8.765108610861087e6,242.75938415527344,17.039758682250977,29.669824600219727,240.33607482910156
8.765108610861087e6,3.977262258529663,3.3937599658966064,0.20865964889526367,2.0556862354278564
8.765108610861087e6,705.2081909179688,10.270904541015625,77.94345092773438,-700.812255859375
8.765108610861087e6,877.3477172851562,-13.576004981994629,-28.25197982788086,-876.78759765625
8.765108610861087e6,72.84819030761719,-29.023828506469727,20.99953842163086,-63.430782318115234
8.765108610861087e6,87.22367858886719,17.48713493347168,25.883499145507812,-81.43821716308594
8.765108610861087e6,1106.14697265625,13.739859580993652,-13.923026084899902,1105.9739990234375
8.765108610861087e6,35.459503173828125,20.65904426574707,24.401308059692383,-15.333778381347656
8.765108610861087e6,854.2261962890625,29.151622772216797,-5.565206050872803,-853.7105102539062
8.765108610861087e6,25.492504119873047,-17.31412124633789,-15.053478240966797,-11.11081600189209
8.765108610861087e6,1180.346435546875,-1.9245465993881226,-7.074466228485107,1180.3236083984375
8.765108610861087e6,13.673172950744629,-5.775858402252197,10.93355655670166,5.832737922668457
8.765108610861087e6,302.49072265625,41.96434020996094,-2.1153180599212646,-299.5582275390625
8.765108610861087e6,123.72716522216797,18.545120239257812,31.793039321899414,-118.12561798095703
8.765108610861087e6,76.69962310791016,23.012428283691406,-45.10184097290039,-57.61122131347656
8.765108610861087e6,787.623779296875,5.310822010040283,40.4369010925293,786.567138671875
8.765108610861087e6,184.36148071289062,-5.969040393829346,-42.097900390625,179.39137268066406
8.765108610861087e6,73.85394287109375,-7.922333717346191,48.4418830871582,55.18146896362305
8.765108610861087e6,76.1776123046875,6.935111045837402,15.13730239868164,74.33547973632812
8.765108610861087e6,1029.4652099609375,22.99654769897461,-7.072744846343994,1029.1839599609375
8.765108610861087e6,448.35198974609375,5.330517768859863,-9.832167625427246,448.21246337890625
8.765108610861087e6,74.9704360961914,-10.861868858337402,-20.705028533935547,-71.23101043701172
8.765108610861087e6,133.3905029296875,20.576101303100586,-6.73884916305542,131.62144470214844
8.765108610861087e6,36.2481689453125,-25.187477111816406,-25.552350997924805,5.1542840003967285
8.765108610861087e6,45.5376091003418,-1.5996514558792114,-39.99830627441406,21.70757293701172
8.765108610861087e6,531.93603515625,39.164649963378906,2.4439330101013184,-530.4866333007812
8.765108610861087e6,667.8685913085938,17.184005737304688,-36.4154052734375,-666.6536254882812
8.765108610861087e6,95.79389190673828,10.630264282226562,-10.773427963256836,-94.59053802490234
8.765108610861087e6,7.967641353607178,4.317507743835449,6.688444137573242,-0.2748238444328308
8.765108610861087e6,26.405378341674805,14.509358406066895,10.843280792236328,19.212345123291016
8.765108610861087e6,326.2763671875,4.037289619445801,-39.38388442993164,323.865478515625
8.765108610861087e6,17.195842742919922,-0.4356026351451874,0.4070400297641754,-17.184585571289062
8.765108610861087e6,56.32313919067383,12.435153007507324,15.33315658569336,52.74964904785156
8.765108610861087e6,537.7107543945312,-28.985736846923828,-12.406280517578125,536.7855834960938
8.765108610861087e6,82.29946899414062,-31.97203826904297,16.612686157226562,-73.99310302734375
8.765108610861087e6,48.172119140625,11.825248718261719,37.630943298339844,27.651348114013672
8.765108610861087e6,253.13980102539062,-21.075090408325195,-1.2498550415039062,-252.2578125
8.765108610861087e6,57.58781433105469,9.031678199768066,-47.885353088378906,-30.687885284423828
8.765108610861087e6,120.15074920654297,11.60311222076416,-1.7786402702331543,-119.57581329345703
8.765108610861087e6,14.56169319152832,12.608192443847656,-0.5838946104049683,7.259740829467773
8.765108610861087e6,180.74566650390625,-1.1591020822525024,-23.807926177978516,-179.16697692871094
8.765108610861087e6,3478.07861328125,-14.105721473693848,-21.235107421875,-3477.985107421875
8.765108610861087e6,61.4609489440918,-45.08399963378906,-1.7168103456497192,41.73609924316406
8.765108610861087e6,255.6692352294922,-11.4452486038208,31.776283264160156,253.42849731445312
8.765108610861087e6,106.0943603515625,-19.793123245239258,-21.736106872558594,-101.93995666503906
8.765108610861087e6,76.60800170898438,-16.710851669311523,-35.57194519042969,-65.7581787109375
8.765108610861087e6,692.97265625,-25.0906982421875,18.483022689819336,692.2715454101562
8.765108610861087e6,585.0252685546875,13.172947883605957,-12.543646812438965,584.7423706054688
8.765108610861087e6,145.44281005859375,-34.73958969116211,-23.722572326660156,-139.2263641357422
8.765108610861087e6,52.34296798706055,-51.362083435058594,1.0928715467453003,-10.024815559387207
8.765108610861087e6,23.544870376586914,5.8373026847839355,20.477210998535156,10.046839714050293
8.765108610861087e6,17.583711624145508,8.28409194946289,6.649161338806152,14.011343955993652
8.765108610861087e6,115.66603088378906,0.5072078108787537,-7.982883930206299,115.38897705078125
8.765108610861087e6,1704.7762451171875,-0.17340116202831268,-4.178916931152344,-1704.7711181640625
8.765108610861087e6,945.9307250976562,31.458158493041992,-41.94218826293945,-944.4766235351562
8.765108610861087e6,48.7126350402832,30.329057693481445,18.26292610168457,-33.45897674560547
8.765108610861087e6,176.345703125,-24.399044036865234,-16.986591339111328,-173.82150268554688
8.765108610861087e6,50.65568923950195,45.25023651123047,12.705666542053223,-18.893104553222656
8.765108610861087e6,52.35270690917969,-8.412220001220703,-20.96559715270996,-47.22766876220703
8.765108610861087e6,37.572486877441406,1.948018193244934,-19.211854934692383,-32.22995376586914
8.765108610861087e6,307.5138854980469,20.11932373046875,38.43171310424805,304.43878173828125
8.765108610861087e6,458.6937561035156,-4.320570945739746,22.856359481811523,-458.1035461425781
8.765108610861087e6,39.09148025512695,-34.84857177734375,15.853652000427246,7.896266460418701
8.765108610861087e6,52.687984466552734,-14.573057174682617,-6.618449687957764,50.197750091552734
8.765108610861087e6,352.140869140625,34.580020904541016,1.9937138557434082,-350.4331970214844
8.765108610861087e6,38.49863815307617,-34.61544418334961,-6.617133140563965,-15.495100021362305
8.765108610861087e6,472.1944580078125,19.936391830444336,-36.892948150634766,470.3286437988281
8.765108610861087e6,600.1519775390625,36.93700408935547,-28.11543846130371,598.35400390625
8.765108610861087e6,28.757598876953125,22.792619705200195,10.824414253234863,-13.79479694366455
8.765108610861087e6,477.6930847167969,-13.26279067993164,-29.311134338378906,-476.6084289550781
8.765108610861087e6,1208.669921875,9.277338027954102,11.944987297058105,1208.5753173828125
8.765108610861087e6,437.7137756347656,-15.281189918518066,23.214563369750977,436.83050537109375
8.765108610861087e6,2099.61279296875,8.189414978027344,5.6628570556640625,2099.589111328125
8.765108610861087e6,329.7882080078125,-38.0345573425293,9.099737167358398,327.46112060546875
8.765108610861087e6,27.51088523864746,14.288004875183105,-7.666677474975586,22.223684310913086
8.765108610861087e6,71.06214904785156,19.757638931274414,26.550596237182617,-62.88480758666992
8.765108610861087e6,102.13211822509766,-1.7621634006500244,31.164791107177734,97.2449951171875
8.765108610861087e6,71.62113952636719,56.77531814575195,42.87862014770508,8.21845531463623
8.765108610861087e6,54.21898651123047,38.92392349243164,-0.7844240665435791,-37.735660552978516
8.765108610861087e6,51.36557388305664,-3.0870413780212402,-50.61473846435547,8.185893058776855
8.765108610861087e6,80.42376708984375,-16.69597053527832,10.260583877563477,77.99945831298828
8.765108610861087e6,37.98591232299805,0.2475547343492508,11.772697448730469,-36.11426544189453
8.765108610861087e6,95.3376235961914,-31.10973358154297,18.12594223022461,88.27720642089844
8.765108610861087e6,77.18917846679688,-14.632306098937988,-11.362480163574219,74.93282318115234
8.765108610861087e6,311.42926025390625,-10.276824951171875,28.82817268371582,309.9217224121094
8.765108610861087e6,64.57637023925781,-45.484580993652344,45.578369140625,4.882675647735596
8.765108610861087e6,169.3272705078125,-39.141357421875,27.21165657043457,162.4782257080078
8.765108610861087e6,391.4964294433594,21.067651748657227,-40.32389450073242,-388.8438720703125
8.765108610861087e6,510.4220275878906,-40.202171325683594,-5.112371444702148,508.8106384277344
8.765108610861087e6,101.33735656738281,44.67440414428711,-16.73467445373535,-89.40568542480469
8.765108610861087e6,254.56822204589844,5.999202251434326,1.5677928924560547,254.4926300048828
8.765108610861087e6,402.8999328613281,18.59931182861328,-14.303142547607422,-402.21612548828125
8.765108610861087e6,60.0993537902832,18.687952041625977,-25.5338077545166,51.09486770629883
8.765108610861087e6,795.9681396484375,31.93099594116211,13.281009674072266,795.2164916992188
8.765108610861087e6,81.82292938232422,3.148026466369629,-39.164676666259766,71.7717056274414
8.765108610861087e6,434.3062744140625,-31.329011917114258,3.3241896629333496,433.16204833984375
8.765108610861087e6,35.06599807739258,-19.950651168823242,22.26995086669922,-18.319753646850586
8.765108610861087e6,229.13648986816406,-0.9856213927268982,-35.51666259765625,-226.36495971679688
8.765108610861087e6,390.82470703125,-25.21324920654297,23.79572868347168,-389.283935546875
8.765108610861087e6,69.32586669921875,16.218101501464844,-20.18602752685547,64.30818176269531
8.765108610861087e6,83.0826187133789,-22.244848251342773,-44.9863166809082,66.21244812011719
8.765108610861087e6,37.80625915527344,-35.83047103881836,0.28933587670326233,-12.057168960571289
8.765108610861087e6,78.16779327392578,-2.6763155460357666,28.558834075927734,72.71453094482422
8.765108610861087e6,83.98392486572266,20.731164932250977,-37.496063232421875,72.23248291015625
8.765108610861087e6,80.93647766113281,-41.41661834716797,-37.702518463134766,58.42829895019531
8.765108610861087e6,30.449039459228516,28.40469741821289,10.460683822631836,-3.295400619506836
8.765108610861087e6,267.98638916015625,34.977500915527344,9.466429710388184,-265.52520751953125
8.765108610861087e6,781.3755493164062,14.671221733093262,-35.53730773925781,-780.4291381835938
8.765108610861087e6,131.94735717773438,20.687950134277344,-13.224313735961914,129.642578125
8.765108610861087e6,62.62480163574219,-43.38576126098633,-27.509357452392578,35.815425872802734
8.765108610861087e6,72.49604797363281,15.46750545501709,1.1576204299926758,70.81709289550781
8.765108610861087e6,196.6808624267578,-21.34796142578125,-15.474469184875488,194.90545654296875
8.765108610861087e6,27.774246215820312,-23.21198272705078,-7.32739782333374,-13.374987602233887
8.765108610861087e6,38.213558197021484,2.4238202571868896,-29.53974723815918,24.119970321655273
8.765108610861087e6,535.0203857421875,-32.279964447021484,14.363819122314453,533.8524780273438
8.765108610861087e6,844.1927490234375,9.95482063293457,9.830145835876465,844.0767822265625
8.765108610861087e6,138.52996826171875,17.9408016204834,-8.022603034973145,137.1287078857422
8.765108610861087e6,66.65960693359375,24.940689086914062,-33.14102554321289,-52.183387756347656
8.765108610861087e6,57.65386199951172,36.106529235839844,14.174896240234375,-42.65357208251953
8.765108610861087e6,399.53778076171875,23.55515480041504,-19.705202102661133,398.355712890625
8.765108610861087e6,79.7962417602539,12.649869918823242,8.330838203430176,78.34530639648438
8.765108610861087e6,19.86376953125,18.644975662231445,-3.7817513942718506,-5.709723949432373
8.765108610861087e6,2150.1025390625,13.240988731384277,-11.260866165161133,2150.0322265625
8.765108610861087e6,25.06988525390625,1.8405649662017822,17.287755966186523,-18.061376571655273
8.765108610861087e6,278.8404235839844,23.66998291015625,11.811309814453125,277.5827331542969
8.765108610861087e6,6.424277305603027,1.2803272008895874,1.7114431858062744,6.055694580078125
8.765108610861087e6,306.62713623046875,34.847225189208984,34.69197463989258,302.65875244140625
8.765108610861087e6,35.64109420776367,13.686821937561035,-9.45604133605957,31.519996643066406
8.765108610861087e6,20.580341339111328,18.745616912841797,2.2393927574157715,8.191811561584473
8.765108610861087e6,1218.2535400390625,-21.190465927124023,-84.46250915527344,-1215.1373291015625
8.765108610861087e6,449.7667236328125,2.821808338165283,41.618003845214844,447.8281555175781
8.765108610861087e6,31.3332576751709,-16.855287551879883,-17.340974807739258,19.92313575744629
8.765108610861087e6,155.642822265625,23.640403747558594,6.232845783233643,153.7105712890625
8.765108610861087e6,638.089111328125,34.21271896362305,12.87379264831543,-637.0411376953125
8.765108610861087e6,500.2295227050781,29.353572845458984,-0.5803021788597107,-499.3671875
8.765108610861087e6,53.19867706298828,47.13814163208008,9.910921096801758,22.579565048217773
8.765108610861087e6,790.4689331054688,2.0441107749938965,33.79300308227539,789.7435913085938
8.765108610861087e6,803.8521118164062,-18.136938095092773,-20.898040771484375,-803.375732421875
8.765108610861087e6,331.19464111328125,-15.53927230834961,24.01009750366211,329.9574279785156
8.765108610861087e6,41.734554290771484,36.56427001953125,-6.436171054840088,19.062299728393555
8.765108610861087e6,40.430145263671875,33.0228157043457,-13.406790733337402,-19.087085723876953
8.765108610861087e6,28.539379119873047,-4.244814395904541,-25.202417373657227,12.699773788452148
8.765108610861087e6,141.58859252929688,-37.810726165771484,-23.9298038482666,134.33172607421875
8.765108610861087e6,35.01935958862305,20.588773727416992,1.6061992645263672,-28.281558990478516
8.765108610861087e6,128.63833618164062,-35.192665100097656,-27.499767303466797,120.63593292236328
8.765108610861087e6,58.544803619384766,36.508731842041016,-18.958850860595703,41.65497589111328
8.765108610861087e6,629.2428588867188,-38.589229583740234,-18.857946395874023,627.7752685546875
8.765108610861087e6,83.56275939941406,32.349510192871094,8.843548774719238,-76.53760528564453
8.765108610861087e6,2582.87939453125,35.73835372924805,-9.43690299987793,2582.61474609375
8.765108610861087e6,39.549034118652344,18.765592575073242,-4.953950881958008,-34.45874786376953
8.765108610861087e6,82.11254119873047,-28.388933181762695,-22.981752395629883,-73.54145050048828
8.765108610861087e6,27.563112258911133,-25.14495849609375,10.544589042663574,-4.029430866241455
8.765108610861087e6,32.63435745239258,-22.28311538696289,21.13727378845215,11.029419898986816
8.765108610861087e6,258.02130126953125,48.2787971496582,131.9647674560547,216.4010467529297
8.765108610861087e6,797.9998779296875,-12.218467712402344,44.136043548583984,796.6846923828125
8.765108610861087e6,182.84085083007812,-44.980716705322266,-11.419182777404785,-176.85328674316406
8.765108610861087e6,127.83032989501953,-11.986958503723145,-35.756385803222656,122.1407241821289
8.765108610861087e6,88.9334945678711,38.6135139465332,-1.6085686683654785,-80.09709167480469
8.765108610861087e6,19.002676010131836,17.144695281982422,-6.766538619995117,-4.619895935058594
8.765108610861087e6,68.25818634033203,-1.2325563430786133,-29.540393829345703,-61.52231216430664
8.765108610861087e6,562.2783813476562,-34.62273406982422,-27.25208854675293,560.54931640625
8.765108610861087e6,258.1767578125,-5.910223007202148,-31.429780960083008,-256.18829345703125
8.765108610861087e6,88.77042388916016,29.449077606201172,21.37771224975586,-80.96852111816406
8.765108610861087e6,111.78106689453125,33.60234832763672,11.978103637695312,105.93574523925781
8.765108610861087e6,19.907615661621094,-15.747390747070312,-11.402262687683105,-4.276638031005859
8.765108610861087e6,1177.3214111328125,26.575685501098633,-36.65769958496094,1176.450439453125
8.765108610861087e6,57.43925857543945,-16.148828506469727,-14.238442420959473,53.25146484375
8.765108610861087e6,623.5726318359375,-29.341115951538086,-13.49129867553711,622.7357788085938
8.765108610861087e6,357.13214111328125,11.81021785736084,25.320152282714844,356.0375671386719
8.765108610861087e6,140.29527282714844,-25.321163177490234,38.642967224121094,132.469970703125
8.765108610861087e6,619.2980346679688,31.33277130126953,36.09149932861328,-617.450927734375
8.765108610861087e6,38.02474594116211,-24.993488311767578,1.9702222347259521,-28.58834457397461
8.765108610861087e6,448.39715576171875,35.54001235961914,-4.330816268920898,-446.9654541015625
8.765108610861087e6,34.687068939208984,2.132707118988037,-34.55897903442383,-2.0711421966552734
8.765108610861087e6,269.4435119628906,35.94645690917969,-14.718996047973633,266.62890625
8.765108610861087e6,91.63268280029297,-7.622877597808838,18.7913761138916,89.36046600341797
8.765108610861087e6,174.95986938476562,3.011691093444824,-10.941934585571289,174.59132385253906
8.765108610861087e6,59.84121322631836,-0.4660361111164093,43.24478530883789,41.35953140258789
8.765108610861087e6,153.33889770507812,-8.41916561126709,-21.386398315429688,151.6064910888672
8.765108610861087e6,45.424320220947266,3.725405693054199,-16.953746795654297,-41.97652816772461
8.765108610861087e6,145.56619262695312,-38.6829833984375,15.633634567260742,139.45860290527344
8.765108610861087e6,236.22447204589844,22.78261375427246,19.9971866607666,234.2712860107422
8.765108610861087e6,46.03272247314453,13.251909255981445,-10.305333137512207,-42.8621826171875
8.765108610861087e6,150.82476806640625,-22.847063064575195,-20.678512573242188,-147.64312744140625
8.765108610861087e6,441.33978271484375,-7.456008434295654,-62.30410385131836,436.8562316894531
8.765108610861087e6,98.84163665771484,-33.387977600097656,39.36969757080078,84.29061126708984
8.765108610861087e6,188.72671508789062,-27.187461853027344,3.6492667198181152,186.72242736816406
8.765108610861087e6,107.99334716796875,-21.201501846313477,-22.69338035583496,103.43132781982422
8.765108610861087e6,261.11688232421875,-14.392843246459961,26.453142166137695,259.3743591308594
8.765108610861087e6,41.351966857910156,-38.7764892578125,-12.701468467712402,-6.708955764770508
8.765108610861087e6,622.9921264648438,5.684432506561279,7.362335205078125,-622.9226684570312
8.765108610861087e6,590.7024536132812,24.827857971191406,-12.398345947265625,-590.0502319335938
8.765108610861087e6,51.16368103027344,16.583362579345703,6.835221767425537,47.916202545166016
8.765108610861087e6,136.82061767578125,38.73970031738281,-19.95383644104004,-129.69552612304688
8.765108610861087e6,44.08469772338867,20.21628189086914,2.890961170196533,-39.068824768066406
8.765108610861087e6,71.25237274169922,15.964692115783691,-44.8494873046875,-53.014347076416016
8.765108610861087e6,38.57370376586914,-16.518878936767578,34.85565185546875,0.33048108220100403
8.765108610861087e6,64.40460968017578,-54.5186653137207,15.524235725402832,-30.571809768676758
8.765108610861087e6,33.32356262207031,12.72106647491455,-30.626449584960938,-3.259326457977295
8.765108610861087e6,141.2847442626953,-45.55885314941406,29.344614028930664,-130.4784698486328
8.765108610861087e6,71.45762634277344,-20.373703002929688,5.961694717407227,68.23145294189453
8.765108610861087e6,59.331443786621094,36.208492279052734,17.964139938354492,-43.4329719543457
8.765108610861087e6,269.93377685546875,8.096019744873047,16.81215476989746,269.2879638671875
8.765108610861087e6,96.7787094116211,-28.80033302307129,-9.257140159606934,91.928955078125
8.765108610861087e6,52.24867248535156,17.15045928955078,-49.02119827270508,-5.716294765472412
8.765108610861087e6,34.7066764831543,-12.959794044494629,18.36970329284668,26.440868377685547
8.765108610861087e6,54.09403991699219,-13.288333892822266,29.10246467590332,-43.618804931640625
8.765108610861087e6,91.750732421875,20.924591064453125,-29.47241973876953,-84.3309097290039
8.765108610861087e6,18.026460647583008,-0.20047160983085632,-9.288189888000488,-15.447039604187012
8.765108610861087e6,150.9442596435547,-86.94633483886719,45.62675857543945,114.64148712158203
8.765108610861087e6,975.9561157226562,9.816375732421875,56.15720748901367,974.2896728515625
8.765108610861087e6,40.11476135253906,-28.554859161376953,-27.970943450927734,3.3776915073394775
8.765108610861087e6,172.64697265625,36.20600891113281,-20.94585609436035,-167.5032501220703
8.765108610861087e6,53.9642333984375,30.410274505615234,14.718876838684082,-42.079410552978516
8.765108610861087e6,42.1425895690918,17.482589721679688,-27.00287437438965,27.224437713623047
8.765108610861087e6,24.47946548461914,7.580327033996582,22.876264572143555,4.292763710021973
8.765108610861087e6,50.4356689453125,-21.079708099365234,-3.3902270793914795,45.693294525146484
8.765108610861087e6,1.2232301235198975,1.0880802869796753,0.519364595413208,0.10493310540914536
8.765108610861087e6,691.6112670898438,-34.39927673339844,-27.71027946472168,-690.19921875
8.765108610861087e6,611.7151489257812,-5.461203575134277,-30.568994522094727,610.9264526367188
8.765108610861087e6,466.692138671875,10.921435356140137,12.214128494262695,-466.4044189453125
8.765108610861087e6,88.9839859008789,6.990992546081543,25.1502742767334,85.06884002685547
8.765108610861087e6,41.6970329284668,-5.119389533996582,-41.07865905761719,-4.994655132293701
8.765108610861087e6,593.6163940429688,36.143436431884766,-23.664527893066406,-592.0422973632812
8.765108610861087e6,179.8350067138672,-5.574190139770508,42.491912841796875,-174.65383911132812
8.765108610861087e6,55.8375244140625,15.831559181213379,1.050172209739685,-53.535560607910156
8.765108610861087e6,24.677610397338867,6.596142292022705,18.698293685913086,14.690731048583984
8.765108610861087e6,166.34646606445312,15.756827354431152,-33.542903900146484,-162.16567993164062
8.765108610861087e6,44.46153259277344,27.578716278076172,33.67763900756836,9.056885719299316
8.765108610861087e6,35.446815490722656,-27.372018814086914,-22.45702362060547,1.7028770446777344
8.765108610861087e6,49.40501022338867,22.023820877075195,32.81794738769531,-29.643831253051758
8.765108610861087e6,296.3121032714844,-0.4307149350643158,37.14161682128906,-293.9747314453125
8.765108610861087e6,2193.1552734375,54.026737213134766,-24.685659408569336,-2192.3505859375
8.765108610861087e6,1704.8382568359375,-18.298765182495117,-25.751968383789062,1704.54541015625
8.765108610861087e6,224.13571166992188,16.0566349029541,29.529293060302734,221.60096740722656
8.765108610861087e6,79.98036193847656,-27.251611709594727,4.537020683288574,75.05725860595703
8.765108610861087e6,132.46449279785156,30.24639129638672,-1.4513200521469116,128.95681762695312
8.765108610861087e6,110.12319946289062,-33.66967010498047,17.499191284179688,-103.37901306152344
8.765108610861087e6,11.308659553527832,-8.371722221374512,-7.24065637588501,-2.3111298084259033
8.765108610861087e6,35.5419807434082,1.6900025606155396,3.105801582336426,-35.36521530151367
8.765108610861087e6,221.3510284423828,-22.221834182739258,-22.713478088378906,-219.05828857421875
8.765108610861087e6,55.87344741821289,34.47211456298828,-30.53817367553711,-31.637060165405273
8.765108610861087e6,253.70497131347656,43.67451477050781,0.09846379607915878,-249.9174041748047
8.765108610861087e6,618.1583862304688,-40.40388488769531,-13.93743896484375,616.6790771484375
8.765108610861087e6,24.505489349365234,-17.504375457763672,16.60702133178711,4.276806354522705
8.765108610861087e6,431.2078552246094,-1.8443845510482788,-19.906763076782227,430.7441101074219
8.765108610861087e6,358.28240966796875,4.313177585601807,-10.902170181274414,-358.0904846191406
8.765108610861087e6,324.59033203125,25.067920684814453,-41.50041580200195,320.9488525390625
8.765108610861087e6,147.75936889648438,0.6237589120864868,22.538410186767578,-146.02886962890625
8.765108610861087e6,25.212600708007812,-5.211575984954834,16.413949966430664,18.413726806640625
8.765108610861087e6,74.7973403930664,-17.14209747314453,29.408531188964844,66.60253143310547
8.765108610861087e6,38.985904693603516,-24.255279541015625,9.4701509475708,29.01494026184082
8.765108610861087e6,55.12648391723633,-14.866719245910645,20.9571475982666,48.77167510986328
8.765108610861087e6,62.23270797729492,-1.7962864637374878,35.69751739501953,50.9444694519043
8.765108610861087e6,124.49360656738281,18.026103973388672,7.551040172576904,122.94985961914062
8.765108610861087e6,1588.3707275390625,-3.5324974060058594,4.948575496673584,-1588.359130859375
8.765108610861087e6,54.850990295410156,28.0136775970459,7.645944595336914,-46.533565521240234
8.765108610861087e6,235.4928436279297,-6.191638469696045,35.815216064453125,-232.6709747314453
8.765108610861087e6,459.0827941894531,0.32939544320106506,-38.70404052734375,-457.4482116699219
8.765108610861087e6,22.584993362426758,5.563684940338135,-20.666337966918945,7.210980415344238
8.765108610861087e6,17.453689575195312,0.4290952980518341,15.04306411743164,-8.838652610778809
8.765108610861087e6,321.43304443359375,21.28112030029297,19.15167999267578,-320.1554260253906
8.765108610861087e6,282.60107421875,-36.873779296875,12.218244552612305,279.91851806640625
8.765108610861087e6,279.29473876953125,-24.633407592773438,22.7132625579834,277.2774963378906
8.765108610861087e6,1677.068603515625,55.876304626464844,0.9114159345626831,1676.13720703125
8.765108610861087e6,123.11534881591797,42.25971221923828,7.58432149887085,-115.38609313964844
8.765108610861087e6,155.11297607421875,-26.458274841308594,-22.842716217041016,-151.12303161621094
8.765108610861087e6,289.5520935058594,22.429485321044922,-15.885324478149414,288.2445983886719
8.765108610861087e6,947.5745849609375,6.64962911605835,7.876970291137695,947.5184936523438
8.765108610861087e6,133.22137451171875,31.558948516845703,38.63835906982422,-123.52737426757812
8.765108610861087e6,435.1591796875,-10.200846672058105,29.1080379486084,-434.0646667480469
8.765108610861087e6,38.83207321166992,23.44893455505371,-6.618801593780518,-30.236356735229492
8.765108610861087e6,1360.0811767578125,37.167625427246094,9.130151748657227,1359.54248046875
8.765108610861087e6,60.96561813354492,-23.728469848632812,34.80717468261719,44.070343017578125
8.765108610861087e6,56.279659271240234,-37.684234619140625,14.653300285339355,-39.147769927978516
8.765108610861087e6,35.78406524658203,21.672515869140625,-13.286237716674805,-25.184232711791992
8.765108610861087e6,27.74750328063965,-15.708456993103027,-7.82772159576416,-21.491008758544922
8.765108610861087e6,656.4678344726562,-14.891833305358887,-34.4782600402832,-655.3926391601562
8.765108610861087e6,591.1473388671875,16.389719009399414,28.368755340576172,-590.2387084960938
8.765108610861087e6,55.47773742675781,-13.71449089050293,-45.438323974609375,28.723146438598633
8.765108610861087e6,1091.0052490234375,12.173309326171875,22.417388916015625,1090.70703125
8.765108610861087e6,45.1459846496582,44.15411376953125,-0.834028959274292,-9.372666358947754
8.765108610861087e6,380.1537780761719,17.603931427001953,-25.142372131347656,378.9126892089844
8.765108610861087e6,46.144222259521484,34.298301696777344,14.148483276367188,-27.435461044311523
8.765108610861087e6,199.66371154785156,-9.125396728515625,-31.791088104248047,-196.9051055908203
8.765108610861087e6,1420.5146484375,11.76584529876709,-17.590572357177734,1420.3570556640625
8.765108610861087e6,95.03533935546875,22.05084228515625,-9.916427612304688,91.90814971923828
8.765108610861087e6,1101.9287109375,-29.287769317626953,-1.573958158493042,1101.5382080078125
8.765108610861087e6,143.1356201171875,27.39366912841797,-16.523292541503906,-139.51466369628906
8.765108610861087e6,33.49502944946289,30.799009323120117,5.973337650299072,-11.731392860412598
8.765108610861087e6,45.906211853027344,20.69013214111328,-36.393306732177734,18.83598518371582
8.765108610861087e6,173.94061279296875,17.918548583984375,25.561290740966797,171.11648559570312
8.765108610861087e6,123.4542236328125,-28.566532135009766,35.40217208862305,114.76738739013672
8.765108610861087e6,4956.275390625,10.648844718933105,-2.8510630130767822,4956.26318359375
8.765108610861087e6,101.43755340576172,-2.2389638423919678,9.557745933532715,100.96128845214844
8.765108610861087e6,190.73167419433594,-37.15622329711914,-28.234458923339844,-184.9344940185547
8.765108610861087e6,135.12521362304688,20.18507194519043,-25.895435333251953,-131.0754852294922
8.765108610861087e6,775.539306640625,15.64090633392334,-6.909235954284668,775.3507690429688
8.765108610861087e6,67.38656616210938,6.140903949737549,65.0167465209961,-16.6141300201416
8.765108610861087e6,59.74816131591797,8.45373821258545,17.372146606445312,-56.5380744934082
8.765108610861087e6,255.26132202148438,-4.707569122314453,19.791330337524414,-254.44931030273438
8.765108610861087e6,27.984474182128906,4.403162002563477,11.403504371643066,25.17283058166504
8.765108610861087e6,22.277679443359375,-19.40414810180664,-10.15214729309082,-4.08366584777832
8.765108610861087e6,125.48043823242188,-16.263290405273438,2.4561357498168945,-124.39767456054688
8.765108610861087e6,2257.900634765625,11.929193496704102,-6.3747358322143555,2257.860107421875
8.765108610861087e6,506.7463073730469,-30.715089797973633,13.719464302062988,505.6284484863281
8.765108610861087e6,115.0028076171875,-33.04779815673828,-15.115396499633789,-109.10994720458984
8.765108610861087e6,111.73782348632812,28.08329963684082,30.52475357055664,103.75392150878906
8.765108610861087e6,464.9922790527344,18.55854034423828,81.54300689697266,-457.41021728515625
8.765108610861087e6,51.07398986816406,-23.681194305419922,39.03264236450195,22.894859313964844
8.765108610861087e6,21.869050979614258,-1.028592586517334,-11.710714340209961,-18.43976593017578
8.765108610861087e6,49.51789855957031,-46.19955825805664,8.358837127685547,-15.739165306091309
8.765108610861087e6,46.81412887573242,11.759095191955566,32.102481842041016,31.97945213317871
8.765108610861087e6,199.14405822753906,32.809261322021484,28.377544403076172,194.3620147705078
8.765108610861087e6,180.3558349609375,36.225311279296875,17.68561363220215,-175.7928924560547
8.765108610861087e6,1310.3336181640625,-36.080570220947266,20.08901023864746,-1309.6826171875
8.765108610861087e6,22.637454986572266,-11.371904373168945,14.542929649353027,-13.099839210510254
8.765108610861087e6,153.946044921875,-0.33275106549263,7.9894633293151855,153.73812866210938
8.765108610861087e6,191.1990966796875,-15.059874534606934,65.12580108642578,-179.13372802734375
8.765108610861087e6,531.80908203125,26.30782127380371,28.642160415649414,-530.3851318359375
8.765108610861087e6,304.80340576171875,-38.256744384765625,19.86257553100586,-301.73992919921875
8.765108610861087e6,622.456298828125,8.20361328125,-39.30101776123047,621.16015625
8.765108610861087e6,238.88845825195312,25.721153259277344,-8.469781875610352,-237.34857177734375
8.765108610861087e6,357.01702880859375,-4.579526424407959,-31.968202590942383,355.5533752441406
8.765108610861087e6,69.22714233398438,12.13160228729248,0.6586671471595764,68.1524429321289
8.765108610861087e6,24.66903305053711,8.463346481323242,13.617998123168945,-18.747039794921875
8.765108610861087e6,516.2269897460938,31.014970779418945,16.97275733947754,-515.0148315429688
8.765108610861087e6,20.962966918945312,-11.989765167236328,-10.99311637878418,-13.221622467041016
8.765108610861087e6,52.215606689453125,-10.661100387573242,-27.785795211791992,-42.90371322631836
8.765108610861087e6,324.1531982421875,-37.234683990478516,-1.6544313430786133,322.0032653808594
8.765108610861087e6,111.05703735351562,11.671051025390625,-20.213287353515625,108.57644653320312
8.765108610861087e6,1158.2647705078125,-27.1610164642334,18.559167861938477,1157.7974853515625
8.765108610861087e6,345.3680725097656,-14.583971977233887,24.411874771118164,344.19537353515625
8.765108610861087e6,63.48302459716797,-2.288450002670288,50.40028381347656,38.53099060058594
8.765108610861087e6,321.7639465332031,26.24263572692871,6.903247833251953,-320.6176452636719
8.765108610861087e6,1164.859619140625,11.007641792297363,10.524850845336914,1164.760009765625
8.765108610861087e6,91.14989471435547,-41.503135681152344,5.365328788757324,-80.97515106201172
8.765108610861087e6,36.790771484375,-16.10441017150879,2.810053825378418,32.95877456665039
8.765108610861087e6,27.383413314819336,10.239051818847656,22.73344612121582,-11.321301460266113
8.765108610861087e6,59.6182746887207,13.787070274353027,-37.885780334472656,43.91914367675781
8.765108610861087e6,22.190860748291016,-14.024981498718262,11.78099250793457,-12.526403427124023
8.765108610861087e6,46.57583236694336,-43.955142974853516,6.567443370819092,-13.931633949279785
8.765108610861087e6,13.282018661499023,-10.787500381469727,-7.544688701629639,-1.7572407722473145
8.765108610861087e6,56.037391662597656,-7.201845169067383,44.137752532958984,-33.7661018371582
8.765108610861087e6,30.623027801513672,-30.107194900512695,5.116000652313232,-2.2630817890167236
8.765108610861087e6,63.39939498901367,43.35678482055664,29.694475173950195,35.466590881347656
8.765108610861087e6,881.0731201171875,12.165493965148926,36.94749069213867,880.2140502929688
8.765108610861087e6,81.3788070678711,27.89077377319336,-23.16600227355957,-72.85547637939453
8.765108610861087e6,172.12144470214844,1.4298793077468872,14.164911270141602,-171.5315399169922
8.765108610861087e6,195.48504638671875,2.987030506134033,32.13161087036133,-192.80303955078125
8.765108610861087e6,101.8271255493164,-14.003792762756348,-6.430441379547119,100.65423583984375
8.765108610861087e6,165.7568817138672,-10.56922435760498,12.051816940307617,-164.97987365722656
8.765108610861087e6,162.2546844482422,-36.01459884643555,-19.145572662353516,-157.04440307617188
8.765108610861087e6,138.38438415527344,-2.1782422065734863,24.67728614807129,-136.14878845214844
8.765108610861087e6,208.7745819091797,31.619443893432617,1.7488247156143188,-206.35877990722656
8.765108610861087e6,941.3975219726562,0.8093686103820801,37.77914810180664,-940.6387939453125
8.765108610861087e6,65.13372039794922,26.436532974243164,3.477125644683838,-59.42549514770508
8.765108610861087e6,23.29875946044922,-8.849189758300781,-15.056716918945312,15.420364379882812
8.765108610861087e6,168.3247833251953,43.15869140625,-34.37778854370117,159.02418518066406
8.765108610861087e6,54.0228385925293,-18.465740203857422,-46.496803283691406,-20.3837947845459
8.765108610861087e6,152.59872436523438,-16.90934944152832,26.7801570892334,-149.27569580078125
8.765108610861087e6,84.16558837890625,30.186763763427734,19.33860969543457,-76.14848327636719
8.765108610861087e6,67.48341369628906,26.963132858276367,31.443796157836914,53.27529525756836
8.765108610861087e6,85.33797454833984,-34.87807846069336,4.37483024597168,77.7619400024414
8.765108610861087e6,26.484037399291992,25.72001838684082,-1.2295646667480469,6.192048072814941
8.765108610861087e6,1291.7813720703125,9.904335975646973,-7.4022111892700195,-1291.72216796875
8.765108610861087e6,48.997093200683594,-6.377181053161621,27.459375381469727,40.07490158081055
8.765108610861087e6,123.38217163085938,9.030375480651855,48.80097198486328,112.96037292480469
8.765108610861087e6,88.6493911743164,34.5259895324707,-11.79160213470459,80.79354095458984
8.765108610861087e6,41.06507110595703,-34.745826721191406,-1.2049452066421509,21.85369300842285
8.765108610861087e6,1776.090576171875,30.00255012512207,16.15561866760254,1775.763671875
8.765108610861087e6,52.89799499511719,-50.933624267578125,-9.265384674072266,-10.866677284240723
8.765108610861087e6,69.42277526855469,-38.12459182739258,-13.344664573669434,-56.46171569824219
8.765108610861087e6,163.77499389648438,-21.12648582458496,28.918657302856445,159.81112670898438
8.765108610861087e6,173.77191162109375,1.393032431602478,-37.720394134521484,-169.62274169921875
8.765108610861087e6,292.7066345214844,30.357940673828125,10.207598686218262,290.94903564453125
8.765108610861087e6,43.493831634521484,-37.94682312011719,-3.705509901046753,-20.928197860717773
8.765108610861087e6,617.8801879882812,24.0205135345459,8.266124725341797,-617.3577270507812
8.765108610861087e6,2663.987060546875,0.8077127933502197,31.339216232299805,2663.802490234375
8.765108610861087e6,217.54835510253906,-49.520652770996094,58.73591613769531,-203.5314483642578
8.765108610861087e6,18.37293243408203,-10.163762092590332,13.914237022399902,-6.3737711906433105
8.765108610861087e6,563.6168212890625,-17.20290756225586,-1.777525782585144,563.3513793945312
8.765108610861087e6,136.7425079345703,-27.264076232910156,18.62866973876953,-132.6956024169922
8.765108610861087e6,30.64739227294922,-1.036521553993225,9.589824676513672,29.089378356933594
8.765108610861087e6,459.93426513671875,-16.533845901489258,45.40457534790039,-457.3888244628906
8.765108610861087e6,33.07276916503906,18.48735237121582,-27.065248489379883,-4.4121012687683105
8.765108610861087e6,174.50035095214844,4.3791680335998535,-35.166316986083984,170.8639678955078
8.765108610861087e6,43.15612030029297,-38.97742462158203,-17.610374450683594,-5.74928092956543
8.765108610861087e6,1104.4989013671875,-23.433244705200195,-26.9627685546875,-1103.9210205078125
8.765108610861087e6,99.94640350341797,-28.53162384033203,33.92041778564453,-89.58014678955078
8.765108610861087e6,1355.30810546875,15.316411018371582,8.79086685180664,1355.1929931640625
8.765108610861087e6,72.56398010253906,-4.987824440002441,29.38705062866211,66.15906524658203
8.765108610861087e6,568.2390747070312,16.1358642578125,20.944425582885742,-567.6236572265625
8.765108610861087e6,106.3650131225586,37.39822006225586,-0.4243316352367401,-99.57247924804688
8.765108610861087e6,268.2619323730469,-30.95964241027832,27.864147186279297,265.008544921875
8.765108610861087e6,53.696197509765625,-8.356579780578613,-20.100988388061523,-49.08530807495117
8.765108610861087e6,107.22100067138672,-21.919523239135742,9.16397762298584,104.55557250976562
8.765108610861087e6,21.188335418701172,-20.35137367248535,5.709882736206055,1.460402250289917
8.765108610861087e6,391.4086608886719,191.7325897216797,78.26361846923828,-332.1357116699219
8.765108610861087e6,105.00691986083984,-15.301119804382324,20.006685256958008,101.9413070678711
8.765108610861087e6,35.17168426513672,32.23961639404297,14.045014381408691,0.6004984378814697
8.765108610861087e6,1903.226318359375,42.0764045715332,-60.1165657043457,1901.8111572265625
8.765108610861087e6,1357.421142578125,-33.90262985229492,18.245784759521484,1356.875
8.765108610861087e6,44.979305267333984,43.22138595581055,-0.31801697611808777,-12.446557998657227
8.765108610861087e6,2215.7236328125,-39.887454986572266,-1.7580302953720093,-2215.36376953125
8.765108610861087e6,1143.2508544921875,29.97346305847168,15.86265754699707,-1142.7476806640625
8.765108610861087e6,228.48036193847656,-4.202412128448486,-31.659706115722656,-226.23715209960938
8.765108610861087e6,38.174442291259766,3.9049477577209473,-36.09674072265625,11.791234970092773
8.765108610861087e6,1131.123046875,34.92463302612305,27.817180633544922,-1130.241455078125
8.765108610861087e6,98.74508666992188,-26.103723526000977,-19.994417190551758,93.10950469970703
8.765108610861087e6,590.77392578125,14.978246688842773,-37.26739501953125,-589.406982421875
8.765108610861087e6,83.9790267944336,3.889613628387451,19.679553985595703,-81.54772186279297
8.765108610861087e6,27.134353637695312,10.473953247070312,5.495816230773926,-24.419946670532227
8.765108610861087e6,232.77120971679688,145.48046875,148.13185119628906,-105.2368392944336
8.765108610861087e6,427.6929626464844,35.13523483276367,-101.65617370605469,-413.94781494140625
8.765108610861087e6,48.57651138305664,47.7880859375,8.373480796813965,-2.4144346714019775
8.765108610861087e6,124.71075439453125,-31.0584774017334,-0.03733080253005028,120.78125
8.765108610861087e6,83.21546173095703,0.5298223495483398,-32.966758728027344,-76.40480041503906
8.765108610861087e6,66.26582336425781,0.6928563714027405,-29.181819915771484,-59.490074157714844
8.765108610861087e6,35.026119232177734,-3.5498788356781006,32.7628059387207,11.865682601928711
8.765108610861087e6,47.61784744262695,6.690943241119385,-9.669107437133789,-46.14290237426758
8.765108610861087e6,44.056976318359375,-15.329141616821289,-36.87654113769531,18.604400634765625
8.765108610861087e6,603.8898315429688,5.443005084991455,40.03331756591797,602.5368041992188
8.765108610861087e6,1241.5604248046875,-7.64656925201416,11.11331558227539,-1241.4871826171875
8.765108610861087e6,1874.9405517578125,-8.328224182128906,-3.6109495162963867,-1874.9185791015625
8.765108610861087e6,262.5521545410156,-25.942840576171875,35.948577880859375,258.78228759765625
8.765108610861087e6,45.84623718261719,5.482463836669922,-3.753354549407959,45.36188507080078
8.765108610861087e6,378.102783203125,-29.93495750427246,33.464874267578125,375.4273376464844
8.765108610861087e6,19.375255584716797,15.222465515136719,-11.71851634979248,2.5143353939056396
8.765108610861087e6,328.5483093261719,7.497189998626709,-52.321231842041016,-324.2687683105469
8.765108610861087e6,198.89549255371094,17.743989944458008,-31.032665252685547,-195.6566162109375
8.765108610861087e6,784.1863403320312,-10.518071174621582,5.829322814941406,784.0941162109375
8.765108610861087e6,57.22301483154297,-32.03229522705078,-30.119367599487305,-36.62236785888672
8.765108610861087e6,1661.638427734375,-11.70461368560791,-13.92534065246582,-1661.538818359375
8.765108610861087e6,214.97775268554688,-30.829835891723633,49.91791915893555,-206.816650390625
8.765108610861087e6,2170.59375,64.68002319335938,-17.407608032226562,2169.56005859375
8.765108610861087e6,976.2473754882812,74.66266632080078,18.40256690979004,-973.2141723632812
8.765108610861087e6,35.33191680908203,0.9267956614494324,-32.00749588012695,14.932315826416016
8.765108610861087e6,25.31801414489746,-16.61834716796875,0.5085146427154541,-19.092988967895508
8.765108610861087e6,26.227140426635742,-23.162334442138672,11.408231735229492,-4.603240489959717
8.765108610861087e6,226.0606689453125,12.669726371765137,-36.21747970581055,222.78053283691406
8.765108610861087e6,71.1220932006836,-9.602350234985352,-54.749183654785156,44.369388580322266
8.765108610861087e6,557.1065673828125,-14.793656349182129,-37.370513916015625,-555.65478515625
8.765108610861087e6,77.17719268798828,-46.03109359741211,-3.8537979125976562,-61.826969146728516
8.765108610861087e6,40.08290100097656,-3.2743313312530518,34.600868225097656,19.96662139892578
8.765108610861087e6,1783.4041748046875,14.175592422485352,36.21849060058594,-1782.97998046875
8.765108610861087e6,35.84117889404297,10.665421485900879,-32.324317932128906,11.222556114196777
8.765108610861087e6,61.74525833129883,4.645513534545898,-23.542539596557617,56.89124298095703
8.765108610861087e6,11.620028495788574,7.096938610076904,0.2748701870441437,-9.195180892944336
8.765108610861087e6,73.35045623779297,-14.593830108642578,13.914238929748535,-70.52426147460938
8.765108610861087e6,61.363059997558594,41.42669677734375,-18.189373016357422,-41.45321273803711
8.765108610861087e6,68.63375091552734,-24.023040771484375,-28.719497680664062,-57.52081298828125
8.765108610861087e6,37.804908752441406,15.452291488647461,11.817377090454102,32.41535949707031
8.765108610861087e6,149.11190795898438,-2.5017926692962646,-35.40957260131836,144.8248291015625
8.765108610861087e6,67.81494140625,-8.216096878051758,-39.611793518066406,-54.426429748535156
8.765108610861087e6,97.4718246459961,43.111244201660156,-6.842196941375732,87.15119171142578
8.765108610861087e6,392.99200439453125,17.09832763671875,-31.559707641601562,-391.349365234375
8.765108610861087e6,31.33538055419922,5.043696403503418,28.234500885009766,12.619373321533203
8.765108610861087e6,63.01819610595703,-21.45905876159668,-31.472003936767578,-50.202423095703125
8.765108610861087e6,169.70729064941406,-35.6596565246582,27.3557186126709,163.6477508544922
8.765108610861087e6,93.78746032714844,-53.15095901489258,26.912700653076172,72.43436431884766
8.765108610861087e6,126.47825622558594,10.185818672180176,23.460453033447266,123.86514282226562
8.765108610861087e6,171.58346557617188,-2.672855854034424,-33.657772064208984,-168.22860717773438
8.765108610861087e6,34.47075653076172,9.08448314666748,25.63652801513672,21.176450729370117
8.765108610861087e6,38.02565383911133,31.12313461303711,-7.717044353485107,-20.43811798095703
8.765108610861087e6,163.4580535888672,28.60560417175293,-21.991741180419922,159.42579650878906
8.765108610861087e6,124.99552917480469,20.628585815429688,1.0186530351638794,123.2772216796875
8.765108610861087e6,78.8658676147461,-61.075660705566406,37.04447555541992,-33.42549514770508
8.765108610861087e6,38.98078918457031,22.90254020690918,30.16301918029785,-9.226929664611816
8.765108610861087e6,207.3528289794922,29.94710350036621,-3.0213429927825928,-205.1565399169922
8.765108610861087e6,415.8670349121094,-6.830319881439209,-20.929407119750977,415.2838439941406
8.765108610861087e6,102.13189697265625,-18.109832763671875,-0.6663928627967834,-100.5111083984375
8.765108610861087e6,249.23214721679688,-16.1319580078125,5.06043815612793,248.657958984375
8.765108610861087e6,98.9345703125,-37.127227783203125,10.022469520568848,-91.15447235107422
8.765108610861087e6,177.96630859375,-8.74303913116455,-56.539710998535156,-168.51942443847656
8.765108610861087e6,132.17422485351562,23.510541915893555,-25.752769470214844,127.4913558959961
8.765108610861087e6,522.20703125,12.639774322509766,-15.121472358703613,521.8349609375
8.765108610861087e6,272.91436767578125,-1.5634292364120483,-29.248640060424805,-271.3379821777344
8.765108610861087e6,71.5920639038086,-48.444149017333984,19.232988357543945,-49.07798767089844
8.765108610861087e6,159.63282775878906,-26.653438568115234,8.406684875488281,157.16720581054688
8.765108610861087e6,122.72711181640625,-32.263240814208984,28.731414794921875,114.87167358398438
8.765108610861087e6,43.6544075012207,24.303428649902344,-5.75333833694458,-35.80388259887695
8.765108610861087e6,325.3796081542969,-50.09640121459961,16.07594108581543,321.0977478027344
8.765108610861087e6,77.0142822265625,-19.278514862060547,25.09405517578125,70.2125015258789
8.765108610861087e6,1074.898681640625,27.734756469726562,49.7392578125,1073.3890380859375
8.765108610861087e6,217.13845825195312,13.09041690826416,-57.65031433105469,208.935791015625
8.765108610861087e6,32.11677169799805,30.86903190612793,-6.10502815246582,-6.425497055053711
8.765108610861087e6,451.7424621582031,-13.711872100830078,24.048572540283203,-450.8934326171875
8.765108610861087e6,35.47428894042969,-20.487688064575195,27.61985969543457,8.705838203430176
8.765108610861087e6,157.2292938232422,-7.3361124992370605,-40.033790588378906,151.8699951171875
8.765108610861087e6,67.68531036376953,-28.609846115112305,20.99092674255371,-57.637901306152344
8.765108610861087e6,101.41577911376953,26.75314712524414,-24.349382400512695,94.74441528320312
8.765108610861087e6,24.021095275878906,-16.12684440612793,-1.4895834922790527,-17.73943328857422
8.765108610861087e6,109.88330078125,9.959917068481445,31.619796752929688,104.76305389404297
8.765108610861087e6,62.73508071899414,14.304038047790527,-8.131362915039062,-60.538700103759766
8.765108610861087e6,396.1975402832031,-5.684426784515381,6.803469181060791,396.0982971191406
8.765108610861087e6,46.92216491699219,23.119169235229492,-24.339839935302734,-32.783138275146484
8.765108610861087e6,61.42414474487305,10.719648361206055,18.417396545410156,-57.6088752746582
8.765108610861087e6,40.31280517578125,31.326343536376953,21.7117977142334,-13.128164291381836
8.765108610861087e6,61.42847442626953,-49.24981689453125,-10.43940258026123,35.19801330566406
8.765108610861087e6,40.27846145629883,-32.091461181640625,9.712608337402344,-22.318744659423828
8.765108610861087e6,66.43792724609375,25.351545333862305,24.236047744750977,56.425880432128906
8.765108610861087e6,236.67454528808594,-38.76301193237305,-9.602641105651855,233.281005859375
8.765108610861087e6,100.85283660888672,13.990818977355957,-67.87150573730469,-73.2733154296875
8.765108610861087e6,161.25991821289062,-17.672306060791016,-68.43818664550781,144.9435577392578
8.765108610861087e6,24.3397216796875,-16.3137149810791,-10.659409523010254,-14.581841468811035
8.765108610861087e6,627.5623168945312,-5.041571617126465,-29.492918014526367,626.8485717773438
8.765108610861087e6,25.46309471130371,24.046539306640625,8.241114616394043,1.4783546924591064
8.765108610861087e6,1171.1370849609375,-30.45734977722168,13.903082847595215,-1170.658447265625
8.765108610861087e6,78.67916870117188,-55.46675109863281,-0.6022102236747742,-55.798362731933594
8.765108610861087e6,710.1553955078125,-18.911666870117188,27.65259552001953,709.36474609375
8.765108610861087e6,138.25428771972656,-0.2056243121623993,-17.852048873901367,137.0966033935547
8.765108610861087e6,35.04239273071289,13.06091594696045,-7.854247570037842,-31.55409812927246
8.765108610861087e6,52.17683792114258,-6.187831878662109,32.375850677490234,-40.44633483886719
8.765108610861087e6,131.3350372314453,-8.153091430664062,-6.621869087219238,130.9142303466797
8.765108610861087e6,37.52042770385742,19.514251708984375,-23.962053298950195,21.278270721435547
8.765108610861087e6,16.00204086303711,14.366476058959961,2.1642796993255615,6.70477294921875
8.765108610861087e6,51.8266716003418,39.90157699584961,22.506277084350586,-24.234350204467773
8.765108610861087e6,34.119789123535156,8.362305641174316,28.420860290527344,16.92498207092285
8.765108610861087e6,60.06608581542969,36.26768493652344,-13.897446632385254,-45.819419860839844
8.765108610861087e6,42.42722702026367,-40.39032745361328,8.393426895141602,-9.910082817077637
8.765108610861087e6,606.2883911132812,14.478906631469727,1.772824764251709,606.1128540039062
8.765108610861087e6,145.30218505859375,-30.51154899597168,10.883697509765625,141.64492797851562
8.765108610861087e6,926.8192138671875,23.1719970703125,-27.443525314331055,-926.1229248046875
8.765108610861087e6,83.46260070800781,-28.13701057434082,-20.779617309570312,-75.77921295166016
8.765108610861087e6,417.5600280761719,-9.04896354675293,30.855436325073242,416.320068359375
8.765108610861087e6,59.58519744873047,39.88863754272461,-12.791606903076172,42.37493896484375
8.765108610861087e6,128.59103393554688,6.085197448730469,-0.015775837004184723,-128.44683837890625
8.765108610861087e6,11.318615913391113,-6.2225518226623535,3.407274007797241,8.817583084106445
8.765108610861087e6,1499.77734375,-11.541423797607422,35.04648208618164,1499.3233642578125
8.765108610861087e6,290.1861572265625,2.6994333267211914,-20.041383743286133,-289.4806213378906
8.765108610861087e6,307.1610412597656,31.659194946289062,-6.32404899597168,-305.4595947265625
8.765108610861087e6,349.7542724609375,5.249072074890137,-9.219569206237793,349.59326171875
8.765108610861087e6,54.80040740966797,-16.010705947875977,-21.401086807250977,47.84040069580078
8.765108610861087e6,16.40707778930664,4.270657539367676,14.222949981689453,-6.973505020141602
8.765108610861087e6,28.225561141967773,-2.1674835681915283,3.831550121307373,-27.879596710205078
8.765108610861087e6,129.7516632080078,-28.43671226501465,31.355419158935547,-122.65258026123047
8.765108610861087e6,508.67767333984375,-1.2205997705459595,29.444303512573242,-507.8232727050781
8.765108610861087e6,157.5343475341797,8.336935043334961,37.2108039855957,-152.8492431640625
8.765108610861087e6,1273.8487548828125,-32.4186897277832,24.777143478393555,1273.195068359375
8.765108610861087e6,3287.707763671875,-28.0676326751709,6.493457317352295,-3287.58154296875
8.765108610861087e6,281.6348876953125,-12.364113807678223,53.943965911865234,-276.1437072753906
8.765108610861087e6,121.14393615722656,-30.668376922607422,29.330886840820312,113.46792602539062
8.765108610861087e6,463.0785827636719,24.868698120117188,-0.8111936450004578,-462.4095764160156
8.765108610861087e6,72.1280288696289,-13.127533912658691,-44.66569900512695,55.09142303466797
8.765108610861087e6,26.118619918823242,-14.620711326599121,-0.6303628087043762,-21.633033752441406
8.765108610861087e6,52.114646911621094,12.31708812713623,20.329133987426758,-46.37801742553711
8.765108610861087e6,142.22940063476562,25.167831420898438,25.149009704589844,137.7072296142578
8.765108610861087e6,30.708070755004883,29.847856521606445,1.0934064388275146,-7.131896018981934
8.765108610861087e6,70.23003387451172,-15.443012237548828,-30.07358741760254,61.557437896728516
8.765108610861087e6,105.65489196777344,4.612888813018799,34.23774337768555,-99.84699249267578
8.765108610861087e6,51.363365173339844,-18.54898452758789,5.9154953956604,47.530052185058594
8.765108610861087e6,119.69172668457031,2.7926623821258545,34.48714065551758,-114.58148193359375
8.765108610861087e6,54.30940246582031,5.067112445831299,-20.205873489379883,50.155025482177734
8.765108610861087e6,76.5661392211914,39.04121780395508,18.567399978637695,63.193172454833984
8.765108610861087e6,622.8573608398438,0.9896612167358398,-15.611242294311523,-622.660888671875
8.765108610861087e6,5.577947616577148,-3.1704039573669434,1.8795284032821655,-4.183035850524902
8.765108610861087e6,35.04457473754883,-13.735214233398438,-31.177963256835938,8.20786190032959
8.765108610861087e6,484.59967041015625,-25.369707107543945,30.710437774658203,-482.9596862792969
8.765108610861087e6,125.26569366455078,31.693655014038086,-19.67507553100586,119.5820541381836
8.765108610861087e6,247.57765197753906,34.10338592529297,19.510242462158203,244.44012451171875
8.765108610861087e6,89.33509826660156,-42.795284271240234,2.3455116748809814,78.38233947753906
8.765108610861087e6,600.0382080078125,42.44719696044922,-9.821879386901855,598.454345703125
8.765108610861087e6,609.3194580078125,0.14117546379566193,2.061192274093628,609.31591796875
8.765108610861087e6,104.08277893066406,-29.7072696685791,-38.24809265136719,92.12901306152344
8.765108610861087e6,44.403778076171875,40.07429122924805,9.814655303955078,-16.41303062438965
8.765108610861087e6,246.57659912109375,15.205923080444336,-32.18752670288086,-243.9932861328125
8.765108610861087e6,935.2921752929688,-2.3887152671813965,18.7330379486084,-935.1015014648438
8.765108610861087e6,158.23858642578125,-41.73741149902344,41.80726623535156,146.7976837158203
8.765108610861087e6,219.27256774902344,-28.5483455657959,24.53136444091797,216.0176544189453
8.765108610861087e6,94.45294952392578,29.97697639465332,18.425758361816406,-87.65386199951172
8.765108610861087e6,206.24905395507812,1.1212793588638306,38.163726806640625,202.6842803955078
8.765108610861087e6,26.317054748535156,-21.879281997680664,-14.495784759521484,-1.9300240278244019
8.765108610861087e6,98.45722961425781,-16.11547088623047,22.370338439941406,94.51800537109375
8.765108610861087e6,40.1108512878418,-11.482721328735352,16.183801651000977,-34.85800552368164
8.765108610861087e6,30.52751922607422,7.443817615509033,11.517909049987793,-27.273157119750977
8.765108610861087e6,21.193376541137695,7.436368942260742,-16.949081420898438,-10.322626113891602
8.765108610861087e6,623.864013671875,32.16044235229492,-4.814799785614014,623.015869140625
8.765108610861087e6,53.90129089355469,-23.831239700317383,4.2635955810546875,48.1581916809082
8.765108610861087e6,40.0455436706543,-0.2147650122642517,23.379924774169922,32.510719299316406
8.765108610861087e6,36.558963775634766,15.07462215423584,-31.061065673828125,12.020490646362305
8.765108610861087e6,170.91029357910156,-32.257347106933594,61.36661911010742,-156.21746826171875
8.765108610861087e6,45.598323822021484,11.16663646697998,44.18690872192383,-1.4137407541275024
8.765108610861087e6,232.65806579589844,18.795747756958008,-32.78916931152344,-229.56771850585938
8.765108610861087e6,89.99166107177734,12.568550109863281,15.374068260192871,87.7732162475586
8.765108610861087e6,469.3440246582031,-43.10939407348633,1.4463194608688354,-467.3577575683594
8.765108610861087e6,389.2562255859375,-11.283754348754883,2.1014606952667236,389.0869445800781
8.765108610861087e6,48.29392623901367,19.543399810791016,0.17375126481056213,-44.162166595458984
8.765108610861087e6,1409.9415283203125,-21.88210678100586,-29.582605361938477,-1409.461181640625
8.765108610861087e6,384.4984436035156,39.66992950439453,14.884712219238281,-382.15673828125
8.765108610861087e6,65.77471923828125,20.368513107299805,-10.741226196289062,-61.6119499206543
8.765108610861087e6,47.34053421020508,-9.157047271728516,-26.656641006469727,-38.035072326660156
8.765108610861087e6,204.59849548339844,-29.91023826599121,3.0089974403381348,202.37794494628906
8.765108610861087e6,80.1520004272461,-45.110870361328125,-10.329221725463867,65.44178771972656
8.765108610861087e6,54.89314270019531,-54.2923583984375,7.624199390411377,2.727114200592041
8.765108610861087e6,563.0689697265625,-31.524005889892578,-0.9100273251533508,562.18505859375
8.765108610861087e6,1840.39990234375,-29.699487686157227,-29.41832733154297,1839.925048828125
8.765108610861087e6,51.02523422241211,-5.408423900604248,27.03329849243164,42.9359130859375
8.765108610861087e6,171.61871337890625,14.00577163696289,37.0767707824707,166.97935485839844
8.765108610861087e6,57.90745544433594,2.525064468383789,-39.504432678222656,42.26424026489258
8.765108610861087e6,53.29298782348633,-1.5566176176071167,10.465456008911133,-52.231807708740234
8.765108610861087e6,9.132328033447266,-7.4635539054870605,0.24252067506313324,-5.2539825439453125
8.765108610861087e6,168.19696044921875,-14.898224830627441,-48.384796142578125,160.39682006835938
8.765108610861087e6,203.166015625,30.4975528717041,-18.053104400634766,-200.0509490966797
8.765108610861087e6,178.91587829589844,23.29018783569336,-26.042625427246094,175.4713897705078
8.765108610861087e6,124.47081756591797,25.466726303100586,9.381786346435547,121.47584533691406
8.765108610861087e6,67.9081802368164,8.995186805725098,20.634435653686523,64.06867980957031
8.765108610861087e6,40.54741668701172,-32.43558120727539,19.894800186157227,14.0068359375
8.765108610861087e6,116.28697967529297,9.032254219055176,-22.233301162719727,-113.78369140625
8.765108610861087e6,86.44538116455078,2.62073016166687,25.066818237304688,-82.68953704833984
8.765108610861087e6,20.095949172973633,-15.158490180969238,11.930386543273926,5.630415439605713
8.765108610861087e6,2242.292236328125,21.556852340698242,12.202543258666992,2242.155517578125
8.765108610861087e6,229.48464965820312,-3.035977840423584,23.703908920288086,-228.2368927001953
8.765108610861087e6,49.696136474609375,27.502531051635742,-3.1110663414001465,41.27476501464844
8.765108610861087e6,41.76625061035156,-0.08360841125249863,-30.5776309967041,28.449769973754883
8.765108610861087e6,39.0084114074707,-34.53829574584961,-1.5986555814743042,18.060319900512695
8.765108610861087e6,177.5286865234375,39.762245178222656,26.93546485900879,-170.90887451171875
8.765108610861087e6,22.94192886352539,-13.638758659362793,-3.748072385787964,18.062023162841797
8.765108610861087e6,58.07520294189453,-34.79734420776367,-3.9556174278259277,-46.327049255371094
8.765108610861087e6,16.269451141357422,-0.7467218041419983,-14.432372093200684,-7.470775604248047
8.765108610861087e6,40.81600570678711,-36.434688568115234,11.857697486877441,14.064963340759277
8.765108610861087e6,2537.47900390625,13.857752799987793,-28.79998016357422,-2537.27783203125
8.765108610861087e6,1821.0223388671875,21.953359603881836,5.5053791999816895,1820.881591796875
8.765108610861087e6,231.95652770996094,-21.218202590942383,-13.330641746520996,-230.5989532470703
8.765108610861087e6,5.692564964294434,-1.449185848236084,-5.088342666625977,2.093395471572876
8.765108610861087e6,144.13645935058594,25.31930160522461,-39.27910614013672,136.3501739501953
8.765108610861087e6,45.7444953918457,-17.647184371948242,-35.97476577758789,-22.066268920898438
8.765108610861087e6,42.20260238647461,21.508638381958008,0.3117637038230896,36.308528900146484
8.765108610861087e6,211.78793334960938,2.47048282623291,20.431798934936523,210.7855224609375
8.765108610861087e6,600.0730590820312,33.231056213378906,-22.838682174682617,-598.7167358398438
8.765108610861087e6,114.14554595947266,-17.458206176757812,20.876659393310547,-110.8537368774414
8.765108610861087e6,1609.68994140625,6.9603142738342285,-21.189302444458008,1609.535400390625
8.765108610861087e6,79.0030517578125,14.183578491210938,27.9611873626709,72.5151596069336
8.765108610861087e6,53.78155517578125,-3.545095443725586,-38.9533805847168,36.911930084228516
8.765108610861087e6,31.958171844482422,22.811492919921875,-21.463796615600586,6.343051433563232
8.765108610861087e6,1247.4349365234375,17.63416290283203,-29.684146881103516,-1246.95703125
8.765108610861087e6,1027.2926025390625,-43.75713348388672,28.682384490966797,1025.95947265625
8.765108610861087e6,60.85103988647461,-30.989347457885742,20.781490325927734,48.06877899169922
8.765108610861087e6,55.63996887207031,8.83705997467041,37.7524299621582,39.90532684326172
8.765108610861087e6,963.8746948242188,-4.92623233795166,-53.01873779296875,962.4027709960938
8.765108610861087e6,1089.2828369140625,-12.736824035644531,21.11080551147461,1089.0037841796875
8.765108610861087e6,74.1677017211914,50.250152587890625,6.556701183319092,54.15485382080078
8.765108610861087e6,26.404460906982422,-8.344683647155762,6.715945720672607,24.133508682250977
8.765108610861087e6,97.51947784423828,11.75731372833252,15.348139762878418,95.58356475830078
8.765108610861087e6,948.1976928710938,-4.1850666999816895,12.962950706481934,948.0997924804688
8.765108610861087e6,93.16007995605469,-37.59149169921875,-17.75775909423828,-83.36852264404297
8.765108610861087e6,759.974609375,-32.98795700073242,-9.442462921142578,-759.1995849609375
8.765108610861087e6,112.15790557861328,-62.73130416870117,-18.999269485473633,91.01194763183594
8.765108610861087e6,16.59012794494629,5.498229026794434,-14.215758323669434,6.548466205596924
8.765108610861087e6,58.816444396972656,16.409337997436523,13.943778038024902,54.732505798339844
8.765108610861087e6,3.8562004566192627,2.2132999897003174,3.1498076915740967,-0.13665080070495605
8.765108610861087e6,3333.036865234375,-5.505270004272461,22.35224151611328,-3332.95751953125
8.765108610861087e6,750.77490234375,-30.017192840576172,22.94852638244629,-749.823486328125
8.765108610861087e6,922.6503295898438,14.286198616027832,-21.84568214416504,922.281005859375
8.765108610861087e6,611.97607421875,-6.263679027557373,-11.699792861938477,-611.8321533203125
8.765108610861087e6,200.2906951904297,-0.36571386456489563,43.14116668701172,-195.5889434814453
8.765108610861087e6,592.7426147460938,38.3147087097168,-44.58999252319336,-589.8198852539062
8.765108610861087e6,44.004356384277344,-10.218688011169434,34.68705749511719,-25.074655532836914
8.765108610861087e6,108.54204559326172,-34.7125244140625,-0.14488577842712402,102.84144592285156
8.765108610861087e6,49.28168869018555,-35.06315612792969,-30.424577713012695,-16.540050506591797
8.765108610861087e6,196.662109375,-2.232687473297119,44.35809326171875,191.5811309814453
8.765108610861087e6,244.3026885986328,-13.720026016235352,-39.889461517333984,240.6332550048828
8.765108610861087e6,245.63990783691406,-5.904839515686035,32.8538703918457,243.36123657226562
8.765108610861087e6,77.53412628173828,18.334566116333008,-0.2151496559381485,75.33462524414062
8.765108610861087e6,1958.812744140625,7.50572395324707,-14.6367769241333,1958.74365234375
8.765108610861087e6,990.3126831054688,-37.212890625,15.88715648651123,-989.4857177734375
8.765108610861087e6,179.23736572265625,-0.2850143313407898,-46.65591049194336,-173.0582275390625
8.765108610861087e6,33.44829177856445,-15.600093841552734,-28.459999084472656,-8.088386535644531
8.765108610861087e6,259.9368591308594,-64.55477905273438,-33.07315444946289,-249.61166381835938
8.765108610861087e6,395.1772766113281,16.133251190185547,-26.33810043334961,-393.9683837890625
8.765108610861087e6,223.06202697753906,12.898016929626465,9.647976875305176,222.47964477539062
8.765108610861087e6,267.3947448730469,3.403141975402832,42.89971160888672,-263.90899658203125
8.765108610861087e6,885.8716430664062,-20.19517707824707,74.43675231933594,882.5076904296875
8.765108610861087e6,36.387481689453125,35.742881774902344,-3.2398788928985596,5.997222423553467
8.765108610861087e6,44.70350646972656,-5.03985595703125,18.526884078979492,40.369869232177734
8.765108610861087e6,37.703670501708984,-27.421537399291992,5.689630031585693,25.243267059326172
8.765108610861087e6,50.98948669433594,-42.68425369262695,-10.561049461364746,-25.815017700195312
8.765108610861087e6,7.098807334899902,2.1334874629974365,-6.754107475280762,0.4378463625907898
8.765108610861087e6,96.19326782226562,37.13311767578125,2.935135841369629,88.68838500976562
8.765108610861087e6,152.1964874267578,9.31994915008545,21.89070701599121,-150.32522583007812
8.765108610861087e6,115.37598419189453,-49.295494079589844,-0.3338305950164795,104.31409454345703
8.765108610861087e6,114.69778442382812,69.0331802368164,-15.582415580749512,-90.26161193847656
8.765108610861087e6,254.80776977539062,33.15776824951172,48.32503890991211,-247.97625732421875
8.765108610861087e6,680.1074829101562,10.267682075500488,2.115114212036133,680.0266723632812
8.765108610861087e6,62.6187629699707,-45.44748306274414,-24.74077796936035,-35.263267517089844
8.765108610861087e6,61.89978790283203,-29.981962203979492,-18.306615829467773,-50.96569061279297
8.765108610861087e6,494.532470703125,26.378450393676758,37.8265380859375,-492.3775634765625
8.765108610861087e6,85.09723663330078,-25.937177658081055,28.32825469970703,75.93602752685547
8.765108610861087e6,59.856727600097656,16.83492088317871,31.929691314697266,-47.748050689697266
8.765108610861087e6,82.70057678222656,-35.062171936035156,-18.482608795166016,72.58368682861328
8.765108610861087e6,556.5946044921875,-41.56871795654297,3.3226654529571533,-555.0302124023438
8.765108610861087e6,61.3857421875,-10.471641540527344,-37.25186538696289,47.653133392333984
8.765108610861087e6,375.855224609375,-40.633949279785156,1.2039228677749634,-373.6502990722656
8.765108610861087e6,31.29445457458496,16.14699935913086,-26.7950496673584,0.7817052006721497
8.765108610861087e6,513.588623046875,39.681236267089844,14.817402839660645,511.8388977050781
8.765108610861087e6,795.0614013671875,-30.075040817260742,19.70189094543457,794.2479858398438
8.765108610861087e6,1154.94677734375,12.206954002380371,-16.44988441467285,-1154.76513671875
8.765108610861087e6,46.30441665649414,19.81426239013672,-26.26140785217285,-32.58528137207031
8.765108610861087e6,26.911333084106445,-26.34143829345703,-4.798496723175049,-2.700225591659546
8.765108610861087e6,312.218017578125,-31.025638580322266,36.734439849853516,-308.4931945800781
8.765108610861087e6,30.39508056640625,-24.66933250427246,-13.909317016601562,-11.035587310791016
8.765108610861087e6,19.03091049194336,10.120290756225586,3.1823506355285645,15.798617362976074
8.765108610861087e6,1502.783203125,15.808600425720215,-15.476905822753906,1502.620361328125
8.765108610861087e6,323.17730712890625,-41.81938552856445,-27.858993530273438,-319.2468566894531
8.765108610861087e6,62.029266357421875,-21.720388412475586,30.470781326293945,49.47074508666992
8.765108610861087e6,871.411376953125,-12.986886024475098,9.526226043701172,871.2625122070312
8.765108610861087e6,937.6934814453125,-4.281498432159424,-65.91480255126953,935.3640747070312
8.765108610861087e6,36.416419982910156,0.33941665291786194,-30.950559616088867,-19.18519401550293
8.765108610861087e6,44.262359619140625,-38.39787292480469,-20.450693130493164,8.154590606689453
8.765108610861087e6,1884.16455078125,34.94540786743164,40.01141357421875,1883.4154052734375
8.765108610861087e6,60.23305892944336,-42.010555267333984,9.562252044677734,42.09117126464844
8.765108610861087e6,23.229644775390625,-14.003634452819824,-16.879981994628906,7.651744842529297
8.765108610861087e6,147.4054718017578,9.614295959472656,40.47399139404297,141.41343688964844
8.765108610861087e6,85.93383026123047,50.20946502685547,-4.586068630218506,69.58856964111328
8.765108610861087e6,61.42866516113281,-33.72732162475586,-11.604019165039062,50.012638092041016
8.765108610861087e6,80.92108154296875,29.209157943725586,-23.809280395507812,71.6109848022461
8.765108610861087e6,77.04428100585938,-8.279507637023926,43.527671813964844,63.028419494628906
8.765108610861087e6,652.0694580078125,15.098458290100098,-23.210636138916016,651.4812622070312
8.765108610861087e6,53.39558410644531,41.93015670776367,9.392075538635254,31.697124481201172
8.765108610861087e6,47.498531341552734,-21.18264389038086,6.2935614585876465,-42.044803619384766
8.765108610861087e6,1079.1611328125,-31.994338989257812,-10.21784496307373,-1078.6383056640625
8.765108610861087e6,257.7561950683594,-4.57465934753418,1.847625494003296,-257.70892333984375
8.765108610861087e6,458.8055114746094,-37.04796600341797,-23.93706512451172,456.6803283691406
8.765108610861087e6,268.6268615722656,-29.356155395507812,28.730615615844727,265.4677734375
8.765108610861087e6,1713.8641357421875,11.374244689941406,10.864540100097656,1713.7918701171875
8.765108610861087e6,25.686498641967773,-8.034533500671387,-21.565866470336914,-11.407200813293457
8.765108610861087e6,13.529274940490723,-9.225310325622559,-7.514631271362305,-6.436895370483398
8.765108610861087e6,31.49488067626953,9.298728942871094,28.491161346435547,-9.679011344909668
8.765108610861087e6,110.67147827148438,37.74446487426758,10.4840087890625,-103.50645446777344
8.765108610861087e6,368.70928955078125,34.072357177734375,16.025278091430664,-366.7816162109375
8.765108610861087e6,67.7857437133789,27.263364791870117,-8.906648635864258,61.41869354248047
8.765108610861087e6,66.52749633789062,-16.001636505126953,-16.05074119567871,-62.54755783081055
8.765108610861087e6,171.93698120117188,-3.6437110900878906,-21.88953399658203,170.49887084960938
8.765108610861087e6,87.72380065917969,-0.9725227355957031,-43.76787185668945,76.0188217163086
8.765108610861087e6,1535.2530517578125,35.100128173828125,20.503461837768555,-1534.7147216796875
8.765108610861087e6,29.555553436279297,1.6573467254638672,24.858356475830078,-15.900141716003418
8.765108610861087e6,62.39189910888672,-20.326513290405273,-10.032687187194824,58.128265380859375
8.765108610861087e6,49.6996955871582,29.33055305480957,7.099026679992676,39.488616943359375
8.765108610861087e6,66.13555908203125,-15.612743377685547,-48.44266128540039,42.23069763183594
8.765108610861087e6,35.82453155517578,-32.91093444824219,9.94143295288086,10.069941520690918
8.765108610861087e6,973.467529296875,20.334047317504883,-16.107892990112305,973.1217651367188
8.765108610861087e6,1275.7510986328125,-17.806461334228516,41.00621795654297,1274.967529296875
8.765108610861087e6,300.4506530761719,-4.7003607749938965,-15.304162979125977,300.02374267578125
8.765108610861087e6,66.12387084960938,29.306798934936523,-54.77362060546875,22.656063079833984
8.765108610861087e6,70.09210205078125,35.86518859863281,16.99408531188965,-57.77336120605469
8.765108610861087e6,253.68826293945312,-28.796228408813477,-8.56881332397461,251.90286254882812
8.765108610861087e6,553.606201171875,20.515216827392578,-10.55899715423584,-553.1251831054688
8.765108610861087e6,135.23080444335938,-107.801513671875,-66.16304779052734,47.83955001831055
8.765108610861087e6,10.660503387451172,-2.9740216732025146,-10.151213645935059,1.3125474452972412
8.765108610861087e6,469.8088684082031,-27.402189254760742,25.013723373413086,-468.3415222167969
8.765108610861087e6,32.740623474121094,15.610098838806152,6.735550403594971,27.979887008666992
8.765108610861087e6,28.51225471496582,24.796768188476562,-10.652006149291992,9.196307182312012
8.765108610861087e6,259.2298889160156,-1.2899386882781982,30.968122482299805,-257.3702087402344
8.765108610861087e6,157.9171600341797,121.7352294921875,-89.76731872558594,-45.38902282714844
8.765108610861087e6,35.56261444091797,27.791179656982422,-15.45520305633545,15.920269012451172
8.765108610861087e6,85.45269012451172,-11.506789207458496,-47.72770309448242,-69.94133758544922
8.765108610861087e6,174.4112091064453,29.887195587158203,17.0079345703125,170.98748779296875
8.765108610861087e6,61.90398406982422,-26.222688674926758,0.14574870467185974,56.075138092041016
8.765108610861087e6,26.607038497924805,-1.9792665243148804,25.090044021606445,-8.629892349243164
8.765108610861087e6,46.97479248046875,-25.243356704711914,25.501005172729492,-30.316186904907227
8.765108610861087e6,38.55397033691406,-18.974929809570312,5.983977794647217,33.023040771484375
8.765108610861087e6,265.2050476074219,20.335573196411133,-15.099858283996582,-263.9927062988281
8.765108610861087e6,78.44578552246094,5.011257171630859,-52.068416595458984,-58.45918655395508
8.765108610861087e6,32.922393798828125,14.516260147094727,-6.713906764984131,28.77592658996582
8.765108610861087e6,31.195255279541016,7.695279121398926,27.821853637695312,-11.8253755569458
8.765108610861087e6,783.0294189453125,-18.9288387298584,13.491209030151367,-782.684326171875
8.765108610861087e6,381.423095703125,-41.99637985229492,-2.376297950744629,379.0965576171875
8.765108610861087e6,70.27108764648438,38.772586822509766,19.83309555053711,55.148250579833984
8.765108610861087e6,319.6002502441406,-3.172264337539673,-1.9360699653625488,-319.5785827636719
8.765108610861087e6,83.28047943115234,31.69293212890625,4.874506950378418,-76.8596420288086
8.765108610861087e6,94.05680847167969,-29.3912353515625,1.1599173545837402,89.33901977539062
8.765108610861087e6,40.29719543457031,23.104278564453125,-18.6286563873291,27.257984161376953
8.765108610861087e6,112.77477264404297,-9.678121566772461,20.498838424682617,110.47284698486328
8.765108610861087e6,388.493896484375,-47.96710205078125,-18.947132110595703,-385.0553894042969
8.765108610861087e6,803.646728515625,-34.78173065185547,-13.100101470947266,-802.7868041992188
8.765108610861087e6,428.9421691894531,15.348628044128418,-26.603055953979492,-427.8411560058594
8.765108610861087e6,535.7109985351562,5.575182914733887,27.911548614501953,-534.9542846679688
8.765108610861087e6,111.3919448852539,-11.669760704040527,2.102259635925293,110.7588882446289
8.765108610861087e6,87.75589752197266,10.874491691589355,-25.285499572753906,83.327392578125
8.765108610861087e6,51.82268142700195,-36.145084381103516,-7.51095724105835,-36.368629455566406
8.765108610861087e6,33.64889907836914,-10.332134246826172,31.034000396728516,7.896492958068848
8.765108610861087e6,19.111690521240234,11.3829927444458,4.426832675933838,-14.698835372924805
8.765108610861087e6,31.323251724243164,23.274736404418945,20.902172088623047,1.581244707107544
8.765108610861087e6,1636.4696044921875,1.618841528892517,-12.892510414123535,-1636.4180908203125
8.765108610861087e6,89.88935089111328,39.10097122192383,73.28668975830078,-34.35459899902344
8.765108610861087e6,201.9970703125,34.77574157714844,23.632944107055664,-197.5725555419922
8.765108610861087e6,2558.93212890625,2.5074315071105957,0.9584417343139648,2558.9306640625
8.765108610861087e6,42.32034683227539,-21.296236038208008,28.275951385498047,23.193126678466797
8.765108610861087e6,310.1471252441406,-23.259567260742188,18.317140579223633,-308.73077392578125
8.765108610861087e6,39.66744613647461,-0.09478563070297241,16.33022689819336,36.14954376220703
8.765108610861087e6,91.80757904052734,-21.02675437927246,10.502924919128418,-88.74775695800781
8.765108610861087e6,143.4769287109375,23.94813346862793,-31.23441505432129,-137.97279357910156
8.765108610861087e6,16.086563110351562,-6.6927313804626465,-12.166448593139648,8.119776725769043
8.765108610861087e6,140.2570037841797,23.303085327148438,-8.913963317871094,138.0199432373047
8.765108610861087e6,479.64794921875,23.886463165283203,20.200109481811523,-478.626708984375
8.765108610861087e6,50.19319152832031,16.147247314453125,42.487060546875,21.294160842895508
8.765108610861087e6,176.52394104003906,76.11627197265625,-12.283342361450195,-158.79579162597656
8.765108610861087e6,156.11227416992188,-5.641895771026611,38.41490173339844,-151.20672607421875
8.765108610861087e6,39.71630096435547,-35.860862731933594,-5.860531330108643,16.031394958496094
8.765108610861087e6,15.383992195129395,-2.835923910140991,0.9270256161689758,15.090849876403809
8.765108610861087e6,261.2008972167969,-44.39423751831055,-2.875715970993042,-257.38446044921875
8.765108610861087e6,476.4729919433594,44.42192840576172,48.296775817871094,471.9328308105469
8.765108610861087e6,132.5522918701172,-20.772640228271484,14.877299308776855,130.06629943847656
8.765108610861087e6,762.5626220703125,-13.383455276489258,-39.024227142333984,-761.44580078125
8.765108610861087e6,298.89105224609375,6.238829135894775,30.948516845703125,297.2189636230469
8.765108610861087e6,38.731807708740234,10.244680404663086,-36.79621887207031,6.419210910797119
8.765108610861087e6,658.8836059570312,-30.26005744934082,-13.3018159866333,-658.053955078125
8.765108610861087e6,94.77699279785156,34.030616760253906,-16.736770629882812,86.85875701904297
8.765108610861087e6,284.6669921875,-34.069522857666016,-23.2010498046875,-281.6669006347656
8.765108610861087e6,42.33648681640625,0.11738816648721695,30.908388137817383,-28.9310245513916
8.765108610861087e6,280.1676940917969,13.311909675598145,38.0746955871582,277.2489929199219
8.765108610861087e6,420.12884521484375,7.005706787109375,-1.0939581394195557,-420.0689697265625
8.765108610861087e6,123.0278091430664,-23.375993728637695,16.34364128112793,119.67564392089844
8.765108610861087e6,34.80509567260742,27.786602020263672,-5.063991069793701,-20.33774185180664
8.765108610861087e6,376.87939453125,39.028873443603516,-17.003124237060547,-374.4671936035156
8.765108610861087e6,46.394588470458984,13.257712364196777,-15.065713882446289,41.829219818115234
8.765108610861087e6,151.71701049804688,8.902606010437012,-30.228349685668945,148.40826416015625
8.765108610861087e6,62.743995666503906,37.10003662109375,35.51847839355469,36.03889846801758
8.765108610861087e6,163.9128875732422,-26.133872985839844,7.9026875495910645,161.62294006347656
8.765108610861087e6,25.7276611328125,-1.4753369092941284,22.68160057067871,12.051939964294434
8.765108610861087e6,49.58609390258789,-13.779659271240234,-25.371891021728516,-40.312992095947266
8.765108610861087e6,43.75423049926758,-4.7937517166137695,-37.77059555053711,21.559297561645508
8.765108610861087e6,48.30175018310547,36.68183517456055,7.133589744567871,-30.60363006591797
8.765108610861087e6,273.9611511230469,15.72518539428711,2.0729501247406006,273.5015563964844
8.765108610861087e6,38.09687423706055,-11.375889778137207,-26.64726448059082,24.735652923583984
8.765108610861087e6,51.35255813598633,-22.286941528320312,13.016615867614746,44.39496994018555
8.765108610861087e6,39.1762809753418,19.15447425842285,-4.737967491149902,-33.84386444091797
8.765108610861087e6,37.23037338256836,6.0900559425354,-18.90856170654297,-31.487245559692383
8.765108610861087e6,144.7878875732422,-31.949005126953125,-5.256810665130615,-141.1209716796875
8.765108610861087e6,132.39903259277344,-4.787996292114258,12.382028579711914,131.73167419433594
8.765108610861087e6,38.63044357299805,22.142242431640625,-31.527252197265625,-2.8342761993408203
8.765108610861087e6,195.14974975585938,-17.56640625,32.158470153808594,191.6785125732422
8.765108610861087e6,99.74317169189453,14.332931518554688,-14.960811614990234,-97.56745910644531
8.765108610861087e6,157.8206024169922,20.421932220458984,31.489774703979492,-153.29269409179688
8.765108610861087e6,212.42544555664062,11.741524696350098,-26.416500091552734,210.44915771484375
8.765108610861087e6,576.4317626953125,17.705970764160156,-36.77029037475586,-574.9852294921875
8.765108610861087e6,151.90879821777344,-21.02628517150879,6.039148330688477,150.3252410888672
8.765108610861087e6,103.86351013183594,1.7953999042510986,-30.673036575317383,-99.21460723876953
8.765108610861087e6,201.2444305419922,39.23023986816406,-3.6927852630615234,197.34902954101562
8.765108610861087e6,427.1919250488281,35.250701904296875,27.823150634765625,424.8248596191406
8.765108610861087e6,125.70912170410156,-89.47779846191406,18.044635772705078,-86.43417358398438
8.765108610861087e6,73.83952331542969,41.138309478759766,-47.025455474853516,39.350852966308594
8.765108610861087e6,41.06011962890625,11.366379737854004,-38.29475021362305,-9.498383522033691
8.765108610861087e6,1688.7841796875,22.95265769958496,22.912784576416016,-1688.4727783203125
8.765108610861087e6,65.35305786132812,-12.418294906616211,-25.1011962890625,-59.048336029052734
8.765108610861087e6,44.46969223022461,-20.506481170654297,30.24897575378418,25.33782958984375
8.765108610861087e6,81.10858154296875,-3.8767478466033936,-17.80790138244629,-79.03429412841797
8.765108610861087e6,53.61495590209961,-46.83238220214844,-25.011829376220703,-7.4611029624938965
8.765108610861087e6,170.58409118652344,-30.448469161987305,-21.851463317871094,-166.4160614013672
