1.074552815065418e6,1201.7721962679973,92.83803469909267,-0.1377015155362882,1198.1806749123011
1.074552815065418e6,14.178907689404939,4.454361113846739,-0.13397632488078237,13.439486584883076
1.074552815065418e6,285.4252426941161,21.863137571624552,-0.458882474633158,284.58531140658425
1.074552815065418e6,23.44086065731962,7.685083793074654,0.3649863449929254,-22.129570249013632
1.074552815065418e6,309.7875341452942,13.186231098865814,0.052019721942830825,309.50585547638093
1.074552815065418e6,155.21416563822282,16.571079172611473,0.3783598484564559,-154.32475839164155
1.074552815065418e6,22.83934256181758,10.310593695324618,-0.12485587847564086,-20.365394577674124
1.074552815065418e6,76.79544267616048,14.648995272950003,0.4668771881224423,75.38014750582884
1.074552815065418e6,712.2268519814169,11.861001584720391,0.5121428970339021,712.1275031154239
1.074552815065418e6,62.316447759691286,16.291277941449597,-0.3464358001333295,60.14359122671276
1.074552815065418e6,21.358487251506595,12.962795622539085,0.4574357704061984,-16.952265890604952
1.074552815065418e6,20.38442685370296,9.188754132503457,-0.5222107338716849,18.1729637259463
1.074552815065418e6,14.266686978213782,8.134616165503143,-0.5083110340200462,11.68527518100139
1.074552815065418e6,11.17977014790053,8.217609429644684,0.2767443286857286,-7.537852969314728
1.074552815065418e6,126.46848145277704,25.172029490127564,0.2341164885646021,123.93558238366455
1.074552815065418e6,35.533420462812785,21.78357567007418,0.029321446809342178,28.0630825116329
1.074552815065418e6,150.90597137805062,11.916851521977685,0.18988445069458265,150.43271735310876
1.074552815065418e6,93.65056329820901,36.913158268671744,-0.09802071432666558,-86.06552622061966
1.074552815065418e6,37.41424809154229,18.01003489084775,-0.6116660224224241,-32.779995838189194
1.074552815065418e6,7.6338823473684085,6.131532888953666,0.095916571389774,-4.484297394825574
1.074552815065418e6,37.794434290078186,16.529975546647087,0.2278200254549109,-33.97888945741242
1.074552815065418e6,54.787285246892196,32.98422382200979,-0.600392080178754,-43.73516653589782
1.074552815065418e6,31.504698376655597,5.486061484503255,-0.10150485482478412,-31.01413395446513
1.074552815065418e6,21.002019958204798,12.302859750730661,-0.19686572631452748,17.00362864665219
1.074552815065418e6,8.177279436577713,7.1800975236448,-0.12105602610703727,-3.8388934554287526
1.074552815065418e6,59.67971548224125,39.10840290351459,-0.1706163531077684,-45.0733825159201
1.074552815065418e6,43.044721259136985,8.894133879599377,0.14664740058461992,42.108889374302294
1.074552815065418e6,24.206944336177777,21.55588499904166,0.21668675383528216,-10.986841304140896
1.074552815065418e6,22.590066624681388,19.04723431536462,0.037342446870469934,12.122303393892034
1.074552815065418e6,143.8582485237564,12.462819807918471,0.21943036168879468,-143.31525843420633
1.074552815065418e6,11.667154992823797,11.481700327856162,0.3496193154052148,1.8996022033416788
1.074552815065418e6,140.76108409350564,8.571254474696634,-0.5204036128141283,-140.49691537887048
1.074552815065418e6,146.4657810452901,31.656575705846237,0.21554953055196346,143.00166932303804
1.074552815065418e6,10.082828771202198,9.561524205185396,0.025455884651806777,3.11090049499131
1.074552815065418e6,355.79979078875806,16.731624990214797,0.6953564606056881,355.40469607039836
1.074552815065418e6,135.3789046129902,17.66171288130008,0.5617008729460099,-134.21860475891452
1.074552815065418e6,66.97229101332101,16.757805218476115,0.4700471536329184,64.83579599646093
1.074552815065418e6,14.857616025124965,13.92290885385244,-0.299341744506006,5.12341843949209
1.074552815065418e6,32.97364417645358,32.782837450610664,-0.23028837889504605,3.454186621119349
1.074552815065418e6,23.17563261656073,19.237816440820882,0.10065852163024244,12.90131360047737
1.074552815065418e6,48.0815562189252,26.55130019274398,-0.15273455293975144,-40.07840862176991
1.074552815065418e6,53.06216778988086,22.044286077042923,0.569353820829341,-48.257192180341704
1.074552815065418e6,12.686544434590168,1.9487389179593295,0.011756727275169226,12.513526564825323
1.074552815065418e6,87.99027703083911,8.221640004780378,-0.06132304311581511,87.60209692734959
1.074552815065418e6,128.96846678126104,13.162487309251373,0.38538235949031296,-128.29225811080258
1.074552815065418e6,126.56171336349404,17.486697537683114,0.22029360107510906,-125.3454100812906
1.074552815065418e6,8.858788980741881,6.083549397360313,0.4215153200412044,-6.381892568738939
1.074552815065418e6,18.30000244680035,5.5880336188483355,-0.09036569675028377,-17.409579628961012
1.074552815065418e6,1376.8651212763598,24.179280966872735,0.683265959525421,-1376.6524235862544
1.074552815065418e6,13.432682826702532,13.401717690674182,-0.4913307804956916,-0.16487545348337096
1.074552815065418e6,9.459528000786284,1.628222677679516,0.1393351232545617,9.287077345523807
1.074552815065418e6,29.20942669321922,26.588340941688326,0.38222367135599944,-12.064091253339683
1.074552815065418e6,15.965045531713596,8.302827731722662,-0.016868455216717947,-13.615546442615067
1.074552815065418e6,99.01759454112009,10.941565530966056,-0.34861933076228324,98.40773493985225
1.074552815065418e6,236.45421747827072,17.753869299984135,-0.45887840756592035,235.7851228931467
1.074552815065418e6,30.363505615301772,5.492927670548617,0.5609513248246006,-29.84783428419096
1.074552815065418e6,10.846643133058603,8.766289084516032,-0.1630782159211094,-6.341364792130983
1.074552815065418e6,20.242389380433114,11.718058676731724,0.1102240546173357,-16.48838798440562
1.074552815065418e6,27.710627610708848,5.967763510017686,0.07050333799919827,27.04990516685735
1.074552815065418e6,496.8417989419132,7.612964038193398,0.0312556167925811,496.7829029228611
1.074552815065418e6,111.60232992591529,12.158034148996435,0.4190912885045374,110.9347748544402
1.074552815065418e6,21.149544327532247,17.171252514806508,0.0026786116410817693,-12.324324084865925
1.074552815065418e6,9.545916628726781,9.3567739508923,-0.17826043326253158,-1.7266116301018277
1.074552815065418e6,74.45600002922811,13.024383070588147,0.008837321217293359,73.30415381732136
1.074552815065418e6,4.926591085433261,4.657908401515028,-0.1694532247214024,-1.4085927869905146
1.074552815065418e6,178.38561801081144,8.262630662004987,0.16935751473942334,-178.19249878898776
1.074552815065418e6,36.271259536944136,5.787825989774401,-0.25097159464365015,-35.797765446406004
1.074552815065418e6,24.385871086643117,2.2307676684722235,-0.08674847344840451,-24.271887399928215
1.074552815065418e6,459.97600983500513,12.78306513128414,0.4201687233516664,-459.7975467385779
1.074552815065418e6,9.781904686419173,7.4569806743526215,0.5068579954454429,-6.265768307058435
1.074552815065418e6,45.24858193866569,6.591713593301304,-0.027645707296921854,44.75958415878841
1.074552815065418e6,9.169074731818663,6.242555073339393,-0.18409026846512744,-6.671297276828588
1.074552815065418e6,66.27549471106235,10.369296890520708,-0.3674355431200021,65.45396497770557
1.074552815065418e6,18.234554320201973,17.861308835007932,0.08879015724796467,3.5919901522142004
1.074552815065418e6,15.489750143629266,3.6625078195251612,-0.33948995172772944,-15.028000583757628
1.074552815065418e6,53.05673678212529,14.789602274693587,-0.0489456986157176,50.948211409542694
1.074552815065418e6,84.28336381990476,12.107941481379967,0.4633236346913501,83.4044732618114
1.074552815065418e6,40.5313943121601,17.23520962715459,-0.42696992988593735,-36.67419841882818
1.074552815065418e6,66.89573305597847,34.04904134683509,0.24374910123791613,-57.5767325386102
1.074552815065418e6,79.06386183507246,31.16160201843023,-0.015545755273485413,-72.66007311611138
1.074552815065418e6,21.331183902444845,21.264810949467453,-0.46953334020013776,-1.429831946256541
1.074552815065418e6,7.212248304552266,4.484605577457987,-0.6877333593174875,5.556034578401723
1.074552815065418e6,508.4225124982332,12.973480768192283,0.5281072580238579,-508.2561350082125
1.074552815065418e6,61.51179626829574,4.66119726807689,0.12447300457791231,61.33022489474739
1.074552815065418e6,17.801849789845303,13.569288054007963,-0.19170867852167384,11.497007628896984
1.074552815065418e6,35.96586352604179,35.2869783065214,0.162594184048416,-6.912577181415722
1.074552815065418e6,14.465661259949277,13.861324588171879,-0.5664691338066161,-4.029368195902101
1.074552815065418e6,177.03104200610727,17.661690357111638,0.01427594616557002,-176.14622329951823
1.074552815065418e6,1282.1989577982465,27.4364711411948,-0.15004589878458077,-1281.9051535021788
1.074552815065418e6,1355.6938958751443,15.270945123377546,0.49721931698934424,-1355.60758628008
1.074552815065418e6,257.15657645497663,21.440244795136667,-0.49262117482192636,-256.25966459928054
1.074552815065418e6,13.342280859847808,13.297188390441837,-0.09912922976522977,0.7931404899071056
1.074552815065418e6,31.751889357769954,5.404031205935455,-0.4391835956147379,-31.27656792666752
1.074552815065418e6,31.87147676338333,13.427780365221953,0.009262787432900989,28.895039690780436
1.074552815065418e6,143.36549266742648,26.688544580088553,-0.21574998186389835,140.85729369437934
1.074552815065418e6,5.628189530208215,3.5057115876062377,0.36613331955633566,4.323205874526838
1.074552815065418e6,254.81006402218557,10.596250842482965,-0.08680172304649801,-254.58852747035385
1.074552815065418e6,28.702890753065336,17.42181566698202,0.19081201892318572,22.797752657012097
1.074552815065418e6,82.56083855071594,56.34149221975261,-0.10289364225774372,60.343644143655155
1.074552815065418e6,23.66013504668485,22.228736315590087,0.3101590271564685,-8.063915463716645
1.074552815065418e6,12.20828539055212,12.148874304970978,0.15033463304372668,0.9285169821041935
1.074552815065418e6,49.10590772296639,19.22630429883391,-0.22120271163883093,-45.17884598630491
1.074552815065418e6,29.744720216707385,12.456024114418403,-0.42665987725706966,26.997249200041317
1.074552815065418e6,9.625739314380041,7.565832302444186,-0.17608489142460515,-5.900821300418247
1.074552815065418e6,17.378975692236978,6.906333072928792,-0.14850392825268033,15.929437063788264
1.074552815065418e6,178.1752122065413,19.02155966434273,-0.2913168068052324,177.15512780128245
1.074552815065418e6,53.767030177628826,9.2809217946368,-0.010075299649866101,52.954655907115345
1.074552815065418e6,153.9648492867869,15.057925669211517,-0.002810818349616668,-153.22490444288604
1.074552815065418e6,19.002465876837764,18.22646315082182,-0.6018944966512548,5.2882069187753
1.074552815065418e6,211.2232913593421,14.765024442831848,0.6521031250357915,-210.70426024734095
1.074552815065418e6,28.710356887060467,18.937657165139576,-0.6737128084570105,-21.555359048703018
1.074552815065418e6,382.00739315480394,32.204726278204596,0.36352757758222287,380.64656774620204
1.074552815065418e6,27.551011615805855,19.898310950256743,0.23819801140544747,-19.039337779378986
1.074552815065418e6,84.87975408005671,18.397248869123125,-0.06377712390745337,-82.85859930149483
1.074552815065418e6,434.88212085942365,23.434643843661412,-0.13063985734395767,-434.249579278239
1.074552815065418e6,19.983667171791613,17.66157030791734,-0.12759426445545022,9.318651543215697
1.074552815065418e6,7.572316430784641,7.242701900133897,-0.0006638000179405166,-2.078678393080908
1.074552815065418e6,49.06842523280479,7.11716848661581,0.5452243195285084,48.54067013330817
1.074552815065418e6,17.17714178408516,17.11115569014385,0.36217767741662066,1.2526121255070322
1.074552815065418e6,7.113650352684545,6.854006667069227,-0.20749725679106612,-1.738165074211223
1.074552815065418e6,21.552457953207394,5.752181661392507,-0.23930695815790656,-20.755752001015374
1.074552815065418e6,87.75600686933504,31.623823085204265,0.18616270932854387,81.85629821559792
1.074552815065418e6,32.39803625241393,15.459844294980503,-0.13271823955268955,28.461307282789043
1.074552815065418e6,30.939643163456324,22.31276344546087,-0.2846379785445927,-21.418654176181295
1.074552815065418e6,23.21792028411606,7.8087030945590215,-0.262176624876222,-21.850970246346616
1.074552815065418e6,550.2513236385676,25.546402584423156,0.07716283242611605,549.657468052492
1.074552815065418e6,24.097042745248125,9.187878542637959,0.5587070287977155,22.257040737635908
1.074552815065418e6,4.893329210404832,4.768277311668481,0.19895048387134132,-0.7786397974417574
1.074552815065418e6,15.578032797620107,13.090635116120476,-0.38310586953420783,-8.402456008918683
1.074552815065418e6,188.42808132316304,17.930586965987004,0.5771018515172774,187.5706280168232
1.074552815065418e6,57.16182519590777,9.237318369952048,-0.01915471845410511,-56.40552722158692
1.074552815065418e6,22.241445276145296,17.023949798823352,-0.08977539977466038,-14.293236882710207
1.074552815065418e6,36.172316046704104,31.832919961213847,-0.3278829012913829,-17.159015318992097
1.074552815065418e6,8.631183612347323,5.308596390169824,-0.2035535438739672,6.761091617473412
1.074552815065418e6,84.92559051105754,8.79383176497408,0.3003146455485963,-84.46521128040581
1.074552815065418e6,687.6834898609847,25.913770329792307,-0.35074809646182914,-687.1945673311448
1.074552815065418e6,455.78057495125694,14.629065234185147,-0.16955335847412834,-455.5450931180356
1.074552815065418e6,40.24314480090071,23.397809088461397,-0.1753494229273876,-32.733165824509214
1.074552815065418e6,8.508464725044762,6.768436727136199,0.5848072142425002,5.067336160056761
1.074552815065418e6,231.32124002487157,18.59164424827587,0.11197462561183452,230.57166341825655
1.074552815065418e6,88.3816961438518,35.67266027476086,-0.19929631640995896,80.85903451162818
1.074552815065418e6,17.77613541348821,17.181863421759935,-0.31162708303172804,-4.4849868611337795
1.074552815065418e6,74.99618215438846,19.040662817366766,-0.35294978197426663,-72.53408566081006
1.074552815065418e6,25.388591124547606,22.71746781797102,0.3272559338021959,11.306094717959148
1.074552815065418e6,206.1295277091273,81.09315876611447,-0.3042860772131757,-189.50627130491915
1.074552815065418e6,48.75930952146153,6.905265471338157,0.03074174412544233,-48.26203774929077
1.074552815065418e6,372.80831325549025,31.790332411718133,0.004362236811270487,371.44966124296826
1.074552815065418e6,35.40878505007332,17.1208800741712,-0.0829960745884193,-30.985291588889563
1.074552815065418e6,213.95674089619533,7.762648531318016,0.047831404565923545,213.81455430780764
1.074552815065418e6,21.314392028626134,6.542429926356569,0.22349048375669653,20.270363321882265
1.074552815065418e6,6.133500272388136,2.4817937684186395,-0.3868868715968124,-5.545133255366708
1.074552815065418e6,1044.5209975080413,13.42263581465183,-0.5100820375284814,-1044.4343562705533
1.074552815065418e6,1.363423368565825,0.3197003282125369,-0.2371927877751667,-1.0668240493556673
1.074552815065418e6,43.306738338323306,29.98445616710412,0.22471778139184578,-31.237687730920527
1.074552815065418e6,58.679398907032486,10.022424976788226,0.1652181851148909,57.81205078195519
1.074552815065418e6,15.793410691754206,15.744616103561807,-0.044893060762393806,-0.9871821674533059
1.074552815065418e6,53.75311331477734,13.222180579251672,-0.5626231602139012,-52.09311130974332
1.074552815065418e6,43.75051213233844,2.0517257881699407,0.20016642320273542,43.6954840403884
1.074552815065418e6,140.176575864524,11.182057333358415,-0.2085625263188771,139.72769294437495
1.074552815065418e6,15.73050729104735,11.350305547875433,0.05966706943062092,10.86524378157948
1.074552815065418e6,26.673584709744905,26.60467868873124,0.2862164478756719,-1.7398081132804073
1.074552815065418e6,33.3746671305362,17.208314042033642,-0.22057086285687627,28.58550929033911
1.074552815065418e6,160.09025148004963,16.50519811667827,-0.3110596638294172,-159.23507137232377
1.074552815065418e6,74.52898527301451,18.295356995421756,-0.206219028393365,-72.24434020002107
1.074552815065418e6,131.38316186121347,9.667312269914033,-0.020369152233131734,-131.02486610644638
1.074552815065418e6,63.62273979138304,24.51582748683632,-0.2799969830955803,58.704228824471734
1.074552815065418e6,82.22617658364062,30.514603691120985,0.17261741479988418,-76.35057916843031
1.074552815065418e6,95.75751952378644,14.050828680312502,-0.2966567827724593,-94.71761405613452
1.074552815065418e6,152.22022717694514,15.646758040010205,0.299989402925605,151.4117703152072
1.074552815065418e6,209.85639538779495,40.33565110708341,-0.38367000011005853,-205.9418179759661
1.074552815065418e6,385.6762564386391,17.503869200615227,0.19334082185436677,385.2780679221775
1.074552815065418e6,34.65507806632497,34.64561376198615,-0.21978641036597996,-0.2126870022736744
1.074552815065418e6,13.101275911324278,12.259002569713543,-0.32604870268258934,4.548806187632695
1.074552815065418e6,131.02177333737424,14.1049432209024,0.6502588301142738,130.25655640944916
1.074552815065418e6,128.2996129474859,16.510201413713755,0.25835481371390645,-127.23040062631372
1.074552815065418e6,21.10572531014886,18.47623865562806,-0.3685921102393753,10.16769614282247
1.074552815065418e6,21.434400107402684,16.73439348674721,0.035278945558964464,13.372733339886105
1.074552815065418e6,13.135187204378145,7.617293820450124,-0.3279026995328619,-10.669588396718723
1.074552815065418e6,643.1201362767198,8.965119335888442,0.493663707985296,-643.0570194586263
1.074552815065418e6,7.94643820787687,7.6326743747711285,0.027134993091955655,2.079683812802189
1.074552815065418e6,67.34587606867282,44.8609502734967,-0.12278606351212076,-50.22334861981296
1.074552815065418e6,43.842787011788914,31.468756926423325,-0.19364711942340568,-30.517330654050888
1.074552815065418e6,35.24717951833886,23.22240904691716,0.37691028932946014,-26.50243346710313
1.074552815065418e6,63.0177413131424,19.095321637296742,0.4922493275818414,60.048311894395304
1.074552815065418e6,84.78112724985542,10.13650050689575,-0.16732957719899996,84.16947519755152
1.074552815065418e6,47.3539430054524,25.306207045345943,0.6974491431429398,-40.01178609888855
1.074552815065418e6,41.72478414997926,39.405272103705784,-0.010757498653890897,-13.697433557431639
1.074552815065418e6,10.20380329543006,8.088778465624449,-0.33632393590619797,6.165534025920226
1.074552815065418e6,4.67162520338598,2.5487180914165535,-0.04305003603089286,3.8423851725925133
1.074552815065418e6,19.0132968950106,18.895961525443592,-0.018826209587713662,-1.9711421585902338
1.074552815065418e6,54.828103065146884,31.54631890304963,0.39488963937961796,-44.83561497906477
1.074552815065418e6,182.11544770849986,29.896293577155156,-0.26999312630249356,-179.6430145792383
1.074552815065418e6,166.2382840476308,6.485692296470447,-0.14979434134800995,-166.10995785677738
1.074552815065418e6,813.6407611605591,10.572501250712342,0.16392471279563314,-813.5717062600662
1.074552815065418e6,31.90558686472648,20.805484047314785,0.2881464256668372,24.17546147161779
1.074552815065418e6,31.557777463916146,18.73834527414246,0.17327873000316063,-25.38061008564549
1.074552815065418e6,156.11812545777238,17.750182056944762,-0.3997885083322439,155.10344277781667
1.074552815065418e6,141.66963184519307,24.012979764642154,0.1954141343767978,-139.61755212823448
1.074552815065418e6,21.66137490680392,13.428714260543517,0.5113031514270017,-16.97236059709711
1.074552815065418e6,31.090273989477538,5.9209281321242795,0.17216861453284885,-30.511567703937104
1.074552815065418e6,21.600853222941048,14.167605401493368,0.07370009511766012,16.28827935760442
1.074552815065418e6,27.51077463035075,23.825077606311496,-0.4137411408930812,13.728615191354201
1.074552815065418e6,21.750029435500995,20.339238168667688,-0.1422550693524462,7.667893690406682
1.074552815065418e6,95.11878891693803,36.11023975402552,-0.1644988193175425,87.9945747706017
1.074552815065418e6,219.17072928379505,11.323364547510097,0.5571366701532846,218.8760316887948
1.074552815065418e6,771.6978610733488,4.747574463853233,0.2973004441434511,771.6828354922288
1.074552815065418e6,357.8000062024959,23.16777376973244,-0.041427159981929716,-357.0483645668186
1.074552815065418e6,172.8940045079954,20.731014416066383,-0.3356197296639225,-171.64465285722542
1.074552815065418e6,103.62456492538914,6.772767280073617,-0.21291374331944088,-103.40005999066354
1.074552815065418e6,20.98252757598388,20.638975321850488,0.0008106525809946516,-3.706321555474778
1.074552815065418e6,9.035057957636964,1.7046832045352835,0.3475733051050618,-8.834205072125995
1.074552815065418e6,110.45035645780196,3.9058134550971775,-0.4888242170064433,-110.37764525837251
1.074552815065418e6,21.210920127661804,18.23857110284614,-0.08360256861348268,-10.802237101071224
1.074552815065418e6,228.77575189968707,31.91893188062099,0.06285962624613675,-226.53688475063743
1.074552815065418e6,75.49083624019664,40.279589861061936,0.2881708429892041,63.8418014581578
1.074552815065418e6,606.8605088565464,13.960105102949845,0.195235222904522,-606.6994249357234
1.074552815065418e6,16.749992520574956,11.61323273719216,-0.10524681968412486,-12.046645048594879
1.074552815065418e6,74.86400396907342,19.782440121642058,-0.2917330796582341,-72.19852286518116
1.074552815065418e6,37.09518307014278,22.5316108909526,0.5158752764528626,29.45421276072444
1.074552815065418e6,526.7407193968172,16.944029642801052,-0.3565417375664842,526.4674689542732
1.074552815065418e6,337.0650854799278,20.546380941304143,0.112506961436485,-336.43742818090004
1.074552815065418e6,21.55316431373166,20.389824693088805,0.02526767099247872,-6.9448514349400385
1.074552815065418e6,7.966769483765893,7.860970705137717,-0.4218247068718311,-0.9665808222112575
1.074552815065418e6,36.75149533503672,34.74284209211305,-0.28796489822976423,-11.956674618382637
1.074552815065418e6,4.8571791524598895,-0.058298450210347706,-0.1551189829443993,-4.796080451753111
1.074552815065418e6,197.67121479791308,15.606087532390298,-0.6007490240170698,-197.05186107015834
1.074552815065418e6,1109.1024952527534,26.644289377581593,-0.13031788935976402,-1108.7821460934895
1.074552815065418e6,56.86269605918466,11.273875753575659,0.009147590799545358,-55.728839068497564
1.074552815065418e6,23.25056915612173,18.13050398849861,0.12338683327095674,14.536031985544565
1.074552815065418e6,25.81164092711766,21.320386941506662,0.7079814113797617,14.512695453457034
1.074552815065418e6,15.973033574693357,5.249409415728003,0.4777660633482677,15.05957837862083
1.074552815065418e6,55.269076059468816,8.498854671371138,-0.140482008915371,-54.6063930463842
1.074552815065418e6,6.203031946689734,1.5264894016139443,0.08097225845938057,-5.964774758575357
1.074552815065418e6,27.47810824571081,27.254274825615962,0.4262698409304384,3.3921806414567257
1.074552815065418e6,485.3647348289749,17.04075071932275,-0.33342933920936585,485.0648050666917
1.074552815065418e6,65.8102620933108,28.369735893130215,0.18867319390661413,-59.37634835150242
1.074552815065418e6,411.19803630514997,5.1505686738859415,0.36516401671797527,-411.1649316488174
1.074552815065418e6,279.27050255067866,32.213585118990984,0.3118226692345508,-277.4051891264867
1.074552815065418e6,134.92053908302708,11.402699361425157,0.3450544787354696,-134.4352963701239
1.074552815065418e6,49.7711936600156,25.403382832500156,0.5273153007110158,-42.790179440738655
1.074552815065418e6,21.41493031929262,21.337329698115315,0.39800032603018826,-1.6114765475576855
1.074552815065418e6,46.1474481055139,12.901823715339642,0.5984088335780664,44.29683371671227
1.074552815065418e6,279.70098537201244,2.2905121548602985,-0.017326315680133347,-279.6906007196715
1.074552815065418e6,10.678114664640624,7.731255721245799,-0.35254070120040965,-7.318687847331541
1.074552815065418e6,211.55669717864677,15.552131287994708,0.16361863765825096,-210.982886086689
1.074552815065418e6,50.50417898837304,12.314692371494964,0.09882957760075285,-48.97395571922305
1.074552815065418e6,375.46446430534104,32.97507318180833,0.12946088926787366,-374.0128733126949
1.074552815065418e6,31.92007082984771,9.158005914761981,-0.10475519941493125,30.56875095231466
1.074552815065418e6,108.23193445255569,31.178547660667,-0.07195162014017412,103.64112254827691
1.074552815065418e6,6.636148494271937,5.026018086997383,0.19201044252875935,-4.263613491620313
1.074552815065418e6,1676.0833022386032,29.980155867501452,-0.14216957087281895,-1675.8149789711342
1.074552815065418e6,782.0739539618596,14.686899825661675,0.49156147079259993,781.9355219360207
1.074552815065418e6,39.099213244042375,21.83661123791867,0.09156722188682911,-32.42437602144014
1.074552815065418e6,22.08833651797658,18.773373916486783,0.009365785558213756,-11.614327926917525
1.074552815065418e6,269.66691770571333,35.09531774037257,0.07083537614040196,267.37239539440213
1.074552815065418e6,146.0962634929631,33.68443085437249,0.64525556955694,-142.15659896347063
1.074552815065418e6,51.90410196139015,11.753086015263719,-0.3823433591469934,-50.54890940545283
1.074552815065418e6,783.8569119033182,13.80446282561612,0.2853931933151351,-783.734936923458
1.074552815065418e6,135.284544742735,22.28836830719501,-0.31171101062288065,-133.43341852656894
1.074552815065418e6,174.25977226572184,16.953198100474705,0.6434515671673855,173.43033452466375
1.074552815065418e6,371.7139240052032,25.589303054328,0.1006970651758904,-370.8313044871341
1.074552815065418e6,30.384780323166925,20.835299263215987,0.345009044941095,22.10076486565604
1.074552815065418e6,29.799768758753782,19.301583625846263,-0.1910479093458829,-22.690884674132032
1.074552815065418e6,25.633717426366484,13.314816313736301,-0.21509154649080264,-21.89051233392354
1.074552815065418e6,78.21012923932824,77.70196298607152,0.10153421913838166,-8.868856382573082
1.074552815065418e6,127.01195985101475,12.704097816462953,-0.21033233790271325,-126.37261278917173
1.074552815065418e6,14.21647234784384,14.18893224970707,0.37307562678622763,0.28418514333672035
1.074552815065418e6,138.10499268201954,9.044184247746186,0.15811160812960354,-137.80640186399773
1.074552815065418e6,26.402248006113602,17.55259553553935,0.4206395866401366,19.703954198815246
1.074552815065418e6,28.819929749255323,28.42620397728207,0.13876071501948722,4.685902543448379
1.074552815065418e6,3.6459429446459977,2.8562777080986637,0.2997325353425502,2.117167212539837
1.074552815065418e6,412.90647918765865,33.94142446803805,-0.2196895147146613,411.5083591565726
1.074552815065418e6,60.31499664438787,25.130713560601272,0.47546100383699047,54.82296646452219
1.074552815065418e6,163.5865239304709,22.46562133510708,0.3668041770281857,-162.0344092573136
1.074552815065418e6,26.6145304529643,19.627554619797504,0.2404156567587458,-17.957510689941934
1.074552815065418e6,31.43364111481606,29.626681636004275,0.010294219342636685,-10.477169560129951
1.074552815065418e6,14.453012345056335,10.880450948406516,0.03217294722245509,-9.48377440136054
1.074552815065418e6,75.03527371903924,11.572207003349304,0.18364910850822347,-74.13352992510528
1.074552815065418e6,20.625890159300255,14.77446132042234,0.39835838327294126,-14.367379967903105
1.074552815065418e6,49.32135039539111,26.837883826117967,0.3631650779908481,41.371842679238185
1.074552815065418e6,139.07428379775533,13.006019863728497,-0.37829507594525685,138.4622490536217
1.074552815065418e6,683.2408156719755,12.163440819522032,0.20608112650976323,683.1320941787866
1.074552815065418e6,32.569659735241764,22.30740828767627,-0.2386227796567269,23.71798871983317
1.074552815065418e6,161.36294029227085,12.723471379259298,0.40988601205962266,-160.85826502941654
1.074552815065418e6,15.159213212112036,5.75238628119725,0.20685326523985367,-14.003809053167977
1.074552815065418e6,32.86909012096946,6.845885295446749,0.3458420319512873,32.13765691800971
1.074552815065418e6,45.941884259961576,16.590820918682944,-0.25584657020960444,-42.834257226210596
1.074552815065418e6,26.11816474027339,7.165319132340274,-0.016767560300947927,-25.104862257528197
1.074552815065418e6,360.279006922813,17.69893478903171,-0.6510927599774026,-359.84263820985507
1.074552815065418e6,68.36258590902618,22.446894104736728,-0.05006725986113889,-64.56791191821193
1.074552815065418e6,31.330664540398597,16.427793203682988,-0.4036001000394272,-26.664825462545767
1.074552815065418e6,26.368344373519594,13.206563946148988,0.020896594176712163,22.810380883666014
1.074552815065418e6,45.962605976268755,24.77063520689132,-0.3819628442018502,38.70747399341973
1.074552815065418e6,902.5225421334853,34.46697539579364,-0.27588409014812904,901.8638080182131
1.074552815065418e6,39.68249983129837,8.310151409299179,0.5921209915351827,38.79083948737981
1.074552815065418e6,44.66941039929915,14.631762157583609,-0.40122321923387694,42.196497964902626
1.074552815065418e6,118.00654030242418,19.404127877428728,0.24163892477760526,-116.3976058391359
1.074552815065418e6,255.32539561518144,35.62883484202907,-0.2399310580471932,252.82607433950415
1.074552815065418e6,338.4091655237071,29.193891782212784,0.10573356252036797,337.1467135720926
1.074552815065418e6,4.374616181554162,3.2495787068439883,-0.25184446248687253,2.819882678307801
1.074552815065418e6,82.38741798665366,5.527262002008891,0.05733137446501031,82.1983600163105
1.074552815065418e6,92.134059485693,14.998548329707146,-0.4922965488399828,90.90062578668761
1.074552815065418e6,151.7929502111234,11.411837934256063,0.282146908404422,151.36124913883907
1.074552815065418e6,22.02591336355636,9.478371381900923,0.5110007858560504,19.861467031195627
1.074552815065418e6,117.61211595543246,9.574567820858626,0.5028282340489998,117.21826774574723
1.074552815065418e6,18.922526903742526,4.191261983285202,0.540842136479281,18.42933792035135
1.074552815065418e6,16.726577789783022,12.098630971822988,-0.33250937292353805,11.52079119118953
1.074552815065418e6,195.42601870604904,7.619227140638989,0.1616522154741483,195.2759270689205
1.074552815065418e6,32.96567194648899,27.73023073361189,0.7042807983666051,17.7963894621913
1.074552815065418e6,76.46297133063706,6.235433753486525,0.009482996278929736,76.20461219425798
1.074552815065418e6,336.474699582826,33.60570575767405,0.009536411394956036,-334.7914538454159
1.074552815065418e6,28.25962424859627,11.711346243375658,0.15334642319822853,25.707292267037335
1.074552815065418e6,64.33446875921705,13.629293382407745,-0.21618816750152905,-62.86936578407585
1.074552815065418e6,15.163364461484285,13.894554064353125,-0.32687854780146103,-6.016626841372492
1.074552815065418e6,15.745431651070328,15.528836951789097,-0.025260480187816205,2.492160047063874
1.074552815065418e6,4.057627844932364,2.761901877779687,-0.4213524867722346,2.8454108343334807
1.074552815065418e6,673.9189241388365,33.51987644695786,0.2377896486655889,673.0843300140773
1.074552815065418e6,313.1738793327852,19.91582702708377,0.16320765725706526,312.53903684567547
1.074552815065418e6,69.40295540880432,21.42090174261881,0.34702977670116025,-66.00933583465597
1.074552815065418e6,44.49454594585606,10.122169327419485,-0.3878391407372391,43.319666974996714
1.074552815065418e6,68.44301946665192,11.064499315429584,0.06533283464539362,67.53856053559947
1.074552815065418e6,2.5449539044833043,1.4245044616427869,0.4112169180728894,1.927728468887474
1.074552815065418e6,15.169420124645324,3.2506667816216854,-0.28076360805338285,-14.795381143384333
1.074552815065418e6,13.802186647636828,13.40797373527663,-0.5204428887917547,-3.145376727612528
1.074552815065418e6,173.3456435037931,33.880378246887524,-0.28432905373700834,-170.00055560959183
1.074552815065418e6,14.374308456320051,13.153689854050183,-0.31294985820259824,5.739417060634848
1.074552815065418e6,17.759250727775992,13.888286184581249,-0.25361003960102174,-11.03992002705451
1.074552815065418e6,107.14744355385741,1.315068021995836,-0.2444815386015663,107.13646971965535
1.074552815065418e6,286.4831785881689,20.914156061581153,-0.40048414004696936,-285.7174950220144
1.074552815065418e6,15.486559911676478,13.896630193991227,-0.2812024288525956,6.7879150946492945
1.074552815065418e6,1.7958392473318123,1.5573534024064186,0.35929669715325835,0.3290195350571181
1.074552815065418e6,15.686173376192187,13.539034949251878,-0.40195116408667086,-7.8757007358932904
1.074552815065418e6,30.717864587631816,8.260636687866496,0.23136105557835945,-29.57588912249104
1.074552815065418e6,304.7371372756601,35.09736435924442,0.21897755928284163,-302.7082548557542
1.074552815065418e6,158.43604590840343,30.683126724938734,-0.5627297006133098,-155.43373948967414
1.074552815065418e6,16.612823019256606,6.818029067626575,-0.13122270673928982,15.130129143273738
1.074552815065418e6,37.25957031197453,14.229793687326001,0.5085206538136141,34.42335859823268
1.074552815065418e6,665.6830756805115,17.46062597621714,-0.35600285892388006,665.4535255815672
1.074552815065418e6,43.53752306439439,16.67406048080402,-0.10890237154718914,-40.21091171470001
1.074552815065418e6,150.4324287870535,36.45565441401525,-0.4120183735203773,145.94577346352466
1.074552815065418e6,24.42326187867599,17.083045148810978,0.022986969031644253,-17.438532616768313
1.074552815065418e6,664.2881930737981,35.003950119233174,0.3344930140227706,663.3647961014468
1.074552815065418e6,8.429538638822061,4.06631205921169,-0.401040772299298,7.334783786058132
1.074552815065418e6,44.25838200610383,21.0496480694395,-0.2587782505068326,-38.924123455214584
1.074552815065418e6,11.24497734331184,2.7685704551063757,0.4998298482628241,10.861508283763278
1.074552815065418e6,356.0579063266715,32.10795095458529,-0.12091260814320275,-354.60645112908
1.074552815065418e6,26.212808770082056,25.636637261072316,-0.35184344764643605,-5.402595555675224
1.074552815065418e6,25.943508647687963,25.897723361481482,0.5497050626725434,-1.2284335462988656
1.074552815065418e6,27.564064181022538,19.802532794451537,0.34406692818392837,19.15611145399544
1.074552815065418e6,21.616756764492543,11.286047213093578,-0.16448374210116315,18.420638300732286
1.074552815065418e6,174.29961531507445,14.907424874382457,-0.4430354202320095,-173.6587629842006
1.074552815065418e6,915.4880389328014,22.377324863486677,0.10219537881925585,915.2142000515912
1.074552815065418e6,10.034655361741066,6.4370243935191445,0.04205219477563373,-7.661260717912996
1.074552815065418e6,146.20753990390074,16.927525103695707,-0.634816448123211,145.2209980880191
1.074552815065418e6,266.3766587442735,9.219757444791096,0.17925761296443588,-266.2159385200657
1.074552815065418e6,15.708040715474947,12.284110607290874,-0.023683756290042473,9.761161189905355
1.074552815065418e6,15.650454356117802,10.073009326896361,0.5884157116961324,-11.939959404963602
1.074552815065418e6,45.709912879863644,37.8888838801647,-0.0943355684815924,25.55890008567276
1.074552815065418e6,10.98889502070696,9.277588705390588,-0.48929723977334244,5.820687999681942
1.074552815065418e6,8.577053814974725,7.616772854686487,-0.3361948202444309,-3.8568452725885165
1.074552815065418e6,38.89622899833243,11.89595065544182,-0.41156855702864586,37.02257768721188
1.074552815065418e6,225.76511624266737,13.845976720315274,-0.3079201335428079,225.33867729465732
1.074552815065418e6,20.036732449365566,19.345945416812604,-0.03794793188952694,-5.161517424207319
1.074552815065418e6,524.9550407926038,26.12778968076492,-0.50954918467127,-524.3036443498931
1.074552815065418e6,103.93807797801287,16.010354881253402,0.480040715011435,-102.69371845561197
1.074552815065418e6,11.887738993664273,11.586565980874688,0.0883842144007616,2.549445895039196
1.074552815065418e6,9.185879328900139,8.58612054228509,-0.6231336933132986,-3.1158107239507604
1.074552815065418e6,122.53059422041161,11.32131779146943,0.19309240373658104,-122.00399443372385
1.074552815065418e6,38.54666697931037,12.857164245785858,0.5672012666618292,-36.32705334158832
1.074552815065418e6,211.21248009964847,15.348587591478354,-0.2108164175635231,-210.65261884016056
1.074552815065418e6,172.54392791225462,29.061683281879162,-0.48940442937950723,-170.07652326675293
1.074552815065418e6,49.52360942641619,12.324467310311865,0.3357036353747589,47.95852748151504
1.074552815065418e6,26.766410559698166,8.369897712437973,0.12191714981090178,-25.412759427716487
1.074552815065418e6,200.38597655381054,27.286338048597848,0.30050481367417964,198.51786496728116
1.074552815065418e6,29.323099541413697,7.306526716703303,-0.15489627716982193,-28.38789354964262
1.074552815065418e6,94.28081128766826,51.921384543772106,-0.26540029936108045,-78.69185743003223
1.074552815065418e6,26.992586286252916,8.73166648373998,-0.06772459244392569,25.530193638237115
1.074552815065418e6,42.29366791597216,13.65296762011356,-0.27351198058640297,40.02141515658714
1.074552815065418e6,11.667443735012743,10.125014936069835,-0.17609621519315555,-5.746300111011383
1.074552815065418e6,10.441555113242229,9.764157720407708,-0.3761821597540117,3.60325452408296
1.074552815065418e6,40.1256994288775,13.460945803629233,0.02190910197124297,37.79301353039199
1.074552815065418e6,24.861125340973395,7.623172538677169,-0.06808497851510059,-23.65154999338545
1.074552815065418e6,18.972499937046408,11.23289038650407,0.2304817976399759,-15.26965829859107
1.074552815065418e6,16.930788588256068,15.308317558537373,0.5256083864020922,7.174148769025223
1.074552815065418e6,2.7534552120233955,1.6833379470047725,-0.23286433639148513,2.0325654110983766
1.074552815065418e6,104.61664362468144,9.663096879112116,-0.0769691310671628,104.16668573368413
1.074552815065418e6,243.2711513110286,13.821884239976976,0.1944584314142274,242.87694090044297
1.074552815065418e6,26.61022343700928,22.275691975550732,-0.3371125111833134,14.533463197789803
1.074552815065418e6,76.12489627024225,9.884664603217905,-0.20768162257324246,75.47640535405382
1.074552815065418e6,185.54265443903134,17.012268605843072,-0.31437515445996994,184.75929789976865
1.074552815065418e6,1454.8098019420859,30.855096355354032,0.02048100018142814,-1454.4823684373732
1.074552815065418e6,30.568307168026337,22.460792110520018,-0.2821028536683733,-20.719370112422048
1.074552815065418e6,65.20409703430433,14.175327688257259,-0.32406746711418055,-63.63935098863773
1.074552815065418e6,22.67491704749833,7.700902452402266,0.14878826800144326,21.31345785107579
1.074552815065418e6,274.46461758319543,9.983531296702882,0.3795799859614036,-274.28169641075306
1.074552815065418e6,20.834049929591202,16.79065877379793,-0.1555739013505122,-12.310356215827557
1.074552815065418e6,270.6753702676289,20.304035149248065,0.7144234287285373,269.9107806004224
1.074552815065418e6,83.50179085513804,30.78564520231671,0.1939740199899308,-77.61567598469153
1.074552815065418e6,48.9274199830027,16.801632935598644,-0.46384389377120805,-45.94366185581548
1.074552815065418e6,2.3244335170531456,1.4387989074384118,-0.12503006093257107,-1.6597817181127419
1.074552815065418e6,43.19885195303432,19.26580737881567,-0.6786685719474169,-38.651604676400744
1.074552815065418e6,3.7710842178214414,1.8012783047470358,0.19654658040850276,3.2211024630153147
1.074552815065418e6,543.512580700284,20.11612188110915,0.4233240044680518,-543.1395082994085
1.074552815065418e6,285.9820526592833,26.291911971110128,0.38658033661864083,-284.7696578337527
1.074552815065418e6,508.4024255592666,39.57557176043625,-0.03427566434192392,506.85918845232334
1.074552815065418e6,51.3204717026253,15.1335454344314,-0.15848811485180572,49.03242966517347
1.074552815065418e6,197.6873196076514,13.436400863705227,0.4221232707662589,197.2282914199192
1.074552815065418e6,576.5094022181647,16.88772121253008,-0.5649842830792211,-576.2612377819127
1.074552815065418e6,319.05727947107664,20.220428530759502,0.2529847999171789,318.41491094356263
1.074552815065418e6,171.67081508481914,6.2752278972935684,-0.5044047838328248,-171.55370442379265
1.074552815065418e6,23.790720249644167,9.380272594151926,0.4213655129438234,-21.846486357066592
1.074552815065418e6,31.341342604542596,6.179264688063032,0.29303673138138914,-30.715602429921482
1.074552815065418e6,99.28253840697536,13.123849351115618,-0.19899598378217398,-98.40825712474009
1.074552815065418e6,106.09252485903531,26.027231051036885,-0.27732722514948455,-102.84730343270999
1.074552815065418e6,141.92927205363262,14.19114717073686,-0.2873654977419673,141.21573810206857
1.074552815065418e6,479.1415778680536,15.909975986929956,0.5070053707096388,-478.8765027755341
1.074552815065418e6,754.1935740493211,8.917208044472908,-0.2956202670010166,754.1404251236152
1.074552815065418e6,152.54752681216996,40.15986161989842,-0.2955491722979222,147.16413884114513
1.074552815065418e6,135.01744233348987,11.822906112224462,0.3211946335348613,-134.49633124488912
1.074552815065418e6,24.762950342630155,20.244057505728854,0.2513403160650786,-14.239253225172824
1.074552815065418e6,212.65848766274817,21.228530968911794,0.4482931955732598,-211.5944671774494
1.074552815065418e6,38.733408955559945,9.258729671005158,-0.23179477228863518,-37.60235131438195
1.074552815065418e6,461.6555030502701,58.923015691982044,-0.2556438732244584,457.87908231711043
1.074552815065418e6,82.79674756608303,25.28322347848732,0.25568689661728466,78.83801304737585
1.074552815065418e6,41.94079371016191,21.43372177265584,0.24872790015269405,-36.0416639659046
1.074552815065418e6,26.249869214547317,8.529425790326927,0.3065998363970133,24.812258764514567
1.074552815065418e6,24.855161974089,12.511496380054947,-0.2762032133706381,-21.461661302512425
1.074552815065418e6,14.700311406274311,5.28858194190499,-0.2390299211810897,-13.693450265391075
1.074552815065418e6,665.7259100621062,34.909217451622766,-0.22727965092726587,-664.8095365350018
1.074552815065418e6,40.58996713008154,19.343578956871827,-0.3287930533997425,-35.67493432197409
1.074552815065418e6,666.0693469688275,23.30973412648419,0.6097851164826564,-665.6606470924456
1.074552815065418e6,87.85824803455148,15.792479179636096,-0.120030196483492,-86.42391220491137
1.074552815065418e6,100.6894459832745,0.3920733121567122,0.6086531792421127,100.68405043120194
1.074552815065418e6,254.3138560814744,19.51932673460712,0.6737590394086546,253.5616630853373
1.074552815065418e6,135.73416756756347,45.115706062277184,-0.2477163805319236,-128.0145054567848
1.074552815065418e6,87.1215831381382,27.192457015210326,0.004136760758813608,-82.76580315472955
1.074552815065418e6,2508.828723631805,18.03309011059411,0.405977503353036,-2508.7637682775776
1.074552815065418e6,368.21393772482077,13.09036644054413,0.320114028336002,367.98027314961894
1.074552815065418e6,8.00712366510926,3.2812300485983465,-0.5668400654771251,-7.243197504242303
1.074552815065418e6,756.3710186371569,13.9931645576842,0.34501732791962425,-756.2411175028135
1.074552815065418e6,62.576873460559156,11.017488844223175,-0.47510526474970327,61.592953863590765
1.074552815065418e6,13.064099782662383,6.415350375802865,0.15370442199684128,-11.354647358085062
1.074552815065418e6,410.7351856315115,37.76870761607532,0.39547612270327653,408.9941303960105
1.074552815065418e6,150.07422841693057,14.743416498663398,0.4079776664112586,149.34582993206226
1.074552815065418e6,9.176619970543754,5.967526459668008,-0.4070886228246139,6.918881403729613
1.074552815065418e6,7.804149439644149,7.765428255834114,0.1978957940860133,0.03699625978815524
1.074552815065418e6,113.16300881228945,12.301578779875147,-0.2732701559691074,112.48955820601059
1.074552815065418e6,1583.331376444281,33.60284439250906,-0.23978031218387091,1582.9745660136377
1.074552815065418e6,11.714913637496734,9.785811584754407,0.007237404242551975,6.396459940501248
1.074552815065418e6,114.96215618177415,14.338678422777294,0.18791266424562283,114.06183412022705
1.074552815065418e6,263.3978621921464,18.086827260037914,-0.6170370905741952,262.7743469429162
1.074552815065418e6,94.77497279111175,25.854201067917394,0.01279995840639241,91.1772627898288
1.074552815065418e6,185.18587429971265,17.246282603748902,-0.5979001411336102,184.37856152739283
1.074552815065418e6,24.95842766018991,15.705612303019793,-0.45424557274282334,-19.377517214663328
1.074552815065418e6,15.97619664497888,12.804774647315469,0.4757729778249673,-9.512513050337274
1.074552815065418e6,27.177545130979677,12.798585421088372,0.5492231398822309,-23.95727829902477
1.074552815065418e6,212.55695076581839,34.473793196231085,0.5844693467699591,209.74058013674295
1.074552815065418e6,89.4580128712052,10.01166238258427,-0.26868528307020584,-88.89245271905422
1.074552815065418e6,122.9897605415593,21.026764939114408,-0.18809661576460857,-121.17655975029672
1.074552815065418e6,85.16641095478657,14.296471371979646,-0.12817656118112225,-83.95445009639262
1.074552815065418e6,184.13432053158473,29.754160042699613,-0.1788021414935601,-181.7128054006232
1.074552815065418e6,213.02130954400644,32.040604200664724,0.3183625009575799,-210.5963302306251
1.074552815065418e6,60.02825441421315,11.547704558487855,0.35684241531239475,58.90120686307521
1.074552815065418e6,645.8934508092456,35.30856398650344,0.29804185077874285,644.9271307190683
1.074552815065418e6,494.1973219113341,35.03254520720061,0.13110539566370324,492.953480798142
1.074552815065418e6,385.12055808540885,23.233162050643198,0.16532785285463147,-384.41835903977733
1.074552815065418e6,304.57562615162533,8.688315827268461,-0.2864547971484703,304.4506213105471
1.074552815065418e6,28.752295170626518,10.672567670695623,-0.03311885686116437,26.687587733314146
1.074552815065418e6,26.764288172098592,22.51292751912323,-0.4297914575847148,-14.448119399063382
1.074552815065418e6,14.5667369313606,13.419511016109727,0.4932235993201932,5.594724156364836
1.074552815065418e6,39.149131002073446,8.678758471516607,0.17111337027740856,38.16728951358562
1.074552815065418e6,346.5660491527673,10.062715715195724,0.26941812319033426,346.41901398545826
1.074552815065418e6,39.87797533468153,8.587006696943636,0.49743199872315347,38.932074863478874
1.074552815065418e6,331.077536048054,17.318070005470215,0.495886698960158,330.6230649581283
1.074552815065418e6,417.26520138044765,8.261202825761183,0.21836978906983393,-417.1826827476916
1.074552815065418e6,24.204673525239645,22.9122695174999,-0.3190658003835577,7.760797769860481
1.074552815065418e6,942.182280207086,12.60257697984806,-0.0066278043894936545,942.0976922828926
1.074552815065418e6,169.47588959513126,32.80209154828598,0.05738834520631079,-166.26946295001252
1.074552815065418e6,285.7448593024852,2.533550087717712,0.4966651944502781,285.7322115625459
1.074552815065418e6,138.62953631085924,16.142697006552652,0.36693389552505373,-137.68393039720922
1.074552815065418e6,33.311747525278065,25.908792470181535,0.268027733395825,-20.923021197901342
1.074552815065418e6,112.37615582734014,17.921581733007365,-0.294586701404839,110.93497277406208
1.074552815065418e6,70.89366035145328,32.286573643821065,-0.01885727835650265,-63.11042341611372
1.074552815065418e6,17.362746103601495,17.340099481855095,-0.33671748670486723,0.33193755498378436
1.074552815065418e6,13.85253356350455,8.78144859930787,-0.23936631356699076,-10.684531313184834
1.074552815065418e6,28.350348579168003,24.295884755791985,0.416943330695523,-14.584788848021093
1.074552815065418e6,1239.1746502974283,40.17655441416231,0.5681812991920153,-1238.522819024405
1.074552815065418e6,262.64038899752273,19.788472326308682,-0.5576656242160398,-261.892185763152
1.074552815065418e6,16.14743285108611,14.04960688986838,0.6239577142992903,7.899143604216102
1.074552815065418e6,79.384939795028,31.857115567029002,-0.545072784491398,72.70648807814574
1.074552815065418e6,112.14694780318267,18.71645876093488,0.12783965254572946,110.57148542473325
1.074552815065418e6,19.09238547776628,18.92119140357442,-0.356779355130913,-2.4120668691888394
1.074552815065418e6,8.471664054454473,4.827975455705547,-0.3916469956417437,-6.909704513957859
1.074552815065418e6,14.815295882994699,14.218225783187885,0.2663300338616829,-4.086780515368809
1.074552815065418e6,27.247222426319492,17.583515289759887,0.46585954846846783,-20.795474360398053
1.074552815065418e6,72.29814515718813,32.34958051200927,0.14231638786487005,-64.65248517188945
1.074552815065418e6,102.79569506642433,28.245613369476548,0.720825169817949,-98.83348784513609
1.074552815065418e6,132.53996572225142,12.233578194072127,-0.07899759569745783,131.97201785452
1.074552815065418e6,10.618888216596481,6.504001844678906,0.08794608456942439,-8.35994446368861
1.074552815065418e6,61.931601395968,36.72353014379556,0.29904239517302383,49.8623487000107
1.074552815065418e6,4.611424173724731,4.267908213961584,-0.20496715661901999,-1.5639181054913258
1.074552815065418e6,104.48455333826934,14.34008805397879,0.5705415888473525,103.49152575059438
1.074552815065418e6,1261.6965245529977,14.932406159213794,0.3744134675154387,-1261.6078791720322
1.074552815065418e6,278.0252340157116,27.595473579459203,-0.40264907763661634,276.6510367233883
1.074552815065418e6,225.52833713402794,23.098193683146643,0.02914868424027567,224.34112665393874
1.074552815065418e6,200.55254470424308,19.375026644011044,0.46840303863323773,-199.6124990762688
1.074552815065418e6,41.52634355237262,19.56027761769303,-0.5409220635120369,36.61936387566591
1.074552815065418e6,50.070259128456215,9.858806579469393,-0.24420982862883622,-49.08373256556319
1.074552815065418e6,64.06645530227206,22.761535984781165,-0.32446959441887785,-59.88117862135479
1.074552815065418e6,37.331753762715906,13.557671025780913,-0.3956131502011227,34.77255447304534
1.074552815065418e6,103.261089614173,16.445355881448762,-0.24916824795289985,101.94007294686295
1.074552815065418e6,24.05722196586472,23.740872168977113,-0.3363744774254361,3.8007142185216596
1.074552815065418e6,28.76723582299536,18.937622014454185,-0.15323438795593014,-21.64103758013001
1.074552815065418e6,23.558614561694192,5.350277046333389,0.3990277643229018,22.92730449542665
1.074552815065418e6,81.72288676198421,10.202377419914328,-0.40738678756314994,81.07905654783976
1.074552815065418e6,23.76313561432637,7.139443630126418,-0.11773777384809568,-22.6525662052335
1.074552815065418e6,86.42496950332828,5.0366112387110125,0.2273397501264292,86.274526231722
1.074552815065418e6,5.772621124755565,5.559273122782275,-0.07631578549656379,-1.3599528984243736
1.074552815065418e6,293.9940198741589,11.63480778971838,0.4183882045546708,-293.76245093572237
1.074552815065418e6,22.205006725288612,21.660338196325792,0.4129821872620204,-4.812398320242276
1.074552815065418e6,477.14403445243056,23.64994454946121,0.5702936635429171,476.5566305912402
1.074552815065418e6,19.185472824615548,13.53041740403895,0.4559972069790638,-13.573499840222967
1.074552815065418e6,299.98338766459585,8.055620245138229,0.30354925606529914,-299.8741158786987
1.074552815065418e6,71.68647752957799,20.499308242205714,-0.21111081770467313,-68.68859085322056
1.074552815065418e6,23.217664250689946,13.381534057249741,0.4267134165860755,18.95389285031707
1.074552815065418e6,9.538681133651595,0.5785587170520755,-0.5421082978515109,-9.476047971732125
1.074552815065418e6,254.18981820444083,27.75923652865442,-0.3650890580109161,-252.66814764651556
1.074552815065418e6,25.744881772936317,21.08464638581527,0.4673304983867351,14.746385505663321
1.074552815065418e6,15.470098775997384,13.660507225229,-0.13617435485785812,7.220361072856743
1.074552815065418e6,38.47708079306605,22.73238671249261,0.1389885606960513,31.034540142856663
1.074552815065418e6,134.15139354269812,10.096969930542713,-0.17034698001736992,133.7686668415468
1.074552815065418e6,28.27970805684275,16.345420121243205,-0.2730502668647026,23.06365607142206
1.074552815065418e6,28.77450265633491,24.85478962384111,-0.23908626973100272,-14.477290237417195
1.074552815065418e6,23.94767412744838,5.55060651390257,-0.07771347390363945,23.28333058320954
1.074552815065418e6,41.47865993988411,8.884512458698676,-0.46177182294965363,40.50640806776218
1.074552815065418e6,7.472458535326668,3.6739203640560145,0.11075127219021737,6.462610839685703
1.074552815065418e6,25.184218476685306,24.967706455374472,-0.31423226577821567,3.1933386465543045
1.074552815065418e6,66.68540950051408,19.746597132709937,-0.25681651443063985,63.6897750521729
1.074552815065418e6,62.186222662782654,11.075472440943074,-0.34807833268387534,-61.18640943655848
1.074552815065418e6,39.54090329092885,26.55863886046469,-0.15162251255302286,29.28372251856745
1.074552815065418e6,228.65879437529406,15.349640056130362,0.019299190610599856,228.14177627484244
1.074552815065418e6,31.66084542851198,24.882191030784643,-0.039455072188142565,19.563276950493513
1.074552815065418e6,36.700128432326174,12.400965632839611,0.21239264094641105,-34.532709518327735
1.074552815065418e6,44.977405641381814,19.838646534806628,-0.02921017902566729,-40.35878996762185
1.074552815065418e6,12.64714432421469,12.361640655602379,-0.4625384609835338,2.5226607025419066
1.074552815065418e6,42.91446279503145,7.0959777754948385,-0.013604349556566067,-42.31708508754187
1.074552815065418e6,57.542041941854855,16.514513594243958,-0.17989045420913957,-55.11590269601835
1.074552815065418e6,47.709943431568306,9.448595278499369,0.19511962388475626,-46.7585536220669
1.074552815065418e6,40.56328735798883,12.288116508879853,0.12378097849043583,38.64977116632255
1.074552815065418e6,33.74890986253125,18.966789104897476,0.2178506144530932,-27.904122062128156
1.074552815065418e6,20.185694040967853,15.158253108302702,0.20369670647812574,-13.307357861751916
1.074552815065418e6,113.37492922294575,12.771724029400309,0.3069594599432508,112.6503487633461
1.074552815065418e6,9.961674840038675,8.451870034949076,-0.021594407960232556,-5.219008641619431
1.074552815065418e6,18.998108568174434,10.353188327818284,0.13458247172872725,-15.910976310834517
1.074552815065418e6,106.79121827418426,18.818341665678677,-0.04346102033324283,105.11741096301182
1.074552815065418e6,10.230284882583149,8.00725960127241,0.07460817678472582,6.322548146543533
1.074552815065418e6,68.9875653185399,9.293021380610753,-0.622905801448359,-68.35183662163442
1.074552815065418e6,56.054742023543966,6.314035170453073,-0.3150280658021013,-55.692059393587414
1.074552815065418e6,53.871881736640226,5.978590962483802,-0.16230512267769187,-53.533610078022704
1.074552815065418e6,4.676007362995517,2.168009382952659,0.026835880216409043,-4.07452070782743
1.074552815065418e6,46.000671266341335,13.439596533997085,-0.031787588557009964,-43.98722144549883
1.074552815065418e6,53.06932121224439,19.176720993477815,0.18552340072008314,-49.47736316663642
1.074552815065418e6,152.52289782005624,12.678691822385064,0.19477717871939368,-151.9930421234463
1.074552815065418e6,158.5044137075111,27.351781504261712,-0.23272916020446033,-156.12467040615883
1.074552815065418e6,28.258823148282676,12.994481435633286,-0.3743594571644859,25.079913315848874
1.074552815065418e6,6.469583514444201,6.129247943222536,0.18644111578291064,1.921127065027226
1.074552815065418e6,34.67942420510079,17.574938285080034,0.6226687404334708,-29.880327141807026
1.074552815065418e6,61.621178944774606,6.571036300268904,-0.5116432001087176,61.26309702185344
1.074552815065418e6,29.839627213423334,13.468864567075483,-0.16800797335786818,26.615831225409906
1.074552815065418e6,238.60275409556505,14.87980975469883,0.6444500077914018,-238.13628003063474
1.074552815065418e6,1139.8877323021177,12.1076660576587,0.10206180649199278,1139.8231766014749
1.074552815065418e6,233.78446398952948,13.953500508901802,-0.1938715216584772,233.36639753666663
1.074552815065418e6,75.99894026934928,19.280726097522173,-0.0010978810407577728,73.50870819841595
1.074552815065418e6,116.2500908167742,22.240261399081653,0.3136362566607008,-114.09992847980249
1.074552815065418e6,252.0975858185217,11.779606980071993,0.21253602679289574,-251.82102001689225
1.074552815065418e6,14.44686023200689,14.393872772943693,-0.5007997620782152,-0.8456096892295615
1.074552815065418e6,115.53577449565023,36.0790202423709,-0.02250961987779076,109.75544013380888
1.074552815065418e6,130.02400787043615,41.04831349736784,0.22983082004883343,123.37205282597826
1.074552815065418e6,86.74248640585458,20.50415675665731,-0.5942164406484644,84.27884117249545
1.074552815065418e6,66.30290098232567,28.884838706097035,-0.2698889081918521,-59.67499971144401
1.074552815065418e6,69.50351107302343,21.236440348287523,-0.40198098674959093,-66.17422249703107
1.074552815065418e6,107.81474835221688,6.7048547516747075,0.12824211427444548,-107.60337400825166
1.074552815065418e6,222.27470128093836,27.707603723553177,-0.12281936271699001,220.5396882645431
1.074552815065418e6,35.95951410615884,25.081389443619763,-0.6916348380251254,-25.74820107440733
1.074552815065418e6,60.94335486895058,18.428265787584923,-0.4747301922893234,-58.0835933201301
1.074552815065418e6,16.841093206411855,10.245301540602489,0.3015357774386121,13.341774690530054
1.074552815065418e6,31.385134895810857,26.356125643494345,0.2766008342445545,17.02182377008537
1.074552815065418e6,195.7574058496286,24.37955068390946,0.16998776506866126,-194.2318414075699
1.074552815065418e6,14.227570821432398,14.188415086924232,0.17246117620828888,-0.7215018582653412
1.074552815065418e6,7.373024224848482,7.292364906648009,0.5007184107044573,-0.6081450077380582
1.074552815065418e6,111.96114828568254,10.208143993569923,-0.3664946453948632,-111.49168517122163
1.074552815065418e6,22.850457373550938,13.823099245790246,-0.2734665523013406,-18.177684243462863
1.074552815065418e6,26.880560697701053,26.18803503276537,0.6125605807487577,5.984462638292668
1.074552815065418e6,23.1475143941935,23.132685443821433,-0.13408744090562733,-0.32552470499578556
1.074552815065418e6,735.7101327566488,17.766627757855204,-0.24781046669670057,-735.4951547276713
1.074552815065418e6,31.94509399582884,21.825866707940072,0.5588166478892852,-23.307637284640816
1.074552815065418e6,16.609026598068144,4.045571761990343,0.024870835159521956,-16.091306786095522
1.074552815065418e6,573.9215710167482,16.276439261992778,-0.37738571378989416,573.6901101137222
1.074552815065418e6,88.09176712169538,7.277303824213631,-0.4044102901315037,87.7865274115516
1.074552815065418e6,227.9705264335339,27.928679650150986,0.6456165887127393,-226.25112290017688
1.074552815065418e6,41.33866243631546,13.303137323277943,0.47883688737203073,-39.12952751574831
1.074552815065418e6,100.13955483003508,22.993223038330406,-0.09864096027542624,97.46112078576215
1.074552815065418e6,78.53711149845324,11.357814272960466,-0.016210325537649447,-77.70788463003944
1.074552815065418e6,106.80891384398942,12.269967984720818,0.1590684110920317,-106.09903071383849
1.074552815065418e6,56.1198340917643,13.365339651670862,-0.3077615745393283,54.49904968239929
1.074552815065418e6,20.51156162128448,20.422263539932384,-0.07384480997714761,-1.75713345597374
1.074552815065418e6,11.294447966839133,4.779313397062702,-0.3869187137796804,-10.19856221366447
1.074552815065418e6,18.61924216198834,7.741813659761972,-0.18629020982311648,16.915775326327058
1.074552815065418e6,14.188373802931164,4.959458069911459,-0.16949497258042784,13.271121175979342
1.074552815065418e6,14.872879870740533,7.504561855137504,0.010910463063262115,12.818800527446152
1.074552815065418e6,61.879900583229805,13.266856625723365,-0.08178116365711446,-60.436277038654026
1.074552815065418e6,10.112877187525653,9.686153783996653,0.6383045692694439,-2.7347643679772133
1.074552815065418e6,31.51309796016487,19.425374086348672,0.16201606705162766,-24.802048190323752
1.074552815065418e6,56.858040405853885,38.95738308864561,-0.21999182036912457,-41.407104755898544
1.074552815065418e6,28.2855576628741,10.09700033556003,-0.4804790298017905,-26.40700958863311
1.074552815065418e6,88.94194114487178,51.02581976533228,0.2815930069024777,-72.8449928015707
1.074552815065418e6,15.802859740208234,10.64802050828332,0.6002892403588058,-11.63732559656838
1.074552815065418e6,92.7654849554318,27.52618250664949,-0.19654451877923293,88.58410413199408
1.074552815065418e6,338.46125659216,11.493160177700604,0.24710247033942462,338.26514168981646
1.074552815065418e6,226.9699556721382,22.90914483244003,-0.010846115815476265,225.80958660386676
1.074552815065418e6,161.73235908886207,9.92529850021087,-0.15520474745184842,161.42570426238032
1.074552815065418e6,31.804508854694497,6.4146837357657445,0.15746774382907686,31.141475221268184
1.074552815065418e6,23.220503707762276,18.058749676934895,-0.05530586933929496,14.577652513267903
1.074552815065418e6,5.947487891697403,5.891691586117636,0.12726251085915882,0.28643623732289814
1.074552815065418e6,11.091772609406632,10.952861620036607,0.22020196483150747,-1.5656985771727066
1.074552815065418e6,110.79103862678699,16.74793542086953,0.15617360860917873,-109.51517779711327
1.074552815065418e6,8.247229058023292,1.7798659371695322,-0.06608198152594039,8.017615389982796
1.074552815065418e6,35.25126530358163,11.862412987158411,0.1318486354157566,33.18667109777203
1.074552815065418e6,97.9875777792008,17.218994689014085,-0.6517162302004125,-96.45768266902688
1.074552815065418e6,21.564621890038456,21.481284747631534,-0.3139010650287226,-1.7106864007282314
1.074552815065418e6,3.656574729569712,3.5278055584095886,-0.2785731232022486,-0.5340249982684172
1.074552815065418e6,4.971613132706815,2.3296455250704233,-0.07070913427360445,-4.326932871667467
1.074552815065418e6,43.70372936446194,7.543999293291306,0.2450605396464129,43.04046513858354
1.074552815065418e6,7.089894744865162,6.659079280871862,0.45164560846955215,-2.2708909831702377
1.074552815065418e6,322.9541088289187,13.442696543761167,0.417029354269902,322.67307613840336
1.074552815065418e6,27.330004306629817,9.731884154218696,0.015663097397056902,-25.527572933309088
1.074552815065418e6,292.8659444582431,20.975622139711174,0.2579549052076298,-292.1127450446599
1.074552815065418e6,20.24634483862181,19.371526414342213,0.31292152166732695,5.830796070252452
1.074552815065418e6,555.4958103652338,8.858081748629441,0.21211641810965134,-555.4246324990245
1.074552815065418e6,273.0028177082865,19.747870443701785,0.12508100727006682,-272.2865808359514
1.074552815065418e6,351.94165423622195,31.404085417147655,-0.11838013358837728,350.5369239477828
1.074552815065418e6,1498.2294003431084,22.041347085159806,-0.19190847162605362,1498.0670598812558
1.074552815065418e6,448.7904918925812,25.44529938918019,0.0549464986519581,448.0679379201898
1.074552815065418e6,18.992851962444668,13.136377719780516,0.048614344404000955,13.696689443251406
1.074552815065418e6,398.1986270403302,25.75187814958856,0.5049739190175045,397.3640270695155
1.074552815065418e6,66.15506255074122,6.054123183718323,-0.3641623723931358,65.87218637880592
1.074552815065418e6,78.55718880024266,20.42196783004819,-0.552345335053965,75.85056173664805
1.074552815065418e6,48.89361121076904,5.995054605920755,-0.10479662435986498,48.51877177091519
1.074552815065418e6,26.97508847970297,2.2191179380024697,-0.20730151305528452,26.872394741378912
1.074552815065418e6,36.8725834778306,6.294269977482683,-0.018696955701927507,-36.32364088569258
1.074552815065418e6,21.33946619405,11.359561451404172,-0.1144682514774138,-18.048759987515567
1.074552815065418e6,83.0420880130813,6.733493911419815,-0.08387660730961347,82.76520443411422
1.074552815065418e6,3.9223749278946713,3.384488335817869,-0.5134991822410082,1.7618857392837188
1.074552815065418e6,4.12977644925246,3.9763586223987466,-0.28848958364949573,0.7733423406002938
1.074552815065418e6,30.90262934888668,25.833860423025826,-0.5518807088294936,16.932726980326528
1.074552815065418e6,134.99480279259285,12.320560714843456,-0.46896344981852767,134.42848766892524
1.074552815065418e6,15.014968615647048,13.799736138411284,0.3207080125532407,5.861004214171808
1.074552815065418e6,22.401842821773077,6.983014932319707,0.06042456983915316,21.272378149293747
1.074552815065418e6,11.473609898905034,10.597309915066894,-0.5630006445721967,4.296677313838195
1.074552815065418e6,83.58396916936653,24.54134499263437,-0.678782009541764,79.89354918909535
1.074552815065418e6,4.175535884184864,3.790280492396092,-0.45354611041532894,-1.5168482533095538
1.074552815065418e6,301.23158667105895,12.786267710885097,-0.168395643948921,-300.95911594149317
1.074552815065418e6,309.3778484146768,33.8163114397405,-0.03663099616721197,-307.523245442461
1.074552815065418e6,8.330164020420272,8.154016747716623,-0.1560058492081767,-1.522157892216854
1.074552815065418e6,285.43693770442127,5.758014065829049,0.2629497976267644,285.377748250434
1.074552815065418e6,3.0333794702060892,2.904429412867307,-0.4501464680984056,0.026607178760147135
1.074552815065418e6,15.64334417409929,14.622225410878785,-0.35759749675186764,-5.496773963140366
1.074552815065418e6,83.06824602278026,25.336713694332033,-0.45428753259529725,79.10509287207168
1.074552815065418e6,43.07936517902864,14.118814514365864,-0.34916870158179214,-40.69160258755653
1.074552815065418e6,300.3362832334676,7.262824902820344,-0.3199455312975428,-300.24734752328857
1.074552815065418e6,120.76993025285583,16.60582671076822,-0.13662263489986134,-119.62040614283165
1.074552815065418e6,68.94356329704561,15.96976165401204,0.5673451942260748,67.06189239223073
1.074552815065418e6,28.366374567667183,27.845830000606167,0.030996193168098138,-5.357019312575793
1.074552815065418e6,124.6586800678434,23.661963978285186,0.3857144365771351,122.38948835708666
1.074552815065418e6,178.2763530615411,31.437721198389145,0.4396378479945443,175.480403818566
1.074552815065418e6,88.2910540262284,20.813103798290456,0.13967210580594688,85.7994352081387
1.074552815065418e6,7.776961800624255,7.679018348413175,0.04140935882293048,-0.9745544145241494
1.074552815065418e6,312.9321834994769,3.9414507006662447,0.28444373805440365,-312.9063329286787
1.074552815065418e6,310.2189333406821,30.811006958778457,-0.13764680355069928,-308.6841219848584
1.074552815065418e6,69.53533759672013,11.876660174119166,0.4277545942505508,68.50812216660293
1.074552815065418e6,35.510150924263876,34.18671807792152,0.29328755921867883,9.570306532242506
1.074552815065418e6,21.251463253346305,19.63678623468032,-0.3611521735643274,-8.082607554378207
1.074552815065418e6,194.98694953368576,20.6155437003192,-0.062216893639699976,193.8926085090385
1.074552815065418e6,44.60817577828152,4.828657961942156,0.060066664528410835,44.3396826729422
1.074552815065418e6,5.409653381685405,5.35228177505623,0.2282731612694315,-0.0545881213207382
1.074552815065418e6,30.73931597167502,29.36862158528464,-0.546045424289083,-9.029346929330217
1.074552815065418e6,143.44113332529963,12.882535789882917,-0.47499729095484694,142.858710052384
1.074552815065418e6,488.3890873345371,6.767330566299755,0.5334026044490928,-488.3413324767
1.074552815065418e6,81.49340619761885,24.10917332965261,0.05720738619986959,77.84187434379133
1.074552815065418e6,32.76416335918075,17.131927345807995,0.03438468726854267,-27.91816510315612
1.074552815065418e6,31.089232112415335,30.305574241586477,-0.38073260077822807,6.885145234691541
1.074552815065418e6,69.80726318470666,18.986227244985187,0.5206529304719758,67.1695150187601
1.074552815065418e6,636.919630316456,13.881836342011598,-0.10409462677969458,-636.7678830826208
1.074552815065418e6,31.53549136088813,10.82765066605747,-0.08631240246309331,-29.608772443051738
1.074552815065418e6,59.957880257038326,38.97177443738406,0.2841420864730779,45.557712018740176
1.074552815065418e6,121.9082882374671,11.06545506552297,-0.24649792142577778,-121.40248491256571
1.074552815065418e6,95.70189000431904,31.254133755103062,-0.22552355817982297,90.45118944342514
1.074552815065418e6,557.1343961355536,14.587935177065194,0.407820476699917,556.9427249242468
1.074552815065418e6,65.08135826260602,20.357106591088556,0.5616119464357827,61.808524133448785
1.074552815065418e6,207.60617942783898,24.866913664221556,0.37312558258345657,-206.10982698000745
1.074552815065418e6,80.5509011373571,15.02328834608771,-0.002555111167029168,-79.13397584963589
1.074552815065418e6,5.954546645412292,5.865832339348518,0.5754269042411204,-0.39392840172212706
1.074552815065418e6,58.30911690842305,10.531705829015316,0.30057995847929847,57.34442952587946
1.074552815065418e6,359.06064497209377,15.75380110819049,-0.44266210520674415,358.7138221865292
1.074552815065418e6,509.4851463327299,23.964101276695175,-0.1152993032004706,-508.92068198172393
1.074552815065418e6,33.011050922257006,1.6459601604040046,-0.323113727189201,32.9598779525998
1.074552815065418e6,124.17189025250767,15.446499502784079,-0.12372197813845492,123.20505806927
1.074552815065418e6,77.01943787099101,26.58073015434963,-0.37889172305071295,-72.28245080568354
1.074552815065418e6,46.20395127627937,14.925115534485801,0.40813757105993387,43.71861299875491
1.074552815065418e6,129.3766995426874,20.64707408912908,0.3089890224157551,-127.71597746910763
1.074552815065418e6,14.6512843863968,14.196866034960273,0.6427797163118936,-3.483334922388024
1.074552815065418e6,55.69454556158598,22.1289750962297,-0.38220360716377194,-51.102665741558496
1.074552815065418e6,18.111644474938124,11.889453928031267,0.6949693523829222,-13.624508338571006
1.074552815065418e6,229.00475550301468,12.9513382035253,0.4571542088868485,228.63654465275553
1.074552815065418e6,21.845581837547694,21.383584057267125,-0.6135940282468145,4.362675789472441
1.074552815065418e6,1067.2149264177638,15.494965082010683,0.37794536438110105,-1067.1021038505503
1.074552815065418e6,37.18573118716155,19.885937223336988,0.36148032785786366,-31.410748090974774
1.074552815065418e6,58.082680527436125,26.607364746396726,0.09243116184665019,51.624364731912166
1.074552815065418e6,47.50067366980148,28.649875287488864,0.6151504050049788,-37.87555800333894
1.074552815065418e6,32.572536814995864,5.16168034168213,-0.6846854723656921,-32.144923011375354
1.074552815065418e6,294.7831481567599,5.262417331309811,0.32496152001178547,-294.7350394168307
1.074552815065418e6,134.30325618194055,5.652750757487162,-0.014538829759696606,134.18214664237888
1.074552815065418e6,20.923871019271147,19.48392415224571,0.37986862488869566,-7.581453480515497
1.074552815065418e6,86.32230026967514,8.921325573744577,0.5093871359835754,-85.8552715771703
1.074552815065418e6,60.00225419621959,18.437303809969293,-0.41205822014401966,-57.09294355573742
1.074552815065418e6,122.95363255239143,16.005551013758645,0.202629707237015,-121.904941223746
1.074552815065418e6,161.25909142389065,10.9178351428401,-0.09998853998285451,-160.88729938666108
1.074552815065418e6,448.78089471816236,10.871677743503522,0.21337693593348914,-448.6485152280653
1.074552815065418e6,160.4653769811846,45.685127129252514,-0.3293594258428874,153.8224156300216
1.074552815065418e6,20.4304752781974,13.789852517596147,0.30085755831077776,-15.052954240093655
1.074552815065418e6,36.134108593354966,19.99722426254922,-0.18861658266933312,-30.086324275377812
1.074552815065418e6,91.6105474052978,6.855013035304187,0.1943538987670102,91.35043009058538
1.074552815065418e6,22.91736305859591,18.96364387210407,-0.1638841451581738,-12.845097960982471
1.074552815065418e6,50.85553576542697,11.251796089943156,0.3354253103786784,49.58838323225396
1.074552815065418e6,229.3988140910858,64.0560002960206,-0.23032317381156964,220.27262504155416
1.074552815065418e6,26.69796941303561,23.84961229252985,-0.4801614618872004,11.965979618680468
1.074552815065418e6,7.430117875209168,6.455120818704135,-0.12024761761562569,-3.60017587829498
1.074552815065418e6,72.48108953329711,17.597298896671564,-0.39016213781067643,-70.30738826019652
1.074552815065418e6,367.8964794711077,20.318121154243634,-0.1828300422666107,-367.33417727208695
1.074552815065418e6,39.236705604125305,19.055957777708805,-0.05679726997113083,-34.29028977564735
1.074552815065418e6,176.02658342307234,36.868499236141275,0.00011864203358738252,172.12062483807443
1.074552815065418e6,45.65674182205186,9.75663489850883,-0.02808003248405163,-44.5957735639067
1.074552815065418e6,27.369433401760816,21.817679012270208,0.006229072177054367,16.507949219645322
1.074552815065418e6,114.94169308587341,20.494082176271036,0.14307344580586406,113.09731470807446
1.074552815065418e6,49.8734398576867,21.910071982922062,0.06277776231547742,44.796679194810736
1.074552815065418e6,18.723167804601207,12.033901761257354,-0.048372382111690565,-14.324019692149099
1.074552815065418e6,32.62876053688534,15.41745154012664,0.32103814891834154,28.744961222394366
1.074552815065418e6,14.389776064720534,8.556792202830962,0.48588881085907887,-11.534666594341648
1.074552815065418e6,13.840126247699775,6.439220651770541,-0.4630388834797167,-12.21919743400645
1.074552815065418e6,278.70055987904846,4.460153754141864,-0.4543436545225875,278.6634894208727
1.074552815065418e6,32.96745647535974,29.61344429598444,0.19494076218306589,-14.467092329537701
1.074552815065418e6,21.068989088218423,7.717373817499663,-0.07575493634395691,-19.590210890616294
1.074552815065418e6,106.78102643292728,13.43781493471295,-0.01530700646384058,-105.92945841707224
1.074552815065418e6,524.6656599437248,27.006193308327887,-0.6869005091338971,-523.9691651937706
1.074552815065418e6,285.7662577384064,36.174637582044795,0.19719290984329008,-283.4663091648919
1.074552815065418e6,69.84823788828479,15.418182877974093,0.0899903840710719,-68.12110930951806
1.074552815065418e6,44.74534488627464,21.52090976686101,0.32542924610973656,-39.221525806536775
1.074552815065418e6,7.706535466781029,7.464428078924629,0.24294685584760636,-1.7468938632078364
1.074552815065418e6,59.35138129645321,15.634558548472473,-0.34663653964540647,-57.249144472991986
1.074552815065418e6,39.013793283072005,34.41482216380362,-0.324654403583763,-18.35833163103451
1.074552815065418e6,9.600495937994816,8.808214716801272,-0.04816381064297136,-3.744357754580716
1.074552815065418e6,123.45871341139465,14.273753995789988,0.051347709890969324,-122.6284994871339
1.074552815065418e6,4.118250984284895,0.7986342498612339,0.1524524049419901,3.9669373271459043
1.074552815065418e6,6.066465430230463,5.040287297086783,0.3159437620674826,-3.2764836802556387
1.074552815065418e6,22.178132126421215,22.15874908525439,0.03671081473593712,-0.5437783542768366
1.074552815065418e6,32.092237987028426,15.509323636520902,-0.19288293355760894,28.08510413931967
1.074552815065418e6,20.7495206433293,16.324652094527433,0.3212119045945776,12.78212904103619
1.074552815065418e6,347.9707180562954,9.591817296874336,-0.6002013863496153,347.83716748335246
1.074552815065418e6,19.108336369030727,13.479826403565944,-0.28878614373601696,13.519506665322472
1.074552815065418e6,49.908656931043254,20.48488351367397,-0.5346352030573601,45.50159786513212
1.074552815065418e6,24.349498291679417,23.90186813035266,-0.26441962750885567,-4.578919980200898
1.074552815065418e6,37.1461193811702,8.388710656462393,-0.1707124530170421,-36.17833930474769
1.074552815065418e6,32.45593158187718,21.216540542113233,-0.4205981537502992,24.546011049744603
1.074552815065418e6,227.47742444475685,22.953447639533824,0.06948383929076703,-226.31515792024203
1.074552815065418e6,44.93583111085847,33.71581188067966,-0.22520318216330099,29.69612583091813
1.074552815065418e6,64.33442375281702,12.55319605248044,-0.3797981473456079,63.09222425014871
1.074552815065418e6,20.903279566381368,8.653186737437085,-0.2931641642656571,19.01108018180172
1.074552815065418e6,81.41757505673324,27.675656596782314,-0.6248073979691323,76.56322116238303
1.074552815065418e6,50.94710228174861,15.670412060494716,-0.28191415436823775,-48.470646789160824
1.074552815065418e6,58.86040692054438,43.738396929792934,0.39241350908473865,39.37999247702572
1.074552815065418e6,8.822241845372524,7.861989920712741,0.12309015922282869,3.929831226187684
1.074552815065418e6,78.82025162674611,11.41447220986036,0.3627585886368179,-77.98492133655732
1.074552815065418e6,25.34209531459287,10.819217247196562,-0.2201646751829542,-22.903177063377903
1.074552815065418e6,23.967648924091705,5.3094907941597675,-0.04700636694107933,-23.360071743157768
1.074552815065418e6,80.62609143028932,28.003419352497577,0.4794983103762752,75.60147395555624
1.074552815065418e6,44.66513152522932,14.711900864689103,-0.13467386191784517,42.16578552633965
1.074552815065418e6,110.7911552399454,28.47095525051678,0.4263728554261213,107.06699141986607
1.074552815065418e6,129.02730464107356,11.912430080256481,-0.24712125698530674,-128.47379476997054
1.074552815065418e6,79.7257767922222,17.2903527208759,0.07678379548178271,-77.82464231301321
1.074552815065418e6,23.746365565106252,15.351991502545827,0.18813111100970978,18.099958567114424
1.074552815065418e6,271.2807468301682,28.569986961181883,0.1800796349236252,269.7710226767982
1.074552815065418e6,255.50330195073957,35.96911638608405,0.07359980307305841,252.95768858880902
1.074552815065418e6,15.298959288607618,14.842090868479552,-0.6048382656236339,3.5836187893623035
1.074552815065418e6,304.9339481683954,50.896521029269365,-0.19456530945139197,300.65537862478345
1.074552815065418e6,101.95008985964134,81.25649499974276,0.543788327627776,61.56577617466723
1.074552815065418e6,26.336935435239376,6.385079017184589,-0.14552913571554252,-25.539800592872652
1.074552815065418e6,50.57940997501082,10.245337330811857,0.08742222942858809,-49.52514303604443
1.074552815065418e6,53.66514146272167,12.339026782942618,-0.18977582910366875,-52.22161880282154
1.074552815065418e6,91.77342426308209,9.200995877921105,0.16969377192137802,91.3077868466796
1.074552815065418e6,215.72066651903097,18.357313105892423,0.6297265541304006,214.93593492574246
1.074552815065418e6,731.3520296658143,23.931085955252737,0.643729721431794,-730.9597237142023
1.074552815065418e6,222.63492387185363,23.35809500366296,0.12440425436227984,-221.40490262818523
1.074552815065418e6,43.74210885465881,6.660481318072951,0.3686665170797844,-43.223972742592395
1.074552815065418e6,1421.241912173664,33.91008226072088,-0.15506699238362312,-1420.837109894495
1.074552815065418e6,396.626401825371,23.825133030641055,-0.3081710343570663,-395.9093436010512
1.074552815065418e6,10.139356368562513,9.638228532620683,-0.1452838479659446,-3.05412015382008
1.074552815065418e6,7.6043390806705595,4.501204415691706,-0.3459293581739197,-6.073147744776877
1.074552815065418e6,18.021444588306473,17.25894809159738,0.45429465228790306,-5.111990921217934
1.074552815065418e6,13.518909110411299,13.34239068032208,0.21113548497571666,2.0333704200081764
1.074552815065418e6,25.949001916807305,19.9847582721231,0.37799555161598175,-16.53042393996594
1.074552815065418e6,0.9112442174871185,0.47418565993868017,0.11804000054251503,-0.17099570418040463
1.074552815065418e6,28.115997122610818,21.417728844019372,0.2666295028709217,-18.19771285243515
1.074552815065418e6,82.14614195041267,22.802501509848224,-0.09484635961168168,78.91427770300854
1.074552815065418e6,316.78573525778336,1.4070535753315037,-0.30569504414288245,316.78157533634953
1.074552815065418e6,233.6438552334472,39.70119346707365,0.12995787458016378,230.24484162642517
1.074552815065418e6,79.40808370876648,29.263386486712225,-0.4185895313187468,73.81436453306911
1.074552815065418e6,12.74137543006696,11.533287474978602,-0.27892232001208267,5.3559116121888035
1.074552815065418e6,204.56115070388125,11.599246847823107,0.2234735312315989,204.2305304513232
1.074552815065418e6,72.72940875018273,27.316629091783227,0.33727098745604506,-67.39949984594013
1.074552815065418e6,11.872914184375412,7.138427505864691,-0.11562991189602925,9.456914543618133
1.074552815065418e6,225.52113509963817,10.892630818521525,0.39752744639873794,225.2563264403439
1.074552815065418e6,81.33819009008296,10.415597174190733,0.0280798624904858,-80.66506910147383
1.074552815065418e6,68.57173462323827,23.644293902377623,0.4262123484531258,64.36059475424844
1.074552815065418e6,5.842846625570293,5.131991181716534,0.35264349325237004,-2.6673628842271677
1.074552815065418e6,68.23543012769707,24.434001897804126,0.22426619059141903,63.705893288097414
1.074552815065418e6,24.014818089242606,23.066137330295604,0.08030634767420668,6.640482392013736
1.074552815065418e6,36.469294755320476,16.022511965517158,-0.0974123734710166,-32.75235472578367
1.074552815065418e6,10.217073504573166,10.035670179166587,0.5020556918031168,-1.6910097941554225
1.074552815065418e6,204.8555844888213,56.18629296378667,0.16757889785091018,-196.99827551414225
1.074552815065418e6,31.268209451041002,26.249278094446403,-0.33562306704502565,16.97060216787305
1.074552815065418e6,138.13037026088597,43.964285497672485,0.4490597858073781,-130.9441743392433
1.074552815065418e6,23.966872127454277,23.753372554549603,-0.10685778405018086,-3.1007244736135293
1.074552815065418e6,17.017005691490095,12.087783453035708,-0.3643011550999393,-11.948594794111951
1.074552815065418e6,58.28752328463759,7.563118070906305,-0.22079656890483995,57.78947588935743
1.074552815065418e6,30.38906415866507,11.192163491676162,-0.46682015263684534,-28.239164908844415
1.074552815065418e6,631.2393505723717,29.067349466347036,-0.13882858513545296,-630.5692866701038
1.074552815065418e6,22.05608009943625,22.02743569723654,0.5763036945117402,0.6068599486811651
1.074552815065418e6,619.0503490365861,28.018396215911682,-0.2887844748204829,-618.415441574936
1.074552815065418e6,16.066549766186206,6.629842241159266,0.028315950360707085,-14.61561050529185
1.074552815065418e6,122.0445003718671,21.517801644732316,-0.2688114733024274,-120.1299699607771
1.074552815065418e6,13.231684278989519,13.154147017177856,0.19045682994731936,1.2030254752164247
1.074552815065418e6,3.4578636274747705,0.494607488342743,-0.681727803894052,-3.2688056670365175
1.074552815065418e6,68.45767062001654,25.31431680700545,0.3698279366866116,63.599834257639756
1.074552815065418e6,597.7002106091958,11.271343862216417,-0.35523743341012304,597.5933483859834
1.074552815065418e6,52.54754756623461,43.127431059599374,0.5997470860634518,-30.00578957212616
1.074552815065418e6,20.901588069699944,18.204645536802367,0.5292310209641585,-10.22862836503595
1.074552815065418e6,21.812223903568245,10.49382462104103,-0.09958474459374872,19.107079795448463
1.074552815065418e6,314.6923567264481,21.53194630586019,0.2950368759335148,313.9538266729014
1.074552815065418e6,337.6320924486469,23.946881181914854,-0.4921479885599932,336.78059947428244
1.074552815065418e6,308.1459540467516,22.795712512167835,0.402598647162799,-307.30043940704576
1.074552815065418e6,39.181845905982044,20.34103463251329,-0.3377093604038362,33.47809687027738
1.074552815065418e6,11.893781324618729,8.625509764836949,0.018377369858257105,-8.15474933738571
1.074552815065418e6,43.46946292680522,7.969432931436646,-0.2467397754077156,-42.72539203293777
1.074552815065418e6,27.948285767647228,7.972468799189239,-0.46394441169001843,-26.77253878823696
1.074552815065418e6,679.8347605360877,44.305275690906804,0.06883494363368842,-678.3891044967127
1.074552815065418e6,47.55258960219909,34.53821941582051,0.517370814561147,32.67308011021944
1.074552815065418e6,136.7356339966009,33.81189148132992,-0.2152915857866321,-132.48690843788688
1.074552815065418e6,92.60242716052136,17.072585431622738,-0.39225133846580634,91.011098996638
1.074552815065418e6,6.212478829002459,3.860928609957077,0.5638228294763508,4.775760282441316
1.074552815065418e6,12.521917292510807,12.456618959212427,-0.16698118863374925,-1.0202122606972934
1.074552815065418e6,43.76113707579773,21.651727931930644,-0.4103081745687163,-38.019851418950324
1.074552815065418e6,12.019228550814793,11.926226784202822,-0.4821912247533988,-1.1967122711911613
1.074552815065418e6,248.89046332689108,15.72185032999581,0.4490175095879981,-248.39187224935634
1.074552815065418e6,14.772445299207947,14.740141200921876,-0.21239160453070605,0.5881549881326305
1.074552815065418e6,3.426796286529582,3.1924043999709926,-0.12473863079724745,-0.9867047173139605
1.074552815065418e6,229.40932995902392,19.60980179972555,-0.4505266928209693,-228.56800088882002
1.074552815065418e6,643.6913235442254,13.233923010994822,-0.5195246023488204,-643.5546216453054
1.074552815065418e6,109.7621119999954,20.47185202723594,-0.03737795975444168,-107.83348629786286
1.074552815065418e6,1413.0600840784557,31.620730889011213,0.5122180085493725,1412.7059516706076
1.074552815065418e6,17.10674152863669,11.042593744433741,0.16032191927721642,13.042763702296353
1.074552815065418e6,16.04982745368865,12.669038260026957,-0.054601840209460364,9.824821040963585
1.074552815065418e6,1060.2681655873823,20.171539205951927,-0.5083326826549287,1060.0758799354735
1.074552815065418e6,151.1532043939292,30.53835555563569,-0.4444545023768274,148.03357780481628
1.074552815065418e6,25.116626198079885,18.492742462264417,0.1680305750676965,-16.978598661639943
1.074552815065418e6,60.10570043312443,38.781628852404154,-0.6124501288063854,-45.91016283939055
1.074552815065418e6,247.2447908838316,14.695031619385992,0.4114966406357335,-246.80622154718534
1.074552815065418e6,35.76745179933337,32.73618278234804,0.23477462623458276,14.388727703378654
1.074552815065418e6,27.617941625045304,4.467802786895435,-0.6456332371767369,-27.236193834191226
1.074552815065418e6,25.152974554713172,24.440253779112286,-0.2957575724865732,-5.890357426312678
1.074552815065418e6,134.95524483972946,26.69269888978886,-0.030416158340987504,-132.28701625471967
1.074552815065418e6,17.67136729733949,17.64199858111479,0.6715914279520089,0.15405247186776774
1.074552815065418e6,65.37495924110857,10.560795353049414,0.2739748367225369,64.51137491997225
1.074552815065418e6,64.915560518256,9.287546759825068,0.3302559113537235,64.24250977822393
1.074552815065418e6,259.9694772263645,22.95515815304141,-0.3977352793654369,-258.9526390465145
1.074552815065418e6,5.08536485430058,3.5879450881586634,-0.3360338341307543,-3.508892417387153
1.074552815065418e6,26.891073842300415,3.4493792375695467,-0.08395250935355376,26.658249121658674
1.074552815065418e6,20.94555251199859,18.85529491828162,0.3150506658395526,-9.084735859904338
1.074552815065418e6,131.9310445522138,15.79991750207927,-0.4178729913878874,130.9787240918064
1.074552815065418e6,138.40905797659016,4.148300989595978,0.2517859802417045,138.34461750164238
1.074552815065418e6,114.32657535242124,20.689497977220505,-0.5620878848492349,-112.43501332530678
1.074552815065418e6,83.01437862823241,35.56641196656386,0.16134816582622305,-75.00552662713824
1.074552815065418e6,656.110003748031,16.37268331058755,-0.30169722772973784,-655.9051904789471
1.074552815065418e6,120.26366627511617,9.879537911030763,0.4129089514541717,119.8541251763309
1.074552815065418e6,9.030330778700675,5.05016910648071,-0.340900007146552,-7.440706427657791
1.074552815065418e6,183.75960925781783,14.254560494556705,0.2323488969482901,-183.20421712578496
1.074552815065418e6,230.49948347025028,27.910518491890006,0.3818037413576567,-228.80189405347565
1.074552815065418e6,33.16095146372816,15.176231454061085,-0.4021966261903114,-29.472132561033778
1.074552815065418e6,10.06579711469675,9.639384074108847,-0.06129109000802098,2.7993657526489306
1.074552815065418e6,64.46575992229272,21.05114546196336,0.0260253608018688,60.927173402081436
1.074552815065418e6,43.10776803057017,26.395201728936883,-0.44532790306047,-34.07069609376502
1.074552815065418e6,26.702867974129653,25.270632783420993,-0.4309030743886477,8.584303017632443
1.074552815065418e6,8.214966533899347,8.066259602405697,0.5256423403981685,-1.2579707065066619
1.074552815065418e6,7.1570701950052875,7.0864656406132935,0.3069483938107275,0.5908469962192407
1.074552815065418e6,276.97666041091236,19.85350040384055,0.32210473138775175,-276.262995787759
1.074552815065418e6,24.695044541588707,23.14715193080245,-0.5331735186961298,8.5561654607145
1.074552815065418e6,8.353578225308398,3.034876480227171,0.043648040911978485,-7.74645388248062
1.074552815065418e6,86.84829451658054,24.207628916273713,0.4365551343420483,-83.40182276961426
1.074552815065418e6,672.3207122764231,26.139156095976418,-0.389998482692344,-671.8118562772167
1.074552815065418e6,306.720758858223,33.4899081544318,0.30393959852014213,-304.88587249343175
1.074552815065418e6,119.97457545162204,14.013868342989266,0.40030910923319507,-119.15027343849502
1.074552815065418e6,143.4254276506653,14.24540454056255,-0.2531379419945096,-142.7140333899334
1.074552815065418e6,32.53878523595996,19.775198350803436,0.41806207854450306,-25.82589703970714
1.074552815065418e6,13.23062733147449,4.897139642072148,0.6138917955148693,-12.252686185590843
1.074552815065418e6,19.64283597017166,10.43183328884754,-0.43797043995674084,-16.621182270441835
1.074552815065418e6,18.013839326760266,6.570652727695062,-0.24165290415815815,16.754229104469243
1.074552815065418e6,48.31025248181485,22.745757083608133,-0.34560518716053445,42.61254798288363
1.074552815065418e6,7.8197228669861705,7.671166397031123,0.1608459884436639,-1.3088389443673154
1.074552815065418e6,186.37890819226755,33.761368321293496,-0.24738192315825044,183.293873026865
1.074552815065418e6,593.7729880695485,20.148721549303303,0.25551930704195747,-593.430503723765
1.074552815065418e6,21.414048890748855,18.576187184637938,0.45850898887931935,-10.616693839070436
1.074552815065418e6,273.12282469576627,33.184593480705566,-0.37921879556366905,-271.098052330533
1.074552815065418e6,22.363017570986557,8.6979682065277,0.24494854581471887,-20.587072719479927
1.074552815065418e6,60.082157866867036,7.04272727357583,0.38782035434587153,59.661989078899154
1.074552815065418e6,67.12058515405077,33.03116206221702,0.1841430703642044,58.42532870733495
1.074552815065418e6,54.628460268183154,30.52710942751439,0.014415003511856388,45.29681790666387
1.074552815065418e6,35.221994944218835,11.720309725237865,0.01566812616158292,33.206334957258655
1.074552815065418e6,38.18209490833866,7.362688189557677,-0.22308452689641245,-37.45732353619719
1.074552815065418e6,39.334908217414075,21.191292778893093,0.33660156030960797,33.12836357579384
1.074552815065418e6,3022.411181253899,38.553833867474665,0.2226646063745934,3022.165173934438
1.074552815065418e6,21.091794086670816,16.397896858442607,0.6093013156664776,-13.230236857664005
1.074552815065418e6,57.935127488865824,30.756348503292372,0.4570059825047831,-49.08925369585364
1.074552815065418e6,22.22842479897016,15.417413866259647,0.1485332579572071,-15.994430767613487
1.074552815065418e6,12.055081053447301,8.809746006260353,0.3152582004640815,-8.188505710211599
1.074552815065418e6,298.83560212721204,34.738546712500955,-0.002665381705402526,-296.8086725871083
1.074552815065418e6,11.641610215298408,7.050273120127824,0.009311952172294078,9.233542636109618
1.074552815065418e6,13.647351945401189,5.815977131808305,-0.0008981048035598652,-12.32324159083559
1.074552815065418e6,55.527477165989644,46.6686532940752,0.13269233823248233,30.07918835123454
1.074552815065418e6,70.21589002819812,13.329071189410161,-0.22633078047113664,-68.93470466351633
1.074552815065418e6,62.20296387488276,11.569103083514449,0.15218765430940986,61.11283880306681
1.074552815065418e6,819.1183701594421,25.176933601057172,0.26984702674447314,-818.7309638633923
1.074552815065418e6,570.6077919320712,15.159018753809324,0.3369951050507828,570.4058033166418
1.074552815065418e6,21.123365960204794,5.996019499466364,-0.11895232195909956,-20.240253184795442
1.074552815065418e6,30.290644549356948,19.30808066133791,-0.5513870468708998,-23.320694665984195
1.074552815065418e6,22.63712530477842,5.447896495786009,-0.0324247007585664,21.95897250471858
1.074552815065418e6,592.9340752213461,31.34764139279211,-0.4546455458117131,592.1041917552335
1.074552815065418e6,19.07240637849638,16.914382402982007,0.7217345413341727,-8.750834887758495
1.074552815065418e6,38.9839439414537,33.6866232695654,-0.5879149298325445,19.59722717500675
1.074552815065418e6,552.6600605708153,105.07292091606591,-0.17370612686313963,542.5792396742374
1.074552815065418e6,96.25015616626963,25.560120721137082,0.3160899447250549,92.79068130414716
1.074552815065418e6,1277.2553149061841,20.518006732420606,-0.06085690580175414,1277.090280603235
1.074552815065418e6,23.878703146240653,5.96553497900339,-0.14228880596394064,23.108921853799913
1.074552815065418e6,10.689047594199938,2.3736429025281733,-0.09135820047355597,10.394752065841654
1.074552815065418e6,32.13237059002061,23.300736101627038,-0.7160260604574297,-22.101807675533358
1.074552815065418e6,66.32962950121342,29.908030514622688,-0.5328142391833377,-59.19698665033489
1.074552815065418e6,120.89464311605443,34.067298156340335,-0.5920101465582747,115.99147000301495
1.074552815065418e6,27.138696863615944,17.475852131773006,0.26747724029472986,-20.747760713829603
1.074552815065418e6,22.04752430561659,9.867924583238947,-0.46212107473081737,19.696230490307446
1.074552815065418e6,24.195540341373214,24.179339358844764,0.35647215516527203,0.3070947283737455
1.074552815065418e6,266.64912070753644,76.54436887708823,0.13649836595998407,-255.4253945763722
1.074552815065418e6,27.258430375903394,10.212385914949841,-0.4948717749337767,-25.257117044453913
1.074552815065418e6,19.210038807119552,17.290762368128707,-0.34639635748494396,8.329033332399895
1.074552815065418e6,20.134106442258133,16.763464158579623,-0.08985932840764374,-11.126459271576877
1.074552815065418e6,25.751115774037956,15.609270471100853,-0.5973294092910784,-20.458531118667462
1.074552815065418e6,140.136160006376,42.1030116323151,0.14427301419781113,-133.65962964600755
1.074552815065418e6,125.4158701665415,12.335816284437561,-0.5374603019683144,-124.80431451532425
1.074552815065418e6,23.55406735869179,23.17208029492105,0.1292741880911007,-4.155686599898845
1.074552815065418e6,11.34535949855534,6.402111789597598,-0.2232101469834104,9.333701463192558
1.074552815065418e6,76.63838377274142,21.80391871656478,0.5031140851908371,73.46574392943612
1.074552815065418e6,608.8484893030596,20.54315563611637,-0.12470756361975976,-608.5013424719295
1.074552815065418e6,25.397050224368854,24.333413176023004,0.6791417859364439,7.202193327551209
1.074552815065418e6,18.74679313835476,9.143379624173143,-0.07542215548776969,16.348481045887603
1.074552815065418e6,276.3738259305418,29.78527877553374,-0.367639643100116,-274.76286380774
1.074552815065418e6,46.5626117271575,6.007556648988193,0.07258652116717212,-46.16728781452222
1.074552815065418e6,291.6773879991453,27.31858186451141,0.6639794351489835,-290.3935098193732
1.074552815065418e6,27.091251261894563,10.492024544276354,-0.30798373596926065,-24.96389634861811
1.074552815065418e6,82.92594698812228,21.263840222796553,-0.2064768065498061,80.14959019965958
1.074552815065418e6,34.83526624323671,22.821513361891824,-0.6939969552689602,26.298865552054156
1.074552815065418e6,126.10504682250078,37.217177133293525,-0.44569019964233797,-120.48486867473804
1.074552815065418e6,20.566629598250984,15.746622961370072,0.47973576377674565,-13.199910262188292
1.074552815065418e6,17.51932452489484,17.231532181865337,0.616530613664476,-3.009747408853376
1.074552815065418e6,669.7739007530068,14.42419525241412,-0.3708857835410826,-669.6180409934782
1.074552815065418e6,585.1939143006227,20.927246248250775,-0.1765419457694191,584.819095268682
1.074552815065418e6,116.76057053536275,25.40307457230714,-0.4666568580430462,113.9602322057253
1.074552815065418e6,45.35138117738422,28.80399913350726,0.33455294268059393,35.02003914804523
1.074552815065418e6,54.62062904455111,12.423661290218337,0.09571879207204848,53.1835900844424
1.074552815065418e6,648.8794161655028,14.600720660880201,0.2903165790012555,648.7146283649996
1.074552815065418e6,109.90764555774663,13.824221090766194,0.10342238165018021,109.03214400386985
1.074552815065418e6,68.12146907686628,9.05254219897642,0.2998464095064955,-67.5124712926854
1.074552815065418e6,107.11892338339095,18.442909755598585,-0.13143865532143678,-105.51655419616527
1.074552815065418e6,573.2629582124775,10.469173223695135,-0.47405624644211497,573.1666673841012
1.074552815065418e6,48.47688406900917,12.95094245932002,-0.30386133625015177,46.70788697567717
1.074552815065418e6,6.434130582547153,3.3046708212659803,-0.19164606841752319,5.466087987726314
1.074552815065418e6,33.820794314518096,10.015874000069255,-0.3958798989610841,-32.29255849532579
1.074552815065418e6,340.7810664547135,33.25354990531666,0.33843673798691,-339.1537406431921
1.074552815065418e6,212.33257551132232,29.374290130661077,0.2454462330725002,-210.28944604455683
1.074552815065418e6,426.7819837316517,11.481165941489216,0.1755628710032594,-426.62682909448483
1.074552815065418e6,15.503527956227101,6.227717998993291,0.128777572659644,14.177305207269615
1.074552815065418e6,11.689931236832113,7.489801202058382,0.006276094749871486,8.943991831106885
1.074552815065418e6,110.35598240435422,11.11150514053254,0.5180909317402899,-109.79137737872348
1.074552815065418e6,4.572419437815907,2.5952072801651056,0.3630757994454776,3.6712060199498198
1.074552815065418e6,178.12180427217467,22.73555337279218,0.1422407303986694,176.66320838412057
1.074552815065418e6,54.061583030903584,17.352029670870117,0.5701187787770619,51.19252337671368
1.074552815065418e6,261.2661962475016,12.213158112056092,0.24374147936273208,260.979390603258
1.074552815065418e6,368.356123799926,18.93803276860209,0.32553579602361704,367.8680694776268
1.074552815065418e6,64.6471404036672,15.95490182581981,-0.16242061188620108,-62.6426783322162
1.074552815065418e6,10.74208289645,4.292016387838162,-0.39244028019454624,9.810942355144949
1.074552815065418e6,15.205460081390672,13.988448357372855,-0.08619536737291891,5.912660838174757
1.074552815065418e6,2536.0113263445915,23.371241078817388,0.06057069896767921,-2535.9035207256347
1.074552815065418e6,412.64639131627894,17.53551861372135,-0.299323210618051,-412.27284402189264
1.074552815065418e6,69.53302079575748,22.38526754401335,-0.45413586498588626,65.82531578026105
1.074552815065418e6,291.15406460485775,14.242776498016571,-0.07055559045762165,290.80451395130484
1.074552815065418e6,30.620098267239392,24.714010003863905,0.4635144887025957,18.05632688926068
1.074552815065418e6,165.90603355156796,10.363030891768346,0.31821127302642244,-165.58005906547066
1.074552815065418e6,259.34505973624863,13.255831710080647,0.009297873261143693,259.00498162740183
1.074552815065418e6,32.252232333812294,28.815606214407772,0.2600520611595089,-14.465039264538559
1.074552815065418e6,22.44990025251408,8.806771090437575,-0.4407816340741478,-20.632066664498044
1.074552815065418e6,49.951373326493254,7.295703629795968,0.05784193994341307,-49.409986025576146
1.074552815065418e6,8.303831254663539,7.7737703814762655,0.5204626656520155,2.7728839074933878
1.074552815065418e6,72.45027162083045,10.561826145922815,0.3437100429366297,71.67153695010707
1.074552815065418e6,29.271944410169073,23.872128834366073,-0.04124755424762067,-16.92347931412121
1.074552815065418e6,753.0400675082983,10.44224716050331,-0.2200025431132735,752.9672582556369
1.074552815065418e6,746.7571525888352,22.696390243548883,-0.6989528649172727,-746.4114602123809
1.074552815065418e6,98.2384968511698,17.53795654270161,0.6989125398295206,-96.65490946731079
1.074552815065418e6,34.80314715969747,16.416963912792035,-0.5949041261799556,-30.672888618046073
1.074552815065418e6,90.15670845597886,21.03309957786339,0.13290890611528053,-87.66561923568149
1.074552815065418e6,20.70524411331527,20.59212314445317,-0.36254596297532354,1.9944466924806648
1.074552815065418e6,36.400938422090476,17.590307163232364,0.1594762820064841,31.85940423511087
1.074552815065418e6,69.90920635357399,5.928608567554944,-0.06828038424243496,-69.65329662131717
1.074552815065418e6,124.4782421432344,23.065076719715343,0.33404785653281716,-122.31991282698682
1.074552815065418e6,372.6536576998163,22.14565232227133,0.6781483833965628,-371.99367797589224
1.074552815065418e6,24.08185663665735,23.055273790559223,-0.059470561821414115,-6.915510953784342
1.074552815065418e6,105.094472884287,16.09506073814523,-0.058383048515929716,-103.85196917280851
1.074552815065418e6,68.83525284141278,18.216068501878045,0.6226445052777814,-66.37406763853579
1.074552815065418e6,35.49083486735305,5.261001975346781,0.29205348763421507,-35.08950814055741
1.074552815065418e6,29.348521367637716,14.43023346560488,0.31662496269602436,-25.542933978237237
1.074552815065418e6,20.28309878736986,20.13690082367205,0.35350604337436287,-2.28517266346819
1.074552815065418e6,94.92491133567938,20.51329567885919,0.029195891109548292,-92.67890967780639
1.074552815065418e6,33.775836106427256,33.57250563074487,-0.12903278325873463,3.6214610161435385
1.074552815065418e6,441.78007543860764,9.708270915399595,0.15227721134783254,441.6727283872242
1.074552815065418e6,21.755153752896188,9.481670113442732,-0.10499281331324925,19.565563681374396
1.074552815065418e6,63.826214418740456,11.51051869950686,-0.4174827167945398,-62.773855811677485
1.074552815065418e6,30.131559498685743,15.762300414901766,-0.70911851320411,25.659220046139787
1.074552815065418e6,499.1519287197704,16.727188095277075,0.5231371531351767,498.87073787665645
