8.766161716171613e6,213.1638641357422,19.347951889038086,38.10853958129883,-208.8126220703125
8.766161716171613e6,100.38509368896484,20.580642700195312,-33.336299896240234,-92.37303924560547
8.766161716171613e6,80.2391357421875,-27.300220489501953,-6.519847869873047,75.10652160644531
8.766161716171613e6,70.30846405029297,64.9738540649414,26.628063201904297,-1.7625247240066528
8.766161716171613e6,69.95016479492188,-5.225021839141846,-34.58403778076172,-60.499183654785156
8.766161716171613e6,453.18609619140625,-0.1580628603696823,20.168190002441406,-452.7265625
8.766161716171613e6,6.945226669311523,-4.743688583374023,0.3300989866256714,4.013271808624268
8.766161716171613e6,23.692180633544922,-13.752098083496094,13.073514938354492,-13.847893714904785
8.766161716171613e6,47.051490783691406,42.133827209472656,18.398656845092773,-9.516027450561523
8.766161716171613e6,45.54228973388672,24.135665893554688,29.93986701965332,24.20032501220703
8.766161716171613e6,114.03622436523438,-13.182782173156738,11.463679313659668,112.64785766601562
8.766161716171613e6,142.00106811523438,26.86456298828125,-23.831806182861328,-137.35037231445312
8.766161716171613e6,192.8972625732422,-25.320484161376953,21.577884674072266,189.98184204101562
8.766161716171613e6,343.3901062011719,-69.46622467041016,-33.419219970703125,-334.6114807128906
8.766161716171613e6,87.15120697021484,27.914159774780273,-0.7779738306999207,-82.49854278564453
8.766161716171613e6,47.97102737426758,19.681013107299805,-15.074936866760254,40.952476501464844
8.766161716171613e6,32.19340133666992,24.81943130493164,-16.182863235473633,12.206863403320312
8.766161716171613e6,17.0723819732666,-1.0158761739730835,-10.467388153076172,-13.09006118774414
8.766161716171613e6,54.031246185302734,32.6917724609375,33.63681411743164,26.639629364013672
8.766161716171613e6,68.21707153320312,27.783599853515625,-54.27894973754883,-30.428892135620117
8.766161716171613e6,751.20068359375,-33.697933197021484,-23.524744033813477,-750.0692749023438
8.766161716171613e6,53.89448547363281,25.577144622802734,-45.27910232543945,-13.80976676940918
8.766161716171613e6,74.4422607421875,-10.706440925598145,7.6019744873046875,-73.21006774902344
8.766161716171613e6,23.92400360107422,-18.789793014526367,-13.628544807434082,4.903687000274658
8.766161716171613e6,74.46464538574219,21.8798828125,18.181396484375,-68.74716186523438
8.766161716171613e6,126.38379669189453,24.656169891357422,15.396758079528809,-122.95673370361328
8.766161716171613e6,64.86394500732422,45.052024841308594,10.541147232055664,45.35429763793945
8.766161716171613e6,913.8416748046875,16.691879272460938,-37.888450622558594,-912.8980712890625
8.766161716171613e6,40.30369567871094,-16.850988388061523,11.677223205566406,34.56235122680664
8.766161716171613e6,1501.6629638671875,7.900299072265625,8.122036933898926,1501.6170654296875
8.766161716171613e6,21.580276489257812,9.202221870422363,14.79039478302002,12.359344482421875
8.766161716171613e6,175.3446502685547,-44.2393798828125,-3.054882049560547,169.61654663085938
8.766161716171613e6,62.743412017822266,-2.715378999710083,-28.805831909179688,-55.588382720947266
8.766161716171613e6,211.47787475585938,-6.500126361846924,16.582063674926758,210.70396423339844
8.766161716171613e6,48.723289489746094,17.361278533935547,-34.91758346557617,29.04804801940918
8.766161716171613e6,30.509428024291992,-7.333163261413574,5.013037204742432,-29.024147033691406
8.766161716171613e6,71.74260711669922,0.6704930067062378,24.26040267944336,67.44232177734375
8.766161716171613e6,24.93787384033203,-10.694120407104492,-4.976298809051514,-21.754344940185547
8.766161716171613e6,21.490039825439453,20.81689453125,-3.474210739135742,2.624941349029541
8.766161716171613e6,54.65727615356445,-36.39218521118164,-4.537108421325684,-40.40944290161133
8.766161716171613e6,306.4155578613281,27.354957580566406,-23.953319549560547,-304.2349548339844
8.766161716171613e6,182.7228240966797,-22.06722068786621,22.577606201171875,179.9483184814453
8.766161716171613e6,2105.0048828125,26.544952392578125,-23.082548141479492,-2104.708740234375
8.766161716171613e6,168.26461791992188,18.35797691345215,-33.09418869018555,-163.92445373535156
8.766161716171613e6,34.371334075927734,24.092449188232422,-21.879831314086914,-10.615897178649902
8.766161716171613e6,19.405481338500977,8.698570251464844,16.838716506958008,-2.8012444972991943
8.766161716171613e6,182.37619018554688,32.26832580566406,19.27415657043457,-178.43435668945312
8.766161716171613e6,75.49605560302734,26.645957946777344,-9.506797790527344,-69.92675018310547
8.766161716171613e6,806.114501953125,-10.876776695251465,23.522687911987305,-805.6919555664062
8.766161716171613e6,324.1116027832031,-27.954057693481445,17.263202667236328,-322.42730712890625
8.766161716171613e6,38.864349365234375,2.532433271408081,31.337600708007812,-22.637596130371094
8.766161716171613e6,1736.5177001953125,-6.9950785636901855,13.4093017578125,-1736.4490966796875
8.766161716171613e6,431.6607360839844,-16.109161376953125,29.32166290283203,430.35125732421875
8.766161716171613e6,38.47917556762695,-36.687992095947266,7.8113179206848145,-8.006447792053223
8.766161716171613e6,1165.5087890625,3.3669674396514893,-22.48676109313965,-1165.2828369140625
8.766161716171613e6,31.668209075927734,-23.477705001831055,19.919797897338867,-6.734708786010742
8.766161716171613e6,480.025146484375,-20.915363311767578,18.20162582397461,-479.21380615234375
8.766161716171613e6,65.2153091430664,-16.345869064331055,-11.936842918395996,-61.918033599853516
8.766161716171613e6,214.4784698486328,27.336591720581055,22.88197898864746,-211.47251892089844
8.766161716171613e6,3565.052001953125,2.035292625427246,4.889166831970215,-3565.046630859375
8.766161716171613e6,759.4297485351562,39.07511901855469,-3.9669296741485596,758.4071655273438
8.766161716171613e6,64.33125305175781,18.944169998168945,19.029687881469727,58.3779182434082
8.766161716171613e6,126.75889587402344,29.63182258605957,-16.398395538330078,-122.11203002929688
8.766161716171613e6,46.94754409790039,26.136621475219727,-25.978336334228516,28.92328643798828
8.766161716171613e6,650.251220703125,-35.91498947143555,-6.109565734863281,-649.2225341796875
8.766161716171613e6,759.3118286132812,31.888195037841797,-24.59295082092285,758.2369384765625
8.766161716171613e6,64.18474578857422,-17.538022994995117,-45.566898345947266,-41.548030853271484
8.766161716171613e6,1160.15966796875,-62.175025939941406,14.022063255310059,-1158.4034423828125
8.766161716171613e6,35.48112487792969,20.4871768951416,4.626665115356445,28.42993927001953
8.766161716171613e6,24.415964126586914,13.155123710632324,17.097553253173828,-11.010786056518555
8.766161716171613e6,53.03346633911133,42.07123565673828,-23.90035057067871,21.4898738861084
8.766161716171613e6,52.075923919677734,-49.97956466674805,-4.621549606323242,-13.530271530151367
8.766161716171613e6,941.6107788085938,36.47313690185547,18.65032958984375,-940.7141723632812
8.766161716171613e6,30.01665687561035,17.269535064697266,-18.792734146118164,15.494440078735352
8.766161716171613e6,114.81019592285156,31.04572868347168,-6.93676233291626,110.27197265625
8.766161716171613e6,46.47174072265625,27.447280883789062,-25.344072341918945,-27.466875076293945
8.766161716171613e6,74.39213562011719,-2.645994186401367,29.96932029724121,67.96697998046875
8.766161716171613e6,26.571626663208008,19.670494079589844,17.286251068115234,-3.2848429679870605
8.766161716171613e6,78.6061782836914,-25.254953384399414,37.63938903808594,-64.14730834960938
8.766161716171613e6,47.697105407714844,34.944461822509766,-26.088991165161133,-19.072092056274414
8.766161716171613e6,32.122764587402344,5.82968807220459,-23.062618255615234,21.36548614501953
8.766161716171613e6,1663.6553955078125,-19.69337272644043,0.5252158045768738,-1663.535888671875
8.766161716171613e6,71.01994323730469,-15.029621124267578,1.0550624132156372,69.33477783203125
8.766161716171613e6,374.047119140625,-46.81890869140625,-53.50444030761719,367.2151794433594
8.766161716171613e6,269.9163818359375,-9.985973358154297,-22.572172164916992,-268.76776123046875
8.766161716171613e6,103.77766418457031,-17.836206436157227,-1.057590126991272,102.18138885498047
8.766161716171613e6,44.0636100769043,40.54301834106445,-8.76043701171875,-14.546541213989258
8.766161716171613e6,1314.45751953125,-28.24496841430664,16.154420852661133,-1314.051025390625
8.766161716171613e6,27.380706787109375,-3.787616729736328,26.725759506225586,-3.4018399715423584
8.766161716171613e6,50.321502685546875,-33.04393005371094,28.154874801635742,25.26137924194336
8.766161716171613e6,71.7858657836914,-42.931461334228516,21.486827850341797,-53.281307220458984
8.766161716171613e6,311.2992248535156,34.92308807373047,-6.2864813804626465,-309.25482177734375
8.766161716171613e6,43.87363052368164,4.808560371398926,-0.22531439363956451,43.499473571777344
8.766161716171613e6,54.90312194824219,22.27520751953125,-48.182010650634766,-13.680037498474121
8.766161716171613e6,18.789045333862305,1.1111671924591064,16.753007888793945,-7.849328517913818
8.766161716171613e6,1165.487060546875,41.03343963623047,6.184113025665283,1164.7440185546875
8.766161716171613e6,15.784324645996094,-3.6632163524627686,-11.566608428955078,-9.61358642578125
8.766161716171613e6,99.01327514648438,-27.442638397216797,24.303152084350586,91.92588806152344
8.766161716171613e6,100.04512786865234,19.377384185791016,11.464414596557617,-97.42994689941406
8.766161716171613e6,27.781484603881836,-7.7879743576049805,-13.111551284790039,-23.015806198120117
8.766161716171613e6,12.929999351501465,10.903024673461914,5.423582553863525,3.061929941177368
8.766161716171613e6,42.636173248291016,35.13671112060547,2.101160764694214,-23.86046028137207
8.766161716171613e6,71.755126953125,44.86491775512695,8.563169479370117,-55.254783630371094
8.766161716171613e6,221.9866943359375,-16.67713737487793,8.236871719360352,-221.18453979492188
8.766161716171613e6,232.2872314453125,0.3287225067615509,-22.829078674316406,-231.14186096191406
8.766161716171613e6,1099.379150390625,-21.57707977294922,17.567689895629883,-1099.022705078125
8.766161716171613e6,2375.73779296875,-14.763062477111816,-6.252682685852051,-2375.681884765625
8.766161716171613e6,45.75889587402344,42.22140121459961,10.775035858154297,13.62387752532959
8.766161716171613e6,47.25941848754883,0.10054819285869598,-40.04419708251953,-24.907562255859375
8.766161716171613e6,94.52783966064453,-30.218475341796875,-18.750120162963867,-87.5286865234375
8.766161716171613e6,666.0972290039062,-105.74150848388672,8.510175704956055,-657.5882568359375
8.766161716171613e6,1895.5169677734375,4.300708293914795,44.286155700683594,-1894.9921875
8.766161716171613e6,89.18267822265625,45.91651916503906,-4.221918106079102,-76.27503204345703
8.766161716171613e6,73.38619232177734,-25.304428100585938,-10.690703392028809,67.98094940185547
8.766161716171613e6,76.68500518798828,26.73031997680664,20.469633102416992,-68.82990264892578
8.766161716171613e6,152.63107299804688,2.053234815597534,22.988849639892578,150.84437561035156
8.766161716171613e6,177.36509704589844,-14.183233261108398,-24.68250274658203,-175.03848266601562
8.766161716171613e6,137.07261657714844,5.514858245849609,7.5711798667907715,-136.7174072265625
8.766161716171613e6,165.05628967285156,-7.342742919921875,-21.38689422607422,163.47093200683594
8.766161716171613e6,374.0209045410156,-42.4648551940918,3.6597049236297607,-371.5716247558594
8.766161716171613e6,467.1265869140625,-33.896575927734375,-18.407958984375,-465.5211181640625
8.766161716171613e6,505.69189453125,32.04969024658203,17.293508529663086,-504.36944580078125
8.766161716171613e6,196.94146728515625,24.23674774169922,31.18578338623047,192.9156494140625
8.766161716171613e6,1202.7060546875,-6.277003765106201,12.38576889038086,-1202.6219482421875
8.766161716171613e6,27.76239585876465,10.212540626525879,-23.21901512145996,10.854203224182129
8.766161716171613e6,142.49571228027344,42.56734085083008,-21.89153480529785,-134.18006896972656
8.766161716171613e6,122.31623840332031,-51.73660659790039,26.259923934936523,-107.6358871459961
8.766161716171613e6,19.017969131469727,10.524243354797363,-1.2476006746292114,15.487049102783203
8.766161716171613e6,185.65585327148438,-25.690793991088867,-29.943069458007812,-181.38900756835938
8.766161716171613e6,1114.3912353515625,-37.3060417175293,20.1868953704834,-1113.579345703125
8.766161716171613e6,484.225830078125,-14.7417573928833,-42.6816520690918,-482.10589599609375
8.766161716171613e6,33.23771667480469,-27.686664581298828,9.887066841125488,15.196120262145996
8.766161716171613e6,1484.7313232421875,-32.2557487487793,8.935548782348633,-1484.350830078125
8.766161716171613e6,98.54595947265625,-47.896602630615234,-5.940343856811523,85.8627700805664
8.766161716171613e6,365.3711853027344,-28.037778854370117,-18.31702995300293,363.8199462890625
8.766161716171613e6,106.75855255126953,27.538021087646484,-15.89084529876709,-101.86760711669922
8.766161716171613e6,1043.005615234375,1.1944133043289185,0.19544000923633575,1043.0003662109375
8.766161716171613e6,243.4200439453125,-10.47695541381836,12.012300491333008,-242.87803649902344
8.766161716171613e6,930.6357421875,-15.645215034484863,17.86819076538086,930.3275756835938
8.766161716171613e6,153.68678283691406,-29.63370704650879,4.792085647583008,150.6950225830078
8.766161716171613e6,639.5610961914062,-16.176170349121094,28.507097244262695,-638.7131958007812
8.766161716171613e6,386.44384765625,2.6506736278533936,-25.278322219848633,-385.5947570800781
8.766161716171613e6,2145.45703125,-29.240623474121094,25.619705200195312,-2145.1025390625
8.766161716171613e6,588.3521728515625,-2.322960615158081,-42.18986511230469,-586.8248291015625
8.766161716171613e6,169.35467529296875,13.69774341583252,1.3970686197280884,168.7658233642578
8.766161716171613e6,456.20428466796875,32.0146369934082,-1.217777132987976,455.0674743652344
8.766161716171613e6,50.80100631713867,-33.63945007324219,-23.70543670654297,29.625391006469727
8.766161716171613e6,366.7507629394531,-13.85886001586914,-4.17372465133667,366.4520568847656
8.766161716171613e6,20.85323715209961,11.032413482666016,-17.417362213134766,0.5104939937591553
8.766161716171613e6,2170.62548828125,-21.481237411499023,11.995020866394043,-2170.48388671875
8.766161716171613e6,384.4887390136719,-5.576606273651123,24.501882553100586,-383.6543273925781
8.766161716171613e6,88.8920669555664,7.532556533813477,45.89134216308594,75.69363403320312
8.766161716171613e6,335.7685546875,-43.961978912353516,-9.78997802734375,-332.7198486328125
8.766161716171613e6,84.05618286132812,-31.53737449645996,-7.762259483337402,-77.46653747558594
8.766161716171613e6,100.50576782226562,-38.84756851196289,10.415964126586914,-92.05577087402344
8.766161716171613e6,19.532609939575195,14.640050888061523,-12.55672836303711,0.0452609658241272
8.766161716171613e6,1017.95068359375,25.25960350036621,-6.408849239349365,1017.6124267578125
8.766161716171613e6,46.14801788330078,5.213552474975586,33.38706588745117,31.276891708374023
8.766161716171613e6,53.710819244384766,13.284533500671387,34.46763610839844,38.86948776245117
8.766161716171613e6,290.3115539550781,-1.2780587673187256,33.48411560058594,-288.354736328125
8.766161716171613e6,88.86437225341797,-9.102341651916504,-53.905029296875,-69.99109649658203
8.766161716171613e6,38.018672943115234,11.812192916870117,-34.58749771118164,10.003924369812012
8.766161716171613e6,37.031341552734375,2.2799363136291504,26.20669174194336,25.88075065612793
8.766161716171613e6,94.7618637084961,17.01828956604004,-84.54842376708984,-39.143760681152344
8.766161716171613e6,1439.5,43.091346740722656,27.135093688964844,-1438.595703125
8.766161716171613e6,100.72891235351562,10.82218074798584,-12.975042343139648,-99.25383758544922
8.766161716171613e6,59.617130279541016,22.05939483642578,4.547121524810791,-55.112525939941406
8.766161716171613e6,725.9090576171875,-2.6621220111846924,49.5184211730957,-724.2066650390625
8.766161716171613e6,173.18174743652344,-51.58897399902344,27.69515609741211,-162.95384216308594
8.766161716171613e6,23.479576110839844,13.42208194732666,-4.898331642150879,-18.374608993530273
8.766161716171613e6,357.9104309082031,29.932477951049805,-3.4717845916748047,356.6263427734375
8.766161716171613e6,30.692211151123047,-5.579211711883545,23.612918853759766,-18.541738510131836
8.766161716171613e6,93.84400177001953,-34.77648162841797,-11.195089340209961,86.38544464111328
8.766161716171613e6,39.2084846496582,9.282456398010254,-16.356801986694336,34.26482009887695
8.766161716171613e6,745.1267700195312,-56.39759063720703,12.508453369140625,-742.877685546875
8.766161716171613e6,28.621488571166992,16.61310577392578,1.7706499099731445,23.033472061157227
8.766161716171613e6,468.89190673828125,-26.65825080871582,16.393028259277344,467.8362121582031
8.766161716171613e6,200.3406982421875,-56.29351806640625,-48.1776123046875,186.1097412109375
8.766161716171613e6,68.83911895751953,-26.88276481628418,15.059632301330566,61.480323791503906
8.766161716171613e6,137.65963745117188,-16.345685958862305,-38.17302703857422,131.2108917236328
8.766161716171613e6,7.627100944519043,-6.43079137802124,-2.391695499420166,1.2566258907318115
8.766161716171613e6,25.487661361694336,3.9969727993011475,-17.004640579223633,18.302156448364258
8.766161716171613e6,1397.5933837890625,-15.70639419555664,-12.809892654418945,1397.4429931640625
8.766161716171613e6,48.01285934448242,1.872039794921875,31.978334426879883,35.63142013549805
8.766161716171613e6,60.720882415771484,4.309398651123047,-29.57938003540039,52.76359176635742
8.766161716171613e6,493.64019775390625,11.374582290649414,39.755126953125,-491.89556884765625
8.766161716171613e6,72.67540740966797,-31.7297420501709,-32.874725341796875,-56.432899475097656
8.766161716171613e6,165.15286254882812,-16.71547508239746,-38.05825424194336,-159.80648803710938
8.766161716171613e6,30.885644912719727,-26.770639419555664,14.046159744262695,-5.517522811889648
8.766161716171613e6,86.72521209716797,-29.679563522338867,-2.189405918121338,81.40070343017578
8.766161716171613e6,21.82306480407715,13.973342895507812,-7.0193915367126465,-14.90643310546875
8.766161716171613e6,64.47762298583984,-6.076486587524414,-17.752872467041016,-61.609718322753906
8.766161716171613e6,47.192138671875,23.24164390563965,37.317962646484375,-16.875289916992188
8.766161716171613e6,111.1117172241211,3.450556993484497,-23.18890380859375,-108.56639862060547
8.766161716171613e6,335.1647033691406,-15.964298248291016,-31.70567512512207,-333.2652893066406
8.766161716171613e6,740.7474365234375,-15.598999977111816,30.333740234375,739.9552612304688
8.766161716171613e6,30.928783416748047,-19.345569610595703,14.981562614440918,-18.664752960205078
8.766161716171613e6,57.039398193359375,-11.345403671264648,-17.37903594970703,53.039852142333984
8.766161716171613e6,48.89891815185547,16.70289421081543,7.674117565155029,-45.20738220214844
8.766161716171613e6,353.15032958984375,38.84977722167969,6.006785869598389,-350.94195556640625
8.766161716171613e6,169.0021514892578,-19.980316162109375,-27.394012451171875,-165.53720092773438
8.766161716171613e6,31.4760684967041,-0.9985294938087463,9.7113676071167,29.764354705810547
8.766161716171613e6,15.46756362915039,-11.265035629272461,-9.694478988647461,2.9737696647644043
8.766161716171613e6,41.40001678466797,9.023930549621582,-17.519363403320312,-36.27786636352539
8.766161716171613e6,117.1380844116211,20.475635528564453,2.53515887260437,115.26549530029297
8.766161716171613e6,208.708984375,-5.190372943878174,-12.578692436218262,208.2420654296875
8.766161716171613e6,83.85371398925781,11.481266021728516,26.281818389892578,-78.73609924316406
8.766161716171613e6,60.7249641418457,42.790618896484375,-28.277603149414062,32.3626823425293
8.766161716171613e6,73.36451721191406,-37.65283966064453,7.761378765106201,-62.40880584716797
8.766161716171613e6,900.1342163085938,15.084576606750488,-18.101064682006836,-899.8204956054688
8.766161716171613e6,129.78395080566406,-15.957716941833496,-57.755027770996094,115.0828628540039
8.766161716171613e6,137.8130340576172,-25.61312484741211,-9.893428802490234,-135.0148162841797
8.766161716171613e6,1275.4390869140625,0.9200689792633057,-29.81455421447754,1275.0865478515625
8.766161716171613e6,41.7884407043457,23.205459594726562,24.19552993774414,24.755573272705078
8.766161716171613e6,16.148204803466797,-12.181327819824219,6.066074371337891,8.127991676330566
8.766161716171613e6,527.220703125,13.03832721710205,42.71310806274414,525.3168334960938
8.766161716171613e6,773.5485229492188,42.959224700927734,-25.910104751586914,771.913818359375
8.766161716171613e6,243.59901428222656,43.14596176147461,10.831413269042969,239.48292541503906
8.766161716171613e6,152.09744262695312,-17.228544235229492,30.2518310546875,148.0274200439453
8.766161716171613e6,1703.556884765625,18.56206512451172,3.6385257244110107,-1703.4490966796875
8.766161716171613e6,316.3507385253906,-16.325971603393555,-38.591880798339844,313.5480651855469
8.766161716171613e6,155.93507385253906,6.4273881912231445,-7.98673152923584,-155.56712341308594
8.766161716171613e6,230.784912109375,-18.497201919555664,0.1485094279050827,230.02171325683594
8.766161716171613e6,343.915771484375,-18.07937240600586,26.230188369750977,342.4232177734375
8.766161716171613e6,44.4710578918457,27.728271484375,-34.58052444458008,-1.8673394918441772
8.766161716171613e6,1073.5482177734375,41.40068817138672,53.2904167175293,-1071.4207763671875
8.766161716171613e6,259.79388427734375,21.070907592773438,-4.0660176277160645,258.8876647949219
8.766161716171613e6,696.0244750976562,34.623531341552734,-30.345455169677734,694.4932861328125
8.766161716171613e6,307.1456298828125,-40.51649475097656,-15.351853370666504,304.0586242675781
8.766161716171613e6,176.51602172851562,33.67635726928711,12.88458251953125,-172.76654052734375
8.766161716171613e6,200.187255859375,-24.09516716003418,34.36728286743164,195.71339416503906
8.766161716171613e6,32.455780029296875,-15.313961029052734,-5.685921669006348,27.87493896484375
8.766161716171613e6,2188.889892578125,7.424834728240967,24.343446731567383,-2188.73974609375
8.766161716171613e6,138.19873046875,33.552886962890625,-23.72849464416504,-131.91107177734375
8.766161716171613e6,55.35308074951172,-14.2909574508667,42.87944793701172,31.805133819580078
8.766161716171613e6,792.3426513671875,-11.248967170715332,20.59874153137207,-791.9889526367188
8.766161716171613e6,43.67473602294922,-22.011735916137695,-10.321601867675781,36.1512451171875
8.766161716171613e6,1048.487548828125,26.160301208496094,29.317529678344727,1047.74658203125
8.766161716171613e6,41.815879821777344,-21.813684463500977,26.400915145874023,-23.79505157470703
8.766161716171613e6,141.1106719970703,13.731307983398438,1.5959107875823975,-140.39804077148438
8.766161716171613e6,112.49415588378906,21.440563201904297,32.0348014831543,105.63849639892578
8.766161716171613e6,34.397525787353516,-14.684220314025879,-2.0997939109802246,-30.880998611450195
8.766161716171613e6,58.72972869873047,-11.024560928344727,23.190629959106445,52.72870635986328
8.766161716171613e6,38.11297607421875,-11.164775848388672,-36.310157775878906,0.03250538557767868
8.766161716171613e6,111.76622009277344,-28.94781494140625,-22.868242263793945,105.457275390625
8.766161716171613e6,217.34983825683594,6.649863243103027,43.889949798583984,212.74606323242188
8.766161716171613e6,46.74767303466797,4.522000789642334,39.165401458740234,-24.92888641357422
8.766161716171613e6,182.16209411621094,32.06297302246094,-24.850313186645508,177.5610809326172
8.766161716171613e6,18.873197555541992,6.88529109954834,3.404895067214966,-16.961095809936523
8.766161716171613e6,164.86585998535156,-25.03927230834961,12.139450073242188,-162.4712371826172
8.766161716171613e6,1077.18603515625,41.54564666748047,7.130418300628662,-1076.3564453125
8.766161716171613e6,33.963687896728516,-25.917524337768555,18.927019119262695,-10.68006420135498
8.766161716171613e6,106.39776611328125,-36.97659683227539,14.218192100524902,98.6992416381836
8.766161716171613e6,1119.87353515625,-3.690786123275757,24.513628005981445,-1119.5948486328125
8.766161716171613e6,65.50167846679688,-33.78074645996094,22.775577545166016,-51.1965446472168
8.766161716171613e6,69.11157989501953,4.1307597160339355,-0.455862820148468,68.91749572753906
8.766161716171613e6,29.230268478393555,-20.698928833007812,19.839099884033203,-4.780665874481201
8.766161716171613e6,905.0643310546875,19.590909957885742,25.568220138549805,904.4857177734375
8.766161716171613e6,47.96589660644531,12.188644409179688,25.3315372467041,-38.74221420288086
8.766161716171613e6,362.3050537109375,-15.199292182922363,-59.427494049072266,357.0613098144531
8.766161716171613e6,256.7696533203125,20.643321990966797,6.151958465576172,-255.84593200683594
8.766161716171613e6,448.25140380859375,36.16343307495117,29.805553436279297,445.7843017578125
8.766161716171613e6,67.33259582519531,38.070919036865234,6.456026077270508,-55.07345199584961
8.766161716171613e6,11.776803970336914,-10.956254959106445,-3.0224533081054688,0.00880743283778429
8.766161716171613e6,813.9558715820312,45.24266052246094,66.60382080078125,809.9578247070312
8.766161716171613e6,144.67990112304688,-13.121853828430176,48.742557525634766,-135.55343627929688
8.766161716171613e6,342.6478576660156,33.438358306884766,16.064659118652344,-340.6197814941406
8.766161716171613e6,432.2829284667969,-56.342952728271484,9.724117279052734,428.47393798828125
8.766161716171613e6,60.58271789550781,7.178844928741455,35.84903335571289,-48.20848846435547
8.766161716171613e6,91.48192596435547,-54.645206451416016,6.6925225257873535,72.99681854248047
8.766161716171613e6,662.8727416992188,32.0992317199707,7.961030960083008,662.0400390625
8.766161716171613e6,41.262290954589844,-21.871896743774414,33.81999206542969,8.41942310333252
8.766161716171613e6,504.63970947265625,-19.05450439453125,-11.580961227416992,-504.1374206542969
8.766161716171613e6,47.30069351196289,40.722694396972656,-3.7191169261932373,-23.57260513305664
8.766161716171613e6,38.91561508178711,30.256027221679688,-7.363053798675537,-23.135799407958984
8.766161716171613e6,734.757080078125,-23.9876708984375,-27.474363327026367,733.8448486328125
8.766161716171613e6,724.2221069335938,19.61882209777832,-16.31937599182129,-723.7657470703125
8.766161716171613e6,81.52333068847656,-14.332704544067383,12.323973655700684,79.2415771484375
8.766161716171613e6,115.25370025634766,-0.9427649974822998,-34.326820373535156,109.9758071899414
8.766161716171613e6,33.71038055419922,3.467475652694702,-24.700403213500977,-22.46637725830078
8.766161716171613e6,145.77178955078125,40.03504943847656,-8.465001106262207,139.8765106201172
8.766161716171613e6,1387.33203125,-10.058914184570312,41.083763122558594,1386.6837158203125
8.766161716171613e6,60.72478103637695,-1.5543054342269897,-41.464534759521484,-44.22959518432617
8.766161716171613e6,152.17230224609375,-2.7065021991729736,-3.4342215061187744,-152.07818603515625
8.766161716171613e6,71.11480712890625,20.937122344970703,-8.13283634185791,67.40394592285156
8.766161716171613e6,620.2588500976562,13.081814765930176,-4.626373767852783,620.095947265625
8.766161716171613e6,27.129043579101562,10.801301002502441,23.9276065826416,-6.1047773361206055
8.766161716171613e6,148.04608154296875,2.4571938514709473,30.670949935913086,-144.7804412841797
8.766161716171613e6,147.74769592285156,12.769933700561523,36.520957946777344,142.5587921142578
8.766161716171613e6,79.12467193603516,-43.7244873046875,17.56629180908203,-63.48851013183594
8.766161716171613e6,74.06790161132812,-39.503292083740234,57.39188003540039,24.94388771057129
8.766161716171613e6,155.531982421875,-22.552385330200195,58.13926696777344,-142.4496307373047
8.766161716171613e6,41.03548812866211,-14.126063346862793,20.00902557373047,32.77935791015625
8.766161716171613e6,51.19770812988281,39.70156478881836,21.585275650024414,23.86522102355957
8.766161716171613e6,32.92417907714844,17.017351150512695,12.585549354553223,25.029924392700195
8.766161716171613e6,42.35078811645508,11.303814888000488,13.335205078125,-38.45083999633789
8.766161716171613e6,1539.2205810546875,-9.016571998596191,-26.948871612548828,-1538.9552001953125
8.766161716171613e6,37.258758544921875,-1.0930758714675903,-27.778076171875,24.614639282226562
8.766161716171613e6,629.3617553710938,29.823213577270508,-19.50400733947754,628.3446044921875
8.766161716171613e6,136.3509521484375,21.469600677490234,29.527523040771484,-131.3363800048828
8.766161716171613e6,108.32958984375,29.541519165039062,-42.737735748291016,95.00823974609375
8.766161716171613e6,61.30859375,14.434578895568848,-27.86948585510254,52.575279235839844
8.766161716171613e6,189.79251098632812,18.37982940673828,-2.127758264541626,-188.86326599121094
8.766161716171613e6,19.755939483642578,-18.799592971801758,-4.670114994049072,-2.354597806930542
8.766161716171613e6,362.2290344238281,17.073665618896484,26.148136138916016,360.8671569824219
8.766161716171613e6,98.84831237792969,-6.875061988830566,32.87948989868164,92.91470336914062
8.766161716171613e6,111.24320983886719,-36.77291488647461,-1.593427062034607,-104.93211364746094
8.766161716171613e6,259.9469909667969,-1.3837521076202393,-42.654850006103516,256.40118408203125
8.766161716171613e6,112.65532684326172,-4.995907306671143,7.896405220031738,-112.22473907470703
8.766161716171613e6,246.1122283935547,5.7994585037231445,8.123404502868652,-245.89039611816406
8.766161716171613e6,645.6065673828125,30.034753799438477,23.937801361083984,644.4557495117188
8.766161716171613e6,1333.7762451171875,-8.752066612243652,-13.06337833404541,1333.6800537109375
8.766161716171613e6,81.92749786376953,37.84125900268555,4.607178688049316,-72.45281219482422
8.766161716171613e6,30.08232879638672,22.424583435058594,9.108116149902344,-17.5956974029541
8.766161716171613e6,62.98857879638672,-37.99839401245117,-5.713310718536377,49.814884185791016
8.766161716171613e6,678.9085083007812,53.25431823730469,-11.864407539367676,676.7056274414062
8.766161716171613e6,57.7553825378418,22.304704666137695,-23.79022979736328,-47.567752838134766
8.766161716171613e6,304.52911376953125,13.836833000183105,41.90932083129883,301.2982177734375
8.766161716171613e6,786.03466796875,39.732173919677734,-0.3610292077064514,785.023681640625
8.766161716171613e6,1801.5931396484375,-50.93199157714844,-13.645750045776367,-1800.8187255859375
8.766161716171613e6,802.7839965820312,8.8954439163208,-47.07529067993164,-801.3472290039062
8.766161716171613e6,2191.175537109375,20.339258193969727,15.151603698730469,-2191.026611328125
8.766161716171613e6,55.28863525390625,6.060966968536377,-26.267765045166016,48.17244338989258
8.766161716171613e6,368.8130187988281,-9.553025245666504,-33.046165466308594,367.1923522949219
8.766161716171613e6,430.95037841796875,-44.02394485473633,74.46638488769531,-422.1674499511719
8.766161716171613e6,548.008056640625,-24.64335823059082,-40.28745651245117,545.9605102539062
8.766161716171613e6,157.2107696533203,15.721542358398438,-45.73931884765625,149.55418395996094
8.766161716171613e6,385.121826171875,-40.94143295288086,3.581768751144409,-382.9102783203125
8.766161716171613e6,35.07619857788086,17.861919403076172,1.2085975408554077,-30.005210876464844
8.766161716171613e6,43.88261795043945,19.495685577392578,6.405348777770996,-38.665950775146484
8.766161716171613e6,636.4147338867188,-30.185195922851562,15.569657325744629,635.5003051757812
8.766161716171613e6,244.4246063232422,31.68501853942871,-17.529224395751953,-241.70779418945312
8.766161716171613e6,1628.5662841796875,-1.5569311380386353,6.158620834350586,1628.5509033203125
8.766161716171613e6,48.56626510620117,0.27630066871643066,30.975645065307617,-37.27729797363281
8.766161716171613e6,86.45964050292969,28.454914093017578,-7.188505172729492,-81.2674331665039
8.766161716171613e6,7.257178783416748,-6.066473007202148,-2.5120606422424316,-0.18928538262844086
8.766161716171613e6,41.90765380859375,20.987041473388672,34.56301498413086,-10.567663192749023
8.766161716171613e6,766.9798583984375,41.89329528808594,-3.0447094440460205,-765.8226318359375
8.766161716171613e6,267.92156982421875,26.187545776367188,-9.706610679626465,-266.444091796875
8.766161716171613e6,252.43240356445312,8.605422973632812,34.05109786987305,-249.95814514160156
8.766161716171613e6,1628.3818359375,-6.847897529602051,-35.487457275390625,-1627.977783203125
8.766161716171613e6,92.58715057373047,-37.842899322509766,38.18711471557617,75.31614685058594
8.766161716171613e6,512.9086303710938,-41.723846435546875,-13.304227828979492,-511.02630615234375
8.766161716171613e6,125.01022338867188,0.511712908744812,35.589847564697266,-119.7962417602539
8.766161716171613e6,36.55656814575195,4.237800121307373,29.203248977661133,21.355926513671875
8.766161716171613e6,607.2393798828125,-8.612773895263672,4.69333553314209,-607.15234375
8.766161716171613e6,113.75102996826172,-63.60549545288086,3.4273147583007812,94.19326782226562
8.766161716171613e6,337.9968566894531,63.18661117553711,4.152688503265381,331.9978332519531
8.766161716171613e6,157.24734497070312,11.59974193572998,-11.413328170776367,-156.3726043701172
8.766161716171613e6,214.8497772216797,39.65028762817383,-19.16313934326172,-210.26539611816406
8.766161716171613e6,51.58208465576172,-41.45885467529297,8.47744083404541,29.334102630615234
8.766161716171613e6,28.550382614135742,21.178287506103516,-1.318703532218933,18.850656509399414
8.766161716171613e6,28.16839599609375,22.32737159729004,-16.734350204467773,-2.3216912746429443
8.766161716171613e6,55.2008056640625,22.662513732910156,-28.8565731048584,41.12565231323242
8.766161716171613e6,53.54579162597656,-19.880651473999023,25.036298751831055,42.843631744384766
8.766161716171613e6,94.28147888183594,25.883426666259766,-25.767194747924805,86.86528778076172
8.766161716171613e6,310.58502197265625,2.8001275062561035,14.580743789672852,310.214599609375
8.766161716171613e6,73.33692169189453,17.377056121826172,10.096129417419434,70.46199035644531
8.766161716171613e6,1187.664306640625,-38.65860366821289,-7.151554584503174,-1187.0093994140625
8.766161716171613e6,583.9522705078125,-16.438404083251953,-9.43679141998291,583.6364135742188
8.766161716171613e6,162.4534454345703,29.158416748046875,22.13795280456543,-158.2444305419922
8.766161716171613e6,36.164920806884766,31.090965270996094,-17.90143394470215,-3.3576228618621826
8.766161716171613e6,118.32869720458984,-42.4781379699707,18.391597747802734,-108.85549926757812
8.766161716171613e6,1228.023193359375,13.523691177368164,38.015830993652344,-1227.356201171875
8.766161716171613e6,307.9527893066406,-39.95308303833008,-26.52596664428711,-304.1800842285156
8.766161716171613e6,24.047243118286133,-3.339259386062622,-4.456223964691162,23.189287185668945
8.766161716171613e6,47.37369155883789,-3.4507627487182617,-41.756591796875,21.891263961791992
8.766161716171613e6,66.82156372070312,-17.461883544921875,2.5310397148132324,-64.37608337402344
8.766161716171613e6,48.51108932495117,-23.889545440673828,-18.684837341308594,37.73557662963867
8.766161716171613e6,929.77880859375,-3.5911269187927246,-43.40409469604492,-928.7531127929688
8.766161716171613e6,406.43353271484375,42.11826705932617,0.47056058049201965,404.2332458496094
8.766161716171613e6,19.087711334228516,4.74406099319458,-3.988492727279663,-17.78786849975586
8.766161716171613e6,569.603759765625,10.55654525756836,27.699308395385742,568.8235473632812
8.766161716171613e6,120.32183837890625,16.971607208251953,-26.590717315673828,-116.07206726074219
8.766161716171613e6,29.56303596496582,23.757278442382812,-3.0337345600128174,17.054119110107422
8.766161716171613e6,95.33092498779297,26.436193466186523,-47.26604080200195,-78.39334106445312
8.766161716171613e6,26.690248489379883,-10.834158897399902,24.151987075805664,-1.467507243156433
8.766161716171613e6,32.582855224609375,9.288873672485352,29.998533248901367,-8.119661331176758
8.766161716171613e6,30.632333755493164,-10.72780704498291,-20.989965438842773,19.317276000976562
8.766161716171613e6,175.92906188964844,11.566946983337402,-19.761465072631836,174.40528869628906
8.766161716171613e6,35.635807037353516,21.08670425415039,6.460049629211426,27.821054458618164
8.766161716171613e6,225.447509765625,-41.00217819213867,27.852556228637695,-219.90933227539062
8.766161716171613e6,39.673484802246094,-37.227901458740234,9.820016860961914,-9.0618896484375
8.766161716171613e6,328.20758056640625,-0.850316047668457,22.819103240966797,-327.397705078125
8.766161716171613e6,26.15081214904785,25.038711547851562,6.530723571777344,-2.1815848350524902
8.766161716171613e6,21.103832244873047,-14.73827075958252,3.098339319229126,14.458117485046387
8.766161716171613e6,63.30965805053711,-11.20434284210205,-2.4044699668884277,-62.18742370605469
8.766161716171613e6,1629.2386474609375,6.585509300231934,3.7843637466430664,-1629.218017578125
8.766161716171613e6,498.6717529296875,21.16300392150879,-21.716777801513672,-497.7393798828125
8.766161716171613e6,25.16665267944336,3.5710933208465576,-24.205320358276367,5.019146919250488
8.766161716171613e6,16.580669403076172,9.927908897399902,-8.034786224365234,-10.113314628601074
8.766161716171613e6,97.60585021972656,16.254613876342773,-0.28186124563217163,96.1929931640625
8.766161716171613e6,63.64073181152344,36.344398498535156,4.79960298538208,51.929500579833984
8.766161716171613e6,170.47012329101562,-47.42695999145508,9.25158405303955,163.44918823242188
8.766161716171613e6,670.2891235351562,54.945438385009766,-23.042118072509766,667.6287231445312
8.766161716171613e6,402.0428771972656,23.107341766357422,-27.64613914489746,-400.41314697265625
8.766161716171613e6,1113.3243408203125,-34.3541145324707,-0.08844451606273651,-1112.7899169921875
8.766161716171613e6,35.03031921386719,4.0280537605285645,11.716739654541016,32.62051010131836
8.766161716171613e6,656.4848022460938,25.555965423583984,22.505849838256836,-655.59375
8.766161716171613e6,127.44943237304688,52.268653869628906,-52.06092834472656,-103.88208770751953
8.766161716171613e6,233.77366638183594,-13.86964225769043,-35.40339279174805,-230.64007568359375
8.766161716171613e6,71.74435424804688,1.007380723953247,8.188095092773438,-71.20164489746094
8.766161716171613e6,54.801666259765625,24.165822982788086,21.29975128173828,-44.227115631103516
8.766161716171613e6,28.004112243652344,17.886917114257812,-9.939720153808594,-18.86722755432129
8.766161716171613e6,25.105770111083984,6.419799327850342,-10.482704162597656,21.6721134185791
8.766161716171613e6,377.0614318847656,22.69414520263672,15.534517288208008,376.04449462890625
8.766161716171613e6,26.304786682128906,-25.67324447631836,-4.792213439941406,-0.5853620171546936
8.766161716171613e6,47.791786193847656,-25.679706573486328,-29.11815643310547,27.698774337768555
8.766161716171613e6,185.0718536376953,10.343878746032715,30.87068748474121,-182.15948486328125
8.766161716171613e6,51.8129997253418,-5.6606903076171875,23.389419555664062,-45.78166198730469
8.766161716171613e6,562.9888305664062,-25.480051040649414,-26.761144638061523,561.7664184570312
8.766161716171613e6,636.458984375,37.84796142578125,-9.172759056091309,635.2589111328125
8.766161716171613e6,90.158203125,-27.413990020751953,-1.7663233280181885,-85.81571197509766
8.766161716171613e6,41.58824157714844,-25.821012496948242,-30.927974700927734,9.83866024017334
8.766161716171613e6,2429.72802734375,-7.612358570098877,6.727418422698975,2429.704833984375
8.766161716171613e6,79.50952911376953,25.573083877563477,53.68495559692383,52.6895637512207
8.766161716171613e6,33.452396392822266,-12.467028617858887,8.358625411987305,29.73636245727539
8.766161716171613e6,45.86589050292969,31.094890594482422,16.27345085144043,29.367403030395508
8.766161716171613e6,29.96565055847168,23.679494857788086,16.702768325805664,-6.980037212371826
8.766161716171613e6,36.421112060546875,-14.79426383972168,-11.473006248474121,31.088247299194336
8.766161716171613e6,20.325931549072266,-1.6214325428009033,-14.8983154296875,-13.380446434020996
8.766161716171613e6,106.70367431640625,-39.99270248413086,-18.88591766357422,-97.0570068359375
8.766161716171613e6,1249.491943359375,-29.69385528564453,-16.967947006225586,-1249.02001953125
8.766161716171613e6,61.42673110961914,16.26862907409668,-37.30942916870117,-45.90275573730469
8.766161716171613e6,217.06631469726562,37.9284553527832,30.009811401367188,211.58712768554688
8.766161716171613e6,276.22564697265625,-57.93772506713867,19.89847183227539,-269.3294677734375
8.766161716171613e6,1207.556396484375,-41.718994140625,13.807235717773438,1206.7525634765625
8.766161716171613e6,538.3947143554688,-29.916072845458984,-33.82388687133789,-536.4888916015625
8.766161716171613e6,317.8702087402344,45.93487548828125,60.2060546875,-308.702392578125
8.766161716171613e6,343.85784912109375,-0.7588402628898621,29.796438217163086,342.5497131347656
8.766161716171613e6,882.9796752929688,133.52447509765625,-20.771099090576172,872.5728759765625
8.766161716171613e6,48.91571044921875,5.626231670379639,20.857337951660156,43.77836608886719
8.766161716171613e6,87.38031768798828,14.263408660888672,-28.047815322875977,-81.45967102050781
8.766161716171613e6,68.03633880615234,15.902853965759277,28.696470260620117,59.52341079711914
8.766161716171613e6,2929.10693359375,-43.494815826416016,48.25373840332031,-2928.384765625
8.766161716171613e6,36.64710235595703,10.661226272583008,26.869779586791992,-22.312442779541016
8.766161716171613e6,255.6245574951172,13.194887161254883,34.90142822265625,-252.86790466308594
8.766161716171613e6,33.603302001953125,-3.488978624343872,-14.086004257202148,30.15087127685547
8.766161716171613e6,281.487060546875,41.06940460205078,-18.194379806518555,277.8627624511719
8.766161716171613e6,28.842857360839844,19.17505645751953,15.325846672058105,14.82658863067627
8.766161716171613e6,35.86000442504883,14.102373123168945,31.335369110107422,9.77953815460205
8.766161716171613e6,334.1141662597656,-27.150787353515625,-22.376611709594727,332.2421875
8.766161716171613e6,158.94143676757812,27.232627868652344,-24.559268951416016,154.62240600585938
8.766161716171613e6,1842.4007568359375,31.61827278137207,16.239540100097656,-1842.0552978515625
8.766161716171613e6,61.80314254760742,-26.53432273864746,17.40864372253418,-52.94316482543945
8.766161716171613e6,68.6859359741211,-5.838344097137451,21.05040740966797,65.04639434814453
8.766161716171613e6,283.06085205078125,-1.0325422286987305,7.911899089813232,282.9315490722656
8.766161716171613e6,41.95574188232422,-15.179166793823242,-24.581592559814453,30.2672119140625
8.766161716171613e6,35.48450469970703,-31.307218551635742,4.976022720336914,-15.643818855285645
8.766161716171613e6,239.54188537597656,34.556053161621094,21.26443099975586,-236.06036376953125
8.766161716171613e6,92.40292358398438,1.7235522270202637,33.871070861816406,-85.89855194091797
8.766161716171613e6,110.91372680664062,33.24250793457031,-12.383028030395508,-105.04253387451172
8.766161716171613e6,28.90940284729004,13.959832191467285,11.014765739440918,22.58391761779785
8.766161716171613e6,1026.2760009765625,32.942718505859375,27.386865615844727,1025.3768310546875
8.766161716171613e6,94.25372314453125,10.026219367980957,-8.248055458068848,93.30429077148438
8.766161716171613e6,75.30021667480469,54.09884262084961,1.58769690990448,52.26278305053711
8.766161716171613e6,93.74754333496094,15.720067024230957,-43.79349899291992,-81.32707214355469
8.766161716171613e6,72.08624267578125,-33.345218658447266,-22.327964782714844,-59.80356216430664
8.766161716171613e6,35.797183990478516,-28.011735916137695,-21.743257522583008,3.8070380687713623
8.766161716171613e6,286.92108154296875,36.75505828857422,-0.7120872139930725,-284.53955078125
8.766161716171613e6,55.11766052246094,-20.238534927368164,18.56810760498047,47.687164306640625
8.766161716171613e6,465.8187255859375,-25.351926803588867,-43.0472526550293,-463.12176513671875
8.766161716171613e6,48.75014877319336,17.672988891601562,-9.515459060668945,-44.31907272338867
8.766161716171613e6,38.901466369628906,36.211971282958984,11.007841110229492,8.445491790771484
8.766161716171613e6,155.4903106689453,-41.48324203491211,2.614748954772949,-149.79994201660156
8.766161716171613e6,509.11932373046875,-23.173404693603516,-26.077579498291016,-507.9132995605469
8.766161716171613e6,136.55520629882812,26.525774002075195,43.35789108276367,-126.70549774169922
8.766161716171613e6,94.0772933959961,-3.6022210121154785,-27.917200088500977,-89.71439361572266
8.766161716171613e6,105.72087097167969,6.293949604034424,-54.88261413574219,90.0870132446289
8.766161716171613e6,161.81224060058594,-18.53770637512207,-13.569049835205078,-160.14341735839844
8.766161716171613e6,1414.8314208984375,12.892165184020996,17.50576400756836,1414.6610107421875
8.766161716171613e6,22.65727424621582,5.089624881744385,12.823229789733887,-17.70577049255371
8.766161716171613e6,35.157440185546875,-28.187223434448242,-13.491762161254883,-15.810758590698242
8.766161716171613e6,818.8265380859375,22.24567413330078,-24.307445526123047,-818.157470703125
8.766161716171613e6,37.176883697509766,21.582618713378906,28.54597282409668,9.587510108947754
8.766161716171613e6,1548.31640625,22.16313934326172,54.63764190673828,1547.1903076171875
8.766161716171613e6,46.55875015258789,11.94633674621582,6.391064643859863,44.43690490722656
8.766161716171613e6,7.571392059326172,3.727505683898926,4.354759216308594,3.866454839706421
8.766161716171613e6,575.0642700195312,1.4494436979293823,-30.50595474243164,574.2444458007812
8.766161716171613e6,43.20991516113281,27.85017204284668,-6.773856163024902,-32.187904357910156
8.766161716171613e6,32.61306381225586,-20.979473114013672,-24.40128517150879,-4.304944038391113
8.766161716171613e6,217.44322204589844,13.693828582763672,6.417440891265869,-216.89474487304688
8.766161716171613e6,2145.31103515625,-6.029793739318848,-18.73093032836914,2145.21875
8.766161716171613e6,94.90985107421875,47.68185806274414,8.101162910461426,81.603759765625
8.766161716171613e6,153.1613006591797,11.906726837158203,43.03676986694336,146.4750213623047
8.766161716171613e6,871.4234619140625,22.7805118560791,3.957871675491333,-871.1112060546875
8.766161716171613e6,82.95411682128906,-31.332843780517578,23.437700271606445,-73.08074188232422
8.766161716171613e6,80.81219482421875,26.701519012451172,75.38969421386719,11.158648490905762
8.766161716171613e6,253.55104064941406,-35.83407974243164,44.460540771484375,247.01780700683594
8.766161716171613e6,59.79987335205078,11.512642860412598,-40.8787727355957,41.9868049621582
8.766161716171613e6,1039.3394775390625,-22.063095092773438,26.65491485595703,1038.7587890625
8.766161716171613e6,225.94512939453125,18.544946670532227,22.079744338989258,-224.07644653320312
8.766161716171613e6,42.81128692626953,34.67316818237305,4.357810974121094,24.53709602355957
8.766161716171613e6,12.274139404296875,-1.3329322338104248,5.4232282638549805,10.485614776611328
8.766161716171613e6,889.4724731445312,47.80626678466797,-14.64149284362793,888.060791015625
8.766161716171613e6,599.0386962890625,-21.96202278137207,-27.787731170654297,597.9827270507812
8.766161716171613e6,42.57151412963867,-7.915585994720459,-39.95597839355469,11.986607551574707
8.766161716171613e6,24.764148712158203,1.6293315887451172,-1.7743854522705078,-24.452844619750977
8.766161716171613e6,93.08672332763672,74.18800354003906,-12.27075481414795,-54.78310012817383
8.766161716171613e6,72.13326263427734,28.374032974243164,45.956451416015625,-47.71381759643555
8.766161716171613e6,415.2758483886719,-26.554908752441406,-45.815086364746094,-411.8741455078125
8.766161716171613e6,41.78376770019531,40.075904846191406,5.576923370361328,-9.959149360656738
8.766161716171613e6,695.97705078125,-22.936235427856445,-40.720726013183594,694.3992309570312
8.766161716171613e6,30.910417556762695,-27.373065948486328,13.778908729553223,-2.606262683868408
8.766161716171613e6,127.12271118164062,0.3461938500404358,30.803068161010742,123.29523468017578
8.766161716171613e6,56.8723030090332,-12.848411560058594,-27.126678466796875,-48.20790481567383
8.766161716171613e6,105.55908203125,6.470940589904785,-34.286197662353516,-99.57803344726562
8.766161716171613e6,35.82733154296875,29.49709701538086,9.739710807800293,17.582340240478516
8.766161716171613e6,31.377365112304688,-4.497320652008057,-27.385616302490234,14.311635971069336
8.766161716171613e6,42.770599365234375,24.617511749267578,-22.086336135864258,-26.9439754486084
8.766161716171613e6,44.852783203125,-9.32324504852295,35.64826583862305,-25.387638092041016
8.766161716171613e6,1303.728515625,14.05075454711914,24.113475799560547,1303.426025390625
8.766161716171613e6,84.75042724609375,-11.982528686523438,-29.952804565429688,78.30941772460938
8.766161716171613e6,387.4465026855469,-8.766645431518555,23.4638614654541,-386.6236572265625
8.766161716171613e6,51.47312927246094,-22.010560989379883,20.427486419677734,-41.69194030761719
8.766161716171613e6,46.778072357177734,-17.66486930847168,-4.3150458335876465,-42.988399505615234
8.766161716171613e6,177.6807861328125,-17.489736557006836,-3.679058313369751,176.75270080566406
8.766161716171613e6,99.35599517822266,-23.075321197509766,-18.12799072265625,-94.87360382080078
8.766161716171613e6,28.50701332092285,-2.942645788192749,-23.932205200195312,14.89033031463623
8.766161716171613e6,684.1118774414062,-10.63503646850586,26.672103881835938,-683.5020751953125
8.766161716171613e6,184.9683074951172,-18.31563949584961,-11.706069946289062,-183.6607208251953
8.766161716171613e6,428.2323303222656,33.87729263305664,-27.72559356689453,425.9777526855469
8.766161716171613e6,1501.3125,4.456392765045166,-33.189449310302734,1500.935791015625
8.766161716171613e6,1792.0145263671875,35.75545883178711,-28.51413345336914,-1791.42822265625
8.766161716171613e6,89.75166320800781,10.81262493133545,10.433449745178223,-88.4311752319336
8.766161716171613e6,62.63641357421875,-15.82202434539795,15.595579147338867,58.48284912109375
8.766161716171613e6,60.68515396118164,-2.4084980487823486,-34.24335479736328,49.94758605957031
8.766161716171613e6,90.50084686279297,20.975055694580078,-28.929580688476562,83.09037780761719
8.766161716171613e6,44.54928207397461,-4.030455112457275,-32.476566314697266,30.069059371948242
8.766161716171613e6,82.76461791992188,-13.604188919067383,38.72107696533203,71.8057632446289
8.766161716171613e6,107.86056518554688,26.878433227539062,30.35236167907715,-99.90328979492188
8.766161716171613e6,43.49473190307617,35.55558395385742,21.96068572998047,-11.653410911560059
8.766161716171613e6,1490.2725830078125,-1.7816884517669678,32.689048767089844,1489.9097900390625
8.766161716171613e6,360.0659484863281,-15.829549789428711,8.556449890136719,-359.6028137207031
8.766161716171613e6,1759.794921875,-45.165504455566406,22.266813278198242,1759.0716552734375
8.766161716171613e6,101.07721710205078,10.590883255004883,-23.484350204467773,97.69034576416016
8.766161716171613e6,69.82536315917969,25.91340446472168,-33.734352111816406,55.28608703613281
8.766161716171613e6,130.31419372558594,-15.280333518981934,-18.685266494750977,-128.02203369140625
8.766161716171613e6,482.9835510253906,26.49798583984375,11.961633682250977,-482.097900390625
8.766161716171613e6,46.315982818603516,34.66434097290039,-10.350017547607422,28.756092071533203
8.766161716171613e6,422.0334777832031,-7.395246982574463,3.2281007766723633,-421.945068359375
8.766161716171613e6,63.448055267333984,-10.696327209472656,-41.53023910522461,-46.657962799072266
8.766161716171613e6,67.58651733398438,-1.9794142246246338,-18.287019729614258,64.96218872070312
8.766161716171613e6,42.959373474121094,-34.72694778442383,-13.549237251281738,21.12928581237793
8.766161716171613e6,63.09907150268555,-13.384982109069824,18.045930862426758,-58.88260269165039
8.766161716171613e6,2258.236328125,0.37781402468681335,33.38143539428711,2257.987548828125
8.766161716171613e6,312.2322998046875,-18.79888343811035,-30.110429763793945,-310.1925964355469
8.766161716171613e6,101.11973571777344,-20.685972213745117,11.468430519104004,98.26620483398438
8.766161716171613e6,108.42402648925781,-15.200726509094238,32.5162467956543,-102.26378631591797
8.766161716171613e6,516.5992431640625,85.75374603271484,22.604297637939453,-508.9209899902344
8.766161716171613e6,37.94530487060547,-22.16413116455078,-15.114664077758789,26.657573699951172
8.766161716171613e6,34.192665100097656,20.64702796936035,26.183277130126953,6.910588264465332
8.766161716171613e6,978.055908203125,1.999546766281128,-40.22394943237305,977.2215576171875
8.766161716171613e6,1230.4227294921875,-1.0780161619186401,39.05141830444336,1229.7984619140625
8.766161716171613e6,19.230255126953125,13.390999794006348,-11.155683517456055,7.517730236053467
8.766161716171613e6,141.217041015625,-0.19421686232089996,15.441247940063477,-140.33624267578125
8.766161716171613e6,34.730587005615234,6.441550254821777,-31.876419067382812,-11.793888092041016
8.766161716171613e6,29.765993118286133,-0.7738892436027527,29.56981658935547,1.234147071838379
8.766161716171613e6,70.8390884399414,-27.824174880981445,-36.809425354003906,53.661346435546875
8.766161716171613e6,605.0865478515625,-3.9551215171813965,-1.2579069137573242,605.064453125
8.766161716171613e6,24.11675453186035,-9.032665252685547,13.79511833190918,-17.326431274414062
8.766161716171613e6,201.232177734375,18.132356643676758,-35.085933685302734,197.29437255859375
8.766161716171613e6,203.45126342773438,16.638891220092773,-0.40648409724235535,202.745849609375
8.766161716171613e6,1982.84521484375,3.6618010997772217,32.67416000366211,1982.5701904296875
8.766161716171613e6,335.23138427734375,-33.439537048339844,2.2495434284210205,-333.5375671386719
8.766161716171613e6,24.24913787841797,-16.38604736328125,-17.567289352416992,-1.179054617881775
8.766161716171613e6,20.668930053710938,13.443605422973633,15.35476016998291,-1.0896070003509521
8.766161716171613e6,413.4667663574219,-29.536338806152344,12.300183296203613,412.2154235839844
8.766161716171613e6,53.1213264465332,6.367910385131836,8.897393226623535,-51.890682220458984
8.766161716171613e6,63.163047790527344,41.858116149902344,26.42241859436035,-39.11273956298828
8.766161716171613e6,52.29240417480469,6.457600116729736,24.448637008666992,45.667724609375
8.766161716171613e6,218.27670288085938,10.088703155517578,-50.48456573486328,212.09603881835938
8.766161716171613e6,74.6939468383789,38.34122848510742,-11.180262565612793,-63.04458236694336
8.766161716171613e6,60.741119384765625,21.987993240356445,-46.272029876708984,-32.4868049621582
8.766161716171613e6,1477.93994140625,4.508902072906494,30.624492645263672,-1477.612548828125
8.766161716171613e6,196.50184631347656,-2.9218783378601074,-40.97608184814453,192.1350555419922
8.766161716171613e6,23.107423782348633,3.7302677631378174,18.103723526000977,-13.519433975219727
8.766161716171613e6,20.28943634033203,-14.49048137664795,3.630300998687744,13.378708839416504
8.766161716171613e6,308.762939453125,-41.76674270629883,23.432281494140625,305.0106506347656
8.766161716171613e6,495.510986328125,-2.9116575717926025,20.20956802368164,495.08050537109375
8.766161716171613e6,54.035762786865234,12.530810356140137,30.65288543701172,42.58784866333008
8.766161716171613e6,57.062808990478516,-17.7584171295166,18.98149871826172,-50.70490264892578
8.766161716171613e6,225.6229248046875,4.01157283782959,-3.8692209720611572,-225.53297424316406
8.766161716171613e6,69.10198974609375,-2.0077011585235596,-41.829689025878906,54.8799934387207
8.766161716171613e6,124.1626205444336,10.450135231018066,-39.19784164428711,-117.30797576904297
8.766161716171613e6,63.389373779296875,-20.13360595703125,57.19534683227539,18.221548080444336
8.766161716171613e6,1710.84814453125,0.9838489294052124,25.460824966430664,1710.6556396484375
8.766161716171613e6,22.74440574645996,7.332800388336182,-15.75875186920166,-14.34160041809082
8.766161716171613e6,42.22328567504883,-8.900015830993652,11.581092834472656,39.49626922607422
8.766161716171613e6,435.4307556152344,-1.3500032424926758,39.29745101928711,-433.6407470703125
8.766161716171613e6,1738.07275390625,-21.11695098876953,-18.530460357666016,-1737.8428955078125
8.766161716171613e6,120.30755615234375,46.47785186767578,14.701249122619629,109.94577026367188
8.766161716171613e6,159.92880249023438,18.37220573425293,38.39134979248047,154.1306915283203
8.766161716171613e6,593.5388793945312,-10.88688850402832,-24.915006637573242,-592.90771484375
8.766161716171613e6,32.05820083618164,-18.762279510498047,-3.9730520248413086,25.502975463867188
8.766161716171613e6,53.74970245361328,18.406211853027344,-34.24702072143555,36.98466110229492
8.766161716171613e6,183.71957397460938,22.51036834716797,10.303802490234375,-182.01779174804688
8.766161716171613e6,180.10186767578125,-27.407548904418945,8.921582221984863,177.75375366210938
8.766161716171613e6,223.57266235351562,17.31049156188965,-18.49165153503418,222.1117401123047
8.766161716171613e6,132.40362548828125,-25.52667808532715,-24.223018646240234,-127.60421752929688
8.766161716171613e6,202.29721069335938,25.3579158782959,25.322450637817383,-199.07383728027344
8.766161716171613e6,553.57177734375,-28.88924789428711,-40.774497985839844,-551.3030395507812
8.766161716171613e6,249.18392944335938,18.127979278564453,34.92692947387695,-246.0377960205078
8.766161716171613e6,181.25143432617188,32.182228088378906,-21.446226119995117,-177.05064392089844
8.766161716171613e6,1962.8726806640625,1.6401680707931519,-4.610492706298828,-1962.8641357421875
8.766161716171613e6,1283.377685546875,7.847466945648193,-66.94312286376953,1281.602783203125
8.766161716171613e6,407.2508239746094,58.310752868652344,-22.943180084228516,-402.38934326171875
8.766161716171613e6,146.5939483642578,-1.5795072317123413,-38.99099349975586,141.27093505859375
8.766161716171613e6,63.630367279052734,0.3298398554325104,22.09603500366211,59.58994674682617
8.766161716171613e6,153.86758422851562,7.977481842041016,45.44194793701172,-146.75526428222656
8.766161716171613e6,43.725189208984375,-26.002914428710938,-2.044616460800171,34.95771789550781
8.766161716171613e6,177.0440673828125,2.7629659175872803,8.549819946289062,176.78900146484375
8.766161716171613e6,315.1640319824219,-9.922231674194336,34.304080963134766,313.11920166015625
8.766161716171613e6,164.78245544433594,-13.735669136047363,-29.246793746948242,-161.5540008544922
8.766161716171613e6,110.7769775390625,17.253746032714844,11.3706693649292,-108.78895568847656
8.766161716171613e6,76.33638763427734,4.278573036193848,34.210018157958984,68.03744506835938
8.766161716171613e6,125.72277069091797,-9.350786209106445,-18.698244094848633,-123.93399810791016
8.766161716171613e6,94.76534271240234,35.97715759277344,4.436870574951172,87.50377655029297
8.766161716171613e6,1754.6849365234375,-16.04920768737793,-34.79642868041992,-1754.263671875
8.766161716171613e6,295.8414611816406,28.30303192138672,-4.093219757080078,-294.43988037109375
8.766161716171613e6,1753.45703125,2.1770424842834473,-11.424215316772461,-1753.415771484375
8.766161716171613e6,535.672119140625,32.16107940673828,-17.65673828125,-534.4052734375
8.766161716171613e6,12.435904502868652,-12.042896270751953,0.24401076138019562,-0.20631635189056396
8.766161716171613e6,361.8609313964844,-24.107397079467773,27.53252601623535,-359.9925231933594
8.766161716171613e6,47.44535827636719,-19.7110538482666,-28.092424392700195,32.6164665222168
8.766161716171613e6,8.85961627960205,-1.101789951324463,3.4300179481506348,-7.483018398284912
8.766161716171613e6,618.795166015625,39.56118392944336,-4.696965217590332,617.503662109375
8.766161716171613e6,59.180885314941406,11.599677085876465,-41.03402328491211,-40.920841217041016
8.766161716171613e6,12.451680183410645,-5.205943584442139,-7.934141635894775,7.448061466217041
8.766161716171613e6,98.63855743408203,-45.02281951904297,2.23659348487854,-87.68118286132812
8.766161716171613e6,173.13626098632812,4.137612819671631,-37.846248626708984,-168.87033081054688
8.766161716171613e6,163.87063598632812,31.804668426513672,22.141983032226562,159.19253540039062
8.766161716171613e6,46.97823715209961,-28.081073760986328,5.545469284057617,37.12327575683594
8.766161716171613e6,36.6186408996582,1.9027860164642334,-36.02550506591797,5.472557067871094
8.766161716171613e6,41.26237106323242,-14.7747220993042,35.6796760559082,-14.203279495239258
8.766161716171613e6,171.05816650390625,-6.004496097564697,33.01206970214844,-167.7066650390625
8.766161716171613e6,19.47681427001953,-13.78895092010498,12.387358665466309,5.123103141784668
8.766161716171613e6,39.72538375854492,-27.939239501953125,-21.349525451660156,-18.225927352905273
8.766161716171613e6,911.8138427734375,-28.87649154663086,-30.006338119506836,910.857177734375
8.766161716171613e6,446.37957763671875,-35.32652282714844,-20.886367797851562,-444.47833251953125
8.766161716171613e6,164.14271545410156,21.034744262695312,-3.418278217315674,-162.7241973876953
8.766161716171613e6,104.8383560180664,33.132694244384766,17.820165634155273,97.80709838867188
8.766161716171613e6,1250.461181640625,23.383485794067383,18.284778594970703,-1250.10498046875
8.766161716171613e6,49.38576889038086,25.959625244140625,-40.3812141418457,11.175468444824219
8.766161716171613e6,74.02117919921875,32.610897064208984,4.621276378631592,-66.21774291992188
8.766161716171613e6,73.66226196289062,-3.5534474849700928,42.60232925415039,59.908470153808594
8.766161716171613e6,945.3304443359375,-29.124847412109375,-31.746278762817383,944.3432006835938
8.766161716171613e6,1135.0347900390625,5.585031986236572,12.74921989440918,-1134.9451904296875
8.766161716171613e6,191.076416015625,29.937042236328125,10.237829208374023,-188.41346740722656
8.766161716171613e6,436.45703125,-33.10635757446289,-59.15446472167969,-431.1495666503906
8.766161716171613e6,2640.800537109375,50.032081604003906,27.198135375976562,2640.184814453125
8.766161716171613e6,570.4468994140625,22.554187774658203,25.52797508239746,569.4205932617188
8.766161716171613e6,49.00269317626953,29.422090530395508,38.83129119873047,-4.268130302429199
8.766161716171613e6,3554.436279296875,-13.707839012145996,13.478190422058105,-3554.3828125
8.766161716171613e6,3.3770744800567627,-0.33524811267852783,-1.3228193521499634,-0.15529176592826843
8.766161716171613e6,754.86865234375,-28.169103622436523,-16.640501022338867,754.1530151367188
8.766161716171613e6,13.865385055541992,12.720582008361816,2.781461715698242,3.6305506229400635
8.766161716171613e6,113.7133560180664,2.406358242034912,30.604164123535156,109.44772338867188
8.766161716171613e6,119.61199188232422,-0.1783532202243805,-15.107994079589844,-118.61376953125
8.766161716171613e6,169.37606811523438,-17.000268936157227,-17.030838012695312,-167.62957763671875
8.766161716171613e6,44.36240768432617,10.261361122131348,-25.255403518676758,34.862213134765625
8.766161716171613e6,470.4312744140625,48.39276123046875,50.463340759277344,-465.1963806152344
8.766161716171613e6,24.404285430908203,-20.069982528686523,2.4356563091278076,-13.31594181060791
8.766161716171613e6,190.9208221435547,-58.10724639892578,0.6612558364868164,-181.8360595703125
8.766161716171613e6,978.3505249023438,29.568138122558594,-23.963359832763672,977.6051025390625
8.766161716171613e6,259.2290954589844,-35.340518951416016,37.46467971801758,-254.0426025390625
8.766161716171613e6,560.8914184570312,-34.419532775878906,-1.6450263261795044,559.8234252929688
8.766161716171613e6,63.348026275634766,60.147438049316406,-19.579931259155273,1.5382630825042725
8.766161716171613e6,364.7440490722656,4.497830867767334,-41.82318878173828,362.2972412109375
8.766161716171613e6,343.76959228515625,-15.296530723571777,6.834021091461182,-343.34722900390625
8.766161716171613e6,188.93067932128906,4.630265712738037,-3.1634280681610107,-188.82223510742188
8.766161716171613e6,43.99995803833008,22.439849853515625,8.06391429901123,-36.849754333496094
8.766161716171613e6,36.76478958129883,-19.242868423461914,-16.166316986083984,-26.65508460998535
8.766161716171613e6,225.99862670898438,-39.74892807006836,69.81239318847656,-211.21578979492188
8.766161716171613e6,101.34021759033203,28.309925079345703,22.252870559692383,94.67670440673828
8.766161716171613e6,76.07904052734375,67.33006286621094,-14.933914184570312,31.970970153808594
8.766161716171613e6,160.8029022216797,33.95112228393555,16.052932739257812,156.3255615234375
8.766161716171613e6,121.38667297363281,7.61713171005249,24.931564331054688,118.51414489746094
8.766161716171613e6,119.54882049560547,27.162559509277344,-40.446983337402344,-109.126708984375
8.766161716171613e6,72.3663101196289,-0.41880175471305847,-50.9975471496582,51.2487907409668
8.766161716171613e6,48.61980438232422,-8.014245986938477,-46.30109405517578,12.097434043884277
8.766161716171613e6,443.0462951660156,5.499441623687744,-34.279720306396484,-441.6731262207031
8.766161716171613e6,118.498046875,-21.59569549560547,-17.88905906677246,-115.09072875976562
8.766161716171613e6,45.40703582763672,34.128150939941406,0.08603622764348984,-29.791650772094727
8.766161716171613e6,79.70555877685547,14.139233589172363,10.085428237915039,77.72917175292969
8.766161716171613e6,264.3740539550781,-33.195308685302734,-13.287684440612793,-261.9267883300781
8.766161716171613e6,223.0550994873047,-18.86944007873535,32.30978775024414,-219.87286376953125
8.766161716171613e6,151.88775634765625,1.4524903297424316,-32.8693733215332,148.2493438720703
8.766161716171613e6,193.95657348632812,40.322383880615234,-16.869760513305664,-188.9421844482422
8.766161716171613e6,744.8545532226562,-5.17853307723999,28.241153717041016,-744.2946166992188
8.766161716171613e6,107.96705627441406,21.938213348388672,-14.852057456970215,-104.62073516845703
8.766161716171613e6,61.151092529296875,57.94808578491211,-7.835699081420898,-17.62268829345703
8.766161716171613e6,974.7355346679688,-11.390886306762695,-18.52062225341797,974.4880981445312
8.766161716171613e6,132.7846221923828,11.179927825927734,-50.303680419921875,-122.33881378173828
8.766161716171613e6,7.137467861175537,-0.6336876749992371,-6.385346412658691,-0.5009631514549255
8.766161716171613e6,1358.276611328125,-36.71411895751953,-3.9563915729522705,1357.7711181640625
8.766161716171613e6,25.769596099853516,23.652441024780273,-7.408031940460205,6.343255996704102
8.766161716171613e6,2582.898193359375,30.386791229248047,-10.401350021362305,-2582.696533203125
8.766161716171613e6,94.65233612060547,-39.93597412109375,-27.255821228027344,81.31288146972656
8.766161716171613e6,31.313758850097656,17.99069595336914,-18.614259719848633,-17.34581756591797
8.766161716171613e6,674.8233032226562,-34.83242416381836,-5.416949272155762,-673.8948974609375
8.766161716171613e6,64.89591217041016,-36.41863250732422,-18.521894454956055,-50.32477951049805
8.766161716171613e6,12.608613014221191,-2.675161600112915,9.148728370666504,7.655267715454102
8.766161716171613e6,698.66845703125,11.361846923828125,15.310113906860352,698.4014282226562
8.766161716171613e6,63.18746566772461,-6.617631912231445,40.10722351074219,-48.277896881103516
8.766161716171613e6,9.972094535827637,5.883749961853027,6.782485485076904,-3.050208330154419
8.766161716171613e6,252.05691528320312,25.17245101928711,-10.678665161132812,250.5503692626953
8.766161716171613e6,63.25872802734375,34.775901794433594,-1.5882245302200317,-52.72819900512695
8.766161716171613e6,763.6723022460938,-30.05875015258789,30.431800842285156,762.4671630859375
8.766161716171613e6,114.93296813964844,-8.342477798461914,20.969152450561523,112.65330505371094
8.766161716171613e6,181.77822875976562,13.164834022521973,18.158458709716797,180.36285400390625
8.766161716171613e6,165.59765625,15.661703109741211,-21.090410232543945,163.4716339111328
8.766161716171613e6,425.79901123046875,32.53617858886719,23.588895797729492,423.8870544433594
8.766161716171613e6,294.38568115234375,9.147038459777832,-20.329408645629883,293.5242004394531
8.766161716171613e6,28.87057876586914,28.477012634277344,-3.019361734390259,1.9837441444396973
8.766161716171613e6,20.443742752075195,8.543145179748535,-17.6286678314209,-4.967196941375732
8.766161716171613e6,155.42266845703125,27.704557418823242,-0.865659773349762,-152.8999481201172
8.766161716171613e6,726.3638305664062,-38.57804870605469,10.76872730255127,-725.2521362304688
8.766161716171613e6,482.17132568359375,-21.642210006713867,33.75480651855469,480.4913024902344
8.766161716171613e6,248.9873504638672,36.504974365234375,28.085704803466797,244.6707305908203
8.766161716171613e6,184.78440856933594,-15.88174057006836,-41.2479133605957,179.393798828125
8.766161716171613e6,212.08883666992188,-11.915687561035156,4.099148273468018,-211.69168090820312
8.766161716171613e6,11.552433967590332,-0.8974850177764893,10.808720588684082,2.5112788677215576
8.766161716171613e6,57.963809967041016,25.22406005859375,-3.6304259300231934,-51.96971893310547
8.766161716171613e6,87.07917022705078,-52.77883529663086,-17.363142013549805,66.97895050048828
8.766161716171613e6,70.43220520019531,6.691475868225098,-37.61022186279297,59.09206771850586
8.766161716171613e6,38.708038330078125,-34.73601531982422,1.70703125,16.711944580078125
8.766161716171613e6,398.4262390136719,-22.850839614868164,-29.709781646728516,-396.6473388671875
8.766161716171613e6,233.9407196044922,-3.0401995182037354,-45.085906982421875,-229.51419067382812
8.766161716171613e6,29.713485717773438,29.117399215698242,4.346147537231445,-2.5808990001678467
8.766161716171613e6,245.35415649414062,-10.937420845031738,-9.352497100830078,-244.91232299804688
8.766161716171613e6,31.513032913208008,-16.356201171875,0.563025712966919,-26.752771377563477
8.766161716171613e6,34.91854476928711,2.87569260597229,-22.088064193725586,26.71393585205078
8.766161716171613e6,132.6226043701172,6.291468143463135,32.270477294921875,128.44558715820312
8.766161716171613e6,513.6549072265625,-33.08251190185547,-4.282896995544434,-512.561279296875
8.766161716171613e6,147.6526641845703,-14.76349925994873,46.51995086669922,-139.31878662109375
8.766161716171613e6,60.0790901184082,-27.599994659423828,29.98158836364746,-44.03774642944336
8.766161716171613e6,100.025634765625,24.732629776000977,-27.379920959472656,-92.92063903808594
8.766161716171613e6,252.881591796875,16.666152954101562,-66.84966278076172,243.29598999023438
8.766161716171613e6,622.1194458007812,34.16819381713867,6.231950283050537,-621.1414794921875
8.766161716171613e6,35.012298583984375,27.3858585357666,8.48236083984375,19.859683990478516
8.766161716171613e6,564.8212280273438,-7.969470977783203,43.474525451660156,-563.0807495117188
8.766161716171613e6,403.0050964355469,-11.12081527709961,-14.48508358001709,-402.5793151855469
8.766161716171613e6,20.644954681396484,14.516694068908691,-3.132819652557373,14.005247116088867
8.766161716171613e6,888.6484375,-29.429777145385742,16.945650100708008,887.993896484375
8.766161716171613e6,681.2490844726562,-11.577103614807129,-8.219864845275879,-681.0941162109375
8.766161716171613e6,60.489044189453125,-7.035812854766846,3.4270217418670654,59.9012451171875
8.766161716171613e6,55.115631103515625,-2.0013186931610107,-4.964433193206787,-54.768272399902344
8.766161716171613e6,1365.6630859375,27.295982360839844,-20.34558868408203,-1365.2352294921875
8.766161716171613e6,1613.7327880859375,-9.901663780212402,-23.990697860717773,-1613.5211181640625
8.766161716171613e6,189.05311584472656,-38.8239860534668,-11.01931095123291,184.66954040527344
8.766161716171613e6,160.84353637695312,-9.339743614196777,-21.14009666442871,159.14456176757812
8.766161716171613e6,3061.632568359375,19.996700286865234,13.158641815185547,3061.537353515625
8.766161716171613e6,1433.38916015625,-32.54420852661133,-1.7638404369354248,1433.0152587890625
8.766161716171613e6,35.39914321899414,-7.795350551605225,11.256396293640137,32.497802734375
8.766161716171613e6,49.79304885864258,19.477872848510742,-30.446176528930664,-34.109710693359375
8.766161716171613e6,36.81511688232422,-6.533631324768066,-29.166048049926758,-21.271764755249023
8.766161716171613e6,240.05050659179688,18.72270393371582,44.75786590576172,235.076416015625
8.766161716171613e6,10.304553031921387,6.127804279327393,-2.2890212535858154,-7.340023517608643
8.766161716171613e6,56.229427337646484,27.01557159423828,-14.937158584594727,-46.89637756347656
8.766161716171613e6,422.4112548828125,33.07833480834961,-2.7193715572357178,-421.0940246582031
8.766161716171613e6,268.6733703613281,17.114665985107422,36.018821716308594,-265.67950439453125
8.766161716171613e6,58.138587951660156,6.904285430908203,27.575586318969727,50.621089935302734
8.766161716171613e6,112.36592102050781,21.658056259155273,9.724602699279785,-109.785888671875
8.766161716171613e6,81.83230590820312,9.100028038024902,14.063262939453125,80.04013061523438
8.766161716171613e6,1807.123779296875,28.662752151489258,4.169332027435303,-1806.888916015625
8.766161716171613e6,10.8051176071167,-5.9211320877075195,2.7547202110290527,-8.036417007446289
8.766161716171613e6,59.318382263183594,-45.77486038208008,-7.567273139953613,-36.83137893676758
8.766161716171613e6,219.7909393310547,17.467281341552734,-50.64577102661133,-213.1394805908203
8.766161716171613e6,47.443572998046875,-12.631810188293457,15.906651496887207,42.76435470581055
8.766161716171613e6,174.5897979736328,-25.89682960510254,22.335508346557617,-171.17990112304688
8.766161716171613e6,218.7769775390625,77.24176788330078,85.4417953491211,-185.97650146484375
8.766161716171613e6,911.0240478515625,0.6299514770507812,-13.66728401184082,910.9160766601562
8.766161716171613e6,47.730194091796875,-30.85590934753418,8.374626159667969,35.30483627319336
8.766161716171613e6,252.44139099121094,19.448917388916016,34.57748794555664,-249.28553771972656
8.766161716171613e6,104.28520965576172,43.623985290527344,13.27505111694336,93.73690795898438
8.766161716171613e6,40.838348388671875,-32.4586067199707,-13.39394474029541,20.62264633178711
8.766161716171613e6,89.36540985107422,-21.269344329833984,-27.27873420715332,82.34162902832031
8.766161716171613e6,70.7648696899414,-34.37470245361328,4.270890712738037,-61.63025665283203
8.766161716171613e6,570.8231201171875,29.69554901123047,-10.235363960266113,569.949951171875
8.766161716171613e6,108.91864013671875,37.198795318603516,17.146595001220703,-100.87614440917969
8.766161716171613e6,316.2749938964844,-26.845651626586914,7.204037666320801,315.0361328125
8.766161716171613e6,88.14979553222656,-26.1016902923584,40.52482223510742,73.73810577392578
8.766161716171613e6,655.6212158203125,41.46199035644531,-15.016324996948242,-654.1292724609375
8.766161716171613e6,78.12837982177734,-23.86673927307129,3.032130002975464,74.26782989501953
8.766161716171613e6,34.94283676147461,-2.756911039352417,-33.19424057006836,10.10075569152832
8.766161716171613e6,572.194091796875,67.11048889160156,20.977880477905273,567.84912109375
8.766161716171613e6,248.7635955810547,-39.78505325317383,27.159652709960938,244.03546142578125
8.766161716171613e6,1691.48828125,-25.05988121032715,4.59367561340332,1691.2935791015625
8.766161716171613e6,211.93099975585938,-43.91126251220703,-18.429264068603516,-206.48825073242188
8.766161716171613e6,154.24069213867188,-11.063790321350098,-29.811574935913086,150.89576721191406
8.766161716171613e6,117.10348510742188,-17.86600685119629,-23.239545822143555,-113.33330535888672
8.766161716171613e6,578.2470092773438,15.234566688537598,12.957596778869629,-577.892822265625
8.766161716171613e6,985.2763061523438,-14.707188606262207,-21.498369216918945,984.9271240234375
8.766161716171613e6,48.102664947509766,27.360139846801758,-22.67469596862793,32.2742805480957
8.766161716171613e6,62.895938873291016,29.9787654876709,52.560630798339844,16.88296890258789
8.766161716171613e6,474.3279724121094,-0.756086528301239,26.029720306396484,473.6025695800781
8.766161716171613e6,130.4476776123047,32.287044525146484,-13.697525978088379,125.6065444946289
8.766161716171613e6,626.147705078125,-22.99220085144043,3.795632839202881,-625.706298828125
8.766161716171613e6,28.909208297729492,-7.744931697845459,-27.678808212280273,0.3517272472381592
8.766161716171613e6,32.7639274597168,-11.894426345825195,-25.064722061157227,-17.153396606445312
8.766161716171613e6,75.93815612792969,-26.183685302734375,31.500844955444336,63.86859130859375
8.766161716171613e6,105.1153564453125,-2.0114102363586426,39.68747329711914,97.2655029296875
8.766161716171613e6,439.9873352050781,7.36379861831665,-28.02117919921875,-439.02154541015625
8.766161716171613e6,52.11882781982422,-40.4184455871582,22.360057830810547,-23.942237854003906
8.766161716171613e6,15.863375663757324,8.41936206817627,-10.143924713134766,8.267016410827637
8.766161716171613e6,52.105674743652344,-23.81424331665039,22.486413955688477,-40.407005310058594
8.766161716171613e6,1433.4166259765625,22.41187858581543,35.7524528503418,1432.7921142578125
8.766161716171613e6,175.12525939941406,17.988805770874023,-14.780020713806152,-173.5433349609375
8.766161716171613e6,23.245481491088867,13.23836898803711,-0.14896085858345032,18.856233596801758
8.766161716171613e6,29.680158615112305,29.17646026611328,-0.5618721842765808,4.4510722160339355
8.766161716171613e6,963.2557983398438,46.82088851928711,12.664432525634766,-962.0289306640625
8.766161716171613e6,78.83365631103516,32.876190185546875,-28.633769989013672,65.60861206054688
8.766161716171613e6,2070.33935546875,-4.902887344360352,28.193374633789062,-2070.139404296875
8.766161716171613e6,31.65198516845703,24.929344177246094,0.47636690735816956,-19.251771926879883
8.766161716171613e6,149.0123291015625,-12.514288902282715,8.928993225097656,148.1851043701172
8.766161716171613e6,481.12286376953125,-13.671008110046387,-30.589662551879883,-479.94488525390625
8.766161716171613e6,308.49871826171875,-27.869739532470703,2.2215681076049805,307.2137451171875
8.766161716171613e6,392.76068115234375,27.3662166595459,-34.457557678222656,390.27581787109375
8.766161716171613e6,23.344745635986328,-19.58717918395996,1.2492045164108276,12.257272720336914
8.766161716171613e6,73.40910339355469,50.39516830444336,-3.500544548034668,-53.17378234863281
8.766161716171613e6,47.84439468383789,40.29454040527344,24.65015411376953,6.948929786682129
8.766161716171613e6,29.372783660888672,22.684389114379883,-16.36032485961914,8.426173210144043
8.766161716171613e6,75.70299530029297,6.98262882232666,3.3596720695495605,75.24214935302734
8.766161716171613e6,40.2289924621582,2.7544233798980713,-32.8067512512207,-22.91252899169922
8.766161716171613e6,29.034339904785156,-9.687093734741211,25.482280731201172,-9.502007484436035
8.766161716171613e6,182.7415313720703,10.418160438537598,-30.987445831298828,-179.7670440673828
8.766161716171613e6,45.34822463989258,42.2341423034668,3.9444186687469482,-15.737282752990723
8.766161716171613e6,61.639949798583984,-32.14136505126953,22.397184371948242,47.48961639404297
8.766161716171613e6,1046.6497802734375,-5.022346019744873,-19.14812469482422,-1046.4580078125
8.766161716171613e6,374.093994140625,30.78527069091797,-41.52119445800781,-370.49298095703125
8.766161716171613e6,1846.80078125,-1.1211657524108887,-4.98976993560791,-1846.7911376953125
8.766161716171613e6,40.82423400878906,12.529069900512695,6.32746696472168,-38.211063385009766
8.766161716171613e6,160.3733673095703,-44.468292236328125,-6.038337707519531,153.93572998046875
8.766161716171613e6,310.5538024902344,44.803707122802734,-40.33967208862305,-304.6300964355469
8.766161716171613e6,483.5450439453125,10.833256721496582,10.959918022155762,483.28955078125
8.766161716171613e6,11.86674976348877,-6.044569492340088,-9.684328079223633,0.9891684055328369
8.766161716171613e6,7.115509033203125,-0.81468665599823,-2.105534076690674,6.001266956329346
8.766161716171613e6,1913.4515380859375,10.21147632598877,-20.285404205322266,1913.314208984375
8.766161716171613e6,2994.0751953125,45.50767135620117,6.7191290855407715,-2993.72021484375
8.766161716171613e6,2030.2371826171875,-20.710704803466797,-29.255123138427734,2029.91845703125
8.766161716171613e6,961.1451416015625,34.17709732055664,-21.964981079101562,-960.2811279296875
8.766161716171613e6,67.05254364013672,59.827571868896484,-13.81989574432373,-26.76187515258789
8.766161716171613e6,61.40412521362305,39.90109634399414,17.23492431640625,-43.26439666748047
8.766161716171613e6,524.5499877929688,-15.057181358337402,-6.972799777984619,-524.2783813476562
8.766161716171613e6,161.2403564453125,-25.0180606842041,9.847756385803223,158.95298767089844
8.766161716171613e6,236.93460083007812,-232.4782257080078,-41.96339797973633,-17.92848014831543
8.766161716171613e6,25.511043548583984,8.956685066223145,15.595162391662598,17.828733444213867
8.766161716171613e6,83.49044036865234,-43.881160736083984,-5.832155704498291,-70.72174835205078
8.766161716171613e6,20.96869659423828,-20.362377166748047,3.7240889072418213,1.2933576107025146
8.766161716171613e6,248.3843994140625,1.435062289237976,-48.79770278930664,243.52005004882812
8.766161716171613e6,795.42041015625,-0.9024432897567749,10.276227951049805,795.3475341796875
8.766161716171613e6,162.97364807128906,15.52383804321289,27.916484832763672,-159.7828826904297
8.766161716171613e6,147.62637329101562,-25.11250877380371,-26.92156982421875,-142.9287109375
8.766161716171613e6,42.55610656738281,40.02354431152344,6.397611141204834,12.597236633300781
8.766161716171613e6,106.87982177734375,39.93256759643555,30.517000198364258,94.27555847167969
8.766161716171613e6,301.3561096191406,-80.13337707519531,61.98533630371094,283.8000183105469
8.766161716171613e6,68.68144226074219,38.049652099609375,-2.406822443008423,57.044307708740234
8.766161716171613e6,59.21452331542969,0.9983335137367249,27.18470001220703,-52.50558853149414
8.766161716171613e6,31.13422203063965,-6.692292213439941,-10.042267799377441,28.533971786499023
8.766161716171613e6,144.94473266601562,43.00233840942383,0.4774066209793091,-138.3836212158203
8.766161716171613e6,88.9955825805664,-18.31928062438965,2.381779432296753,-87.00245666503906
8.766161716171613e6,578.3192749023438,-48.03143310546875,-11.249308586120605,-576.203125
8.766161716171613e6,255.98094177246094,-9.714221954345703,3.4812846183776855,255.75425720214844
8.766161716171613e6,1247.2264404296875,-1.1033767461776733,-14.83807373046875,-1247.1337890625
8.766161716171613e6,342.5916442871094,-1.4723254442214966,42.56201171875,-339.9203186035156
8.766161716171613e6,54.176204681396484,-29.83795166015625,5.009490013122559,44.83463668823242
8.766161716171613e6,89.0892562866211,-0.734481155872345,-30.381242752075195,-83.68881225585938
8.766161716171613e6,32.64179992675781,13.636038780212402,-24.927772521972656,15.76811408996582
8.766161716171613e6,41.786705017089844,39.97517013549805,10.718072891235352,4.870225429534912
8.766161716171613e6,34.551063537597656,-2.8922693729400635,34.17674255371094,-2.800494909286499
8.766161716171613e6,467.60467529296875,28.899276733398438,-6.070418834686279,-466.6611022949219
8.766161716171613e6,40.336158752441406,-14.128704071044922,-37.242828369140625,-5.553272724151611
8.766161716171613e6,247.2200469970703,-8.867756843566895,-29.614866256713867,-245.2601776123047
8.766161716171613e6,55.819000244140625,-23.73394012451172,35.163841247558594,-36.144805908203125
8.766161716171613e6,1074.6480712890625,22.548215866088867,15.19225788116455,1074.2996826171875
8.766161716171613e6,817.7952270507812,-19.802629470825195,16.115558624267578,817.3907470703125
8.766161716171613e6,1611.5321044921875,12.374564170837402,21.622787475585938,-1611.3365478515625
8.766161716171613e6,256.7830810546875,0.3619080185890198,15.456613540649414,-256.29864501953125
8.766161716171613e6,39.12779998779297,9.21204662322998,-36.719425201416016,-9.396207809448242
8.766161716171613e6,131.57571411132812,-8.121145248413086,-33.757843017578125,-126.8743667602539
8.766161716171613e6,85.829345703125,-12.103058815002441,-10.210444450378418,84.29959106445312
8.766161716171613e6,40.11944580078125,7.618913173675537,-22.526248931884766,-32.16476058959961
8.766161716171613e6,180.0774383544922,-10.802485466003418,-41.741275787353516,-174.8123016357422
8.766161716171613e6,854.4165649414062,30.95572280883789,59.30585861206055,851.7879638671875
8.766161716171613e6,635.3214111328125,19.29789161682129,37.1768684387207,633.9315795898438
8.766161716171613e6,790.4526977539062,0.1656629890203476,-5.64545202255249,790.4264526367188
8.766161716171613e6,2149.24169921875,-29.853471755981445,28.111295700073242,-2148.84814453125
8.766161716171613e6,51.26338577270508,10.921608924865723,21.621179580688477,45.07393264770508
8.766161716171613e6,273.33935546875,19.30213165283203,34.591331481933594,-270.4362487792969
8.766161716171613e6,601.4492797851562,0.09415321797132492,29.68475914001465,600.7083129882812
8.766161716171613e6,264.6665954589844,25.288482666015625,-13.412859916687012,-263.095947265625
8.766161716171613e6,86.95111846923828,-14.781561851501465,35.80454635620117,77.78507995605469
8.766161716171613e6,490.3843078613281,8.180508613586426,38.05801010131836,-488.82708740234375
8.766161716171613e6,247.42869567871094,5.648465156555176,-41.58164978027344,243.82473754882812
8.766161716171613e6,245.03712463378906,-32.889137268066406,-26.642383575439453,241.33412170410156
8.766161716171613e6,22.3291015625,-8.743138313293457,10.956170082092285,17.10527229309082
8.766161716171613e6,39.270565032958984,-10.155051231384277,13.601251602172852,-35.278038024902344
8.766161716171613e6,859.9503173828125,17.871658325195312,-34.2457275390625,859.0767211914062
8.766161716171613e6,22.850425720214844,22.12635040283203,3.6199557781219482,3.1534340381622314
8.766161716171613e6,1817.49169921875,-4.3804240226745605,18.028079986572266,1817.394287109375
8.766161716171613e6,61.150962829589844,-3.60174822807312,27.593265533447266,-54.36507034301758
8.766161716171613e6,746.9188842773438,-39.3668098449707,-20.571195602416992,745.5906372070312
8.766161716171613e6,47.72533416748047,-8.83413314819336,-6.366111755371094,-46.36399459838867
8.766161716171613e6,44.24361801147461,-41.670379638671875,-2.757556676864624,14.281272888183594
8.766161716171613e6,75.95085144042969,-29.92677879333496,36.56111526489258,59.38591003417969
8.766161716171613e6,24.70146369934082,-0.7172653079032898,21.665531158447266,-11.433910369873047
8.766161716171613e6,1336.5496826171875,-20.783004760742188,31.69698715209961,1336.008544921875
8.766161716171613e6,44.035518646240234,-30.625518798828125,-4.097309589385986,31.223360061645508
8.766161716171613e6,342.23358154296875,35.514617919921875,9.507072448730469,340.23907470703125
8.766161716171613e6,715.5125732421875,40.69295120239258,-11.718287467956543,-714.2516479492188
8.766161716171613e6,365.72625732421875,-37.49666213989258,11.32511043548584,363.6095886230469
8.766161716171613e6,124.47969818115234,-30.116647720336914,-16.51417350769043,-119.60747528076172
8.766161716171613e6,1121.63916015625,37.02452087402344,-17.015092849731445,-1120.89453125
8.766161716171613e6,28.40025520324707,15.035982131958008,-23.60329818725586,3.722869873046875
8.766161716171613e6,148.31195068359375,-21.034887313842773,-18.09339141845703,145.66082763671875
8.766161716171613e6,69.41378021240234,24.1435604095459,-30.458385467529297,57.42934036254883
8.766161716171613e6,216.68511962890625,-14.636754989624023,-19.643245697021484,-215.2738494873047
8.766161716171613e6,26.16907501220703,13.558951377868652,15.87801456451416,15.470803260803223
8.766161716171613e6,39.44934844970703,9.748730659484863,-31.784297943115234,21.01079750061035
8.766161716171613e6,369.5714111328125,13.974174499511719,-39.418540954589844,-367.1844177246094
8.766161716171613e6,77.10404205322266,13.744657516479492,37.391178131103516,65.94315338134766
8.766161716171613e6,73.1350326538086,-20.733339309692383,41.829872131347656,-56.21036148071289
8.766161716171613e6,59.6684684753418,-6.8943071365356445,22.902353286743164,-54.578006744384766
8.766161716171613e6,230.32815551757812,-21.333528518676758,24.99252700805664,-227.95130920410156
8.766161716171613e6,507.0328674316406,-13.838683128356934,37.02187728881836,-505.48065185546875
8.766161716171613e6,156.60581970214844,33.90232467651367,41.323326110839844,147.16957092285156
8.766161716171613e6,708.8784790039062,-56.787994384765625,-9.826422691345215,-706.5250854492188
8.766161716171613e6,26.952009201049805,-5.128362655639648,26.217836380004883,-1.793716311454773
8.766161716171613e6,444.98040771484375,24.539716720581055,17.086755752563477,-443.9638671875
8.766161716171613e6,74.97089385986328,-5.810500621795654,53.782711029052734,-51.814815521240234
8.766161716171613e6,1639.2803955078125,-18.12428092956543,-23.440998077392578,1639.0096435546875
8.766161716171613e6,57.71669387817383,17.253568649291992,-28.006229400634766,-47.32508850097656
8.766161716171613e6,68.7530288696289,-5.047983646392822,18.78592300415039,-65.8716049194336
8.766161716171613e6,211.21775817871094,1.9319407939910889,-37.341495513916016,207.85885620117188
8.766161716171613e6,54.14337921142578,18.932085037231445,-4.141958236694336,-50.46194076538086
8.766161716171613e6,43.3347053527832,25.925819396972656,16.500795364379883,30.396615982055664
8.766161716171613e6,77.59944915771484,-13.178857803344727,34.30155563354492,68.27794647216797
8.766161716171613e6,36.71146011352539,7.36619758605957,-8.696003913879395,34.76106643676758
8.766161716171613e6,486.4903259277344,-34.89179229736328,4.196814060211182,-485.2095031738281
8.766161716171613e6,555.5452880859375,22.430885314941406,27.165538787841797,554.4185791015625
8.766161716171613e6,14.492520332336426,1.1759018898010254,10.403453826904297,9.534163475036621
8.766161716171613e6,39.303955078125,32.85270309448242,-5.784337997436523,20.555383682250977
8.766161716171613e6,57.58347702026367,-0.5418832302093506,-21.160276412963867,-53.462955474853516
8.766161716171613e6,564.2500610351562,-46.6112060546875,-7.837746620178223,562.2584838867188
8.766161716171613e6,113.1065673828125,-24.28175163269043,-2.644127607345581,110.39466857910156
8.766161716171613e6,74.49895477294922,38.987709045410156,2.5390164852142334,63.35682678222656
8.766161716171613e6,432.961181640625,-21.289627075195312,-36.954917907714844,430.844482421875
8.766161716171613e6,655.866943359375,-24.56646728515625,16.858741760253906,655.1825561523438
8.766161716171613e6,53.834983825683594,-12.419624328613281,-34.71043395996094,39.11043167114258
8.766161716171613e6,1119.1251220703125,-52.9486083984375,16.417695999145508,1117.7470703125
8.766161716171613e6,64.65796661376953,15.236000061035156,-55.07631301879883,-30.093170166015625
8.766161716171613e6,851.7137451171875,-30.4754638671875,15.2093505859375,851.02685546875
8.766161716171613e6,115.31095123291016,-5.669776439666748,-35.11627197265625,109.64396667480469
8.766161716171613e6,25.399017333984375,-23.569124221801758,-8.918479919433594,-0.740890622138977
8.766161716171613e6,125.92047882080078,15.62726879119873,-10.455303192138672,-124.47057342529297
8.766161716171613e6,140.82989501953125,34.265201568603516,23.218746185302734,-134.57461547851562
8.766161716171613e6,14.76231575012207,8.870948791503906,-7.2929511070251465,8.747961044311523
8.766161716171613e6,73.8641128540039,-49.777488708496094,-37.417396545410156,39.60466384887695
8.766161716171613e6,541.3660278320312,-10.29919147491455,-22.92778968811035,-540.7734375
8.766161716171613e6,64.17552185058594,-26.00637435913086,-16.49042320251465,56.22023010253906
8.766161716171613e6,1169.6484375,-16.56862449645996,9.886926651000977,1169.4852294921875
8.766161716171613e6,27.769651412963867,-19.284137725830078,-2.526526927947998,-19.579936981201172
8.766161716171613e6,176.4298553466797,-5.638145446777344,-26.095867156982422,174.370849609375
8.766161716171613e6,18.852706909179688,17.35323143005371,6.069765090942383,-2.8159639835357666
8.766161716171613e6,194.4005889892578,-3.9840824604034424,42.88875961303711,189.5435333251953
8.766161716171613e6,290.04595947265625,-2.6713173389434814,32.29850769042969,288.213134765625
8.766161716171613e6,150.4044189453125,-43.658382415771484,-24.438684463500977,141.80503845214844
8.766161716171613e6,24.473920822143555,-20.954500198364258,5.2194905281066895,-11.095962524414062
8.766161716171613e6,20.047815322875977,17.856382369995117,2.2614896297454834,8.272356033325195
8.766161716171613e6,166.2467803955078,5.08373498916626,-29.67229652404785,-163.46920776367188
8.766161716171613e6,162.6426239013672,-36.92840576171875,-22.786489486694336,156.71685791015625
8.766161716171613e6,202.58383178710938,7.901122093200684,-24.1046085357666,-200.9657440185547
8.766161716171613e6,115.9200210571289,30.021739959716797,-30.953367233276367,-107.55703735351562
8.766161716171613e6,22.867204666137695,-16.772781372070312,-14.928098678588867,3.035862684249878
8.766161716171613e6,1058.9112548828125,-17.095596313476562,-42.60904312133789,1057.9111328125
8.766161716171613e6,201.83702087402344,-10.564119338989258,-17.61041259765625,200.765869140625
8.766161716171613e6,723.0302734375,-13.219273567199707,-14.355299949645996,-722.7603149414062
8.766161716171613e6,109.5742416381836,-37.696659088134766,-10.564038276672363,102.29545593261719
8.766161716171613e6,62.071983337402344,38.34931564331055,31.16273307800293,-37.43830871582031
8.766161716171613e6,1130.3372802734375,-20.1525821685791,-7.748758792877197,1130.126953125
8.766161716171613e6,796.7406005859375,31.771570205688477,-20.673452377319336,-795.8323974609375
8.766161716171613e6,29.6049861907959,-20.811439514160156,20.4575138092041,-3.9129438400268555
8.766161716171613e6,119.67557525634766,-15.214456558227539,-30.691333770751953,-114.62672424316406
8.766161716171613e6,334.5210266113281,-19.13690757751465,-10.406803131103516,333.7967834472656
8.766161716171613e6,242.8131866455078,30.282167434692383,31.86041831970215,-238.78155517578125
8.766161716171613e6,39.59237289428711,-21.013023376464844,19.784666061401367,-26.92689323425293
8.766161716171613e6,148.47718811035156,14.75740909576416,30.58086585998535,144.5094757080078
8.766161716171613e6,83.57329559326172,23.430980682373047,48.486473083496094,-63.83594512939453
8.766161716171613e6,870.201171875,-0.8802230358123779,25.56035041809082,-869.8197631835938
8.766161716171613e6,465.2981262207031,-8.440402030944824,-19.16035270690918,-464.81658935546875
8.766161716171613e6,1355.9451904296875,24.504541397094727,-18.737747192382812,-1355.5906982421875
8.766161716171613e6,153.1181640625,-27.305456161499023,-29.032758712768555,147.807861328125
8.766161716171613e6,25.092947006225586,-0.5319071412086487,21.79299545288086,-12.038280487060547
8.766161716171613e6,83.56451416015625,-3.606375217437744,-0.9295318722724915,83.42445373535156
8.766161716171613e6,296.8888854980469,-11.130976676940918,-28.515880584716797,-295.2904357910156
8.766161716171613e6,76.99213409423828,17.446794509887695,-23.126211166381836,-71.26750946044922
8.766161716171613e6,750.584716796875,-6.538125514984131,-41.68155288696289,-749.3916015625
8.766161716171613e6,219.6436767578125,61.785919189453125,-4.703405380249023,210.69932556152344
8.766161716171613e6,2680.597412109375,-9.967080116271973,-27.032543182373047,2680.440673828125
8.766161716171613e6,416.6476745605469,-33.57316207885742,-28.00910186767578,-414.3357238769531
8.766161716171613e6,74.1458740234375,23.524473190307617,34.92302322387695,60.9514045715332
8.766161716171613e6,1479.04052734375,-21.071237564086914,-35.83903503417969,1478.452880859375
8.766161716171613e6,570.7890625,39.734588623046875,-10.055662155151367,-569.3071899414062
8.766161716171613e6,168.31878662109375,-37.91191864013672,13.728978157043457,-163.3887939453125
8.766161716171613e6,45.290382385253906,-2.0564393997192383,-38.735801696777344,-23.173460006713867
8.766161716171613e6,260.8795166015625,-48.7572021484375,-19.936668395996094,-255.48751831054688
8.766161716171613e6,58.524078369140625,30.923622131347656,20.064828872680664,-45.350650787353516
8.766161716171613e6,88.13642883300781,24.341651916503906,-10.187994956970215,-84.03690338134766
8.766161716171613e6,35.34686279296875,32.378318786621094,-11.648974418640137,7.471836566925049
8.766161716171613e6,848.1447143554688,-18.407278060913086,6.68054723739624,847.9130249023438
8.766161716171613e6,161.86354064941406,7.7895660400390625,26.352432250976562,-159.48403930664062
8.766161716171613e6,161.06292724609375,-38.400299072265625,-1.930849552154541,156.37594604492188
8.766161716171613e6,38.35449981689453,-13.77283763885498,30.240360260009766,-18.90447235107422
8.766161716171613e6,486.1600341796875,-76.60265350341797,5.793918609619141,480.0422058105469
8.766161716171613e6,74.09371185302734,-20.21681785583496,29.997474670410156,64.58940887451172
8.766161716171613e6,85.59132385253906,-1.748328685760498,41.09419631958008,-74.99710845947266
8.766161716171613e6,304.4994201660156,-36.28006362915039,4.856189727783203,-302.275634765625
8.766161716171613e6,39.48991394042969,16.96046257019043,10.054120063781738,34.07627487182617
8.766161716171613e6,813.4276733398438,28.0989990234375,-14.89492416381836,-812.7998657226562
8.766161716171613e6,97.43821716308594,2.4070518016815186,28.275991439819336,-93.16309356689453
8.766161716171613e6,1183.2818603515625,-18.275686264038086,38.384033203125,-1182.513916015625
8.766161716171613e6,612.42529296875,24.627893447875977,28.0230712890625,611.2801513671875
8.766161716171613e6,56.04367446899414,-36.34413528442383,-19.068077087402344,-38.0379753112793
8.766161716171613e6,474.4750671386719,46.900962829589844,32.54819869995117,-471.01800537109375
8.766161716171613e6,554.5283813476562,9.251788139343262,-0.6910945773124695,554.4421997070312
8.766161716171613e6,53.23636245727539,48.046146392822266,-17.71414566040039,14.225646018981934
8.766161716171613e6,291.7340393066406,25.326683044433594,-11.321826934814453,-290.3955993652344
8.766161716171613e6,60.93709182739258,2.2407867908477783,32.337852478027344,51.50779724121094
8.766161716171613e6,1051.77880859375,5.791505813598633,-47.4281120300293,1050.6883544921875
8.766161716171613e6,10.999715805053711,-2.4601502418518066,6.529442310333252,-7.923984050750732
8.766161716171613e6,99.7119140625,33.35084915161133,23.136913299560547,-91.0239028930664
8.766161716171613e6,16.265535354614258,-2.566450595855713,0.6392257213592529,-15.749732971191406
8.766161716171613e6,27.523500442504883,10.184826850891113,23.204591751098633,-10.287904739379883
8.766161716171613e6,50.818336486816406,-37.54437255859375,1.522391676902771,-34.07473373413086
8.766161716171613e6,141.22048950195312,-3.488370656967163,23.159337997436523,-139.23068237304688
8.766161716171613e6,124.63858795166016,6.342319488525391,12.56036376953125,-123.80335998535156
8.766161716171613e6,586.97314453125,32.85334777832031,-7.0484418869018555,-586.0025024414062
8.766161716171613e6,68.6097640991211,8.162923812866211,-61.50968551635742,-29.115394592285156
8.766161716171613e6,22.537036895751953,12.000457763671875,-11.277101516723633,-15.073676109313965
8.766161716171613e6,11.15798282623291,-4.626861095428467,5.218302249908447,-8.145169258117676
8.766161716171613e6,198.97262573242188,27.760833740234375,23.504819869995117,-195.59512329101562
8.766161716171613e6,56.66171646118164,-8.88137149810791,-13.16346549987793,-54.303558349609375
8.766161716171613e6,280.764892578125,16.55719566345215,21.284015655517578,-279.4499206542969
8.766161716171613e6,25.1970272064209,20.074403762817383,0.10761358588933945,-14.912365913391113
8.766161716171613e6,123.6048812866211,26.597461700439453,-40.825523376464844,113.553955078125
8.766161716171613e6,227.56109619140625,-36.721797943115234,33.88594436645508,221.9860076904297
8.766161716171613e6,27.623058319091797,-26.976133346557617,1.699949026107788,-4.786800861358643
8.766161716171613e6,19.919307708740234,-10.44944953918457,4.573105335235596,16.03609275817871
8.766161716171613e6,18.40648078918457,-6.428919315338135,15.411009788513184,7.102820873260498
8.766161716171613e6,57.20854187011719,-24.88138771057129,23.7552490234375,-45.60596466064453
8.766161716171613e6,38.47230529785156,26.57664680480957,-27.06686782836914,-5.627297401428223
8.766161716171613e6,14.02318000793457,-2.336207151412964,-4.327017307281494,-12.765201568603516
8.766161716171613e6,102.70641326904297,-7.857283592224121,-53.15562057495117,87.47474670410156
8.766161716171613e6,18.941896438598633,-8.566064834594727,7.939863204956055,14.5896635055542
